<?xml version="1.0"?>
<opencv_storage>
<my_svm type_id="opencv-ml-svm">
  <svm_type>C_SVC</svm_type>
  <kernel><type>LINEAR</type></kernel>
  <C>1.</C>
  <term_criteria><epsilon>2.2204460492503131e-016</epsilon>
    <iterations>100</iterations></term_criteria>
  <var_all>10000</var_all>
  <var_count>10000</var_count>
  <class_count>2</class_count>
  <class_labels type_id="opencv-matrix">
    <rows>1</rows>
    <cols>2</cols>
    <dt>i</dt>
    <data>
      -1 1</data></class_labels>
  <sv_total>1</sv_total>
  <support_vectors>
    <_>
      0. 4.42463352e-004 0. 0. 4.10649052e-004 0. 0. 1.16611074e-003 0.
      0. 0. 0. 1.95287936e-003 2.58763204e-004 0. 0. 0. 2.12919826e-004
      3.62640363e-004 0. 0. 0. 0. 2.51438725e-003 2.12919826e-004 0. 0.
      0. 0. 0. 0. 7.06652296e-004 0. 0. 0. 0. 0. 6.68614230e-004
      1.75474022e-004 0. 1.92493433e-004 0. 5.57656866e-004
      4.07437154e-004 0. 6.76822732e-004 0. 0. 6.97670097e-004 0. 0. 0.
      0. 0. 0. 0. 2.99099163e-004 6.76822732e-004 2.07112380e-003 0. 0.
      2.31452822e-003 4.18448646e-004 0. 0. 5.57332707e-004 0. 0. 0. 0.
      0. 0. 0. 1.02391718e-002 8.67459632e-004 -2.15802267e-002
      1.33643544e-003 0. 0. 0. 0. 0. 8.30631994e-004 0. 0. 0.
      8.80340463e-004 2.03999877e-003 0. 0. 0. 0. 0. 1.72682619e-003 0.
      3.53326148e-004 1.11800083e-003 5.27014316e-004 0. 0.
      1.54798312e-004 0. 0. 0. 3.90380563e-004 0. 1.72430277e-003 0. 0.
      0. 0. 1.34543690e-003 0. 2.84459587e-004 1.09073927e-003 0.
      2.91597768e-004 3.84279498e-004 0. 0. 5.26659831e-004
      1.90007745e-003 1.41116767e-003 0. 0. 4.17416333e-004
      3.76185955e-004 0. 4.84481890e-004 0. 0. 0. 0. 0. 0. 0. 0.
      2.69248732e-003 4.71821375e-004 4.33729816e-004 0. 0. 0. 0. 0.
      1.70113577e-003 0. 1.05331966e-003 2.91359611e-004 2.62896327e-004
      0. 3.31397750e-004 2.91597768e-004 2.13782580e-004 4.31549782e-003
      1.92988489e-003 0. 0. 5.39077795e-004 0. 6.76822732e-004 0. 0. 0.
      0. 4.94999695e-004 1.53041317e-003 1.95190281e-004 0.
      1.03370054e-003 0. 4.71821375e-004 0. 0. 7.50663632e-004
      4.15315997e-004 0. 4.94999695e-004 0. 0. 0. 0. 0. 0. 0.
      1.11800083e-003 0. 0. -1.78617183e-002 1.01774256e-003 0.
      3.31397750e-004 5.57656866e-004 1.03129493e-003 0. 4.84481890e-004
      0. 5.89774316e-003 0. 0. 0. 6.04699191e-004 4.40194883e-004
      1.05346041e-003 5.57862339e-004 7.06652296e-004 0. 0. 0. 0. 0.
      7.68126512e-004 1.70113577e-003 2.06258986e-003 1.49629923e-004 0.
      0. 0. 0. 0. 0. 8.29266210e-004 0. 0. 1.86680205e-004 0. 0. 0.
      1.49629923e-004 0. 2.98676523e-003 0. 0. 1.34797127e-003 0. 0.
      7.32965767e-004 0. 1.49629923e-004 0. 0. 9.96833434e-004
      2.98583903e-003 6.18478400e-004 0. 1.03129493e-003 0. 0. 0. 0. 0.
      8.67459632e-004 0. 5.39060857e-004 7.59497460e-004 2.05582153e-004
      0. 7.65206583e-004 2.99099163e-004 0. 0. 2.13782580e-004
      9.89999389e-004 0. 0. -2.17391308e-002 0. 0. 0. 0. 0.
      4.45730286e-003 0. 0. 2.74939463e-003 0. 0. 0. 2.80432345e-004
      -1.61290318e-002 3.84279498e-004 1.19738514e-003 0.
      3.82485637e-003 0. 4.40194883e-004 0. 4.40194883e-004 0. 0.
      1.70946703e-004 0. 0. 4.40194883e-004 5.27014316e-004 0. 0. 0. 0.
      6.66309556e-004 0. 4.88805526e-004 0. 1.11466541e-003
      3.09239200e-004 4.25839651e-004 0. 6.04699191e-004 0. 0. 0.
      2.10448820e-003 0. 0. 0. 0. 8.50567885e-004 4.33729816e-004 0. 0.
      0. 1.11466541e-003 2.91597768e-004 2.12919826e-004 0. 0. 0. 0. 0.
      0. 0. 8.30631994e-004 1.99286337e-003 0. 0. 0. 1.01774256e-003
      2.48348294e-003 0. 0. 0. 0. 0. 3.58439400e-004 3.26755550e-003
      4.34204994e-004 0. 0. 6.13638957e-004 0. 5.27014316e-004
      2.58763204e-004 4.52876789e-004 -2.18165964e-002 2.00051605e-003
      0. 0. 0. 0. 9.75441595e-004 0. 0. 9.75441595e-004 0. 0. 0. 0. 0.
      0. 0. 4.75749839e-004 0. 0. 0. 1.57933834e-003 0. 1.15467934e-003
      0. 0. 0. 0. 0. 1.44513394e-003 0. 1.49338262e-003 1.75474022e-004
      0. 1.04110595e-003 2.62896327e-004 1.54201756e-003 0. 0.
      2.15119612e-003 0. 0. 0. 0. 4.17416333e-004 0. 0. 0.
      -2.17391308e-002 0. 3.05568421e-004 0. 0. 2.08735769e-003
      2.83036992e-004 0. 0. 0. 4.14633105e-004 4.34204994e-004 0.
      3.09239200e-004 2.44425819e-003 0. 0. 0. 4.17416333e-004 0.
      8.62151384e-004 0. 0. 0. 5.26659831e-004 3.45022231e-003
      2.83036992e-004 0. 0. 0. 4.84713237e-004 0. 4.15315997e-004 0.
      7.65206583e-004 0. 1.95287936e-003 5.84558409e-004 0.
      4.10649052e-004 0. 1.54798312e-004 0. 4.75749839e-004 0.
      7.78657501e-004 0. 0. 0. 0. 0. 0. 1.22212910e-003 0. 0. 0.
      1.05623202e-003 0. 5.27014316e-004 0. 4.34204994e-004 0. 0. 0. 0.
      0. -1.41558833e-002 0. 0. 0. 0. 0. 0. 0. 0. 0. 1.49629923e-004 0.
      0. 3.82485637e-003 0. 0. 1.95287936e-003 1.19738514e-003 0. 0. 0.
      0. 0. 0. 0. 0. 2.84459587e-004 2.10448820e-003 0. 0. 0. 0.
      9.02727188e-004 2.12919826e-004 0. 0. 2.62896327e-004 0.
      5.51096804e-004 0. 0. 1.15718972e-003 0. 4.09898988e-004
      6.04699191e-004 0. 1.11914519e-003 4.14633105e-004 0. 0. 0. 0.
      2.03548511e-003 0. 4.33729816e-004 0. 0. 3.58439400e-004 0. 0. 0.
      1.10969960e-003 0. 0. 0. 0. 0. 0. 4.75749839e-004 1.11800083e-003
      5.26422053e-004 0. 0. 2.84459587e-004 0. 0. 0. 0. 0. 0. 0.
      2.05582153e-004 0. 3.50948045e-004 0. 0. 4.32464149e-004 0.
      3.31397750e-004 0. 3.00265453e-003 4.07437154e-004 8.30631994e-004
      0. 0. 0. 0. 0. 7.50663632e-004 0. 0. 4.34204994e-004 0.
      4.10649052e-004 2.69248732e-003 3.94377974e-004 0. 1.16911682e-003
      4.15315997e-004 0. 0. 6.41347782e-004 0. 0. 0. 0. 0. 0. 0.
      1.05331048e-004 3.58439400e-004 0. 2.18611024e-003 7.68558995e-004
      1.94487232e-003 0. 0. 0. 0. 3.36105964e-004 6.04699191e-004
      1.89734052e-003 0. 1.92493433e-004 0. 6.04699191e-004
      5.57332707e-004 4.07437154e-004 0. 0. 5.84558409e-004
      1.13171351e-003 0. 0. 0. 1.64360928e-004 0. 2.00584275e-003 0. 0.
      0. 0. 0. 1.52825014e-004 0. 0. 5.26659831e-004 0. 9.75921866e-004
      0. 0. 0. 0. 0. 3.42375948e-003 0. 3.82485637e-003 0. 0. 0.
      6.68614230e-004 5.97307633e-004 2.41289599e-004 0. 4.40194883e-004
      2.99099163e-004 1.95287936e-003 0. 0. 1.75367529e-003 0. 0.
      3.27133108e-004 0. 0. 4.51363594e-004 0. 0. 3.27133108e-004 0. 0.
      0. 0. 7.76300847e-004 0. 0. 0. -1.84940714e-002 2.83036992e-004 0.
      4.17416333e-004 0. 0. 0. 0. 0. 0. 0. 1.03129493e-003 0. 0. 0. 0.
      0. 6.04699191e-004 5.57656866e-004 0. 0. 0. 2.41289599e-004 0. 0.
      0. 0. 0. 2.84459587e-004 0. 7.78761576e-004 0. 1.49338262e-003 0.
      1.54798312e-004 0. 4.34204994e-004 2.91597768e-004 2.80432345e-004
      1.95088319e-003 0. 1.71141408e-003 0. -1.79544874e-002
      2.10662096e-004 0. 0. 0. 0. 0. 3.82485637e-003 0. 0.
      4.34204994e-004 0. 1.16031722e-003 0. 0. 0. 4.17416333e-004 0. 0.
      2.99259846e-004 6.15139899e-004 0. 9.75441595e-004 0.
      3.53326148e-004 0. 0. 0. 5.23779716e-004 0. 0. 0. 3.94377974e-004
      4.52876789e-004 0. 0. 1.52825014e-004 0. -1.61290318e-002
      3.36655881e-003 1.59041525e-003 1.70946703e-004 0.
      -6.52173907e-002 1.33722846e-003 0. 0. 0. 0. 0. -2.00132672e-002
      0. 4.88805526e-004 5.26446092e-004 0. 0. 0. 0. 0. 0. 0.
      1.38685992e-003 0. 0. 0. 4.15315997e-004 0. 1.70472125e-003 0. 0.
      9.60396836e-004 0. 9.07254172e-004 3.31397750e-004 0. 0. 0. 0. 0.
      6.80840341e-004 0. 0. 4.58475028e-004 0. 0. 8.32732301e-004 0. 0.
      0. 5.40388748e-004 1.01774256e-003 1.01774256e-003 0. 0.
      1.45057042e-003 1.86680205e-004 0. 0. 0. 1.16031722e-003
      4.52876789e-004 0. 0. 0. 6.97392796e-004 9.75441595e-004 0. 0.
      1.02894986e-003 0. 1.95190281e-004 0. 0. 6.76822732e-004
      3.64229287e-004 0. 0. 0. 0. 0. 0. 0. 1.11800083e-003
      1.64360928e-004 1.86353328e-003 0. 0. 0. 0. 3.94377974e-004
      3.62640363e-004 0. 0. 0. 0. 0. 0. 2.99099163e-004 0. 0. 0.
      2.15119612e-003 0. 1.54798312e-004 0. 1.70946703e-004 0. 0. 0.
      4.40194883e-004 0. 0. 0. 1.95287936e-003 1.86353328e-003 0. 0. 0.
      8.62151384e-004 0. 5.57332707e-004 0. 4.14633105e-004
      3.58439400e-004 0. 0. 0. 0. 0. 0. 2.12919826e-004 0.
      4.33729816e-004 3.53326148e-004 2.83036992e-004 1.70946703e-004 0.
      0. 0. 0. 6.15139899e-004 0. 0. 5.14446059e-004 5.14446059e-004
      4.09898988e-004 0. 0. 1.50132726e-003 0. 0. 0. 0. 0.
      -2.17391308e-002 0. 7.68558995e-004 0. 0. 0. 0. 0. 0.
      2.98676523e-003 0. 0. 0. 2.10852246e-003 0. 0. 0. 0. 0. 0.
      5.84558409e-004 0. 4.09898988e-004 2.56741000e-003 0. 0. 0.
      1.07770949e-003 0. 0. 1.26436178e-003 3.64229287e-004 0.
      3.20775993e-003 1.57933834e-003 0. 0. 3.53326148e-004
      7.25280726e-004 0. 0. 4.40194883e-004 0. 0. 2.83036992e-004 0. 0.
      0. 2.56861257e-003 0. 1.05402863e-003 0. 0. 0. 0. 0.
      2.05582153e-004 0. 0. 0. 0. 4.40194883e-004 2.15119612e-003 0. 0.
      6.79672172e-004 -4.25522365e-002 0. 0. 0. 0. 0. 4.27565159e-004 0.
      -1.56145860e-002 4.33729816e-004 6.33758493e-004 3.58439400e-004
      1.70946703e-004 0. 5.98851359e-004 0. 3.53326148e-004 0.
      2.80432345e-004 6.66309556e-004 0. 1.03752478e-003 0.
      2.84459587e-004 1.05331048e-004 1.01774256e-003 0. 0.
      1.75474022e-004 2.91359611e-004 0. 8.48994707e-004 0.
      9.89999389e-004 0. 0. 3.40836891e-003 0. 0. -2.17095315e-002 0.
      -1.74216367e-002 2.07657996e-003 0. 0. 3.27133108e-004
      5.14446059e-004 0. 0. 0. 7.64971273e-003 4.52876789e-004 0.
      2.00051605e-003 1.26412942e-003 0. 2.84459587e-004 0. 0. 0. 0. 0.
      8.62151384e-004 0. 0. 1.22212910e-003 0. 5.57332707e-004 0.
      8.50567885e-004 0. 0. 2.27543502e-003 0. 2.91597768e-004 0.
      2.06316076e-003 9.75441595e-004 0. 4.63460106e-004 2.83036992e-004
      -4.34782617e-002 1.05331048e-004 0. 0. 0. 0. 0. 0. 0.
      1.47487779e-004 0. 0. 0. 0. 5.57656866e-004 1.03129493e-003 0. 0.
      0. 0. 4.10649052e-004 7.50663632e-004 0. 8.68409988e-004 0. 0. 0.
      0. 0. 1.32823351e-003 -2.08885632e-002 0. 0. 2.67056213e-003
      -2.17391308e-002 0. 0. 0. 0. 0. 2.41289599e-004 0. 0. 0. 0. 0. 0.
      1.75474022e-004 5.26446092e-004 0. 0. 0. 0. 0. 0. 0.
      5.26446092e-004 3.50948045e-004 0. 0. 1.68608385e-003 0. 0.
      3.53326148e-004 0. 0. 0. 0. 0. 0. 0. 0. 0. 0. 0. 0. 0. 0. 0. 0. 0.
      0. 1.33643544e-003 0. 0. 0. 5.14446059e-004 0. 0. 0. 0. 0. 0. 0.
      1.49291952e-003 0. 0. 0. 2.58763204e-004 0. 0. 1.52892887e-003
      5.51096804e-004 0. 0. 0. 0. 1.35364546e-003 0. 0. 0.
      3.84279498e-004 0. 0. 0. 0. 0. 0. 0. 6.80840341e-004 0. 0. 0. 0.
      0. 2.13782580e-004 1.66966533e-003 6.67678600e-004 0. 0. 0.
      1.54798312e-004 0. 0. 6.53583731e-004 0. 0. 1.42023386e-003
      1.75474022e-004 0. 2.61565601e-003 0. 0. 1.09233963e-003 0. 0. 0.
      4.34204994e-004 0. 0. 7.45763304e-004 0. 0. 0. 5.57332707e-004
      1.86353328e-003 4.94999695e-004 7.25280726e-004 1.50132726e-003 0.
      0. 0. 0. 0. 0. 0. 7.50663632e-004 0. 6.80840341e-004 0. 0.
      2.41289599e-004 0. 1.70946703e-004 0. 0. 0. 0. 0. 7.65206583e-004
      0. 9.75441595e-004 1.51348871e-003 0. 1.11531373e-003
      1.82682823e-003 0. 1.95287936e-003 1.95190281e-004 3.09239200e-004
      0. 1.00795669e-003 0. 1.92493433e-004 0. 4.30239225e-003 0.
      1.42839167e-003 0. 0. 4.00930643e-003 0. 0. 0. 0. 4.34204994e-004
      0. 0. 0. 7.16878800e-004 0. 2.10662096e-004 0. 0. 6.93429960e-004
      0. 0. -1.56776682e-002 0. 0. 0. 0. 1.44513394e-003 0.
      4.33729816e-004 4.14633105e-004 2.34395056e-003 6.03929977e-004 0.
      0. 0. 0. 4.93352185e-004 9.36913304e-004 0. 0. 0. 5.74259902e-004
      3.47007252e-003 0. 0. 0. 0. 0. 0. 0. 1.37565448e-003 0.
      1.16611074e-003 1.25224900e-003 2.84459587e-004 0.
      -1.52668804e-002 5.26446092e-004 6.56375836e-004 1.05220824e-003
      0. 0. 0. 0. 0. 0. 8.50567885e-004 0. 1.64360928e-004 0. 0.
      5.33587066e-004 0. 8.21298105e-004 0. 0. 0. 4.14633105e-004 0.
      1.86599931e-003 3.64229287e-004 -2.13734247e-002 0.
      5.66073984e-004 2.23600166e-003 0. 6.66309556e-004 0. 0. 0. 0. 0.
      3.62640363e-004 1.47487779e-004 3.05568421e-004 0. 0.
      1.28590828e-003 0. 3.82485637e-003 2.58763204e-004 1.55752315e-003
      0. 0. 0. 0. 0. 0. 1.01774256e-003 3.82485637e-003 0. 0. 0. 0.
      4.71821375e-004 0. 0. 0. 0. 0. 0. 0. 0. 3.94377974e-004
      6.66309556e-004 0. 0. 0. 0. 4.71821375e-004 1.06110226e-003 0. 0.
      0. 1.69798941e-003 9.75441595e-004 4.63636406e-003 0.
      1.00736774e-003 1.54798312e-004 0. 5.84558409e-004 0. 0.
      1.89757475e-003 0. 0. 0. 2.03548511e-003 0. 5.26446092e-004
      3.53326148e-004 0. 0. 0. 0. 1.16611074e-003 1.86680205e-004
      9.15772107e-004 0. 3.84279498e-004 0. 1.83759292e-003
      1.23447424e-003 0. 0. 0. 3.01973638e-003 0. 7.04820501e-004 0.
      1.05402863e-003 8.50567885e-004 5.57332707e-004 0. 0. 0.
      8.19797977e-004 0. 4.40194883e-004 2.13782580e-004 1.31049426e-003
      0. 0. 0. 0. 4.94999695e-004 0. 3.40944249e-003 8.50567885e-004 0.
      -2.17391308e-002 0. 1.49291952e-003 0. 0. 0. 0. 0. 0. 0. 0. 0.
      4.25839651e-004 1.01224403e-003 0. 0. 2.65689194e-003
      5.84558409e-004 1.77044293e-003 1.34624366e-003 4.51363594e-004 0.
      0. 0. 0. 7.50663632e-004 0. 0. 1.33643544e-003 5.25792653e-004 0.
      9.75441595e-004 3.34009132e-003 2.81750574e-003 0. 0. 0. 0. 0. 0.
      0. 0. 0. 4.34204994e-004 0. 0. 1.53041317e-003 0. 5.26659831e-004
      4.51363594e-004 0. 0. 0. 0. 0. 0. 0. 5.26446092e-004
      1.92493433e-004 8.68409988e-004 4.07437154e-004 0. 0. 0. 0. 0. 0.
      1.11800083e-003 0. 1.11800083e-003 0. 0. 0. 2.10448820e-003 0. 0.
      0. 0. 7.32965767e-004 7.32965767e-004 0. 0. 0. -1.58374347e-002 0.
      1.23094174e-003 0. 0. 4.17416333e-004 2.13782580e-004 0. 0. 0. 0.
      1.92493433e-004 0. 0. 0. 0. -2.17391308e-002 0. 6.04699191e-004 0.
      0. 0. 4.40194883e-004 0. 0. 0. 0. 0. 0. 3.27133108e-004 0.
      1.16031722e-003 1.64091296e-003 0. 0. 0. 0. 0. 0. 8.29266210e-004
      0. 5.17687062e-004 4.94999695e-004 4.75749839e-004 1.52825014e-004
      2.39477027e-003 0. 0. 4.18448646e-004 8.30631994e-004
      3.49326874e-003 3.53326148e-004 0. 0. 0. 4.27565159e-004
      2.80432345e-004 0. 0. 0. 8.86606635e-004 5.97307633e-004 0.
      1.49338262e-003 1.07652054e-003 0. 0. 0. 8.56429455e-004
      1.42294331e-003 0. 0. 0. 1.95287936e-003 0. 1.21744769e-003
      2.66182097e-003 1.45344576e-003 0. 0. 1.00942305e-003
      9.16705292e-004 0. 0. 0. 0. 0. 0. 4.88805526e-004 0. 0. 0. 0. 0.
      4.27565159e-004 0. 2.91597768e-004 0. 0. 2.10448820e-003 0.
      8.62151384e-004 0. 0. 3.81056161e-004 0. 0. 1.05331048e-004 0. 0.
      0. 0. 2.00051605e-003 2.99805589e-003 7.73991575e-004 0. 0. 0.
      2.33222148e-003 0. 0. 0. 0. 3.09239200e-004 0. 0. 0. 0.
      1.05331048e-004 0. 0. 0. 0. 1.70946703e-004 0. 0. 1.73681998e-003
      4.27565159e-004 0. 0. 0. 7.32965767e-004 2.99259846e-004 0. 0.
      4.88805526e-004 8.26113508e-004 1.52436714e-003 0. 4.52876789e-004
      0. 0. 1.11619139e-003 5.84558409e-004 5.84558409e-004 0.
      -2.27272734e-002 0. 9.51499678e-004 3.64229287e-004 0.
      1.47487779e-004 0. 0. 1.70946703e-004 0. 0. 0. 0. 4.94194217e-003
      0. 0. 1.05331048e-004 1.52825014e-004 0. 0. 0. 7.65206583e-004 0.
      0. 0. 0. 4.51363594e-004 0. 1.16611074e-003 6.80840341e-004
      2.91597768e-004 0. 1.49629923e-004 0. 0. 5.51096804e-004 0.
      1.54798312e-004 0. 0. 1.33261911e-003 0. 4.33729816e-004 0.
      2.84459587e-004 8.19797977e-004 2.02306639e-003 0. 0.
      3.28721857e-004 7.50663632e-004 0. 0. 4.88805526e-004 0. 0. 0. 0.
      0. 6.62795501e-004 4.49900376e-003 0. 4.75749839e-004 0. 0.
      1.70946703e-004 5.27014316e-004 5.66073984e-004 0. 0.
      -3.00060734e-002 0. 0. 4.34204994e-004 0. 0. 3.36105964e-004
      4.40194883e-004 3.58439400e-004 0. 0. 0. 0. 3.27133108e-004 0.
      4.33729816e-004 0. 0. 0. 4.09898988e-004 0. 0. 0. 0. 0. 0. 0. 0.
      0. 0. 7.32965767e-004 0. 0. 0. 0. 0. 0. 0. 0. 2.60367151e-003
      5.27014316e-004 0. 0. 0. 0. 2.13574339e-003 0. 0. 9.40680562e-004
      0. 0. 2.08090735e-003 7.78761576e-004 0. 2.41289599e-004 0. 0.
      -1.61290318e-002 0. 0. 3.50948045e-004 0. 0. 0. 0. 0. 0. 0. 0. 0.
      1.55687088e-003 2.91597768e-004 0. 0. 2.15119612e-003
      2.05582153e-004 0. 1.86353328e-003 0. 2.10448820e-003 0.
      1.01774256e-003 0. 0. 3.41893407e-004 3.82485637e-003
      7.17547839e-004 3.84279498e-004 0. 1.30261504e-003 0. 0.
      -2.17391308e-002 0. 9.75441595e-004 0. 1.70472125e-003
      1.95287936e-003 0. 0. 0. 0. 0. 0. 0. 5.97307633e-004 0. 0.
      5.60864690e-004 0. 2.91597768e-004 0. 3.64229287e-004 0. 0. 0. 0.
      3.09239200e-004 4.24227258e-003 3.58439400e-004 1.70946703e-004 0.
      0. 0. 2.62896327e-004 0. 0. 0. 0. 2.05582153e-004 0. 0. 0.
      -4.47777249e-002 0. 3.84279498e-004 0. 0. 0. 0. 0. 0. 0.
      3.09239200e-004 4.07437154e-004 0. 3.84279498e-004 0. 0. 0.
      1.49629923e-004 0. 0. 0. 5.27014316e-004 0. 0. 0. 0.
      1.50256138e-003 0. -2.27272734e-002 1.19461527e-003
      2.58763204e-004 0. 7.96370208e-004 0. 2.41289599e-004 0.
      7.46459758e-004 4.15315997e-004 0. 0. 0. 1.19738514e-003 0.
      3.82485637e-003 0. 0. 0. 0. 0. 3.27133108e-004 0. 1.49629923e-004
      4.09898988e-004 1.72430277e-003 0. 0. 1.95287936e-003 0. 0. 0. 0.
      -1.83111448e-002 7.50132662e-004 0. 3.62640363e-004 0. 0. 0. 0.
      4.40194883e-004 0. 4.75749839e-004 0. 0. 0. 3.31397750e-004
      4.33729816e-004 0. 5.84558409e-004 3.64229287e-004 0. 0.
      -2.12673098e-002 0. 0. 0. 1.70472125e-003 0. 0. 0. 9.81399324e-004
      1.33643544e-003 4.18448646e-004 2.02877796e-003 7.78761576e-004 0.
      0. 0. 1.06554292e-003 0. 0. 4.07437154e-004 0. 0. 0. 0.
      1.52825014e-004 0. 0. 0. 0. 0. 0. 4.52876789e-004 0.
      4.75749839e-004 4.27565159e-004 1.16611074e-003 2.91359611e-004
      4.17416333e-004 0. 1.38228200e-003 1.52825014e-004 0. 0. 0. 0. 0.
      0. 0. 2.58763204e-004 0. 0. 0. 0. 4.40194883e-004 0.
      4.17416333e-004 2.10662096e-004 0. 2.99099163e-004 0.
      2.05582153e-004 0. 0. 0. 0. 0. 5.57332707e-004 1.16611074e-003 0.
      0. 0. 0. 0. 1.92493433e-004 0. 2.83036992e-004 4.94999695e-004 0.
      0. 5.98198327e-004 0. 7.89556128e-004 0. 1.80149300e-003 0.
      9.94193135e-004 0. 0. 2.58763204e-004 2.91597768e-004
      5.14446059e-004 0. 0. -1.52689870e-002 4.09898988e-004
      4.45443380e-004 0. 0. 0. 4.51363594e-004 0. 0. 0. 0. 0. 0. 0. 0.
      0. 0. 3.53326148e-004 0. 0. 2.41289599e-004 0. 0. 0. 0.
      3.05568421e-004 0. 9.68963781e-004 1.95190281e-004 0. 0. 0. 0.
      3.36105964e-004 0. 5.84558409e-004 0. 6.66309556e-004
      8.30631994e-004 2.83036992e-004 0. 1.36105902e-003 0. 0.
      1.31621596e-003 1.08876568e-003 0. 0. 0. 2.91359611e-004
      1.46593153e-003 4.88805526e-004 0. 3.64229287e-004 0. 0. 0.
      4.10649052e-004 0. 0. 0. 0. 0. 0. 0. 0. 1.34624366e-003 0.
      2.12919826e-004 1.75474022e-004 0. 0. 4.15315997e-004
      1.75474022e-004 0. 0. 2.39477027e-003 2.94975558e-004 0. 0. 0.
      3.59881367e-003 1.24389934e-003 0. 0. 0. 0. 0. 0. 0.
      5.57656866e-004 0. 5.66073984e-004 2.80432345e-004 1.08627114e-003
      1.50132726e-003 0. 4.71821375e-004 1.63599406e-003 0. 0. 0.
      3.82485637e-003 1.53331680e-003 0. 0. 0. 4.15315997e-004 0. 0.
      9.75441595e-004 4.14633105e-004 0. 0. 1.21281145e-003
      1.03129493e-003 0. 3.05568421e-004 6.76822732e-004 7.68558995e-004
      0. 2.25199084e-003 1.41116767e-003 0. 1.70946703e-004 0.
      9.89999389e-004 2.33823364e-003 0. 0. 0. 2.58763204e-004 0. 0. 0.
      0. 0. 0. 0. 0. 4.88805526e-004 8.48994707e-004 1.16031722e-003
      1.70946703e-004 5.82719222e-004 0. 0. 0. 4.40194883e-004
      3.64229287e-004 6.91896770e-004 0. 0. 8.29266210e-004 0. 0. 0. 0.
      1.54798312e-004 0. 0. 4.15315997e-004 0. 0. 0. 1.49338262e-003 0.
      -4.34782617e-002 1.53041317e-003 0. 0. 0. 0. 4.10649052e-004 0.
      2.80432345e-004 0. 1.95190281e-004 0. 6.81345002e-004
      4.75749839e-004 0. 5.84558409e-004 2.84459587e-004 0.
      5.26659831e-004 0. 3.64229287e-004 0. 1.54798312e-004
      4.17416333e-004 0. 0. 0. 2.99099163e-004 6.93429960e-004 0. 0. 0.
      0. 0. 0. 0. 0. 0. 0. 0. 4.51363594e-004 5.57656866e-004 0.
      4.15315997e-004 0. 5.51096804e-004 0. 5.26659831e-004 0.
      4.51363594e-004 0. 0. 2.84459587e-004 0. 0. 4.15315997e-004 0. 0.
      3.60562652e-003 -1.61290318e-002 2.10662096e-004 8.50567885e-004
      0. 0. 0. 5.84558409e-004 0. 0. 0. 1.02794135e-003 6.93429960e-004
      0. -3.22580636e-002 0. 0. 2.80432345e-004 0. 0. 0. 5.57656866e-004
      0. 0. 0. 6.68614230e-004 3.72706656e-003 0. 0. 0. 0. 0. 0.
      3.31397750e-004 4.88805526e-004 9.75441595e-004 1.95190281e-004 0.
      2.12919826e-004 3.05568421e-004 1.50132726e-003 9.44430649e-004 0.
      0. 0. 0. 0. 1.98254082e-003 1.95287936e-003 2.91359611e-004 0.
      4.15315997e-004 2.13782580e-004 0. 0. 0. 0. 0. 0. 4.75749839e-004
      0. 0. 6.68614230e-004 1.49629923e-004 7.68558995e-004 0. 0.
      1.64360928e-004 9.63138533e-004 2.84459587e-004 0. 1.16962928e-003
      3.31397750e-004 0. 6.93429960e-004 0. 1.33643544e-003
      7.50663632e-004 -3.22580636e-002 4.75749839e-004 0. 0.
      3.31397750e-004 1.34624366e-003 0. 0. 0. 0. 0. 0. 4.14633105e-004
      0. 0. 0. 7.46459758e-004 3.94377974e-004 0. 4.75749839e-004 0.
      1.64360928e-004 0. 0. 0. 0. 0. 2.30230368e-003 0. 0.
      2.00051605e-003 1.16031722e-003 2.91597768e-004 3.27133108e-004 0.
      9.05753579e-004 0. 0. 0. 1.92493433e-004 9.51499678e-004 0. 0. 0.
      0. 0. 0. 3.96928837e-004 0. 5.26446092e-004 2.12919826e-004 0. 0.
      1.52825014e-004 1.11800083e-003 0. 4.34204994e-004 0. 0.
      2.00051605e-003 0. 0. 3.84279498e-004 0. 3.05568421e-004
      -3.22580636e-002 0. 0. 0. 0. 0. 0. 1.95190281e-004 0. 0. 0.
      9.75441595e-004 0. 0. 0. 4.33729816e-004 6.44629647e-004 0.
      2.83036992e-004 2.00051605e-003 7.46459758e-004 0. 0.
      4.09898988e-004 3.32077150e-003 0. 1.04945432e-003 4.15315997e-004
      0. 0. 0. 0. 0. 0. 0. 7.11639994e-004 0. 0. 3.72706656e-003 0.
      3.62640363e-004 0. 0. 2.62896327e-004 1.06068747e-003 0. 0.
      4.40194883e-004 2.58156069e-004 0. 8.48994707e-004 2.13782580e-004
      3.27133108e-004 9.25459201e-004 0. 0. 4.09898988e-004 0.
      2.62896327e-004 0. -1.99387241e-002 0. 0. 0. 4.75749839e-004 0. 0.
      0. 0. 0. 5.26446092e-004 0. 0. 0. 0. 0. 0. -2.79873442e-002 0. 0.
      1.05331048e-004 0. 0. 0. 0. 0. 8.48994707e-004 4.33729816e-004 0.
      0. 0. 3.28721857e-004 0. 0. 0. 0. 4.07437154e-004 0. 0.
      1.05289218e-003 6.76822732e-004 0. 0. 3.53326148e-004 0. 0.
      5.97307633e-004 0. 0. 1.04886969e-003 0. 0. 0. 4.88805526e-004
      1.72430277e-003 0. 0. 0. 0. 4.14633105e-004 0. 0. 1.25534600e-003
      0. 0. 0. 0. 0. 0. 0. 0. 0. 0. 0. 0. 0. 5.51096804e-004
      1.31275167e-003 0. 9.68963781e-004 0. 0. 0. 0. 1.91269338e-003
      2.05582153e-004 3.30590759e-003 7.46459758e-004 0. 3.54119646e-003
      0. 0. 7.60032446e-004 0. 3.40944249e-003 0. 3.94377974e-004 0.
      1.16611074e-003 0. 0. 2.44504260e-003 0. 3.76185955e-004
      2.23600166e-003 1.85602298e-003 0. 0. 0. 2.99099163e-004 0.
      5.51096804e-004 0. 0. 0. 0. 0. 0. 0. 0. 0. 0. 8.07147590e-004
      3.82485637e-003 4.40194883e-004 0. 2.55757850e-003 0.
      1.95287936e-003 0. 0. 0. 2.15119612e-003 4.71821375e-004
      3.49908648e-003 0. 0. 0. 1.52892887e-003 0. 0. 0. 0.
      1.10086706e-003 0. 0. 6.97526336e-003 0. 0. 3.94734368e-003
      3.72706656e-003 0. 1.05402863e-003 1.95190281e-004 0.
      3.84279498e-004 0. 0. 0. 0. 1.11800083e-003 0. 0. 0. 0. 0. 0. 0.
      4.84481890e-004 0. 5.57656866e-004 4.09898988e-004 0. 0.
      5.04681317e-004 0. 0. 0. 0. 8.63227062e-004 0. 0. 0. 0.
      8.34832666e-004 0. 2.83036992e-004 0. 4.40194883e-004 0.
      5.83195535e-004 1.49629923e-004 9.05753579e-004 4.03777603e-003 0.
      0. 0. 0. 0. 0. 0. 2.10448820e-003 4.84481890e-004 0. 0. 0.
      8.30631994e-004 1.70946703e-004 0. 0. 2.10448820e-003 0.
      4.09898988e-004 0. 0. 0. 4.15315997e-004 3.36105964e-004 0. 0. 0.
      0. 0. 0. 4.71821375e-004 1.11800083e-003 7.65206583e-004
      1.01774256e-003 4.71821375e-004 1.70946703e-004 0. 0. 0. 0. 0.
      7.78761576e-004 0. 0. 2.99099163e-004 1.54798312e-004
      2.91359611e-004 0. 0. 0. 0. 0. 7.50132662e-004 0. 2.39248574e-003
      3.09239200e-004 0. 4.11164307e-004 0. 0. 0. 0. 7.50663632e-004 0.
      1.31247123e-003 0. 6.93429960e-004 8.19797977e-004 1.64360928e-004
      0. 5.83195535e-004 0. 0. 0. 0. 0. 0. 0. 0. 0. 0. 0. 0.
      2.67287088e-003 0. 5.26446092e-004 4.34204994e-004 4.51363594e-004
      3.90575873e-003 9.68963781e-004 0. 0. 2.57106056e-003 0.
      4.15315997e-004 0. 0. 0. 0. 0. 1.16031722e-003 0. 2.99099163e-004
      1.49338262e-003 0. 0. 4.94999695e-004 1.64360928e-004 0.
      4.71821375e-004 1.16031722e-003 0. 0. 0. 0. 0. 0. 0. 0.
      7.50663632e-004 0. 0. 7.46459758e-004 2.06754357e-003
      6.80840341e-004 -3.22580636e-002 5.14446059e-004 0. 0.
      4.51363594e-004 0. 4.84481890e-004 0. -2.00594533e-002 0.
      4.15315997e-004 0. 1.38685992e-003 0. 0. 1.52825014e-004 0. 0. 0.
      0. 5.57332707e-004 0. 0. 0. 1.11800083e-003 6.93429960e-004
      1.70946703e-004 0. 1.64360928e-004 4.84481890e-004 5.27014316e-004
      0. 0. 0. 0. 1.95287936e-003 4.40194883e-004 0. 0. 0. 0.
      1.11531373e-003 7.78761576e-004 0. 0. 0. 0. 0. 1.43376342e-003
      8.19797977e-004 1.05331048e-004 1.68635685e-003 4.71821375e-004
      2.23600166e-003 0. 0. 1.44463335e-003 4.14633105e-004
      1.95287936e-003 0. 7.25280726e-004 0. 0. 4.34204994e-004 0. 0. 0.
      0. 0. 0. 0. 0. 0. 3.03114112e-003 0. 2.77022598e-003 0. 0.
      8.89237679e-004 0. 0. 2.58763204e-004 4.34204994e-004
      1.19738514e-003 0. 4.94999695e-004 3.90380563e-004 0. 0.
      1.47487779e-004 0. 0. 0. 0. 0. 3.28721857e-004 0. 1.49629923e-004
      0. 0. 2.32063443e-003 2.55460222e-003 1.33643544e-003 0. 0.
      5.97307633e-004 0. 2.63093435e-003 0. 0. 0. 0. 0. 1.16611074e-003
      0. 3.84279498e-004 1.75474022e-004 5.45119576e-004 0. 0. 0. 0.
      1.49338262e-003 0. 0. 0. 0. 0. 7.50663632e-004 0. -2.10061651e-002
      0. 0. 0. 0. 0. 0. 4.75749839e-004 0. 2.12205690e-003 0. 0.
      3.35400249e-003 1.49629923e-004 0. 0. 0. 0. 2.84459587e-004 0. 0.
      4.18448646e-004 0. 0. 0. 0. 0. 0. 0. 0. 0. 0. 0. 0.
      1.70946703e-004 0. 0. 0. 1.52825014e-004 0. 5.97307633e-004
      4.33729816e-004 0. 0. 0. 0. 0. 1.70472125e-003 2.05582153e-004
      2.12919826e-004 0. 0. 0. 2.93013291e-003 2.83036992e-004 0.
      3.90575873e-003 0. 0. 5.66073984e-004 0. 2.12919826e-004 0.
      1.12622289e-003 1.49338262e-003 0. 0. 0. 0. 0. 0. 0. 0. 0.
      8.50567885e-004 0. 0. 4.51363594e-004 0. 9.10983013e-004 0. 0.
      1.70946703e-004 0. 0. 0. 1.05172815e-003 0. 0. 0. 1.05331048e-004
      5.84558409e-004 2.80432345e-004 0. 0. 0. 2.84459587e-004 0. 0. 0.
      0. 0. 0. 0. 0. 0. 2.51912139e-003 0. 0. 3.09239200e-004 0. 0. 0.
      0. 0. 0. 7.32965767e-004 1.05402863e-003 0. 3.05568421e-004 0.
      6.57274271e-004 5.57656866e-004 0. 2.32063443e-003 2.84459587e-004
      0. 0. 0. 0. 0. 0. 4.88805526e-004 0. 0. 1.75474022e-004 0. 0.
      1.01999938e-003 4.40194883e-004 0. 0. 0. 1.05402863e-003 0. 0. 0.
      1.57933834e-003 0. 0. 0. 1.70946703e-004 0. 0. 4.40194883e-004 0.
      0. 0. 5.26446092e-004 0. 0. 2.99099163e-004 0. 1.52825014e-004
      1.11800083e-003 1.70472125e-003 0. 0. 0. 0. 0. 0. 0. 0. 0.
      2.05582153e-004 0. 0. 1.24389934e-003 0. 0. 0. 0. 0. 0. 0.
      4.18448646e-004 0. 3.05568421e-004 0. 0. 1.19738514e-003
      3.53326148e-004 0. 0. 0. 0. 0. 4.84481890e-004 2.15119612e-003
      2.99099163e-004 2.44425819e-003 0. 0. 3.09239200e-004 0. 0.
      7.50663632e-004 0. 0. 4.40194883e-004 0. 1.33722846e-003 0. 0. 0.
      2.15119612e-003 0. 0. 3.58439400e-004 0. 4.17416333e-004 0. 0. 0.
      2.41289599e-004 5.84558409e-004 2.54884595e-003 3.90380563e-004 0.
      6.68614230e-004 0. 1.22212910e-003 1.16611074e-003 0. 0. 0.
      1.95190281e-004 3.64229287e-004 0. 0. 0. 0. 0. 0. 4.75749839e-004
      8.80389765e-004 0. 0. 4.84091201e-004 0. 0. 8.30631994e-004 0. 0.
      0. 0. 0. 0. 0. 0. 0. 4.94999695e-004 2.91597768e-004 0. 0. 0. 0.
      0. 1.95190281e-004 5.17526409e-004 0. 0. 3.62640363e-004 0. 0.
      5.26446092e-004 0. 0. 0. 1.28468079e-003 0. 0. -1.61290318e-002
      2.05582153e-004 -2.17391308e-002 0. 0. 0. 1.75474022e-004
      1.28834508e-003 0. 7.50663632e-004 3.58439400e-004 2.05582153e-004
      0. 0. 0. 1.34074129e-003 4.72545769e-004 0. 0. 0. 0. 0.
      1.70946703e-004 0. 0. 1.52825014e-004 1.95190281e-004 0.
      2.26341235e-003 -2.23958753e-002 0. 0. 0. 0. 3.05568421e-004 0.
      3.64229287e-004 2.58763204e-004 3.94377974e-004 0. 1.47487779e-004
      0. 0. 5.27014316e-004 1.86680205e-004 0. 0. 3.36105964e-004 0. 0.
      0. 0. 4.10649052e-004 0. 2.05582153e-004 0. 1.54798312e-004 0. 0.
      0. 0. 0. 3.05568421e-004 0. 0. 0. 3.58439400e-004 0. 0. 0.
      2.13782580e-004 3.64229287e-004 0. 5.14446059e-004 0.
      1.92493433e-004 7.78761576e-004 2.84459587e-004 0. 0. 0. 0.
      4.10649052e-004 0. 4.51363594e-004 6.80840341e-004 6.68614230e-004
      0. 0. 0. 0. 1.86680205e-004 0. 0. 0. 4.14633105e-004 0.
      6.76822732e-004 0. 0. 0. 0. 4.51363594e-004 -2.17391308e-002
      1.05331966e-003 2.91597768e-004 0. 0. 8.62151384e-004 0.
      3.05427401e-003 0. 0. 0. 5.27014316e-004 0. 0. 0. 0.
      -2.17391308e-002 0. 0. 0. 0. 0. 0. 0. 5.27014316e-004 0.
      4.40194883e-004 1.54798312e-004 0. 0. 0. 0. 0. 0. 1.49291952e-003
      0. 1.49338262e-003 9.49346519e-004 0. 1.57831539e-003 0.
      5.60864690e-004 0. 0. 2.12919826e-004 0. 2.59408075e-003 0.
      1.79201877e-003 0. 0. 1.33643544e-003 0. 0. 0. 0. 4.71821375e-004
      0. 2.33222148e-003 0. 2.05582153e-004 0. 0. 0. 0. 0. 0.
      2.25645141e-003 4.84481890e-004 0. 2.41289599e-004 4.71821375e-004
      0. 1.01774256e-003 0. 0. 0. 0. 0. 0. 0. 0. 0. 1.95287936e-003 0.
      0. 4.15315997e-004 3.27133108e-004 0. 0. 2.29506614e-003 0.
      2.41289599e-004 0. 4.11564345e-003 2.94975558e-004 0. 0. 0.
      5.19626541e-004 0. 0. 0. 3.73360410e-004 8.62151384e-004
      8.50567885e-004 0. 0. 0. 1.70113577e-003 3.05568421e-004
      2.80432345e-004 0. 5.26659831e-004 5.27014316e-004 0.
      2.62896327e-004 0. 1.86353328e-003 5.51096804e-004 5.84558409e-004
      0. 2.83897482e-003 1.49629923e-004 0. 0. -1.54117383e-002 0.
      1.54798312e-004 0. 2.13782580e-004 0. 4.84481890e-004 0.
      1.60248275e-003 1.47487779e-004 0. 0. 6.68614230e-004 0. 0. 0. 0.
      0. 7.28458574e-004 1.64360928e-004 0. 1.70472125e-003 0. 0. 0. 0.
      5.98198327e-004 0. 0. 0. 0. 0. 0. 4.34204994e-004 1.52825014e-004
      4.00103210e-003 0. 0. 0. 0. 0. 0. 0. -2.06641126e-002 0. 0.
      1.03129493e-003 4.15315997e-004 1.11800083e-003 6.76822732e-004 0.
      0. 0. 0. 0. 0. 0. 1.01774256e-003 0. 1.49338262e-003
      1.05331048e-004 0. 0. 0. 2.91359611e-004 0. 0. 0. 0. 0. 0. 0. 0.
      0. 0. 0. 0. 0. 6.20356994e-004 4.88805526e-004 0. 4.94999695e-004
      0. 0. 1.03129493e-003 0. 0. 0. 0. 0. 0. 0. 1.31275167e-003 0. 0.
      0. 0. 7.65206583e-004 0. 0. 0. 1.75474022e-004 8.48994707e-004 0.
      4.15315997e-004 0. 1.54798312e-004 1.16611074e-003 0. 0. 0. 0. 0.
      0. 4.17416333e-004 0. 6.80840341e-004 0. 0. 1.86680205e-004 0.
      4.30239225e-003 0. 0. 0. 2.38881120e-003 0. 0. 0. 0. 0.
      2.10662096e-004 0. 0. 0. 1.92493433e-004 2.83036992e-004 0. 0.
      1.86680205e-004 4.09898988e-004 -2.27272734e-002 2.58763204e-004
      0. 0. 0. 0. 0. 0. 2.12919826e-004 0. 0. 0. 0. 3.09898588e-003 0.
      0. 0. 0. 2.03999877e-003 0. 0. 0. 9.65158397e-004 0.
      -2.27272734e-002 2.45029526e-003 -2.13206820e-002 3.84279498e-004
      4.40194883e-004 5.25792653e-004 0. 7.50663632e-004 3.31397750e-004
      0. 0. 0. 0. 0. 0. 1.22212910e-003 0. 4.33729816e-004 0. 0. 0.
      3.84279498e-004 0. 0. 0. 4.52876789e-004 0. 0. 0. 0. 0. 0. 0. 0.
      0. 0. 9.95747279e-004 1.49629923e-004 0. 0. 1.16031722e-003 0. 0.
      7.78761576e-004 0. 0. 3.62640363e-004 2.91597768e-004 0.
      2.99259846e-004 0. 0. 7.50663632e-004 0. 0. 5.93019882e-004 0. 0.
      0. 0. 0. 3.73360410e-004 2.91359611e-004 0. 6.66309556e-004 0. 0.
      0. 0. -2.17391308e-002 0. 2.83036992e-004 0. 0. 0. 0. 0. 0. 0. 0.
      0. 0. 0. 0. 0. 0. 0. 0. 6.66309556e-004 0. 0. 0. 0. 0. 0. 0. 0. 0.
      0. 1.20939838e-003 2.77310237e-003 2.00051605e-003 0.
      2.91597768e-004 0. 0. 0. 0. 0. 4.09898988e-004 0. 2.72246380e-003
      6.66309556e-004 0. 0. 0. 0. 4.71821375e-004 1.61031343e-003 0. 0.
      0. 0. 9.75548755e-004 0. 4.11164307e-004 0. 1.92493433e-004 0. 0.
      0. 3.53326148e-004 0. 0. 5.14446059e-004 0. 3.53326148e-004 0.
      6.76822732e-004 5.27014316e-004 6.76822732e-004 0. 0. 0.
      6.80840341e-004 0. 3.58439400e-004 0. 0. 0. 0. 0. 5.25792653e-004
      0. 0. 0. 4.52876789e-004 0. 7.32965767e-004 0. 0. 0. 0.
      6.68614230e-004 1.54798312e-004 0. 1.49291952e-003 0. 0. 0.
      2.99099163e-004 4.40194883e-004 1.01492880e-003 0. 1.34624366e-003
      2.18681246e-003 3.05650028e-004 0. 0. 0. 0. 0. 0. 0. 0.
      9.75441595e-004 0. 0. 0. 0. 6.04699191e-004 0. 0. 0. 0.
      1.33643544e-003 2.80432345e-004 0. 0. 7.73289416e-004 0. 0. 0. 0.
      0. 0. 0. -3.78681645e-002 0. 0. 0. 0. 0. 2.74142320e-003 0. 0. 0.
      0. 0. 0. 0. 0. 0. 0. 2.98676523e-003 0. 0. 7.55735673e-004
      -2.16092728e-002 9.75441595e-004 0. 0. 1.69798941e-003 0. 0. 0.
      1.16911682e-003 0. 0. 0. 0. 0. 1.16611074e-003 4.10649052e-004
      2.41289599e-004 1.75474022e-004 0. 0. 2.99099163e-004 0. 0. 0.
      2.12919826e-004 0. 6.56375836e-004 1.58142683e-003 0.
      1.50132726e-003 6.76822732e-004 3.64229287e-004 0. 0.
      1.19461527e-003 0. 0. 0. 1.19738514e-003 0. 0. 0. 0.
      2.91597768e-004 0. 0. 0. 0. 1.22008973e-003 0. 1.67297048e-003
      -1.61290318e-002 4.52913204e-003 0. 2.15203105e-003
      4.34204994e-004 0. 6.66309556e-004 0. 3.62640363e-004
      -2.47404128e-002 0. 0. 0. 4.10649052e-004 0. 0. 0. 9.89999389e-004
      1.92493433e-004 0. 7.87136517e-003 1.05331048e-004 0. 0. 0. 0. 0.
      0. 1.33722846e-003 3.82485637e-003 5.17526409e-004 6.68614230e-004
      0. 0. 3.05568421e-004 3.90380563e-004 0. 1.75689277e-003 0.
      1.19738514e-003 0. 0. 0. 4.40194883e-004 0. 0. 0. 5.84558409e-004
      5.26446092e-004 3.21468385e-003 0. 0. 4.94999695e-004 0. 0. 0. 0.
      0. 0. 3.82485637e-003 0. 1.86353328e-003 9.78281023e-004 0.
      6.93429960e-004 0. 0. 0. 0. 6.15139899e-004 -3.22580636e-002 0. 0.
      4.94999695e-004 0. 3.58439400e-004 1.52825014e-004 0. 0. 0. 0. 0.
      0. 0. 0. 1.63159007e-003 0. 0. 0. 2.84459587e-004 2.41289599e-004
      0. -1.88215151e-002 6.68614230e-004 0. 0. 1.86680205e-004 0. 0. 0.
      0. 0. 2.32063443e-003 4.14633105e-004 0. 0. 2.13782580e-004 0. 0.
      6.76822732e-004 0. 0. 4.51363594e-004 0. 0. 6.76822732e-004 0.
      3.53326148e-004 1.35409075e-003 0. 0. 1.05331048e-004 0. 0. 0. 0.
      0. 0. 6.66309556e-004 0. 0. 0. 0. 4.37284616e-004 0.
      1.52825014e-004 0. 0. 1.75474022e-004 0. 0. 0. 0. 1.49629923e-004
      0. 4.34204994e-004 0. 4.71821375e-004 8.48994707e-004
      4.14633105e-004 0. 0. 0. 0. 1.53041317e-003 0. 1.95287936e-003 0.
      0. 0. 0. 1.54798312e-004 0. 0. 4.75749839e-004 0. 0.
      2.84459587e-004 2.10448820e-003 0. 3.58439400e-004 0. 0. 0. 0. 0.
      0. 3.76185955e-004 0. 0. 0. 0. 0. 4.17416333e-004 0.
      2.62896327e-004 0. 3.94377974e-004 0. 0. 7.78761576e-004 0. 0.
      5.84558409e-004 0. 0. 0. 0. 2.04252102e-003 0. 0. 0. 0. 0. 0. 0.
      0. 4.09898988e-004 0. 0. 1.38685992e-003 2.98676523e-003
      2.24069320e-003 2.83036992e-004 7.78761576e-004 0. 1.38753850e-003
      0. 8.50567885e-004 1.13073923e-003 6.10170071e-004 2.74667912e-003
      0. 6.10506278e-004 0. 0. 9.75441595e-004 0. 4.30239225e-003 0.
      4.18448646e-004 4.71821375e-004 0. 0. 2.41289599e-004 0. 0. 0. 0.
      0. 0. 0. 0. 4.27565159e-004 0. 0. 3.58439400e-004 0.
      1.95287936e-003 0. 1.01999938e-003 1.75368087e-003 0.
      -1.61290318e-002 0. 0. 0. 0. 1.75474022e-004 0. 2.62896327e-004 0.
      0. 0. 1.46910618e-003 5.26659831e-004 4.84481890e-004 0. 0.
      1.36168068e-003 5.57656866e-004 0. 2.39477027e-003 0.
      1.79192296e-003 0. 0. 0. 0. 3.53326148e-004 1.06435048e-003
      2.62896327e-004 0. 0. 0. 0. 0. 3.62640363e-004 0. 0. 0. 0.
      2.62896327e-004 0. 0. 0. 1.05402863e-003 1.34624366e-003
      4.34204994e-004 2.91359611e-004 0. 0. 0. 4.71821375e-004 0. 0. 0.
      0. 4.34204994e-004 0. 5.57656866e-004 3.27133108e-004 0. 0. 0.
      -1.61290318e-002 1.54798312e-004 0. 0. 0. -2.27272734e-002
      1.70472125e-003 0. 0. 0. 3.76185955e-004 0. 0. 5.26446092e-004
      1.55752315e-003 2.61419686e-003 8.29266210e-004 1.26588379e-003
      1.64360928e-004 0. 0. 2.62896327e-004 0. 0. 0. 0. 0. 0. 0. 0.
      1.77168951e-003 0. 2.05582153e-004 0. 0. 5.14446059e-004 0. 0. 0.
      0. 0. 0. 0. 0. 1.01774256e-003 0. 3.76185955e-004 3.36105964e-004
      0. 0. 0. 3.64229287e-004 0. 0. 0. 0. 0. 0. 0. 0. 0. 0.
      5.84558409e-004 2.58763204e-004 3.64229287e-004 -2.12877672e-002
      7.06652296e-004 0. 8.29266210e-004 4.09898988e-004 0. 0.
      6.04699191e-004 0. 5.97307633e-004 0. 0. 5.14446059e-004 0. 0. 0.
      1.54798312e-004 0. 0. 0. 0. 8.50567885e-004 0. 0. 0.
      4.71821375e-004 4.75749839e-004 0. 0. 0. 0. 0. 0. 0.
      5.59060043e-003 0. 2.62896327e-004 0. 0. 5.97307633e-004 0.
      1.01774256e-003 0. 0. 2.83036992e-004 0. 0. 0. 7.46459758e-004 0.
      1.33643544e-003 0. 8.42694601e-004 2.34395056e-003 6.11136842e-004
      0. 0. 0. 0. 1.16721168e-003 1.11466541e-003 0. 0. 0.
      1.09268783e-003 0. 4.17416333e-004 0. 0. 3.36105964e-004 0. 0. 0.
      0. 0. 0. 0. 0. 0. 0. 0. 1.11800083e-003 7.46459758e-004 0. 0.
      3.58439400e-004 4.52876789e-004 6.05518871e-004 1.66839361e-003 0.
      4.14633105e-004 0. 0. 0. 0. 0. 2.15119612e-003 0. 0.
      5.57656866e-004 0. 0. 7.65206583e-004 0. 8.39608896e-004
      3.23350425e-003 0. 0. 0. 3.84279498e-004 2.41289599e-004 0. 0. 0.
      4.15315997e-004 0. 0. 0. 3.94377974e-004 0. 3.73360410e-004 0. 0.
      0. 8.62151384e-004 2.80432345e-004 1.95190281e-004 8.22328613e-004
      0. 4.82579198e-004 1.16611074e-003 0. 0. 0. 0. 0. 5.27014316e-004
      2.13782580e-004 1.03421789e-003 1.75474022e-004 0. 0. 0. 0. 0.
      3.90380563e-004 1.33722846e-003 0. 3.84279498e-004 0.
      1.49291952e-003 0. 0. 0. 0. 7.50663632e-004 0. 0. 0. 0. 0.
      -1.61290318e-002 0. 1.54798312e-004 0. 0. 0. 1.22212910e-003 0.
      1.54798312e-004 0. -1.61290318e-002 0. 2.44425819e-003
      4.40194883e-004 0. 0. 1.47487779e-004 1.92121987e-003 0. 0. 0. 0.
      0. 0. 8.50567885e-004 0. 4.15315997e-004 2.13782580e-004
      1.20059378e-003 0. 3.82485637e-003 0. 0. 0. 9.77611053e-004
      3.09596624e-004 0. 4.40194883e-004 5.14446059e-004 1.33388105e-003
      3.64229287e-004 0. 0. 0. 0. 0. 0. 0. 0. 0. 0. 0. 0.
      4.52876789e-004 0. 0. 1.92493433e-004 0. 0. 0. 0. 9.43642750e-004
      0. 0. 0. 0. 1.54798312e-004 0. 5.97307633e-004 0. 1.52825014e-004
      0. 0. 0. 0. 0. 0. 0. 2.23600166e-003 0. 0. 0. 9.75441595e-004 0.
      0. 1.34624366e-003 0. 3.94377974e-004 0. 0. 1.70946703e-004 0. 0.
      1.86353328e-003 0. 0. 0. 0. 1.05331048e-004 0. 0. 3.49833234e-003
      0. 8.48994707e-004 0. 1.54798312e-004 0. 0. 0. 0. 0. 0. 0.
      4.17416333e-004 0. 0. 5.51096804e-004 0. 0. 8.50567885e-004 0.
      2.91597768e-004 0. 3.84279498e-004 3.76185955e-004 0. 0. 0. 0.
      1.16611074e-003 0. 0. 0. 3.36105964e-004 0. 0. 0. 0.
      9.05461900e-004 0. 0. 0. 2.15119612e-003 0. 9.75441595e-004
      2.00051605e-003 0. 1.92493433e-004 3.73360410e-004 0. 0.
      6.80840341e-004 3.84986866e-004 2.71252799e-003 0. 0. 0.
      7.50663632e-004 0. 0. 0. 6.68614230e-004 3.50948045e-004 0. 0. 0.
      4.94999695e-004 0. 0. 0. 0. 0. 0. 0. 0. 8.36897292e-004 0.
      8.73903045e-004 0. 0. 0. 0. 0. 0. 3.94377974e-004 0. 0. 0. 0.
      1.46256667e-003 0. 0. 0. 0. 0. 2.12919826e-004 0. 5.57332707e-004
      0. 1.49338262e-003 4.10649052e-004 0. 0. 0. 0. 0. 0. 0. 0. 0. 0.
      1.16611074e-003 0. 0. 1.86680205e-004 0. 2.00051605e-003
      7.09808257e-004 1.49629923e-004 4.07437154e-004 0. 4.34204994e-004
      0. 0. 0. 0. 0. 0. 0. 0. 0. 5.27014316e-004 6.80840341e-004 0.
      1.95287936e-003 0. 0. 0. 0. 1.54798312e-004 0. 0. 0. 0.
      5.57332707e-004 0. 0. 0. 0. 0. 0. 0. 0. 0. 4.71821375e-004 0.
      1.05331048e-004 5.26659831e-004 0. 0. 3.50736175e-003 0.
      6.04699191e-004 2.58763204e-004 2.41289599e-004 0. 4.33729816e-004
      3.09239200e-004 0. 0. 0. 0. 0. 0. 0. 4.09898988e-004 0. 0.
      1.01774256e-003 0. 0. 0. 2.83036992e-004 0. 7.96845357e-004 0. 0.
      8.62151384e-004 0. 0. 2.99259846e-004 3.62640363e-004
      1.25859131e-003 0. 1.72430277e-003 0. 0. 5.84558409e-004 0. 0. 0.
      0. 0. 0. 2.58763204e-004 0. 8.50567885e-004 0. 3.27133108e-004 0.
      0. 0. 0. 0. 0. 7.32965767e-004 1.75474022e-004 0. 0. 0.
      9.75441595e-004 1.30853243e-003 0. 5.97307633e-004 0.
      9.75441595e-004 2.12919826e-004 0. 0. 0. 0. 0. 2.11519701e-003
      5.86262671e-004 0. 4.10649052e-004 0. 0. 0. 0. 0. 8.57790874e-004
      3.76185955e-004 0. 6.93429960e-004 1.95287936e-003 0.
      -1.61290318e-002 0. 0. 4.62064228e-004 0. 0. 6.54266216e-004
      1.95088319e-003 0. 0. 0. 6.16746431e-004 0. 0. 0. 0.
      6.92968199e-004 0. 3.05568421e-004 0. 0. 0. 0. 0. 1.55021809e-003
      0. 1.19461527e-003 0. 1.49338262e-003 0. 0. 0. 1.33643544e-003
      -2.27272734e-002 0. 3.54855414e-003 0. 0. -2.27272734e-002
      1.92493433e-004 4.09898988e-004 1.54798312e-004 0. 0.
      5.97307633e-004 0. 8.40369670e-004 -2.27272734e-002
      3.76185955e-004 0. 0. 0. 1.95088319e-003 0. 1.22212910e-003
      1.49629923e-004 0. 0. 0. 0. 0. 0. 0. 0. 0. 0. 0. 0. 0.
      1.65219139e-003 0. 0. 0. 0. 4.09898988e-004 0. 0. 0. 0. 0.
      4.33729816e-004 1.08792109e-003 0. 3.64229287e-004 0. 0.
      3.84279498e-004 0. 1.54798312e-004 0. 2.45029526e-003 0. 0. 0.
      7.28458574e-004 0. 0. 0. 2.84459587e-004 1.16031722e-003
      5.84558409e-004 0. 0. 0. 0. 0. 0. 0. 0. 1.07652054e-003
      1.05289218e-003 9.02727188e-004 0. 0. 0. 7.78761576e-004
      3.31397750e-004 5.14446059e-004 0. 0. 0. 7.78761576e-004 0. 0. 0.
      0. 0. 8.36897292e-004 0. 0. 1.95190281e-004 0. 4.14633105e-004
      2.12919826e-004 1.03129493e-003 0. 2.41289599e-004 3.41893407e-004
      6.11136842e-004 0. 1.70946703e-004 1.10219361e-003 1.54798312e-004
      5.51096804e-004 0. 0. 3.31397750e-004 0. 0. 0. 1.54798312e-004 0.
      0. 1.49338262e-003 4.94999695e-004 0. 3.36105964e-004 0. 0. 0.
      5.14446059e-004 0. 0. 0. 0. 4.33729816e-004 0. 5.97307633e-004
      2.84459587e-004 0. 2.58763204e-004 1.49338262e-003 0. 0. 0.
      7.78761576e-004 2.84459587e-004 1.05331048e-004 8.86454480e-004
      2.13782580e-004 0. 0. 2.83036992e-004 0. 5.51096804e-004
      5.26446092e-004 0. 0. 0. 6.66309556e-004 0. 0. 0. 1.05331048e-004
      0. 0. 0. 0. 1.75474022e-004 0. 0. 0. 0. 0. 2.91359611e-004
      4.70045867e-004 0. 2.10448820e-003 2.99099163e-004 6.04699191e-004
      0. 0. 0. 0. 0. 0. 0. 0. 3.90575873e-003 0. 0. 0. 0.
      6.66309556e-004 0. 0. 0. 0. 2.00051605e-003 7.01875950e-004 0. 0.
      4.34204994e-004 0. 0. 5.94615762e-004 4.34204994e-004 0. 0.
      4.15315997e-004 6.80840341e-004 1.75474022e-004 0. 0.
      5.27014316e-004 0. 0. 3.05568421e-004 0. 0. 1.49629923e-004 0. 0.
      0. 3.05568421e-004 0. 0. 0. 5.84558409e-004 0. 0. 6.76822732e-004
      1.05331048e-004 0. 5.27014316e-004 5.36979875e-004 6.15139899e-004
      3.31397750e-004 3.64229287e-004 0. 0. 1.95287936e-003 0. 0. 0. 0.
      0. 1.86680205e-004 1.11531373e-003 0. 0. 5.57332707e-004
      1.70946703e-004 0. 2.05582153e-004 5.68919175e-004 2.13782580e-004
      0. 0. 3.53326148e-004 0. 0. 0. 0. 2.28131539e-003 0. 0. 0.
      -2.27272734e-002 0. 0. 1.72430277e-003 0. 1.14436401e-003
      9.75441595e-004 0. 0. 0. 0. 0. 2.13782580e-004 0. 3.53326148e-004
      0. 0. 0. 0. 4.15315997e-004 0. 0. 0. 0. 4.10649052e-004 0.
      3.50948045e-004 0. 0. 1.47487779e-004 0. 1.54665916e-003 0. 0. 0.
      1.44069234e-003 0. 0. 1.33261911e-003 7.78761576e-004 0. 0. 0.
      4.15315997e-004 8.36897292e-004 1.64360928e-004 5.97307633e-004 0.
      0. 0. 0. 0. 0. 1.16031722e-003 0. 4.17416333e-004 2.99099163e-004
      0. 0. 0. 0. 0. 0. 0. 1.70472125e-003 0. 0. 0. 0. 0.
      1.52825014e-004 7.78761576e-004 1.64360928e-004 2.91359611e-004 0.
      1.64360928e-004 0. 0. 3.53326148e-004 0. 0. 0. 4.14633105e-004
      2.13800021e-003 4.10649052e-004 8.50567885e-004 0. 1.70472125e-003
      0. 0. 0. 0. 0. 4.11164307e-004 0. 5.57656866e-004 0.
      1.61201821e-003 0. 1.54798312e-004 0. 0. 1.92493433e-004 0. 0. 0.
      0. 8.34832666e-004 0. 2.32063443e-003 0. 0. 0. 0. 0. 0. 0.
      4.15315997e-004 0. 0. 1.09073927e-003 0. 0. 0. 0. 7.78761576e-004
      4.09898988e-004 0. 0. 0. 3.41893407e-004 7.16878800e-004 0. 0. 0.
      0. 0. 1.12684956e-003 0. 4.17416333e-004 4.15315997e-004
      7.78761576e-004 0. 2.05582153e-004 2.00051605e-003 0.
      6.66309556e-004 3.84279498e-004 0. 8.29266210e-004 0. 0. 0. 0.
      4.52876789e-004 0. 0. 0. 2.62896327e-004 0. 0. 0. 0. 0. 0. 0. 0.
      4.33729816e-004 1.10910297e-003 0. 0. 0. 0. 7.32965767e-004 0. 0.
      -2.27272734e-002 0. 0. 0. 1.05331048e-004 0. 0. 0. 0.
      2.91359611e-004 0. 2.32667010e-003 0. 1.33722846e-003 0. 0. 0.
      -1.61290318e-002 0. 3.64229287e-004 3.09239200e-004
      3.31397750e-004 2.80432345e-004 0. 0. 9.75441595e-004 0. 0.
      1.01774256e-003 1.05331048e-004 0. 0. 1.11800083e-003 0. 0.
      7.50663632e-004 7.65206583e-004 0. 0. 0. 2.91359611e-004
      3.84279498e-004 1.50132726e-003 2.10448820e-003 0. 0.
      7.88755948e-004 0. 0. 0. 0. 0. 7.46459758e-004 1.47487779e-004 0.
      9.75441595e-004 0. 3.82485637e-003 2.91597768e-004 0. 0. 0. 0. 0.
      0. 0. 2.58763204e-004 2.58763204e-004 0. 0. 0. 0. 0. 0. 0. 0. 0.
      0. 7.32965767e-004 0. 0. 5.51096804e-004 0. 1.49629923e-004 0. 0.
      0. 0. 0. 0. 6.68614230e-004 0. 0. 1.92493433e-004 0.
      2.15119612e-003 0. 1.64360928e-004 4.84481890e-004 0. 0. 0. 0. 0.
      0. 0. 0. 0. 0. 2.80432345e-004 7.50663632e-004 0. 2.00051605e-003
      1.58142683e-003 0. 2.13782580e-004 5.84558409e-004 0. 0. 0. 0.
      1.70946703e-004 1.23291917e-003 0. 3.84279498e-004 1.01999938e-003
      1.49629923e-004 0. 0. 1.47487779e-004 0. 0. 2.58763204e-004 0. 0.
      0. 0. -1.50015326e-002 0. 0. 3.41893407e-004 3.48125002e-003 0. 0.
      -1.77380983e-002 6.93429960e-004 0. 1.75474022e-004 0. 0.
      1.35021016e-003 0. 0. 0. 0. 1.05289218e-003 0. 0. 0. 0.
      -1.34727377e-002 0. 1.86353328e-003 0. -1.61290318e-002 0. 0.
      6.93429960e-004 0. 0. 0. 0. 1.97215611e-003 4.52876789e-004 0. 0.
      0. 0. 8.20229005e-004 0. 0. 0. 0. 0. 0. 8.66896065e-004
      8.48994707e-004 1.70946703e-004 0. 0. 0. 0. -1.07560577e-002 0. 0.
      0. 0. 0. 0. 0. 0. 0. 0. 1.52825014e-004 0. 2.91359611e-004 0.
      1.52825014e-004 0. 0. 1.11914519e-003 0. 0. 0. 0. 0. 0.
      3.09239200e-004 2.91597768e-004 0. 0. 0. 0. 0. 1.49338262e-003 0.
      0. 0. 0. 0. 0. 0. 1.49629923e-004 0. 0. 6.76822732e-004 0. 0.
      3.82485637e-003 0. 0. 5.57656866e-004 0. 0. 0. 1.16611074e-003
      8.50567885e-004 0. 0. 1.68824266e-003 3.09239200e-004 0. 0. 0.
      5.84558409e-004 5.26659831e-004 0. 0. 1.16611074e-003
      4.34204994e-004 0. 0. 7.78761576e-004 0. 0. 3.64229287e-004
      8.90208408e-004 0. 0. 8.29266210e-004 1.61497749e-003 0. 0.
      2.99099163e-004 5.26659831e-004 0. 2.10448820e-003 0.
      1.34624366e-003 0. 0. 0. 0. 0. 0. 0. 3.64229287e-004 0. 0.
      2.05582153e-004 2.91597768e-004 0. 0. 0. 1.64360928e-004 0. 0. 0.
      0. 0. 0. 0. 3.84279498e-004 2.99099163e-004 3.05568421e-004
      4.17416333e-004 0. 3.84279498e-004 3.14846891e-003 0. 0. 0. 0. 0.
      3.97234410e-003 9.62759554e-003 0. 7.64914264e-004 0.
      5.82719222e-004 0. 0. 5.51096804e-004 0. 0. 0. 9.94193135e-004 0.
      0. 7.65206583e-004 0. 0. 0. 4.75749839e-004 -2.27272734e-002 0.
      1.55752315e-003 0. 0. 0. 0. 9.01258085e-004 0. 4.11164307e-004
      6.04699191e-004 0. 0. 3.09239200e-004 0. 7.46459758e-004
      2.12919826e-004 6.76822732e-004 0. 0. 0. 0. 0. 1.95190281e-004
      4.33729816e-004 2.13782580e-004 0. 5.57656866e-004 0.
      1.47487779e-004 4.15315997e-004 0. 0. 1.86680205e-004 0. 0. 0.
      1.49338262e-003 0. 0. 0. -3.22580636e-002 0. 0. 5.26659831e-004 0.
      0. 0. 7.78761576e-004 8.30631994e-004 0. 1.70946703e-004 0. 0.
      4.15315997e-004 0. 1.19738514e-003 3.82485637e-003 0. 0. 0.
      2.33222148e-003 0. 3.05568421e-004 2.30599451e-003 4.14633105e-004
      0. 0. 0. 1.95287936e-003 1.70946703e-004 4.88805526e-004
      5.26446092e-004 0. 0. 4.17416333e-004 0. 0. 0. 3.94377974e-004 0.
      0. 1.69798941e-003 0. 0. 0. 0. 1.64360928e-004 0. 0. 0. 0. 0. 0.
      0. 0. 0. 0. 0. 2.01982865e-003 0. 0. 4.17416333e-004 0.
      3.64229287e-004 2.10448820e-003 0. 0. 4.52876789e-004
      1.38648995e-003 0. 0. 0. 0. 0. 0. 2.13782580e-004 8.62151384e-004
      8.62151384e-004 0. 3.09239200e-004 3.90575873e-003 1.52825014e-004
      0. 0. -2.27272734e-002 0. 0. 4.09898988e-004 0. 0. 0.
      2.38708430e-003 0. 0. 4.94999695e-004 0. 0. 0. 0. 0. 0. 0. 0. 0.
      0. 1.47487779e-004 0. 0. 0. 0. 0. 0. 0. 0. 0. 0. 1.95287936e-003
      1.52825014e-004 0. -2.24001408e-002 0. 0. 0. 0. 2.45029526e-003
      3.31397750e-004 0. 0. 0. 0. 5.57332707e-004 0. 0. 0. 0. 0. 0. 0.
      1.86680205e-004 0. 1.49629923e-004 0. 1.16031722e-003 0. 0.
      1.22231152e-003 0. 8.30631994e-004 0. 0. 0. 1.24095636e-003 0. 0.
      0. 0. 0. 0. 0. 0. 0. 0. 0. 0. 3.31397750e-004 0. 1.16611074e-003
      7.78761576e-004 0. 0. 0. 0. 0. 1.01999938e-003 2.58763204e-004 0.
      0. 0. 0. 0. 1.53041317e-003 0. 0. 1.01999938e-003 0. 0.
      4.40194883e-004 -1.61290318e-002 2.62896327e-004 0. 0. 0.
      3.75331799e-003 1.54798312e-004 0. 0. 4.51363594e-004
      4.52876789e-004 0. 0. 0. 1.75474022e-004 0. 7.50663632e-004 0. 0.
      1.86680205e-004 0. 0. 0. 0. 0. 0. 1.16748712e-003 0. 0.
      1.49629923e-004 5.26446092e-004 8.62151384e-004 0. 0.
      2.00051605e-003 4.10649052e-004 0. 0. 0. 0. 0. 4.27565159e-004 0.
      0. 0. 0. 1.43830816e-003 0. 0. 0. 0. 0. 0. 0. 0. 0. 0. 0.
      6.66309556e-004 0. 0. 0. 0. 9.75441595e-004 4.73600143e-004 0.
      1.70472125e-003 0. 0. -1.61290318e-002 2.21132697e-003
      4.40194883e-004 8.50567885e-004 8.62151384e-004 0. 0.
      2.34395056e-003 1.22212910e-003 1.92493433e-004 -2.13749018e-002
      0. 5.51096804e-004 0. 0. 1.71213516e-003 1.49629923e-004 0.
      4.55958711e-004 0. 1.16911682e-003 0. 0. 8.67459632e-004 0. 0.
      6.22310326e-004 0. 0. 0. 0. 1.33722846e-003 0. 0. 0. 0. 0. 0.
      1.92493433e-004 -1.61290318e-002 0. 0. 0. 2.83036992e-004
      8.62151384e-004 0. 0. 1.28669571e-003 -2.05411632e-002
      2.91359611e-004 0. 4.40194883e-004 0. 0. 2.41289599e-004
      3.94377974e-004 8.48994707e-004 0. 0. 0. 0. 0. 0. 7.32965767e-004
      9.43642750e-004 0. 0. 0. 1.47487779e-004 0. 2.80432345e-004 0. 0.
      1.55752315e-003 0. 0. 0. 0. 3.53326148e-004 0. 3.31397750e-004
      2.99259846e-004 4.07437154e-004 4.84481890e-004 0. 0.
      1.96913234e-003 0. 0. 1.69798941e-003 5.25792653e-004
      1.47487779e-004 0. 0. 0. 0. 0. 6.56375836e-004 0. 0. 0.
      2.05953652e-003 0. 1.49629923e-004 0. 2.99099163e-004 0.
      -2.17391308e-002 0. 3.53326148e-004 0. 4.09898988e-004 0. 0. 0.
      4.71821375e-004 0. 5.67046227e-004 0. 0. 7.03921833e-004 0.
      5.84558409e-004 0. 0. 5.27014316e-004 0. 0. 0. 5.27014316e-004 0.
      0. 0. 0. 0. 0. 0. 0. 0. 0. 0. 0. 0. 0. 0. 7.32965767e-004 0.
      5.97307633e-004 2.84459587e-004 0. 0. 0. 0. 0. -1.61290318e-002 0.
      4.17416333e-004 0. 1.01999938e-003 0. 0. 0. 1.70472125e-003
      5.26446092e-004 0. 3.94377974e-004 0. 0. 1.95525703e-003 0. 0. 0.
      0. 0. 3.76185955e-004 0. 1.16031722e-003 1.49338262e-003 0. 0.
      9.75441595e-004 0. 1.95287936e-003 0. 7.50663632e-004 0. 0.
      6.62795501e-004 0. 5.27014316e-004 0. 0. 0. 5.26659831e-004
      1.52825014e-004 -2.17391308e-002 0. 0. 0. 3.94377974e-004 0.
      1.11531373e-003 1.58374989e-003 2.58763204e-004 4.14633105e-004 0.
      0. 0. 0. 0. 0. 2.84459587e-004 0. 1.33643544e-003 0.
      8.55130318e-004 0. 0. 0. 0. 0. 0. 0. 3.58439400e-004 0. 0.
      6.80840341e-004 0. 0. 0. 3.50948045e-004 0. 0. 3.73360410e-004 0.
      0. 7.32965767e-004 0. 5.41896746e-003 0. 0. 0. 0. 0. 0.
      8.99599458e-004 0. 0. 0. 0. 0. 0. 0. 0. 1.05331048e-004 0.
      5.68919175e-004 3.36105964e-004 0. 0. -2.27272734e-002
      1.49338262e-003 0. 3.82485637e-003 0. 4.40194883e-004 0.
      9.98927979e-004 0. 0. 2.84459587e-004 0. 6.76822732e-004 0.
      1.93792756e-003 1.92493433e-004 0. 0. 0. 3.58439400e-004
      2.10448820e-003 1.16911682e-003 2.62896327e-004 0. 0.
      1.49338262e-003 1.33643544e-003 1.01999938e-003 0. 1.05331048e-004
      0. 0. 2.62896327e-004 2.12919826e-004 0. 0. 0. 0. 0.
      3.64229287e-004 3.62640363e-004 9.51499678e-004 0. 0.
      1.19738514e-003 0. 1.63606706e-003 0. 0. 0. 0. 0. 0. 0. 0. 0. 0.
      0. 0. 3.58439400e-004 0. 0. 0. 3.82485637e-003 0. 0.
      2.91359611e-004 1.72430277e-003 0. 0. 2.80432345e-004 0.
      2.58763204e-004 0. 0. 0. 4.17416333e-004 0. 0. 2.41289599e-004 0.
      3.64229287e-004 0. 4.17416333e-004 4.33729816e-004 1.33643544e-003
      0. 0. 0. 0. 0. 0. 1.34624366e-003 0. 0. 3.09388479e-003 0. 0. 0.
      0. 1.54798312e-004 0. 0. 0. 0. 0. 0. 0. 0. 0. 0. 0. 0. 0.
      2.13782580e-004 3.62640363e-004 0. 0. 0. 1.33643544e-003
      9.75441595e-004 0. 0. 7.32965767e-004 5.26446092e-004
      1.16611074e-003 2.12919826e-004 1.16611074e-003 2.18741666e-003 0.
      0. 6.41347782e-004 0. 0. 6.76822732e-004 4.94999695e-004 0. 0.
      -1.49687147e-002 0. 0. 1.11175375e-003 5.26446092e-004 0.
      -4.34782617e-002 0. 0. 1.49629923e-004 0. 2.99099163e-004
      -2.17391308e-002 4.94999695e-004 1.89081510e-003 0. 0. 0. 0.
      6.15139899e-004 0. 0. 1.05331048e-004 0. 0. 3.94377974e-004
      1.53041317e-003 0. 4.88805526e-004 0. 0. 0. 0. 0. 0. 0. 0. 0. 0.
      0. 0. 1.88148720e-003 0. 0. 0. 0. 0. 0. 1.47487779e-004 0. 0. 0.
      0. 0. 3.05568421e-004 3.76185955e-004 1.12375373e-003
      1.95287936e-003 2.05582153e-004 0. 1.01999938e-003 4.33729816e-004
      0. 6.66309556e-004 0. 4.34204994e-004 1.05331048e-004 0. 0.
      2.10448820e-003 8.62151384e-004 1.47487779e-004 1.46593153e-003
      1.95287936e-003 0. 1.33643544e-003 0. 0. 0. 0. 0. 0.
      4.07437154e-004 4.09898988e-004 0. 0. 5.57656866e-004 0. 0. 0. 0.
      0. 0. 0. 0. 0. -2.16092728e-002 3.64229287e-004 2.91359611e-004
      1.47487779e-004 2.05582153e-004 0. 0. 0. 0. 2.99099163e-004 0. 0.
      0. 0. 4.07437154e-004 1.16911682e-003 0. 0. 0. 0. 1.11800083e-003
      0. 0. 0. 8.34832666e-004 0. 0. 5.12768223e-004 1.70946703e-004 0.
      0. 2.80432345e-004 0. 9.75441595e-004 0. 0. 0. 0. 0.
      5.26659831e-004 2.23429292e-003 0. 0. 0. 0. 0. 0. 0.
      1.95287936e-003 6.56375836e-004 0. 0. -2.13547554e-002 0. 0. 0. 0.
      0. 1.13212562e-003 0. 0. 0. 0. 2.00051605e-003 0. 0.
      3.53326148e-004 1.41116767e-003 1.53650320e-003 0. 2.91359611e-004
      2.91359611e-004 0. 0. 0. 0. 0. 0. 0. 0. 0. 0. 1.33722846e-003 0.
      1.47487779e-004 4.27565159e-004 0. 0. 1.34624366e-003 0. 0. 0.
      1.05331048e-004 0. 0. 0. 0. 2.00051605e-003 0. 0. 0.
      1.64360928e-004 1.92493433e-004 0. 0. 0. 5.81777247e-004
      1.95287936e-003 0. 0. 0. 2.40795338e-003 0. 0. 1.22212910e-003 0.
      1.52825014e-004 0. 0. 0. 3.82485637e-003 3.94377974e-004
      4.00103210e-003 0. 0. 0. 0. 3.64229287e-004 0. 9.86408792e-004 0.
      0. 0. 0. 0. 0. 3.36105964e-004 1.22212910e-003 3.64229287e-004 0.
      0. 0. 0. 0. 0. 7.78761576e-004 0. 0. 2.12919826e-004 0.
      4.10649052e-004 0. 8.14874307e-004 0. 0. 0. 0. 0. 0. 0. 0. 0. 0.
      0. 0. 0. 0. 0. 0. 2.29223142e-003 0. 0. 0. 0. 1.54798312e-004 0.
      0. 0. 0. 0. 6.64314779e-004 0. 0. 0. 1.40202208e-003 0. 0.
      1.70946703e-004 0. 3.27133108e-004 0. 0. 0. 0. 0. 1.16031722e-003
      0. 4.18448646e-004 5.57656866e-004 0. 0. 0. 2.83036992e-004 0. 0.
      0. 2.23600166e-003 0. 0. 1.05402863e-003 0. 0. 2.58763204e-004 0.
      0. 0. 0. 2.91359611e-004 0. 0. 0. 3.58439400e-004 8.62151384e-004
      0. 0. 2.91597768e-004 0. 0. 0. 0. 0. 0. 0. 1.11795263e-003
      4.17416333e-004 0. 0. 0. 0. 0. 4.09898988e-004 3.82485637e-003
      4.40194883e-004 0. 0. 0. 0. 0. 0. 0. 0. 0. 0. 0. 0. 0.
      2.99099163e-004 0. 0. 5.61995490e-004 0. 0. 0. 3.58439400e-004
      4.84481890e-004 0. 0. 0. 4.94999695e-004 0. 5.14446059e-004 0. 0.
      3.64229287e-004 0. 0. 0. 3.09239200e-004 0. 0. 0. 0.
      6.76822732e-004 1.43619126e-003 0. 0. 0. 0. 5.17526409e-004 0. 0.
      6.19777129e-004 0. 1.86353328e-003 0. 0. 2.91359611e-004 0. 0. 0.
      0. 0. 4.14633105e-004 0. 2.10448820e-003 0. 0. 0. 0. 0. 0. 0. 0.
      1.05702633e-003 0. 3.27133108e-004 0. 0. 0. 0. 0. 0.
      5.51096804e-004 0. 0. 0. 0. 0. 5.27014316e-004 1.35364546e-003
      1.92493433e-004 5.26659831e-004 -1.61290318e-002 -1.61290318e-002
      0. 2.58763204e-004 0. 0. 0. 0. 0. 1.46593153e-003 0. 0. 0.
      1.19738514e-003 0. 0. 0. 0. 0. 0. 0. 0. 1.33643544e-003 0.
      8.50567885e-004 0. 0. 1.72430277e-003 2.80432345e-004 0. 0. 0. 0.
      6.68614230e-004 0. 0. 0. 4.10649052e-004 0. 1.47487779e-004
      3.64229287e-004 0. 0. 0. 0. 2.23600166e-003 0. 0. 0. 0.
      6.15139899e-004 0. 0. 1.75474022e-004 0. 6.74147625e-004 0. 0. 0.
      0. 0. 0. 0. 0. 0. 0. 0. 0. 0. 0. 5.83195535e-004 0. 0.
      2.50656088e-003 0. 1.05331048e-004 -4.27848324e-002
      5.57656866e-004 4.84481890e-004 2.00051605e-003 1.75474022e-004
      1.54798312e-004 3.09239200e-004 0. 1.19738514e-003 8.64991511e-004
      0. 0. 7.65206583e-004 0. 7.27687846e-004 0. 0. 0. 1.31275167e-003
      0. 0. 7.64914264e-004 0. 0. 0. 0. 0. 0. 0. 0. 0. 0.
      8.50567885e-004 2.98676523e-003 3.94377974e-004 0. 6.62795501e-004
      0. 4.84481890e-004 4.52876789e-004 0. 0. 4.71821375e-004 0.
      1.16031722e-003 1.03129493e-003 1.33643544e-003 0. 0. 0.
      4.51363594e-004 8.50567885e-004 1.54798312e-004 1.78369659e-003 0.
      1.95287936e-003 0. 0. 1.95190281e-004 0. 2.15119612e-003
      4.15315997e-004 0. 0. 0. 4.10649052e-004 0. 0. 0. 1.49629923e-004
      0. 0. 0. 0. 0. 0. 1.16611074e-003 1.22212910e-003 0. 0. 0. 0. 0.
      4.71821375e-004 6.66309556e-004 0. 0. 0. 0. 2.83036992e-004
      1.64360928e-004 0. 0. 0. 0. 0. 5.84558409e-004 0. 1.75474022e-004
      0. 4.94999695e-004 6.15139899e-004 0. 2.91359611e-004 0. 0. 0. 0.
      0. 1.92493433e-004 0. 0. 0. 0. 0. 0. 0. 0. 0. 0. 1.01999938e-003
      0. 0. 0. 1.16532226e-003 0. -2.27272734e-002 0. 0. 0. 0. 0.
      7.78761576e-004 6.93429960e-004 0. 0. 0. 1.16611074e-003 0. 0. 0.
      0. 0. 0. 0. 0. 1.49338262e-003 0. 0. 3.58439400e-004 0. 0.
      2.13782580e-004 0. 0. 0. 0. 3.64229287e-004 0. 0. 0. 0.
      4.40194883e-004 0. 0. 9.75441595e-004 0. 0. 0. 3.76185955e-004 0.
      0. 0. 9.51499678e-004 0. 1.64360928e-004 0. 6.30548166e-004
      4.34204994e-004 1.19738514e-003 3.09596624e-004 0. 8.42456415e-004
      0. 1.92493433e-004 0. 2.00051605e-003 0. 0. 0. 0. 6.04699191e-004
      4.81517025e-004 0. 0. 0. 0. 5.97307633e-004 0. 0. 0. 0. 0.
      1.16031722e-003 0. 0. 0. 1.47487779e-004 0. 4.40194883e-004 0. 0.
      4.14633105e-004 1.75474022e-004 3.94377974e-004 4.71821375e-004
      5.26446092e-004 0. 0. 0. 0. 5.26446092e-004 0. 0. 0. 0. 0. 0.
      1.33643544e-003 8.50567885e-004 1.52825014e-004 0. 0. 0. 0.
      4.33729816e-004 0. 0. 0. 2.13782580e-004 0. 1.33693032e-003
      1.52825014e-004 0. 0. 0. 0. 0. 0. 0. 0. 4.18448646e-004 0. 0. 0.
      7.78761576e-004 0. 1.86353328e-003 0. 4.71821375e-004
      1.70472125e-003 0. 0. 0. 2.80432345e-004 0. 6.04699191e-004 0. 0.
      0. 0. 0. 0. 1.75474022e-004 0. 0. 0. 3.64229287e-004 0.
      6.04699191e-004 0. 0. 0. 0. 1.70113577e-003 2.69691984e-004 0. 0.
      0. 5.51096804e-004 0. 0. 0. 0. 0. 0. 0. 1.54798312e-004
      1.49629923e-004 0. 6.77999400e-004 7.06652296e-004 2.23600166e-003
      0. 0. 0. 0. 7.68558995e-004 0. 0. 0. 0. 0. 0. 0. 0. 0. 0.
      1.49338262e-003 1.05331048e-004 3.60292033e-004 0. 0.
      3.84279498e-004 4.17416333e-004 1.16031722e-003 1.10219361e-003 0.
      8.90270050e-004 4.40194883e-004 0. 0. 5.14446059e-004 0. 0. 0. 0.
      0. 0. 6.68614230e-004 0. 0. 0. 0. 2.84459587e-004 0.
      2.91359611e-004 3.84279498e-004 0. 0. 0. 0. 0. 6.76822732e-004
      4.14633105e-004 0. 0. 0. 0. 3.36105964e-004 1.16611074e-003 0. 0.
      0. 0. 0. 0. 1.55865552e-003 0. 0. 0. 0. 0. 6.76822732e-004 0. 0.
      0. 6.68614230e-004 0. 5.14446059e-004 0. 0. 1.52825014e-004 0. 0.
      0. 1.70946703e-004 7.78761576e-004 0. 1.52825014e-004 0. 0.
      4.42463352e-004 0. 0. 0. 0. 0. 1.30043167e-003 5.14446059e-004 0.
      5.84558409e-004 0. 0. 8.50567885e-004 0. 0. 0. 0. 9.72972834e-004
      0. 1.75474022e-004 0. 5.57332707e-004 1.34624366e-003
      1.95287936e-003 0. 2.03999877e-003 0. 1.22791959e-003 0. 0. 0. 0.
      0. 0. 0. 0. 2.10448820e-003 0. 0. 1.07593392e-003 0.
      4.09898988e-004 7.50663632e-004 0. 0. 0. 0. 0. 5.97307633e-004
      4.51363594e-004 8.36897292e-004 0. 0. 0. -3.22580636e-002 0.
      4.71821375e-004 0. 0. 1.52825014e-004 0. 0. 0. 0. 1.03129493e-003
      0. 0. 0. 0. 0. 0. 0. 1.54798312e-004 0. 0. 5.26659831e-004 0. 0.
      0. 0. 0. 0. 0. 0. 0. 3.31397750e-004 0. 1.64360928e-004 0.
      7.50663632e-004 0. 3.94377974e-004 0. 0. 0. 0. 6.93429960e-004 0.
      0. 0. 1.32289261e-003 0. 2.13782580e-004 0. 0. 0. 3.27133108e-004
      0. 0. 0. 5.26659831e-004 0. 0. 3.62640363e-004 0. 5.97307633e-004
      0. 0. 2.62896327e-004 3.05568421e-004 1.54574099e-003 0.
      7.78761576e-004 0. 7.88688951e-004 0. 0. 4.71821375e-004 0. 0. 0.
      8.48994707e-004 4.88805526e-004 1.70113577e-003 2.80432345e-004 0.
      0. 0. 2.12919826e-004 4.33729816e-004 0. 0. 1.70472125e-003 0. 0.
      0. 2.03999877e-003 2.05582153e-004 0. 0. 0. 1.86680205e-004
      2.10448820e-003 0. 2.05582153e-004 0. 7.50663632e-004 0. 0. 0. 0.
      0. 0. 5.27014316e-004 0. 0. 2.62896327e-004 0. 0. 2.25199084e-003
      0. 5.84558409e-004 0. 8.80389765e-004 0. 3.53326148e-004
      1.19738514e-003 0. 0. 0. 0. 0. 0. 0. 0. 0. 0. -2.17391308e-002 0.
      0. 0. 0. 4.17416333e-004 4.71821375e-004 8.62151384e-004 0. 0.
      1.92493433e-004 0. 0. 0. 0. 0. 0. 0. 0. 2.62896327e-004 0. 0. 0.
      3.09239200e-004 0. 0. 0. 0. 0. 8.50567885e-004 0. 0. 0. 0. 0.
      3.09239200e-004 0. 6.93429960e-004 0. 0. 0. 0. 0. 2.91359611e-004
      4.88805526e-004 1.05331048e-004 0. 2.13782580e-004 0.
      8.80389765e-004 0. 4.40194883e-004 0. 0. 4.40194883e-004 0.
      2.41289599e-004 0. -2.15041451e-002 0. 0. 0. 5.51096804e-004 0.
      2.10662096e-004 6.80840341e-004 0. 2.13782580e-004 0. 0. 0.
      3.53326148e-004 0. 0. 0. 1.35364546e-003 0. 0. 0. 0. 0. 0.
      4.40194883e-004 0. 0. -3.18178684e-002 0. 0. 0. 0. 5.27014316e-004
      0. 0. 1.70946703e-004 0. 4.33729816e-004 0. 0. 5.57656866e-004 0.
      0. 0. 0. 3.31397750e-004 9.75441595e-004 0. 4.40194883e-004 0. 0.
      1.16611074e-003 0. 5.84558409e-004 1.22518069e-003 0. 0. 0. 0. 0.
      0. 6.93518727e-004 0. 0. 0. 0. 0. 5.14446059e-004 0.
      1.04348070e-003 -1.55309699e-002 0. 0. 0. 0. 0. 0. 3.82485637e-003
      0. 0. 0. 0. 1.61201821e-003 0. 0. 0. 0. 0. 0. 6.68614230e-004 0.
      3.36105964e-004 0. 2.62896327e-004 0. 1.95190281e-004 0. 0. 0. 0.
      5.84558409e-004 0. 0. 0. 5.57656866e-004 0. 0. 4.10649052e-004
      8.62151384e-004 0. 0. 2.91597768e-004 0. 0. 0. 0. 1.75474022e-004
      4.15315997e-004 0. 0. 0. 0. 0. 0. 4.71821375e-004 1.22212910e-003
      0. 0. 0. 0. 4.40194883e-004 0. 0. 8.51935823e-004 2.91597768e-004
      0. 0. 4.14633105e-004 3.94377974e-004 9.75441595e-004 0. 0. 0. 0.
      0. 0. 0. 0. 3.62640363e-004 2.69248732e-003 3.74851958e-003 0. 0.
      2.91721267e-003 4.71821375e-004 0. 0. 4.88805526e-004 0.
      4.52876789e-004 3.84986866e-004 0. 0. 0. 0. 0. 1.25847862e-003
      7.46459758e-004 0. 0. 0. 1.22212910e-003 0. 1.01774256e-003
      3.64229287e-004 0. 0. 0. 0. 0. 0. 0. 0. 0. 0. 0. 0. 0. 0. 0.
      3.82485637e-003 0. 0. 1.47136301e-003 8.48994707e-004
      2.15119612e-003 0. 0. 0. -1.61290318e-002 3.64229287e-004 0.
      5.27014316e-004 0. 0. 0. 0. 0. 1.75474022e-004 0. 7.78761576e-004
      0. 7.32965767e-004 0. 0. 0. 2.83036992e-004 0. 1.92493433e-004 0.
      5.97307633e-004 0. 5.97307633e-004 0. 0. 0. 1.86353328e-003 0. 0.
      0. 0. 3.31397750e-004 0. 0. 0. 0. 5.84558409e-004 0.
      1.86680205e-004 0. 0. 0. 0. 3.62640363e-004 0. 0. 0. 0. 0.
      3.84279498e-004 -1.31053682e-002 0. 4.94999695e-004 0.
      5.26446092e-004 0. 6.66309556e-004 1.70946703e-004 0.
      2.62896327e-004 0. 2.13782580e-004 0. 4.18448646e-004 0.
      3.84279498e-004 0. 0. 0. 0. 0. 0. 0. 0. 0. 0. 0. 0.
      3.09239200e-004 1.64360928e-004 0. 0. 0. 1.92493433e-004
      9.68963781e-004 0. 2.12919826e-004 0. 0. 0. 3.94377974e-004
      2.05582153e-004 0. 1.11800083e-003 0. 0. 0. 0. 0. 0.
      2.62896327e-004 0. 2.91359611e-004 0. 5.57332707e-004 0. 0. 0. 0.
      8.49110947e-004 0. 0. 0. 0. 0. 0. 2.80432345e-004 0. 0.
      1.70472125e-003 0. 0. 0. 0. 4.40194883e-004 0. 0. 0.
      3.76185955e-004 0. 3.53326148e-004 1.00001192e-003 5.66073984e-004
      1.54798312e-004 0. 0. 0. 0. 0. 4.33729816e-004 0. 1.95287936e-003
      0. 0. 0. 2.62896327e-004 -2.00382918e-002 0. 0. 5.57332707e-004 0.
      0. 0. 0. 0. 1.22212910e-003 7.50663632e-004 0. 0. 1.54798312e-004
      0. 0. 5.57656866e-004 0. 1.47487779e-004 0. 0. 0. 0. 0. 0. 0.
      -4.23121527e-002 0. 2.91597768e-004 0. 1.05331048e-004
      1.64360928e-004 5.14446059e-004 1.86353328e-003 0. 0. 0. 0. 0. 0.
      0. 4.18448646e-004 2.99099163e-004 0. 1.38685992e-003 0.
      3.31397750e-004 7.50663632e-004 0. 0. 0. 0. 0. 0. 0. 0. 0. 0. 0.
      2.41289599e-004 0. 6.80840341e-004 1.32358295e-003 0.
      3.05568421e-004 0. 0. 0. 0. 0. 1.01774256e-003 0. 0. 0. 0. 0.
      1.92493433e-004 7.84274540e-004 0. 3.58439400e-004 0. 0. 0. 0. 0.
      2.41289599e-004 1.33643544e-003 0. 0. 3.84279498e-004
      4.07437154e-004 0. 0. 0. 2.58763204e-004 5.26446092e-004 0. 0. 0.
      0. 0. 0. 0. 5.51096804e-004 2.00051605e-003 0. 4.09898988e-004
      1.34624366e-003 0. 0. 0. 0. 4.71821375e-004 0. 0. 0. 0. 0.
      5.97307633e-004 0. 0. 6.54266216e-004 0. 0. 0. 0. 0. 0. 0.
      3.05650028e-004 2.88127596e-003 0. 0. 0. 0. 3.36105964e-004 0.
      1.16611074e-003 0. 0. 0. 0. 0. 0. 6.53166440e-004 0. 0. 0.
      4.75749839e-004 0. 2.15119612e-003 0. 0. 0. 0. 4.51363594e-004 0.
      0. 0. 1.70946703e-004 0. 3.36105964e-004 1.30993908e-003 0. 0. 0.
      0. 0. 0. 5.27014316e-004 0. 5.84558409e-004 4.18448646e-004
      5.17526409e-004 0. 7.65206583e-004 0. 0. 0. 3.90575873e-003 0.
      6.76822732e-004 0. 4.36728791e-004 0. 8.30631994e-004
      6.68614230e-004 3.05568421e-004 2.05582153e-004 0. 0. 0. 0.
      4.75749839e-004 0. 0. 0. 4.34204994e-004 0. 1.19547336e-003 0.
      3.62640363e-004 0. 0. 0. 0. 0. 0. 0. 0. 0. 0. 0. 0.
      4.40194883e-004 0. 5.57656866e-004 0. 0. 0. 0. 7.78761576e-004
      1.70946703e-004 0. 1.76742405e-003 0. 0. 0. 0. 0. 0.
      3.94377974e-004 0. 0. 0. 7.32965767e-004 0. 1.89074327e-003
      4.34204994e-004 0. 1.70946703e-004 3.58439400e-004 0. 0. 0.
      3.76185955e-004 0. 4.75749839e-004 0. 4.40989534e-004
      7.23809469e-004 1.75474022e-004 0. 0. 0. 0. 3.76185955e-004 0. 0.
      0. 1.16089347e-003 1.52825014e-004 4.07437154e-004 4.94999695e-004
      3.94377974e-004 5.97307633e-004 3.40944249e-003 0. 0. 0. 0.
      4.82133869e-003 3.09239200e-004 0. 0. 0. 0. 0. 0. 0.
      1.11800083e-003 3.77280754e-004 0. 0. 0. 0. 0. 6.76822732e-004
      4.15315997e-004 0. 7.32965767e-004 0. 2.32063443e-003 0. 0. 0. 0.
      0. 0. 0. 0. 0. 0. 2.83036992e-004 0. 0. 4.34204994e-004 0. 0. 0.
      9.05753579e-004 0. 0. 0. 3.84279498e-004 2.83036992e-004 0. 0.
      1.78392790e-003 0. 3.53326148e-004 0. 2.62896327e-004 0. 0.
      1.05331048e-004 0. 0. 0. 1.94804871e-003 0. 2.10448820e-003 0. 0.
      0. 0. 0. 2.83036992e-004 0. 5.57332707e-004 3.53326148e-004 0. 0.
      0. 0. 4.94999695e-004 0. 0. 0. 3.05568421e-004 0. 0. 0. 0. 0. 0.
      0. 3.05650028e-004 7.46459758e-004 0. 0. 0. 0. 0. 0. 0. 0.
      6.04699191e-004 1.01999938e-003 0. 0. 0. 0. 0. 0. 0. 0. 0.
      4.94999695e-004 0. 0. 8.50567885e-004 4.51363594e-004 0. 0.
      4.17416333e-004 0. 3.31397750e-004 0. 0. 2.62896327e-004 0. 0.
      -1.61290318e-002 0. 8.50567885e-004 0. 5.84558409e-004 0.
      1.01774256e-003 0. 0. 1.52825014e-004 7.50663632e-004 0. 0.
      4.51363594e-004 0. 0. 0. 0. 0. 0. 8.62151384e-004 1.22212910e-003
      1.19738514e-003 0. 0. 0. 1.92493433e-004 0. 0. 0. 2.15119612e-003
      2.23600166e-003 0. 4.18448646e-004 0. 0. 6.93429960e-004
      2.00051605e-003 2.05582153e-004 3.76185955e-004 0. 2.99259846e-004
      0. 0. 1.70472125e-003 0. 0. 0. 0. 0. 5.57656866e-004
      7.65206583e-004 0. 6.01313310e-004 0. 0. 1.95190281e-004 0. 0. 0.
      0. 0. 1.19738514e-003 0. 7.46459758e-004 0. 1.27770519e-003 0.
      1.95190281e-004 0. 4.52876789e-004 0. 0. 6.18730846e-004
      3.76185955e-004 0. 0. 0. 0. 8.19797977e-004 2.80432345e-004 0. 0.
      0. 0. 0. 0. 0. 5.27014316e-004 4.40194883e-004 0. 0. 0. 0. 0.
      6.80840341e-004 0. 0. 2.91359611e-004 0. 6.15139899e-004 0. 0. 0.
      0. 0. 0. 0. 0. 3.64229287e-004 0. 0. 0. 5.14446059e-004
      1.75474022e-004 1.11800083e-003 6.80840341e-004 7.65206583e-004 0.
      1.16031722e-003 1.05289218e-003 0. 0. 1.52825014e-004 0. 0. 0. 0.
      0. 1.49629923e-004 0. 0. 0. 0. 0. 1.75474022e-004 0. 0.
      1.19738514e-003 2.13782580e-004 4.51363594e-004 0. 0. 0. 0.
      1.64360928e-004 0. 0. 0. 0. 0. 0. 0. 0. 1.21477887e-003 0. 0.
      1.52825014e-004 0. 0. 2.58763204e-004 0. 2.72246380e-003 0. 0. 0.
      0. 6.76822732e-004 0. 0. 1.49338262e-003 0. 0. 0. 0. 0.
      3.05568421e-004 0. 2.41289599e-004 5.27014316e-004 0. 0. 0. 0. 0.
      1.75296515e-003 0. 0. 4.34204994e-004 0. 0. 3.69943067e-004 0. 0.
      3.39318323e-003 0. 0. 0. 4.52876789e-004 1.19738514e-003 0.
      4.10649052e-004 6.68614230e-004 0. 0. 2.62896327e-004 0. 0.
      1.16031722e-003 0. 0. 4.88805526e-004 1.16611074e-003 0. 0. 0. 0.
      3.31397750e-004 4.18448646e-004 0. 8.09011108e-004 2.13782580e-004
      0. 0. 0. 0. 0. 4.10649052e-004 0. -2.11344324e-002 0. 0. 0. 0. 0.
      0. 0. 1.49629923e-004 0. 0. 0. 0. 3.05568421e-004 0.
      4.10649052e-004 0. 0. 0. 5.26446092e-004 0. 0. 0. 0. 0. 0. 0.
      3.84279498e-004 0. 0. 0. 0. 4.71821375e-004 0. 0. 0. 0. 0. 0. 0.
      0. 1.86353328e-003 0. 0. 0. 0. 0. 0. 0. 0. 0. 0. 4.34204994e-004
      0. 0. 0. 0. 3.64229287e-004 0. 0. 1.01999938e-003 0. 0. 0. 0.
      7.50663632e-004 0. 0. 3.31397750e-004 0. 0. 0. 0. 0. 0. 0. 0. 0.
      0. 0. 0. 0. 0. 1.05331048e-004 0. 0. 4.34204994e-004 0. 0. 0. 0.
      0. 3.82485637e-003 0. 0. 0. 0. 0. 0. 1.54798312e-004
      1.34624366e-003 4.40194883e-004 0. 5.11264428e-004 0. 0. 0. 0. 0.
      6.66309556e-004 1.92493433e-004 4.94999695e-004 0. 1.05331048e-004
      0. 0. 0. 0. 0. 0. 0. 0. -2.15669554e-002 0. 0. 0. 0.
      3.64229287e-004 0. 0. 0. 0. 0. 0. 0. 6.76822732e-004 0. 0. 0.
      3.09239200e-004 0. 0. 0. 0. 0. 0. 0. 0. 0. 6.93429960e-004 0. 0.
      2.58763204e-004 0. 0. 0. 0. 0. 4.84481890e-004 0. 1.95190281e-004
      0. 0. 3.76185955e-004 0. 0. 0. 0. 4.09898988e-004 0. 0. 0.
      1.64360928e-004 0. 0. 0. 0. 0. 0. 0. 0. 1.60949479e-003 0. 0. 0.
      0. 4.17416333e-004 2.69691984e-004 0. 0. 0. 3.09239200e-004 0. 0.
      0. 0. 0. 0. 1.49629923e-004 0. 0. 0. 0. 1.01355987e-003 0. 0. 0.
      0. 0. 0. 0. 0. 0. 9.43642750e-004 0. 0. 0. 4.18448646e-004
      1.35364546e-003 0. 5.26446092e-004 4.14633105e-004 0. 0. 0. 0. 0.
      0. 0. 0. 3.76185955e-004 0. 0. 0. 0. 0. 0. 0. 0. 3.31397750e-004
      0. 2.58763204e-004 0. 0. 4.84481890e-004 1.70472125e-003 0. 0. 0.
      1.54798312e-004 0. 2.83036992e-004 3.76185955e-004 7.06939492e-004
      3.64229287e-004 0. 4.94999695e-004 0. 4.94999695e-004 0. 0. 0.
      1.64360928e-004 6.11136842e-004 9.58025281e-004 3.36105964e-004 0.
      0. 0. 0. 0. 0. 0. 0. 0. 0. 4.09898988e-004 0. 0. 0. 0. 0. 0. 0. 0.
      0. 0. 5.14446059e-004 0. 3.64229287e-004 0. 7.32965767e-004
      7.50663632e-004 0. 0. 7.50663632e-004 0. 5.26446092e-004
      6.68614230e-004 0. 1.75474022e-004 0. 0. 4.71821375e-004 0. 0. 0.
      6.93429960e-004 0. 4.52876789e-004 0. 1.14065327e-003 0.
      7.46459758e-004 4.15315997e-004 0. 1.47487779e-004 0. 0. 0.
      5.14446059e-004 0. 1.22212910e-003 0. 0. 0. 0. 2.91597768e-004
      -2.17391308e-002 0. 0. 0. 0. 1.50132726e-003 0. 0. 0. 0.
      2.00051605e-003 0. 0. 0. 0. 0. 9.75441595e-004 0. 0.
      5.51096804e-004 0. 0. 3.84805375e-003 0. 4.51363594e-004
      7.78761576e-004 0. 1.70946703e-004 4.52876789e-004 0. 0. 0. 0. 0.
      0. 0. 0. 0. 0. 1.86353328e-003 0. 0. 0. 0. 2.58763204e-004 0. 0.
      0. 5.31767262e-004 0. 5.51096804e-004 0. 0. 0. 1.52825014e-004
      4.27565159e-004 0. 2.80432345e-004 0. 0. 0. 0. 4.09898988e-004 0.
      1.01742544e-003 0. 4.71821375e-004 0. 1.63202803e-003
      4.84481890e-004 0. 4.84481890e-004 0. -1.61290318e-002
      1.49629923e-004 0. 0. 0. 0. 0. 0. 2.13782580e-004 1.34624366e-003
      0. 4.15315997e-004 0. 0. 0. 0. 0. 0. 0. 2.13782580e-004 0. 0. 0.
      0. 0. 0. 0. 0. 0. 7.65206583e-004 1.64360928e-004 0. 0. 0.
      5.97307633e-004 0. 3.76185955e-004 0. 0. 0. 1.92493433e-004
      1.87987194e-003 1.95287936e-003 1.34624366e-003 0. 0.
      3.36105964e-004 0. 0. 0. 0. 0. 0. 2.03548511e-003 0. 0.
      6.93429960e-004 6.67316490e-004 0. 0. 0. 0. 4.17416333e-004 0. 0.
      0. 0. 0. 0. 1.47487779e-004 2.15119612e-003 5.84558409e-004
      4.75749839e-004 0. 0. 4.34204994e-004 8.29266210e-004 0.
      4.17416333e-004 0. 0. 0. 0. 0. 0. 6.15139899e-004 0.
      6.44685759e-004 0. 0. 3.76185955e-004 1.35117793e-003
      5.57332707e-004 0. 0. 0. 0. 0. 7.65206583e-004 0. 0.
      2.83036992e-004 0. 0. -1.61290318e-002 0. 0. 2.41289599e-004 0.
      2.62896327e-004 0. 0. 1.75474022e-004 2.12919826e-004 0. 0. 0. 0.
      0. 0. 0. 0. 0. 0. 0. 4.82579198e-004 0. 2.12919826e-004
      2.12919826e-004 0. 5.84558409e-004 0. 0. 0. 1.49629923e-004 0. 0.
      1.92493433e-004 0. 0. 0. 0. 2.91359611e-004 0. 0. 0.
      6.76822732e-004 0. 0. 1.86680205e-004 0. 1.95190281e-004 0. 0. 0.
      0. 0. 0. 0. 0. 0. 0. 0. 0. 5.51096804e-004 0. 0. 0.
      4.15315997e-004 0. 6.80840341e-004 0. 0. 0. 0. 0. 0.
      1.54798312e-004 0. 0. 0. 3.58439400e-004 9.77611053e-004
      1.70946703e-004 0. 1.56000571e-003 0. 0. 0. 0. 0. 0.
      2.62896327e-004 0. 3.09239200e-004 0. 0. 4.94999695e-004 0.
      3.94377974e-004 0. 0. 0. 0. 2.91359611e-004 0. 0. 2.62896327e-004
      0. 0. 0. 0. 0. 0. 0. 0. 1.86680205e-004 0. 0. 0. 0.
      2.84459587e-004 0. 0. 4.75749839e-004 0. 0. 5.83195535e-004 0.
      1.33643544e-003 0. 0. 0. 0. 0. 0. 0. 4.40194883e-004
      2.91359611e-004 0. 0. 2.91597768e-004 0. 0. 8.62151384e-004
      4.14633105e-004 0. 0. 0. 0. 0. 4.09898988e-004 2.83036992e-004 0.
      2.83036992e-004 6.80840341e-004 8.50567885e-004 1.86680205e-004 0.
      0. 0. 1.01999938e-003 0. 4.15315997e-004 2.25928659e-003 0. 0. 0.
      0. 0. 0. 0. 0. 0. 0. 0. 0. 4.17416333e-004 0. 0. 0. 0. 0. 0. 0. 0.
      0. 5.26659831e-004 0. 0. 0. 1.64360928e-004 3.58439400e-004 0. 0.
      0. 0. 0. 4.15315997e-004 1.54798312e-004 4.52876789e-004 0.
      2.45029526e-003 7.50663632e-004 0. 0. 0. 0. 0. 1.05331048e-004 0.
      0. 0. 3.09239200e-004 0. 0. 0. 0. 0. 6.66309556e-004
      1.75474022e-004 0. 0. 0. 0. 0. 4.51363594e-004 0. 2.83036992e-004
      5.57656866e-004 3.05568421e-004 4.52876789e-004 0. 0.
      1.22212910e-003 3.05568421e-004 0. 2.32063443e-003 0.
      6.80840341e-004 0. 0. 0. 0. 0. 1.70472125e-003 0. 0. 0. 0. 0. 0.
      0. 1.86353328e-003 1.01999938e-003 0. 0. 1.75474022e-004 0.
      2.84459587e-004 0. 5.57332707e-004 0. 1.54798312e-004 0. 0. 0. 0.
      3.53326148e-004 0. 0. 0. 0. 5.84558409e-004 0. 2.83036992e-004 0.
      0. -1.92965753e-002 0. 2.23600166e-003 0. 0. 0. 1.11800083e-003 0.
      0. 4.17416333e-004 3.05568421e-004 0. 0. 0. 0. 0. 5.26446092e-004
      0. 0. 0. 3.84279498e-004 0. 0. 1.86680205e-004 0. 2.05582153e-004
      0. 0. 0. 2.58023804e-003 0. 3.82485637e-003 0. 0. 0. 0. 0. 0. 0.
      0. 0. 4.34204994e-004 0. 0. 0. 0. 0. 1.95287936e-003 0. 0. 0. 0.
      1.11800083e-003 1.83754053e-003 0. 2.13782580e-004 8.30631994e-004
      0. 6.80840341e-004 0. 0. 0. 0. 0. 0. 4.17416333e-004
      -1.61290318e-002 0. 0. 1.47530227e-003 0. 0. 0. 0. 2.05582153e-004
      0. 0. 0. 3.84279498e-004 0. 6.62795501e-004 0. 0. 0. 0. 0.
      5.14446059e-004 0. 0. 0. 4.18448646e-004 0. 1.64360928e-004 0.
      4.18448646e-004 1.95287936e-003 0. 0. 6.04699191e-004 0.
      1.95287936e-003 0. 0. 1.29029853e-003 4.94999695e-004 0.
      2.61419686e-003 0. 0. 0. 0. 0. 0. 2.58763204e-004 0. 0. 0. 0. 0.
      0. 0. 1.86680205e-004 0. 0. 5.26446092e-004 0. 0. 0. 0. 0. 0.
      4.51363594e-004 1.05331966e-003 1.92493433e-004 0. 7.50663632e-004
      0. 2.91359611e-004 0. 4.51363594e-004 0. 4.34204994e-004 0.
      9.95862065e-004 0. 0. 8.34832666e-004 -2.17391308e-002 0. 0.
      4.84481890e-004 0. 3.82485637e-003 0. 0. 0. 0. 6.93429960e-004 0.
      0. 0. 6.80840341e-004 0. 7.16515468e-004 0. 0. 0. 1.95190281e-004
      0. 4.88805526e-004 0. 0. 6.04699191e-004 0. 7.32965767e-004 0.
      1.45945896e-003 3.27133108e-004 0. 1.03129493e-003 0. 0.
      2.83036992e-004 0. 0. 6.66309556e-004 3.94377974e-004
      4.17416333e-004 0. 0. 0. 0. 0. 0. 0. 2.80432345e-004
      2.10448820e-003 0. 0. 0. 7.65206583e-004 0. 0. 4.94999695e-004 0.
      0. 2.39477027e-003 0. 0. 0. 5.26446092e-004 6.66309556e-004
      2.62896327e-004 0. 0. 0. 0. 3.84279498e-004 5.97307633e-004 0. 0.
      0. 3.76185955e-004 0. 0. 2.41289599e-004 7.78761576e-004 0. 0. 0.
      5.14446059e-004 0. 4.10649052e-004 2.80432345e-004 0.
      8.80389765e-004 0. 0. 0. 4.27565159e-004 4.14633105e-004 0. 0. 0.
      2.39477027e-003 1.75474022e-004 2.83036992e-004 0. 0.
      4.71821375e-004 0. 6.68614230e-004 0. 0. 1.01774256e-003 0. 0. 0.
      2.15119612e-003 0. 3.27133108e-004 1.33643544e-003 0. 0.
      2.91359611e-004 0. 0. 0. 0. 0. 0. 0. 0. 2.98676523e-003 0. 0. 0.
      2.94975558e-004 0. 3.31397750e-004 0. 2.99099163e-004 0.
      5.57656866e-004 0. 0. 0. 0. 3.94377974e-004 0. 0. 0. 0.
      5.26446092e-004 0. 0. 0. 0. 1.54798312e-004 2.12919826e-004
      5.26446092e-004 0. 0. 0. 0. 0. 0. 1.19738514e-003 5.57656866e-004
      0. 0. 0. 0. 2.80432345e-004 0. 0. 5.25792653e-004 7.68558995e-004
      2.70838453e-003 0. 3.09239200e-004 0. 1.65548292e-003 0. 0. 0.
      5.14446059e-004 3.94377974e-004 0. 0. 0. 0. 1.86680205e-004
      1.86680205e-004 1.86353328e-003 0. 0. 0. 0. 0. 5.27014316e-004 0.
      1.75474022e-004 0. 0. 0. 0. 0. 0. 0. 0. 0. 0. 0. 0. 0.
      8.67459632e-004 0. 0. 1.52825014e-004 0. 1.05331048e-004
      4.09898988e-004 0. 0. 0. 0. 4.34204994e-004 4.33729816e-004 0.
      6.93429960e-004 1.52825014e-004 0. 0. 0. 0. 0. 0. 1.86353328e-003
      0. 1.16611074e-003 2.41289599e-004 0. 4.10649052e-004 0. 0. 0. 0.
      0. 0. 0. 0. 7.65206583e-004 0. 0. 0. 4.52876789e-004 0. 0. 0. 0.
      0. 0. 0. 4.07437154e-004 0. 7.28458574e-004 0. 2.50193919e-003
      8.50567885e-004 0. 0. 0. 8.62151384e-004 0. 0. 0. 0. 0. 0. 0. 0.
      5.26659831e-004 3.84279498e-004 0. 0. 0. 0. 2.91597768e-004 0. 0.
      0. 1.95287936e-003 0. 0. 7.50663632e-004 6.93429960e-004
      2.13782580e-004 0. 0. 5.26659831e-004 1.70946703e-004
      1.16031722e-003 5.57656866e-004 0. 0. 0. 0. 0. 0. 0. 0. 0.
      8.48994707e-004 0. 2.83036992e-004 5.51096804e-004 0.
      3.64229287e-004 0. 0. 1.74487568e-003 3.31397750e-004 0. 0. 0. 0.
      0. 0. 0. 1.49909791e-003 0. -1.61290318e-002 -1.61290318e-002 0.
      0. 0. 4.52876789e-004 1.86353328e-003 0. 0. 0. 0. 1.16611074e-003
      1.64360928e-004 0. 0. 4.18448646e-004 0. 0. 0. 0. 0.
      1.65774359e-003 0. 0. 0. 0. 0. 3.05568421e-004 6.93429960e-004 0.
      0. 0. 0. 3.58439400e-004 0. 0. 0. 1.86353328e-003 6.80840341e-004
      0. 0. 5.27014316e-004 3.31397750e-004 3.58439400e-004 0. 0. 0. 0.
      0. 0. 0. 4.15315997e-004 1.36589946e-003 0. 1.86680205e-004
      2.77657504e-003 0. 0. 3.53326148e-004 0. 0. 0. 0. 1.70472125e-003
      0. 0. 1.16031722e-003 1.75474022e-004 7.52371910e-004 0.
      2.91597768e-004 0. 0. 0. 0. 0. 4.75749839e-004 4.34204994e-004 0.
      6.15139899e-004 0. 0. 0. 1.11800083e-003 0. 0. 6.62795501e-004 0.
      1.63937137e-002 9.75441595e-004 0. 1.52825014e-004 4.40194883e-004
      1.92493433e-004 1.70946703e-004 0. 0. 0. 0. 0. 0. 0.
      3.58439400e-004 2.05582153e-004 0. 0. 7.65206583e-004
      4.14633105e-004 0. 1.10219361e-003 0. 0. 0. 0. 0. 0. 0. 0. 0.
      5.98565908e-004 2.84459587e-004 0. 3.82485637e-003 7.78761576e-004
      0. 0. 0. 1.22212910e-003 0. 0. 0. 0. 2.13782580e-004 0. 0. 0. 0.
      0. 0. 3.58439400e-004 9.75441595e-004 0. 0. 0. 0. 2.83036992e-004
      0. 1.54798312e-004 4.40194883e-004 0. 0. 0. 0. 7.50663632e-004 0.
      0. 0. 3.64229287e-004 0. 4.20104247e-003 0. 3.40944249e-003 0. 0.
      1.70472125e-003 0. 0. 8.68409988e-004 0. 0. 0. 0. 2.76572281e-003
      0. 0. 0. 1.54798312e-004 0. 0. 0. 0. 0. 3.09239200e-004 0. 0. 0.
      0. 0. 3.31397750e-004 1.29598018e-003 0. 0. 0. 3.58439400e-004 0.
      0. 0. 3.53326148e-004 0. 0. 0. 1.01774256e-003 0. 0.
      1.75474022e-004 0. 0. 0. 1.11068902e-003 0. 0. 0. 0. 0. 0. 0. 0.
      3.82485637e-003 0. 0. 0. 0. 0. 0. 0. 0. 4.71821375e-004 0.
      1.55582454e-003 0. 0. 0. 3.05568421e-004 0. 5.26446092e-004
      4.14633105e-004 1.49418681e-003 2.00051605e-003 0. 0. 0.
      -2.13629454e-002 6.41347782e-004 0. 4.20897640e-003 0. 0. 0. 0. 0.
      0. 0. 0. 0. 0. 0. 3.64229287e-004 0. 4.33729816e-004
      5.57656866e-004 0. 0. 0. 0. -2.14803685e-002 7.78761576e-004 0. 0.
      4.71821375e-004 0. 0. 0. 0. 0. 0. 0. 0. 3.82485637e-003 0. 0. 0.
      0. 0. 0. 0. 0. 0. 2.01088516e-003 0. -1.61290318e-002 0. 0.
      1.33643544e-003 0. 0. 0. 0. 6.80840341e-004 0. 0. 0. 0. 0.
      1.86353328e-003 0. 0. 0. 0. 0. 0. 0. 0. 0. 0. 4.17416333e-004
      5.97307633e-004 0. 0. 7.46459758e-004 0. 0. 0. 3.94377974e-004 0.
      0. 0. 0. 0. 0. 0. 0. 6.68614230e-004 1.34624366e-003
      8.62151384e-004 4.51363594e-004 0. 1.70946703e-004
      -2.09779684e-002 0. 0. 4.33729816e-004 0. 0. 0. 2.80432345e-004 0.
      0. 4.17416333e-004 0. 0. 0. 0. 0. 0. 0. 0. 8.80389765e-004
      4.10649052e-004 0. 0. 3.84279498e-004 0. 0. 2.84459587e-004</_></support_vectors>
  <decision_functions>
    <_>
      <sv_count>1</sv_count>
      <rho>-1.0000212190149929e+000</rho>
      <alpha>
        1.</alpha>
      <index>
        0</index></_></decision_functions></my_svm>
</opencv_storage>
