<?xml version="1.0"?>
<opencv_storage>
<my_svm type_id="opencv-ml-svm">
  <svm_type>C_SVC</svm_type>
  <kernel><type>LINEAR</type></kernel>
  <C>1.</C>
  <term_criteria><epsilon>2.2204460492503131e-016</epsilon>
    <iterations>100</iterations></term_criteria>
  <var_all>10000</var_all>
  <var_count>10000</var_count>
  <class_count>2</class_count>
  <class_labels type_id="opencv-matrix">
    <rows>1</rows>
    <cols>2</cols>
    <dt>i</dt>
    <data>
      -1 1</data></class_labels>
  <sv_total>1</sv_total>
  <support_vectors>
    <_>
      0. 0. 5.34327526e-004 0. 0. 0. 0. 1.03219273e-003 0. 0.
      4.39105293e-004 0. 1.36442133e-004 3.40618775e-004 0. 0.
      6.82944199e-004 1.35100062e-003 8.74101010e-004 0. 7.53412896e-004
      0. 0. 8.18050001e-004 1.29368552e-003 2.98779138e-004
      3.55102587e-004 0. 0. 9.06687521e-004 0. 0. 0. 0. 0.
      1.72319904e-003 4.95322223e-004 0. 1.07187705e-004 0.
      1.46036502e-003 0. 3.57598765e-004 4.47212398e-004 0. 0. 0. 0. 0.
      1.77533264e-004 0. 4.39105293e-004 0. 9.62756749e-004 0. 0.
      6.75751071e-004 0. 0. 5.34906809e-004 0. 1.58959778e-003 0. 0. 0.
      3.13971861e-004 0. 0. 1.78302260e-004 5.91705088e-004 0. 0.
      8.79594125e-004 1.60248054e-003 0. 1.17576332e-003 0.
      1.37437441e-004 4.02757054e-004 0. 0. 7.90413469e-004
      2.03882664e-004 0. 0. 0. 9.49529291e-004 0. 3.13650351e-004 0. 0.
      0. 0. 0. 3.80110869e-004 0. 7.01997487e-004 5.40319073e-004 0. 0.
      0. 2.79107073e-004 0. 1.28440064e-004 0. 1.96546479e-003
      6.31894567e-004 0. 0. 0. 0. 0. 0. 0. 8.18050001e-004 0. 0. 0.
      2.03015326e-004 0. 0. 6.75751071e-004 0. 0. 7.00067845e-004 0. 0.
      3.08557181e-004 0. 3.08557181e-004 3.95206735e-004 0. 0. 0. 0. 0.
      0. 6.00428670e-004 0. 6.90648681e-004 0. 7.61809351e-004 0. 0.
      1.88538877e-004 0. 0. 3.56159668e-004 5.83606539e-004 0. 0. 0. 0.
      0. 1.36442133e-004 1.34768768e-003 0. 4.71256004e-004 0. 0.
      9.31555813e-004 0. 0. 0. 0. 2.95192993e-004 3.02284112e-004
      4.39105293e-004 6.82944199e-004 0. 9.45831940e-004 0.
      3.17259575e-004 0. 0. 1.01941332e-004 2.80818931e-004
      8.65353388e-004 2.35316023e-004 0. 0. 6.59657584e-004 0. 0. 0.
      4.33756795e-004 0. 3.08557181e-004 0. 0. 3.46459099e-004 0. 0. 0.
      0. 0. 1.98244728e-004 2.06613913e-003 0. 1.11212437e-004 0.
      5.66929870e-004 1.45799795e-003 -2.24425662e-002 1.01636990e-003
      1.98244728e-004 0. 3.48179659e-004 4.05333005e-004 0. 0. 0. 0.
      1.01729913e-003 1.31176814e-004 2.26618053e-004 7.15793052e-004 0.
      2.03015326e-004 0. 0. 0. 0. 3.27602145e-004 0. 7.61809351e-004 0.
      3.56604520e-004 5.34683175e-004 6.82944199e-004 3.08557181e-004 0.
      0. 0. 0. 0. 6.01807726e-004 0. 0. 0. 0. 0. 0. 1.11212437e-004 0.
      0. 0. 4.53070505e-004 7.30127795e-004 0. 0. 0. 0. 2.20671311e-004
      1.78206756e-004 1.07463135e-003 0. -2.25761309e-002
      6.75751071e-004 2.79107073e-004 2.25083888e-004 0. 5.90385986e-004
      3.46459099e-004 0. 0. 4.30269894e-004 3.48179659e-004 0.
      2.43890157e-004 3.88723129e-004 4.47212398e-004 0. 0.
      -2.13757716e-002 3.57598765e-004 0. 1.28440064e-004
      8.17335094e-004 0. 5.65667055e-004 0. 0. 8.78934108e-004
      1.11212437e-004 6.96188596e-004 0. 1.42835092e-003 0.
      9.72801237e-004 1.58057606e-003 2.43525472e-004 0. 6.96188596e-004
      5.40319073e-004 5.49192191e-004 1.98244728e-004 0. 0. 0. 0. 0. 0.
      6.27943722e-004 0. -2.07496211e-002 6.96359319e-004
      1.78206756e-004 5.36116597e-004 1.07187705e-004 0. 0.
      2.18242611e-004 0. 0. 5.65667055e-004 0. 2.58738350e-004 0. 0.
      4.70632047e-004 6.27943722e-004 0. 1.13175972e-003 0. 0.
      3.17259575e-004 5.90571028e-004 0. 0. 0. 2.03882664e-004
      1.97094074e-003 0. 5.01839386e-004 0. 8.34360661e-004 0. 0. 0. 0.
      0. 0. 0. 0. 0. 0. 0. 2.03015326e-004 0. 5.40319073e-004
      3.40618775e-004 0. 1.51804090e-003 0. 2.70085118e-004
      1.28440064e-004 1.78302260e-004 2.98779138e-004 0. 4.58127382e-004
      0. 1.37437441e-004 2.43890157e-004 0. 9.82732396e-004
      1.13776675e-003 0. 0. 7.32162269e-004 0. 0. 0. 0. 0.
      1.15405623e-004 0. 2.72928854e-004 7.67754100e-004 0. 0. 0.
      3.46147106e-004 1.61925782e-004 2.75519298e-004 0. 0.
      1.02592004e-003 0. 0. 0. 0. 0. 0. 0. 0. 1.01570797e-003 0. 0.
      3.48179659e-004 2.42673414e-004 0. 4.92761494e-004 0. 0.
      7.61809351e-004 9.36520228e-004 0. 3.88723129e-004 0.
      3.48179659e-004 0. 6.82944199e-004 0. 0. 0. 0. 2.14443411e-004
      3.95206735e-004 0. 0. 3.15947284e-004 0. 0. 3.08557181e-004 0.
      2.30741483e-004 0. 4.02757054e-004 5.59171720e-004 8.78210587e-004
      0. 0. 1.21805130e-003 3.42469051e-004 3.86458094e-004 0.
      1.36442133e-004 5.59171720e-004 0. 0. 0. 1.28440064e-004 0. 0.
      2.38021661e-004 0. 7.90413469e-004 7.11004075e-004 0.
      2.70085118e-004 2.26535252e-004 0. 2.75263941e-004 8.61348701e-004
      0. 0. 0. 7.32162269e-004 5.40319073e-004 0. 0. 0. 0. 0. 0.
      2.95968668e-004 0. 0. 0. 0. 0. 0. 9.72126960e-004 0.
      2.58738350e-004 0. 0. 0. 0. 0. 6.82944199e-004 0. 1.36442133e-004
      1.78302260e-004 0. -2.32558139e-002 0. 0. 7.32162269e-004
      4.53070505e-004 3.46459099e-004 7.77446257e-004 0.
      -2.20358763e-002 5.67545358e-004 0. 0. 8.94973637e-004
      4.47260682e-004 1.39892357e-003 0. 7.15793052e-004 0. 0.
      3.48179659e-004 5.01839386e-004 6.82944199e-004 0. 9.82732396e-004
      1.28930598e-003 1.78206756e-004 2.56880128e-004 1.48323388e-003
      5.79530082e-004 0. 0. 0. 5.36116597e-004 0. 0. 0. 0.
      2.33070983e-004 1.98244728e-004 0. 0. 0. 0. 0. 5.90571028e-004 0.
      0. 7.61809351e-004 4.70632047e-004 5.34683175e-004 2.30741483e-004
      0. 2.33070983e-004 0. 0. 0. 0. 3.48179659e-004 0. 0. 0.
      4.06030653e-004 0. 0. 0. 0. 0. 0. 0. 0. 5.23646828e-004 0.
      4.47212398e-004 2.03882664e-004 0. 0. 6.59657584e-004
      1.07187705e-004 9.09793715e-004 9.82732396e-004 0. 0. 0. 0. 0.
      7.15834263e-004 0. 0. 0. 1.01941332e-004 0. 2.98779138e-004 0.
      5.36116597e-004 0. 7.98623543e-004 0. 8.78013030e-004 0.
      1.61925782e-004 0. 0. 0. 5.65667055e-004 0. 0. 0. 0. 0.
      -2.24722568e-002 8.32002435e-004 1.78206756e-004 3.00214335e-004
      0. 4.95322223e-004 0. 1.78206756e-004 3.13971861e-004
      1.06432673e-003 -2.30375715e-002 0. 0. 7.18525844e-004
      5.36116597e-004 0. 0. 7.97772722e-004 5.34906809e-004 0.
      2.20671311e-004 2.98779138e-004 0. 0. 0. 3.56159668e-004
      2.12398218e-003 2.56880128e-004 0. 0. 6.75751071e-004 0.
      2.18242611e-004 0. 0. 0. 2.21702992e-003 0. 0. 0. 0.
      3.48179659e-004 7.27851002e-004 0. 2.74874881e-004
      -2.32558139e-002 2.66165356e-003 6.75751071e-004 1.36442133e-004
      -6.90516531e-002 0. 0. 4.97509376e-004 0. 0. 8.78210587e-004 0.
      2.23630341e-004 0. 0. 0. 4.05333005e-004 5.90571028e-004 0.
      2.33070983e-004 -2.11546123e-002 1.88538877e-004 1.98244728e-004
      5.52001584e-004 3.22012871e-004 0. 1.15405623e-004 3.46459099e-004
      9.41449602e-004 4.02757054e-004 0. 9.25671484e-004 1.47984334e-004
      0. 0. 0. 0. 0. 8.10666010e-004 0. 0. 4.11277724e-004 0. 0. 0. 0.
      1.37437441e-004 7.30127795e-004 0. 0. 2.75519298e-004 0. 0.
      3.79255565e-004 0. 0. 0. 0. 0. 0. 2.58738350e-004 0.
      3.22012871e-004 0. 0. 0. 0. 1.74831634e-003 0. 0. 2.26535252e-004
      0. 0. 0. 0. 2.95285514e-004 3.88723129e-004 0. 0. 0. 0. 0. 0. 0.
      2.42673414e-004 0. 0. 2.75263941e-004 4.81363997e-004 0. 0.
      5.51943667e-004 0. 0. 0. 0. 0. 0. 0. 0. 5.29414101e-004 0. 0. 0.
      1.31931517e-003 0. 0. 6.27943722e-004 3.17259575e-004
      1.77533264e-004 0. 0. 0. 0. 1.97897293e-003 3.56604520e-004 0.
      2.18750734e-004 0. 2.38021661e-004 7.98516907e-004 0. 0. 0. 0.
      2.58738350e-004 9.82732396e-004 0. 3.50505183e-003 3.56604520e-004
      0. 0. 1.01941332e-004 0. 0. 4.61622491e-004 0. 4.09880420e-004 0.
      0. 0. 5.22946473e-004 4.50167776e-004 5.65667055e-004 0. 0. 0.
      1.31176814e-004 6.84938102e-004 0. 2.42673414e-004 0.
      1.01941332e-004 0. 0. 0. 6.75751071e-004 0. 0. 0. 2.72928854e-004
      4.85346827e-004 2.20671311e-004 0. 0. 2.07316852e-003 0. 0. 0. 0.
      0. 6.97843614e-004 7.61809351e-004 0. 0. 5.65699942e-004 0. 0. 0.
      0. 0. 1.06609392e-003 0. 0. 1.13071676e-003 1.36588840e-003
      2.98779138e-004 0. 0. -2.25656796e-002 0. 4.68789513e-004
      3.79255565e-004 2.75519298e-004 0. 5.65667055e-004 3.79255565e-004
      4.81363997e-004 0. 0. 0. 2.95285514e-004 0. 0. 6.75751071e-004 0.
      0. 0. 0. 2.33070983e-004 0. 5.65667055e-004 0. 4.70632047e-004
      4.44813864e-004 0. 6.96188596e-004 0. 6.44233834e-004 0.
      1.36442133e-004 4.68789513e-004 0. 1.98244728e-004 8.10666010e-004
      3.15947284e-004 0. 1.61793304e-003 2.22424875e-004 6.82944199e-004
      0. 0. 2.25083888e-004 4.12312307e-004 0. 0. 1.63801073e-004
      1.13175972e-003 0. 4.97509376e-004 0. 0. 0. 5.50783239e-004
      4.95322223e-004 2.80818931e-004 3.56159668e-004 9.20701132e-004
      3.57598765e-004 1.07187705e-004 1.02592004e-003 1.02592004e-003
      8.18050001e-004 3.46459099e-004 0. 0. 0. 0. 2.43890157e-004 0. 0.
      0. 8.05514108e-004 0. 2.75519298e-004 4.92761494e-004 0. 0. 0.
      1.11212437e-004 0. 4.71256004e-004 0. 0. 3.51880852e-004
      1.98244728e-004 0. 0. 2.25083888e-004 0. 0. 2.58738350e-004 0.
      1.94669014e-003 3.45268310e-003 0. 0. 5.01794450e-004
      2.78557860e-003 0. 7.12319335e-004 2.03882664e-004 1.06609392e-003
      -2.20888685e-002 1.95652642e-003 0. 0. 0. 0. 0. 3.27602145e-004 0.
      6.96188596e-004 0. 0. 2.14375410e-004 0. 0. 0. 0. 0.
      1.08063815e-003 5.34683175e-004 0. 0. 4.70632047e-004 0.
      2.18750734e-004 0. 0. 1.28440064e-004 7.12319335e-004
      6.96188596e-004 0. 0. 0. 1.77533264e-004 4.61482967e-004 0. 0. 0.
      0. 2.75519298e-004 0. 0. 1.02592004e-003 0. 5.20257629e-004
      3.17259575e-004 0. 0. 5.22409449e-004 2.75519298e-004
      2.03015326e-004 0. 3.22012871e-004 4.95322223e-004 6.21929008e-004
      3.40618775e-004 1.31176814e-004 0. 0. 2.22406932e-004 0. 0. 0.
      3.95067647e-004 0. 0. 0. 5.90385986e-004 1.97897293e-003
      4.05333005e-004 4.58127382e-004 0. 5.36116597e-004 7.61809351e-004
      0. 1.59350608e-003 7.32113607e-004 0. 3.08557181e-004 0.
      -2.17013527e-002 2.14375410e-004 5.40170236e-004 0. 0. 0.
      2.50919693e-004 0. 3.40618775e-004 0. 9.62756749e-004 0.
      6.59657584e-004 0. 0. 0. 4.93480591e-004 0. 1.07187705e-004 0. 0.
      3.13971861e-004 0. 2.26535252e-004 -2.22930852e-002 0.
      3.88723129e-004 0. 0. 2.95285514e-004 0. 0. 0. 6.75751071e-004 0.
      0. 0. 2.75519298e-004 0. 0. 3.79255565e-004 0. 1.37437441e-004
      3.88723129e-004 0. 0. 0. 0. -2.32558139e-002 0. 6.59657584e-004 0.
      0. 0. 0. 6.59657584e-004 0. 0. 0. 0. 0. 0. 0. 1.07187705e-004
      1.13175972e-003 0. 0. 0. 1.98244728e-004 0. 0. 0. 0. 0. 0. 0. 0.
      0. 0. 0. 1.11834344e-003 1.02874497e-003 0. 5.36116597e-004
      4.49759449e-004 0. 5.59171720e-004 6.54727861e-004 1.63801073e-004
      0. 1.98244728e-004 0. 0. 6.84938102e-004 0. 6.71121175e-004 0. 0.
      0. 0. 2.20671311e-004 4.71256004e-004 2.43890157e-004 0.
      5.94734214e-004 0. 0. 1.15405623e-004 7.91540602e-004 0. 0. 0.
      5.65667055e-004 0. 4.70632047e-004 1.63801073e-004 1.28440064e-004
      0. 0. 0. 0. 1.02592004e-003 2.79107073e-004 3.48179659e-004 0.
      2.70085118e-004 0. 1.15405623e-004 0. 0. 0. 0. 2.42673414e-004
      3.40618775e-004 1.35855656e-003 0. 1.33370259e-003 0. 0. 0. 0. 0.
      0. 0. 0. 1.63801073e-004 3.79255565e-004 0. 1.09620407e-004 0.
      6.09045965e-004 2.80818931e-004 1.11212437e-004 0. 0. 0.
      8.48921132e-004 2.38021661e-004 4.39105293e-004 0. 0. 0.
      9.95018752e-004 0. 0. 7.15197530e-004 0. 3.17259575e-004
      1.98244728e-004 0. 0. 0. 8.95107456e-004 0. 0. 0. 3.95206735e-004
      0. 1.51142056e-004 0. 2.75263941e-004 0. 0. 0. 0. 6.96188596e-004
      0. 4.06030653e-004 0. 7.72099243e-004 6.83232909e-004
      2.95192993e-004 0. 0. 0. 0. 7.14064983e-004 0. 0. 0. 0.
      2.43525472e-004 2.26535252e-004 0. 5.65667055e-004 0. 0. 0. 0. 0.
      0. 1.88538877e-004 0. 6.15341181e-004 1.51142056e-004 0. 0.
      3.95067647e-004 0. 0. 7.37683615e-004 0. 3.34686862e-004 0. 0. 0.
      0. 0. 0. -2.24685352e-002 0. 0. 5.65667055e-004 0. 0. 0. 0. 0. 0.
      0. 0. 2.22406932e-004 0. 0. 0. 3.62132152e-004 1.20077841e-003 0.
      0. -2.05034912e-002 0. 0. 3.30818031e-004 0. 3.77077755e-004
      4.05333005e-004 4.36485221e-004 9.13685653e-004 0. 2.95285514e-004
      0. 4.58692957e-004 1.88538877e-004 0. 0. 0. 2.30811245e-004
      1.45377265e-003 1.52217015e-003 0. 0. 1.11834344e-003
      2.96542933e-003 2.58738350e-004 0. 2.25083888e-004 0.
      2.70085118e-004 1.52361870e-003 0. 0. 2.33070983e-004 0. 0. 0. 0.
      0. 3.15947284e-004 3.57598765e-004 0. 0. 7.67754100e-004
      3.48179659e-004 0. 1.31176814e-004 0. 1.37437441e-004 0.
      5.36116597e-004 0. 2.20671311e-004 0. 1.09876285e-003
      2.70085118e-004 2.58738350e-004 3.57598765e-004 0. 0. 0. 0. 0.
      1.06609392e-003 4.75480891e-004 5.92069817e-004 0. 6.82154263e-004
      0. 0. 5.22946473e-004 2.18750734e-004 2.18750734e-004
      2.75519298e-004 5.90571028e-004 0. 0. 0. 0. 0. 6.82667480e-004
      1.61925782e-004 0. 4.88603080e-004 0. 0. 2.18750734e-004
      4.97509376e-004 0. 0. 0. 0. 0. 0. 0. 0. 5.45857707e-004 0.
      -2.22319514e-002 0. 3.88723129e-004 1.07187705e-004 0. 0. 0.
      4.05333005e-004 0. 0. 0. 3.17259575e-004 5.40170236e-004 0. 0. 0.
      1.37437441e-004 4.28886822e-004 3.37747682e-004 0. 0.
      9.22965934e-004 -2.27272734e-002 8.94424797e-004 0.
      2.80818931e-004 0. 0. 5.59171720e-004 1.89576263e-003 0. 0. 0. 0.
      0. 0. 0. 1.66872132e-003 3.93530441e-004 0. 0. 5.65667055e-004
      4.97509376e-004 4.21159551e-004 0. 0. 4.85346827e-004
      3.15947284e-004 2.05184007e-003 0. 1.97897293e-003 4.39458585e-004
      5.23844676e-004 0. 1.20625377e-003 0. 1.08063815e-003 0.
      3.13971861e-004 0. 0. 0. 1.63610000e-003 2.70085118e-004
      8.59989668e-004 0. 6.25948247e-004 0. 4.71256004e-004 0. 0.
      2.95192993e-004 2.03015326e-004 0. 3.42469051e-004 0.
      2.35316023e-004 0. 0. 0. 3.42469051e-004 6.49558264e-004
      9.95018752e-004 0. 0. 0. 0. 0. 2.26351945e-003 1.21220655e-003 0.
      2.18750734e-004 7.81808631e-004 4.92761494e-004 1.13175972e-003
      4.78516595e-004 2.23630341e-004 0. 0. 0. 0. 0. 3.57712066e-004
      2.30811245e-004 0. 0. 1.31176814e-004 0. 2.75519298e-004
      2.41731017e-004 3.17259575e-004 2.38021661e-004 0. 0. 0.
      3.56159668e-004 4.81363997e-004 2.62353627e-004 0. 1.11212437e-004
      0. 9.01388645e-004 3.02284112e-004 0. 0. 2.23630341e-004 0. 0. 0.
      0. 0. 0. 0. 3.48179659e-004 0. 0. 4.47212398e-004 0. 0.
      6.59657584e-004 0. 9.62727994e-004 5.90349257e-004 2.30741483e-004
      0. 2.30741483e-004 0. 0. 0. 0. 0. 1.28440064e-004 2.42673414e-004
      0. -2.22486723e-002 8.39829387e-004 0. 0. 0. 2.79107073e-004 0.
      1.47760240e-003 0. 0. 2.72928854e-004 0. 0. 0. 6.82944199e-004
      1.11212437e-004 6.75042684e-004 3.46459099e-004 0. 0. 0. 0. 0.
      1.78206756e-004 0. 1.07187705e-004 1.67547492e-003 9.53068724e-004
      0. 0. -4.65116277e-002 1.88538877e-004 0. 0. 0. 0. 0.
      3.15947284e-004 0. 0. 0. 0. 0. 4.02757054e-004 0. 0. 0.
      2.95192993e-004 5.64701739e-004 0. 0. 0. 4.85346827e-004
      9.86390980e-004 5.99089428e-004 5.36116597e-004 0. 2.72928854e-004
      0. 0. 3.08557181e-004 3.22012871e-004 0. 0. 0. 0. 0. 0. 0.
      7.01153243e-004 0. 7.15197530e-004 0. 6.90412067e-004
      3.09383555e-004 0. 0. 9.74531402e-004 -2.04933640e-002
      7.58511131e-004 6.01807726e-004 3.13971861e-004 0. 0. 0.
      2.21323082e-003 0. 0. 4.71256004e-004 0. 0. 0. 0. 0. 0. 0. 0. 0.
      0. 0. 1.07187705e-004 1.88538877e-004 2.22424875e-004
      3.48179659e-004 0. 2.70085118e-004 7.55052606e-004 2.30811245e-004
      5.58214146e-004 6.23762258e-004 7.30127795e-004 6.82944199e-004 0.
      4.05333005e-004 0. 0. 0. 0. 6.00428670e-004 0. 5.40170236e-004
      -2.32558139e-002 1.21149176e-003 0. 0. 0. 0. 0. 0. 0.
      1.98244728e-004 4.58127382e-004 0. 0. 3.55066528e-004 0.
      5.89304196e-004 9.95018752e-004 0. 1.78302260e-004 3.95206735e-004
      0. 0. 1.28440064e-004 0. 6.38073077e-004 1.09931710e-003 0.
      4.21826931e-004 0. 0. 1.21607014e-003 1.15405623e-004
      5.90571028e-004 3.95206735e-004 0. 0. 1.30528386e-003
      3.51812865e-004 1.37437441e-004 0. 0. 3.95206735e-004 0.
      1.06609392e-003 0. 0. 0. 0. 0. 8.92641256e-004 7.30127795e-004 0.
      0. 6.01807726e-004 0. 3.95206735e-004 0. 0. 0. 0. 1.15405623e-004
      1.51142056e-004 0. 2.14443411e-004 5.29228477e-004 0.
      2.23630341e-004 5.65667055e-004 0. 0. 0. 0. 0. 0. 0. 0.
      2.70085118e-004 4.60399926e-004 2.22406932e-004 0. 0. 0.
      7.30127795e-004 0. 0. 1.63610000e-003 3.00214335e-004
      6.63765182e-004 0. 2.22406932e-004 0. 0. 0. 7.61809351e-004 0. 0.
      0. 0. 0. 0. 0. 7.46775302e-004 0. 0. 4.21826931e-004 0.
      8.21138034e-004 0. 0. 2.26535252e-004 0. 4.92761494e-004 0.
      2.72928854e-004 5.65667055e-004 0. 3.65860469e-004 6.96188596e-004
      0. 0. 4.70632047e-004 0. 5.36116597e-004 1.15405623e-004 0. 0. 0.
      0. 2.43890157e-004 8.18050001e-004 0. 2.95968668e-004
      5.34327526e-004 2.42673414e-004 5.51038596e-004 3.48179659e-004 0.
      0. 0. 2.14375410e-004 6.01807726e-004 0. 5.22946473e-004 0. 0.
      2.43525472e-004 0. 1.15405623e-004 4.39105293e-004 0.
      5.40319073e-004 0. 0. 0. 8.80447915e-004 2.30741483e-004
      2.43525472e-004 7.61809351e-004 1.51142056e-004 0. 0. 0. 0. 0.
      1.37437441e-004 1.46432454e-003 3.56159668e-004 4.39105293e-004 0.
      0. 0. 2.70085118e-004 2.56880128e-004 0. 0. 0. 5.59171720e-004
      7.15793052e-004 0. 0. 1.98244728e-004 0. 0. 0. 0. 0. 0.
      4.68789513e-004 0. 0. 0. 0. 3.57598765e-004 2.35316023e-004
      1.78302260e-004 0. 6.75751071e-004 0. 2.14443411e-004 0.
      2.43890157e-004 0. 0. 2.80818931e-004 0. 3.95206735e-004 0.
      4.03605896e-004 3.08557181e-004 0. 0. 1.77533264e-004 0. 0. 0. 0.
      0. 0. 6.44025742e-004 0. 0. 0. 1.06609392e-003 4.73508670e-004 0.
      1.28440064e-004 0. 0. 0. 0. 0. 5.36116597e-004 0. 0. 0. 0. 0.
      2.75519298e-004 0. 0. 8.34360661e-004 2.75519298e-004 0. 0. 0. 0.
      9.95018752e-004 7.05948099e-004 0. 2.26535252e-004 2.50919693e-004
      0. 1.63801073e-004 0. 4.47212398e-004 7.30127795e-004 0. 0.
      2.18750734e-004 0. 0. 0. 0. 0. 8.21138034e-004 0. 0.
      7.13564863e-004 0. 3.22012871e-004 0. 0. 0. 3.40618775e-004 0.
      2.75519298e-004 0. 1.37437441e-004 6.06965739e-004 0.
      5.07274352e-004 0. 0. 0. 0. 2.35316023e-004 0. 2.38021661e-004 0.
      0. 2.42673414e-004 2.67163763e-004 0. 0. 0. 1.03872130e-003
      6.31894567e-004 0. 0. 1.36442133e-004 -2.15803385e-002
      1.63801073e-004 0. 0. 1.71738118e-003 0. 0. 4.92761494e-004 0.
      3.08557181e-004 0. 2.18750734e-004 6.96188596e-004 3.79255565e-004
      0. 0. 0. 8.43374699e-004 0. 0. 3.08557181e-004 0. -2.15515587e-002
      1.15405623e-004 2.43525472e-004 0. 1.09620407e-004 8.34360661e-004
      0. 0. 2.41731017e-004 0. 2.25083888e-004 5.22946473e-004 0. 0.
      -1.88947301e-002 0. 0. 0. 1.07187705e-004 1.26981025e-003
      2.38021661e-004 3.79255565e-004 4.47212398e-004 0. 1.15405623e-004
      0. 0. 2.50919693e-004 1.39023399e-003 0. 6.67220796e-004
      1.15405623e-004 0. 3.23851564e-004 3.17259575e-004 1.78302260e-004
      0. 1.63801073e-004 0. 3.95067647e-004 0. 3.42469051e-004
      1.14465819e-003 0. 0. 0. 0. 0. 0. 7.58511131e-004 0.
      3.40618775e-004 1.09620407e-004 0. 0. 6.08348346e-004
      6.96188596e-004 3.56159668e-004 0. 2.79107073e-004 0.
      6.75751071e-004 5.01839386e-004 0. 0. 0. 0. 2.95285514e-004
      4.44813864e-004 3.13971861e-004 2.14443411e-004 0. 0. 0. 0.
      2.41731017e-004 3.42469051e-004 5.59171720e-004 0. 2.95192993e-004
      0. 0. 1.35150214e-003 0. 5.92576398e-004 0. 3.50505183e-003
      2.43525472e-004 0. 2.20671311e-004 0. 3.40618775e-004 0.
      1.02592004e-003 0. 9.05886351e-004 2.26351945e-003 1.06194022e-003
      3.40618775e-004 0. 0. 0. 8.69525946e-004 3.88723129e-004
      2.79107073e-004 2.95285514e-004 0. 4.76043322e-004 0.
      4.21826931e-004 0. 4.37501469e-004 0. 0. 2.38021661e-004 0.
      1.37437441e-004 0. 2.50919693e-004 0. 0. 0. 2.35316023e-004
      2.18750734e-004 0. 3.56159668e-004 2.18242611e-004 0.
      9.81288729e-004 3.65860469e-004 2.58738350e-004 0. 0. 0.
      4.62621014e-004 0. 1.63801073e-004 4.70632047e-004 2.22406932e-004
      2.70085118e-004 0. 0. 3.27602145e-004 0. 0. 3.95067647e-004
      1.20361545e-003 4.83462034e-004 0. 1.06609392e-003 3.17259575e-004
      0. 0. 0. 3.48179659e-004 0. 3.96489457e-004 1.61925782e-004 0. 0.
      0. 0. 3.00214335e-004 1.61925782e-004 1.13175972e-003 0. 0. 0.
      1.01941332e-004 5.62449277e-004 2.03015326e-004 4.81363997e-004 0.
      0. 0. 0. 2.80818931e-004 0. 0. 4.71256004e-004 0. 2.26535252e-004
      0. 3.57598765e-004 4.02757054e-004 0. 0. 0. 0. 3.22012871e-004 0.
      0. 4.21826931e-004 0. 4.00613673e-004 2.22424875e-004
      2.38021661e-004 1.07187705e-004 2.58738350e-004 9.35139367e-004
      2.15008529e-003 1.09620407e-004 0. 1.01941332e-004 0. 0. 0. 0.
      2.26535252e-004 0. 2.41731017e-004 1.49252824e-003 0. 0. 0.
      1.28440064e-004 0. 0. 0. 2.43890157e-004 7.76215049e-004 0.
      5.90385986e-004 0. 0. 0. 0. 3.40618775e-004 0. 0. 1.38469122e-003
      0. 0. 0. 0. 2.72928854e-004 0. 0. 0. 0. 7.90135295e-004 0. 0. 0.
      6.96188596e-004 1.06609392e-003 4.47212398e-004 0. 0.
      2.43890157e-004 0. 0. 0. 7.31670472e-004 0. 0. 8.60619533e-004
      -2.22677328e-002 0. 5.65667055e-004 4.05333005e-004 0. 0. 0.
      3.02284112e-004 0. 0. 0. 0. 0. 0. 3.22012871e-004 2.70085118e-004
      0. 0. 2.98779138e-004 0. 0. 9.45573091e-004 5.45857707e-004 0.
      1.21763244e-003 0. 1.06609392e-003 0. 0. 0. 3.95206735e-004 0.
      1.77533264e-004 6.75751071e-004 1.75252592e-003 0. 0. 0. 0.
      4.45699639e-004 9.95018752e-004 0. 0. 0. 0. 6.59657584e-004
      2.23630341e-004 0. 0. 2.11561739e-004 4.02757054e-004
      3.46459099e-004 0. 0. 0. 2.23630341e-004 3.46459099e-004
      6.82944199e-004 0. 1.11212437e-004 0. 1.01941332e-004 0. 0.
      1.18458259e-003 0. 0. 0. 0. 0. 0. 0. 0. 0. 2.41731017e-004
      1.56704092e-003 -4.26081643e-002 0. 0. 0. 0. -2.20570806e-002 0.
      0. 0. 0. 0. 0. 0. 0. -2.17896942e-002 7.61809351e-004
      4.97509376e-004 5.36116597e-004 2.67163763e-004 0. 8.10255355e-004
      0. 0. 0. 0. 0. 1.13175972e-003 0. 0. 9.19574639e-004 0. 0. 0. 0.
      5.22946473e-004 2.33132532e-003 1.36442133e-004 6.21602871e-004 0.
      1.01941332e-004 0. 7.30576401e-004 7.32162269e-004 6.34519150e-004
      0. 0. 0. 6.80852332e-004 0. 9.24839696e-004 0. 0. 0. 0. 0. 0.
      4.45370533e-004 6.59657584e-004 0. 0. 0. 3.08557181e-004
      1.75252592e-003 0. 0. 7.87213852e-004 0. 0. 0. 8.75002937e-004 0.
      6.56373973e-004 1.28440064e-004 2.14443411e-004 1.28440064e-004
      8.92276235e-004 0. 0. 2.30811245e-004 1.11212437e-004 0. 0. 0. 0.
      0. 0. 0. 0. 0. 0. -2.29605287e-002 0. 2.80818931e-004
      1.78206756e-004 3.46459099e-004 0. 1.52102392e-003 0. 0. 0. 0. 0.
      0. 0. 0. 0. 0. 4.95322223e-004 0. 0. 8.45073140e-004 0.
      1.04589295e-003 0. 3.55066528e-004 0. -2.08217353e-002 0. 0. 0.
      2.30741483e-004 0. 3.63972678e-004 0. 0. 0. 0. 0. 0. 0.
      6.82944199e-004 0. 0. 0. 0. 5.49749762e-004 0. 5.97558275e-004 0.
      2.14443411e-004 0. 0. 0. 2.62353627e-004 3.17259575e-004 0. 0.
      2.95192993e-004 0. 0. 0. 0. 0. 0. 1.25715532e-003 0.
      1.78302260e-004 1.07700645e-003 1.01941332e-004 0. 4.92761494e-004
      0. 0. 0. 0. -2.27272734e-002 3.40618775e-004 0. 2.70085118e-004
      9.37579025e-004 0. 4.66141966e-004 0. 0. 2.98779138e-004 0. 0.
      5.65667055e-004 6.96188596e-004 0. 0. 0. 0. 2.79107073e-004
      8.64161353e-004 1.63801073e-004 4.81363997e-004 8.18050001e-004 0.
      0. 0. 0. 0. 0. 0. 0. 7.30127795e-004 1.15405623e-004
      1.07187705e-004 0. 0. 1.25566137e-003 0. 0. 0. 6.96359319e-004 0.
      0. 3.75000155e-003 0. 0. 0. 0. 0. 3.95206735e-004 1.52361870e-003
      3.17259575e-004 0. 8.80146574e-004 4.65780060e-004 0. 0. 0. 0. 0.
      2.35316023e-004 0. 4.47212398e-004 0. 0. 0. 0. 0. 0.
      1.63801073e-004 0. 0. 5.92778844e-004 1.98244728e-004
      3.17259575e-004 0. 0. 1.46432454e-003 4.44813864e-004
      2.72928854e-004 6.31894567e-004 0. 0. 0. 3.95206735e-004 0. 0.
      2.43525472e-004 0. 0. 8.34360661e-004 0. 2.80818931e-004 0. 0. 0.
      0. 0. 0. 0. 0. 1.34678255e-003 0. 0. 2.41731017e-004 0.
      1.28440064e-004 5.22946473e-004 2.43890157e-004 0. 4.39198688e-004
      0. 0. 0. 0. 1.84755283e-003 5.59171720e-004 0. 0. 0.
      9.82732396e-004 0. 0. 0. 0. 0. 2.38021661e-004 0. 0.
      7.77446257e-004 4.61482967e-004 0. 0. 0. 4.69670427e-004
      6.75751071e-004 0. 0. 0. 0. -2.19137706e-002 3.42469051e-004 0. 0.
      0. 0. 0. 0. 0. 0. 6.96188596e-004 0. 3.14648874e-004 0.
      7.02109188e-004 2.67163763e-004 2.67163763e-004 0. 0. 0. 0. 0. 0.
      4.02757054e-004 0. 0. 0. 0. 0. 2.73442152e-003 0. 0. 0.
      2.75519298e-004 0. 1.99675839e-003 9.37579025e-004 4.71256004e-004
      1.08063815e-003 0. 0. 5.59171720e-004 0. 0. 0. 0. 7.01997487e-004
      0. 5.34683175e-004 0. 8.43653863e-004 0. 8.46969895e-004
      7.15793052e-004 0. 1.78302260e-004 0. 8.18050001e-004
      3.48179659e-004 0. 6.75751071e-004 0. 0. 2.18242611e-004 0.
      2.95192993e-004 0. 2.67163763e-004 1.61925782e-004 5.36116597e-004
      0. 2.18242611e-004 0. 1.47594220e-003 6.96188596e-004
      4.77489084e-004 0. 0. 0. 1.23894750e-003 2.43525472e-004
      4.05333005e-004 0. 3.48179659e-004 0. 9.25671484e-004 0. 0.
      4.02757054e-004 0. 0. 2.42673414e-004 2.03882664e-004 0. 0. 0. 0.
      2.42673414e-004 8.18050001e-004 5.59171720e-004 0. 0.
      1.01941332e-004 3.65860469e-004 0. 0. 9.82732396e-004
      1.47984334e-004 0. 1.28440064e-004 0. 4.72472515e-004
      8.26393778e-004 0. 0. 0. 2.70085118e-004 2.72928854e-004 0. 0. 0.
      1.31176814e-004 0. 4.04105667e-004 6.75751071e-004 0.
      6.38957776e-004 0. 0. 0. 0. 1.63801073e-004 1.78302260e-004 0. 0.
      0. 0. 0. 1.31176814e-004 1.04589295e-003 0. 0. 0. 4.81363997e-004
      -1.85620952e-002 2.98779138e-004 1.75252592e-003 1.63610000e-003
      2.25083888e-004 0. 0. 3.88723129e-004 4.92247636e-004
      4.58127382e-004 2.79107073e-004 0. 2.56880128e-004 0. 0.
      2.38021661e-004 0. 5.99696068e-004 5.36116597e-004 0. 0. 0. 0.
      2.23630341e-004 2.72884266e-004 0. 8.85856571e-004 0.
      1.59891555e-003 6.34519150e-004 1.58018270e-003 0. 0. 0.
      7.12319335e-004 0. 0. 0. 6.75751071e-004 0. 1.66872132e-003 0.
      2.95192993e-004 0. -2.27272734e-002 0. 9.41548322e-004 0. 0. 0. 0.
      1.28440064e-004 0. 4.81363997e-004 0. 0. 0. 0. 0. 0. 0. 0.
      1.02592004e-003 3.08557181e-004 0. 2.23630341e-004 2.67163763e-004
      0. 8.34360661e-004 3.05824011e-004 0. 1.01941332e-004 0.
      3.50505183e-003 0. 0. 0. 1.98244728e-004 0. 0. 0. 3.13971861e-004
      0. 5.65667055e-004 3.95206735e-004 2.30741483e-004 1.75252592e-003
      0. 2.98779138e-004 0. 0. 5.40319073e-004 0. 0. 0. 1.79711741e-003
      1.36442133e-004 6.96188596e-004 0. 2.33070983e-004 4.05333005e-004
      0. 0. 0. 4.39105293e-004 2.25083888e-004 0. 0. 2.95285514e-004 0.
      1.63610000e-003 0. 4.41342621e-004 2.58738350e-004 4.61482967e-004
      0. 0. 4.21826931e-004 0. 1.36442133e-004 0. 3.17259575e-004 0.
      1.07187705e-004 0. 0. 7.30127795e-004 1.14102161e-003 0. 0.
      5.90571028e-004 0. 0. 0. 1.69681641e-003 0. 1.32613443e-003 0. 0.
      0. 0. 0. 3.40618775e-004 2.70085118e-004 0. 0. 2.95192993e-004 0.
      0. 7.65695935e-004 1.04589295e-003 0. 0. 1.09620407e-004 0.
      1.04598200e-003 0. 2.43525472e-004 0. 1.11834344e-003 0.
      1.69700116e-003 2.90899235e-003 0. 0. 0. 0. 0. 0. 0.
      1.15405623e-004 0. 3.27602145e-004 0. 0. 0. 0. 0. 9.99831012e-004
      4.94270003e-004 7.61809351e-004 0. 0. 0. 0. 0. 0. 0. 0. 0. 0.
      6.01807726e-004 1.61925782e-004 0. 7.15793052e-004 1.28440064e-004
      5.65667055e-004 0. 0. 0. 8.10404192e-004 3.48179659e-004 0.
      6.92224421e-004 3.88723129e-004 1.09620407e-004 0. 0. 0. 0. 0.
      1.07187705e-004 0. 0. 0. 2.50919693e-004 0. 4.81363997e-004 0. 0.
      3.48179659e-004 2.67163763e-004 6.96359319e-004 0. 4.02757054e-004
      0. 0. 0. 0. 0. 5.97558275e-004 5.14953397e-004 0. 5.34683175e-004
      0. 0. 0. 0. 0. 0. 1.13175972e-003 -2.16813795e-002 0.
      2.58738350e-004 1.11632049e-003 0. 0. 2.72884266e-004 0. 0. 0. 0.
      1.43053883e-003 2.30811245e-004 3.40618775e-004 0. 0. 0. 0. 0. 0.
      0. 1.15405623e-004 0. 4.71256004e-004 0. 5.69831696e-004
      7.15793052e-004 2.23630341e-004 5.34327526e-004 0. 1.63801073e-004
      0. 0. 0. 6.59657584e-004 0. 1.61545025e-003 0. 0. 1.31176814e-004
      0. 3.95206735e-004 3.22012871e-004 1.11212437e-004 0.
      8.21525347e-004 0. 2.58738350e-004 0. 0. 0. 9.88199259e-004
      2.42673414e-004 0. 2.42673414e-004 0. 2.26535252e-004 0. 0.
      3.56159668e-004 0. 0. 0. 0. 5.04827127e-004 6.82944199e-004
      6.01807726e-004 1.08063815e-003 2.41731017e-004 0. 0. 0.
      1.01593474e-003 1.63801073e-004 0. 0. 7.15793052e-004 0.
      2.14375410e-004 0. 0. 0. 1.21993676e-003 0. 8.85856571e-004 0. 0.
      2.75519298e-004 0. 6.96188596e-004 0. 0. 1.11834344e-003
      1.08063815e-003 2.35316023e-004 5.34683175e-004 0. 0. 0. 0.
      1.28440064e-004 0. 2.80818931e-004 0. 6.96188596e-004
      6.01662498e-004 2.75519298e-004 0. 0. 1.88538877e-004 0.
      7.82938791e-004 0. 0. 9.27100773e-004 0. 0. 0. 1.09620407e-004
      4.21826931e-004 0. 0. 0. 0. 0. 0. 2.14443411e-004 0. 0.
      7.32162269e-004 5.22946473e-004 0. 0. 7.61809351e-004 0.
      1.98244728e-004 0. 0. 0. 0. 3.46459099e-004 0. 0. 0.
      3.88723129e-004 0. 0. 0. 0. 0. 6.75751071e-004 0. 0. 0. 0. 0.
      4.41342621e-004 0. 0. 0. 6.96188596e-004 0. 0. 0. 1.78302260e-004
      0. 0. 1.07187705e-004 0. 0. 0. 4.81363997e-004 0. 0. 0.
      5.22946473e-004 0. 7.49564788e-004 0. 0. 2.67163763e-004
      3.08557181e-004 0. 0. 3.08557181e-004 3.56159668e-004
      5.58214146e-004 2.80818931e-004 1.06609392e-003 0.
      -2.27272734e-002 0. 5.90571028e-004 0. 0. 0. 1.39237719e-003 0.
      3.42469051e-004 4.39105293e-004 0. 0. 2.03882664e-004 0. 0. 0. 0.
      0. 0. 9.85522987e-004 1.28440064e-004 0. 2.95192993e-004 0. 0. 0.
      2.26535252e-004 0. 0. 0. 6.81237550e-004 0. 0. 0. 1.26903830e-003
      0. 2.25083888e-004 0. 0. 2.14375410e-004 3.08557181e-004 0.
      2.70085118e-004 0. 0. 0. 7.61809351e-004 0. 8.78210587e-004 0.
      1.35814189e-003 0. 0. 0. 0. 0. 4.92650724e-004 0. 0.
      3.40618775e-004 5.58214146e-004 0. 0. 2.98779138e-004
      3.08557181e-004 0. 7.15793052e-004 0. 0. 0. 0. 0. 0.
      4.05333005e-004 4.58127382e-004 0. 0. 0. 0. 1.06609392e-003
      3.40618775e-004 0. 0. 0. 0. 4.76043322e-004 1.37467973e-003 0. 0.
      0. 7.08329491e-004 0. 0. 0. 2.98779138e-004 0. 9.90644447e-004 0.
      0. 0. -2.22345125e-002 0. 0. 0. 7.61809351e-004 0. 0.
      5.84200083e-004 0. 0. 8.92986194e-004 0. 2.50919693e-004 0.
      1.06609392e-003 3.95206735e-004 1.02592004e-003 3.17259575e-004
      7.74462300e-004 0. 0. 0. 1.96546479e-003 2.95285514e-004 0. 0. 0.
      2.23630341e-004 0. 0. 0. 2.33070983e-004 0. 4.37501469e-004 0. 0.
      2.18242611e-004 3.79255565e-004 0. 0. 0. 6.82944199e-004 0. 0.
      1.47984334e-004 2.23630341e-004 0. 0. 0. 0. 5.90571028e-004
      3.15947284e-004 0. 5.30955789e-004 0. 2.95285514e-004
      2.18750734e-004 8.48876254e-004 0. 0. 2.42673414e-004
      4.76043322e-004 0. 2.95285514e-004 7.61809351e-004 8.10666010e-004
      0. 2.20671311e-004 0. 0. 1.38030970e-003 0. 8.03376315e-004 0. 0.
      0. 0. 4.81363997e-004 3.56604520e-004 0. 0. 0. 0. 0.
      6.84938102e-004 2.78557860e-003 0. 8.85756803e-004 6.82944199e-004
      0. 1.13175972e-003 1.11834344e-003 0. 0. 6.75751071e-004
      2.14443411e-004 0. 2.35316023e-004 4.97509376e-004 6.96359319e-004
      0. 5.90571028e-004 0. 0. 3.17259575e-004 0. 0. 0. 7.61809351e-004
      0. -4.54545468e-002 0. 0. 1.32029864e-003 0. 0. 0. 0. 0.
      6.59657584e-004 0. 0. 0. 0. 0. 0. 0. 9.82732396e-004 0.
      1.36442133e-004 0. 0. 1.01941332e-004 0. 2.14737933e-003 0. 0. 0.
      0. 9.82732396e-004 1.04671274e-003 0. 2.75519298e-004
      1.52361870e-003 1.06847892e-003 0. 1.37437441e-004 0.
      3.48179659e-004 0. 3.15947284e-004 0. 2.20671311e-004 0.
      1.78302260e-004 0. 0. 3.22012871e-004 4.71256004e-004 0.
      7.04120146e-004 0. 0. 0. 7.38874660e-004 0. 0. 2.35316023e-004
      4.68789513e-004 0. 0. 0. 3.23838857e-003 0. 0. 1.37437441e-004 0.
      6.82944199e-004 1.00569951e-003 3.17259575e-004 2.30741483e-004 0.
      0. 0. 0. 0. 0. 0. 0. 0. 2.13218783e-003 0. 4.50167776e-004 0.
      2.41731017e-004 0. 0. 0. 1.35150214e-003 1.31176814e-004 0. 0. 0.
      3.56159668e-004 0. 0. 0. 0. 0. 0. 0. 0. 0. 2.22406932e-004 0. 0.
      0. 0. 0. 1.01941332e-004 2.30741483e-004 0. 0. 0. 0.
      7.61809351e-004 0. 0. 2.14375410e-004 7.81684823e-004 0. 0. 0. 0.
      0. 9.42512008e-004 3.95067647e-004 0. 0. 0. 0. 0. 0.
      5.22946473e-004 3.95206735e-004 0. 0. 0. 2.18242611e-004
      4.39105293e-004 2.07429449e-003 0. 2.43525472e-004 2.95192993e-004
      0. 6.82944199e-004 0. 0. 3.08557181e-004 3.17259575e-004
      3.79255565e-004 0. 0. 0. 0. 1.07187705e-004 3.79255565e-004 0.
      2.67163763e-004 3.54157382e-004 0. 0. 0. 0. 2.72928854e-004
      5.65667055e-004 1.01941332e-004 4.53070505e-004 1.15405623e-004 0.
      0. 0. 4.80695075e-004 0. 9.51778668e-004 0. 0. 0. 1.11212437e-004
      9.04655084e-004 0. 0. 4.81363997e-004 0. 0. 4.44813864e-004 0.
      1.12113892e-003 0. 0. 3.57598765e-004 0. 4.71256004e-004
      2.95285514e-004 0. 2.43525472e-004 7.61809351e-004 0. 0.
      1.37437441e-004 0. 0. 8.18050001e-004 0. 3.40618775e-004
      1.61925782e-004 4.81363997e-004 -2.32558139e-002 5.97558275e-004
      3.56159668e-004 0. 1.13175972e-003 0. 0. 0. 0. 1.48132595e-003
      -4.54545468e-002 7.15793052e-004 3.96489457e-004 2.98779138e-004
      0. 0. 0. 0. 0. 0. 0. 6.75751071e-004 0. 2.18750734e-004
      6.96188596e-004 0. 3.56159668e-004 0. 0. 0. 0. 0. 0.
      2.42673414e-004 2.42673414e-004 0. 7.15793052e-004 0. 0. 0.
      4.21826931e-004 0. 0. 6.69542060e-004 0. 0. 0. 9.62727994e-004
      1.77533264e-004 3.95206735e-004 0. 0. 0. 4.87050944e-004 0.
      2.43525472e-004 4.95322223e-004 0. 0. 4.39105293e-004 0. 0. 0. 0.
      0. 0. 0. 1.28440064e-004 4.02757054e-004 0. 0. 0. 2.98779138e-004
      0. 0. 6.96188596e-004 0. 1.61925782e-004 4.71256004e-004 0. 0. 0.
      6.67996472e-004 0. 0. 2.42673414e-004 0. 7.53757718e-004 0. 0. 0.
      0. 0. 6.96359319e-004 0. 0. 0. 0. 1.37437441e-004 0. 0. 0. 0. 0.
      0. 1.28440064e-004 1.61925782e-004 0. 0. 6.82944199e-004 0. 0. 0.
      4.02757054e-004 0. 0. 6.82944199e-004 1.61925782e-004
      1.15405623e-004 7.78240443e-004 0. 0. 0. 0. 0. 0. 0.
      4.92761494e-004 1.78302260e-004 8.18050001e-004 0. 6.07920403e-004
      0. 0. 1.47984334e-004 0. 4.70632047e-004 0. 2.95192993e-004 0. 0.
      0. 0. 4.95322223e-004 0. 0. 0. 0. 0. 0. 4.00709192e-004
      9.90644447e-004 2.70085118e-004 0. 1.02592004e-003 0. 0. 0.
      2.50919693e-004 5.40319073e-004 0. 0. 0. 0. 0. 0. 0.
      2.80818931e-004 1.63801073e-004 0. 0. 0. 0. 2.70085118e-004 0.
      6.82944199e-004 0. 0. 6.01807726e-004 0. 4.56640351e-004
      1.77533264e-004 0. 0. 0. 0. 0. 0. 0. 0. 6.75751071e-004
      8.58114392e-004 1.64250901e-003 0. 3.00214335e-004 1.75252592e-003
      0. 0. 0. 7.26923288e-004 0. 0. 0. 0. 0. 0. 0. 0. 0. 0.
      3.09383555e-004 4.02757054e-004 0. 0. 0. 0. 3.22012871e-004 0. 0.
      0. 0. 0. 0. 0. 1.28440064e-004 0. 0. 0. 0. 4.92761494e-004 0.
      5.06419165e-004 2.50919693e-004 8.42603215e-004 0. 0.
      7.15793052e-004 0. 0. 2.18242611e-004 0. 5.51038596e-004 0. 0.
      2.42673414e-004 0. 0. 1.02592004e-003 2.30741483e-004 0.
      9.82732396e-004 2.41731017e-004 0. 0. 0. 0. 6.82944199e-004
      2.67163763e-004 0. 0. 0. 1.61925782e-004 9.90644447e-004 0. 0. 0.
      3.88723129e-004 0. 1.14700710e-003 0. 0. 0. 1.13175972e-003 0. 0.
      1.00757217e-003 0. 0. 0. 1.06609392e-003 3.48179659e-004
      6.82944199e-004 0. 1.88538877e-004 0. 0. 0. 0. 0. 4.21826931e-004
      7.50363106e-004 0. 0. 2.30811245e-004 1.13133411e-003
      6.54727861e-004 1.97760970e-003 0. 0. 0. 1.51142056e-004 0. 0. 0.
      0. 1.78302260e-004 0. 0. 4.32765437e-003 1.61925782e-004 0. 0. 0.
      0. 3.95206735e-004 8.85856571e-004 5.90385986e-004 3.70409194e-004
      0. 1.17289508e-003 0. 1.31176814e-004 0. 6.59657584e-004 0. 0.
      5.36116597e-004 0. 0. 6.81237550e-004 6.82944199e-004
      9.62756749e-004 0. 0. 0. 0. 1.30687596e-003 3.79255565e-004 0. 0.
      0. 0. -2.17801649e-002 0. 0. 0. 0. 0. 1.48311118e-003
      4.81363997e-004 5.59171720e-004 2.95192993e-004 0. 6.12326548e-004
      0. 0. 0. 0. 0. 8.10666010e-004 4.68789513e-004 8.85756803e-004
      1.31176814e-004 2.14901543e-003 1.36588840e-003 0. 0. 0. 0. 0. 0.
      2.70085118e-004 2.95192993e-004 0. 0. 0. 2.25083888e-004 0. 0. 0.
      0. 0. 4.87780315e-004 0. 1.07362447e-003 0. 2.95285514e-004 0.
      3.46459099e-004 1.07187705e-004 0. 2.72884266e-004 6.56252203e-004
      0. 1.43158610e-003 0. 2.58738350e-004 0. 1.61925782e-004 0. 0. 0.
      4.95322223e-004 0. 0. 0. 0. 1.18710252e-003 0. 0. 3.56604520e-004
      2.23630341e-004 0. 0. 0. 4.97509376e-004 0. 6.70890964e-004
      4.39105293e-004 0. 0. 0. 2.41731017e-004 2.14375410e-004 0.
      2.18750734e-004 0. 0. 4.85346827e-004 6.11130090e-004 0. 0. 0.
      2.72928854e-004 0. 7.15793052e-004 9.62756749e-004 6.74784125e-004
      0. 0. 6.59657584e-004 0. 0. 5.59171720e-004 0. 4.92761494e-004 0.
      0. 2.70085118e-004 5.36116597e-004 0. 0. 5.36116597e-004
      3.02284112e-004 2.35316023e-004 1.36442133e-004 2.14443411e-004 0.
      0. 3.17259575e-004 0. 0. 0. 0. 2.43890157e-004 0. 2.20671311e-004
      0. 0. 0. 2.79107073e-004 0. 4.81363997e-004 0. 0. 0. 0.
      2.03015326e-004 1.04589295e-003 0. 0. 0. 0. 0. 0. 0. 0.
      2.14375410e-004 0. 0. 0. 4.39105293e-004 0. 0. 0. 3.46459099e-004
      0. 1.02289952e-003 0. 0. 2.33070983e-004 1.88538877e-004
      1.06936635e-003 0. 9.62727994e-004 0. 8.18050001e-004 0. 0.
      3.50505183e-003 0. 3.56413511e-004 0. 0. 0. 4.95466287e-004 0. 0.
      0. 0. 2.75263941e-004 0. 1.01941332e-004 6.59657584e-004
      2.43890157e-004 0. 0. 0. 3.56159668e-004 0. 0. 1.78302260e-004 0.
      0. 4.58127382e-004 9.82732396e-004 1.78302260e-004 2.33070983e-004
      5.36116597e-004 5.34683175e-004 0. 3.17259575e-004 0. 0.
      2.41731017e-004 0. 0. 1.36442133e-004 0. 2.22406932e-004
      7.47426762e-004 0. 0. 0. 0. 1.63801073e-004 0. 9.53449577e-004
      4.02757054e-004 0. 0. 0. 5.65667055e-004 2.23630341e-004 0. 0. 0.
      4.97509376e-004 0. 0. 0. 0. 0. 0. -4.65116277e-002 0.
      2.20671311e-004 5.17476699e-004 0. 0. 0. 0. 0. 0. 5.34683175e-004
      0. 0. 0. 0. 0. 0. 0. 0. 0. 0. 1.08063815e-003 3.00214335e-004 0.
      3.95067647e-004 0. 2.75519298e-004 4.36485221e-004 0. 0.
      3.08557181e-004 1.09620407e-004 7.32162269e-004 0. 4.92761494e-004
      0. 0. 0. 0. 1.01748062e-003 0. 0. 0. 0. 1.61925782e-004 0.
      2.98779138e-004 0. 2.58738350e-004 0. 0. 0. 1.11212437e-004 0. 0.
      4.68789513e-004 0. 3.52861040e-004 0. 0. 5.59171720e-004 0. 0. 0.
      0. 0. 0. 2.43890157e-004 0. 0. 0. 0. 0. 2.14443411e-004 0.
      1.02592004e-003 0. 0. 2.98779138e-004 0. 0. 3.57598765e-004 0. 0.
      0. 0. 0. 3.65860469e-004 3.96489457e-004 6.47064007e-004 0.
      1.29117782e-003 2.35316023e-004 3.57598765e-004 5.34683175e-004 0.
      0. 0. 0. 2.25083888e-004 0. 0. 0. 6.83310151e-004 1.06609392e-003
      1.05799094e-003 7.15793052e-004 0. 5.40170236e-004 8.18050001e-004
      0. 2.95285514e-004 1.78206756e-004 0. 0. 0. 0. 1.02592004e-003
      1.32141227e-003 0. 0. 0. 0. 0. 0. 0. 0. 4.97509376e-004 0.
      4.02757054e-004 0. 0. 0. 3.08557181e-004 0. 1.88538877e-004 0.
      3.48179659e-004 0. 1.40636868e-003 0. 0. 0. 7.77446257e-004 0. 0.
      2.25083888e-004 5.65667055e-004 0. 0. 0. 1.11212437e-004 0. 0.
      3.79255565e-004 5.67130395e-004 0. 0. 0. 0. 0. 1.88538877e-004 0.
      0. 2.00144527e-003 6.27943722e-004 4.95322223e-004 2.98779138e-004
      2.18750734e-004 3.19828163e-003 0. 0. 0. 0. 3.65860469e-004
      3.88723129e-004 0. 0. 0. 1.31931517e-003 7.92794919e-004 0. 0.
      2.38021661e-004 2.43525472e-004 0. 2.30741483e-004 7.61218369e-004
      3.96489457e-004 0. 2.58738350e-004 0. 1.06609392e-003 0.
      3.08557181e-004 0. 0. 0. 0. 0. 0. 0. 1.29792595e-003 0. 0. 0.
      2.42673414e-004 1.51142056e-004 0. 1.15866878e-003 0. 0. 0. 0. 0.
      0. 0. 0. 0. 1.01941332e-004 0. 0. 0. 0. 0. 0. 0. 0. 0.
      3.15947284e-004 3.22012871e-004 1.09620407e-004 0. 0. 0. 0.
      1.63801073e-004 0. 0. 0. 0. 5.40319073e-004 0. 1.13175972e-003 0.
      0. 0. 0. 5.36116597e-004 3.21563130e-004 0. 0. 6.82944199e-004
      2.33070983e-004 1.15405623e-004 0. 1.77533264e-004 0. 0. 0.
      2.67163763e-004 0. 0. 0. 0. 0. 0. 0. 3.79255565e-004
      2.18242611e-004 3.53583746e-004 0. 0. 0. 0. 0. 0. 0. 0.
      6.96188596e-004 0. 0. 0. 1.00818777e-003 0. 0. 0. 1.11834344e-003
      0. 0. 0. 0. 1.01941332e-004 0. 0. 0. 0. 4.81363997e-004 0.
      2.67163763e-004 0. 0. 0. 6.96188596e-004 1.02592004e-003 0.
      1.06609392e-003 0. 6.59657584e-004 0. 0. 0. 0. 0. 2.41731017e-004
      0. 0. 0. 0. 7.32162269e-004 0. 0. 3.79255565e-004 0. 0. 0. 0. 0.
      0. 8.73021781e-004 0. 0. 0. 2.70085118e-004 0. 0. 0.
      3.57598765e-004 0. 0. 6.84938102e-004 2.35316023e-004 0. 0.
      4.61482967e-004 0. 2.35316023e-004 0. 0. 2.50919693e-004
      1.96546479e-003 3.00214335e-004 0. 0. 0. 0. 0. 0. 2.98779138e-004
      4.68789513e-004 0. 0. 0. 0. 1.07187705e-004 9.82732396e-004 0. 0.
      0. 4.92761494e-004 3.57598765e-004 0. 2.14443411e-004 0.
      3.95206735e-004 0. 4.97509376e-004 3.57598765e-004 0. 0.
      4.85346827e-004 0. 0. 0. 0. 0. 6.19240338e-004 0. 1.98244728e-004
      0. 0. 0. 0. 0. 0. 0. 7.61809351e-004 2.75519298e-004 0.
      3.65860469e-004 3.79255565e-004 0. 6.23575645e-004 0. 0. 0.
      2.35316023e-004 0. 7.15793052e-004 0. 0. 0. 0. 0. 0.
      3.56159668e-004 1.96546479e-003 0. 0. 4.68789513e-004
      4.39105293e-004 0. 0. 0. 5.22946473e-004 0. 0. 3.57598765e-004 0.
      2.18242611e-004 0. 0. 2.95192993e-004 1.31176814e-004
      2.43525472e-004 1.63801073e-004 0. 1.77533264e-004 0. 0.
      8.78210587e-004 0. 2.79107073e-004 1.32335117e-003 3.17259575e-004
      0. 0. 0. 0. 3.42469051e-004 0. 0. 3.46216868e-004 6.82944199e-004
      0. 1.78302260e-004 6.82944199e-004 0. 0. 0. 1.78302260e-004
      1.13175972e-003 0. 3.13971861e-004 0. 0. 0. 0. 0. 2.95285514e-004
      0. 1.88538877e-004 0. 1.37437441e-004 0. 0. 2.95285514e-004 0.
      3.48179659e-004 7.76215049e-004 0. 7.30127795e-004 0.
      3.95067647e-004 0. 6.65963104e-004 0. 0. 0. 0. 0. 0.
      2.22406932e-004 2.72928854e-004 9.82732396e-004 0. 0.
      -2.21645907e-002 1.58829533e-003 5.65667055e-004 1.36442133e-004
      2.43890157e-004 0. 0. 0. 0. 0. 2.22406932e-004 0. 0.
      3.13971861e-004 0. 0. 1.47984334e-004 0. 7.61809351e-004
      3.57598765e-004 9.82732396e-004 0. 0. 0. 8.10666010e-004 0. 0. 0.
      0. -2.12324206e-002 0. 1.78206756e-004 3.40618775e-004 0. 0. 0. 0.
      0. 2.75519298e-004 2.43525472e-004 0. 0. 0. 3.48179659e-004
      8.18050001e-004 2.50919693e-004 6.97791285e-004 0. 0. 0. 0. 0. 0.
      2.50919693e-004 0. 0. 3.15947284e-004 0. 0. 0. 4.02757054e-004
      -2.06096396e-002 0. 1.39370398e-003 0. 4.21826931e-004
      4.95322223e-004 0. 0. 0. 0. 0. 0. 3.40618775e-004 0. 0. 0. 0. 0.
      7.23368488e-004 2.67163763e-004 3.17259575e-004 0. 0.
      6.01807726e-004 0. 0. 0. 0. 0. 0. 0. 0. 0. 0. 1.13175972e-003 0.
      0. 3.79255565e-004 1.09620407e-004 1.31176814e-004 3.57598765e-004
      1.01941332e-004 2.98779138e-004 0. 8.81484593e-004 0. 0. 0. 0.
      -2.12679729e-002 0. 7.61809351e-004 1.75252592e-003
      1.36442133e-004 5.36116597e-004 0. 0. 2.35316023e-004 0. 0. 0. 0.
      0. 9.62727994e-004 1.11212437e-004 0. 0. 0. 0. 0. 0.
      4.56024398e-004 0. 0. 9.62727994e-004 0. 0. 5.65667055e-004
      4.81363997e-004 5.65667055e-004 0. 0. 0. 1.88538877e-004
      3.88723129e-004 2.95285514e-004 7.61809351e-004 0. 0.
      5.98833081e-004 4.39105293e-004 0. 0. 0. 0. 8.18050001e-004 0. 0.
      0. 0. 0. 3.13971861e-004 0. 0. 9.82732396e-004 0. 7.30127795e-004
      0. 0. 0. 0. 0. 0. 2.18750734e-004 0. 0. 0. 0. 0. 0.
      2.22406932e-004 4.42134886e-004 2.95285514e-004 0. 3.22012871e-004
      2.26535252e-004 0. 0. 0. 8.18050001e-004 1.98244728e-004 0. 0. 0.
      1.98244728e-004 0. 6.82944199e-004 2.98779138e-004 1.06609392e-003
      2.67163763e-004 0. 1.47984334e-004 2.14375410e-004 0. 0.
      6.75751071e-004 0. 0. 0. -2.05950849e-002 0. 0. 1.15405623e-004 0.
      0. 0. 0. 1.61925782e-004 0. 4.05333005e-004 2.18242611e-004
      1.11212437e-004 0. 0. 1.78206756e-004 0. 4.47260682e-004 0.
      1.31176814e-004 0. 0. 0. 1.02592004e-003 8.85856571e-004
      2.14375410e-004 1.11834344e-003 8.08045792e-004 1.13133411e-003 0.
      1.15405623e-004 3.55066528e-004 0. 0. 0. 1.88538877e-004 0. 0. 0.
      1.13175972e-003 2.41731017e-004 0. 0. 0. 0. 8.05514108e-004
      5.36116597e-004 0. 0. 0. 0. 1.15405623e-004 0. 3.08557181e-004 0.
      0. 0. 0. 0. 1.03261974e-003 2.95192993e-004 0. 3.65860469e-004 0.
      0. 0. 1.02592004e-003 0. 3.57598765e-004 0. 0. 1.09620407e-004
      1.98244728e-004 0. 0. 0. 3.40618775e-004 3.46459099e-004 0.
      2.50919693e-004 0. 0. 0. 2.42673414e-004 2.30811245e-004 0.
      4.02757054e-004 0. 0. 5.65667055e-004 0. 0. 0. 5.01839386e-004
      6.59657584e-004 0. 2.50919693e-004 4.92761494e-004 0.
      3.46459099e-004 1.78302260e-004 0. 0. 0. 0. 0. 4.71256004e-004
      2.18242611e-004 0. 0. 3.95067647e-004 1.42926374e-003 0. 0.
      6.75751071e-004 1.78206756e-004 0. 0. 4.02757054e-004 0. 0. 0. 0.
      0. 2.72884266e-004 0. 4.44813864e-004 4.81363997e-004
      4.95322223e-004 0. 0. 0. 8.96084763e-004 0. 3.46459099e-004 0. 0.
      0. 0. 1.28440064e-004 0. 0. 0. 0. 0. 9.45443229e-004 0. 0. 0. 0.
      8.21138034e-004 3.56159668e-004 0. 0. 2.43525472e-004 0. 0.
      3.48179659e-004 0. 6.17114361e-004 0. 2.26535252e-004
      4.95322223e-004 0. 0. 0. 0. 0. 0. 0. 5.40319073e-004 0. 0. 0.
      1.06609392e-003 0. 0. 1.36442133e-004 0. 0. 2.26535252e-004 0. 0.
      0. 0. 0. 0. 3.13971861e-004 0. 0. 0. 0. 0. 1.04453892e-003 0.
      5.34683175e-004 0. 0. 1.88538877e-004 0. 3.81048390e-004
      4.97509376e-004 4.02757054e-004 0. 0. 0. 3.55066528e-004
      6.31894567e-004 0. 0. 0. 2.70085118e-004 0. 2.18242611e-004 0.
      6.49558264e-004 0. 0. 1.11212437e-004 0. 0. 0. 5.36116597e-004
      1.01941332e-004 2.22406932e-004 0. 0. 1.63801073e-004
      7.54205917e-004 1.11212437e-004 0. 0. 0. 0. 0. 0. 0. 0.
      4.75744397e-004 4.93611093e-004 3.57598765e-004 0. 0. 0. 0.
      6.59657584e-004 1.11212437e-004 1.01941332e-004 0. 0. 0. 0. 0.
      1.47984334e-004 0. 0. 0. 0. 0. 0. 6.75751071e-004 0.
      1.52361870e-003 0. 3.48179659e-004 1.15405623e-004 0. 0. 0.
      1.12792559e-003 1.47984334e-004 0. 2.38021661e-004 0.
      4.92761494e-004 0. 4.95322223e-004 3.95067647e-004 0. 0. 0.
      1.98244728e-004 0. 0. 0. 3.27602145e-004 0. 2.30741483e-004 0. 0.
      0. 0. 1.88538877e-004 1.09620407e-004 0. 0. 0. 0. 0. 0. 0. 0.
      2.18750734e-004 0. 0. 0. 0. 7.30127795e-004 0. 1.61925782e-004
      9.82732396e-004 0. 0. 0. 0. 0. 2.14443411e-004 1.78302260e-004 0.
      0. 2.18242611e-004 1.01941332e-004 0. 0. 1.03249343e-003
      3.77077755e-004 0. 2.72928854e-004 0. 0. 8.18050001e-004 0. 0.
      6.96359319e-004 0. 0. 3.56159668e-004 0. 2.03015326e-004
      8.46745272e-004 0. 0. 1.31176814e-004 0. 1.01941332e-004 0. 0. 0.
      1.61925782e-004 0. 0. 0. 6.14732038e-004 2.03015326e-004
      5.35901054e-004 0. 1.15405623e-004 3.08557181e-004 0. 0. 0.
      2.43890157e-004 2.56880128e-004 0. 0. 2.79107073e-004
      1.15405623e-004 0. 0. 9.95018752e-004 0. 0. 0. 2.14443411e-004
      4.92761494e-004 0. 0. 8.24214658e-004 3.57598765e-004 0. 0.
      4.02757054e-004 1.07187705e-004 0. 0. 0. 0. 0. 0. 3.95067647e-004
      0. 0. 0. 0. 0. 0. 0. 0. 0. 1.06609392e-003 1.78302260e-004 0.
      3.22012871e-004 0. 0. 3.56159668e-004 0. 2.62353627e-004 0. 0. 0.
      0. 2.30741483e-004 0. 0. 0. 8.84485955e-004 0. 2.35316023e-004 0.
      3.95067647e-004 0. 0. 0. 0. 0. 0. 0. 0. 0. 3.88723129e-004 0. 0.
      0. 0. 0. 0. 0. 0. 0. 5.88551688e-004 0. 0. 7.25193066e-004
      1.15444558e-003 4.05333005e-004 3.40618775e-004 3.40618775e-004
      2.18242611e-004 0. 1.37437441e-004 0. 0. 0. 0. 0. 2.72928854e-004
      0. 6.01807726e-004 0. 3.17259575e-004 4.81911818e-004 0. 0.
      1.63801073e-004 0. 0. 0. 0. 0. 0. 0. 0. 6.82944199e-004
      2.35316023e-004 0. 0. 0. 0. 0. 0. 0. 3.55066528e-004 0. 0.
      2.58738350e-004 9.98403761e-004 0. 0. 3.22012871e-004 0.
      6.48006448e-004 0. 1.01941332e-004 0. 0. 0. 0. 2.22406932e-004 0.
      2.50919693e-004 0. 3.02556483e-003 1.07223319e-003 0.
      4.92761494e-004 0. 2.22406932e-004 0. 4.92761494e-004
      3.42469051e-004 5.58214146e-004 3.40618775e-004 0. 0.
      7.30127795e-004 0. 1.78206756e-004 0. 0. 0. 3.65860469e-004 0. 0.
      0. 1.75252592e-003 2.30811245e-004 0. 0. 2.70085118e-004 0.
      1.15405623e-004 2.42673414e-004 2.79107073e-004 7.15793052e-004 0.
      1.37437441e-004 0. 0. 0. 1.95289776e-003 0. 4.68789513e-004
      5.90571028e-004 0. 0. 3.88723129e-004 1.75252592e-003 0. 0.
      -2.13417839e-002 3.46459099e-004 6.80534285e-004 0. 0. 0. 0. 0.
      7.53077155e-004 0. 0. 2.95285514e-004 0. 1.09620407e-004
      2.38021661e-004 1.15971139e-003 9.62756749e-004 1.86414539e-003 0.
      0. 4.39105293e-004 3.95206735e-004 5.40319073e-004 5.22946473e-004
      0. 0. 2.67163763e-004 0. 2.43890157e-004 0. 5.59171720e-004 0.
      1.28440064e-004 0. 8.34360661e-004 3.95067647e-004 2.41731017e-004
      0. 5.22946473e-004 0. 1.20412686e-003 0. 1.47984334e-004 0.
      3.44283413e-004 3.46459099e-004 0. 0. 1.61925782e-004 0. 0. 0. 0.
      2.30811245e-004 0. 4.70632047e-004 0. 0. 1.78302260e-004
      1.07223319e-003 2.14443411e-004 3.95206735e-004 0. 0.
      2.26535252e-004 0. 0. 0. 0. 0. 2.22406932e-004 0. 0.
      5.36116597e-004 0. 0. 0. 2.25083888e-004 0. 0. 0. 6.59657584e-004
      0. 3.48179659e-004 0. 0. 0. 0. 0. 0. 4.83462034e-004 0.
      1.31176814e-004 0. 0. 1.06609392e-003 0. 0. 9.70693654e-004
      4.81363997e-004 5.18823334e-004 3.23851564e-004 0. 6.75751071e-004
      0. 1.44264568e-003 0. 0. 3.00214335e-004 0. 0. 0. 0.
      4.21826931e-004 7.30127795e-004 0. 1.06609392e-003 1.63801073e-004
      0. 0. 0. 0. 0. 2.79107073e-004 0. 0. 0. 0. 0. 0. 0.
      4.81363997e-004 0. 6.75751071e-004 0. 0. 5.34683175e-004 0.
      2.30741483e-004 0. 0. -2.27272734e-002 6.82944199e-004 0. 0.
      2.47045234e-003 2.79107073e-004 3.22012871e-004 0. 2.05698074e-003
      0. 0. 0. 3.95206735e-004 7.30127795e-004 0. 0. 0. 0.
      1.51142056e-004 0. 1.63801073e-004 0. 0. 0. 0. 4.02757054e-004 0.
      0. 0. 5.59171720e-004 0. 0. 0. 1.78206756e-004 0. 2.43525472e-004
      0. 0. 0. 1.13175972e-003 0. 2.58738350e-004 2.95285514e-004 0. 0.
      0. 0. 0. 0. 0. 0. 0. 1.15551334e-003 1.01941332e-004 0. 0. 0. 0.
      0. 4.81363997e-004 0. 0. 0. 0. 0. 0. 0. 0. 0. 7.32162269e-004
      5.59171720e-004 0. 2.03882664e-004 0. 0. 0. 0. 1.01941332e-004
      2.62874318e-003 0. 0. 2.58738350e-004 7.60968134e-004 0. 0. 0. 0.
      0. 0. 4.87780315e-004 0. 2.38021661e-004 1.36442133e-004 0. 0. 0.
      0. 2.35316023e-004 0. 0. 0. 0. 0. 0. 5.34683175e-004 0. 0. 0. 0.
      2.25083888e-004 0. 0. 1.88538877e-004 0. 1.61925782e-004 0. 0. 0.
      0. 0. 0. 0. 0. 0. 0. 0. 4.58127382e-004 1.06609392e-003 0. 0. 0.
      0. 0. 0. 0. 0. 4.33194131e-004 0. 0. 0. 3.15947284e-004
      3.15947284e-004 0. 0. 4.75899578e-004 0. 9.90644447e-004
      9.35176911e-004 0. 4.71256004e-004 0. 8.18050001e-004 0. 0. 0.
      1.36442133e-004 6.21576095e-004 0. 2.95192993e-004 0. 0. 0. 0. 0.
      0. 8.74101010e-004 0. 3.79255565e-004 0. 0. 0. 0. 0.
      9.90644447e-004 0. 0. 0. 0. 0. 4.95322223e-004 1.36442133e-004 0.
      0. 0. 7.77446257e-004 0. 0. 0. 6.75751071e-004 0. 0.
      3.95206735e-004 0. 0. 3.13971861e-004 2.25083888e-004 0. 0. 0. 0.
      0. 0. 0. 4.92761494e-004 0. 0. 0. 4.71256004e-004 3.48179659e-004
      1.34163722e-003 6.74313807e-004 2.03882664e-004 0. 8.34360661e-004
      3.57598765e-004 1.51142056e-004 1.03112380e-003 2.25083888e-004 0.
      2.58738350e-004 2.75519298e-004 0. 0. 1.07187705e-004 0. 0.
      3.08557181e-004 0. 0. 0. 2.22406932e-004 0. 3.95206735e-004 0. 0.
      0. 4.76043322e-004 0. 3.40618775e-004 0. 0. 0. 1.78302260e-004
      2.95285514e-004 3.02284112e-004 0. 0. 0. 0. 0. 6.96188596e-004 0.
      0. 2.22424875e-004 3.95206735e-004 2.35316023e-004 0. 0. 0. 0.
      2.23630341e-004 0. 2.35316023e-004 4.81363997e-004 0. 0.
      1.98244728e-004 4.81363997e-004 0. 0. 4.57800052e-004 0. 0. 0. 0.
      4.95322223e-004 2.42673414e-004 0. 0. 0. 0. 0. 3.15947284e-004 0.
      0. 0. 1.64377620e-003 0. 3.48179659e-004 0. 0. 0. 0.
      2.67163763e-004 0. 3.46459099e-004 1.77533264e-004 1.28365343e-003
      0. 0. 0. 0. 1.61925782e-004 0. 0. 0. 0. 0. 0. 0. 2.95285514e-004
      2.42673414e-004 0. 0. 0. 0. 0. 0. 3.88723129e-004 0. 0.
      2.95192993e-004 6.96188596e-004 0. 3.15947284e-004 0.
      3.17259575e-004 1.88538877e-004 0. 0. 1.06609392e-003 0. 0.
      5.59171720e-004 4.05333005e-004 0. 0. 1.37437441e-004 0.
      3.56159668e-004 0. 0. 0. 0. 0. 7.61809351e-004 2.23630341e-004
      4.71256004e-004 0. 0. 2.14375410e-004 0. 2.35316023e-004 0. 0. 0.
      1.08827720e-003 0. 3.56159668e-004 0. 0. 0. 0. 0. 3.15947284e-004
      0. 0. 1.62658712e-003 0. 3.95067647e-004 0. 6.96188596e-004 0.
      5.59171720e-004 0. 0. 2.75519298e-004 4.92761494e-004 0. 0. 0. 0.
      0. 6.01807726e-004 0. 0. 3.57598765e-004 0. 0. 0. 3.22012871e-004
      1.09620407e-004 0. 0. 3.95206735e-004 0. 6.82944199e-004 0. 0. 0.
      0. 0. 4.47212398e-004 0. 2.58738350e-004 0. 0. 0. 0. 0. 0.
      2.75263941e-004 2.98779138e-004 0. 4.05333005e-004 0.
      9.16254765e-004 1.37437441e-004 4.05333005e-004 1.63801073e-004 0.
      3.15947284e-004 6.82944199e-004 0. 0. 6.75751071e-004 0. 0. 0. 0.
      0. 8.18050001e-004 0. 0. 0. 0. 0. 8.78210587e-004 0.
      2.70085118e-004 2.56880128e-004 0. 2.35316023e-004 2.79107073e-004
      0. 1.80387043e-003 0. 0. 0. 5.40319073e-004 0. 0. 0. 0. 0.
      7.15793052e-004 0. -2.27272734e-002 0. 3.95206735e-004 0. 0.
      2.79107073e-004 0. 2.18750734e-004 6.01807726e-004 0.
      2.18242611e-004 0. 0. 2.18242611e-004 0. 1.78302260e-004 0. 0. 0.
      0. 0. 0. 0. 0. 0. 0. 0. 0. 0. 3.42469051e-004 0. 2.30741483e-004
      6.82944199e-004 0. 0. 0. 0. 0. 2.14443411e-004 0. 0. 0.
      1.20514201e-003 0. 0. 1.44055614e-003 0. 0. 0. 7.30127795e-004 0.
      0. 5.40319073e-004 2.43525472e-004 0. 0. 0. 0. 0. 1.63801073e-004
      0. 0. 0. 0. 0. 0. 6.98217540e-004 5.59171720e-004 0. 0. 0. 0. 0.
      0. 0. 0. 0. 9.82732396e-004 0. 0. 0. 5.65667055e-004 0. 0. 0. 0.
      0. 0. 7.77446257e-004 0. 0. 0. 0. 1.47984334e-004 3.56159668e-004
      4.05333005e-004 0. 4.05333005e-004 0. 6.01807726e-004 0.
      1.25661201e-003 0. 0. 0. 2.33070983e-004 0. 0. 9.65233252e-004 0.
      2.50919693e-004 5.22946473e-004 2.22406932e-004 2.25083888e-004
      -2.27272734e-002 1.98244728e-004 2.20671311e-004 0. 0. 0.
      3.65860469e-004 0. 1.88538877e-004 0. 0. 4.81363997e-004
      1.78302260e-004 0. 6.96188596e-004 7.15793052e-004 1.70886423e-003
      1.07187705e-004 0. 0. 0. 0. 0. 0. 0. 0. 1.04589295e-003 0. 0. 0.
      0. 0. 0. 0. 1.11212437e-004 0. 0. 0. 0. 0. 0. 0. 1.13175972e-003
      3.46459099e-004 0. 0. 0. 4.25422244e-004 1.06609392e-003 0. 0.
      1.13133411e-003 0. 0. 0. 0. 0. 0. 0. 0. 0. 0. 0. 0. 0.
      7.90413469e-004 0. 3.48179659e-004 0. 0. 4.97509376e-004
      1.47970486e-003 0. 0. 0. 7.91612489e-004 6.31894567e-004
      4.81363997e-004 0. 3.22012871e-004 0. 1.02356297e-003 0.
      2.22406932e-004 0. 0. 0. 1.63801073e-004 4.07522544e-004 0.
      1.06609392e-003 0. 0. 0. 0. 2.95968668e-004 0. 0. 0.
      7.90413469e-004 0. 3.00214335e-004 2.72928854e-004 4.97509376e-004
      0. 1.15405623e-004 0. 0. 3.08557181e-004 0. 0. 0. 0. 0. 0. 0. 0.
      3.42469051e-004 0. 1.28440064e-004 7.98349793e-004 0.
      6.26744819e-004 0. 0. 0. 0. 2.22406932e-004 4.79063659e-004 0. 0.
      2.38021661e-004 6.01807726e-004 0. 0. 1.60301581e-003 0.
      1.02592004e-003 0. 3.42469051e-004 0. 0. 0. 0. 2.95192993e-004
      2.79107073e-004 0. 0. 0. 0. 1.42853719e-003 0. 4.39105293e-004 0.
      0. 0. 0. 0. 6.75751071e-004 0. 2.95192993e-004 1.75252592e-003
      4.58127382e-004 0. 0. 0. 0. 0. 2.20671311e-004 0. 0. 0. 0.
      3.02284112e-004 3.56159668e-004 0. 0. 0. 0. 2.14443411e-004
      2.58738350e-004 0. 0. 0. 0. 1.28440064e-004 0. 0. 0. 0.
      1.15405623e-004 0. 0. 4.71256004e-004 0. 0. 0. 0. 0. 0. 0. 0. 0.
      0. 1.36442133e-004 1.27976190e-003 0. 0. 0. 1.98244728e-004
      3.08557181e-004 0. 0. 0. 0. 0. 0. 3.15947284e-004 0.
      1.20361545e-003 1.36442133e-004 0. 0. 4.81363997e-004 0. 0. 0. 0.
      0. 4.47212398e-004 1.88741635e-003 4.97509376e-004 0. 0. 0. 0.
      2.95285514e-004 0. 0. 4.71256004e-004 0. 0. 0. 2.30741483e-004
      1.06609392e-003 3.95067647e-004 0. 7.82012590e-004 3.17259575e-004
      0. 0. 0. 6.75751071e-004 0. 0. 7.15793052e-004 0. 4.47212398e-004
      0. 0. 4.95322223e-004 0. 0. 4.33756795e-004 0. 0. 0. 0.
      8.60477448e-004 1.63801073e-004 4.47212398e-004 2.67163763e-004 0.
      0. 3.22012871e-004 3.48179659e-004 0. 0. 0. 3.79255565e-004 0. 0.
      0. 6.01807726e-004 0. 0. 0. 0. -2.27272734e-002 0. 0.
      1.36442133e-004 4.15148097e-004 0. 4.76043322e-004 1.77533264e-004
      0. 0. 1.11212437e-004 0. 0. 0. 7.15793052e-004 0. 0.
      3.17259575e-004 7.15793052e-004 0. 0. 0. 0. 0. 0. 7.96327658e-004
      3.95067647e-004 0. 3.57598765e-004 0. 0. 7.28020270e-004 0.
      3.34192126e-004 0. 5.59171720e-004 0. 2.22406932e-004 0. 0. 0. 0.
      2.58738350e-004 3.00214335e-004 0. 0. 1.61925782e-004 0. 0.
      2.42673414e-004 2.43890157e-004 0. 0. 0. 0. 4.39105293e-004
      8.75002530e-004 2.20671311e-004 0. 0. 0. 0. 1.36442133e-004 0.
      1.48596673e-003 0. 1.10194029e-003 2.33070983e-004 0. 0. 0. 0. 0.
      0. 0. 0. 0. 2.03015326e-004 0. 1.28440064e-004 0. 0.
      1.06609392e-003 0. 2.75519298e-004 9.95018752e-004 0.
      4.02757054e-004 5.22946473e-004 2.43890157e-004 1.78302260e-004
      1.58469356e-003 0. 1.06609392e-003 0. 8.34360661e-004 0.
      8.34360661e-004 0. 0. 0. 0. 3.88723129e-004 1.13175972e-003
      2.22406932e-004 0. 2.75263941e-004 8.94424797e-004 2.22406932e-004
      0. 0. 0. 0. 0. 0. 4.63802833e-004 0. 0. 5.36116597e-004
      1.31176814e-004 0. 2.50919693e-004 1.07187705e-004 4.44813864e-004
      5.39298635e-004 2.98779138e-004 0. 9.95018752e-004 1.00640079e-003
      0. 7.15793052e-004 0. 3.42469051e-004 0. 0. 0. 0. 0. 0. 0. 0. 0.
      0. 0. 0. 2.98779138e-004 0. 0. 2.75519298e-004 0. 0.
      1.47984334e-004 3.74519586e-004 0. 0. 0. 0. 0. 0. 0. 0.
      4.61482967e-004 0. 0. 1.08063815e-003 2.67163763e-004 0.
      3.40618775e-004 0. 5.65667055e-004 0. 0. 3.95067647e-004
      3.42469051e-004 0. 1.98244728e-004 0. 3.15947284e-004
      2.18242611e-004 0. 0. 2.35316023e-004 3.79255565e-004 0.
      2.98779138e-004 0. 0. 0. 1.05993508e-003 0. 0. 0. 2.67163763e-004
      2.42673414e-004 0. 8.18050001e-004 0. 6.96188596e-004
      9.30236478e-004 4.02757054e-004 0. 0. 1.07187705e-004 0.
      9.82732396e-004 0. 8.23967450e-004 3.42469051e-004 5.22946473e-004
      0. 0. 6.75751071e-004 0. 6.82944199e-004 7.82938791e-004
      5.59171720e-004 0. 0. 0. 0. 0. 0. 0. 2.95192993e-004 0.
      1.02592004e-003 4.02757054e-004 0. 1.06609392e-003 7.30127795e-004
      1.13133411e-003 3.88723129e-004 0. 0. 3.08557181e-004 0. 0. 0.
      2.79107073e-004 0. 2.38021661e-004 0. 2.43525472e-004
      6.81237550e-004 0. 0. 1.02592004e-003 2.79107073e-004
      4.68789513e-004 0. 0. 3.95067647e-004 0. 0. 2.95285514e-004 0.
      2.43890157e-004 0. 0. 0. 0. 5.36509848e-004 1.98244728e-004
      2.22406932e-004 0. 2.72928854e-004 3.79255565e-004 0. 0. 0. 0. 0.
      0. 1.31176814e-004 3.17259575e-004 7.32162269e-004 0. 0. 0. 0. 0.
      0. 4.02757054e-004 5.40319073e-004 5.22946473e-004 0. 0. 0. 0.
      2.58738350e-004 3.40618775e-004 0. 0. 0. 0. 0. 1.20361545e-003 0.
      4.21826931e-004 9.82732396e-004 0. 0. 0. 7.15793052e-004 0.
      5.36116597e-004 5.59171720e-004 0. 0. 0. 6.59657584e-004
      3.88723129e-004 4.92761494e-004 2.25083888e-004 9.80074285e-004
      3.22012871e-004 2.95285514e-004 0. 0. 7.76215049e-004 0. 0.
      1.11891783e-003 2.22406932e-004 0. 0. 0. 1.53734989e-003
      -4.65116277e-002 8.05514108e-004 0. 0. 4.61482967e-004 0.
      1.47984334e-004 4.71256004e-004 0. 0. 1.28001638e-003 0. 0. 0.
      2.38364519e-004 0. 6.27683883e-004 0. 0. 0. 0. 0. 3.21563130e-004
      0. 3.08557181e-004 0. 0. 1.15405623e-004 2.14443411e-004 0. 0. 0.
      3.00214335e-004 1.07187705e-004 0. 1.75252592e-003 0. 0. 0. 0. 0.
      0. 0. 0. 0. 0. 0. 1.51142056e-004 0. 4.02757054e-004 0.
      5.22946473e-004 0. 0. 4.58127382e-004 0. 3.22012871e-004 0. 0.
      4.71256004e-004 0. 0. 0. 0. 1.07187705e-004 0. 2.67163763e-004 0.
      0. 0. 2.72928854e-004 0. 0. 0. 0. 0. 7.30127795e-004 0.
      2.80818931e-004 0. 0. 0. 0. 0. 0. 2.23630341e-004 6.82944199e-004
      0. 9.96352290e-004 0. 1.36442133e-004 3.48179659e-004 0. 0. 0. 0.
      1.01941332e-004 0. 6.82944199e-004 2.75263941e-004 0.
      2.75519298e-004 0. 0. 0. 1.11517962e-003 0. 4.32665198e-004
      2.26535252e-004 0. 0. 0. 0. 0. 0. 0. 0. 0. 1.31176814e-004 0. 0.
      2.67163763e-004 1.77533264e-004 0. 0. 0. 0. 2.35316023e-004 0. 0.
      3.56159668e-004 0. 0. 0. 0. 2.95192993e-004 0. 0. 3.95067647e-004
      9.13846714e-004 2.22406932e-004 0. 3.17259575e-004 4.81363997e-004
      0. 0. 0. 0. 0. 1.78302260e-004 1.78302260e-004 0. 0. 0. 0. 0. 0.
      0. 0. 5.17476699e-004 2.42673414e-004 0. 1.09620407e-004 0. 0. 0.
      0. 0. 1.75252592e-003 4.76043322e-004 4.71256004e-004 0. 0.
      1.47984334e-004 0. 4.81363997e-004 2.38021661e-004 1.88538877e-004
      -2.29802951e-002 1.16318546e-003 0. 0. 4.58127382e-004
      2.35316023e-004 0. 0. 6.82944199e-004 0. 0. 0. 0. 0.
      1.06609392e-003 2.14443411e-004 0. 2.33070983e-004 3.17259575e-004
      6.96188596e-004 0. 3.08557181e-004 0. 0. 0. 4.05333005e-004 0. 0.
      0. 1.43481360e-003 0. 2.70085118e-004 0. 0. 0. 0. 0. 0.
      1.78302260e-004 5.06280048e-004 3.88723129e-004 0. 0. 0. 0.
      5.65667055e-004 5.22946473e-004 0. 8.93999822e-004 0. 0. 0. 0. 0.
      0. 0. 2.56880128e-004 0. 0. 0. 0. 0. 0. 0. 0. 0. 6.96188596e-004
      0. 6.59657584e-004 0. 0. 0. 0. 0. 2.75519298e-004 1.49397168e-003
      0. 0. 8.34360661e-004 0. 1.88538877e-004 0. 0. 0. 1.88538877e-004
      0. 0. 0. 0. 1.98244728e-004 3.57598765e-004 1.63801073e-004 0. 0.
      0. 2.58738350e-004 0. 0. 0. 0. 3.48179659e-004 6.82944199e-004 0.
      6.82944199e-004 0. 0. 0. 4.87050944e-004 0. 0. 4.21826931e-004 0.
      0. 0. 4.68789513e-004 0. 0. 0. 1.98244728e-004 0. 0.
      3.22012871e-004 3.56159668e-004 1.78206756e-004 2.25083888e-004 0.
      3.17259575e-004 5.22946473e-004 2.98779138e-004 0. 0.
      2.58738350e-004 0. 4.05333005e-004 1.06609392e-003 0.
      1.78206756e-004 0. 0. 2.79107073e-004 3.42469051e-004 0. 0. 0.
      3.57598765e-004 3.17259575e-004 0. 0. 0. 0. 0. 4.05333005e-004 0.
      0. 0. 0. 0. 1.09598832e-003 0. 4.61482967e-004 0. 6.82944199e-004
      1.15405623e-004 2.95285514e-004 0. 0. 0. 2.43890157e-004
      1.61925782e-004 0. 0. 0. 0. 2.25083888e-004 2.22406932e-004 0. 0.
      0. 0. 3.95206735e-004 0. 0. 4.95322223e-004 0. 2.38021661e-004 0.
      6.96188596e-004 0. 0. 1.02592004e-003 0. 0. 0. 0. 4.97509376e-004
      0. 0. 7.61809351e-004 0. 3.57598765e-004 0. 2.35316023e-004 0.
      3.95067647e-004 0. 0. 0. 5.59171720e-004 0. 1.69288460e-003 0. 0.
      4.71256004e-004 0. 4.71256004e-004 0. 7.68617494e-004 0.
      1.37437441e-004 0. 0. 4.05333005e-004 0. 0. 0. 2.95285514e-004 0.
      0. 0. 6.82944199e-004 0. 2.18750734e-004 2.18242611e-004
      2.75519298e-004 0. 0. 1.02592004e-003 0. 0. 0. 0. 0. 0. 0. 0. 0.
      0. 1.88538877e-004 3.08557181e-004 0. 0. 9.82732396e-004
      2.41731017e-004 3.48179659e-004 0. 3.22012871e-004 1.02592004e-003
      0. 0. 0. 0. 0. 0. 0. 0. 0. 1.01941332e-004 0. 0. 2.41731017e-004
      3.13971861e-004 3.00214335e-004 2.73879559e-004 0. 0.
      5.22946473e-004 0. 1.59457570e-003 2.22406932e-004 0. 0.
      2.22406932e-004 0. 0. 3.17259575e-004 1.28440064e-004 0.
      1.11212437e-004 3.15947284e-004 6.96359319e-004 8.18050001e-004 0.
      6.17114361e-004 0. 0. 7.30127795e-004 0. 1.11212437e-004
      2.23630341e-004 0. 0. 6.59657584e-004 0. 0. 0. 2.38021661e-004 0.
      5.94064652e-004 0. 0. 1.09620407e-004 1.52361870e-003
      4.81363997e-004 0. 5.65667055e-004 0. 0. 0. 0. 0. 0. 0. 0.
      2.75519298e-004 0. 0. 3.17259575e-004 0. 2.42673414e-004 0.
      2.79107073e-004 0. 0. 0. 0. 0. 0. 0. 0. 2.14443411e-004 0. 0.
      2.43525472e-004 1.07187705e-004 0. 1.75252592e-003 4.05333005e-004
      0. 2.18750734e-004 3.96489457e-004 9.82732396e-004 0. 0. 0.
      6.96359319e-004 0. 0. 0. 3.56159668e-004 2.03470956e-003 0. 0. 0.
      2.18242611e-004 0. 0. 1.88538877e-004 0. 0. 1.53327419e-003 0. 0.
      0. 0. 0. 0. 0. 7.15793052e-004 0. 0. 0. 0. 0. 3.22012871e-004 0.
      0. 2.80818931e-004 1.13175972e-003 0. 0. 0. 0. 9.14588396e-004
      5.36116597e-004 0. 0. 0. 0. 0. 2.14443411e-004 0. 0. 0. 0. 0. 0.
      0. 0. 0. 3.46459099e-004 4.97509376e-004 0. 5.40319073e-004 0. 0.
      0. 9.95018752e-004 0. 0. 7.15793052e-004 3.46459099e-004 0.
      1.39237719e-003 3.48179659e-004 0. 0. 0. 3.95206735e-004 0.
      2.75519298e-004 0. 0. 0. 0. 4.39105293e-004 0. 0. 0.
      4.58127382e-004 7.30127795e-004 0. 0. 0. 3.15947284e-004 0. 0. 0.
      0. 4.71256004e-004 0. 0. 7.45353405e-004 0. 0. 0. 0. 0.
      4.39105293e-004 2.22406932e-004 0. 0. 0. 0. 8.26557865e-004
      9.16254765e-004 0. 6.59657584e-004 1.37437441e-004 0. 0.
      3.79255565e-004 0. 0. 1.75252592e-003 0. 0. 2.43890157e-004
      5.36116597e-004 0. 3.95067647e-004 0. 0. 0. 0. 0. 1.39237719e-003
      0. 6.96188596e-004 0. 0. 6.96188596e-004 4.81363997e-004
      1.37437441e-004 0. 0. 0. 0. 1.37437441e-004 2.25083888e-004 0.
      2.58738350e-004 0. 0. 0. 0. 0. 0. 0. 0. 4.66141966e-004
      1.07187705e-004 0. 5.22946473e-004 0. 4.97509376e-004 0. 0. 0.
      6.96188596e-004 0. 0. 6.96188596e-004 0. 0. 0. 0. 8.21138034e-004
      0. 0. 0. 2.14443411e-004 0. 0. 1.31176814e-004 0. 0.
      1.63801073e-004 0. 2.98779138e-004 0. 0. 0. 6.96188596e-004 0.
      2.42673414e-004 0. 0. 0. 7.30127795e-004 0. 0. 0. 0. 0.
      1.09620407e-004 0. 2.14443411e-004 0. 0. 0. 8.05514108e-004
      1.02592004e-003 0. 0. 0. 0. 1.09620407e-004 0. 0. 0. 0. 0.
      1.78302260e-004 3.79255565e-004 0. 4.04905906e-004 0.
      4.81363997e-004 0. 1.61925782e-004 0. 0. 0. 0. 3.48179659e-004
      3.65860469e-004 0. 0. 0. 2.80818931e-004 0. 0. 0. 4.61768068e-004
      0. 4.71256004e-004 1.63801073e-004 0. 0. 3.48179659e-004
      2.43890157e-004 0. 3.15947284e-004 2.74874881e-004 0. 0.
      3.56159668e-004 0. 1.78302260e-004 0. 0. 1.01941332e-004
      1.18026033e-003 7.32162269e-004 9.62756749e-004 0. 2.18242611e-004
      7.76929548e-004 0. 1.46432454e-003 3.57598765e-004 9.62756749e-004
      0. 1.07187705e-004 6.96188596e-004 0. 0. 0. 0. 2.42673414e-004
      2.22406932e-004 0. 3.17259575e-004 0. 0. 0. 6.59657584e-004 0. 0.
      0. 2.18242611e-004 0. 0. 6.00428670e-004 2.60885502e-003 0. 0. 0.
      0. 2.14446639e-003 3.46459099e-004 0. 0. 0. 0. 3.57598765e-004 0.
      1.78302260e-004 0. 0. 4.92761494e-004 0. 2.98779138e-004 0. 0. 0.
      0. 0. 1.06609392e-003 0. 0. 0. 0. 0. 0. 0. 4.71256004e-004
      1.63801073e-004 0. 3.57598765e-004 1.11212437e-004 2.43890157e-004
      0. 0. 3.46459099e-004 0. 0. 1.39329408e-003 9.62756749e-004 0.
      4.71256004e-004 6.82944199e-004 0. 0. 1.06609392e-003 0.
      5.40319073e-004 0. 7.15793052e-004 0. 0. 0. 0. 0. 0. 0.
      6.01807726e-004 4.92761494e-004 9.82732396e-004 2.95285514e-004 0.
      0. 0. 0. 0. 0. 3.88723129e-004 0. 3.48179659e-004 5.22946473e-004
      4.68789513e-004 0. 3.46459099e-004 4.71256004e-004 1.09620407e-004
      0. 0. 0. 0. 0. 0. 0. 0. 0. 2.41731017e-004 0. 0. 0.
      2.25083888e-004 3.56159668e-004 2.35316023e-004 0. 2.22406932e-004
      0. 9.43826628e-004 0. 2.95192993e-004 2.50919693e-004 0. 0. 0. 0.
      0. 0. 0. 0. 0. 0. 2.58738350e-004 0. 0. 0. 0. 0. 3.56159668e-004
      0. 0. 0. 0. 3.79255565e-004 0. 0. 0. 1.77533264e-004 0. 0. 0.
      1.15405623e-004 0. 0. 1.13175972e-003 5.36116597e-004 0. 0. 0. 0.
      0. 2.30741483e-004 0. 1.07187705e-004 2.43890157e-004 0.
      2.41731017e-004 0. 0. 5.22946473e-004 3.95067647e-004 0.
      3.13971861e-004 0. 0. 0. 0. 0. 0. 0. 0. 0. 2.30811245e-004 0.
      3.22012871e-004 2.43525472e-004 0. 0. 0. 0. 2.75519298e-004 0.
      6.96188596e-004 0. 0. 3.79255565e-004 0. 0. 0. 0. 0. 0.
      3.79255565e-004 0. 0. 2.70085118e-004 2.75263941e-004 0. 0.
      1.36442133e-004 2.79107073e-004 -2.32558139e-002 4.97509376e-004
      0. 0. 0. 0. 3.13971861e-004 0. 0. 1.37437441e-004 0. 0. 0. 0. 0.
      1.04453892e-003 0. 1.11212437e-004 0. 0. 0. 0. 0. 0. 0. 0. 0. 0.
      0. 0. 0. 0. -2.32558139e-002 0. 0. 1.02592004e-003 4.68789513e-004
      2.70085118e-004 0. 2.38021661e-004 0. 1.15497981e-003 0. 0. 0.
      1.14638312e-003 -2.27272734e-002 3.50505183e-003 1.20074966e-003
      0. 0. 0. 0. 1.98244728e-004 2.03015326e-004 1.09620407e-004 0. 0.
      0. 0. 3.08557181e-004 2.75519298e-004 0. 0. 2.38021661e-004
      2.30741483e-004 0. 0. 1.47984334e-004 0. 0. 0. 0. 0.
      6.33181829e-004 0. 0. 0. 6.34519150e-004 0. 0. 0. 0. 0. 0. 0. 0.
      1.98244728e-004 2.79107073e-004 0. 0. 0. 1.04589295e-003
      4.47212398e-004 2.22406932e-004 0. 0. 3.40618775e-004 0. 0. 0. 0.
      0. 0. 0. 0. 0. 0. 1.25566137e-003 8.18050001e-004 1.15523546e-003
      1.31176814e-004 0. 6.82944199e-004 3.17259575e-004 0.
      3.17259575e-004 1.15405623e-004 7.32162269e-004 0.
      -2.32558139e-002 0. 0. 0. 0. 2.14443411e-004 0. 0. 1.31176814e-004
      0. 0. 0. 0. 4.68789513e-004 0. 0. 0. 1.63801073e-004
      3.65860469e-004 0. 0. 2.67163763e-004 0. 2.18242611e-004
      5.91738441e-004 0. 4.44813864e-004 0. 0. 2.50919693e-004
      8.34360661e-004 0. 0. 0. 0. 0. 1.15405623e-004 0. 2.23630341e-004
      5.90571028e-004 5.65667055e-004 2.03015326e-004 0. 0.
      3.65860469e-004 0. 0. 0. 0. 7.30127795e-004 0. 0. 5.40319073e-004
      0. 0. 0. 6.81237550e-004 1.98244728e-004 1.51142056e-004
      2.03015326e-004 0. 0. 2.72884266e-004 3.08557181e-004 0. 0. 0.
      1.31176814e-004 2.03882664e-004 0. 0. 0. 0. 0. 2.22406932e-004
      3.57598765e-004 7.30127795e-004 0. 1.07187705e-004 0. 0.
      1.31176814e-004 0. 5.34683175e-004 0. 4.97509376e-004
      2.38021661e-004 1.31176814e-004 0. 0. 1.07187705e-004 0. 0. 0. 0.
      2.33070983e-004 5.45857707e-004 6.96188596e-004 0. 2.98779138e-004
      5.59171720e-004 0. 0. 2.18242611e-004 0. 0. 0. 0. 2.75263941e-004
      4.39105293e-004 0. 0. 0. 2.42673414e-004 0. 4.87050944e-004 0.
      1.07187705e-004 9.56874224e-004 4.81363997e-004 1.07187705e-004 0.
      1.13133411e-003 0. 0. -2.32558139e-002 0. 0. 0. 0. 0.
      1.36223657e-003 1.05472526e-003 4.81145282e-004 0. 1.47984334e-004
      0. 0. 0. 0. 0. 0. 2.72928854e-004 1.13175972e-003 0.
      4.47212398e-004 2.95192993e-004 0. 0. 0. 2.18750734e-004
      2.42673414e-004 0. 0. 0. 0. 0. 3.17259575e-004 0. 3.48179659e-004
      2.22406932e-004 0. 0. 2.30741483e-004 1.75520335e-003 0.
      4.05333005e-004 0. 0. 0. 0. 1.01941332e-004 0. 6.01807726e-004
      3.46459099e-004 0. 0. 2.41731017e-004 0. 0. 0. 7.16260110e-004 0.
      0. 0. 0. 0. 0. 0. 0. 0. 0. 0. 2.79107073e-004 4.05333005e-004
      2.25083888e-004 1.88538877e-004 0. 0. 2.35316023e-004 0. 0. 0. 0.
      0. 9.58650373e-004 0. 2.58738350e-004 0. 7.15793052e-004 0.
      1.37437441e-004 0. 0. 0. 2.25083888e-004 0. 7.61809351e-004 0.
      1.11212437e-004 0. 7.32162269e-004 3.13971861e-004 9.82732396e-004
      1.09620407e-004 0. 0. 6.59657584e-004 2.95192993e-004 0. 0.
      2.95285514e-004 0. 2.43525472e-004 1.88538877e-004 0. 0.
      4.05333005e-004 0. 2.95285514e-004 0. 0. 0. 2.35627769e-004
      2.22406932e-004 9.42512008e-004 1.10444578e-003 0. 0.
      4.39105293e-004 1.78206756e-004 0. 1.28440064e-004 9.82732396e-004
      0. 0. 2.30811245e-004 0. 4.95322223e-004 0. 0. 2.95192993e-004 0.
      0. 0. 2.23630341e-004 0. 0. 0. 4.02757054e-004 0. 0.
      2.18242611e-004 0. 0. 1.80001406e-003 0. 0. 0. 0. 0. 0. 0.
      4.36850358e-004 0. 0. 0. 0. 0. 4.58946364e-004 0. 5.34683175e-004
      0. 0. 4.02757054e-004 0. 4.93480591e-004 0. 0. 0. 3.56159668e-004
      0. 0. 2.98779138e-004 0. 0. 0. 8.50206125e-004 3.17259575e-004 0.
      7.15793052e-004 0. 1.75252592e-003 0. 0. 0. 3.88723129e-004 0. 0.
      1.47984334e-004 0. 2.72928854e-004 0. 0. 0. 0. 0. 1.51142056e-004
      4.02757054e-004 0. 4.95322223e-004 0. 0. 0. 0. 0. 0.
      3.57598765e-004 0. 4.21826931e-004 0. 0. 0. 0. 0. 0. 0. 0.
      1.09620407e-004 0. 0. 0. 0. 0. 1.15405623e-004 -2.05853749e-002
      3.22012871e-004 1.15405623e-004 0. 0. 0. 0. 5.65667055e-004
      1.09620407e-004 5.40319073e-004 6.96188596e-004 0. 0. 0. 0. 0. 0.
      0. 0. 3.95067647e-004 0. 0. 0. 0. 6.58897276e-004 0. 0.
      1.63801073e-004 0. 3.46459099e-004 1.06609392e-003 0. 0. 0.
      1.02592004e-003 1.15106697e-003 4.19280346e-004 0. 1.51142056e-004
      1.88538877e-004 0. 0. 0. 0. 0. 2.70085118e-004 0. 1.98244728e-004
      0. 0. 0. 0. 0. 0. 0. 0. 0. 0. 0. 0. 0. 2.23630341e-004
      6.51386566e-004 2.72928854e-004 0. 0. 0. 8.34360661e-004
      2.72928854e-004 2.42673414e-004 0. 4.39105293e-004 2.18750734e-004
      0. 0. 1.22416473e-003 0. 0. 0. 0. 0. 2.35579908e-003 0. 0. 0.
      2.25083888e-004 0. 0. 9.45955340e-004 0. 5.36116597e-004 0. 0. 0.
      0. 0. 0. 0. 0. 0. 5.40319073e-004 6.82944199e-004 1.47984334e-004
      0. 2.95285514e-004 0. 6.01807726e-004 0. 0. 0. 0. 0.
      2.58738350e-004 3.46459099e-004 2.50919693e-004 9.50599730e-004
      1.26183953e-003 0. 3.79255565e-004 0. 0. 0. 0. 0. 0.
      4.71256004e-004 0. 0. 0. 0. 0. 0. 0. 2.75263941e-004
      3.85320192e-004 0. 0. 1.63801073e-004 0. 0. 0. 2.58738350e-004 0.
      7.32162269e-004 2.50919693e-004 0. 2.43890157e-004 0. 0. 0.
      1.78206756e-004 0. 4.81363997e-004 0. 0. 0. 2.70085118e-004 0. 0.
      5.65667055e-004 0. 4.81363997e-004 0. 0. 2.43525472e-004 0.
      3.42469051e-004 0. 0. 0. 3.01238528e-004 0. 0. 3.08557181e-004
      1.88538877e-004 2.72928854e-004 5.22946473e-004 0. 1.63801073e-004
      0. 0. 0. 0. 0. 0. 0. 2.79107073e-004 0. 0. 0. 1.11212437e-004
      6.87032123e-004 6.40778686e-004 0. 0. 0. 0. 2.33070983e-004
      6.59657584e-004 0. 0. 0. 0. 5.59171720e-004 0. 0. 0.
      1.06609392e-003 2.22406932e-004 0. 0. 0. 0. 0. 0. 0. 0. 0. 0. 0.
      5.65667055e-004 3.95206735e-004 3.88723129e-004 0. 4.02757054e-004
      0. 0. 4.92761494e-004 0. 2.43890157e-004 0. 2.18242611e-004 0. 0.
      0. 0. 0. 0. 0. -2.21229345e-002 1.09620407e-004 0. 4.21826931e-004
      2.03015326e-004 0. 0. 0. 1.63801073e-004 1.61925782e-004 0.
      3.00214335e-004 6.96188596e-004 0. 0. 0. 0. 1.78302260e-004
      6.82944199e-004 0. 0. 3.17259575e-004 2.95192993e-004 0. 0. 0. 0.
      6.91092166e-004 0. 0. 0. 1.28440064e-004 0. 7.04112113e-004
      2.70085118e-004 0. 4.71256004e-004 2.98779138e-004 1.06609392e-003
      0. 0. 0. 0. 1.31176814e-004 0. 0. 0. 0. 5.22946473e-004
      8.34360661e-004 0. 0. 0. 4.05333005e-004 1.07187705e-004 0. 0. 0.
      0. 1.63801073e-004 1.75252592e-003 0. 2.25083888e-004
      3.40618775e-004 0. 0. 0. 4.05333005e-004 0. 0. 0. 0. 0. 0. 0. 0.
      3.95206735e-004 0. 0. 8.18050001e-004 1.28440064e-004 0. 0. 0. 0.
      7.58511131e-004 0. 3.79255565e-004 0. 2.42673414e-004 0. 0.
      3.61918297e-004 2.18242611e-004 0. 0. 2.38021661e-004 0. 0.
      2.35316023e-004 0. 3.48179659e-004 0. -2.32558139e-002
      1.09620407e-004 2.26535252e-004 2.41731017e-004 0. 0. 0. 0. 0. 0.
      0. 0. 0. 0. 3.95206735e-004 4.39105293e-004 0. 2.62353627e-004 0.
      4.81363997e-004 0. 0. 0. 0. 0. 0. 0. 0. 0. 0. 2.80818931e-004 0.
      0. 0. 7.15793052e-004 0. 0. 0. 0. 2.75519298e-004 0. 0. 0. 0. 0.
      0. 0. 0. 0. 3.40618775e-004 0. 0. 0. 5.59171720e-004 0. 0. 0. 0.
      0. 0. 0. 1.02592004e-003 1.06609392e-003 1.98244728e-004
      2.95192993e-004 2.03015326e-004 2.95192993e-004 0. 0. 0. 0. 0.
      1.78206756e-004 5.43393719e-004 0. 0. 0. 2.42673414e-004 0. 0. 0.
      9.82732396e-004 0. -4.55288962e-002 8.18050001e-004 0. 0.
      5.52575570e-004 0. 2.98779138e-004 0. 4.10945795e-004 0. 0. 0.
      1.02592004e-003 1.09620407e-004 1.06609392e-003 0. 6.01807726e-004
      0. 3.21631116e-004 0. 2.98779138e-004 0. 0. 2.18750734e-004
      3.08557181e-004 0. 0. 0. 0. 5.22946473e-004 0. 5.22946473e-004
      1.75252592e-003 0. 0. 2.22406932e-004 5.40319073e-004 0. 0.
      1.01941332e-004 6.82944199e-004 0. 0. 0. 0. 1.02592004e-003
      2.75519298e-004 0. 6.82944199e-004 0. 0. 0. 0. 0. 0.
      4.95322223e-004 0. 6.78034674e-004 0. 0. 2.70085118e-004 0. 0.
      6.59657584e-004 0. 0. 4.39105293e-004 0. 0. 0. 0. 0.
      3.46459099e-004 0. 0. 2.00093072e-003 5.34683175e-004
      2.23630341e-004 0. 0. 2.70085118e-004 0. 0. 0. 0. 0. 0. 0. 0.
      6.59657584e-004 0. 0. 4.68789513e-004 0. 0. 0. 4.41342621e-004
      3.40618775e-004 2.26535252e-004 0. 3.46459099e-004 5.58990578e-004
      0. 0. 2.18750734e-004 2.58738350e-004 0. 0. 0. 0. 3.22012871e-004
      0. 0. 3.57598765e-004 0. 8.18050001e-004 0. 6.01807726e-004
      4.81363997e-004 0. 2.75519298e-004 8.18050001e-004 0. 0.
      5.41181362e-004 4.81363997e-004 0. 0. 0. 0. 0. 3.88723129e-004 0.
      0. 6.82944199e-004 3.00214335e-004 0. 1.01941332e-004 0.
      4.05333005e-004 0. 4.71256004e-004 0. 0. 0. 0. 0. 0.
      3.55066528e-004 0. 0. 9.90644447e-004 0. 2.95285514e-004
      6.54123316e-004 1.51142056e-004 0. 4.81363997e-004 3.56159668e-004
      0. 0. 0. 0. 0. 0. 0. 0. 7.79085734e-004 1.36442133e-004
      3.00214335e-004 2.95285514e-004 3.57598765e-004 4.97037312e-004 0.
      0. 2.72928854e-004 0. 2.42673414e-004 1.09620407e-004 0. 0.
      2.03015326e-004 1.75252592e-003 1.11212437e-004 0. 2.70085118e-004
      0. 0. 0. 0. 0. 0. 2.26535252e-004 0. 0. 1.47984334e-004 0. 0. 0.
      1.77533264e-004 0. 0. 0. 0. 0. 0. 0. 2.42673414e-004
      2.80818931e-004 0. 2.42673414e-004 8.81142274e-004 3.79255565e-004
      3.95067647e-004 0. 2.20671311e-004 0. 6.96188596e-004
      3.13971861e-004 0. 0. 0. 1.11834344e-003 4.71256004e-004
      1.51142056e-004 1.31176814e-004 0. 0. 0. 0. 0. 0. 0. 0. 0. 0. 0.
      0. 3.17259575e-004 1.13175972e-003 0. 0. 0. 0. 0. 0. 0.
      3.21563130e-004 5.17476699e-004 0. 3.56159668e-004 0. 0.
      1.13175972e-003 1.13175972e-003 0. 0. 0. 2.18750734e-004 0. 0. 0.
      4.71256004e-004 0. 1.09620407e-004 3.95206735e-004 0.
      1.61925782e-004 3.95067647e-004 0. 0. 2.38021661e-004 0.
      2.22406932e-004 1.07187705e-004 1.47984334e-004 0. 0. 0. 0.
      6.82944199e-004 0. 0. 2.76424398e-004 0. 2.43890157e-004
      3.17259575e-004 0. 0. 0. 4.92761494e-004 0. 3.57598765e-004 0.
      1.13338011e-003 0. 0. 6.82944199e-004 5.34683175e-004
      2.95285514e-004 0. 1.78302260e-004 0. 0. 0. 1.61925782e-004
      2.43890157e-004 0. 3.95206735e-004 0. 0. 0. 2.75519298e-004 0. 0.
      0. 0. 2.79107073e-004 0. 0. 0. 0. 5.90571028e-004 2.95192993e-004
      1.09620407e-004 0. 0. 1.78302260e-004 2.14443411e-004 0.
      3.95067647e-004 0. 0. 0. 0. 0. 0. 2.95285514e-004 0. 0. 0. 0. 0.
      4.81363997e-004 0. 0. 2.38021661e-004 0. 0. 0. 0. 0. 0. 0. 0. 0.
      0. 4.97509376e-004 4.05333005e-004 0. 7.61809351e-004
      1.47812942e-003 4.36485221e-004 6.96188596e-004 3.95067647e-004 0.
      0. 0. 2.14443411e-004 5.36116597e-004 3.15947284e-004 0.
      8.78210587e-004 0. 0. 0. 0. 1.30583032e-003 0. 0. 8.46710056e-004
      0. 0. 0. 2.98779138e-004 2.42673414e-004 0. 0. 0. 3.97226831e-004
      2.33070983e-004 0. 4.95322223e-004 7.61809351e-004 0.
      2.70085118e-004 8.05514108e-004 0. 0. 0. 2.14443411e-004 0.
      4.02757054e-004 0. 8.34360661e-004 0. 0. 0. 0. 2.18750734e-004 0.
      4.81363997e-004 0. 0. 0. 0. 0. 0. 0. 0. 0. 0. 0. 0.
      1.01941332e-004 0. 0. 0. 6.75751071e-004 0. 6.82944199e-004 0.
      1.15405623e-004 0. 0. 0. 0. 0. 0. 0. 0. 0. 1.63801073e-004 0. 0.
      0. 0. 2.58738350e-004 0. 0. -2.26901472e-002 0. 2.23630341e-004
      3.79255565e-004 0. 0. 0. 0. 2.50919693e-004 0. 0. 0. 0. 0. 0. 0.
      1.61925782e-004 0. 0. 0. 1.37437441e-004 0. 0. 2.70085118e-004
      1.07187705e-004 0. 2.70085118e-004 0. 0. 4.68789513e-004 0. 0.
      1.37437441e-004 0. -2.32558139e-002 0. 0. 3.13971861e-004 0. 0.
      -2.27272734e-002 0. 2.26535252e-004 4.02757054e-004 0. 0. 0. 0. 0.
      0. 0. 0. 3.79255565e-004 0. 3.95067647e-004 0. 4.61482967e-004 0.
      0. 7.20102747e-004 2.30741483e-004 0. 2.95285514e-004 0. 0.
      -2.32558139e-002 0. 0. 4.81363997e-004 3.46459099e-004 0.
      4.02757054e-004 0. 0. 0. 2.18242611e-004 0. 0. 6.20629464e-004
      2.75519298e-004 0. 0. 0. 7.71866296e-004 0. 0. 0. 2.03015326e-004
      0. 0. 0. 0. 0. 5.22946473e-004 0. 0. 2.75519298e-004 0.
      4.81363997e-004 0. 0. 1.36442133e-004 3.25938425e-004 0. 0. 0.
      2.30741483e-004 1.63610000e-003 0. 0. 2.03882664e-004 0. 0. 0. 0.
      0. 2.80818931e-004 0. 5.36116597e-004 0. 0. 1.63801073e-004
      4.98012756e-004 6.75751071e-004 0. 0. 7.77446257e-004
      3.42469051e-004 0. 2.22406932e-004 0. 0. 0. 0. 0. 0.
      2.38021661e-004 0. 0. 1.28440064e-004 1.02592004e-003
      2.75519298e-004 0. 1.63801073e-004 2.50919693e-004 0. 0. 0.
      9.59318539e-004 1.36442133e-004 0. 3.46459099e-004 1.78206756e-004
      0. 6.17806101e-004 0. 0. 9.15779558e-004 2.95192993e-004
      4.87780315e-004 4.68789513e-004 0. 3.88723129e-004 0. 0. 0.
      4.28886822e-004 -2.20780969e-002 0. 0. 0. 0. 4.92761494e-004 0. 0.
      0. 0. 0. 0. 0. 0. 0. 2.75263941e-004 0. 0. 2.23630341e-004 0. 0.
      0. 0. 0. 3.95067647e-004 0. 2.23630341e-004 0. 0. 0.
      7.30247761e-004 0. 3.17259575e-004 1.15405623e-004 0. 0. 0.
      2.70085118e-004 1.34260184e-003 0. 1.34463026e-003 0.
      6.82944199e-004 0. 1.75252592e-003 0. 0. 0. 2.72928854e-004 0.
      6.75751071e-004 5.59171720e-004 0. 4.58127382e-004 1.37437441e-004
      0. 3.79255565e-004 2.19240814e-004 6.72855473e-004 3.56509001e-004
      0. 6.01807726e-004 0. -2.12711450e-002 0. 0. 0. 0. 0. 0. 0. 0.
      6.82944199e-004 0. 0. 0. 2.92938901e-004 0. 0. 4.92761494e-004 0.
      0. 3.22012871e-004 2.95285514e-004 0. 0. 2.58738350e-004
      1.51142056e-004 0. 0. 2.95192993e-004 0. 0. 0. 0. 0. 0. 0. 0. 0.
      0. 0. 0. 0. 0. 0. 0. 0. 1.28440064e-004 0. 0. 0. 0. 0. 0.
      2.43890157e-004 0. 1.89481908e-003 3.48179659e-004 0.
      3.22012871e-004 0. 1.39237719e-003 0. 0. 0. 0. 0. 9.80560086e-004
      0. 0. 0. 0. 0. 0. 1.28440064e-004 0. 0. 0. 4.97509376e-004
      1.47984334e-004 0. 0. 6.59657584e-004 7.15793052e-004 0.
      2.79107073e-004 0. 0. 4.71256004e-004 0. 5.10473270e-004 0. 0. 0.
      2.98779138e-004 0. 0. 0. 0. 0. 7.77446257e-004 0. 0. 0.
      4.39105293e-004 0. 0. 6.75751071e-004 0. 0. 0. 0. 0. 0. 0. 0. 0.
      7.15793052e-004 0. 1.78302260e-004 2.80818931e-004 0.
      3.17259575e-004 0. 0. 1.13175972e-003 3.79255565e-004
      1.11212437e-004 0. 0. 0. -2.27272734e-002 4.95322223e-004 0. 0.
      2.72928854e-004 6.17114361e-004 0. 0. 3.22012871e-004 0. 0. 0. 0.
      1.34817045e-003 4.58127382e-004 0. 4.71256004e-004 3.00214335e-004
      0. 0. 1.61925782e-004 1.02592004e-003 0. 0. 2.14443411e-004 0. 0.
      0. 0. 8.43491813e-004 5.59171720e-004 0. 0. 0. 9.82732396e-004
      5.40319073e-004 1.31176814e-004 0. 0. 2.35316023e-004 0. 0. 0. 0.
      4.02757054e-004 -2.25792900e-002 4.71256004e-004 0. 0.
      5.65667055e-004 0. 0. 0. 0. 0. 5.59171720e-004 0. 8.18050001e-004
      0. 0. 1.15405623e-004 0. 0. 0. 0. 1.75252592e-003 0.
      2.20671311e-004 0. 0. 0. 0. 0. 4.68789513e-004 2.25083888e-004 0.
      0. 0. 0. 2.14443411e-004 0. 3.95206735e-004 0. -2.25961562e-002 0.
      4.41342621e-004 0. 1.51142056e-004 1.37437441e-004 0.
      2.03015326e-004 0. 1.09620407e-004 2.14443411e-004 0. 0. 0. 0. 0.
      4.47212398e-004 0. 2.13218783e-003 9.95018752e-004 1.79695920e-003
      0. 1.43158610e-003 1.63801073e-004 0. 3.15947284e-004
      1.63801073e-004 0. 0. 0. 0. 0. 1.88538877e-004 0. 0. 0. 0.
      1.88538877e-004 0. 4.71256004e-004 0. 4.95322223e-004 0. 0.
      1.36442133e-004 2.43525472e-004 0. 0. 2.17435276e-003 0. 0.
      1.15405623e-004 0. 0. 0. 1.31176814e-004 0. 2.43890157e-004
      2.62353627e-004 4.05333005e-004 0. 0. 0. 2.50919693e-004 0.
      2.87922652e-004 0. 0. 0. 0. 1.32483221e-003 0. 0. 1.07187705e-004
      2.35316023e-004 0. 0. 5.34683175e-004 2.43890157e-004
      6.82944199e-004 0. 6.59657584e-004 0. 0. 0. 0. 0. 2.70085118e-004
      4.81363997e-004 0. 9.05979250e-004 0. 0. 0. 7.15793052e-004 0. 0.
      0. 0. 0. 3.56159668e-004 0. 0. 0. 0. 8.07398057e-004 0. 0. 0. 0.
      0. 0. 1.75252592e-003 0. 0. 0. 0. 0. 0. 2.58738350e-004 0.
      4.68789513e-004 0. 0. 1.47984334e-004 5.40319073e-004 0. 0. 0. 0.
      0. 4.58127382e-004 0. 0. 0. 1.01941332e-004 0. 0. 0.
      6.55744050e-004 0. 1.98244728e-004 0. 3.48179659e-004 0. 0. 0. 0.
      0. 0. 1.88538877e-004 0. 0. 0. 0. 0. 0. 1.28440064e-004 0. 0. 0.
      0. 2.41731017e-004 3.95206735e-004 1.28440064e-004 0.
      1.78302260e-004 2.30741483e-004 0. 2.35316023e-004 0. 0.
      3.26081202e-003 0. 4.85346827e-004 0. 6.96188596e-004 0. 0.
      1.11212437e-004 5.90853044e-004 0. 0. 1.09620407e-004
      8.34360661e-004 0. 0. 0. 0. 0. 1.51142056e-004 7.30566855e-004
      2.22406932e-004 0. 0. 0. 0. 7.15793052e-004 0. 1.78302260e-004
      -2.13565677e-002 0. 0. 3.86476371e-004 0. 0. 0. 0. 3.56159668e-004
      0. 0. 0. 0. 0. 2.22406932e-004 0. 0. 7.20606069e-004
      3.08557181e-004 0. 0. 0. 3.17259575e-004 0. 0. 3.46459099e-004 0.
      0. 0. 4.05333005e-004 0. 0. 6.96188596e-004 0. 0. 2.72928854e-004
      2.14443411e-004 0. 0. 3.95206735e-004 0. 1.06609392e-003 0. 0. 0.
      0. 0. 0. 0. 0. 3.48179659e-004 0. 2.14443411e-004 -2.16603130e-002
      0. 0. 5.30397636e-004 1.11212437e-004 0. 9.95018752e-004 0.
      4.21826931e-004 3.08557181e-004 0. 4.02757054e-004 0.
      3.46459099e-004 2.43890157e-004 0. 0. 0. 0. 0. 0. 0.
      4.71256004e-004 0. 0. 5.26438991e-004 3.48179659e-004
      2.41731017e-004 0. 0. 0. 0. 0. 5.65667055e-004 3.95206735e-004 0.
      0. 0. 0. 1.06609392e-003 0. 4.92761494e-004 0. 1.28440064e-004 0.
      5.34683175e-004 0. 0. 1.47984334e-004 0. 0. 0. 4.39105293e-004
      1.11834344e-003 2.18242611e-004 0. 0. 0. 1.63801073e-004 0.
      1.37437441e-004 0. 0. 0. 1.15405623e-004 0. 0. 2.30741483e-004 0.
      2.26535252e-004 0. 4.95322223e-004 0. 0. 0. 2.42673414e-004
      3.46459099e-004 0. 0. 0. -2.27272734e-002 2.18242611e-004 0. 0. 0.
      0. 3.79255565e-004 1.06609392e-003 0. 0. 0. 0. 0. 0. 0.
      5.67154028e-004 0. 0. 2.75263941e-004 5.36116597e-004
      6.96608913e-004 0. 2.50919693e-004 0. 0. 0. 0. 0. 0. 0.
      4.05333005e-004 0. 9.82732396e-004 0. 0. 1.07187705e-004 0.
      2.26535252e-004 2.18750734e-004 2.50919693e-004 0. 3.79255565e-004
      0. 0. 0. 1.37437441e-004 0. 2.18242611e-004 0. 0. 2.14443411e-004
      0. 0. 0. 4.68789513e-004 0. 0. 0. 0. 0. 3.42469051e-004 0.
      1.77533264e-004 0. 0. 0. 0. 0. 0. 0. 0. 0. 2.25083888e-004 0. 0.
      0. 0. 0. 0. 0. 0. 3.17259575e-004 0. 3.00214335e-004
      3.15947284e-004 2.23630341e-004 0. 0. 1.46799383e-003
      2.14443411e-004 0. 0. 2.98779138e-004 1.61925782e-004
      2.79107073e-004 3.22012871e-004 3.17259575e-004 5.34683175e-004 0.
      3.17259575e-004 0. 2.03015326e-004 3.88723129e-004 4.97509376e-004
      0. 0. 2.18750734e-004 1.39237719e-003 0. 0. 0. 0. 0. 0. 0.</_></support_vectors>
  <decision_functions>
    <_>
      <sv_count>1</sv_count>
      <rho>-9.9990052348170499e-001</rho>
      <alpha>
        1.</alpha>
      <index>
        0</index></_></decision_functions></my_svm>
</opencv_storage>
