<?xml version="1.0"?>
<opencv_storage>
<my_svm type_id="opencv-ml-svm">
  <svm_type>C_SVC</svm_type>
  <kernel><type>LINEAR</type></kernel>
  <C>1.</C>
  <term_criteria><epsilon>2.2204460492503131e-016</epsilon>
    <iterations>100</iterations></term_criteria>
  <var_all>10000</var_all>
  <var_count>10000</var_count>
  <class_count>2</class_count>
  <class_labels type_id="opencv-matrix">
    <rows>1</rows>
    <cols>2</cols>
    <dt>i</dt>
    <data>
      -1 1</data></class_labels>
  <sv_total>1</sv_total>
  <support_vectors>
    <_>
      0. 0. 0. 0. 0. 1.32793313e-004 1.60302661e-004 6.80085795e-004
      7.12767418e-004 0. 0. 0. 3.09755356e-004 0. 2.16718778e-004 0.
      1.20778393e-004 1.33581099e-003 5.89844130e-004 0. 5.08797122e-004
      0. 0. 0. 9.23401443e-004 0. 1.32877642e-004 0. 0. 1.67792517e-004
      2.15922555e-004 0. 3.09755356e-004 0. 0. 0. 0. 0. 0. 0. 0.
      1.89966930e-004 4.00556746e-004 5.70778269e-004 0. 0. 0. 0.
      2.04982876e-004 1.29005653e-004 1.23131875e-004 4.33437555e-004 0.
      0. 0. 0. 0. 0. 5.90831856e-004 0. 0. 1.22224644e-003
      2.66017276e-004 0. 0. 7.24944286e-004 0. 0. 6.89738896e-004
      2.41619142e-004 1.82566151e-003 0. 2.45775940e-004 2.04139226e-003
      3.55497876e-004 2.11011921e-003 0. 3.09755356e-004 3.90089554e-004
      0. 0. 0. 0. 0. 7.38324306e-004 0. 0. 9.13730240e-004 0. 0. 0. 0.
      1.23131875e-004 1.23131875e-004 0. 0. 9.54163115e-005 0. 0.
      4.08928841e-004 0. 0. 0. 5.28888952e-004 4.41265613e-004 0. 0.
      3.25234490e-004 1.81928350e-004 0. 4.08928841e-004 8.35484941e-004
      1.92818407e-004 0. 4.39301948e-004 0. -2.38763448e-002
      6.59684360e-004 0. 0. 0. 0. 3.44869448e-004 0. 1.30567001e-003 0.
      3.94456700e-004 0. 2.40531823e-004 0. 0. 0. 0. 0. 0.
      1.10951648e-003 0. 0. 0. 4.87504294e-004 2.76378240e-004
      5.67245064e-004 2.04497672e-004 8.35484941e-004 0. 0. 0.
      5.65643422e-004 0. 5.07650431e-004 1.23374141e-003 1.70206244e-004
      5.13897918e-004 0. 1.28777267e-003 9.20748804e-004 5.95357909e-004
      0. 0. 3.50269576e-004 7.54851382e-004 5.95357909e-004
      3.79151432e-004 0. 0. 0. 0. 4.37351584e-004 3.79151432e-004
      2.42350638e-004 1.49124453e-003 0. 0. 3.92752816e-004
      2.42350638e-004 1.42056588e-003 4.20420227e-004 0. 1.76688700e-004
      0. 0. 0. 1.34994579e-003 0. 0. 3.51085910e-004 4.01858997e-004
      1.20778393e-004 1.21841289e-003 7.12892099e-004 0. 1.70206244e-004
      5.37239364e-004 0. 8.35484941e-004 2.40531823e-004 1.18792919e-003
      5.70778269e-004 5.08797122e-004 1.32877642e-004 0. 0. 0. 0.
      5.95357909e-004 2.15922555e-004 0. 0. 3.79151432e-004
      3.09755356e-004 0. 3.40412487e-004 0. 1.94510474e-004
      1.16040010e-003 1.32877642e-004 2.45775940e-004 0. 3.83652194e-004
      0. 0. 1.33254612e-003 2.74031598e-004 0. 3.57279350e-004 0. 0. 0.
      1.25824835e-003 0. 0. 0. 0. 2.42350638e-004 8.35484941e-004 0. 0.
      3.63856700e-004 0. 1.18419659e-004 7.08366337e-004 9.48099070e-004
      4.59280272e-004 1.32877642e-004 7.44690129e-004 1.81928350e-004
      3.83652194e-004 1.49124453e-003 0. 0. 1.38972769e-003
      3.55497876e-004 0. 1.98887684e-003 0. 0. 0. 0. 0. 0.
      1.94510474e-004 0. 0. 0. 0. 0. 1.89966930e-004 0. 0. 0. 0.
      1.33892277e-003 1.60302661e-004 3.67185712e-004 0. 4.00556746e-004
      0. 5.28888952e-004 0. 0. 1.72481843e-004 0. 7.50940759e-004
      1.40460418e-003 1.32877642e-004 0. 0. 0. 9.90520348e-004 0.
      1.19415461e-003 0. 0. 0. 0. 0. 0. 1.89966930e-004 0.
      2.15922555e-004 1.60302661e-004 0. 0. 2.04497672e-004 0. 0. 0. 0.
      3.92662740e-004 0. 0. 0. 0. 5.18381654e-004 4.89554950e-004 0. 0.
      1.77748938e-004 0. 0. 5.57875028e-004 0. 5.13897918e-004
      3.57279350e-004 0. 0. 0. 0. 3.79151432e-004 0. 0. 0.
      6.77789387e-004 0. 0. 0. 0. 1.38729915e-003 1.72481843e-004
      5.95357909e-004 1.89966930e-004 7.85325479e-004 2.26401811e-004
      1.62013486e-004 1.13051722e-003 1.77948226e-004 0. 0.
      4.86650097e-004 0. 0. 0. 6.34824217e-004 2.38427962e-003
      2.23866504e-004 0. 6.63780200e-004 0. 0. 4.11229237e-004 0. 0. 0.
      3.44869448e-004 1.06486713e-003 0. 1.03404839e-003 1.52639137e-003
      1.09612639e-003 0. 1.31377764e-003 0. -2.17763986e-002 0. 0. 0.
      2.87151430e-004 0. 8.84399225e-004 0. 0. 5.37239364e-004
      9.54163115e-005 7.63098767e-004 0. 0. 7.14558701e-004
      3.37486446e-004 -1.85201839e-002 5.95357909e-004 9.90520348e-004
      0. 0. 0. 1.18419659e-004 0. 0. 2.16718778e-004 0. 0.
      2.77121377e-004 0. 0. 2.87151430e-004 1.34891219e-004 0.
      1.24139909e-003 1.20778393e-004 0. 1.95451052e-004 0.
      2.04982876e-004 3.73399293e-004 0. 0. 0. 5.93964593e-004 0. 0.
      7.76405039e-004 5.08797122e-004 1.23131875e-004 0. 0. 0. 0.
      1.45558792e-003 0. 3.90089554e-004 0. 0. 0. 0. 1.08992239e-003 0.
      1.76688700e-004 5.95357909e-004 0. 0. 7.92096136e-004 0. 0.
      5.28888952e-004 6.48723275e-004 1.31377764e-003 0. 0. 0. 0.
      2.25929776e-004 0. 7.45622267e-004 0. 5.81858272e-004 0. 0. 0.
      5.29502053e-004 0. 3.72345065e-004 0. 1.89497834e-003 0. 0.
      7.24944286e-004 2.76378240e-004 0. 4.84701275e-004 1.81928350e-004
      5.52756479e-004 0. 0. 0. 7.45622267e-004 0. 0. 0. 0.
      1.34891219e-004 0. -4.79048193e-002 0. 0. 0. 0. 0. 0. 0.
      2.16718778e-004 0. 1.49124453e-003 0. 3.37486446e-004 0. 0.
      8.54123500e-004 0. 2.16718778e-004 1.76688700e-004 0.
      1.07704173e-003 0. 1.53354858e-003 0. 0. 0. 0. 0. 4.65099642e-004
      1.10666233e-003 1.52639137e-003 0. 1.05777790e-003 0.
      4.09480534e-004 0. 2.77121377e-004 1.34891219e-004 0. 0.
      3.62882682e-004 9.28689667e-004 0. 0. 1.62013486e-004 0.
      1.47664861e-003 1.18419659e-004 3.55896453e-004 0. 0. 0. 0.
      1.95451052e-004 3.53377400e-004 -2.00975109e-002 9.54163115e-005
      0. 0. 5.51633304e-004 0. 7.38324306e-004 -2.30623651e-002 0.
      4.01858997e-004 0. 3.79151432e-004 0. 2.04497672e-004 0. 0. 0.
      1.34891219e-004 0. 0. 1.70206244e-004 5.28888952e-004
      1.09018094e-003 8.47156509e-004 0. 0. 2.77121377e-004
      4.89554950e-004 0. 0. 2.42350638e-004 4.08928841e-004 0.
      1.58031110e-003 0. 0. 6.87946682e-004 0. 0. 0. 1.11747568e-003
      3.92662740e-004 0. 0. 0. 0. 0. 0. 2.58011307e-004 1.22678652e-003
      7.63098767e-004 0. 1.62013486e-004 5.47246309e-004 1.13695092e-003
      5.37239364e-004 8.52567668e-004 1.50188152e-003 0.
      -7.31707290e-002 0. 5.58617176e-004 0. 0. 0. 3.56999808e-004
      3.37486446e-004 3.83652194e-004 3.56999808e-004 5.70778269e-004 0.
      0. 0. 0. 1.83592856e-004 0. 2.41619142e-004 0. 0. 0. 0. 0.
      1.23131875e-004 0. 7.39632640e-004 1.42251386e-003 0.
      1.05777790e-003 0. 0. 3.83652194e-004 1.92818407e-004 0. 0. 0. 0.
      2.15662131e-003 0. 9.98800504e-004 4.33437555e-004 3.44963686e-004
      0. 9.70249588e-004 0. 1.32793313e-004 0. 0. 0. 0. 2.45775940e-004
      3.90902103e-004 0. 0. 1.89966930e-004 0. 0. 0. 3.09755356e-004
      8.17857683e-004 3.63856700e-004 1.07183808e-003 7.38324306e-004 0.
      0. 3.44869448e-004 5.58617176e-004 0. 4.08928841e-004
      1.95451052e-004 8.82964639e-004 0. 0. 0. 0. 3.90089554e-004
      1.44988857e-003 0. 4.29257547e-004 0. 0. 3.44869448e-004 0.
      3.09755356e-004 0. 0. 5.89844130e-004 0. 0. 6.69726520e-004 0. 0.
      2.65586626e-004 1.67431630e-004 0. 0. 0. 0. 3.79151432e-004
      3.44682805e-004 0. 1.42105413e-003 0. 0. 0. 3.34863260e-004
      9.86357220e-004 5.13897918e-004 0. 0. 3.72345065e-004
      4.67664126e-004 1.34891219e-004 7.63098767e-004 0. 1.72481843e-004
      9.35589196e-004 0. 3.57279350e-004 3.79151432e-004 8.75668600e-004
      0. 0. 1.77948226e-004 0. 0. 0. 0. 2.69782438e-004 0. 0.
      1.47664861e-003 0. 0. 7.24944286e-004 0. 0. 5.28888952e-004
      7.50940759e-004 3.73849063e-004 0. 6.28414797e-004 2.77121377e-004
      0. 0. 0. 7.63829856e-004 0. 0. 4.19236370e-004 0. 0. 0.
      1.31377764e-003 0. 1.29005653e-004 0. 0. 0. 0. 0. 0.
      2.74031598e-004 6.80085795e-004 0. 3.57279350e-004 1.64497050e-003
      4.31845110e-004 2.74031598e-004 2.77121377e-004 5.48063195e-004 0.
      0. 1.32793313e-004 1.34891219e-004 0. 0. 0. 0. 0. 7.68144557e-004
      0. 0. 7.51572079e-004 3.92662740e-004 2.66017276e-004
      1.70206244e-004 2.74031598e-004 0. 0. 0. 7.12767418e-004
      4.39301948e-004 4.24091297e-004 0. 1.25770911e-003 0. 0. 0.
      3.57279350e-004 0. 5.08797122e-004 0. 0. 0. -2.27272734e-002
      6.97579526e-004 6.80085795e-004 3.92662740e-004 0. 1.50188152e-003
      1.26361963e-003 0. 6.34824217e-004 0. 1.44988857e-003
      1.40236295e-003 0. 0. 0. 0. 9.31124261e-004 0. 2.20632806e-004 0.
      0. 0. 0. 1.83592856e-004 0. 0. 0. 0. 7.50940759e-004
      7.08366337e-004 2.28293953e-004 0. 3.57279350e-004 3.44682805e-004
      0. 1.94510474e-004 5.52756479e-004 3.44682805e-004 1.09783036e-003
      4.89554950e-004 0. 1.95022905e-003 0. 0. 0. 0. 0. 0. 0. 0. 0. 0.
      1.95451052e-004 0. 3.53377400e-004 0. 7.50940759e-004 0. 0.
      3.96048068e-004 1.33205380e-003 9.90520348e-004 0. 0. 0. 0. 0.
      4.08928841e-004 1.71526149e-003 2.65755283e-004 2.04982876e-004
      1.62013486e-004 7.57275790e-004 0. 0. 2.41619142e-004
      1.60302661e-004 1.32793313e-004 0. 3.56999808e-004 1.77748938e-004
      0. 0. 3.83652194e-004 0. 0. 0. 1.67792517e-004 0. 1.41815096e-003
      0. 7.12767418e-004 0. 0. 0. 0. 4.84701275e-004 0. 1.11260626e-003
      1.32793313e-004 7.24944286e-004 7.44690129e-004 4.08928841e-004
      7.80179107e-004 0. 0. 0. 0. 1.18419659e-004 1.95451052e-004
      1.32877642e-004 0. 0. 0. 3.73849063e-004 1.35963864e-003 0. 0. 0.
      0. 0. 2.41619142e-004 0. 0. 3.96048068e-004 9.62755410e-004 0.
      1.34891219e-004 0. 1.08126085e-003 0. 3.35585035e-004
      6.77471224e-004 1.94510474e-004 0. 3.73849063e-004 0. 0.
      1.40236295e-003 0. 0. 0. 0. 0. 0. 0. 1.97895075e-004 0. 0.
      1.03676331e-003 0. 0. 0. 8.84399225e-004 2.16718778e-004
      6.68899738e-004 3.53377400e-004 0. 0. 2.76378240e-004 0.
      5.28888952e-004 7.44513876e-004 5.37239364e-004 0. 7.24944286e-004
      5.97310020e-004 5.90170268e-004 1.90832623e-004 0. 0.
      7.14558701e-004 0. 0. 0. 0. 2.26401811e-004 5.79607906e-004
      5.89771604e-004 1.62013486e-004 0. 0. 0. 0. 0. 5.93685254e-004 0.
      0. 3.44682805e-004 0. 4.24091297e-004 0. 0. 0. 0. 0.
      1.34891219e-004 0. 3.34449869e-004 3.57279350e-004 2.41619142e-004
      0. 0. 0. 1.41256291e-003 1.07447873e-003 0. 0. 0. 0. 0. 0. 0. 0.
      0. 0. 0. 2.15922555e-004 1.75133720e-003 6.34824217e-004 0.
      1.62622938e-003 0. 0. 0. 3.83652194e-004 1.89966930e-004 0. 0.
      7.24944286e-004 6.66245003e-004 4.89554950e-004 4.01858997e-004 0.
      0. 1.13387313e-003 0. 1.45838968e-003 0. 0. 4.89554950e-004 0.
      5.13897918e-004 0. 9.30158072e-004 0. 1.69399998e-003 0. 0. 0. 0.
      0. 0. -2.20127143e-002 3.44682805e-004 1.95451052e-004
      1.32793313e-004 0. 0. 0. 0. 2.26401811e-004 0. 0. 0. 0.
      4.90764738e-004 0. 3.56999808e-004 3.34449869e-004 2.42350638e-004
      0. 3.55896453e-004 0. 0. 0. 0. 0. 2.77121377e-004 0. 0.
      2.76378240e-004 0. 0. 0. 0. 0. 0. 0. 1.32793313e-004 0.
      9.72793263e-004 0. 0. 0. 0. 0. 0. 1.76688700e-004 2.69782438e-004
      0. 0. 0. 0. 0. 0. 0. 0. 3.57279350e-004 2.32578348e-003 0. 0. 0.
      1.10893999e-003 0. 3.79151432e-004 0. 3.56999808e-004 0. 0. 0. 0.
      3.34449869e-004 0. 0. 3.20605322e-004 0. 3.67185712e-004
      3.53377400e-004 1.83592856e-004 5.28888952e-004 3.99929937e-004 0.
      0. 1.95451052e-004 2.74031598e-004 2.15922555e-004 0.
      1.15095661e-003 0. 0. 0. 0. 2.29640136e-004 0. 0. 0. 0. 0. 0.
      1.16300222e-003 0. 5.93964593e-004 7.08366337e-004 0. 0. 0. 0. 0.
      0. 3.44682805e-004 0. 5.61208348e-004 1.42553484e-003 0.
      5.08797122e-004 1.32877642e-004 0. 4.39301948e-004 0.
      1.67792517e-004 0. 0. 2.00541969e-003 0. 0. 1.62013486e-004 0. 0.
      8.01113492e-004 0. 0. 0. -2.34632231e-002 0. 0. 1.12263637e-003
      2.16718778e-004 0. 2.23866504e-004 0. 3.34449869e-004 0. 0. 0. 0.
      1.77948226e-004 5.08797122e-004 0. 2.87151430e-004 0. 0.
      1.21947366e-003 0. 1.04807969e-003 0. 0. 4.84701275e-004 0.
      -4.54545468e-002 0. 1.95451052e-004 3.72345065e-004 0.
      1.83592856e-004 2.42350638e-004 7.45622267e-004 4.39301948e-004 0.
      5.93964593e-004 1.32793313e-004 0. 0. 1.47926528e-003 0. 0.
      6.22075924e-004 1.32877642e-004 0. 0. 0. 0. 3.37486446e-004 0. 0.
      0. 0. 2.20632806e-004 0. 0. 9.36219352e-004 0. 0. 0. 0.
      1.44292181e-003 0. 9.90520348e-004 1.18814420e-003 3.96048068e-004
      0. 0. 3.92662740e-004 0. 1.77948226e-004 0. 2.26401811e-004
      5.93964593e-004 3.24026973e-004 3.49596405e-004 3.92752816e-004 0.
      0. 0. -2.27272734e-002 2.33832063e-004 8.35484941e-004 0. 0. 0.
      1.13098708e-003 9.54163115e-005 0. 1.77748938e-004 2.04982876e-004
      0. 9.90520348e-004 0. 1.19071582e-003 0. 0. 0. 0. 0.
      5.54242753e-004 0. 2.81195110e-003 9.68556618e-004 3.72345065e-004
      0. 0. 0. 0. 1.34891219e-004 0. 1.81928350e-004 1.67431630e-004
      6.80085795e-004 0. 2.76378240e-004 0. 5.18381654e-004
      4.00556746e-004 0. 1.77748938e-004 8.84399225e-004 0. 0.
      4.24091297e-004 0. 2.65586626e-004 0. 0. 0. 9.59708763e-004 0.
      9.59708763e-004 0. 0. -2.37156544e-002 7.44690129e-004 0.
      9.30498762e-004 0. 0. 0. 2.32429337e-003 0. 0. 1.90832623e-004 0.
      0. 0. 0. 9.90520348e-004 0. 0. 0. 0. 2.87151430e-004
      1.94510474e-004 0. 1.50591438e-003 7.63098767e-004 1.05926150e-003
      0. 0. 0. 0. 0. 1.78281416e-003 0. 7.92096136e-004 0.
      9.94088245e-004 9.90520348e-004 1.35963864e-003 0. 0. 0. 0.
      3.79151432e-004 0. 0. 0. 0. 4.33437555e-004 5.08797122e-004 0. 0.
      0. 0. 0. 1.23131875e-004 0. 0. 0. 0. 8.78499879e-004 0.
      7.24735379e-004 3.81665246e-004 0. 1.14155654e-003 0.
      5.18381654e-004 0. 0. 0. 2.50257622e-003 2.25929776e-004
      3.34863260e-004 0. 0. 0. 0. 0. 0. 1.27227395e-003 0. 0.
      9.89841181e-004 0. 1.62013486e-004 9.59708763e-004 1.67431630e-004
      0. 0. 0. 3.11238051e-004 0. 0. 0. 0. 2.49859993e-003 0. 0.
      7.12767418e-004 0. 5.60851709e-004 0. 0. 0. 0. 1.81928350e-004 0.
      9.54163115e-005 3.99929937e-004 3.89020948e-004 0. 0. 0.
      7.92096136e-004 1.53628911e-003 0. 0. 1.76688700e-004
      5.88477706e-004 2.29640136e-004 2.77121377e-004 0. 0. 0.
      3.56999808e-004 4.67664126e-004 0. 1.23131875e-004 7.08366337e-004
      0. 1.08826486e-003 0. 0. 9.51146998e-004 0. 0. 0. 0. 0. 0. 0. 0.
      2.42350638e-004 1.16971356e-003 0. 0. 0. 4.24091297e-004 0. 0.
      6.67034707e-004 0. 0. 0. 0. 0. 1.00327749e-003 0. 8.48182593e-004
      0. 1.38530461e-003 0. 0. 0. 0. 0. 0. 0. 0. 0. 5.95357909e-004 0.
      0. 0. 0. 0. 3.55896453e-004 1.10801763e-003 0. 3.92662740e-004 0.
      0. 0. 0. 9.54163115e-005 5.52756479e-004 9.54163115e-005 0.
      2.74031598e-004 0. 2.26401811e-004 3.99929937e-004 5.28888952e-004
      0. 0. 0. 0. 1.58154732e-003 0. 1.81928350e-004 5.13897918e-004
      2.16718778e-004 1.70136779e-003 0. 3.44869448e-004 0. 0.
      1.94510474e-004 0. 4.01858997e-004 3.37375299e-004 1.29005653e-004
      0. 0. 0. 0. 0. 0. 0. 0. 0. 1.67792517e-004 1.05777790e-003 0.
      1.42553484e-003 0. 0. 0. 0. 0. 0. 0. 0. 4.33437555e-004
      1.89966930e-004 0. 0. 7.12767418e-004 3.90089554e-004
      4.09965753e-004 0. 0. 0. 2.77047185e-003 4.19236370e-004 0. 0.
      3.92662740e-004 7.94906227e-004 0. 4.74792952e-003 0. 0.
      2.76378240e-004 0. 1.20778393e-004 0. 0. 0. 7.08366337e-004
      1.13780762e-003 0. 0. 0. 0. 1.20778393e-004 8.01113492e-004
      3.73849063e-004 0. 6.21986343e-004 3.96048068e-004 9.72156355e-004
      9.58543329e-004 1.29005653e-004 6.89365610e-004 4.07963467e-004 0.
      7.21595483e-004 0. 0. 1.08833332e-003 8.61454289e-004 0. 0. 0.
      2.69782438e-004 0. 3.25234490e-004 0. 0. 7.24944286e-004
      2.41619142e-004 0. 0. 0. 0. 5.13897918e-004 2.65755283e-004 0. 0.
      0. 0. 0. 0. 1.90412742e-003 5.08797122e-004 3.79151432e-004 0.
      3.92752816e-004 2.16718778e-004 0. 2.65586626e-004 5.68830175e-004
      2.87151430e-004 0. 0. 0. 0. 1.36017159e-003 1.11365225e-003
      3.34449869e-004 5.08797122e-004 8.63875728e-004 6.50156289e-004 0.
      0. 0. 0. 0. 4.41604148e-004 1.95451052e-004 7.33846682e-004 0.
      1.34891219e-004 0. 0. 7.11792905e-004 0. 7.18855881e-004
      1.95451052e-004 5.66778239e-004 0. 0. 0. 0. 3.57279350e-004 0.
      1.70206244e-004 0. 6.34824217e-004 2.04497672e-004 0.
      8.04393145e-004 0. 1.95451052e-004 7.08366337e-004 0. 0.
      2.62755528e-003 0. 0. 0. 0. 0. 3.79151432e-004 0. 0. 0. 0.
      4.89554950e-004 0. 0. 3.67185712e-004 4.19236370e-004 0.
      1.34891219e-004 1.95451052e-004 0. 8.35484941e-004 0. 0. 0. 0. 0.
      6.80085795e-004 4.39301948e-004 5.13897918e-004 0. 0. 0. 0. 0. 0.
      1.04280654e-003 0. 0. 0. 5.95357909e-004 1.77748938e-004 0. 0. 0.
      0. 8.97989958e-004 0. 0. -2.33081393e-002 0. 0. 5.37239364e-004 0.
      0. 0. 0. 8.66076443e-004 3.40412487e-004 8.75668600e-004 0.
      -2.05549803e-002 0. 0. 0. 5.76842693e-004 0. 0. 7.45622267e-004
      7.27051927e-004 5.08797122e-004 0. 1.77948226e-004 0.
      1.23131875e-004 5.58617176e-004 0. 1.62013486e-004 0.
      5.79779211e-004 0. 0. 0. 1.41673267e-003 1.77748938e-004 0.
      3.56999808e-004 0. 0. 0. 0. 0. 1.18419659e-004 0. 0. 0. 0.
      7.38324306e-004 0. 0. 0. 0. 0. 0. 0. 0. 0. 0. 0. 0. 0. 0. 0.
      8.87415255e-004 9.54163115e-005 0. 7.50940759e-004 4.01858997e-004
      1.95451052e-004 2.15922555e-004 1.16260129e-003 2.16718778e-004 0.
      1.32793313e-004 0. 4.41824115e-004 0. 0. 0. 0. 0. 1.05777790e-003
      0. 1.95451052e-004 1.92818407e-004 0. -2.12484207e-002 0. 0.
      1.09923666e-003 5.13897918e-004 4.29257547e-004 0. 1.72481843e-004
      0. 2.77121377e-004 0. 4.01858997e-004 0. 0. 0. 1.10892311e-003
      1.76688700e-004 0. 8.75668600e-004 2.66017276e-004 0. 0.
      5.33844694e-004 0. 0. 0. 0. 0. 0. 7.68144557e-004 1.20778393e-004
      0. 0. 0. 1.29005653e-004 9.59708763e-004 0. 0. 0. 0.
      2.87912623e-003 0. 0. 5.13897918e-004 0. 0. 9.59708763e-004 0.
      5.28888952e-004 0. 0. 8.75668600e-004 1.62013486e-004 0. 0.
      4.67664126e-004 1.89966930e-004 0. 0. 6.09471579e-004 0. 0. 0. 0.
      0. 0. 0. 1.83592856e-004 0. 0. 5.30066085e-004 0. 7.45622267e-004
      0. 0. 4.89554950e-004 0. 5.70778269e-004 0. 0. 3.79933859e-004 0.
      0. 0. 4.29257547e-004 0. 0. 7.55997258e-004 0. 0. 1.37272431e-003
      0. 4.29257547e-004 0. 0. 0. 0. 0. 8.90516327e-004 2.65586626e-004
      6.22348278e-004 0. 2.47613381e-004 0. 5.65080787e-004 0. 0. 0.
      3.44120315e-004 8.75668600e-004 4.83238284e-004 0. 0. 0.
      1.20535551e-003 0. 0. 7.78858492e-004 1.83592856e-004 0. 0.
      3.44869448e-004 0. 1.67792517e-004 1.50188152e-003 0.
      6.63089624e-004 7.38080475e-004 9.08791320e-004 1.95451052e-004 0.
      0. 0. 0. 0. 0. 3.44682805e-004 1.59089908e-003 0. 0.
      3.25696048e-004 1.70206244e-004 1.77748938e-004 0. 0.
      3.63313302e-004 0. 0. 0. 3.63313302e-004 0. 0. 7.68144557e-004 0.
      3.20605322e-004 0. 1.97895075e-004 0. 2.66017276e-004
      6.34240394e-004 0. 1.11269730e-003 0. 0. 0. 1.92818407e-004
      3.44682805e-004 5.70778269e-004 3.55258991e-004 0. 0. 0.
      5.91718184e-004 0. 3.92662740e-004 0. 0. 0. 1.52619753e-003
      6.34824217e-004 0. 1.31377764e-003 7.08366337e-004 6.80085795e-004
      0. 0. 0. 1.77085097e-003 5.86667971e-004 0. 0. 0. 0. 0.
      6.89365610e-004 0. 0. 3.63313302e-004 0. 0. 1.03676331e-003 0.
      1.67792517e-004 0. 0. 0. 0. 0. 0. 4.29257547e-004 0.
      1.32793313e-004 0. 2.74031598e-004 8.35484941e-004 6.80085795e-004
      0. 0. 1.97895075e-004 3.96048068e-004 0. 9.22563660e-004 0. 0. 0.
      0. 0. 0. 0. 4.16312163e-004 0. 2.04982876e-004 0. 5.10618731e-004
      0. 0. 0. 5.13897918e-004 1.32793313e-004 0. 5.28888952e-004
      1.77948226e-004 8.58515094e-004 0. 0. 1.95451052e-004 0.
      1.01727690e-003 7.58302864e-004 0. 0. 0. 0. 1.48722483e-003 0.
      6.19510713e-004 0. 0. 0. 0. 0. 1.32793313e-004 1.47664861e-003 0.
      2.26401811e-004 3.67185712e-004 2.87151430e-004 1.76688700e-004
      3.28578940e-003 2.20632806e-004 1.67792517e-004 3.92662740e-004 0.
      0. 5.58617176e-004 0. 0. 0. 0. 0. 0. 0. 3.53377400e-004
      3.34863260e-004 1.67431630e-004 0. 3.34449869e-004 0. 0.
      2.41556787e-004 1.34891219e-004 3.79151432e-004 0. 0. 0. 0. 0. 0.
      0. 3.34449869e-004 0. 0. 7.63098767e-004 0. 0. 0. 0.
      5.95357909e-004 7.63098767e-004 0. 2.76378240e-004 0. 0. 0. 0. 0.
      3.83652194e-004 0. 7.14558701e-004 7.08366337e-004 0. 0.
      7.68144557e-004 6.14948629e-004 0. 7.58302864e-004 9.13053867e-004
      0. 4.00556746e-004 3.90089554e-004 1.07939914e-003 0. 0. 0. 0. 0.
      4.84701275e-004 0. 0. 1.11769710e-003 2.65755283e-004 0. 0.
      1.62660936e-003 9.54163115e-005 0. 3.63313302e-004 4.01858997e-004
      0. 0. 4.51859552e-004 0. 2.04982876e-004 7.45622267e-004 0.
      4.74363886e-004 0. 0. 1.06998009e-003 0. 5.28888952e-004
      5.08797122e-004 7.27051927e-004 0. 0. 0. 7.18102034e-004 0. 0. 0.
      0. 0. 0. 0. 0. 0. 0. 0. 0. 3.72345065e-004 0. 3.57279350e-004 0.
      0. 3.56999808e-004 0. 4.33437555e-004 0. 0. 0. 0. 5.70778269e-004
      3.25234490e-004 0. 4.09965753e-004 0. 0. 0. 0. 1.18419659e-004 0.
      3.44682805e-004 4.00556746e-004 0. 0. 0. 0. 0. 0. 0. 0. 0. 0.
      7.50940759e-004 1.67431630e-004 0. 0. 0. 2.20632806e-004 0.
      2.66017276e-004 2.28593405e-003 9.76934796e-004 1.32877642e-004 0.
      0. 5.22897288e-004 0. 0. 0. 4.20708908e-003 0. 0. 2.04497672e-004
      3.18972568e-004 0. 0. 0. 3.79933859e-004 0. 4.08928841e-004
      9.02738015e-004 0. 0. 1.18419659e-004 0. 2.25929776e-004 0. 0.
      1.95451052e-004 1.23131875e-004 3.63313302e-004 3.90089554e-004 0.
      0. 0. 1.98104070e-003 0. 0. 0. 0. 1.32877642e-004 1.92818407e-004
      0. 0. 0. 1.00207096e-003 0. 0. 0. 0. 2.16718778e-004 0. 0.
      7.08366337e-004 7.24944286e-004 0. 4.30899468e-004 8.84399225e-004
      0. 0. 0. 0. 0. 0. 0. 4.08928841e-004 0. 0. 0. 1.13009219e-003
      1.89966930e-004 0. 1.72481843e-004 0. 0. 0. 0. 0. 1.70206244e-004
      3.57279350e-004 0. 2.20632806e-004 0. 0. 2.87151430e-004
      4.84701275e-004 3.44682805e-004 0. 1.32793313e-004 0. 0. 0.
      5.58617176e-004 0. 7.45622267e-004 2.33832063e-004 0.
      1.20778393e-004 0. 5.37239364e-004 1.94510474e-004 0. 0.
      8.26785981e-004 1.31377764e-003 0. 0. 0. 0. 0. 0. 7.38324306e-004
      0. 4.87247977e-004 3.92662740e-004 3.34449869e-004 7.82099611e-004
      1.70206244e-004 3.09755356e-004 1.95451052e-004 3.79151432e-004
      3.96048068e-004 2.42350638e-004 0. 1.31377764e-003 0. 0.
      1.70206244e-004 1.67792517e-004 5.28888952e-004 0. 5.28888952e-004
      1.67792517e-004 0. 3.20605322e-004 2.04982876e-004 1.32877642e-004
      3.57279350e-004 1.07447873e-003 1.14820068e-004 0. 0.
      1.31377764e-003 2.15922555e-004 3.25234490e-004 0. 0. 0.
      7.50940759e-004 0. 5.93964593e-004 0. 0. 1.66772399e-003
      3.44869448e-004 1.13340863e-003 7.24944286e-004 7.38324306e-004
      1.26964843e-003 0. 0. 0. 0. 2.62755528e-003 0. 4.08995344e-004
      7.50940759e-004 2.28929636e-003 0. 0. 7.11792964e-004
      2.58011307e-004 3.25234490e-004 0. 0. 6.50468981e-004
      6.17131416e-004 9.54163115e-005 0. 9.23570478e-004 0. 0.
      2.23866504e-004 0. 0. 0. 7.01496203e-004 2.87151430e-004 0. 0.
      2.26401811e-004 0. 0. 0. 0. 2.20632806e-004 0. 0. 4.89554950e-004
      0. 8.48182593e-004 0. 1.20778393e-004 1.77748938e-004 0.
      3.90902103e-004 0. 2.23866504e-004 1.14820068e-004 1.60302661e-004
      0. 0. 4.29257547e-004 0. 8.02457507e-004 0. 0. 3.09755356e-004
      2.74031598e-004 0. 0. 0. 0. 6.34824217e-004 3.20605322e-004 0. 0.
      0. 0. 0. 0. 7.39632640e-004 0. 2.25929776e-004 0. 0.
      4.19236370e-004 0. 0. 0. 5.95357909e-004 8.48182593e-004 0. 0. 0.
      5.08797122e-004 0. 2.04497672e-004 2.22284836e-003 0.
      4.89554950e-004 0. 1.31377764e-003 1.92818407e-004 0. 0. 0.
      3.83652194e-004 0. 2.41619142e-004 0. 0. 0. 2.36839318e-004 0.
      6.56649796e-003 7.38324306e-004 1.19071582e-003 0. 0. 0. 0. 0. 0.
      0. 1.05794799e-003 5.31105790e-004 2.04497672e-004 1.60302661e-004
      0. 0. 4.67664126e-004 1.76688700e-004 0. 7.68673315e-004
      2.25929776e-004 0. 0. 0. 2.33832063e-004 0. 3.44869448e-004
      3.99929937e-004 8.17857683e-004 5.18381654e-004 0. 0.
      4.03678714e-004 2.46263749e-004 0. 0. 0. 0. 0. 0. 0. 0.
      5.14738262e-004 0. 0. 7.98051886e-004 0. 0. 0. 0. 0. 0.
      3.79151432e-004 4.69196646e-004 0. 2.69782438e-004 0.
      5.52756479e-004 7.44311430e-004 0. 0. 0. 4.81063646e-004
      5.28888952e-004 0. 3.67185712e-004 1.81928350e-004 5.89245581e-004
      0. 8.35484941e-004 1.14820068e-004 0. 2.45775940e-004 0. 0. 0. 0.
      1.53628911e-003 0. 0. 0. 6.80085795e-004 1.67431630e-004 0.
      1.26384315e-003 1.24441378e-003 6.36075856e-004 1.90832623e-004 0.
      0. 1.34891219e-004 0. 2.36839318e-004 -6.81818202e-002 0.
      8.16245971e-004 5.89844130e-004 7.45622267e-004 0. 1.83592856e-004
      0. 3.96048068e-004 0. 5.95357909e-004 4.51859552e-004
      2.10313848e-003 8.75668600e-004 0. 0. 0. 0. 0. 0. 0. 0. 0. 0.
      6.80085795e-004 0. 3.73849063e-004 3.90089554e-004 0.
      7.38324306e-004 0. 9.59708763e-004 3.73849063e-004 1.45517755e-003
      1.60302661e-004 0. 0. 0. 0. 3.55497876e-004 0. 0. 0.
      2.20632806e-004 0. 0. 0. 0. 1.67431630e-004 0. 9.54163115e-005
      6.50468981e-004 8.84399225e-004 4.89554950e-004 0. 0.
      6.69867266e-004 2.45775940e-004 2.40531823e-004 0. 0. 0. 0. 0. 0.
      0. 0. 0. 0. 0. 8.03717994e-004 0. 7.63098767e-004 0. 0. 0.
      5.93964593e-004 4.00556746e-004 0. 0. 1.02779584e-003 0.
      1.26964843e-003 1.25482003e-003 0. 0. 0. 7.50940759e-004 0. 0.
      7.44690129e-004 0. 1.14900304e-003 -2.20189076e-002
      1.92818407e-004 0. 0. 0. 2.65586626e-004 0. 3.96048068e-004 0.
      9.59708763e-004 0. 0. 1.20778393e-004 0. 5.58617176e-004 0.
      2.76378240e-004 0. 5.72922349e-004 5.95357909e-004 5.28888952e-004
      0. 9.54163115e-005 0. 7.24944286e-004 1.34891219e-004
      5.93964593e-004 0. 0. 0. 0. 7.58302864e-004 4.24091297e-004 0.
      1.53123797e-003 0. 0. 0. 3.09755356e-004 3.34449869e-004 0.
      4.83238284e-004 0. 4.19236370e-004 0. 0. 1.18419659e-004
      2.74031598e-004 0. 4.24091297e-004 0. 0. 0. 2.42350638e-004
      1.83592856e-004 1.29198772e-003 0. 0. 0. 3.99929937e-004
      3.83652194e-004 1.02779584e-003 0. 0. 0. 0. 0. 1.05777790e-003 0.
      0. 0. 0. 5.28888952e-004 1.34891219e-004 0. 0. 0. 4.51979809e-004
      0. 0. 4.81063646e-004 0. 9.59708763e-004 7.33502675e-004 0. 0. 0.
      0. 0. 1.92791491e-003 0. 0. 0. 0. 0. 0. 0. 0. 0. 0. 0.
      2.41619142e-004 2.26401811e-004 0. 0. 0. 5.28888952e-004 0.
      1.03676331e-003 1.92818407e-004 2.42350638e-004 0. 0.
      1.14820068e-004 0. -2.17624251e-002 0. 0. 0. 0. 0. 0.
      4.35982889e-004 0. 1.77748938e-004 7.12767418e-004 0. 0. 0.
      1.18419659e-004 1.40236295e-003 4.19236370e-004 0. 0. 0.
      2.26401811e-004 0. 1.83592856e-004 0. 2.74031598e-004
      9.54163115e-005 0. 0. 0. 0. 8.30375997e-004 0. 0. 2.74031598e-004
      2.76378240e-004 0. 0. 0. 0. 7.50940759e-004 0. 3.57279350e-004 0.
      0. 0. 5.37239364e-004 0. 3.56999808e-004 0. 1.02779584e-003 0. 0.
      0. 0. 1.90832623e-004 0. 4.33437555e-004 1.27530494e-003
      2.04982876e-004 0. 0. 0. 0. 0. 1.77948226e-004 0. 0. 0. 0. 0.
      1.23131875e-004 0. 1.32793313e-004 2.76378240e-004 8.61900044e-004
      0. 1.62013486e-004 0. 3.56999808e-004 0. 3.96048068e-004
      5.95357909e-004 0. 1.77948226e-004 3.44869448e-004 5.08797122e-004
      0. 4.41265613e-004 0. 4.24091297e-004 0. 7.12767418e-004 0.
      3.63313302e-004 0. 7.13928021e-004 0. 0. 0. 0. 5.95357909e-004
      1.01601088e-003 -1.79916136e-002 3.72345065e-004 0.
      9.90520348e-004 0. 0. 0. 0. 0. 0. 0. 3.99929937e-004
      6.80085795e-004 0. 2.76378240e-004 0. 1.62013486e-004 0. 0.
      5.93964593e-004 1.34891219e-004 0. 1.60302661e-004 0. 0.
      1.20778393e-004 0. 2.42350638e-004 0. 0. 7.63098767e-004 0.
      2.45775940e-004 1.42126484e-003 0. 0. 1.74303516e-003 0.
      9.87895648e-004 0. 0. 2.86248920e-004 0. 3.63313302e-004 0. 0.
      2.41619142e-004 0. 3.44869448e-004 0. 2.66017276e-004 0.
      3.44869448e-004 0. 2.76378240e-004 0. 1.83592856e-004
      -2.27272734e-002 0. 0. 0. 8.35484941e-004 3.90089554e-004 0. 0.
      3.92752816e-004 1.23131875e-004 4.19236370e-004 0. 5.45241637e-004
      1.77748938e-004 8.84399225e-004 1.67096988e-003 0. 0.
      5.50778583e-004 7.68144557e-004 0. 0. 0. 0. 0. 8.03782663e-004 0.
      1.47664861e-003 0. 0. 0. 0. 0. 0. 0. 3.55497876e-004 0. 0. 0. 0.
      0. 0. 0. 0. 3.92752816e-004 0. 0. 0. 2.45775940e-004 0. 0. 0.
      4.01858997e-004 0. 0. 0. 0. 0. 1.21327944e-003 0. 5.08797122e-004
      4.24091297e-004 0. 3.37486446e-004 0. 1.32877642e-004 0.
      8.48182593e-004 0. 2.15922555e-004 1.32793313e-004 1.97895075e-004
      0. 1.29005653e-004 0. 5.95357909e-004 0. 0. -2.30604857e-002
      -4.87804860e-002 0. 1.67792517e-004 0. 0. 0. 0. 3.63313302e-004 0.
      0. 0. 0. 2.87151430e-004 1.40236295e-003 3.79151432e-004 0. 0. 0.
      0. 2.45775940e-004 0. 0. 5.95357909e-004 0. 0. 0. 0. 0. 0. 0. 0.
      4.56865120e-004 0. 7.12767418e-004 0. 0. 0. 2.35152151e-003
      8.84399225e-004 0. 0. 0. 0. 5.28888952e-004 0. 2.04497672e-004
      7.99859874e-004 0. 3.44682805e-004 0. 0. 0. 0. 0. 2.74031598e-004
      0. 4.19236370e-004 9.54163115e-005 1.01440831e-003 0. 0.
      3.63313302e-004 2.74031598e-004 0. 0. 1.34891219e-004 0. 0. 0. 0.
      9.59708763e-004 6.14948629e-004 0. 0. 0. 0. 7.81273877e-004 0.
      7.50940759e-004 2.66017276e-004 0. 2.87151430e-004 0. 0. 0. 0.
      7.50940759e-004 0. 0. 0. 0. 2.40531823e-004 0. 0. 0. 0. 0. 0. 0.
      0. 6.42280560e-004 0. 7.58302864e-004 0. 7.50940759e-004 0.
      9.66309628e-004 0. 0. 0. 0. 1.97895075e-004 1.62013486e-004 0.
      7.58302864e-004 0. 1.81928350e-004 0. 1.32793313e-004 0.
      1.73831102e-003 4.41265613e-004 2.15922555e-004 0. 0. 0.
      8.52567668e-004 0. 1.67792517e-004 0. 2.20632806e-004 0.
      9.28291236e-004 0. 0. 0. 0. 1.94510474e-004 1.31377764e-003 0.
      3.09755356e-004 1.15760381e-003 5.13897918e-004 0. 0. 0.
      1.83592856e-004 0. 0. 0. 0. 0. 0. 5.28888952e-004 -4.87804860e-002
      0. 7.30616681e-004 0. 0. 7.45622267e-004 5.18381654e-004
      1.60302661e-004 2.20632806e-004 0. 0. 1.40236295e-003 0. 0. 0. 0.
      2.26401811e-004 5.37239364e-004 0. 0. 0. 4.29257547e-004 0. 0. 0.
      0. 0. 0. 0. 2.96510709e-003 0. 2.42350638e-004 1.62013486e-004 0.
      0. 0. 5.08797122e-004 1.70823443e-003 0. 0. 0. 5.89844130e-004 0.
      0. 3.59189371e-003 2.45775940e-004 2.46263749e-004 6.35955133e-004
      2.20632806e-004 0. 2.23866504e-004 1.70206244e-004 2.15922555e-004
      0. 4.08928841e-004 0. 4.54583060e-004 5.37239364e-004 0. 0.
      5.95357909e-004 0. 0. 3.34449869e-004 0. 0. 0. 0. 2.16718778e-004
      8.68372561e-004 3.44869448e-004 3.79151432e-004 0. 0.
      2.77121377e-004 0. 6.82960439e-004 3.79151432e-004 1.92818407e-004
      0. 8.17857683e-004 5.93964593e-004 3.83652194e-004 0.
      2.87151430e-004 0. 0. 0. 1.62013486e-004 4.24091297e-004 0. 0. 0.
      0. 0. 0. 0. 7.23834266e-004 0. 1.95451052e-004 0. 0.
      1.47664861e-003 0. 0. 7.50940759e-004 8.35484941e-004
      4.39301948e-004 0. 0. 1.67431630e-004 1.40236295e-003
      4.01858997e-004 0. 0. 0. 3.44682805e-004 2.04982876e-004 0. 0. 0.
      1.81928350e-004 0. 0. 0. 0. 0. 5.13897918e-004 1.92818407e-004 0.
      0. 2.77121377e-004 9.54163115e-005 0. 0. 0. 0. 3.92662740e-004 0.
      0. 0. 0. 0. 7.08366337e-004 0. 0. 0. 0. 0. 0. 0. 0. 0. 0.
      1.07447873e-003 3.97156662e-004 0. 0. 0. 2.29640136e-004 0. 0. 0.
      0. 2.38883006e-003 0. 1.30139035e-003 1.72481843e-004 0. 0. 0.
      1.21776271e-003 0. 2.29640136e-004 0. 0. 1.76688700e-004 0. 0. 0.
      0. 0. 0. 1.36017159e-003 4.08928841e-004 0. 0. 0. 0. 0. 0.
      3.09755356e-004 0. 3.58951482e-004 0. 0. 0. 0. 0. 7.12767418e-004
      2.77121377e-004 0. 8.17857683e-004 4.33437555e-004 0. 0. 0. 0. 0.
      7.24944286e-004 0. 0. 0. 7.37327849e-004 3.37486446e-004
      2.42350638e-004 0. 0. 0. 1.29176048e-003 3.96048068e-004 0. 0.
      5.03377581e-004 0. 0. 0. 3.25234490e-004 0. 0. 7.85325479e-004
      1.67431630e-004 8.17857683e-004 0. 0. 2.87151430e-004 0. 0. 0. 0.
      1.83592856e-004 0. 0. 0. 0. 0. 4.50720283e-004 5.02573792e-004 0.
      0. 1.19071582e-003 2.08496000e-003 0. 0. 0. 1.20778393e-004 0.
      7.77771173e-004 0. 5.08430006e-004 0. 0. 1.23131875e-004 0. 0.
      7.12767418e-004 0. 1.34891219e-004 0. 0. 0. 0. 7.68144557e-004 0.
      0. 0. 0. 0. 4.24091297e-004 2.33832063e-004 0. 5.08797122e-004
      1.67792517e-004 8.17857683e-004 1.77948226e-004 4.19236370e-004
      4.47733008e-004 0. 0. 0. 0. 1.83592856e-004 0. -2.27272734e-002
      9.30158072e-004 0. 0. 0. 0. 9.54163115e-005 0. 7.13999616e-004
      5.48063195e-004 1.97895075e-004 0. 3.25234490e-004 1.18419659e-004
      0. 0. 0. 0. 0. 0. 5.54242753e-004 0. 0. 0. 0. 5.93964593e-004
      3.44869448e-004 1.18419659e-004 2.74031598e-004 0. 0. 0. 0. 0. 0.
      0. 5.70778269e-004 0. 0. 0. 0. 0. 0. 0. 2.76378240e-004 0.
      3.44682805e-004 1.83592856e-004 0. 0. 1.18419659e-004 0.
      3.44682805e-004 0. 0. 0. 0. 0. 0. 4.65647841e-004 1.94510474e-004
      0. 0. 1.49124453e-003 2.04497672e-004 6.80085795e-004 0. 0. 0. 0.
      0. 0. 0. 0. 5.72179561e-004 5.28888952e-004 0. 0. 0. 0.
      5.93964593e-004 0. 8.96360260e-004 3.25234490e-004 0.
      2.41556787e-004 4.00556746e-004 0. 0. 0. 7.24944286e-004 0. 0. 0.
      4.08928841e-004 5.93964593e-004 0. 3.44963686e-004 0. 0. 0.
      7.63098767e-004 0. 0. 0. 3.40274360e-004 2.16718778e-004
      5.18381654e-004 7.38324306e-004 3.73849063e-004 0. 4.36129631e-004
      -1.73352249e-002 0. 2.45775940e-004 0. 0. 9.13730240e-004
      7.12767418e-004 8.35484941e-004 0. 0. 4.08928841e-004 0. 0.
      5.42395515e-004 4.29257547e-004 0. 0. 8.76056321e-004
      2.42350638e-004 1.70206244e-004 3.56999808e-004 3.83652194e-004
      -2.27272734e-002 3.57279350e-004 0. 0. 0. 2.45775940e-004
      1.77748938e-004 0. 0. 9.59708763e-004 0. 0. 0. 1.98104070e-003
      6.34824217e-004 0. 0. 1.29005653e-004 0. 0. 0. 0. 0. 0. 0. 0. 0.
      0. 3.25234490e-004 0. 0. 7.38324306e-004 0. 0. 0. 2.76378240e-004
      1.23560522e-003 3.90089554e-004 0. 1.91978645e-003 0.
      2.42350638e-004 1.81928350e-004 0. 4.19236370e-004 0.
      7.63098767e-004 0. 1.18792919e-003 1.97895075e-004 0.
      3.72345065e-004 0. 0. 0. 0. 0. 1.23131875e-004 0. 0. 0.
      1.92818407e-004 7.12767418e-004 7.12767418e-004 0. 0. 0. 0. 0. 0.
      7.91580300e-004 3.37486446e-004 0. 0. 5.28888952e-004
      7.63098767e-004 0. 0. 0. 7.50940759e-004 0. 7.99859874e-004
      3.90089554e-004 4.78057744e-004 0. 0. 7.63098767e-004 0. 0.
      5.37239364e-004 2.23866504e-004 0. 1.03227957e-003 0. 0. 0. 0. 0.
      0. 0. 1.64966297e-003 3.34863260e-004 0. 0. 3.57279350e-004
      3.53377400e-004 0. 0. 0. 7.38324306e-004 0. 3.79151432e-004
      3.37486446e-004 0. 0. 0. 0. 2.76378240e-004 3.67185712e-004 0. 0.
      2.26401811e-004 4.89554950e-004 0. 7.24944286e-004 0. 0. 0. 0. 0.
      0. 0. 0. 4.39301948e-004 0. 1.62013486e-004 0. 0. 2.41619142e-004
      0. 5.08797122e-004 0. 0. 0. 1.83592856e-004 6.34824217e-004
      8.35484941e-004 0. 0. 1.29005653e-004 1.29005653e-004 0. 0. 0.
      1.72481843e-004 2.29640136e-004 0. 0. 1.20778393e-004
      1.32793313e-004 7.63098767e-004 1.07408257e-003 0. 0.
      3.79151432e-004 8.38472741e-004 0. 0. 0. 6.48723275e-004
      3.92662740e-004 0. 0. 5.18381654e-004 0. 7.50940759e-004 0. 0. 0.
      9.61330661e-004 3.90089554e-004 0. 0. 0. 0. 0. 8.35484941e-004
      1.72481843e-004 0. 0. 0. 0. 0. 5.28888952e-004 0. 0. 0. 0.
      3.92752816e-004 3.96048068e-004 1.32877642e-004 0. 5.92977856e-004
      0. 9.90520348e-004 2.45775940e-004 4.01858997e-004 0. 0. 0. 0. 0.
      9.34768119e-004 1.20116177e-003 0. 0. 0. 9.54163115e-005 0. 0. 0.
      0. 2.46263749e-004 0. 1.67431630e-004 0. 0. 7.08366337e-004
      2.15922555e-004 3.92662740e-004 7.63098767e-004 9.89841181e-004 0.
      0. 0. 3.34449869e-004 0. 4.01858997e-004 0. 7.24944286e-004
      3.85636813e-004 0. 0. 0. 6.80085795e-004 1.83592856e-004
      4.84701275e-004 0. 0. 0. 0. 0. 0. 0. 4.33437555e-004
      3.56999808e-004 1.07183808e-003 4.67664126e-004 0. 0.
      5.13897918e-004 0. 0. 0. 0. 0. 0. 0. 0. 2.20632806e-004
      6.20770559e-004 4.56865120e-004 1.77948226e-004 0. 0.
      2.41619142e-004 0. 2.76448880e-003 7.63098767e-004
      -2.43902430e-002 7.39632640e-004 0. 1.67431630e-004 0.
      1.81928350e-004 0. 8.61113193e-004 0. -1.90921035e-002 0.
      4.24091297e-004 0. 0. 9.90520348e-004 0. 0. 0. 8.75668600e-004 0.
      8.86822701e-004 9.59708763e-004 0. 8.76995560e-004 4.41265613e-004
      0. 8.03106581e-004 3.44682805e-004 0. 0. -2.43902430e-002 0. 0.
      3.72345065e-004 0. 0. 0. 0. 3.70527850e-003 0. 0. 0. 0.
      3.44682805e-004 0. 0. 0. 0. 8.75668600e-004 0. 0. 1.47926528e-003
      4.24091297e-004 0. 1.32793313e-004 0. 0. 2.74031598e-004 0. 0.
      1.97895075e-004 0. 0. 0. 1.62013486e-004 4.19236370e-004 0. 0.
      3.73849063e-004 4.08928841e-004 0. 0. 0. 7.50940759e-004
      1.77948226e-004 0. 0. 0. 0. 0. 0. 0. 0. 7.12767418e-004
      4.91551880e-004 0. 0. 0. 7.63098767e-004 0. 0. 0. 1.30774453e-003
      0. 2.41619142e-004 0. 0. 5.41641610e-004 7.08366337e-004
      7.38324306e-004 0. 0. 0. 3.34863260e-004 0. 0. 0. 0.
      7.24944286e-004 4.01858997e-004 4.08928841e-004 1.23131875e-004 0.
      0. 0. 1.18419659e-004 0. 0. 0. 0. 0. 0. 4.19236370e-004
      8.70342832e-004 6.14687393e-004 2.45775940e-004 0. 0.
      3.37486446e-004 0. 0. 1.95451052e-004 0. 0. 1.77948226e-004
      2.04497672e-004 0. 5.08797122e-004 2.04982876e-004 0.
      1.83592856e-004 0. 0. 0. 9.55770083e-004 0. 0. 0. 0. 0. 0.
      4.08928841e-004 1.67431630e-004 1.31377764e-003 0. 0. 0. 0. 0.
      4.87247977e-004 0. 3.85636813e-004 0. 0. 3.43895517e-004
      3.99929937e-004 3.94456700e-004 0. 0. 0. 0. 5.52756479e-004 0. 0.
      0. 0. 0. 3.83652194e-004 1.89966930e-004 0. 0. 0. 0. 0. 0. 0. 0.
      1.31790584e-003 0. 0. 0. 0. 1.76879845e-003 0. 0. 0. 0.
      1.92818407e-004 1.23131875e-004 0. 0. 0. 0. 0. 5.89844130e-004
      3.09755356e-004 0. 0. 1.14820068e-004 0. 1.43194350e-003 0.
      2.20632806e-004 0. 0. 0. 0. 5.95357909e-004 1.67792517e-004
      6.00467145e-004 0. 3.44869448e-004 0. 0. 0. 0. 0. 0. 0.
      8.84399225e-004 0. 0. 0. 0. 7.82777905e-004 1.62013486e-004
      5.37239364e-004 0. 3.79151432e-004 4.56865120e-004 5.70778269e-004
      0. 0. 0. 0. 0. 0. 7.38324306e-004 -2.27261502e-002 0. 0. 0. 0.
      4.29257547e-004 0. 2.40531823e-004 0. 0. 8.78603896e-004 0. 0. 0.
      3.57279350e-004 1.18419659e-004 0. 0. 0. 0. 0. 0. 0.
      6.89738896e-004 3.92662740e-004 0. 8.84399225e-004 0. 0. 0. 0.
      7.50940759e-004 8.35484941e-004 9.10662464e-004 0. 5.08797122e-004
      0. 0. 3.56999808e-004 1.77948226e-004 0. 0. 0. 0. 0.
      -2.20209993e-002 0. 6.04870089e-004 0. 1.77948226e-004 0. 0. 0. 0.
      0. 0. 0. 0. 2.33832063e-004 0. 7.63098767e-004 0. 7.68144557e-004
      0. 0. 7.38324306e-004 3.94456700e-004 0. 1.32877642e-004 0. 0.
      2.42350638e-004 4.09965753e-004 0. 0. 3.92752816e-004 0. 0.
      7.08366337e-004 3.34449869e-004 0. 0. 0. 0. 0. 0. 0. 0. 0. 0. 0.
      0. 0. 0. 0. 0. 0. 4.00556746e-004 0. 0. 0. 0. 6.20386505e-004
      5.58617176e-004 0. 0. 9.90520348e-004 0. 8.31876008e-004
      4.00556746e-004 8.84399225e-004 3.96048068e-004 0. 0. 0. 0. 0.
      -4.87804860e-002 5.37239364e-004 3.63313302e-004 0. 0.
      2.45775940e-004 0. 4.09965753e-004 0. 0. 0. 0. 0. 0. 0. 0. 0. 0.
      5.37239364e-004 0. 0. 0. 0. 0. 0. 0. 0. 0. 3.90089554e-004 0.
      1.53970742e-003 0. 0. 0. 0. 8.35484941e-004 0. 0. 0.
      1.97895075e-004 0. 0. 4.08928841e-004 0. 0. 0. 0. 0.
      2.16718778e-004 0. 1.32877642e-004 5.93964593e-004 1.14820068e-004
      3.44682805e-004 0. 0. 5.13897918e-004 0. 5.74302860e-004
      2.69782438e-004 0. 3.44963686e-004 0. 1.58941210e-003 0.
      3.79151432e-004 0. 0. 0. 1.67431630e-004 0. 9.05755907e-004
      2.15922555e-004 5.58617176e-004 0. 0. 0. 0. 0. 0. 0. 0. 0.
      1.63619500e-003 2.16718778e-004 9.54163115e-005 -2.16278080e-002
      0. 2.41619142e-004 1.62013486e-004 6.34824217e-004 1.32793313e-004
      2.29640136e-004 0. 5.14738262e-004 2.76378240e-004 0.
      4.08928841e-004 2.33832063e-004 3.92662740e-004 0. 3.72345065e-004
      0. 0. 0. 5.89844130e-004 0. 0. 2.26401811e-004 9.38350800e-004
      3.92752816e-004 3.72345065e-004 0. 0. 0. 0. 0. 0. 0.
      9.90520348e-004 0. 0. 0. 0. 0. 5.48063195e-004 5.95357909e-004 0.
      0. 0. 5.83946123e-004 0. 0. 0. 6.80085795e-004 0. 0.
      -2.27272734e-002 0. 1.95451052e-004 0. 0. 1.60302661e-004
      3.99929937e-004 0. 7.38324306e-004 0. 0. 0. 4.41265613e-004 0. 0.
      0. 0. 2.29640136e-004 1.29005653e-004 1.72481843e-004 0. 0.
      2.42350638e-004 1.32793313e-004 0. 0. 4.52803622e-004 0. 0.
      3.09755356e-004 3.44682805e-004 0. 1.15825469e-003 3.73849063e-004
      0. 0. 0. 0. 0. 0. 0. 0. 0. 2.33832063e-004 0. 6.94880087e-004
      7.38324306e-004 7.12767418e-004 0. 0. 7.58302864e-004 0. 0.
      9.59708763e-004 0. 0. 0. 7.39632640e-004 8.75668600e-004 0. 0. 0.
      0. 0. 4.08928841e-004 0. 0. 1.62013486e-004 0. 0. 0. 0.
      6.89738896e-004 0. 3.95790150e-004 0. 0. 0. 0. 0. 1.07447873e-003
      6.34824217e-004 5.15201420e-004 0. 3.44682805e-004 7.12767418e-004
      2.15922555e-004 7.24944286e-004 0. 4.01858997e-004 0.
      1.32877642e-004 3.73849063e-004 0. 0. 1.20778393e-004 0. 0.
      4.19236370e-004 4.00556746e-004 0. 2.15922555e-004 0.
      1.76688700e-004 1.67096988e-003 4.89554950e-004 1.90832623e-004 0.
      1.76688700e-004 0. 0. 0. 0. 0. 0. 0. 0. 0. 0. 4.51859552e-004 0.
      0. 2.26401811e-004 5.08797122e-004 2.33832063e-004 0. 0. 0. 0.
      2.04025744e-003 7.39632640e-004 5.08797122e-004 4.00556746e-004 0.
      0. 0. 0. 0. 0. 4.00556746e-004 0. 1.95451052e-004 0. 0. 0.
      1.67431630e-004 0. 0. 0. 5.13897918e-004 0. 0. 3.94456700e-004 0.
      0. 3.34449869e-004 7.50940759e-004 1.63979456e-003 0. 0.
      5.08797122e-004 5.58617176e-004 3.44682805e-004 0. 0. 0.
      7.31905631e-004 0. 1.76688700e-004 0. 2.45775940e-004 0. 0.
      2.23866504e-004 2.04497672e-004 0. 0. 1.67792517e-004
      7.50940759e-004 4.39301948e-004 0. 5.37239364e-004 0. 0.
      1.60302661e-004 2.42350638e-004 1.34891219e-004 0. 0.
      4.00556746e-004 0. 0. 0. 0. 0. 4.24091297e-004 0. 0. 0.
      8.26547679e-004 9.31142713e-004 0. 0. 5.32034552e-004 0.
      4.31845110e-004 1.81928350e-004 2.76378240e-004 0. 7.08366337e-004
      0. 0. 0. 0. 0. 0. 0. 5.08797122e-004 0. 0. 1.89966930e-004 0. 0.
      0. -2.43902430e-002 0. 0. 0. 0. 0. 0. 0. 5.93964593e-004 0. 0.
      1.32793313e-004 0. 0. 0. 6.80085795e-004 0. 0. 0. 0.
      9.32232826e-004 2.66017276e-004 0. 5.70778269e-004 0.
      1.77948226e-004 5.95357909e-004 0. 0. 0. 0. 2.76378240e-004 0. 0.
      0. 0. 7.64536439e-004 0. 0. 0. 0. 0. 0. 0. 3.92662740e-004 0.
      2.16718778e-004 0. 0. 0. 0. 0. 0. 0. 4.00556746e-004 0.
      3.99929937e-004 0. 0. 0. 3.79151432e-004 0. 0. 0. 1.14155654e-003
      0. 0. 0. 0. 0. 1.77748938e-004 0. 5.52756479e-004 0. 0.
      1.83592856e-004 1.20778393e-004 2.15922555e-004 0. 0. 0.
      7.45622267e-004 0. 0. 0. 0. 0. 0. 1.77948226e-004 1.23131875e-004
      0. 0. 0. 0. 0. 3.90089554e-004 0. 0. 0. 3.37486446e-004 0. 0. 0.
      0. 1.32793313e-004 0. 0. 0. 4.37424023e-004 2.76378240e-004 0. 0.
      2.16718778e-004 0. 0. 0. 0. 0. 0. 1.99503032e-003 0. 0. 0.
      4.08928841e-004 0. 0. 3.57279350e-004 0. 1.60302661e-004 0. 0. 0.
      2.04497672e-004 3.44682805e-004 3.63313302e-004 4.24091297e-004
      1.59075949e-003 0. 0. 0. 0. 0. 0. 5.95357909e-004 0.
      1.76688700e-004 3.94456700e-004 0. 0. 0. 0. 3.79151432e-004
      1.34891219e-004 1.76688700e-004 4.19236370e-004 0. 0. 0. 0. 0.
      1.32877642e-004 1.67096988e-003 0. 5.37239364e-004 7.16136303e-004
      1.19792135e-003 0. 1.77948226e-004 3.73849063e-004 2.87151430e-004
      0. 0. 0. 0. 1.89966930e-004 1.20778393e-004 1.83592856e-004 0.
      2.74031598e-004 0. 4.51859552e-004 0. 0. 0. 0. 1.67792517e-004
      5.93964593e-004 0. 2.74031598e-004 0. 0. 0. 0. 0. 1.20778393e-004
      0. 0. 1.20778393e-004 0. 5.88967174e-004 0. 0. 0. 0. 0. 0. 0. 0.
      0. 0. 0. 0. 0. 0. 0. 0. 0. 0. 0. 0. 0. 7.45622267e-004 0.
      3.09755356e-004 0. 0. 0. 0. 3.44963686e-004 0. 0. 1.77748938e-004
      0. 0. 0. 0. 0. 0. 0. 0. 2.76378240e-004 0. 0. -4.54545468e-002
      1.20778393e-004 0. 0. 3.09755356e-004 0. 0. 0. 0. 1.60302661e-004
      7.63098767e-004 0. 0. 0. 1.32877642e-004 0. 0. 0. 0. 0. 0.
      4.24091297e-004 0. 3.39054415e-004 1.70206244e-004 0.
      1.18419659e-004 0. 3.83652194e-004 2.76575563e-003 0.
      3.34449869e-004 0. 2.58011307e-004 7.50940759e-004 7.26545055e-004
      0. 0. 2.20632806e-004 1.18419659e-004 2.04982876e-004
      8.82108812e-004 0. 0. 0. 3.44869448e-004 5.74302860e-004
      7.80179107e-004 0. 0. 0. 0. 0. 0. 1.70206244e-004 0. 0.
      4.01858997e-004 0. 2.76378240e-004 3.44963686e-004 0. 0.
      2.16718778e-004 5.58617176e-004 1.34891219e-004 0. 0. 0. 0.
      4.00556746e-004 3.79151432e-004 0. 5.41062211e-004 0. 0. 0.
      2.41556787e-004 0. 7.31749809e-004 0. 0. 5.08797122e-004 0. 0. 0.
      2.04982876e-004 0. 3.90089554e-004 0. 0. 0. 0. 0. 0. 0. 0. 0. 0.
      0. 0. 0. 0. 0. 3.34449869e-004 0. 0. 3.83652194e-004 0. 0. 0.
      1.23131875e-004 0. 0. 3.44869448e-004 0. 0. 1.92818407e-004
      3.09755356e-004 2.76378240e-004 3.90089554e-004 7.99859874e-004
      3.69395595e-004 0. 8.03717994e-004 3.79151432e-004 0.
      6.68899738e-004 0. 0. 0. 0. 0. 0. 0. 0. 2.23866504e-004 0. 0.
      1.95451052e-004 1.77948226e-004 5.28888952e-004 2.41619142e-004 0.
      1.77948226e-004 0. 0. 0. 4.39301948e-004 0. 0. 7.39632640e-004 0.
      1.67792517e-004 0. 2.87151430e-004 0. 0. 0. 0. 7.44690129e-004 0.
      2.87151430e-004 7.45622267e-004 0. 0. 0. 0. 0. 0. 0. 0.
      3.72345065e-004 1.70206244e-004 0. 1.70206244e-004 0. 0. 0. 0. 0.
      2.16718778e-004 7.45622267e-004 0. 3.72345065e-004 0. 0.
      3.09755356e-004 1.60302661e-004 0. 0. 0. 0. 0. 1.20778393e-004 0.
      0. 1.19749806e-003 0. 0. 0. 0. 0. 0. 3.90089554e-004
      4.08928841e-004 0. 0. 2.58011307e-004 0. 0. 1.31377764e-003 0. 0.
      0. 0. 2.33832063e-004 0. 0. 2.16718778e-004 5.12029103e-004 0. 0.
      0. 0. 0. 0. 1.97895075e-004 1.23131875e-004 0. 0. 1.32877642e-004
      0. 0. 0. 0. 0. 4.56865120e-004 0. -2.43902430e-002 0.
      9.51243972e-004 4.00556746e-004 0. 0. 0. 0. 0. 1.32877642e-004
      4.01858997e-004 5.32034552e-004 0. 0. 7.24944286e-004 0. 0. 0. 0.
      0. 0. 0. 0. 7.39632640e-004 0. 7.08366337e-004 0. 0. 0. 0. 0.
      7.68144557e-004 0. 0. 0. 0. 1.34891219e-004 4.19236370e-004 0.
      5.93964593e-004 0. 0. 0. 0. 0. 0. 7.08366337e-004 9.79109900e-004
      0. 2.04982876e-004 3.17553175e-003 0. 0. 0. 7.68144557e-004 0.
      3.63313302e-004 0. 0. 0. 0. 1.60302661e-004 1.89966930e-004
      2.74031598e-004 2.04982876e-004 0. 0. 0. 3.62335210e-004 0. 0. 0.
      7.63098767e-004 0. 0. -2.27272734e-002 0. 0. 0. 0. 0.
      4.08928841e-004 0. 0. 0. 0. 1.18419659e-004 4.39301948e-004 0.
      3.34449869e-004 1.72481843e-004 2.04497672e-004 3.09755356e-004 0.
      2.41556787e-004 3.72345065e-004 0. 0. 3.24026973e-004
      9.02163971e-004 0. 0. 0. 0. 6.36807352e-004 4.24091297e-004 0. 0.
      0. 3.79151432e-004 0. -2.01447532e-002 0. 0. 0. 0. 9.18762875e-004
      7.25791266e-004 0. 1.34891219e-004 0. 6.34824217e-004
      4.89554950e-004 0. 0. 1.22520956e-003 0. 0. 0. 0. 0.
      1.23131875e-004 0. 0. 1.77748938e-004 4.04364109e-004 0. 0.
      8.17857683e-004 0. 0. 4.00556746e-004 0. 0. 3.90089554e-004 0. 0.
      0. 0. 0. 0. 1.18419659e-004 0. 5.18381654e-004 0. 0. 0. 0.
      2.41619142e-004 5.37239364e-004 0. 0. 0. 0. 1.70206244e-004 0. 0.
      1.89966930e-004 1.67792517e-004 0. 8.48182593e-004 3.73849063e-004
      0. 0. 0. 9.54163115e-005 0. 1.72481843e-004 2.42350638e-004 0. 0.
      2.97467079e-004 3.11238051e-004 0. 0. 4.84701275e-004 0. 0.
      7.24944286e-004 0. 0. 0. 8.58515094e-004 0. 4.29257547e-004
      1.14820068e-004 0. 0. 0. 0. 8.75668600e-004 5.13897918e-004 0. 0.
      0. 1.18792919e-003 0. 0. 0. 0. 0. 0. 0. 0. 0. 0. 0.
      3.92662740e-004 1.22908689e-003 0. 0. 0. 0. 0. 3.56999808e-004
      3.09755356e-004 0. 0. 1.67431630e-004 0. 0. 0. 3.57279350e-004
      7.92096136e-004 0. 0. 3.92662740e-004 1.76688700e-004 0.
      1.94510474e-004 0. 6.36321958e-004 0. 0. 0. 2.58011307e-004
      2.74031598e-004 0. 0. 1.25441933e-003 0. 4.29257547e-004 0.
      2.42350638e-004 0. 2.23866504e-004 6.80085795e-004 0. 0. 0. 0. 0.
      4.29257547e-004 0. 0. 4.56865120e-004 0. 0. 4.56865120e-004
      1.97895075e-004 5.08797122e-004 3.92752816e-004 1.95451052e-004 0.
      0. 1.72481843e-004 2.74031598e-004 0. 0. 0. 2.44972901e-003
      2.74031598e-004 0. 3.79151432e-004 2.60555348e-003 5.95357909e-004
      0. 4.47733008e-004 2.74031598e-004 0. 0. 0. 0. 4.19236370e-004 0.
      0. 0. 2.45775940e-004 0. 1.32793313e-004 3.79151432e-004 0. 0.
      1.33198441e-003 1.32793313e-004 0. 0. 0. 0. 0. 0. 0.
      3.79151432e-004 3.90089554e-004 0. 2.04982876e-004 8.02255876e-004
      0. 2.87912623e-003 3.92662740e-004 0. 0. 1.23131875e-004
      5.93964593e-004 0. 2.41619142e-004 1.35383359e-003 0. 0. 0.
      8.03717994e-004 0. 0. 0. 0. 7.68144557e-004 0. -2.43902430e-002 0.
      0. 0. 0. 0. 0. 0. 5.28888952e-004 4.19236370e-004 0. 0. 0.
      4.19236370e-004 0. 3.92662740e-004 1.60302661e-004 9.90520348e-004
      0. 0. 1.32877642e-004 0. 2.16718778e-004 0. 1.27699669e-003 0.
      5.93964593e-004 0. 0. 0. 0. 3.53377400e-004 0. 3.83652194e-004 0.
      0. 0. 0. 0. 0. 7.45622267e-004 0. 0. 0. 1.74502900e-003 0. 0. 0.
      5.37239364e-004 0. 0. 6.80085795e-004 0. 0. 3.92752816e-004
      1.77064282e-003 0. 1.42944953e-003 3.79151432e-004 0.
      1.92818407e-004 0. 0. 7.24944286e-004 6.80085795e-004
      1.77948226e-004 0. 0. 4.24091297e-004 0. 2.77121377e-004 0.
      8.38472741e-004 0. 0. 4.09965753e-004 0. 1.52619753e-003
      1.32793313e-004 4.29257547e-004 0. 0. 0. 0. 0. 2.41619142e-004
      1.60302661e-004 0. 0. 0. 0. 0. 1.89966930e-004 0. 0. 0.
      5.13897918e-004 5.62744273e-004 0. 0. 0. 0. 0. 0. 1.81928350e-004
      0. 5.93964593e-004 0. 0. 0. 2.87151430e-004 0. 8.84399225e-004 0.
      9.54163115e-005 0. 3.90902103e-004 0. 0. 0. 8.75668600e-004
      -1.34132300e-002 0. 2.40531823e-004 5.18381654e-004
      1.00281893e-003 0. 0. 0. 0. 0. 0. 5.10618731e-004 0. 0. 0. 0. 0.
      0. 2.03087414e-003 0. 0. 3.90089554e-004 2.25929776e-004 0.
      1.18419659e-004 0. 1.14820068e-004 1.18419659e-004 0. 0. 0.
      4.29257547e-004 0. 0. 1.14820068e-004 0. 0. 0. 0. 0. 0.
      7.12767418e-004 2.20632806e-004 1.77748938e-004 0. 0. 0.
      -2.27272734e-002 3.63313302e-004 0. 7.08366337e-004 0. 0. 0.
      4.89554950e-004 0. 0. 0. 0. -2.40178984e-002 0. 2.16718778e-004
      3.99929937e-004 0. 3.73849063e-004 3.15950281e-004 5.93964593e-004
      0. 0. 0. 0. 0. -2.27272734e-002 0. 7.37327849e-004 0.
      8.75668600e-004 0. 0. 1.89966930e-004 1.36017159e-003
      7.50940759e-004 2.87151430e-004 0. 2.04982876e-004 0. 0. 0. 0. 0.
      0. 0. 1.18419659e-004 1.76688700e-004 0. 0. 8.35484941e-004
      8.17857683e-004 0. 0. 8.84399225e-004 0. 2.26401811e-004 0.
      5.93964593e-004 0. 0. 0. 0. 1.89966930e-004 7.63098767e-004
      7.38324306e-004 0. 0. 0. 0. 0. 4.01858997e-004 4.33437555e-004 0.
      1.64750696e-003 0. 0. 0. 0. 2.77121377e-004 0. 6.34824217e-004 0.
      0. 7.08366337e-004 0. 0. 9.90520348e-004 2.76378240e-004
      3.96048068e-004 0. 5.39207715e-004 3.92662740e-004 0. 0.
      1.13200373e-003 0. 7.12767418e-004 0. 0. 0. 0. 7.38324306e-004 0.
      0. 1.77948226e-004 0. 8.35484941e-004 0. 0. -2.43902430e-002 0. 0.
      4.01858997e-004 1.20778393e-004 4.36680915e-004 0. 3.44682805e-004
      0. 0. 0. 3.09755356e-004 0. 0. 4.89554950e-004 0. 1.23683014e-003
      0. 0. 7.24944286e-004 0. 4.19236370e-004 0. 0. 0. 5.08797122e-004
      0. 5.48063195e-004 0. 1.70206244e-004 5.14042680e-004 0. 0.
      3.83652194e-004 0. 0. 0. 3.83652194e-004 9.18311533e-004 0. 0. 0.
      0. 0. 0. 0. 0. 0. 0. 1.71233481e-003 0. 5.18381654e-004
      1.83592856e-004 0. 4.00556746e-004 1.31377764e-003 5.37239364e-004
      0. 8.58515094e-004 0. 0. 0. 0. 0. 0. 0. 0. 1.92818407e-004
      1.70206244e-004 0. 6.80085795e-004 0. 0. 0. 0. 0. 3.09755356e-004
      4.56865120e-004 0. 0. 1.18419659e-004 5.08797122e-004 0. 0. 0. 0.
      0. 4.56865120e-004 2.26401811e-004 0. 5.08797122e-004 0. 0.
      2.65755283e-004 0. 1.76688700e-004 1.21175323e-003 0. 0.
      7.85325479e-004 0. 6.34824217e-004 1.76688700e-004 0. 0. 0. 0.
      9.09057097e-004 0. 0. 3.63313302e-004 0. 0. 0. 1.81928350e-004 0.
      0. 4.56865120e-004 0. 3.34863260e-004 0. 0. 0. 1.20778393e-004 0.
      2.23866504e-004 0. 0. 0. 0. 7.25164427e-004 0. 0. 0. 0. 0.
      1.29005653e-004 0. 5.95357909e-004 3.25234490e-004 5.93964593e-004
      0. 7.63098767e-004 4.29257547e-004 2.41619142e-004 1.60302661e-004
      2.41556787e-004 4.89554950e-004 3.72345065e-004 0. 0. 0. 0. 0. 0.
      0. 0. 7.68144557e-004 0. 0. 0. 0. 0. 0. 0. 4.89554950e-004 0. 0.
      0. 0. 0. 0. 0. 0. 0. 4.39301948e-004 0. 1.89966930e-004
      5.13897918e-004 1.67792517e-004 7.39632640e-004 5.37239364e-004
      4.08928841e-004 3.55497876e-004 7.24944286e-004 0. 2.25929776e-004
      0. 0. 0. 0. 0. 1.76688700e-004 3.72345065e-004 7.58302864e-004 0.
      7.38324306e-004 4.89554950e-004 1.67792517e-004 0. 0.
      3.96048068e-004 0. 0. 0. 0. 0. 1.14155654e-003 -2.10004784e-002 0.
      3.96048068e-004 0. 3.25234490e-004 5.18381654e-004 0. 0.
      1.28494331e-003 2.33832063e-004 0. 3.96048068e-004 0.
      -2.27272734e-002 0. 0. 0. 0. 4.00556746e-004 0. 0. 0. 0.
      3.63313302e-004 4.01858997e-004 0. 0. 0. 0. 1.83592856e-004 0. 0.
      1.70206244e-004 0. 5.70778269e-004 2.40531823e-004 2.26401811e-004
      -2.24501528e-002 1.31377764e-003 0. 0. 0. 0. 0. 0. 0.
      4.29257547e-004 0. 3.72345065e-004 0. 0. 0. 2.15922555e-004
      3.96048068e-004 0. 0. 0. 0. 1.67431630e-004 0. 0. 0.
      3.57279350e-004 0. 0. 0. 9.90520348e-004 0. 0. 0. 1.20778393e-004
      0. 1.47701427e-003 5.08797122e-004 1.76688700e-004 0.
      3.39850638e-004 0. 0. 0. 0. 0. 7.58746755e-004 0. 0. 0. 0.
      5.71010460e-004 0. 0. 0. 0. 1.60302661e-004 2.41619142e-004 0.
      7.42916134e-004 0. 0. 1.43331056e-003 0. 0. 3.44869448e-004 0. 0.
      0. 3.57279350e-004 0. 0. 0. 2.15922555e-004 4.56865120e-004 0. 0.
      0. 7.68144557e-004 0. -2.27272734e-002 0. 0. 3.57279350e-004
      9.54163115e-005 0. 0. 0. 0. 0. 3.94456700e-004 0. 0. 0. 0.
      2.36839318e-004 0. 2.41619142e-004 1.34891219e-004 0.
      2.42350638e-004 0. 0. 3.40412487e-004 0. 0. 0. 0. 0. 0.
      4.19236370e-004 0. 0. 0. 0. 0. 0. 0. 7.23364530e-004
      4.00556746e-004 2.04982876e-004 6.19510713e-004 3.09755356e-004 0.
      4.01858997e-004 3.96048068e-004 0. 0. 0. 0. 0. 0. 0.
      1.81928350e-004 0. 0. 0. 3.25234490e-004 0. 1.62013486e-004 0. 0.
      4.39301948e-004 0. 0. 4.08928841e-004 1.89966930e-004
      1.67792517e-004 0. 0. 0. 1.94510474e-004 0. 0. 1.42572401e-003 0.
      0. 1.67431630e-004 0. 0. 2.16718778e-004 0. 0. 0. 0.
      1.83592856e-004 0. 0. 0. 0. 3.34449869e-004 0. 0. 5.58617176e-004
      0. 0. 0. 0. 3.92662740e-004 8.75668600e-004 2.76378240e-004 0.
      2.45775940e-004 2.40531823e-004 0. 0. 0. 0. 7.12767418e-004 0.
      9.62127291e-004 0. 3.79151432e-004 0. 2.74031598e-004
      1.62013486e-004 0. 3.37486446e-004 0. 0. 0. 1.32877642e-004 0.
      4.56865120e-004 0. 4.01858997e-004 1.98104070e-003 0. 0. 0. 0. 0.
      2.46263749e-004 0. 3.34449869e-004 0. 0. 2.98483460e-003 0. 0. 0.
      3.72345065e-004 1.31377764e-003 9.05755907e-004 1.20778393e-004 0.
      0. 0. 0. 0. 0. 2.41619142e-004 0. 3.73849063e-004 0.
      1.62013486e-004 0. 0. 9.58543329e-004 8.75668600e-004
      5.93964593e-004 0. 1.10822578e-003 0. 0. 0. 0. 0. 0. 0. 0. 0. 0.
      0. 0. 1.32793313e-004 0. 7.47698126e-004 1.94510474e-004 0.
      1.77748938e-004 0. 0. 1.23131875e-004 1.95451052e-004
      3.44869448e-004 0. 0. 0. 0. 5.08797122e-004 0. 0. 0. 0. 0. 0. 0.
      0. 0. 0. 0. 0. 5.18381654e-004 0. 0. 5.28888952e-004 0. 0. 0. 0.
      0. 0. 4.08928841e-004 0. 0. 0. 0. 0. 0. 0. 6.80085795e-004 0.
      6.80085795e-004 0. 1.72481843e-004 1.89966930e-004 0. 0. 0. 0. 0.
      0. 0. 0. 0. 0. 5.28935576e-004 0. 0. 0. 0. 1.67431630e-004 0.
      1.97895075e-004 0. 0. 0. 5.89844130e-004 7.50940759e-004
      1.67431630e-004 0. 1.97895075e-004 0. 1.81928350e-004
      2.41619142e-004 0. 0. 0. 0. 0. 1.67792517e-004 0. 0. 0. 0. 0. 0.
      0. 0. 9.29266098e-004 1.94510474e-004 5.28888952e-004 0. 0.
      1.14820068e-004 5.37239364e-004 0. 0. 0. 1.72481843e-004
      1.72481843e-004 0. 0. 3.44869448e-004 0. 0. 2.16718778e-004
      2.87151430e-004 3.94456700e-004 0. 0. 5.08797122e-004
      1.18792919e-003 4.56865120e-004 1.77748938e-004 0. 0. 0.
      1.77948226e-004 0. 0. 0. 0. 0. 0. 7.08366337e-004 0.
      1.95451052e-004 8.87731789e-004 0. 0. 0. 7.38324306e-004 0. 0.
      5.70778269e-004 1.76879845e-003 0. 5.93964593e-004 0.
      4.51859552e-004 0. 0. 3.79933859e-004 -2.27272734e-002 0. 0. 0. 0.
      9.54163115e-005 0. 1.95451052e-004 0. 7.34772359e-004
      2.16718778e-004 3.92752816e-004 0. 0. 0. 3.34449869e-004 0.
      2.45775940e-004 0. 8.80533597e-004 0. 1.50188152e-003 0. 0. 0.
      9.54163115e-005 0. -2.42228117e-002 0. 0. 1.29005653e-004 0.
      5.70778269e-004 0. 3.56999808e-004 2.77121377e-004 0. 0. 0. 0. 0.
      3.44682805e-004 0. 1.81928350e-004 0. 4.84701275e-004 0. 0. 0. 0.
      0. 1.95451052e-004 3.20605322e-004 0. 0. 1.94510474e-004 0.
      1.29005653e-004 1.18419659e-004 3.56999808e-004 1.32877642e-004 0.
      0. 1.31377764e-003 2.45775940e-004 0. 9.90520348e-004 0.
      5.92774304e-004 3.73849063e-004 0. 0. 0. 1.38497702e-003
      4.08995344e-004 0. 0. 3.73849063e-004 4.00556746e-004 0. 0. 0. 0.
      4.24091297e-004 0. 0. 0. 0. 0. 0. 0. 0. 0. 0. 0. 0.
      7.63098767e-004 1.60302661e-004 0. 0. 0. 0. 2.23866504e-004 0. 0.
      0. 1.46763143e-003 0. 0. 1.95451052e-004 2.16718778e-004 0. 0. 0.
      0. 0. 1.13213120e-003 0. 0. 0. 0. 4.19236370e-004 3.73849063e-004
      0. 1.32793313e-004 8.75668600e-004 0. 4.47733008e-004
      1.89966930e-004 5.28888952e-004 0. 3.99929937e-004 0.
      8.58515094e-004 9.10046219e-004 0. 0. 3.90089554e-004 0. 0. 0.
      5.58617176e-004 2.46263749e-004 0. 4.08928841e-004 0.
      5.93964593e-004 0. 1.18419659e-004 0. 0. 0. 0. 0. 0. 0. 0.
      1.14155654e-003 0. 0. 0. 0. 0. 3.09755356e-004 2.26401811e-004 0.
      7.50940759e-004 1.67431630e-004 0. 4.24091297e-004 2.77121377e-004
      1.40236295e-003 0. 0. 1.40824541e-003 0. 7.39632640e-004 0. 0. 0.
      2.45775940e-004 4.23799007e-004 0. 0. 5.08797122e-004 0. 0.
      1.60302661e-004 0. 1.20778393e-004 0. 3.00224929e-004 0. 0. 0. 0.
      3.85636813e-004 1.81928350e-004 0. 0. 0. 0. 1.78271090e-003 0.
      7.38324306e-004 4.08928841e-004 0. 0. 1.18419659e-004 0. 0.
      1.90832623e-004 3.72345065e-004 0. 0. 0. 7.24944286e-004 0. 0. 0.
      3.67185712e-004 0. 0. 0. 7.94375665e-004 0. 1.62013486e-004
      1.60302661e-004 0. 0. 5.13897918e-004 1.76688700e-004
      3.44682805e-004 0. 0. 1.67431630e-004 0. 0. 7.08366337e-004
      2.41619142e-004 0. 1.92818407e-004 0. 0. 0. 0. 1.58403488e-003 0.
      2.45775940e-004 3.90089554e-004 0. 7.24944286e-004 0. 0. 0. 0. 0.
      0. 0. 0. 2.16718778e-004 0. 0. 0. 9.26510838e-004 0. 0. 0.
      1.62013486e-004 2.40531823e-004 0. 5.94677404e-004 0. 0. 0.
      5.95357909e-004 3.90089554e-004 0. 0. 0. 0. 0. 0. 4.08928841e-004
      0. 4.01858997e-004 0. 0. 2.66017276e-004 0. 0. 2.65586626e-004 0.
      0. 0. 1.67431630e-004 0. 0. 0. 0. 0. 0. 3.09755356e-004
      3.57279350e-004 0. 0. 0. 2.04982876e-004 0. 0. 1.67431630e-004
      4.24091297e-004 0. 0. 0. 0. 3.44682805e-004 0. 9.68649867e-004 0.
      0. 0. 4.01858997e-004 4.24091297e-004 0. 0. 7.12767418e-004 0.
      3.96048068e-004 3.72345065e-004 9.90520348e-004 0. 3.90089554e-004
      0. 0. 2.33832063e-004 0. 0. 0. 0. 0. 5.95357909e-004 0. 0. 0. 0.
      0. 0. 0. 0. 0. 0. 5.89844130e-004 2.45775940e-004 0. 0. 0. 0. 0.
      0. 0. 0. 0. 0. 0. 0. 0. 0. 1.23131875e-004 0. 0. 0.
      5.89844130e-004 0. 0. 1.20778393e-004 0. 1.20778393e-004 0.
      7.80179107e-004 0. 0. 1.90832623e-004 0. 0. 0. 1.01759424e-003
      1.89966930e-004 0. 3.44869448e-004 0. 0. 8.53348814e-004 0.
      4.00556746e-004 0. 7.39632640e-004 1.60302661e-004 0.
      7.24944286e-004 0. 3.99929937e-004 0. 4.29257547e-004 0. 0. 0.
      1.02779584e-003 1.67431630e-004 0. 2.33832063e-004 0. 0. 0. 0.
      2.40531823e-004 2.23866504e-004 0. 0. 0. 0. 0. 3.94456700e-004 0.
      0. 0. 1.83592856e-004 8.72029399e-004 0. 0. 3.83652194e-004 0. 0.
      0. 2.40531823e-004 0. 3.09755356e-004 0. 1.97895075e-004 0.
      1.34891219e-004 2.41619142e-004 0. 0. 0. 0. 0. 1.83592856e-004 0.
      3.40412487e-004 1.83592856e-004 2.40531823e-004 6.34824217e-004
      3.44869448e-004 0. 0. 0. 0. 0. 1.10441435e-003 0. 3.34449869e-004
      0. 0. 0. 0. 1.00434152e-003 0. 0. 0. 1.92818407e-004
      8.14597413e-004 0. 0. 0. 0. 0. 0. 0. 0. 0. 0. 0. 0.
      7.24944286e-004 0. 7.45622267e-004 0. 0. 6.80085795e-004 0.
      9.41663049e-004 0. 0. 0. 3.25234490e-004 8.25950294e-004 0. 0. 0.
      1.29005653e-004 0. 0. 3.72345065e-004 1.23131875e-004
      1.76688700e-004 1.92818407e-004 0. 1.67792517e-004 0. 0. 0. 0. 0.
      0. 2.41619142e-004 0. 0. 0. 0. 0. 0. 0. 0. 0. 0. 1.83592856e-004
      0. 0. 0. 0. 0. 2.74031598e-004 4.56865120e-004 1.97895075e-004 0.
      4.89554950e-004 6.79833756e-004 0. 0. 3.63313302e-004 0. 0.
      3.44869448e-004 0. 0. 0. 0. 0. 0. 6.80085795e-004 0.
      2.36839318e-004 0. 1.23131875e-004 0. 0. 1.64187804e-003 0. 0. 0.
      1.76688700e-004 1.62013486e-004 5.93964593e-004 0. 0. 0. 0. 0. 0.
      0. 0. 0. 0. 0. 0. 2.74031598e-004 0. 0. 0. 0. 0. 3.94456700e-004
      0. 0. 0. 2.82545038e-003 0. 1.60302661e-004 0. 1.31377764e-003
      1.77948226e-004 0. 0. 0. 1.32877642e-004 0. 0. -2.27272734e-002
      2.23866504e-004 7.24944286e-004 0. 0. 0. 2.45775940e-004
      3.94456700e-004 0. 0. 0. 0. 0. 1.20778393e-004 1.05777790e-003 0.
      5.89844130e-004 0. 0. 1.67431630e-004 1.89966930e-004 0. 0. 0. 0.
      5.08797122e-004 0. 2.04982876e-004 0. 0. 0. 1.13098708e-003 0. 0.
      1.20778393e-004 1.89966930e-004 3.85636813e-004 1.89966930e-004
      3.95790150e-004 1.02784263e-003 4.08928841e-004 0. 0. 0. 0.
      4.19236370e-004 0. 0. 4.00556746e-004 0. 1.77748938e-004 0.
      8.03717994e-004 0. 1.20778393e-004 3.09755356e-004 7.88913399e-004
      4.19236370e-004 0. 0. 0. 0. 1.81928350e-004 0. 0. 0.
      2.66017276e-004 3.72345065e-004 0. 0. 0. 1.89966930e-004 0.
      1.83592856e-004 0. 1.48091197e-003 0. 0. 0. 0. 1.67792517e-004 0.
      0. 5.95357909e-004 0. 0. 0. 3.34449869e-004 0. 0. 0. 0. 0. 0.
      3.56999808e-004 0. 0. 0. 0. 0. 0. 0. 4.00556746e-004
      2.16718778e-004 2.26401811e-004 0. 0. 0. 3.44869448e-004 0.
      3.34449869e-004 5.93964593e-004 6.29880116e-004 0. 0.
      5.58617176e-004 0. 1.90832623e-004 2.33832063e-004 0. 0. 0. 0. 0.
      8.35484941e-004 0. 7.63098767e-004 4.01858997e-004 0. 0. 0. 0. 0.
      0. 0. 0. 0. 0. 0. 0. 0. 0. 0. 2.66017276e-004 0. 0. 0.
      5.52756479e-004 0. 0. 0. 0. 0. 4.29257547e-004 0. 0. 0.
      4.00556746e-004 0. 5.55840146e-004 1.23131875e-004 0. 0. 0. 0. 0.
      0. 1.13996165e-003 0. 2.04982876e-004 0. 0. 0. 0. 9.48706758e-004
      6.80085795e-004 0. 0. 0. 0. 3.92752816e-004 0. 0. 0. 0. 0. 0.
      1.83592856e-004 0. 0. 0. 0. 0. 0. 0. 8.70342832e-004 0.
      4.19236370e-004 -2.34305337e-002 0. 0. 0. 0. 0. 4.19236370e-004 0.
      0. 0. 1.20778393e-004 0. 2.25929776e-004 0. 2.33832063e-004
      4.56865120e-004 0. 7.50940759e-004 0. 0. 0. 0. 0. 0.
      1.67431630e-004 0. 3.57279350e-004 0. 0. 0. 0. 0. 0.
      1.67431630e-004 9.13730240e-004 0. 4.29257547e-004 0. 0.
      3.92752816e-004 0. 0. 0. 3.73849063e-004 0. 5.28888952e-004 0.
      1.32877642e-004 0. 0. 0. 2.42350638e-004 0. 0. 0. 0. 0.
      1.32877642e-004 0. 5.32034552e-004 0. 0. 2.41619142e-004 0. 0. 0.
      0. 0. 4.19236370e-004 0. 3.63313302e-004 4.29257547e-004 0. 0. 0.
      0. 0. 1.81928350e-004 0. 0. 0. 0. 2.41619142e-004 0. 0.
      1.95451052e-004 7.38324306e-004 2.76378240e-004 0. 0. 0.
      2.33832063e-004 0. 0. 1.70206244e-004 0. 0. 3.37486446e-004
      2.42350638e-004 0. 0. 0. 0. 1.32793313e-004 0. 0. 0. 0. 0.
      5.13897918e-004 0. 0. 0. 0. 0. 0. 0. 0. 1.67792517e-004
      4.13568458e-004 1.40236295e-003 7.50940759e-004 0. 0.
      8.71117576e-004 1.94510474e-004 7.24944286e-004 0. 2.87151430e-004
      7.45622267e-004 0. 0. 0. 0. 2.26401811e-004 0. 0. 2.45775940e-004
      0. 0. 0. 3.57279350e-004 0. 0. 0. 1.83592856e-004 0. 0.
      1.77748938e-004 0. 0. 7.68144557e-004 2.26401811e-004 0. 0.
      9.13730240e-004 0. 0. 1.32793313e-004 0. 0. 0. 1.23131875e-004 0.
      0. 2.42350638e-004 0. 7.39632640e-004 4.29257547e-004 0. 0. 0. 0.
      1.94510474e-004 3.92662740e-004 0. 1.95451052e-004 0.
      7.27051927e-004 2.45775940e-004 5.79105574e-004 0. 0.
      3.34449869e-004 0. 0. 0. 0. 0. 0. 0. 3.25234490e-004
      1.92818407e-004 0. 0. 0. 0. 0. 0. 0. 0. 0. 0. 0. 0. 0. 0. 0. 0.
      2.16718778e-004 0. 0. 0. 0. 0. 0. 0. 0. 0. 0. 0. 4.01858997e-004
      0. 5.18381654e-004 0. 0. 0. 0. 0. 0. 3.44682805e-004 0. 0. 0. 0.
      0. 0. 0. 0. 2.26401811e-004 4.78057744e-004 0. 0. 0. 0. 0.
      1.60302661e-004 0. 3.56999808e-004 0. 0. 0. 0. 0. 1.55430951e-003
      0. 3.09755356e-004 0. 0. 0. 2.15922555e-004 4.39301948e-004
      5.95357909e-004 0. 0. 0. 3.79151432e-004 0. 0. 0. 0. 0. 0. 0. 0.
      0. 0. 3.34449869e-004 0. 3.92752816e-004 0. 0. 0. 2.16718778e-004
      0. 7.24944286e-004 0. 0. 0. 0. 0. 1.77748938e-004 5.93964593e-004
      4.24091297e-004 0. 0. 0. 0. 0. 1.70206244e-004 0. 0. 0.
      -2.27272734e-002 0. 6.80085795e-004 0. 0. 3.94456700e-004 0. 0. 0.
      0. 7.38324306e-004 2.08034343e-003 0. 0. 3.57279350e-004 0. 0.
      7.80179107e-004 0. 0. 4.39301948e-004 0. 0. 3.63313302e-004 0. 0.
      0. 0. 8.75668600e-004 0. 3.44682805e-004 5.93964593e-004
      3.63313302e-004 2.04982876e-004 0. 1.92818407e-004 7.63098767e-004
      0. 5.37239364e-004 0. 0. 0. 5.58617176e-004 0. 0. 0.
      4.97011060e-004 0. 0. 0. 0. 0. 0. 0. 0. 0. 0. 0. 0. 0. 0.
      8.58515094e-004 5.13897918e-004 1.67792517e-004 0. 0.
      1.95451052e-004 0. 0. 0. 0. 0. 3.79151432e-004 1.72481843e-004
      5.25630487e-004 0. 0. 4.00556746e-004 0. 0. 0. 0. 3.72345065e-004
      5.89844130e-004 1.70823443e-003 5.13897918e-004 0. 0.
      2.04982876e-004 0. 0. 0. 0. 1.67431630e-004 0. 1.83592856e-004
      1.23131875e-004 0. 5.18381654e-004 7.50940759e-004 0.
      2.74528796e-003 5.93964593e-004 2.36839318e-004 -1.95112899e-002
      0. 1.81928350e-004 0. 3.57279350e-004 4.08928841e-004
      6.34824217e-004 0. 4.00556746e-004 0. 0. 0. 0. 1.94510474e-004
      1.14820068e-004 0. 0. 0. 0. 0. 0. 0. 2.74031598e-004 0. 0. 0. 0.
      0. 0. 0. 0. 2.76378240e-004 4.00556746e-004 1.32877642e-004 0. 0.
      3.09755356e-004 1.15278992e-003 0. 0. 1.64981070e-003
      9.59708763e-004 0. 0. 5.08797122e-004 0. 0. 0. 2.41619142e-004 0.
      5.54242753e-004 2.45775940e-004 4.08928841e-004 0. 0. 0. 0. 0.
      3.37486446e-004 0. 0. 0. 0. 0. 0. 0. 0. 0. 0. 0. 8.27796641e-004
      0. 0. 0. 0. 0. 0. 3.63313302e-004 1.70206244e-004 0. 0.
      2.15922555e-004 0. 0. 0. 4.51859552e-004 2.25929776e-004
      7.12767418e-004 3.72345065e-004 0. 0. 0. 1.67792517e-004
      1.76688700e-004 4.08928841e-004 2.76378240e-004 0. 8.89813702e-004
      0. 0. 0. 2.33832063e-004 1.60302661e-004 0. 0. 0. 0. 0.
      2.55669613e-004 7.24944286e-004 2.66017276e-004 0. 0. 0. 0. 0.
      7.24944286e-004 1.67792517e-004 7.12767418e-004 2.41619142e-004 0.
      7.30057771e-004 3.44682805e-004 1.32793313e-004 0. 0.
      1.29005653e-004 1.60302661e-004 1.34891219e-004 0. 3.44869448e-004
      4.81063646e-004 0. 0. 0. 0. 2.74031598e-004 0. 0. 0.
      9.54163115e-005 0. 0. 0. 3.79151432e-004 1.73984934e-003 0. 0. 0.
      0. 0. 0. 0. 0. 0. 0. 0. 7.12767418e-004 1.72481843e-004
      -4.71080095e-002 -2.27272734e-002 0. 0. 0. 0. 0. 7.68144557e-004
      0. 5.37239364e-004 0. 6.74972893e-004 0. 0. 3.57279350e-004
      3.44682805e-004 3.94456700e-004 0. 0. 1.16072653e-003 0. 0.
      3.44682805e-004 0. 1.34891219e-004 0. 0. 1.77748938e-004
      1.60302661e-004 0. 2.25929776e-004 0. 0. 0. 8.96167068e-004 0. 0.
      0. 0. 2.26401811e-004 0. 0. 0. 0. 2.42350638e-004 0. 0. 0.
      1.32877642e-004 0. 0. 0. 0. 0. 0. 0. 0. 0. 0. 3.96048068e-004
      6.80085795e-004 0. 5.13897918e-004 0. 0. 0. 0. 0. 0.
      8.35484941e-004 0. 0. 0. 0. 3.92752816e-004 2.66017276e-004
      3.53377400e-004 0. 0. 0. 1.70206244e-004 2.42350638e-004
      1.83592856e-004 0. 0. 0. 3.63313302e-004 0. 0. 0. 0. 0. 0. 0. 0.
      4.39301948e-004 8.20360612e-004 0. 2.87151430e-004 0. 0. 0.
      3.25234490e-004 7.24944286e-004 0. 1.03713037e-003 4.08928841e-004
      2.46263749e-004 3.73849063e-004 0. 2.77121377e-004 8.05030460e-004
      0. 1.62013486e-004 0. -2.43902430e-002 7.08366337e-004 0. 0. 0.
      5.93964593e-004 2.04497672e-004 1.60302661e-004 4.08928841e-004
      5.70778269e-004 0. 3.57279350e-004 0. 0. 0. 7.50940759e-004 0.
      1.34891219e-004 0. 0. 0. 0. 0. 2.23866504e-004 0. 0.
      8.35484941e-004 4.24091297e-004 7.06378894e-004 5.93964593e-004 0.
      0. 0. 0. 0. 0. 0. 0. 0. 3.72345065e-004 0. 0. 0. 0.
      4.24091297e-004 0. 0. 2.33832063e-004 1.23122556e-003 0. 0. 0.
      4.08928841e-004 0. 7.42210075e-004 0. 6.80085795e-004 0. 0. 0.
      5.89844130e-004 0. 0. 2.56932923e-003 0. 1.95451052e-004 0.
      1.31377764e-003 0. 0. 0. 0. 0. 0. 0. 0. 0. 0. 2.41619142e-004 0.
      5.58617176e-004 -1.77841820e-002 0. 0. 0. 0. 0. 0. 0. 0. 0.
      2.66017276e-004 0. 0. 0. 0. 0. 4.25889273e-004 0. 0. 0. 0.
      1.70206244e-004 5.84393973e-004 0. 0. 2.87151430e-004 0. 0.
      4.89554950e-004 0. 4.00556746e-004 1.31377764e-003 0. 0.
      5.37239364e-004 1.77948226e-004 5.47223142e-004 4.56865120e-004
      8.84399225e-004 0. 0. 0. 4.24091297e-004 1.83592856e-004 0.
      5.97372884e-004 4.08928841e-004 0. 0. 0. 0. 3.72345065e-004 0. 0.
      0. 0. 4.29257547e-004 0. 0. 0. 0. 0. 8.85068672e-004 0. 0.
      2.14367616e-003 3.79151432e-004 0. 0. 0. 0. 0. 3.34449869e-004
      2.58011307e-004 0. 0. 1.77948226e-004 0. 0. 1.62013486e-004 0. 0.
      0. 3.94456700e-004 0. 1.31377764e-003 7.38043163e-004 0.
      3.25234490e-004 0. 0. 0. 0. 0. 5.87275077e-004 4.01858997e-004
      4.29257547e-004 0. 5.13897918e-004 4.19236370e-004 5.70778269e-004
      0. 0. 0. 1.53628911e-003 0. 3.83652194e-004 0. 0. 1.60242652e-003
      0. 0. 0. 6.71936315e-004 0. 0. 0. 7.50940759e-004 2.93311372e-004
      1.72481843e-004 0. 0. 0. 0. 2.16718778e-004 0. 0. 0. 0. 0. 0. 0.
      0. 0. 0. 1.95451052e-004 0. 7.39632640e-004 0. 0. 0. 0. 0. 0.
      1.77948226e-004 0. 0. 3.25234490e-004 2.02058908e-003 0. 0. 0.
      3.44869448e-004 0. 3.72139737e-004 0. 0. 0. 0. 0. 6.82234298e-004
      2.25929776e-004 0. 0. 2.45775940e-004 1.60302661e-004 0.
      2.42350638e-004 0. 0. 0. 0. 0. 0. 1.32877642e-004 0. 0. 0. 0.
      3.63313302e-004 0. 0. 0. 0. 1.67431630e-004 4.01858997e-004 0.
      2.87151430e-004 0. 0. 0. 0. 0. 0. 0. 8.38472741e-004
      5.23748924e-004 0. 1.66907231e-003 0. 0. 0. 0. 0. 0. 0.
      4.56865120e-004 5.28888952e-004 0. 0. 2.74031598e-004 0. 0.
      2.33832063e-004 0. 0. 0. 7.24944286e-004 0. 0. 0. 0. 0. 0.
      3.90089554e-004 1.70206244e-004 7.44690129e-004 0. 0.
      9.90520348e-004 0. 0. 0. 0. 1.32793313e-004 0. 0. 0. 0. 0.
      4.19236370e-004 2.42350638e-004 0. 9.59708763e-004 1.76688700e-004
      7.12767418e-004 8.84399225e-004 0. -2.27272734e-002
      3.90089554e-004 4.89554950e-004 2.61798967e-004 0. 0. 0.
      1.67792517e-004 0. 0. 0. 0. 0. 0. 1.90832623e-004 0.
      2.66017276e-004 2.45775940e-004 7.12767418e-004 0. 5.81145869e-004
      0. 3.94456700e-004 0. 1.72481843e-004 0. 0. 7.68144557e-004
      1.95451052e-004 0. 0. 0. 0. 0. 0. 3.90089554e-004 3.72414506e-004
      0. 0. 2.20632806e-004 0. 0. 7.24944286e-004 5.37239364e-004
      4.00556746e-004 0. 0. 1.14820068e-004 0. 0. 0. 2.20632806e-004 0.
      6.34824217e-004 0. 3.63313302e-004 5.13897918e-004 6.71578047e-004
      0. 0. 2.41619142e-004 0. 0. 0. 0. 0. -2.43902430e-002
      1.97895075e-004 3.09755356e-004 0. 3.63313302e-004 0. 0.
      5.60232613e-004 0. 0. 2.74031598e-004 0. 5.62433794e-004
      5.93964593e-004 0. 0. 2.76378240e-004 0. 1.92818407e-004
      4.08928841e-004 1.29005653e-004 0. 1.95451052e-004 0.
      9.55043070e-004 0. 0. 0. 0. 0. 0. 8.55632243e-004 9.54163115e-005
      4.39301948e-004 0. 0. 2.25929776e-004 0. 0. 0. 4.19236370e-004 0.
      0. 0. 0. 0. 0. 0. 3.92662740e-004 0. 0. 0. 0. 0. -2.43902430e-002
      0. 0. 0. 5.28888952e-004 0. 0. 0. 7.38324306e-004 0. 0. 0.
      4.01858997e-004 0. 0. 0. 0. 1.62429595e-003 0. 0. 4.19236370e-004
      0. 4.29257547e-004 7.38324306e-004 1.32793313e-004 1.48091197e-003
      0. 0. 0. 5.54242753e-004 0. 3.44869448e-004 0. 0. 0.
      1.92818407e-004 0. 0. 0. 2.87151430e-004 0. 0. 0. 0. 0.
      5.93964593e-004 0. 1.67431630e-004 1.00801804e-003 0.
      -2.20023300e-002 1.77948226e-004 0. 7.24944286e-004 0. 0. 0.
      1.19218486e-003 0. 0. 3.44682805e-004 6.34824217e-004 0. 0. 0. 0.
      0. 0. 0. 0. 7.50940759e-004 0. 0. 0. 0. 1.50137348e-003
      1.58666691e-003 0. 9.59708763e-004 0. 1.70206244e-004
      2.66017276e-004 0. 5.78831939e-004 5.64148766e-004 0.
      3.79151432e-004 0. 0. 0. 0. 0. 0. 0. 0. 0. 0. 0. 0. 0. 0. 0. 0. 0.
      0. 2.87151430e-004 0. 0. 1.95451052e-004 2.77121377e-004 0. 0.
      5.18381654e-004 0. 0. 0. 0. 0. 0. 0. 0. 4.08928841e-004
      3.92752816e-004 7.38324306e-004 0. 0. 0. 0. 7.67304387e-004 0. 0.
      0. 1.32877642e-004 3.92752816e-004 3.90089554e-004 0. 0. 0. 0. 0.
      2.26401811e-004 0. 0. 0. 1.77948226e-004 0. 0. 0. 0. 0.
      5.89844130e-004 -2.32818108e-002 4.56865120e-004 5.08797122e-004
      0. 0. 0. 2.42350638e-004 0. 0. 1.70206244e-004 1.67431630e-004 0.
      0. 0. 0. 3.90089554e-004 0. 0. 0. 3.79151432e-004 0. 0. 0.
      7.62326003e-004 0. 0. 0. 1.77948226e-004 0. 0. 3.44682805e-004
      3.63313302e-004 0. 8.75668600e-004 0. 3.79151432e-004
      4.89554950e-004 0. 0. 7.63098767e-004 0. 0. 0. 0. 5.81249828e-004
      0. 0. 0. 0. 0. 0. 0. 0. 0. 0. 0. 0. 1.49124453e-003 0.
      9.59708763e-004 0. 5.28888952e-004 3.57279350e-004 0. 0. 0. 0. 0.
      0. 0. 1.67431630e-004 3.96048068e-004 0. 4.24091297e-004 0. 0. 0.
      3.83652194e-004 0. 0. 0. 7.12767418e-004 0. 0. 0. 1.95451052e-004
      1.20778393e-004 0. 0. 0. 0. 1.97895075e-004 0. 0. 1.35963864e-003
      0. 1.18419659e-004 0. 1.34891219e-004 2.40531823e-004
      3.99929937e-004 2.20632806e-004 5.95357909e-004 0. 7.28906540e-004
      0. 0. 0. 0. 0. -4.82515953e-002 0. 0. 0. 1.04281621e-003
      6.89365610e-004 0. 3.44682805e-004 0. 3.44869448e-004 0.
      1.17923878e-003 5.19507623e-004 0. 0. 0. 0. 0. 1.60302661e-004
      1.76688700e-004 -2.27272734e-002 0. 0. 0. 3.63313302e-004
      7.45622267e-004 0. 0. 0. 0. 0. 5.08797122e-004 0. 0.
      2.42350638e-004 0. 1.18419659e-004 0. 0. 0. 8.48182593e-004 0. 0.
      0. 5.95357909e-004 0. 1.67431630e-004 0. 2.66017276e-004 0.
      2.77121377e-004 9.98975825e-004 2.04982876e-004 0. 0. 0. 0.
      2.45775940e-004 0. 0. 1.23131875e-004 3.94456700e-004 0.
      7.44690129e-004 0. 0. 9.90520348e-004 2.76378240e-004 0. 0.
      1.70206244e-004 0. 0. 0. 0. 2.40531823e-004 7.68144557e-004 0. 0.
      5.08797122e-004 0. 7.24944286e-004 0. 3.94456700e-004 0. 0. 0. 0.
      0. 0. 1.32793313e-004 0. 2.16718778e-004 0. 5.74302860e-004 0.
      6.87622873e-004 0. 0. 0. 0. 3.92752816e-004 2.26401811e-004 0. 0.
      0. 0. 0. 0. 3.92662740e-004 1.76688700e-004 0. 0. 0. 0. 0. 0.
      3.37486446e-004 0. 6.97763171e-004 0. 0. 0. 2.42350638e-004 0. 0.
      3.65482498e-004 1.18419659e-004 0. 0. 1.60302661e-004 0.
      2.46263749e-004 2.04497672e-004 0. 0. 3.83652194e-004 0. 0. 0.
      6.34824217e-004 0. 6.46952773e-004 0. 1.14820068e-004 0. 0. 0.
      5.54242753e-004 7.38324306e-004 0. 0. 0. 1.83592856e-004 0.
      2.74031598e-004 7.38324306e-004 0. 5.13897918e-004 0. 0. 0.
      4.08928841e-004 3.44682805e-004 4.84701275e-004 0. 0. 0. 0.
      4.19317541e-004 1.72481843e-004 0. 0. 0. 0. 0. 7.50940759e-004 0.
      3.99515411e-004 0. 0. 2.11254973e-003 8.84399225e-004
      7.38324306e-004 0. 7.50940759e-004 0. 6.34824217e-004
      3.73849063e-004 0. 3.57279350e-004 0. 0. 0. 3.92752816e-004 0. 0.
      0. 0. 0. 0. 3.09755356e-004 0. 0. 7.45622267e-004 0. 0. 0. 0. 0.
      1.23131875e-004 0. 0. 4.19236370e-004 1.20778393e-004 0. 0. 0. 0.
      4.00556746e-004 0. 0. 1.20778393e-004 0. 0. 0. 0. 0.
      2.40531823e-004 0. -2.22064443e-002 0. 0. 0. 0. 0. 2.41619142e-004
      0. 0. 0. 0. 0. 0. 0. 0. 0. 0. 0. 0. 1.48926501e-003 0.
      4.89554950e-004 0. 0. 2.58011307e-004 2.77121377e-004 0. 0.
      2.77121377e-004 0. 5.96573169e-004 0. 0. 0. 1.67792517e-004 0. 0.
      2.26401811e-004 3.94456700e-004 0. 5.89844130e-004 0. 0. 0. 0. 0.
      0. 4.00556746e-004 9.82708531e-004 0. 0. 0. 0. 0. 3.63313302e-004
      0. 2.76378240e-004 0. 0. 1.32877642e-004 0. 0. 2.16718778e-004
      7.50940759e-004 0. 0. 0. 0. 7.45622267e-004 0. 7.38324306e-004 0.
      0. 0. 1.31377764e-003 1.29005653e-004 0. 1.77948226e-004
      1.00393035e-003 2.41619142e-004 0. 0. 0. 0. 0. 0. 0.
      8.84399225e-004 3.44682805e-004 0. 0. 0. 3.94456700e-004 0. 0. 0.
      0. 1.92818407e-004 0. 1.32793313e-004 0. 4.24091297e-004 0. 0. 0.
      0. 0. 0. 0. 0. 5.37239364e-004 0. 0. 2.77121377e-004 0. 0. 0. 0.
      0. 4.01858997e-004 4.01858997e-004 0. 0. 0. 0. 0. 1.67792517e-004
      0. 0. 0. 0. 0. 0. 0. 0. 0. 5.93964593e-004 0. 0. 0.
      3.63313302e-004 0. 0. 7.63098767e-004 0. 0. 0. 0. 0. 0. 0. 0. 0.
      2.20632806e-004 0. 0. 1.20778393e-004 0. 1.34891219e-004
      5.28888952e-004 0. 0. 0. 2.41619142e-004 0. 2.77121377e-004
      2.16718778e-004 1.97895075e-004 4.00556746e-004 3.57279350e-004 0.
      0. 8.31964717e-004 0. 8.84399225e-004 2.41619142e-004 0. 0. 0. 0.
      0. 7.63098767e-004 0. 1.62013486e-004 3.57279350e-004 0.
      3.44869448e-004 4.56865120e-004 0. 5.89844130e-004 0. 0. 0. 0. 0.
      0. 0. 7.68393103e-004 0. 0. 3.63313302e-004 4.89554950e-004 0. 0.
      0. 5.68281917e-004 0. 4.08928841e-004 1.83592856e-004 0.
      1.34891219e-004 0. 0. 0. 0. 1.32793313e-004 0. 0. 0. 0.
      4.29257547e-004 0. 0. 0. 0. 0. 1.31377764e-003 0. 0.
      1.02779584e-003 0. 0. 0. 0. 0. 0. 0. 1.20167027e-003 0. 0. 0.
      6.19510713e-004 5.18381654e-004 5.13897918e-004 0. 0. 0.
      2.04982876e-004 0. 3.73849063e-004 0. 0. 0. 0. 3.92662740e-004 0.
      3.90089554e-004 4.39301948e-004 0. 0. 0. 0. 0. 4.56865120e-004 0.
      0. 0. 0. 0. 0. 0. 0. 7.80179107e-004 0. 0. 0. 0. 0.
      3.90089554e-004 0. 5.95357909e-004 0. 3.18582926e-004 0.
      2.77121377e-004 0. 0. 0. 4.08995344e-004 2.74031598e-004 0.
      5.89844130e-004 0. 1.92818407e-004 1.62013486e-004 5.37239364e-004
      2.26401811e-004 1.92818407e-004 1.23131875e-004 0. 0. 0.
      6.34824217e-004 5.18381654e-004 0. 2.42350638e-004 0.
      3.99929937e-004 0. 0. 0. 0. 0. 0. 0. 8.35484941e-004 0. 0. 0. 0.
      0. 0. 0. 0. 0. 3.44349450e-004 5.37239364e-004 0. 0.
      3.44682805e-004 0. 0. 2.87151430e-004 6.34824217e-004 0. 0. 0.
      2.87151430e-004 7.12767418e-004 3.20605322e-004 0. 4.39301948e-004
      7.63098767e-004 7.50940759e-004 6.49857626e-004 0. 0.
      7.68144557e-004 0. 0. 0. 1.67431630e-004 0. 9.90520348e-004
      2.15922555e-004 0. 1.05082965e-003 7.38324306e-004 0. 0. 0.
      4.08995344e-004 0. 0. 0. 0. 0. 0. 7.45622267e-004 3.90089554e-004
      0. 1.20778393e-004 7.50940759e-004 0. 8.58515094e-004 0. 0. 0.
      3.44682805e-004 3.92752816e-004 0. -2.27272734e-002
      1.90832623e-004 0. 0. 0. 2.90867349e-004 0. 0. 0. 2.87151430e-004
      0. 0. 0. 0. 0. 0. 3.90089554e-004 1.23683014e-003 3.96048068e-004
      0. 0. 1.18419659e-004 0. 3.94760922e-004 3.34449869e-004 0. 0. 0.
      1.70001015e-003 0. 8.75668600e-004 7.24944286e-004 0. 0.
      5.18381654e-004 0. 8.58515094e-004 0. 0. 7.38324306e-004
      1.77948226e-004 0. 3.56999808e-004 0. 0. 0. 0. 4.30899468e-004 0.
      5.89844130e-004 0. 9.54163115e-005 0. 3.99929937e-004 0. 0. 0.
      4.39301948e-004 4.08928841e-004 1.67431630e-004 0. 0. 0. 0.
      5.95357909e-004 0. 0. 0. 1.31377764e-003 0. 0. 0. 0. 0. 0. 0.
      3.83652194e-004 0. 0. 3.40412487e-004 1.89966930e-004 0.
      -2.43902430e-002 0. 5.28888952e-004 0. 0. 0. 0. 2.66017276e-004 0.
      0. 0. 5.11793245e-004 0. 8.35484941e-004 0. 0. 0. 0. 0.
      7.38324306e-004 0. 0. 0. 2.42350638e-004 1.18419659e-004
      2.26401811e-004 0. 1.32793313e-004 1.95451052e-004 0. 0.
      7.38324306e-004 3.72345065e-004 4.01858997e-004 1.95451052e-004 0.
      0. 1.20778393e-004 0. 1.83592856e-004 5.37239364e-004 0. 0.
      3.92752816e-004 0. 0. 0. 1.97895075e-004 0. 0. 0. 0.
      2.42350638e-004 0. 0. 0. 0. 0. -2.25493256e-002 0. 5.28888952e-004
      0. 0. 0. 0. 7.12767418e-004 2.33832063e-004 2.40531823e-004
      3.83652194e-004 8.75668600e-004 2.17772741e-003 0. 0. 0. 0. 0. 0.
      0. 4.39301948e-004 0. 0. 0. 0. 0. 2.20632806e-004 1.89966930e-004
      3.44682805e-004 7.26626604e-004 3.26900714e-004 0. 0. 0. 0. 0. 0.
      1.83592856e-004 0. 0. 0. 0. 0. 0. 0. 0. 0. 0. 1.29005653e-004
      1.67431630e-004 0. 0. 8.35484941e-004 0. 0. 0. 0. 0.
      3.09755356e-004 0. 0. 0. 0. 0. 3.56999808e-004 0. 0. 0.
      2.33832063e-004 0. 8.58515094e-004 0. 0. 0. 0. 0. 8.35484941e-004
      0. 1.18419659e-004 0. 5.28888952e-004 3.94456700e-004 0. 0. 0. 0.
      0. 0. 1.20778393e-004 3.90089554e-004 0. 0. 0. 1.60302661e-004 0.
      0. 0. 0. 0. 2.04982876e-004 0. 1.34891219e-004 0. 0. 0. 0. 0.
      6.61682279e-004 0. 0. 0. 0. 0. 0. 0. 0. 2.45775940e-004 0. 0. 0.
      0. 0. 0. 0. 2.76378240e-004 0. 0. 0. 0. 0. 0. 0. 7.31174136e-004
      0. 0. 5.95357909e-004 0. 0. 6.88587897e-004 0. 0. 0. 0.
      1.34891219e-004 1.94510474e-004 1.95451052e-004 0. 0. 0. 0.
      2.45775940e-004 3.96048068e-004 0. 0. 0. 0. 4.67664126e-004 0.
      3.25234490e-004 9.38647427e-004 1.32877642e-004 0. 0. 0. 0. 0. 0.
      0. 0. 0. 0. 0. 0. 0. 0. 0. 0. 2.45775940e-004 0. 0. 0. 0. 0.
      3.83652194e-004 7.63098767e-004 0. 0. 5.95357909e-004 0. 0. 0. 0.
      0. 4.24091297e-004 0. 0. 0. 0. 0. 0. 4.24091297e-004 0. 0.
      1.76688700e-004 0. 0. 0. 0. 3.90089554e-004 0. 0. 5.37239364e-004
      0. 0. 2.15922555e-004 3.55497876e-004 3.92752816e-004
      9.42198385e-004 4.19236370e-004 0. 0. 0. 1.20778393e-004 0. 0.
      1.20778393e-004 1.77948226e-004 1.77748938e-004 0. 0.
      4.19236370e-004 2.77121377e-004 1.23131875e-004 0. 0. 0. 0. 0. 0.
      6.80085795e-004 4.09914675e-004 1.97895075e-004 0. 0. 0. 0. 0. 0.
      0. 0. 0. 0. 0. 0. 3.79151432e-004 6.34824217e-004 3.63313302e-004
      0. 3.92662740e-004 0. 0. 3.83652194e-004 0. 5.70778269e-004
      1.21716340e-003 0. 0. 3.39362980e-003 0. 1.23118458e-003 0. 0. 0.
      0. 7.47698126e-004 3.72345065e-004 4.89554950e-004 4.01858997e-004
      0. 0. 0. 0. 0. 1.34891219e-004 0. 5.79105574e-004 0.
      5.13897918e-004 7.50940759e-004 0. 0. 0. 0. 0. 2.42350638e-004 0.
      0. 0. 0. 0. 3.83652194e-004 0. 4.24091297e-004 0. 0.
      8.48182593e-004 0. 0. 5.19179914e-004 2.41619142e-004 0.
      2.74031598e-004 3.63313302e-004 0. 0. 0. 0. 0. 3.92662740e-004
      5.95357909e-004 0. 3.46894929e-004 0. 0. 8.84399225e-004 0. 0. 0.
      0. 9.53199866e-004 0. 0. 0. 1.23131875e-004 0. 5.08797122e-004
      6.34824217e-004 7.63098767e-004 3.96048068e-004 0. 0.
      2.45775940e-004 6.80085795e-004 0. 1.23131875e-004 9.39169200e-004
      2.66017276e-004 1.67792517e-004 0. 0. 2.04497672e-004 0. 0. 0.
      1.94510474e-004 0. 0. 0. 2.87151430e-004 0. 5.18381654e-004 0. 0.
      0. 1.62013486e-004 0. 0. 0. 3.92662740e-004 4.39301948e-004 0. 0.
      0. 1.70206244e-004 1.62013486e-004 0. 2.04497672e-004 0. 0. 0.
      -2.29784213e-002 0. 0. 0. 1.95451052e-004 0. 1.06644712e-003 0. 0.
      0. 0. 0. 0. 7.50940759e-004 7.68144557e-004 2.25929776e-004 0. 0.
      0. 7.88913399e-004 3.09755356e-004 1.10374205e-003 0. 0.
      1.26852165e-003 2.77121377e-004 0. 2.09133513e-003 1.77948226e-004
      1.42553484e-003 0. 5.28888952e-004 0. 1.20778393e-004
      9.54163115e-005 1.81928350e-004 9.62194346e-004 3.40412487e-004
      3.57279350e-004 2.81084934e-003 0. 0. 9.28033434e-004 0. 0. 0.
      1.32877642e-004 0. 2.77121377e-004 2.15922555e-004 3.63313302e-004
      0. 0. 1.62013486e-004 0. 0. 0. 5.93964593e-004 1.46419625e-003 0.
      0. 3.09755356e-004 0. 0. 2.45775940e-004 2.74031598e-004 0. 0. 0.
      0. 3.10825853e-004 0. 0. 8.75668600e-004 8.35484941e-004
      1.67792517e-004 0. 0. 0. -2.43902430e-002 4.29257547e-004
      1.92074454e-003 5.18381654e-004 0. 0. 0. 0. 0. 0. 0.
      1.62013486e-004 0. 0. 0. 0. 0. 0. 7.50940759e-004 3.92752816e-004
      0. 0. 0. 0. 0. 2.42350638e-004 1.92818407e-004 0. 0. 0. 0.
      1.27012527e-003 2.04497672e-004 1.53628911e-003 3.96048068e-004
      3.72345065e-004 1.14199368e-003 1.95451052e-004 0. 3.55896453e-004
      0. 4.24091297e-004 0. 0. 7.01342593e-004 1.32877642e-004 0. 0. 0.
      0. 0. 0. 7.47089332e-004 7.85325479e-004 0. 0. 0. 0. 0. 0.
      1.70206244e-004 6.37196994e-004 0. 0. 0. 1.62013486e-004 0. 0.
      1.40236295e-003 0. 0. 7.24944286e-004 0. 0. 0. 0. 0. 0.
      9.59708763e-004 1.01759424e-003 1.14820068e-004 0. 0. 0.
      5.28888952e-004 0. 8.84399225e-004 0. 0. 8.75668600e-004
      3.57279350e-004 0. 0. 0. 0. 0. 3.99929937e-004 0. 0. 0.
      1.14881247e-003 0. 0. 0. 2.87151430e-004 0. 0. 2.04982876e-004
      4.89872997e-004 2.23866504e-004 7.45622267e-004 0. 0.
      1.10282307e-003 1.20778393e-004 0. 0. 0. 0. 0. 0. 0. 0. 0. 0.
      9.28291236e-004 3.83652194e-004 3.44682805e-004 0. 0.
      1.77748938e-004 0. 0. 9.59708763e-004 5.93964593e-004 0.
      7.45622267e-004 0. 1.18419659e-004 0. 0. 1.64749799e-003 0. 0. 0.
      0. 0. 1.81928350e-004 0. 8.75668600e-004 0. 0. 0. 0.
      7.24944286e-004 2.16718778e-004 0. 0. 7.45622267e-004
      3.96048068e-004 0. 0. 3.44682805e-004 3.34449869e-004 0. 0. 0. 0.
      0. 4.39301948e-004 0. 0. 0. 0. 7.38324306e-004 0. 2.33832063e-004
      0. 3.92662740e-004 1.32793313e-004 1.81928350e-004 0. 0.
      1.29005653e-004 0. 0. 0. 0. 0. 0. 1.14820068e-004 3.92752816e-004
      1.34891219e-004 0. 0. 0. 0. 0. 0. 7.08366337e-004 0. 0. 0. 0. 0.
      0. 0. 0. 0. 4.19236370e-004 0. 3.72345065e-004 1.77748938e-004 0.
      7.63098767e-004 0. 2.25929776e-004 0. 8.84399225e-004 0. 0.
      3.92662740e-004 0. 0. 0. 0. 9.90520348e-004 0. 0. 0.
      3.37486446e-004 4.29257547e-004 0. 1.20778393e-004 3.57279350e-004
      0.</_></support_vectors>
  <decision_functions>
    <_>
      <sv_count>1</sv_count>
      <rho>-9.9990071140222714e-001</rho>
      <alpha>
        1.</alpha>
      <index>
        0</index></_></decision_functions></my_svm>
</opencv_storage>
