<?xml version="1.0"?>
<opencv_storage>
<my_svm type_id="opencv-ml-svm">
  <svm_type>C_SVC</svm_type>
  <kernel><type>LINEAR</type></kernel>
  <C>1.</C>
  <term_criteria><epsilon>2.2204460492503131e-016</epsilon>
    <iterations>100</iterations></term_criteria>
  <var_all>10000</var_all>
  <var_count>10000</var_count>
  <class_count>2</class_count>
  <class_labels type_id="opencv-matrix">
    <rows>1</rows>
    <cols>2</cols>
    <dt>i</dt>
    <data>
      -1 1</data></class_labels>
  <sv_total>1</sv_total>
  <support_vectors>
    <_>
      3.62671155e-004 0. 0. 3.40393803e-004 0. 0. 6.34101918e-004
      1.12415431e-003 0. 0. 0. 0. 1.52046431e-003 4.37866664e-004
      2.28978242e-004 0. 1.44649326e-004 4.01504221e-004 5.03973162e-004
      6.08482689e-004 0. 8.27950367e-004 1.88253631e-004 0. 0. 0.
      4.82201664e-004 3.93933937e-004 4.43947065e-004 0. 0.
      4.70415456e-004 0. 0. 6.08482689e-004 1.88503385e-004 0.
      1.09595258e-003 0. 0. 1.33164693e-003 0. 0. 0. 1.05055131e-003 0.
      0. 3.76507262e-004 5.78587700e-004 0. 0. 4.57956485e-004 0.
      9.66427440e-004 3.21522180e-004 4.26223414e-004 9.28903872e-004 0.
      2.26719142e-003 0. 7.42474920e-004 3.23693315e-003 1.92879874e-004
      0. 2.71947356e-004 1.61673955e-003 0. 0. 0. 1.11867511e-003
      1.52244221e-003 0. 6.14012301e-004 5.82386600e-003 1.53308071e-003
      -2.76145656e-002 0. 0. 0. 1.35991431e-004 0. 0. 0. 0.
      1.35991431e-004 0. 1.32493069e-003 5.32891427e-004 1.02365273e-003
      0. 0. 0. 0. 0. 7.08290027e-004 2.35207728e-004 9.95786628e-004 0.
      6.14012301e-004 0. 1.97195637e-004 1.88503385e-004 1.35973678e-004
      0. 0. 0. 0. 7.42474920e-004 0. 0. 0. 1.09595258e-003 0. 0. 0. 0.
      4.33249748e-004 0. 0. 6.34101918e-004 0. 1.24565023e-003 0.
      6.34101918e-004 9.15612036e-004 0. 2.76238006e-003 0. 0. 0. 0.
      2.71982863e-004 0. 9.66427440e-004 0. 7.46746897e-004 0. 0. 0.
      1.36359909e-003 0. 1.81979049e-004 0. 0. 0. 6.70191948e-004 0.
      9.66427440e-004 0. 2.04415387e-003 5.40574256e-004 0.
      4.33249748e-004 6.08482689e-004 -1.86880175e-002 0.
      2.42233422e-004 0. 1.97195637e-004 0. 0. 2.42233422e-004
      6.14012301e-004 0. 0. 1.26723840e-003 2.13477411e-003
      2.28978242e-004 1.44649326e-004 3.03547335e-004 0. 0.
      3.69639456e-004 2.25398224e-004 0. 2.26155668e-003 7.54666515e-004
      1.26723840e-003 0. 1.38264222e-004 0. 0. 0. 7.42474920e-004 0.
      2.93585146e-003 0. 0. 0. 5.25893993e-004 2.28592689e-004 0. 0. 0.
      0. 0. 1.56807143e-003 5.71428158e-004 0. 0. 4.13113215e-004
      1.35991431e-004 1.81979049e-004 0. 1.23249670e-003 4.70415456e-004
      0. 2.73863814e-004 0. 0. 0. 2.40091220e-004 6.70191948e-004 0. 0.
      4.09640430e-004 0. 0. 6.70986890e-004 0. 1.91454164e-004
      5.50080789e-004 1.88253631e-004 0. -2.24433802e-002
      1.81979049e-004 2.45604920e-003 0. 0. 1.44649326e-004
      3.62671155e-004 0. 0. 2.96622049e-004 0. 1.91976363e-003
      7.67946942e-004 0. 0. 0. 7.61221105e-004 7.20273703e-004 0. 0. 0.
      0. 0. 7.08290027e-004 6.46685774e-004 3.93933937e-004
      6.64154009e-004 1.53308071e-003 0. 4.14007576e-003 1.97195637e-004
      3.23194894e-004 6.08482689e-004 1.06738706e-003 5.52396639e-004
      1.88503385e-004 0. 0. 2.53447681e-003 9.76338226e-004 0. 0. 0.
      2.73863814e-004 0. 4.82201664e-004 5.10991144e-004 5.25893993e-004
      0. 0. 1.10479328e-003 0. 0. 0. 4.88534337e-004 1.15260715e-003
      2.23438418e-003 0. 0. 3.69639456e-004 0. 0. 0. 0. 1.11569860e-003
      1.02959410e-003 1.31769723e-003 0. 0. 0. 0. 1.88503385e-004 0. 0.
      0. 5.10991144e-004 2.22742488e-003 5.05630858e-004 0.
      2.15233047e-003 0. 0. 5.47727628e-004 0. 6.52288320e-004 0.
      4.13113215e-004 0. 0. 0. 0. 0. 3.35095974e-004 7.66540354e-004 0.
      0. 0. 2.15233047e-003 4.33249748e-004 1.36614323e-003
      8.90640193e-004 1.02118135e-003 0. 0. 0. 0. 0. 0. 5.66743361e-003
      8.75272613e-004 1.03435828e-003 0. 5.25893993e-004 2.25398224e-004
      1.56339724e-003 2.42233422e-004 0. 1.30457664e-003 0.
      1.03670533e-003 6.58647972e-004 0. 0. 1.02634914e-003 0. 0. 0.
      4.37866664e-004 0. -1.49415517e-002 0. 0. 1.88253631e-004 0. 0.
      2.28978242e-004 3.93933937e-004 0. 0. 4.82201664e-004 0.
      1.91976363e-003 0. 0. 0. 0. -2.04081628e-002 1.88253631e-004
      3.33528593e-003 0. 0. 8.53587524e-004 9.10641975e-004 0. 0. 0. 0.
      0. -2.24040970e-002 0. 1.71513297e-003 0. 2.73228646e-003 0.
      1.77013932e-003 2.42233422e-004 1.11569860e-003 0. 0.
      9.66427440e-004 0. 0. 6.58848614e-004 2.28978242e-004 0.
      2.73863814e-004 3.32077005e-004 0. 0. 0. 0. 3.70232679e-004 0.
      1.43306912e-003 0. 0. 2.73863814e-004 2.75040395e-004
      1.44649326e-004 6.08482689e-004 0. 0. 7.84035714e-004
      5.03973162e-004 3.21522180e-004 2.25398224e-004 0. 0. 0.
      8.75272613e-004 0. 0. 2.04426842e-003 3.03547335e-004 0. 0. 0.
      6.08482689e-004 0. 0. 3.23194894e-004 1.06738706e-003
      2.42233422e-004 1.52046431e-003 0. 0. 0. 8.87894130e-004
      3.33187083e-004 0. -1.90262031e-002 6.51942915e-004 0. 0. 0.
      1.71782612e-003 0. 0. 0. 0. 0. 0. 0. 0. 0. 0. 0. 3.01540899e-003
      0. 0. 5.40574256e-004 0. 6.62673789e-004 1.15260715e-003
      4.43947065e-004 0. 0. 0. 0. 6.08482689e-004 0. 0. 1.35991431e-004
      0. 0. 8.27950367e-004 0. 1.44649326e-004 3.93933937e-004
      1.52046431e-003 1.35991431e-004 0. 0. 0. 2.28978242e-004 0. 0.
      2.28592689e-004 0. 0. 1.81979049e-004 0. 0. 2.28978242e-004 0. 0.
      1.41346187e-003 0. 2.62422790e-003 6.93253649e-004 7.08290027e-004
      2.73863814e-004 1.03435828e-003 1.44649326e-004 3.42116342e-004
      6.52288320e-004 0. 0. 0. 1.88503385e-004 5.03633055e-004 0.
      3.32077005e-004 0. 0. 1.05178799e-003 1.94961380e-004
      7.66540354e-004 0. 0. 1.03670533e-003 2.76528444e-004 0. 0.
      8.01912625e-004 8.03008443e-004 0. 0. 0. 1.81979049e-004 0.
      -1.90949477e-002 9.95786628e-004 0. 0. 3.27501050e-003 0. 0.
      7.61221105e-004 5.61562250e-004 0. 4.13113215e-004 8.27950367e-004
      0. 0. 0. 0. 0. 0. -2.31563207e-002 0. 0. 0. 0. 7.08290027e-004 0.
      0. 3.32077005e-004 0. 0. 5.13315958e-004 0. 0. 0. 0. 0. 0.
      6.35038654e-004 0. 8.27950367e-004 0. 0. 6.52288320e-004 0. 0. 0.
      1.10891834e-003 0. 0. 6.58848614e-004 0. 0. 2.40091220e-004
      1.03670533e-003 1.76764757e-003 7.90686638e-004 0. 2.08763825e-003
      0. 0. 0. 4.82201664e-004 0. 0. 0. 7.54666515e-004 2.83267442e-003
      0. 0. 1.07616524e-003 0. 0. 1.02634914e-003 0. 0. 0.
      3.42116342e-004 2.36328589e-004 1.37719314e-003 0. 3.28785763e-003
      4.18736046e-004 0. 0. 6.84232684e-004 0. 0. 0. 0. 0. 0.
      5.52396639e-004 5.79938525e-004 0. 0. 0. 0. 1.14489428e-003 0. 0.
      4.57956485e-004 3.12679447e-003 2.73863814e-004 2.22681300e-003
      2.96622049e-004 4.61518823e-004 0. 0. 5.52396639e-004
      1.52046431e-003 0. 3.40393803e-004 0. 2.80294480e-004 0.
      -2.38095243e-002 0. 0. 0. 0. 0. -1.97110940e-002 0. 0. 0. 0.
      4.09640430e-004 1.88253631e-004 0. 0. 2.68043950e-003
      3.03547335e-004 4.09640430e-004 2.28592689e-004 6.08482689e-004
      3.42116342e-004 1.08114851e-003 3.93933937e-004 1.08518917e-003 0.
      7.54666515e-004 0. 0. 0. 0. 1.35991431e-004 0. 0. 0.
      7.79845519e-004 2.87698407e-004 0. 8.01912625e-004 2.17111548e-003
      7.87867873e-004 0. 1.79239156e-004 0. 0. 0. 0. 1.47836970e-003 0.
      0. 8.31297541e-004 3.89922759e-004 1.11652340e-003 4.33249748e-004
      4.88534337e-004 0. 0. 5.06661250e-004 0. 3.32673872e-003
      1.09419471e-003 1.56339724e-003 3.71819013e-004 0. 1.36614323e-003
      0. 0. 0. 0. 0. 1.93285488e-003 0. 0. 8.75272613e-004 0. 0. 0. 0.
      0. 4.56670154e-004 5.40574256e-004 0. 0. 7.45783793e-004 0. 0.
      6.80787605e-004 4.76419809e-004 3.32077005e-004 2.71947356e-004 0.
      0. 5.03973162e-004 0. 1.91976363e-003 0. 0. 1.15260715e-003 0.
      -1.82558317e-002 0. 0. 0. 2.19190517e-003 0. 0. 0. 0.
      7.00367498e-004 5.24240953e-004 0. 2.01808615e-003 6.71705930e-004
      0. 0. 3.32077005e-004 0. 0. 0. 0. 0. 0. 3.42116342e-004 0.
      8.27950367e-004 5.10991144e-004 0. 1.63856172e-003 6.08482689e-004
      1.06738706e-003 6.52288320e-004 0. 0. 6.58848614e-004 0. 0.
      7.67946942e-004 0. 0. 6.14012301e-004 6.46389788e-004 0. 0.
      7.08290027e-004 0. 1.36614323e-003 8.27950367e-004 2.87698407e-004
      1.01391540e-003 5.25893993e-004 5.25893993e-004 1.07688562e-003 0.
      9.68187989e-004 -2.17828751e-002 6.08482689e-004 0.
      4.29208478e-004 3.42116342e-004 3.50183749e-004 0. 1.08114851e-003
      0. 0. 5.95092250e-004 0. 0. 2.28592689e-004 0. 0. 0. 0. 0.
      9.66427440e-004 0. 4.43947065e-004 3.31336894e-004 2.89298652e-004
      0. 0. 7.61221105e-004 1.26965041e-003 1.38264222e-004
      1.36614323e-003 0. 1.79239156e-004 8.27950367e-004 0. 0.
      1.69976393e-003 0. 0. 1.11569860e-003 0. 0. 9.66427440e-004
      5.52396639e-004 0. 3.50183749e-004 0. 0. 0. 1.97195637e-004 0. 0.
      0. 0. 0. 0. 0. 2.99956708e-004 1.01910625e-003 2.63616280e-003 0.
      0. 3.48863658e-004 0. 0. 0. 3.44343320e-003 0. 4.19689721e-004
      1.03670533e-003 1.94961380e-004 0. 0. 2.36328589e-004 0. 0. 0.
      6.34101918e-004 1.04683486e-003 2.35207728e-004 3.03547335e-004 0.
      1.79239156e-004 5.10991144e-004 0. 0. 4.56670154e-004 0. 0. 0. 0.
      0. 2.28592689e-004 1.38264222e-004 0. 0. 3.32077005e-004
      4.82201664e-004 5.40574256e-004 0. 0. 0. 0. 1.79239156e-004 0. 0.
      1.35991431e-004 0. 0. 0. 0. 0. 6.34101918e-004 9.60643287e-004 0.
      0. 0. 0. 0. 2.36328589e-004 0. 7.54666515e-004 3.42116342e-004
      3.51169962e-003 3.40393803e-004 0. 0. 0. 0. 0. 7.66540354e-004 0.
      0. 2.05743080e-003 0. 4.26223414e-004 0. 6.07026741e-004 0. 0. 0.
      0. 0. 0. 2.04838137e-003 0. 0. 0. 0. 0. 0. 0. 2.28978242e-004 0.
      0. 7.54666515e-004 4.13113215e-004 0. 5.33570535e-004
      1.21696538e-003 0. 6.70986890e-004 0. 5.40574256e-004 0. 0.
      1.99157326e-003 0. 9.66427440e-004 2.73228646e-003 0.
      1.79239156e-004 0. 4.07956541e-004 1.76661939e-003 7.66540354e-004
      1.13685522e-003 1.03670533e-003 0. 0. 0. 1.79239156e-004
      5.75601531e-004 4.05270094e-003 4.88534337e-004 0. 2.76528444e-004
      4.37866664e-004 0. 0. 2.40091220e-004 5.25893993e-004 0. 0. 0. 0.
      3.37145943e-003 3.38000408e-003 2.36328589e-004 2.53447681e-003 0.
      0. 2.12098658e-003 0. 0. 7.07873027e-004 0. 1.02281210e-003 0. 0.
      0. -2.38095243e-002 0. 0. 0. 0. 0. 0. 5.17179142e-004 0.
      9.70158260e-004 0. 0. 0. 0. 0. 3.21522180e-004 5.40574256e-004 0.
      0. 0. 0. 1.35991431e-004 1.61673955e-003 3.85759748e-004
      3.35095974e-004 0. 0. 3.62671155e-004 0. 4.33249748e-004 0.
      1.03670533e-003 0. 1.50770450e-003 5.52396639e-004 3.03547335e-004
      0. 1.11536391e-003 1.79239156e-004 0. 3.80917219e-003 0. 0. 0. 0.
      0. 0. 8.75272613e-004 5.10991144e-004 0. 0. 0. 0. 0.
      4.23689868e-004 0. 0. 0. 0. 0. 1.35973678e-004 0. 0. 0. 0.
      3.32077005e-004 3.35095974e-004 0. 0. 6.07094669e-004 0. 0.
      4.13113215e-004 0. 0. 0. 4.61518823e-004 0. 4.72657179e-004 0. 0.
      0. 6.58848614e-004 1.38264222e-004 3.42116342e-004 5.03973162e-004
      0. 1.64321950e-003 0. 0. 3.93933937e-004 0. 0. 0. 6.46389788e-004
      1.36614323e-003 2.15107575e-003 3.93933937e-004 9.66427440e-004
      2.35207728e-004 1.11569860e-003 4.18736046e-004 0. 4.82201664e-004
      0. 0. 0. 6.08482689e-004 4.09640430e-004 0. 4.43947065e-004 0. 0.
      3.71819013e-004 0. 0. 5.10991144e-004 0. 7.54666515e-004 0. 0. 0.
      0. 1.88503385e-004 2.73863814e-004 0. 2.87698407e-004 0.
      4.09640430e-004 0. 0. 2.87698407e-004 0. 0. 4.37866664e-004 0. 0.
      3.86587041e-003 0. 7.84035714e-004 7.61221105e-004 0.
      7.08290027e-004 0. 3.69639456e-004 0. 8.46554234e-004 0. 0.
      1.35090027e-003 0. 0. 0. 0. 0. 1.35991431e-004 6.08482689e-004 0.
      6.51942915e-004 0. 0. 0. 2.87698407e-004 1.59729423e-003 0. 0. 0.
      1.97195637e-004 0. 7.08290027e-004 0. 0. 0. 2.15233047e-003
      5.69372030e-004 6.84232684e-004 4.56670154e-004 0. 0.
      -2.27421373e-002 0. 0. 1.35991431e-004 0. 0. 0. 0. 9.66427440e-004
      0. 0. 1.43883633e-003 5.03973162e-004 1.26723840e-003 0. 0. 0.
      2.15377123e-003 1.95582863e-003 0. 0. 0. 0. 0. 2.71982863e-004
      3.21522180e-004 0. 1.87537435e-003 4.61518823e-004 6.08482689e-004
      0. 0. 0. 0. 2.09073001e-003 4.09640430e-004 1.06738706e-003 0. 0.
      0. 0. 0. 5.17179142e-004 2.52824626e-003 1.52046431e-003 0. 0.
      3.69639456e-004 1.64752232e-003 0. 9.12910851e-004 0. 0.
      1.26484339e-003 5.25893993e-004 2.08212598e-003 0. 0.
      7.08290027e-004 0. 6.52288320e-004 3.42116342e-004 0. 0. 0.
      7.84035714e-004 2.07341067e-003 1.50082388e-003 1.35752361e-003
      3.50183749e-004 0. 0. 1.07688562e-003 2.53330625e-004
      1.15260715e-003 0. 3.71819013e-004 0. 6.52288320e-004
      -2.26690881e-002 0. 7.66540354e-004 2.75040395e-004
      1.40577496e-003 1.57721736e-003 0. 4.84466844e-004 0.
      8.19280860e-004 4.88534337e-004 0. 1.02198229e-003 1.03379344e-003
      0. 2.42233422e-004 0. 0. 1.96408271e-003 6.84232684e-004 0.
      1.13190501e-003 0. 7.08290027e-004 2.88913352e-003 1.94961380e-004
      5.24240953e-004 0. 0. 0. 1.15260715e-003 0. 0. 7.66540354e-004 0.
      2.73863814e-004 0. 0. 0. 0. 3.35095974e-004 0. 0. 2.33849976e-003
      0. 4.98644833e-004 0. 4.43947065e-004 0. 0. 0. 5.04018622e-004
      1.65590073e-003 1.09595258e-003 0. 5.25893993e-004 7.56065478e-004
      6.07094669e-004 2.41030939e-003 0. 0. 6.58848614e-004 0.
      1.11569860e-003 1.79239156e-004 0. 0. 0. 0. 6.70986890e-004 0.
      1.86441757e-003 0. 0. 7.69203587e-004 0. 0. 0. 2.80294480e-004
      1.36614323e-003 0. 0. 5.25893993e-004 0. 1.11569860e-003 0. 0. 0.
      0. 0. 0. 0. 0. 1.35991431e-004 0. 4.57956485e-004 0. 0. 0. 0. 0.
      0. 0. 1.22802460e-003 6.70986890e-004 0. 1.00794632e-003 0.
      4.02772147e-003 0. 3.98314651e-003 0. 1.74086122e-003
      1.97195637e-004 0. 0. 0. 2.76528444e-004 -1.55124068e-002
      1.71782612e-003 3.89922759e-004 0. 1.05178799e-003 0. 0.
      1.00315467e-003 0. 0. 2.87698407e-004 0. 2.80667562e-003
      -2.31803656e-002 2.11287057e-003 0. 1.94961380e-004 0. 0. 0. 0. 0.
      8.88998155e-004 0. 0. 1.90411555e-003 0. 0. 3.35095974e-004
      1.07616524e-003 1.17813412e-003 0. 0. 0. 0. 0. 0. 1.90869754e-003
      1.45068462e-003 0. 0. 0. 1.26723840e-003 0. 0. 1.08451431e-003 0.
      0. 0. 0. 3.32077005e-004 3.23194894e-004 3.21522180e-004
      5.60588960e-004 0. 5.06661250e-004 4.43947065e-004 3.71819013e-004
      7.61221105e-004 0. 0. 0. 0. 2.03934824e-003 0. 0. 0. 0. 0. 0. 0.
      0. 0. 0. 8.19280860e-004 0. 1.38650730e-003 0. 0. 4.14446869e-004
      1.36614323e-003 6.70986890e-004 6.51942915e-004 0. 0. 0.
      3.50183749e-004 0. 0. 2.48385104e-003 0. 7.87867873e-004 0.
      2.13477411e-003 0. 1.91454164e-004 0. 0. 1.35991431e-004 0.
      2.42233422e-004 0. 0. 0. 2.73863814e-004 9.12910851e-004 0. 0. 0.
      6.52288320e-004 0. 0. 0. 1.05291069e-003 9.95786628e-004 0.
      9.95786628e-004 0. 0. 0. 0. 0. 6.08482689e-004 6.34101918e-004
      9.66427440e-004 0. 6.51942915e-004 0. 4.43947065e-004 0.
      1.77436031e-003 2.28978242e-004 3.74858937e-004 0. 0. 0. 0.
      9.66427440e-004 0. 1.44649326e-004 0. 1.19320536e-003
      2.28592689e-004 0. 0. 0. 0. 0. 0. 0. 0. 0. 0. 0. 0. 0. 0. 0. 0.
      -2.38095243e-002 3.42116342e-004 0. 0. 4.57956485e-004 0. 0. 0. 0.
      0. 5.50080789e-004 6.34101918e-004 6.36711949e-004 1.26723840e-003
      -1.96389966e-002 1.35991431e-004 0. 0. 1.09623536e-003
      3.42116342e-004 0. 6.68457476e-004 2.35207728e-004 0. 0.
      1.26820384e-003 0. 4.88534337e-004 0. 6.14012301e-004
      7.61221105e-004 7.66540354e-004 2.96622049e-004 0. 3.21522180e-004
      6.58848614e-004 0. 0. 0. 2.07747635e-003 2.44685286e-003 0.
      1.00799708e-003 0. 3.09511647e-003 0. 1.94961380e-004
      1.07616524e-003 0. 0. 0. 7.20273703e-004 0. 0. 0. 0. 0. 0. 0.
      1.88253631e-004 0. 5.40574256e-004 2.36328589e-004 0.
      6.84232684e-004 0. 0. 4.33249748e-004 0. 2.73863814e-004 0.
      3.71819013e-004 0. 8.19280860e-004 3.77006771e-004 1.39251840e-003
      6.46685774e-004 1.44649326e-004 2.40091220e-004 3.61389655e-004
      2.28978242e-004 0. 0. 3.12679447e-003 0. 9.85978171e-004 0. 0.
      6.46685774e-004 1.04848191e-003 1.11569860e-003 0. 0. 0.
      6.86934742e-004 0. 0. 3.93933937e-004 0. 2.40091220e-004 0. 0. 0.
      5.60588960e-004 0. 1.50933303e-003 0. 0. 0. 0. 0. 0.
      2.80294480e-004 0. 2.99956708e-004 3.71819013e-004 1.36614323e-003
      5.52396639e-004 4.09640430e-004 0. 0. 0. 4.26223414e-004
      7.08290027e-004 0. 0. 8.99485312e-004 0. 0. -4.08163257e-002 0.
      6.34101918e-004 4.43947065e-004 1.91454164e-004 9.66427440e-004 0.
      1.50278513e-003 1.47463614e-003 0. 0. 0. 0. 0. 2.40091220e-004 0.
      1.41658005e-003 0. 4.09640430e-004 1.06738706e-003 0.
      5.03973162e-004 4.18736046e-004 0. 0. 3.83952726e-003
      5.24240953e-004 0. 5.69241180e-004 0. 0. 0. 0. 0. 8.75272613e-004
      1.97195637e-004 0. 0. 0. 2.42233422e-004 1.41322613e-003 0.
      3.40393803e-004 0. 0. 1.03435828e-003 0. 0. 1.35090027e-003
      4.13113215e-004 3.50183749e-004 1.81979049e-004 0. 0. 0. 0.
      1.36614323e-003 0. 1.09721033e-003 1.79239156e-004
      -1.78235732e-002 1.27867016e-003 2.99956708e-004 0. 0.
      6.07094669e-004 0. 0. 2.30521429e-003 0. 0. 0. 1.35991431e-004 0.
      0. 0. 1.03670533e-003 7.42474920e-004 0. 0. 0. -2.33998839e-002
      1.52244221e-003 1.37502304e-003 4.43947065e-004 0. 4.82201664e-004
      0. 0. 6.62673789e-004 0. 0. 3.58478312e-004 2.73863814e-004 0.
      3.42116342e-004 3.93933937e-004 0. 0. 0. 6.58848614e-004
      3.42116342e-004 4.43947065e-004 0. 0. 4.09640430e-004 0.
      3.03547335e-004 0. 0. 0. 0. 1.48976035e-003 1.52168062e-003 0.
      6.25926128e-004 1.06738706e-003 0. 0. 8.56846804e-004
      2.28978242e-004 3.40393803e-004 4.61518823e-004 0. 0.
      1.15260715e-003 1.88253631e-004 0. 0. 0. 0. 3.50183749e-004 0. 0.
      0. 1.07688562e-003 0. 0. 0. 4.33249748e-004 7.53852248e-004
      3.71819013e-004 2.31806375e-003 0. 1.00306387e-003 0. 0. 0. 0.
      5.25893993e-004 7.61221105e-004 0. 7.67946942e-004 0.
      5.52396639e-004 0. 5.03973162e-004 0. 4.82201664e-004 0. 0. 0. 0.
      0. 3.42116342e-004 2.09482666e-003 0. 0. 0. 0. 0. 0. 0.
      2.96622049e-004 0. 0. 9.77068674e-004 0. 4.33249748e-004
      8.03008443e-004 0. 0. 0. 0. 0. 0. 0. 1.03670533e-003 0. 0.
      5.06661250e-004 0. 6.93253649e-004 3.69639456e-004 4.54376481e-004
      1.79239156e-004 0. 0. 0. 1.79239156e-004 0. 0. 6.34101918e-004 0.
      5.60588960e-004 0. 0. 3.42116342e-004 5.17179142e-004 0. 0. 0. 0.
      6.46685774e-004 0. 0. 0. 0. 0. 7.53852248e-004 0. 0. 0.
      1.92879874e-004 3.83952726e-003 0. 0. 1.98486145e-003 0. 0.
      5.93244098e-004 4.37866664e-004 0. 9.45779495e-004 0.
      4.61518823e-004 0. 0. 0. 1.35090027e-003 0. 0. 0. 1.94961380e-004
      0. 1.12460006e-003 0. 4.43947065e-004 0. 1.90671755e-003
      -2.38095243e-002 0. 2.36328589e-004 4.18736046e-004 0. 0.
      1.75054523e-003 1.52046431e-003 0. 0. 0. 1.00718287e-003
      3.31370276e-003 2.96622049e-004 0. 0. 8.27950367e-004 0.
      9.66427440e-004 0. 0. 0. -1.96321383e-002 0. 8.87894130e-004 0. 0.
      7.66540354e-004 0. 0. 0. 4.09640430e-004 0. 0. 0. 3.93933937e-004
      0. 0. 0. 0. 6.34101918e-004 -6.55792952e-002 4.43947065e-004 0.
      2.72107474e-003 0. 0. 4.43947065e-004 0. 4.82201664e-004
      6.51942915e-004 7.82752642e-004 0. 0. 4.09640430e-004
      5.75396814e-004 8.75272613e-004 2.08057649e-003 0. 6.52288320e-004
      0. 4.09640430e-004 1.88253631e-004 0. 0. 0. -2.04081628e-002
      7.61221105e-004 5.24240953e-004 0. 0. 3.23194894e-004
      1.50913512e-003 6.08074595e-004 3.69639456e-004 0. 0. 0. 0. 0. 0.
      4.37866664e-004 0. 8.27950367e-004 7.43638026e-004 0. 0. 0. 0.
      6.68685825e-004 6.34101918e-004 5.52396639e-004 1.03435828e-003 0.
      9.42105835e-004 6.84232684e-004 0. 0. 0. 1.07616524e-003
      1.02821412e-003 0. 1.09133858e-003 1.35090027e-003 0. 0.
      1.88839401e-003 0. 3.03547335e-004 2.15513259e-003 4.43947065e-004
      0. 1.10479328e-003 0. 1.56852626e-003 0. 2.75040395e-004 0. 0.
      4.18736046e-004 0. 2.44854530e-003 4.33249748e-004 0. 0. 0.
      1.15260715e-003 1.98990619e-003 -2.33716574e-002 0. 0. 0. 0. 0.
      1.88503385e-004 0. 0. 1.30388583e-003 9.97549738e-004
      2.99956708e-004 0. 0. 3.71819013e-004 2.35207728e-004
      6.51942915e-004 0. 4.61518823e-004 0. 7.08633277e-004
      4.01504221e-004 0. 0. 0. 0. 0. 0. 6.52288320e-004 1.88253631e-004
      5.03973162e-004 0. 0. 0. 0. 0. 0. 3.03547335e-004 0. 0.
      1.00393500e-003 1.94961380e-004 1.46120053e-003 0. 0.
      1.35991431e-004 0. 0. 0. 0. 3.82908329e-004 0. 0. 9.66427440e-004
      6.80787605e-004 0. 2.73863814e-004 1.11005397e-003 0. 0. 0. 0.
      1.38264222e-004 0. 2.42233422e-004 0. 0. 0. 0. 0. 0. 0. 0.
      3.42116342e-004 0. 2.73228646e-003 7.61221105e-004 0. 0. 0.
      1.14664331e-003 0. 0. 3.87841254e-004 0. 0. 0. 1.35991431e-004 0.
      1.38264222e-004 6.07094669e-004 4.88534337e-004 4.61518823e-004 0.
      2.99956708e-004 0. 7.65972480e-004 0. 6.51942915e-004
      6.08482689e-004 0. 1.40542712e-003 0. 0. 0. 0. 9.66427440e-004
      3.43565224e-003 0. 2.75040395e-004 0. 0. 8.63061287e-004
      8.40883411e-004 4.43947065e-004 0. 0. 0. 0. 0. 0. 4.82201664e-004
      0. 0. 2.53447681e-003 0. 4.13113215e-004 4.43947065e-004 0.
      4.37866664e-004 0. 0. 0. 0. 0. 0. 8.75272613e-004 0.
      1.36614323e-003 2.01386074e-003 0. 0. 0. 4.57956485e-004
      5.75396814e-004 0. 0. 0. 0. 0. 0. 1.03228248e-003 0.
      5.10991144e-004 1.08077400e-003 1.44660496e-003 6.10308838e-004 0.
      0. 0. 3.83952726e-003 0. 0. 0. 1.33184122e-003 0. 2.13477411e-003
      1.91454164e-004 3.93933937e-004 0. 0. 1.94961380e-004 0.
      4.88534337e-004 0. 3.69639456e-004 7.08290027e-004 6.93253649e-004
      -2.00188402e-002 1.50770450e-003 3.48863658e-004 0. 0.
      1.36643532e-003 0. 0. 2.71982863e-004 1.97195637e-004 0. 0. 0. 0.
      1.26068667e-003 0. 6.70986890e-004 0. 0. 0. 0. 5.60588960e-004 0.
      0. 4.43947065e-004 1.71782612e-003 0. 0. 0. 0. 0. 0.
      2.28592689e-004 0. 0. 2.23139720e-003 0. 2.28592689e-004
      1.44649326e-004 0. 0. 0. 0. 4.26223414e-004 0. 8.55525432e-004
      1.15260715e-003 4.80182440e-004 3.35095974e-004 0. 2.28978242e-004
      0. 0. 7.61221105e-004 2.46033794e-003 0. 0. 0. 0. 2.30521429e-003
      8.75272613e-004 0. 7.62398122e-004 0. 3.40393803e-004 0. 0. 0. 0.
      0. 1.09595258e-003 0. 2.83484533e-003 2.80294480e-004 0. 0. 0. 0.
      0. 1.36614323e-003 0. 0. 0. 0. 0. 0. 0. 0. 0. 0. 0.
      6.58848614e-004 5.94934390e-004 2.34841462e-003 0. 2.53330625e-004
      0. 0. 0. 0. 0. 0. 0. 7.61221105e-004 -2.02289242e-002 0.
      6.70986890e-004 1.09595258e-003 0. 0. 0. 0. 0. 1.03670533e-003
      7.88261998e-004 0. 2.66445713e-004 0. 0. 0. 6.08482689e-004 0.
      8.40446271e-004 2.30521429e-003 -2.04081628e-002 1.88253631e-004
      0. 3.42116342e-004 0. 0. 5.03973162e-004 2.43393076e-003 0. 0. 0.
      1.09432125e-003 0. 1.36614323e-003 0. 0. 0. 1.88253631e-004
      -1.95627119e-002 0. 0. 5.10991144e-004 7.08290027e-004 0. 0. 0.
      7.84035714e-004 2.28592689e-004 0. 1.96084986e-003 0.
      4.33249748e-004 -2.32689492e-002 0. 0. 0. 0. 0. 9.12910851e-004
      -4.08163257e-002 0. 0. 7.08290027e-004 8.91842123e-004 0.
      1.31769723e-003 2.02424126e-003 0. 0. 1.81979049e-004 0. 0.
      1.35090027e-003 9.95786628e-004 7.39278912e-004 0. 9.66427440e-004
      9.66427440e-004 0. 0. 0. 0. 7.59991875e-004 1.44649326e-004
      2.30521429e-003 0. 0. 0. 0. 0. 0. 0. 5.03973162e-004 0. 0. 0. 0.
      1.91976363e-003 0. 7.66540354e-004 1.26723840e-003 0.
      3.03547335e-004 0. 0. 0. 0. 0. 7.53852248e-004 0. 1.52039260e-003
      0. 0. 0. 0. 0. 8.87894130e-004 0. 0. 4.37866664e-004 0. 0. 0.
      3.71819013e-004 0. 0. 3.48863658e-004 1.65968109e-003
      1.65590073e-003 1.71782612e-003 0. 0. 2.40091220e-004
      4.13113215e-004 2.01386074e-003 6.08482689e-004 -2.33787876e-002
      9.12910851e-004 0. 0. 0. 0. 6.93253649e-004 0. 6.73340983e-004
      7.54666515e-004 0. 0. -2.04081628e-002 6.46685774e-004
      4.09640430e-004 0. 4.13113215e-004 0. 0. 2.36328589e-004 0. 0.
      5.47727628e-004 0. 0. 4.97572636e-003 0. 4.84466844e-004
      2.40091220e-004 3.21522180e-004 6.14012301e-004 0. 3.63958097e-004
      3.83952726e-003 2.01386074e-003 1.29283860e-003 1.92879874e-004 0.
      0. 0. 0. 5.06661250e-004 0. 0. 1.35090027e-003 1.71782612e-003 0.
      0. 0. 2.53330625e-004 0. 7.98480876e-004 0. 0. 4.75861219e-004 0.
      1.82544813e-003 3.13391653e-003 0. 0. 0. 1.35991431e-004 0. 0. 0.
      0. 0. 2.75040395e-004 0. 0. 0. 0. 0. 0. 0. 0. 2.76528444e-004 0.
      1.38264222e-004 5.10991144e-004 0. 0. 0. 1.71782612e-003 0. 0. 0.
      0. 0. 6.58848614e-004 4.82201664e-004 0. 0. 0. 2.37643369e-003 0.
      0. 1.26309460e-003 0. 0. 0. 4.43947065e-004 0. 0. 0.
      7.54666515e-004 5.24240953e-004 1.94961380e-004 6.51942915e-004
      2.08929135e-003 0. 1.09317538e-003 1.99157326e-003 0. 0. 0.
      5.17179142e-004 5.52396639e-004 3.23065696e-003 0. 0. 0. 0.
      3.23194894e-004 0. 0. 0. 4.43947065e-004 2.42233422e-004
      3.43565224e-003 -1.93860289e-002 4.01504221e-004 0.
      3.42116342e-004 1.52046431e-003 0. 1.52046431e-003 0. 0. 0. 0. 0.
      -1.99974254e-002 0. 1.91976363e-003 0. 9.12910851e-004 0. 0. 0. 0.
      0. 0. 7.67946942e-004 0. 1.79239156e-004 0. -1.43566756e-002 0. 0.
      0. 0. 0. 1.88253631e-004 0. 0. 5.88895287e-004 0. 9.95786628e-004
      0. 0. 8.75272613e-004 5.99913415e-004 0. 0. 0. 0. 0. 0.
      7.08290027e-004 2.73863814e-004 0. 5.52396639e-004 0. 0. 0. 0.
      2.20058323e-003 0. 0. 0. 0. 0. 0. 1.08758302e-003 0. 0. 0.
      8.66499497e-004 0. 0. 0. 0. 0. 0. 2.73863814e-004 0. 0. 0. 0. 0.
      1.83810678e-003 0. 0. 0. 0. 0. 0. 0. 0. 0. 0. 0. 0. 0. 0.
      1.91454164e-004 0. 0. 3.31336894e-004 2.42233422e-004 0. 0.
      9.95786628e-004 1.06738706e-003 1.06646831e-003 0. 7.84035714e-004
      0. 0. 1.38264222e-004 3.93933937e-004 0. 0. 0. 0. 5.52396639e-004
      1.97195637e-004 4.82201664e-004 0. 0. 1.50933303e-003
      4.72657179e-004 0. 2.96622049e-004 0. 8.01912625e-004 0. 0. 0. 0.
      1.31769723e-003 0. 0. 0. 3.21522180e-004 2.38210545e-003 0. 0. 0.
      0. 0. 8.66499497e-004 0. 0. 0. 1.88503385e-004 0. 1.88253631e-004
      0. 0. 9.73465038e-004 0. 0. 0. 0. 0. 0. 0. 0. 3.04092863e-003 0.
      0. 0. 2.08148849e-003 0. 1.27797935e-003 0. 0. 0. 0. 0. 0. 0.
      5.52396639e-004 1.35973678e-004 0. 0. 1.26723840e-003 0. 0. 0.
      2.36328589e-004 0. 1.88253631e-004 0. 0. 0. 0. 0. 0. 0. 0. 0. 0.
      0. 1.30228384e-003 2.30521429e-003 0. 0. 7.39278912e-004 0. 0. 0.
      0. 7.66540354e-004 0. 0. 6.08482689e-004 0. 0. 0. 0. 0. 0. 0. 0.
      1.07616524e-003 0. 0. 0. 9.95786628e-004 0. 0. 0. 0. 0. 0. 0.
      3.62671155e-004 0. 0. 1.52046431e-003 0. 0. 0. 0. 2.33070971e-003
      0. 0. 0. 6.36826968e-004 1.48494984e-003 0. 0. 1.20159553e-003 0.
      2.40091220e-004 2.45931861e-003 0. 1.99157326e-003 0.
      4.57956485e-004 -1.84010919e-002 2.75040395e-004 1.52046431e-003
      0. 0. 0. 0. 0. 0. 6.46685774e-004 0. 0. 0. 0. 9.66427440e-004 0.
      1.34197378e-003 1.26393139e-003 0. 1.03670533e-003 1.35991431e-004
      0. 0. 0. 2.42233422e-004 4.37866664e-004 0. 0. 0. 1.26723840e-003
      0. 0. 1.91976363e-003 1.31769723e-003 4.43947065e-004
      5.10991144e-004 0. 0. 0. 0. 0. 0. 0. 2.42233422e-004
      7.42474920e-004 3.20089492e-003 0. 0. 1.11569860e-003
      2.96622049e-004 0. 0. 0. 4.09640430e-004 0. 0. 0. 1.42817933e-003
      7.08290027e-004 7.08290027e-004 0. -2.19388977e-002
      1.79239156e-004 1.81979049e-004 1.48176309e-003 0. 7.00367498e-004
      3.62671155e-004 0. 0. 0. 0. 0. 1.50933303e-003 0. 0. 0. 0.
      1.44382566e-003 0. 0. -1.96543112e-002 0. 7.66540354e-004
      2.73863814e-004 0. 2.98735988e-003 0. 0. 8.27950367e-004 0.
      2.36328589e-004 0. 0. 0. 0. 0. 0. 5.17179142e-004 0.
      4.80380579e-004 0. 1.07688562e-003 2.73863814e-004 0.
      5.47727628e-004 0. 0. 0. 3.76507262e-004 2.25398224e-004 0. 0. 0.
      2.96622049e-004 7.66540354e-004 0. 0. 0. 0. 0. 0. 0.
      1.48494984e-003 1.31769723e-003 0. 0. -1.82508007e-002
      3.03547335e-004 0. 3.04092863e-003 0. 0. 6.07094669e-004
      5.75396814e-004 0. 8.19280860e-004 1.97094725e-003 0. 0. 0. 0. 0.
      0. 0. 4.09640430e-004 2.25398224e-004 0. 3.35095974e-004
      6.71705930e-004 0. 0. 0. 2.35207728e-004 3.93933937e-004 0. 0.
      1.38264222e-004 0. 6.14012301e-004 0. 0. 0. 0. 2.40091220e-004
      4.01504221e-004 4.88534337e-004 0. 0. 0. 0. 0. 0. 1.35090027e-003
      0. 0. 0. 2.42233422e-004 0. 0. 2.75040395e-004 0. 0. 0. 0. 0. 0.
      0. 0. 1.44649326e-004 0. 0. 6.34101918e-004 0. 0. 1.30173634e-003
      5.03973162e-004 4.01504221e-004 0. 0. 0. 0. 0. 6.55346608e-004 0.
      0. 3.73433199e-004 0. 0. 0. 0. 1.79239156e-004 2.66445713e-004 0.
      0. 0. 0. 0. 1.62172283e-003 0. 0. 3.42116342e-004 0.
      7.34635396e-004 0. 0. 0. 0. 0. 0. 1.79239156e-004 9.66427440e-004
      0. 0. 0. 5.52396639e-004 0. 0. 1.54351431e-003 0. 0.
      3.48863658e-004 0. 2.99956708e-004 0. 3.48863658e-004 0. 0. 0. 0.
      5.03973162e-004 0. 8.25121184e-004 0. 6.58848614e-004
      3.42116342e-004 0. 1.81979049e-004 0. 0. 0. 0. 0. 0.
      2.28592689e-004 0. 2.35207728e-004 7.08290027e-004 0.
      7.39278912e-004 0. 4.26223414e-004 0. 0. 5.52396639e-004 0. 0.
      8.87894130e-004 0. 0. 8.37472093e-004 0. 0. 0. 0. 0.
      2.19190517e-003 7.84035714e-004 0. 0. 0. 0. 1.71357137e-003
      1.03670533e-003 6.34101918e-004 0. 0. 0. 0. 1.12036744e-003 0.
      2.45590485e-003 0. 0. 1.09595258e-003 0. 0. 2.08763825e-003
      6.34101918e-004 0. 8.87997914e-004 0. 0. 0. 0. 0. 0. 0. 0.
      -2.04081628e-002 0. 0. 1.67409517e-003 1.34616066e-003 0. 0. 0. 0.
      0. 0. 7.42474920e-004 0. 0. 0. 0. 0. 1.26723840e-003
      6.62227976e-004 0. 1.91454164e-004 0. 0. 0. 0. 8.75733327e-004 0.
      0. 0. 0. 0. 0. 0. 0. 0. 0. 0. 7.53852248e-004 1.15260715e-003 0.
      0. 1.81979049e-004 0. 0. 0. 1.31558359e-003 0. 0. 1.03670533e-003
      0. 0. 6.53152820e-004 0. -1.95513163e-002 4.37866664e-004
      3.77006771e-004 0. 7.67946942e-004 0. 0. 3.71819013e-004 0. 0.
      2.28978242e-004 0. 4.13113215e-004 6.93253649e-004 0. 0. 0. 0.
      8.13586521e-004 1.94961380e-004 0. 0. 4.37866664e-004
      2.42233422e-004 0. 0. 0. 1.30388583e-003 0. -2.38095243e-002 0.
      2.28978242e-004 3.23194894e-004 0. 0. 1.35973678e-004 0.
      3.32077005e-004 0. 6.34101918e-004 0. 1.97195637e-004 0. 0.
      7.84035714e-004 0. 1.81979049e-004 0. 3.50183749e-004
      4.59168572e-004 6.34101918e-004 1.03670533e-003 1.81979049e-004
      2.87698407e-004 1.39245181e-003 0. 0. 0. 4.01504221e-004 0.
      9.12910851e-004 0. 0. 0. 0. 0. 0. 0. 0. 0. 0. 1.09595258e-003
      4.43947065e-004 3.33225587e-004 0. 6.34101918e-004
      -2.38095243e-002 0. 0. 0. 2.75040395e-004 8.63095280e-004 0.
      1.44649326e-004 0. 0. 3.31336894e-004 0. 0. 0. 4.33249748e-004 0.
      0. 0. 3.32077005e-004 -2.06560064e-002 0. 0. 0. 0. 6.52288320e-004
      0. 0. 1.30388583e-003 0. 0. 9.43200197e-004 0. 0. 4.18736046e-004
      0. 0. 3.48863658e-004 7.96736334e-004 0. 1.97195637e-004 0. 0. 0.
      7.54666515e-004 0. 0. 0. 0. 0. 3.03547335e-004 6.46389788e-004
      3.26810242e-003 0. 1.65326335e-003 1.70804665e-003 0. 0. 0.
      1.20159553e-003 3.71819013e-004 5.52396639e-004 5.03973162e-004 0.
      0. 2.80294480e-004 5.47727628e-004 0. 0. 0. 8.27950367e-004
      1.04848191e-003 0. 0. 0. 1.81979049e-004 0. 0. 0. 0.
      9.82564176e-004 0. 0. 4.61518823e-004 0. 0. 5.25893993e-004
      6.43044361e-004 3.32077005e-004 0. 0. 4.57956485e-004 0. 0. 0. 0.
      1.52046431e-003 5.40574256e-004 3.76507262e-004 6.08482689e-004
      -2.26609241e-002 0. 0. 5.25893993e-004 8.27950367e-004
      4.61518823e-004 0. 1.03608600e-003 0. 1.79239156e-004
      3.63958097e-004 0. -2.28966139e-002 0. 2.71947356e-004
      2.73863814e-004 -4.76190485e-002 0. 1.63967256e-003
      6.13697455e-004 0. 0. 6.70191948e-004 0. 4.88534337e-004 0. 0. 0.
      0. 1.39098091e-003 0. 0. 0. 0. 0. 0. 0. 7.39278912e-004
      4.84466844e-004 3.88993253e-003 0. 1.97195637e-004 0. 0.
      1.44649326e-004 6.64180727e-004 0. 2.55918386e-003 0. 0. 0.
      1.09595258e-003 0. 0. 0. 0. 0. 4.43947065e-004 0. 0. 0. 0. 0. 0.
      0. 1.10479328e-003 0. 2.53330625e-004 9.66427440e-004 0. 0. 0. 0.
      1.91454164e-004 0. 0. 0. 3.69639456e-004 0. 0. 0. 1.07688562e-003
      1.03670533e-003 0. 4.43947065e-004 4.26223414e-004 0.
      9.95786628e-004 0. 0. 0. 1.35090027e-003 1.81979049e-004 0. 0. 0.
      1.53360632e-003 0. 0. 2.40091220e-004 0. 6.64154009e-004 0. 0. 0.
      0. 7.84035714e-004 0. 0. 0. 6.58848614e-004 0. 9.66427440e-004 0.
      0. 0. 0. 0. 0. 0. 1.60763226e-003 7.67946942e-004 1.44649326e-004
      0. 6.34101918e-004 0. 0. 0. 0. 4.43947065e-004 0. 0. 0. 0. 0. 0.
      1.06738706e-003 0. 3.50183749e-004 3.42909666e-003 3.93933937e-004
      2.01386074e-003 0. 0. 0. 6.06836053e-004 5.24240953e-004 0. 0.
      6.51942915e-004 0. 0. 0. 0. 4.01504221e-004 0. 6.08482689e-004
      3.40393803e-004 -2.38095243e-002 1.38264222e-004 0.
      7.84035714e-004 0. 0. 1.28699571e-003 9.66427440e-004 0. 0. 0. 0.
      4.80182440e-004 5.40574256e-004 0. 1.81979049e-004 9.12910851e-004
      3.03547335e-004 7.84035714e-004 0. -2.06827298e-002 0. 0.
      4.37866664e-004 0. 0. 0. 0. 1.56339724e-003 2.28978242e-004 0. 0.
      0. 0. 2.36328589e-004 2.59691314e-003 0. 0. 0. 0. 5.32891427e-004
      0. 0. 0. 1.84607529e-003 0. 0. 5.52396639e-004 0. 8.89843679e-004
      0. 1.38650730e-003 1.24258455e-003 0. 0. 0. 0. 1.07688562e-003
      1.36614323e-003 0. 0. 0. 0. 1.13617978e-003 3.21522180e-004 0.
      2.99956708e-004 0. 0. 0. 2.23139720e-003 8.87894130e-004 0. 0. 0.
      0. 6.34101918e-004 0. 8.27950367e-004 0. 0. 1.92879874e-004
      -2.27135718e-002 0. 3.21522180e-004 0. 0. 0. 0. 0. 0.
      1.93285488e-003 0. 4.33249748e-004 0. 0. 1.11569860e-003
      6.14012301e-004 0. 0. 0. 0. 0. 0. 0. 1.56807143e-003
      1.35090027e-003 -4.76190485e-002 0. 7.25342310e-004 0. 0. 0.
      1.47812953e-003 0. 0. 3.69639456e-004 3.03547335e-004 0.
      5.47727628e-004 0. 0. 6.08482689e-004 0. 0. 0. 0. 5.40360110e-003
      0. 0. 0. 0. 0. 4.43947065e-004 0. 8.25436902e-004 0. 0. 0. 0.
      1.36614323e-003 0. 1.44649326e-004 0. 4.09640430e-004
      2.99956708e-004 1.09595258e-003 0. 0. 1.04726199e-003 0.
      3.93933937e-004 0. 0. 0. 0. 0. 8.66287795e-004 3.89922759e-004
      1.38264222e-004 3.31336894e-004 1.97462598e-003 0. 0.
      1.26723840e-003 4.13113215e-004 0. 1.88253631e-004 0. 0. 0. 0. 0.
      9.12910851e-004 0. 0. 0. 2.35207728e-004 0. 0. 0. 5.40574256e-004
      2.35207728e-004 6.14012301e-004 5.17179142e-004 0. 0. 0. 0. 0. 0.
      0. 1.03670533e-003 1.44020224e-003 0. 2.36328589e-004 0. 0.
      1.38650730e-003 0. 0. 1.44649326e-004 0. 0. 0. 0. 3.79957550e-004
      0. 0. 1.09595258e-003 1.97195637e-004 1.56339724e-003 0. 0. 0. 0.
      5.52396639e-004 0. 7.53832050e-004 5.10991144e-004 0. 0. 0. 0. 0.
      1.03435828e-003 0. 6.52288320e-004 0. 0. 0. 0. 0. 1.91454164e-004
      0. 5.10991144e-004 0. 0. 3.48863658e-004 0. 0. 0. 4.88534337e-004
      0. 1.56339724e-003 0. 0. 0. 0. 0. 6.08482689e-004 0. 0.
      1.15260715e-003 0. 2.25398224e-004 0. 0. 5.17179142e-004
      2.13477411e-003 1.26820384e-003 1.11569860e-003 0. 0. 0. 0. 0.
      9.72490583e-004 0. 7.61221105e-004 9.79250413e-004 6.14012301e-004
      0. 1.14230637e-003 9.95786628e-004 0. 0. 0. 4.02772147e-003 0. 0.
      1.94961380e-004 1.44649326e-004 0. 7.61221105e-004 0.
      6.52288320e-004 0. 5.24240953e-004 0. 4.61518823e-004 0. 0. 0.
      5.52396639e-004 0. 5.40574256e-004 0. 0. 0. 0. 7.52833614e-004 0.
      0. 0. 0. 2.73863814e-004 1.44649326e-004 5.93244098e-004 0. 0.
      4.57956485e-004 0. 4.09842981e-003 5.06661250e-004 2.99956708e-004
      1.88503385e-004 4.33249748e-004 0. 8.19280860e-004 0. 0.
      1.09133858e-003 1.22545636e-003 0. 1.15260715e-003 1.06738706e-003
      2.36328589e-004 2.58385390e-003 0. 0. 0. 2.36328589e-004 0.
      4.06685658e-003 0. 0. 0. 0. 1.94961380e-004 0. 0. 2.53447681e-003
      1.48648117e-003 0. 3.40459170e-003 2.40091220e-004 3.48863658e-004
      0. 0. 1.11569860e-003 0. 1.91454164e-004 2.19190517e-003 0.
      8.75733327e-004 1.46958011e-003 0. 0. 0. 0. 0. 1.88911892e-003 0.
      0. 0. 0. 3.71819013e-004 5.17179142e-004 1.09133858e-003
      3.69639456e-004 8.26226431e-004 0. 0. 3.35095974e-004 0. 0.
      1.26723840e-003 0. 0. 4.43947065e-004 3.69639456e-004 0.
      1.35991431e-004 1.22802460e-003 0. 0. 9.77068674e-004 0.
      3.48863658e-004 2.89298652e-004 0. 0. 0. 4.56670154e-004
      2.30521429e-003 1.35090027e-003 0. 1.26723840e-003 0.
      1.03670533e-003 0. 0. 3.69639456e-004 0. 0. 3.42116342e-004 0.
      9.64403327e-004 0. 0. 0. 0. 0. 2.28592689e-004 4.61518823e-004 0.
      3.04092863e-003 1.09595258e-003 0. 0. -2.38095243e-002 0. 0. 0.
      4.07974323e-004 0. 0. 1.05907617e-003 3.40393803e-004
      2.36328589e-004 0. 6.34101918e-004 1.06417225e-003 7.61221105e-004
      0. 0. 7.42474920e-004 0. 3.89922759e-004 0. 2.80294480e-004
      2.35207728e-004 0. 5.40574256e-004 0. 2.40091220e-004 0. 0. 0. 0.
      0. 0. 0. 0. 0. 0. 0. 0. 7.84035714e-004 0. 0. 0. 3.31336894e-004
      0. 1.38264222e-004 0. 0. 0. 0. 0. 2.71982863e-004 0.
      2.68484768e-003 2.75040395e-004 0. 0. 0. 0. 2.13477411e-003 0.
      1.52046431e-003 5.03973162e-004 0. 0. 0. 1.97195637e-004 0.
      1.94961380e-004 -2.04081628e-002 4.82201664e-004 0.
      4.18736046e-004 0. 0. 1.03670533e-003 1.88503385e-004 0. 0. 0. 0.
      0. 8.56846804e-004 0. 1.31769723e-003 0. 3.42116342e-004 0.
      3.48863658e-004 0. 6.93253649e-004 0. 0. 0. 0. 0. 7.54666515e-004
      0. 0. 0. 0. 2.28592689e-004 0. 0. 0. 0. 0. 0. 0. 4.26223414e-004
      0. 0. 0. 1.38264222e-004 0. 0. 0. 0. 3.03547335e-004 0. 0. 0. 0.
      3.35095974e-004 0. -2.35059764e-002 1.56094623e-003
      1.38264222e-004 0. 0. 1.37009588e-003 0. 2.71947356e-004
      2.42233422e-004 0. 0. 0. 0. 1.21696538e-003 4.61518823e-004 0. 0.
      0. 0. 8.27950367e-004 0. 0. 0. 0. 7.08290027e-004 0.
      1.03670533e-003 0. 1.52046431e-003 0. 2.66445713e-004 0. 0.
      1.15260715e-003 3.62671155e-004 0. 0. 0. 0. 0. 6.93253649e-004
      3.82908329e-004 0. 0. 1.27974618e-003 0. 0. 0. 2.80294480e-004 0.
      0. 1.53589388e-003 0. 1.36614323e-003 8.89866147e-004 0. 0.
      4.18736046e-004 0. 2.35207728e-004 6.97767129e-004 6.93253649e-004
      0. 6.52288320e-004 0. 0. 3.93933937e-004 0. 0. 7.08290027e-004
      3.21522180e-004 0. 2.04415387e-003 0. 0. 0. 0. 0. 0. 0. 0.
      1.79239156e-004 0. 1.18180178e-003 1.30586384e-003 0. 0. 0. 0. 0.
      0. -2.28430964e-002 0. 3.62671155e-004 0. 1.15260715e-003
      1.97195637e-004 2.53330625e-004 0. 0. 0. 0. 0. 0. 0.
      8.56846804e-004 0. 1.91976363e-003 0. 0. 0. 5.50080789e-004
      1.29622221e-003 0. 2.25398224e-004 0. 6.93253649e-004
      7.61221105e-004 0. 1.38264222e-004 0. 3.85759748e-004
      4.82201664e-004 0. 7.42474920e-004 0. 0. 0. 5.03973162e-004 0. 0.
      4.43947065e-004 7.25342310e-004 0. 0. 0. 0. 0. 1.92879874e-004
      5.25893993e-004 0. 2.57467292e-003 0. 0. 0. 1.11569860e-003 0.
      2.47167842e-003 0. 0. 0. 0. 7.08290027e-004 0. 0. 0. 0.
      5.10991144e-004 4.37866664e-004 0. 0. 4.70415456e-004
      2.87698407e-004 5.50080789e-004 0. 0. 1.48727605e-003 0. 0.
      7.09735265e-004 0. 0. 0. 1.49693643e-003 0. 0. 1.97195637e-004 0.
      7.67946942e-004 0. 0. 3.35095974e-004 2.80294480e-004 0. 0. 0.
      -1.86903365e-002 0. 0. 0. 3.71819013e-004 0. 2.73863814e-004
      1.35973678e-004 0. 1.35090027e-003 1.54570048e-003 0. 0.
      2.96622049e-004 0. 5.25893993e-004 0. 0. 5.32525592e-004 0. 0.
      7.84035714e-004 4.43947065e-004 0. 6.47328736e-004 0.
      4.33249748e-004 3.35095974e-004 0. 0. 0. 3.12679447e-003 0.
      1.26723840e-003 2.15233047e-003 0. 0. 0. 0. 1.94961380e-004 0.
      1.94961380e-004 0. 6.70986890e-004 0. 0. 0. 1.21566642e-003 0.
      2.80294480e-004 1.88253631e-004 2.87698407e-004 6.51942915e-004
      2.53330625e-004 2.28978242e-004 9.95786628e-004 0. 0.
      2.36328589e-004 1.03670533e-003 0. 4.61518823e-004 0. 0.
      2.19480414e-003 0. 0. 0. 2.53330625e-004 6.52288320e-004 0.
      1.81979049e-004 1.88253631e-004 0. 0. 6.43044361e-004
      1.06738706e-003 0. 4.37866664e-004 0. 9.09630966e-004 0.
      1.92879874e-004 0. 8.01912625e-004 0. 1.35973678e-004 0. 0.
      1.11569860e-003 0. 0. 0. 0. -4.76190485e-002 0. 2.42233422e-004
      7.42474920e-004 0. 9.99525539e-004 6.70986890e-004 0. 0.
      9.23037645e-004 5.24240953e-004 0. 1.38264222e-004 1.07688562e-003
      0. 0. 0. 3.69639456e-004 0. 5.07903635e-004 1.02198229e-003 0. 0.
      0. 0. 0. 2.19190517e-003 1.44649326e-004 0. 4.09640430e-004 0. 0.
      1.56339724e-003 1.26820384e-003 0. 0. 0. 0. 0. 0. 0.
      1.15260715e-003 0. 1.97195637e-004 0. 0. 0. 0. 0. 5.18717803e-004
      0. 1.15260715e-003 0. 0. 0. 0. 2.53330625e-004 0. 1.74963882e-003
      0. 0. 0. 0. 0. 0. 3.35095974e-004 0. 0. 0. 5.10991144e-004 0. 0.
      0. 0. 0. 8.78448598e-004 3.94391274e-004 0. 0. 0. 1.03670533e-003
      0. 0. 6.34101918e-004 0. 0. 1.41658005e-003 2.70180055e-003 0. 0.
      0. 1.35973678e-004 0. 0. 0. 0. 0. 9.12910851e-004 5.10991144e-004
      0. 5.40574256e-004 0. 1.22802460e-003 0. 1.81979049e-004 0. 0.
      1.97195637e-004 0. 2.96622049e-004 0. 0. 0. 3.62671155e-004 0.
      6.46389788e-004 0. 0. 0. 1.99157326e-003 7.44474120e-004 0.
      8.27950367e-004 0. 5.17179142e-004 0. 0. 0. 4.26223414e-004 0. 0.
      0. 3.43565224e-003 0. 0. 0. 0. 2.53330625e-004 6.43044361e-004
      2.40091220e-004 0. 0. 1.57272280e-003 0. 2.76852725e-003 0.
      1.97195637e-004 5.03973162e-004 2.87698407e-004 0. 0.
      2.80294480e-004 0. 0. 9.56128642e-004 0. 0. 0. 1.94961380e-004 0.
      3.35095974e-004 1.21923105e-003 4.33249748e-004 0. 0.
      8.56846804e-004 8.27950367e-004 0. 0. 0. 5.24240953e-004
      1.81979049e-004 1.79239156e-004 0. 0. 0. 5.10991144e-004 0. 0.
      1.97195637e-004 0. 0. 0. 0. 0. 0. 0. 0. 9.12910851e-004
      -4.76190485e-002 0. 0. 0. 1.82582170e-003 2.14983453e-003 0. 0. 0.
      0. 6.58848614e-004 0. 0. 1.09595258e-003 0. 0. 0. 4.26223414e-004
      1.26723840e-003 1.26820384e-003 0. 0. 0. 0. 0. 0. 0.
      7.42474920e-004 1.88503385e-004 8.94536788e-004 0. 0. 0.
      7.61221105e-004 6.34101918e-004 3.23194894e-004 0. 0.
      1.22892135e-003 1.44649326e-004 6.34101918e-004 2.45910184e-003
      4.32347762e-004 0. 0. 0. 0. 0. 0. 1.07616524e-003 1.91454164e-004
      0. 0. 0. 0. 0. 7.84035714e-004 0. 1.35991431e-004 0. 0.
      8.27950367e-004 0. 5.24240953e-004 2.73863814e-004 0.
      -2.38095243e-002 6.46685774e-004 7.61221105e-004 0. 0. 0. 0. 0.
      2.42233422e-004 0. 0. 0. 0. 0. 0. 0. 6.09220588e-004
      3.48863658e-004 2.89298652e-004 0. 1.52046431e-003 4.82201664e-004
      0. 0. 4.26223414e-004 1.97195637e-004 6.52288320e-004 0.
      2.28978242e-004 0. 1.07616524e-003 0. 2.71982863e-004
      3.31336894e-004 0. 1.81979049e-004 0. 0. 0. 4.13113215e-004 0. 0.
      2.40091220e-004 0. 0. 0. 0. 3.83952726e-003 0. 4.37866664e-004
      4.61518823e-004 0. 7.66540354e-004 0. 0. 1.79239156e-004 0. 0.
      3.69639456e-004 0. 2.73863814e-004 0. 5.17179142e-004 0.
      5.25893993e-004 0. 0. 0. 3.03547335e-004 0. 9.43402527e-004 0. 0.
      0. 1.92879874e-004 0. 0. 0. 1.86815800e-003 0. 1.81979049e-004 0.
      2.99956708e-004 0. 1.35973678e-004 0. 0. 0. 7.67946942e-004 0.
      7.69943639e-004 0. 3.35095974e-004 0. -2.35805456e-002
      1.91976363e-003 6.51942915e-004 0. 0. 0. 8.27950367e-004 0. 0. 0.
      0. 0. 0. -9.52380970e-002 1.36614323e-003 2.96622049e-004 0. 0. 0.
      0. 0. 0. 0. 0. 0. 0. 0. 0. 0. 3.40393803e-004 0. 2.42233422e-004
      0. 0. 8.56846804e-004 1.81979049e-004 0. 1.52046431e-003 0.
      1.76661939e-003 0. 0. 0. 9.01169900e-004 5.75396814e-004
      -4.76190485e-002 0. 0. 0. 0. 0. 0. 2.42233422e-004 7.61221105e-004
      0. 8.47507094e-004 0. 0. 0. 0. 4.13113215e-004 0. 0. 0. 0.
      5.93244098e-004 0. 6.34101918e-004 3.43565224e-003 0.
      1.81979049e-004 0. 0. 0. 7.84035714e-004 7.39278912e-004 0. 0.
      9.12910851e-004 0. 1.97195637e-004 0. 0. 2.96622049e-004 0.
      1.37971260e-003 0. 8.56846804e-004 0. 1.91976363e-003
      6.46685774e-004 0. 0. 0. 1.91976363e-003 0. 0. 0. 0.
      8.27950367e-004 0. 0. 0. 0. 8.27950367e-004 4.82201664e-004 0.
      3.71819013e-004 6.79988472e-004 0. 0. 0. 0. 0. 0. 0.
      3.12679447e-003 0. 0. 7.66540354e-004 3.32902971e-004 0. 0. 0. 0.
      1.02249847e-003 0. 1.97195637e-004 0. 5.52396639e-004 0.
      2.15377123e-003 0. 0. 0. 0. 4.09640430e-004 0. 0. 0. 0. 0.
      3.21522180e-004 0. 0. 0. 0. 0. 0. 0. 0. 0. 0. 0. 0. 0. 0.
      7.54666515e-004 0. 0. 0. 0. 0. 4.09640430e-004 0. 0.
      6.08482689e-004 0. 0. 0. 0. 2.75040395e-004 0. 1.93285488e-003
      7.54666515e-004 8.01912625e-004 0. 0. 0. 0. 3.42116342e-004
      1.97195637e-004 0. 0. 4.09640430e-004 1.91976363e-003 0.
      5.10991144e-004 0. 1.97195637e-004 0. 3.12679447e-003
      4.62367199e-004 1.26723840e-003 2.28978242e-004 2.48385104e-003 0.
      0. 0. 0. 0. 0. 0. 1.91454164e-004 7.66540354e-004 0.
      1.00491208e-003 0. 0. 4.37866664e-004 2.28592689e-004
      7.54666515e-004 5.17179142e-004 6.14012301e-004 0. 0.
      5.12074097e-004 1.09432125e-003 0. 0. 3.93933937e-004
      3.03547335e-004 0. 0. 0. 0. 1.03435828e-003 0. 0. 5.17179142e-004
      0. 0. 4.68683895e-004 0. 0. 0. 0. 0. 0. 0. 0. 0. 0. 0.
      8.26260424e-004 0. 0. 5.52396639e-004 0. 0. 0. 0. 0. 0. 0. 0. 0.
      3.04092863e-003 0. 8.27950367e-004 0. 0. 0. 0. 0. 5.17179142e-004
      0. 2.28592689e-004 0. 4.01504221e-004 0. 0. 0. 2.36328589e-004
      1.01824873e-003 0. 0. 3.93933937e-004 2.73863814e-004 0. 0.
      3.93933937e-004 1.92879874e-004 0. 0. 0. 0. 0. 0. 0.
      2.73863814e-004 0. 0. 0. 0. 0. 0. 0. 0. 0. 0. 2.40091220e-004
      1.35991431e-004 0. 0. 4.56670154e-004 0. 4.43947065e-004 0. 0.
      1.52046431e-003 0. 2.28978242e-004 0. 0. 0. -2.38095243e-002 0. 0.
      0. 1.07616524e-003 0. 1.91454164e-004 0. 0. 0. 8.21591413e-004 0.
      2.15497124e-003 0. 4.26223414e-004 0. 0. 1.28445588e-003
      2.80294480e-004 0. 0. 0. 0. 0. 0. 0. -1.80841852e-002 0. 0. 0. 0.
      2.53330625e-004 0. 0. 2.28978242e-004 2.35207728e-004 0. 0. 0. 0.
      4.26223414e-004 0. 1.35090027e-003 0. 0. 0. 0. 0. 0.
      6.14012301e-004 0. 0. 2.66445713e-004 0. 0. 0. -2.02687625e-002 0.
      0. 0. 0. 7.08290027e-004 0. 0. 0. 0. 0. 2.96622049e-004
      7.28827901e-004 7.42474920e-004 3.31336894e-004 0. 0.
      1.38264222e-004 0. 0. 0. 5.52396639e-004 6.08482689e-004
      1.12517923e-003 0. 2.73863814e-004 4.09640430e-004 0. 0. 0. 0.
      3.31336894e-004 1.91976363e-003 6.51942915e-004 0. 0. 0.
      7.84035714e-004 0. 0. 4.26223414e-004 3.69639456e-004 0.
      2.35207728e-004 7.61221105e-004 0. 0. 2.75040395e-004
      4.12322907e-003 0. 3.35095974e-004 7.13935355e-004 0. 0. 0.
      3.71819013e-004 0. 0. 0. 0. 0. 0. 2.75040395e-004 0.
      1.97195637e-004 7.42474920e-004 0. 9.12910851e-004 6.46685774e-004
      7.08290027e-004 0. 0. 0. 1.07688562e-003 0. 0. 8.87894130e-004
      5.03973162e-004 0. 0. 0. 0. 0. 0. 0. 5.03973162e-004 0. 0.
      1.56339724e-003 0. 0. 0. 0. 0. 5.47727628e-004 0. 2.07341067e-003
      8.75272613e-004 3.21522180e-004 0. 1.44649326e-004 0.
      8.56846804e-004 0. 3.42116342e-004 0. 0. 0. 0. 0. 5.10991144e-004
      0. 0. 0. 9.21899802e-004 0. 0. 4.09640430e-004 0. 0. 0. 0.
      4.82201664e-004 8.88214970e-004 0. 2.71947356e-004 1.88503385e-004
      4.09640430e-004 0. 0. 5.60588960e-004 8.75272613e-004
      7.66540354e-004 1.32440368e-003 5.03973162e-004 0. 0.
      6.70986890e-004 0. 0. 0. 0. 0. 4.26223414e-004 0. 2.40091220e-004
      0. 0. 7.67946942e-004 0. 0. 0. 0. 0. 2.19190517e-003
      1.91976363e-003 2.36328589e-004 0. 1.15260715e-003 0. 0. 0. 0.
      4.88534337e-004 0. 0. 4.13113215e-004 3.93933937e-004 0.
      5.25893993e-004 2.40091220e-004 0. 0. 9.95786628e-004 0.
      1.56339724e-003 0. 1.71932997e-003 0. 0. 0. 0. 0. 0. 0. 0.
      5.40574256e-004 0. 0. 0. 1.50770450e-003 0. 7.53852248e-004 0. 0.
      0. 0. 1.35973678e-004 6.14012301e-004 4.33249748e-004 0. 0. 0.
      1.56807143e-003 0. 3.48863658e-004 0. 4.37866664e-004
      4.37866664e-004 0. 1.91454164e-004 0. 0. 0. 0. 6.52288320e-004
      2.28978242e-004 0. 0. 0. 0. 0. 1.13414461e-003 0. 0. 0.
      1.94961380e-004 0. 0. 0. 1.36614323e-003 1.09595258e-003 0. 0.
      1.70984853e-003 0. 0. 0. 0. 2.70180055e-003 0. 0. 0. 0. 0. 0. 0.
      1.88503385e-004 0. 7.53852248e-004 4.88534337e-004 0. 0. 0.
      5.24240953e-004 0. 0. 0. 0. 0. 7.53852248e-004 5.17179142e-004 0.
      2.66445713e-004 0. 0. 2.66445713e-004 1.35090027e-003 0.
      2.25398224e-004 0. 3.23194894e-004 3.77006771e-004 2.00126390e-003
      0. 3.71819013e-004 6.46685774e-004 0. 3.30501096e-003 0.
      1.35973678e-004 0. 1.04908727e-003 2.42233422e-004 0. 0. 0.
      8.19280860e-004 0. 3.48863658e-004 0. 0. 4.09640430e-004 0.
      1.88503385e-004 0. 0. 0. 0. 0. 3.69639456e-004 4.27326513e-003 0.
      0. 0. 1.15260715e-003 4.26223414e-004 0. 1.33184122e-003
      1.91454164e-004 0. 0. 2.28592689e-004 2.75040395e-004
      1.94961380e-004 0. 0. 6.52288320e-004 2.87698407e-004
      1.76941883e-003 0. 7.84035714e-004 0. 2.36328589e-004
      1.11569860e-003 6.51942915e-004 2.99956708e-004 2.01386074e-003
      8.27950367e-004 0. 0. 0. 0. 1.48770306e-003 6.58848614e-004 0. 0.
      0. 0. 4.82201664e-004 0. 0. 0. 0. 0. 0. 0. 0. 0. 6.58848614e-004
      6.52288320e-004 3.21522180e-004 1.11569860e-003 3.31336894e-004 0.
      0. 2.28592689e-004 2.28978242e-004 0. 4.33249748e-004
      1.35991431e-004 7.84035714e-004 0. 0. 8.19280860e-004 0. 0. 0.
      3.62671155e-004 0. 0. 5.03973162e-004 0. 0. 0. 0. 0.
      3.50183749e-004 0. 0. 0. 0. 0. 0. 0. 6.14012301e-004
      5.24240953e-004 3.35095974e-004 0. 2.25398224e-004
      -1.88591667e-002 0. 7.84035714e-004 6.34101918e-004
      2.73863814e-004 0. 0. 0. 5.40574256e-004 5.24240953e-004 0. 0.
      9.66427440e-004 0. 0. 3.32077005e-004 0. 0. 0. 0. 5.50080789e-004
      2.70530721e-003 0. 0. 1.30624883e-003 0. 1.81979049e-004 0.
      3.48863658e-004 0. 2.36328589e-004 0. 0. 0. 2.99956708e-004
      6.46685774e-004 0. 0. 0. 0. 0. 4.33249748e-004 0. 0.
      1.88503385e-004 0. 3.69639456e-004 0. 1.38264222e-004 0. 0.
      2.31992966e-003 0. 0. 5.52396639e-004 0. 0. 0. 0. 9.95786628e-004
      0. 0. 0. 1.44649326e-004 0. 0. 4.98483935e-003 5.58142841e-004
      4.88534337e-004 0. 4.13113215e-004 0. 0. 0. 0. 6.46685774e-004 0.
      0. 5.10991144e-004 0. 1.06738706e-003 0. 0. 0. -1.96241271e-002 0.
      0. 6.34101918e-004 1.71782612e-003 0. 0. 0. 1.97195637e-004
      3.62671155e-004 0. 0. 0. 9.46732122e-004 6.08482689e-004
      3.69639456e-004 0. 0. 0. 0. 0. 0. 1.91976363e-003 0. 0.
      7.66540354e-004 0. 0. 0. 1.07688562e-003 2.02598725e-003 0.
      7.61221105e-004 0. -2.38095243e-002 7.54666515e-004
      3.71819013e-004 0. 0. 7.08290027e-004 0. 0. 2.30521429e-003
      2.19041784e-003 0. 0. 0. 0. 7.84035714e-004 1.35991431e-004
      1.88253631e-004 9.66427440e-004 0. 0. 1.07688562e-003 0. 0. 0. 0.
      0. 1.31079159e-003 0. 1.04848191e-003 0. 0. 1.97195637e-004
      2.75040395e-004 9.64403327e-004 8.87894130e-004 6.51942915e-004
      1.52046431e-003 0. 0. 0. 0. 0. 0. 0. 0. 0. 0. 0. 0.
      4.22060164e-003 0. 0. 7.84035714e-004 0. 0. 7.54666515e-004
      7.43638026e-004 0. 0. 0. 0. 8.87894130e-004 0. 0. 0. 0.
      4.57956485e-004 0. 1.31065992e-003 0. 0. 0. 0. 3.32077005e-004 0.
      0. 0. 0. 7.61221105e-004 0. 5.03973162e-004 1.11569860e-003 0. 0.
      0. 1.36614323e-003 6.52288320e-004 0. 3.39111243e-003 0. 0.
      1.79239156e-004 0. 0. 0. 0. 0. 0. 0. 1.52046431e-003
      5.11698250e-004 0. 1.26723840e-003 0. 0. 3.93933937e-004 0. 0. 0.
      5.03973162e-004 0. 0. 0. 0. 4.43947065e-004 0. 3.69639456e-004 0.
      0. 0. 3.32077005e-004 0. 0. 5.40574256e-004 1.52046431e-003 0. 0.
      -2.38095243e-002 0. 0. 0. 0. 5.52396639e-004 0. 0. 0. 0. 0.
      1.07616524e-003 0. 0. 0. 0. 0. 0. 0. -2.31012348e-002 0. 0.
      1.92879874e-004 0. 0. 2.73863814e-004 0. 6.99494558e-004
      4.26223414e-004 0. 0. 0. -1.40242102e-002 4.18513140e-004 0.
      1.50770450e-003 0. 1.79239156e-004 1.38264222e-004 0. 0.
      1.35991431e-004 6.70986890e-004 0. 4.26223414e-004 0. 0.
      5.24240953e-004 0. 0. 0. 2.87698407e-004 0. 1.30388583e-003
      2.66445713e-004 4.37866664e-004 0. 0. 0. 0. 0. 2.13477411e-003 0.
      0. 2.66445713e-004 0. 0. 0. 1.15260715e-003 6.93253649e-004 0. 0.
      0. 0. 1.97195637e-004 4.43947065e-004 1.30457664e-003 0. 0. 0. 0.
      0. 0. 0. 0. 0. 0. -2.30917130e-002 0. 1.91454164e-004 0. 0. 0. 0.
      2.66445713e-004 0. 3.89922759e-004 0. 0. 0. 0. 0. 0.
      5.70709060e-004 0. 2.73863814e-004 3.71819013e-004 0.
      3.62671155e-004 0. 0. 0. 2.28592689e-004 0. 0. 2.42233422e-004 0.
      7.84035714e-004 7.67946942e-004 0. 7.53852248e-004 2.36328589e-004
      0. 0. 0. 0. 0. 0. 0. 0. 3.62671155e-004 0. 0. 0. 0. 0. 0.
      1.15260715e-003 1.79313240e-003 0. 3.35095974e-004 0. 0. 0.
      3.35095974e-004 0. 9.12910851e-004 0. 0. 0. 0. 0. 0. 0. 0.
      4.33249748e-004 0. 0. 0. 0. 1.53308071e-003 5.40574256e-004
      1.81979049e-004 1.90928031e-003 0. 7.54666515e-004 0. 0.
      2.19190517e-003 0. 0. 0. 0. 1.44649326e-004 0. 9.12910851e-004
      1.15260715e-003 0. 0. 0. 8.14538507e-004 0. 0. 0. 7.54666515e-004
      1.86757231e-003 0. 0. 0. 0. 0. 4.61518823e-004 3.48863658e-004
      2.19310005e-003 2.53330625e-004 0. 0. 0. 1.07688562e-003 0. 0. 0.
      0. 0. 0. 0. 0. 4.88534337e-004 0. 0. 0. 0. 0. 4.32347762e-004 0.
      2.35207728e-004 0. 0. 0. 0. 0. 0. 1.40896265e-003 -2.04081628e-002
      1.35991431e-004 0. 4.02772147e-003 1.38650730e-003 0. 0. 0.
      7.53852248e-004 0. 0. 0. 0. 0. 0. 0. 1.44649326e-004 0. 0.
      5.52396639e-004 1.94961380e-004 0. 3.48863658e-004 2.35207728e-004
      1.65384170e-003 0. 1.35973678e-004 0. 1.11569860e-003 0.
      1.88253631e-004 0. 0. 0. 6.70986890e-004 0. 0. 1.88503385e-004
      2.28978242e-004 0. 0. 0. 0. 0. 1.35090027e-003 9.66427440e-004 0.
      0. 0. 0. 0. 0. 7.68339785e-004 0. 0. 2.36328589e-004
      1.88503385e-004 1.36614323e-003 0. 0. 1.30179536e-003
      2.96622049e-004 4.13113215e-004 0. 0. 0. 0. 1.36614323e-003
      1.15260715e-003 0. 0. 0. 2.66445713e-004 0. 6.14012301e-004
      8.26226431e-004 0. 0. 1.07688562e-003 0. 3.23194894e-004
      1.36614323e-003 9.95786628e-004 1.44649326e-004 0. 1.88253631e-004
      0. 0. 8.56846804e-004 5.03973162e-004 0. 0. 0. 7.24699115e-004 0.
      2.36328589e-004 1.70244335e-003 4.26223414e-004 0. 0.
      6.46685774e-004 0. 1.91454164e-004 0. 0. 1.92879874e-004
      6.08482689e-004 0. 0. 0. 0. 0. 0. 0. 0. 0. 2.75040395e-004
      4.37866664e-004 2.75040395e-004 0. 0. 0. 0. 0. 0. 0. 0. 0. 0. 0.
      0. 0. 0. 0. 8.27950367e-004 0. 0. 1.03670533e-003 0. 0. 0. 0.
      3.21522180e-004 0. 3.31336894e-004 0. 0. -4.70105670e-002 0. 0. 0.
      0. 2.74508144e-003 0. 6.14012301e-004 1.94961380e-004 0. 0.
      2.28978242e-004 4.56670154e-004 0. 5.17179142e-004 6.58848614e-004
      0. 0. 0. 0. 4.18736046e-004 2.40091220e-004 0. 0. 3.40393803e-004
      0. 0. 0. 0. 6.52288320e-004 0. 0. 0. 0. 1.44649326e-004 0.
      3.21522180e-004 0. 0. 0. 1.65590073e-003 0. 9.12910851e-004 0.
      1.31769723e-003 0. 1.03670533e-003 0. 0. 6.93253649e-004 0. 0. 0.
      1.88253631e-004 2.18620943e-003 0. 2.40091220e-004 2.23139720e-003
      8.75272613e-004 6.93253649e-004 2.71947356e-004 2.28592689e-004 0.
      0. 0. 8.03008443e-004 1.15223706e-003 0. -3.94501835e-002 0.
      3.42116342e-004 0. 0. -2.04081628e-002 1.94961380e-004 0. 0. 0. 0.
      0. 6.34101918e-004 0. 2.36328589e-004 0. 0. 2.73863814e-004
      1.03670533e-003 0. 2.80294480e-004 4.01504221e-004 0.
      7.84035714e-004 2.87698407e-004 0. 0. 0. 0. 4.88534337e-004 0.
      5.82515961e-004 0. 0. 1.09133858e-003 0. 0. 0. 1.07000151e-003 0.
      0. 0. 0. 7.66540354e-004 0. 6.62673789e-004 0. 0. 0. 0.
      3.50183749e-004 0. 0. 2.80294480e-004 0. 4.09640430e-004 0. 0.
      3.42116342e-004 1.97195637e-004 0. 0. 0. 0. 0. 0. 0.
      3.23194894e-004 0. 0. 5.54289785e-004 0. 6.51942915e-004 0. 0. 0.
      0. 0. 3.48863658e-004 0. 0. 6.51942915e-004 0. 0. 5.24240953e-004
      0. 5.24240953e-004 0. 1.56339724e-003 3.23194894e-004
      1.91454164e-004 3.50183749e-004 0. 0. 1.26723840e-003
      1.88503385e-004 6.70986890e-004 1.51527824e-003 3.93933937e-004
      3.71819013e-004 2.96622049e-004 0. 0. 0. 0. 1.94961380e-004 0.
      1.35090027e-003 5.52396639e-004 0. 1.26723840e-003 0. 0.
      1.94961380e-004 0. 1.72271917e-003 4.56670154e-004 0.
      6.55064650e-004 2.40091220e-004 3.21522180e-004 1.92879874e-004 0.
      2.13477411e-003 0. 0. 8.27950367e-004 0. 0. 5.03973162e-004 0. 0.
      0. 0. 0. 0. 0. 0. 7.79043068e-004 0. 4.09640430e-004 0. 0.
      1.56339724e-003 1.56339724e-003 0. 0. 0. 0. 0. 2.28978242e-004 0.
      8.56846804e-004 2.96622049e-004 1.52046431e-003 1.74264831e-003
      1.56807143e-003 2.66445713e-004 7.66540354e-004 0. 0. 0. 0.
      2.40091220e-004 0. 0. 0. 0. 0. 9.49474750e-004 1.52046431e-003 0.
      0. 0. 0. 0. 0. 0. 0. 0. 0. 2.80294480e-004 1.49232568e-003 0.
      3.57162580e-003 0. 0. 0. 1.07688562e-003 0. 1.91454164e-004 0.
      3.93933937e-004 9.95786628e-004 0. 0. 0. 0. 2.28978242e-004
      2.25398224e-004 0. 4.26223414e-004 5.52396639e-004 3.93933937e-004
      0. 0. 0. 0. 0. 0. 0. 6.08482689e-004 0. 9.95786628e-004
      3.48863658e-004 1.94961380e-004 3.71819013e-004 0. 1.44649326e-004
      0. 2.40091220e-004 0. 0. 3.32077005e-004 4.88534337e-004
      2.73863814e-004 0. 3.40393803e-004 1.88253631e-004 0. 0. 0. 0. 0.
      0. 0. 0. 4.13113215e-004 0. 0. 0. 1.52046431e-003 3.31336894e-004
      0. 1.30388583e-003 0. 0. 0. 0. 7.08290027e-004 0. -2.04081628e-002
      0. 0. 1.11569860e-003 0. 0. 0. 0. 2.35207728e-004 0.
      1.97254540e-003 0. 0. 0. 0. 0. 0. 0. 0. 1.88253631e-004 0. 0. 0.
      5.10991144e-004 2.19190517e-003 0. 0. 0. 2.87698407e-004 0. 0.
      1.35991431e-004 0. 0. 2.40091220e-004 0. 6.14012301e-004
      4.82201664e-004 0. 0. 0. 1.88253631e-004 0. 1.83310185e-003
      1.33164693e-003 0. 0. 2.28978242e-004 0. 1.52046431e-003
      8.27950367e-004 0. 0. 1.24709168e-003 0. 0. 0. 0. 0. 0. 0. 0. 0.
      0. 0. 0. 0. 0. 0. 0. 1.50770450e-003 5.41910296e-004
      5.60588960e-004 0. 0. 6.58848614e-004 4.82201664e-004 0.
      4.18736046e-004 0. 0. 0. 0. 7.84035714e-004 0. 0. 0. 0. 0. 0. 0.
      0. 0. 0. 6.14012301e-004 0. 0. 1.35973678e-004 0. 0. 0. 0. 0. 0.
      1.94961380e-004 0. 0. 3.32077005e-004 5.17179142e-004 0. 0.
      2.18358636e-003 0. 0. 5.60588960e-004 0. 1.97195637e-004 0.
      2.53330625e-004 3.23194894e-004 0. 0. 9.12910851e-004 0. 0. 0.
      5.25893993e-004 0. 1.94961380e-004 0. 0. -2.38095243e-002 0. 0. 0.
      1.79239156e-004 0. 0. 3.31336894e-004 5.84667549e-004 0. 0. 0. 0.
      3.03547335e-004 0. 0. 0. 1.99157326e-003 0. 0. 0. 0.
      5.40574256e-004 4.37866664e-004 0. 0. 0. 4.43947065e-004 0.
      3.23194894e-004 2.36328589e-004 0. 1.03670533e-003 0. 0. 0.
      4.33249748e-004 0. 0. 0. 0. 1.94961380e-004 0. 0. 3.35498969e-003
      2.36328589e-004 1.35973678e-004 0. 0. 0. 2.76528444e-004 0.
      7.61221105e-004 0. 5.03973162e-004 0. 4.13113215e-004
      5.40574256e-004 0. 3.62671155e-004 0. 0. 3.58478312e-004
      3.23194894e-004 6.58848614e-004 2.76528444e-004 8.37460917e-004
      5.52396639e-004 4.13113215e-004 1.44649326e-004 2.61179358e-003 0.
      0. 0. 1.03670533e-003 0. 0. 0. 0. 1.26723840e-003 0.
      2.42233422e-004 0. 0. 0. 6.46685774e-004 0. 0. 0. 0. 0. 0. 0.
      2.87698407e-004 7.14397349e-004 0. 6.51942915e-004 0. 0.
      8.75733327e-004 4.43947065e-004 1.94961380e-004 2.40091220e-004
      1.88503385e-004 0. 0. 0. 0. 0. 1.50213472e-003 0. 0.
      4.82201664e-004 2.75040395e-004 0. 0. 1.94961380e-004 0. 0. 0. 0.
      0. 0. 0. 8.56846804e-004 4.26223414e-004 -2.38095243e-002 0. 0. 0.
      0. 0. 0. 0. 0. 0. 1.11569860e-003 3.82908329e-004 0. 0.
      6.58848614e-004 1.16624148e-003 0. 1.15260715e-003 1.15260715e-003
      0. 4.37866664e-004 2.42233422e-004 0. 4.01504221e-004
      3.48863658e-004 0. 0. 5.10991144e-004 6.48820365e-004 0. 0. 0. 0.
      0. 0. 0. 0. 0. 0. 0. 0. 3.35095974e-004 0. 0. 2.73863814e-004
      4.88534337e-004 0. 3.71819013e-004 0. 0. 1.09595258e-003 0.
      5.99913415e-004 0. 0. 3.93933937e-004 0. 0. 0. 0. 1.88253631e-004
      0. 1.99157326e-003 2.87698407e-004 3.31336894e-004 0. 0.
      4.56670154e-004 0. 0. 0. 1.88253631e-004 7.53852248e-004
      7.08290027e-004 0. 2.87698407e-004 0. 0. 0. 1.05156540e-003 0. 0.
      0. 7.53852248e-004 0. 4.09640430e-004 5.03973162e-004
      8.66499497e-004 1.94961380e-004 0. 2.53330625e-004 0.
      2.40091220e-004 0. 0. 0. 0. 0. 6.41142717e-004 0. 0. 0.
      8.56846804e-004 1.44196267e-003 0. 1.06738706e-003 0. 0. 0.
      6.58848614e-004 0. 0. 0. 0. 4.88534337e-004 0. 0. 0.
      1.35090027e-003 0. 0. 2.36328589e-004 0. 0. 0. 3.35095974e-004 0.
      0. 0. 0. 0. 0. 0. 0. 6.46685774e-004 0. 0. 0. 0. 1.15515501e-003
      0. 0. 0. 0. 4.79745300e-004 1.97195637e-004 1.74868328e-003 0.
      1.52046431e-003 2.73863814e-004 6.14012301e-004 7.84035714e-004
      6.34101918e-004 0. 3.40393803e-004 1.38264222e-004 1.44649326e-004
      0. 0. 1.79239156e-004 1.22802460e-003 0. 0. 0. 5.40574256e-004
      4.09640430e-004 0. 3.93933937e-004 0. 5.24240953e-004 0.
      7.69552542e-004 0. 1.91454164e-004 0. 0. 0. 0. 1.38264222e-004
      3.62671155e-004 0. 9.66427440e-004 3.03547335e-004 0. 0. 0. 0. 0.
      0. 0. 0. 0. 7.42474920e-004 1.26723840e-003 4.56670154e-004
      2.15609232e-003 0. 2.73863814e-004 0. 0. 0. 0. 9.12910851e-004 0.
      0. 0. 0. 0. 0. 7.42474920e-004 0. 0. 0. 2.66445713e-004
      1.35090027e-003 0. 0. 0. 0. 0. 0. 3.42116342e-004 0. 0.
      3.69639456e-004 0. 0. 1.30388583e-003 0. 0. 5.24240953e-004
      3.31336894e-004 0. 0. 6.51942915e-004 3.71819013e-004
      1.79239156e-004 0. 0. 0. 0. 0. 1.03670533e-003 7.84035714e-004
      1.44649326e-004 0. 1.35973678e-004 3.83952726e-003 1.38264222e-004
      0. 0. 5.03973162e-004 0. 0. 0. 0. 0. 0. 0. 0. 0. 0.
      8.56846804e-004 1.88253631e-004 0. 0. -3.94654237e-002 0. 0.
      1.88253631e-004 -1.87016334e-002 0. 0. 3.94391274e-004 0.
      1.91976363e-003 0. 9.12910851e-004 1.07688562e-003 0.
      5.40574256e-004 0. 6.58848614e-004 0. 0. 1.09693804e-003 0. 0.
      4.43947065e-004 0. 2.96622049e-004 0. 0. 0. 0. 1.91976363e-003 0.
      1.94961380e-004 0. 0. 0. 1.26820384e-003 0. 0. 0. 2.75040395e-004
      0. 0. 0. 6.52288320e-004 1.79239156e-004 1.81979049e-004 0. 0. 0.
      0. 2.70180055e-003 1.94961380e-004 0. 0. 0. 0. 3.35095974e-004 0.
      0. 0. 0. 0. 7.66540354e-004 0. 0. 0. 0. 0. 1.71369361e-003 0.
      2.73863814e-004 1.44649326e-004 7.54666515e-004 1.44649326e-004 0.
      0. 8.75272613e-004 0. 0. 0. 2.99956708e-004 3.21522180e-004 0. 0.
      0. 0. 0. 0. 0. 0. 0. 4.88534337e-004 7.67946942e-004 0. 0.
      2.42233422e-004 0. 6.58848614e-004 0. 0. 0. 0. 0. 0.
      3.50183749e-004 0. 0. 1.91454164e-004 1.91976363e-003
      1.88503385e-004 3.23194894e-004 6.70191948e-004 2.40091220e-004
      1.35973678e-004 0. 2.28978242e-004 0. 3.93933937e-004 0. 0. 0. 0.
      0. 7.84035714e-004 1.06453849e-003 0. 1.38264222e-004
      1.01850473e-003 4.70415456e-004 1.99157326e-003 2.53330625e-004
      1.44649326e-004 4.09640430e-004 0. 0. 0. 0. 4.82201664e-004 0. 0.
      0. 0. 0. 1.35973678e-004 0. 0. 2.40091220e-004 4.80182440e-004 0.
      0. 0. 0. 0. 0. 6.51942915e-004 0. 0. 0. 0. 0. 0. 6.08482689e-004
      0. 0. 2.80294480e-004 7.53852248e-004 1.09595258e-003
      1.81979049e-004 0. 0. 0. 0. 0. 0. 0. 0. 0. 0. 0. 6.46685774e-004
      0. 2.75040395e-004 0. 0. 0. 0. 0. 5.24240953e-004 0. 0.
      4.01504221e-004 0. 2.25398224e-004 0. 0. 0. 0. 0. 0.
      1.44649326e-004 0. 0. 0. 1.79239156e-004 1.09595258e-003 0. 0.
      7.84035714e-004 0. 0. 0. 0. 0. 0. 0. 0. 0. 0. 0. 0. 0. 0.
      1.71782612e-003 2.73863814e-004 2.53330625e-004 7.54980021e-004 0.
      0. 0. 0. 0. 3.35095974e-004 0. 0. 9.82829253e-004 0.
      1.36614323e-003 0. 0. 0. 1.90411555e-003 0. 1.52046431e-003
      1.94961380e-004 1.14137412e-003 6.58848614e-004 7.53852248e-004 0.
      0. 2.25398224e-004 0. 0. 2.87698407e-004 0. 0. 3.27445596e-004 0.
      2.87698407e-004 0. 5.47727628e-004 0. 0. 0. 0. 0. 6.46685774e-004
      0. 2.96622049e-004 0. 0. 0. 0. 2.36328589e-004 2.30521429e-003 0.
      6.51942915e-004 0. 0. 0. 4.26223414e-004 0. 1.11781037e-003 0. 0.
      0. 0. 0. 7.08290027e-004 4.43947065e-004 5.10991144e-004 0.
      1.97195637e-004 2.36328589e-004 1.79239156e-004 0. 0. 0. 0. 0. 0.
      1.88503385e-004 2.53330625e-004 0. 0. 0. 3.62671155e-004 0. 0. 0.
      5.03973162e-004 0. 0. 0. 0. 8.27950367e-004 0. 0. 0. 0.
      4.33249748e-004 0. 0. 0. 0. 5.47727628e-004 -2.38095243e-002 0. 0.
      0. 0. 0. 0. 0. 0. 6.46805798e-004 0. 5.40574256e-004
      6.93253649e-004 0. 3.69639456e-004 5.10991144e-004 0. 0.
      2.07976089e-003 0. 0. 0. 0. 0. 0. 2.01386074e-003 1.36614323e-003
      6.70191948e-004 4.88534337e-004 7.54666515e-004 0. 0. 0.
      7.66540354e-004 2.71982863e-004 7.08290027e-004 0. 2.99956708e-004
      0. 0. 5.32891427e-004 0. 0. 0. 8.73612589e-004 -2.38095243e-002 0.
      0. 0. 0. 0. 6.84232684e-004 0. 7.53852248e-004 2.28592689e-004
      2.80294480e-004 3.62671155e-004 0. 0. 6.52288320e-004
      6.93253649e-004 5.60588960e-004 0. 0. 0. 4.64921264e-004 0. 0.
      5.95385965e-004 2.35207728e-004 0. 1.48494984e-003 0. 0.
      1.79239156e-004 8.27950367e-004 0. 0. 0. 0. 0. 0. 0. 0.
      6.46685774e-004 3.40393803e-004 0. 0. 0. 0. 2.87698407e-004
      9.12910851e-004 0. 0. 2.28978242e-004 3.50183749e-004
      6.58848614e-004 0. 0. 0. 6.93253649e-004 0. 0. 0. 0.
      1.38264222e-004 0. 0. 9.31651390e-004 0. 3.35095974e-004 0. 0. 0.
      0. 0. 0. 3.40393803e-004 0. 0. 0. 4.82201664e-004 0. 0. 0.
      1.36614323e-003 2.40091220e-004 7.39278912e-004 0. 7.54666515e-004
      0. 0. 0. 0. 9.66427440e-004 0. 0. 4.61518823e-004 0.
      -1.97149087e-002 0. 0. 0. 0. 1.81051390e-003 4.80182440e-004 0.
      2.42233422e-004 1.91454164e-004 0. 6.14012301e-004 0.
      2.35207728e-004 0. 0. 0. 0. 6.58848614e-004 0. 2.80294480e-004 0.
      0. 0. 0. 2.25398224e-004 0. 2.30521429e-003 0. 2.28978242e-004 0.
      7.28827901e-004 0. 7.42474920e-004 0. 0. 5.03973162e-004
      7.66540354e-004 7.84035714e-004 0. 0. 0. 0. 0. 0. 0. 0.
      7.42474920e-004 0. 1.07688562e-003 0. 5.24240953e-004 0. 0.
      3.51739349e-003 0. 0. 0. 0. 0. 3.01540899e-003 0. 5.03973162e-004
      1.36614323e-003 0. 0. 0. 0. 0. 0. 1.44030550e-003 0. 0. 0. 0.
      3.50183749e-004 0. 0. 0. 0. 7.84035714e-004 0. 2.75040395e-004 0.
      0. 0. 0. 0. 0. 1.09595258e-003 2.73863814e-004 0. 3.42116342e-004
      6.93253649e-004 0. 1.35973678e-004 0. 0. 0. 0. 0. 0. 0.
      6.70986890e-004 0. 2.73863814e-004 4.82201664e-004 0.
      1.13425264e-003 0. 1.85656815e-003 4.33249748e-004 0.
      4.43947065e-004 0. 0. 0. 0. 6.46389788e-004 0. 0. 0.
      1.56339724e-003 2.19397852e-003 0. 0. 0. 0. 0. 0. 0. 0. 0.
      -1.95513163e-002 4.33249748e-004 0. 0. 2.75040395e-004 0. 0. 0.
      3.76507262e-004 1.94961380e-004 4.43947065e-004 0. 0. 0. 0. 0. 0.
      4.01303731e-003 7.84035714e-004 0. 2.83951173e-003 0. 0.
      2.28592689e-004 1.36614323e-003 0. 0. 1.82582170e-003 0.
      8.27950367e-004 0. 0. 0. 3.03547335e-004 0. 0. 6.08482689e-004 0.
      0. 0. 5.25893993e-004 0. 0. 0. 1.38264222e-004 0. 0. 0. 0. 0. 0.
      0. 0. 0. 4.82201664e-004 0. 0. 5.60669694e-004 0. 0.
      1.47800683e-003 2.01386074e-003 0. 0. 1.44649326e-004
      2.87698407e-004 1.49300089e-003 0. 2.36328589e-004 0.
      6.64154009e-004 0. 0. 0. 0. 0. 0. 0. 0. 7.67946942e-004 0. 0. 0.
      3.03547335e-004 0. 9.12910851e-004 0. 2.96622049e-004
      1.35973678e-004 2.96622049e-004 1.03736634e-003 2.73863814e-004
      6.58848614e-004 0. 0. 2.28592689e-004 0. 0. 0. 7.67946942e-004 0.
      0. 0. 0. 0. -1.96059253e-002 1.71782612e-003 0. 0. 0. 0. 0. 0. 0.
      0. 0. 0. 1.81145582e-003 0. 1.26723840e-003 5.17179142e-004
      6.54834847e-004 0. 0. 0. 0. 6.93253649e-004 0. 0. 5.40574256e-004
      0. 0. 0. 0. 0. 7.99936883e-004 5.40574256e-004 0. 0.
      6.37832796e-004 0. 0. 0. 0. 0. 0. 0. 0. 0. 3.50183749e-004
      1.32255128e-003 0. 3.48863658e-004 0. 1.36846537e-003
      1.75054523e-003 0. 0. 0. 0. 9.95786628e-004 0. 0. 4.82201664e-004
      0. 0. 0. 6.93253649e-004 6.58848614e-004 0. 0. 1.07616524e-003 0.
      0. 0. 3.93933937e-004 1.63598428e-003 0. 1.56339724e-003 0.
      1.07688562e-003 8.19280860e-004 6.14012301e-004 4.88534337e-004 0.
      0. 0. 1.34197378e-003 0. 1.79239156e-004 0. 0. 0. 1.36614323e-003
      0. 8.56846804e-004 1.88253631e-004 2.35207728e-004 4.13141493e-003
      6.07094669e-004 1.97195637e-004 0. 1.35973678e-004 0. 0. 0.
      7.66540354e-004 0. 1.65645569e-003 1.90632953e-003 0.
      2.80294480e-004 6.93253649e-004 2.66445713e-004 0. 0.
      1.07616524e-003 0. 0. 0. 0. 0. 0. 0. 0. 8.21591413e-004
      1.97195637e-004 7.67946942e-004 0. 7.47745566e-004 0. 0. 0. 0. 0.
      0. 0. 3.93933937e-004 0. 5.24240953e-004 0. 4.33249748e-004 0.
      2.40091220e-004 0. 0. 0. 0. 0. 6.51942915e-004 0. 0. 0.
      2.25398224e-004 0. 5.52396639e-004 0. 1.88253631e-004
      6.51942915e-004 0. 0. 0. 0. 0. 0. 0. 0. 0. 0. 4.01504221e-004 0.
      1.79239156e-004 1.20399380e-003 0. 6.51942915e-004 1.53636094e-003
      0. 0. 3.31336894e-004 7.67946942e-004 0. 0. 5.40574256e-004
      5.25893993e-004 0. 0. 0. 0. 0. 1.24498783e-003 0. 0.
      1.03670533e-003 0. 0. 1.36970379e-003 0. 0. 6.50022237e-004
      7.84035714e-004 0. 7.54666515e-004 2.80264718e-003 0. 0.
      1.36614323e-003 0. 4.37866664e-004 0. 0. 0. 0. 0. 0.
      1.88253631e-004 0. 0. 0. 0. 0. 8.03929812e-004 0. 1.89951574e-003
      9.28685069e-004 0. 0. 1.91976363e-003 4.09640430e-004 0. 0. 0.
      2.96622049e-004 0. 0. -4.76190485e-002 5.03973162e-004 0. 0. 0. 0.
      0. 2.53330625e-004 2.25398224e-004 5.25893993e-004 0.
      5.10991144e-004 0. 0. 0. 0. 1.19522784e-003 0. 0. 0.
      3.62671155e-004 0. 0. 3.33138416e-003 4.43947065e-004
      5.17179142e-004 0. -2.04081628e-002 0. 0. 0. 0. 4.09640430e-004 0.
      0. 0. 0. 0. 2.36328589e-004 3.69639456e-004 0. -3.49079408e-002 0.
      0. 0. 6.46685774e-004 4.13113215e-004 0. 0. 3.69639456e-004 0. 0.
      8.75733327e-004 0. 1.06738706e-003 0. 0. 0. 3.04092863e-003 0. 0.
      0. 2.40091220e-004 0. 1.91976363e-003 1.43806892e-003 0. 0.
      4.01504221e-004 0. 0. 0. -1.86642669e-002 0. 0. 0. 6.14012301e-004
      3.40393803e-004 2.66445713e-004 0. 0. 2.80294480e-004
      6.51942915e-004 0. 0. 0. 2.36328589e-004 0. 0. 0. 0.
      4.43947065e-004 0. 0. 6.71705930e-004 0. 0. 7.53852248e-004 0. 0.
      0. 0. 0. -2.23019533e-002 6.34101918e-004 0. 8.19685962e-003 0. 0.
      0. 0. 0. 0. 0. 0. 0. 3.01571609e-003 0. 0. 0. 1.03670533e-003 0.
      0. 4.43947065e-004 8.56846804e-004 1.35991431e-004
      -2.04081628e-002 0. 0. 5.82207576e-004 0. 3.31336894e-004
      3.42116342e-004 4.26223414e-004 0. 8.56846804e-004 0.
      7.53852248e-004 0. 4.33249748e-004 0. 0. 1.26723840e-003 0.
      2.96622049e-004 0. 0. 0. 0. 0. 2.79789651e-003 0. 0. 0. 0.
      2.73863814e-004 0. 0. 0. 2.34668679e-003 1.83726114e-003 0. 0. 0.
      0. 2.28978242e-004 0. 0. 0. 0. 2.28592689e-004 0. 3.69639456e-004
      0. 7.54666515e-004 0. 0. 2.80294480e-004 0. 0. 0. 0.
      3.03547335e-004 0. 0. 0. 0. 0. 0. 1.88503385e-004 0.
      3.42116342e-004 0. 0. 3.03547335e-004 0. 0. 1.09595258e-003 0.
      2.35207728e-004 0. 1.02459057e-003 1.71782612e-003 0.
      2.40091220e-004 0. 0. 4.01504221e-004 0. 0. 3.69639456e-004 0.
      3.69639456e-004 1.81979049e-004 4.43947065e-004 0. 3.03547335e-004
      0. 1.07616524e-003 2.35207728e-004 0. 0. 0. 0. 1.26723840e-003
      1.94961380e-004 0. 0. 0. 0. 0. 0. 3.42116342e-004 0.
      3.69639456e-004 0. 0. 0. 0. 0. 0. 0. 0. 3.62671155e-004
      8.27950367e-004 0. 0. 2.66445713e-004 0. 0. 0. 0. 8.19280860e-004
      0. 2.53330625e-004 0. 0. 1.26723840e-003 5.40574256e-004
      3.48863658e-004 3.35095974e-004 0. 0. 0. 0. 0. 0. 0.
      1.38264222e-004 6.93253649e-004 1.11569860e-003 9.73022019e-004
      1.15260715e-003 3.50183749e-004 7.61319359e-004 0. 0. 0.
      5.25893993e-004 5.03973162e-004 1.35973678e-004 0. 0. 0. 0.
      7.67946942e-004 0. 0. 3.21522180e-004 1.07688562e-003 0. 0. 0. 0.
      0. 0. 0. 2.71947356e-004 9.12910851e-004 0. 0. 0. 0.
      2.34175706e-003 0. 0. 0. 0. 0. 1.36614323e-003 0. 8.56846804e-004
      0. 1.56339724e-003 0. 3.31336894e-004 0. 0. 0. 7.08290027e-004 0.
      0. 0. 1.06738706e-003 0. -2.33395230e-002 0. 0. 0. 0.
      8.27950367e-004 5.40574256e-004 0. 0. 0. 2.99956708e-004 0. 0.
      6.91877853e-004 1.91454164e-004 0. 0. 0. 0. 0. -2.33762749e-002
      1.18892384e-003 0. 0. 2.36328589e-004 4.09640430e-004 0.
      4.88534337e-004 4.09640430e-004 1.35991431e-004 0. 1.35090027e-003
      0. 0. 0. 0. 0. 7.08290027e-004 8.75272613e-004 0. 0.
      6.14012301e-004 0. 7.84035714e-004 0. 0. 0. 4.56670154e-004 0. 0.
      0. 0. 0. 3.62671155e-004 2.28978242e-004 2.28592689e-004 0. 0.
      5.10991144e-004 0. 0. 0. 9.95786628e-004 0. 1.06738706e-003 0.
      1.71782612e-003 3.48863658e-004 0. 0. 0. 0. 0. 0. 0.
      5.10991144e-004 0. 0. 6.52288320e-004 0. 0. 0. 0. 0. 0. 0. 0. 0.
      6.58848614e-004 0. 0. 0. 0. 0. 0. 0. 0. 0. 0. 3.93933937e-004 0.
      1.03670533e-003 0. 1.88253631e-004 0. 0. 7.53852248e-004
      1.42112584e-003 0. 5.25893993e-004 0. 8.75272613e-004 0.
      6.64154009e-004 0. 0. 0. 0. 0. 0. 0. 0. 0. 0. 0. 4.61518823e-004
      3.93933937e-004 1.44649326e-004 3.31336894e-004 7.84035714e-004 0.
      1.94961380e-004 5.98522718e-004 0. 1.61745993e-003 0. 0.
      5.40574256e-004 0. 2.28592689e-004 5.17179142e-004 1.71782612e-003
      1.88503385e-004 0. 0. 0. 0. 0. 0. 1.09595258e-003 0. 0.
      6.93253649e-004 0. 0. 0. 8.27950367e-004 3.93933937e-004 0.
      2.48430041e-003 1.21696538e-003 0. 0. 0. 0. 0. 0. 2.75040395e-004
      7.53852248e-004 0. 5.17179142e-004 6.08482689e-004 4.82201664e-004
      0. 0. 0. 0. 0. 0. 0. 0. 0. 0. 0. 0. 0. 0. 0. 0. 0. 0. 0.
      1.03148492e-003 3.32077005e-004 0. 0. 0. 0. 0. 0. 0. 0.
      6.58848614e-004 0. 0. 0. 2.25398224e-004 2.87698407e-004 0. 0. 0.
      3.76507262e-004 1.88503385e-004 3.93933937e-004 0. 2.20746198e-003
      0. 2.25398224e-004 6.51942915e-004 0. 0. 0. 0. 0. 0. 0. 0. 0. 0.
      0. 3.21522180e-004 0. 0. 0. 0. 1.52651069e-003 2.66445713e-004 0.
      0. 0. 0. 0. 0. 4.43947065e-004 0. 1.94961380e-004 0. 0. 0. 0. 0.
      7.08290027e-004 0. 1.88253631e-004 0. 4.82201664e-004
      3.69639456e-004 0. 2.25569727e-003 2.40091220e-004 0. 0. 0.
      4.43947065e-004 3.40393803e-004 0. 1.91454164e-004 0.
      9.13969008e-004 2.87698407e-004 0. 0. 0. 0. 0. 1.97195637e-004 0.
      0. 7.42474920e-004 1.03670533e-003 4.13113215e-004 0. 0.
      1.44649326e-004 0. 0. 9.12910851e-004 1.26723840e-003 0.
      2.40091220e-004 0. 3.23653640e-003 6.51942915e-004 0. 0.
      7.00367498e-004 0. 1.36614323e-003 0. 0. 0. 0. 0. 0.
      7.67946942e-004 1.94961380e-004 0. 0. 1.88253631e-004 0. 0. 0. 0.
      6.58848614e-004 0. 0. 0. 0. 0. 0. 0. 1.91454164e-004 0. 0. 0. 0.
      1.35090027e-003 0. 4.37866664e-004 0. 0. 0. 0. 0. 0. 0. 0.
      3.78207100e-004 0. 8.56846804e-004 0. 0. 0. 3.48863658e-004 0. 0.
      0. 0. 0. 7.61221105e-004 0. 0. 0. 0. 0. 1.38264222e-004 0.
      -2.16185134e-002 0. 0. 0. 6.51942915e-004 0. 2.40091220e-004 0.
      1.07688562e-003 2.73863814e-004 0. 0. 1.75143953e-003 0.
      1.91976363e-003 0. 0. 0. 0. 0. 0. 0. 6.93253649e-004 0. 0. 0. 0.
      0. 0. 0. 0. 8.75272613e-004 2.42233422e-004 0. 1.94961380e-004 0.
      0. 0. 3.32077005e-004 5.40574256e-004 8.94143654e-004 0.
      3.69639456e-004 0. 0. 0. 0. 0. 0. 8.56846804e-004 1.79239156e-004
      0. 0. 0. 1.11569860e-003 3.48863658e-004 7.08290027e-004
      7.42474920e-004 0. 0. 4.37866664e-004 4.01504221e-004 0. 0. 0.
      6.93341193e-004 3.76507262e-004 0. 1.97195637e-004 5.40574256e-004
      6.45663706e-004 8.56846804e-004 9.12910851e-004 0. 0.
      1.26723840e-003 0. 1.26723840e-003 0. 7.54666515e-004
      2.28978242e-004 0. 0. 2.35207728e-004 5.05613105e-004
      7.67946942e-004 4.43947065e-004 8.52446829e-004 0. 2.25398224e-004
      0. 0. 0. 0. 0. 0. 7.54666515e-004 6.52288320e-004 0. 0. 0. 0. 0.
      0. 1.38264222e-004 0. 0. 0. 0. 0. 0. 0. 5.03973162e-004 0. 0. 0.
      0. 1.09595258e-003 0. 0. 0. 0. 0. 6.58848614e-004 0.
      6.58848614e-004 0. 0. 0. 0. 0. 1.88253631e-004 0. 0.
      1.44649326e-004 1.35991431e-004 6.64154009e-004 0. 0. 0.
      1.79239156e-004 0. 1.44649326e-004 0. 0. 0. 4.33249748e-004 0. 0.
      0. 0. 0. 0. 3.40393803e-004 3.48863658e-004 0. 0. 6.14012301e-004
      1.56339724e-003 0. 0. 1.35991431e-004 0. 0. 0. 8.27950367e-004
      2.28592689e-004 0. 0. 2.41061742e-003 0. 0. 0. 0. 0. 0. 0. 0.
      1.36614323e-003 4.26223414e-004 0. 3.93933937e-004 2.25398224e-004
      0. 0. 4.43947065e-004 0. 0. 0. 1.91454164e-004 8.37472093e-004
      4.37866664e-004 0. 0. 2.28592689e-004 0. 0. 0. 0. 0. 0. 0. 0.
      1.38264222e-004 4.88534337e-004 0. 0. 0. 0. 0. 0. 0. 0.
      6.14012301e-004 1.79239156e-004 0. 0. 9.35534423e-004
      8.27950367e-004 0. 1.15260715e-003 0. 0. 0. 2.36328589e-004 0. 0.
      0. 1.44649326e-004 0. 0. 0. 0. 0. 0. 0. 0. 0. 3.93933937e-004 0.
      6.34101918e-004 0. 0. 3.32077005e-004 0. 0. 3.32077005e-004 0.
      2.22224579e-003 1.06738706e-003 0. 0. 0. 0. 2.96622049e-004 0.
      8.56846804e-004 0. 0. 0. 9.12910851e-004 3.21971742e-003
      1.52046431e-003 0. 0. 0. 0. 1.35973678e-004 0. 0. 0. 0.
      1.88253631e-004 1.05178799e-003 0. 0. 0. 3.03547335e-004 0. 0.
      2.28978242e-004 0. 0. 0. 0. 0. 0. 0. 0. 3.31336894e-004 0. 0.
      -2.04081628e-002 0. 1.91454164e-004 0. 1.33411656e-003
      2.36328589e-004 0. 0. 0. 0. 0. 0. 0. 6.85262843e-004 0.
      2.35207728e-004 0. 4.18736046e-004 8.56846804e-004 2.35207728e-004
      1.07616524e-003 4.01504221e-004 0. 0. 3.42116342e-004 0.
      1.06738706e-003 0. 0. 3.03547335e-004 0. 6.70986890e-004
      1.15260715e-003 0. 0. 4.61518823e-004 0. 6.93253649e-004 0.
      3.32077005e-004 0. 0. 1.38264222e-004 0. 0. 0. 0. 7.08290027e-004
      0. 0. 0. 0. 0. 9.23037645e-004 0. 0. 0. 3.69639456e-004 0. 0. 0.
      1.88253631e-004 1.84803281e-003 0. 0. 9.12910851e-004 0. 0. 0. 0.
      0. 8.75272613e-004 0. 6.51942915e-004 0. 0. 0. -2.32853070e-002 0.
      0. 0. 0. 1.44649326e-004 9.66427440e-004 0. 3.31336894e-004 0.
      4.82201664e-004 0. 2.36328589e-004 0. 3.32077005e-004
      2.28978242e-004 1.35090027e-003 0. 1.36614323e-003 0. 0.
      6.52288320e-004 1.44649326e-004 0. 2.36328589e-004 0. 0. 0.
      1.97195637e-004 0. 0. 4.82201664e-004 1.03670533e-003
      1.55759742e-003 0. 0. -2.33078711e-002 1.79239156e-004 0. 0. 0. 0.
      1.88503385e-004 6.93253649e-004 0. 0. 0. 0. 1.26723840e-003 0. 0.
      0. 0. 5.03973162e-004 2.53330625e-004 5.10991144e-004 0. 0.
      6.93253649e-004 0. 0. 0. 0. 3.42116342e-004 1.35973678e-004 0. 0.
      -2.38095243e-002 0. 7.53852248e-004 0. 6.51942915e-004 0. 0.
      3.69639456e-004 -2.04081628e-002 0. 0. 8.66499497e-004 0. 0. 0.
      2.80294480e-004 0. 0. 1.81979049e-004 6.14012301e-004 0. 0. 0. 0.
      0. 4.33249748e-004 5.03973162e-004 0. 0. 1.10299082e-003 0. 0. 0.
      0. 0. 9.64403327e-004 9.55835625e-004 4.26223414e-004
      1.29755808e-003 0. 3.35095974e-004 -2.38095243e-002 0. 0.
      3.21522180e-004 2.66445713e-004 0. 6.14012301e-004 1.97195637e-004
      4.43947065e-004 0. 1.81979049e-004 4.01504221e-004 0. 0. 0. 0.
      3.21522180e-004 5.03973162e-004 0. 3.93933937e-004 0.
      5.29931858e-004 0. 0. 0. 3.32077005e-004 0. 0. 0. 0.
      3.69639456e-004 0. 0. 8.27950367e-004 0. 1.03670533e-003 0. 0. 0.
      1.35973678e-004 0. 0. 1.97195637e-004 0. 6.34101918e-004
      5.52396639e-004 0. 1.44649326e-004 0. 4.09640430e-004 0. 0.
      2.40091220e-004 1.88253631e-004 0. 0. 3.42116342e-004 0. 0. 0.
      1.35991431e-004 0. 0. 1.88253631e-004 0. 0. 1.71782612e-003 0. 0.
      0. 0. 3.03547335e-004 0. 0. 0. 5.17179142e-004 0. 0. 0. 0. 0. 0.
      0. 0. 0. 0. 0. 0. 0. 0. 0. 0. 1.94961380e-004 0. 1.11569860e-003
      0. 0. 1.72146829e-003 0. 0. 0. 0. 0. 0. 1.07616524e-003
      3.21522180e-004 1.97195637e-004 0. 0. 0. 0. 2.35207728e-004 0. 0.
      0. 1.87037559e-003 0. 0. 3.03547335e-004 0. 2.25398224e-004 0.
      1.07688562e-003 1.99157326e-003 8.27950367e-004 0. 1.36092177e-003
      9.95786628e-004 0. 0. 0. 0. 0. 0. 1.35991431e-004 0.
      2.28592689e-004 0. 0. 3.32077005e-004 0. 0. 0. 0. -2.30670497e-002
      4.18736046e-004 1.79239156e-004 0. 0. 0. -1.73065756e-002 0. 0.
      5.40574256e-004 0. 0. 0. 0. 1.50770450e-003 0. 6.58848614e-004 0.
      0. 1.79239156e-004 0. 0. 0. 0. 1.52046431e-003 1.35973678e-004 0.
      0. 0. 9.95786628e-004 5.25893993e-004 0. 0. 0. 0. 0. 0.
      1.94961380e-004 0. 0. 0. 0. 2.42233422e-004 1.15260715e-003 0. 0.
      -1.81927755e-002 0. 0. 0. 3.23194894e-004 0. 0. 0. 1.22802460e-003
      0. 0. 0. 0. 6.51942915e-004 0. 0. 0. 0. 1.79239156e-004 0. 0.
      5.17179142e-004 0. 0. 1.88253631e-004 0. 1.52046431e-003 0.
      2.28592689e-004 1.91976363e-003 8.75272613e-004 1.52046431e-003
      6.08482689e-004 0. 1.42502890e-003 1.26723840e-003 9.64403327e-004
      0. 0. 0. 0. 0. 4.43947065e-004 1.00794632e-003 4.37866664e-004 0.
      0. 0. 0. 0. 7.67946942e-004 0. -2.38095243e-002 6.14012301e-004 0.
      0. 0. 2.25398224e-004 1.35973678e-004 0. 0. 1.35090027e-003 0. 0.
      9.12910851e-004 0. 0. 0. 0. 0. 0. 1.91976363e-003 1.07688562e-003
      0. 6.93253649e-004 0. 0. 4.09640430e-004 0. 0. 2.53330625e-004 0.
      1.44649326e-004 0. 0. 0. 1.65398233e-003 3.40393803e-004 0. 0. 0.
      0. 0. 0. 5.52396639e-004 0. 0. 0. 0. 7.25342310e-004 0. 0.
      1.35090027e-003 0. 0. 0. 0. 2.96622049e-004 -2.38095243e-002 0. 0.
      0. 5.09775826e-004 3.03547335e-004 0. 0. 1.44649326e-004 0. 0.
      3.93933937e-004 4.09640430e-004 1.94961380e-004 0. 0. 0.
      8.27950367e-004 4.88534337e-004 0. 4.43947065e-004 0. 0.
      1.06738706e-003 0. 1.26820384e-003 1.26723840e-003 0. 0. 0. 0.
      1.91976363e-003 2.53330625e-004 0. 1.50770450e-003 6.93253649e-004
      0. 0. 0. 1.91976363e-003 0. 2.96622049e-004 0. 0. 5.10991144e-004
      8.56846804e-004 0. 0. 4.61518823e-004 0. 0. 4.82201664e-004 0. 0.
      2.73863814e-004 0. 4.88534337e-004 0. 1.22960284e-003 0.
      1.35991431e-004 7.54666515e-004 0. 2.75040395e-004 1.81979049e-004
      0. 3.21522180e-004 0. 0. 3.03547335e-004 0. 0. 0. 0.
      1.09595258e-003 2.80294480e-004 3.31336894e-004 5.25893993e-004 0.
      0. 0. 0. 1.88503385e-004 -2.38095243e-002 0. 0. 0. 1.17758731e-003
      0. 0. 0. 0. 0. 3.71819013e-004 0. 0. 2.36328589e-004 0. 0.
      2.42233422e-004 4.26223414e-004 0. 0. 0. 5.52396639e-004 0. 0. 0.
      0. 0. 0. 0. 0. 0. 0. 1.92879874e-004 0. 1.15617074e-003 0.
      4.43947065e-004 5.06661250e-004 9.05485649e-004 0. 7.84035714e-004
      0. 0. 6.34101918e-004 0. 0. 0. 0. 0. 0. 0. 0. 0. 4.88534337e-004
      0. 0. 1.38650730e-003 0. 1.93920033e-003 0. 0. 0. 0. 0. 0. 0. 0.
      0. 2.42233422e-004 5.03973162e-004 4.43947065e-004 0.
      -2.38095243e-002 -2.38095243e-002 0. 0. 0. 0. 0. 0. 0. 0. 0. 0. 0.
      0. 4.43947065e-004 0. 0. 0. 3.31336894e-004 0. 0. 0. 0. 0.
      1.53308071e-003 2.25398224e-004 1.01455173e-003 0. 0.
      2.40091220e-004 0. 0. 4.43947065e-004 4.09640430e-004 0. 0.
      7.66540354e-004 6.14012301e-004 0. 0. 7.50813051e-004 0. 0. 0. 0.
      7.42474920e-004 0. 0. 5.24240953e-004 7.93595857e-004
      1.35090027e-003 0. 5.03973162e-004 3.50183749e-004 0. 0. 0.
      7.08290027e-004 8.37472093e-004 0. 1.06738706e-003 0. 0. 0. 0. 0.
      5.03973162e-004 6.52288320e-004 0. 8.52446829e-004 0. 0.
      1.91454164e-004 7.61221105e-004 0. 5.60588960e-004 3.24109662e-003
      3.35095974e-004 0. 2.87698407e-004 0. 0. 0. 0. 0. 0. 0. 0. 0. 0.
      0. 0. 0. 0. 2.36328589e-004 0. 4.33249748e-004 0. 0. 0.
      1.52046431e-003 0. 0. 0. 2.99956708e-004 0. 6.14012301e-004
      4.09640430e-004 0. 0. 0. 0. 6.34101918e-004 4.82201664e-004 0. 0.
      0. 2.62805354e-003 2.36328589e-004 5.17179142e-004 0.
      2.01386074e-003 0. 3.03547335e-004 0. 0. 0. 6.52288320e-004
      2.42233422e-004 0. 0. 3.69639456e-004 0. 0. 4.82201664e-004
      1.44649326e-004 0. 1.35973678e-004 4.33249748e-004 0.
      1.15260715e-003 1.15260715e-003 0. 0. 0. 0. 1.36867876e-003 0.
      7.67946942e-004 4.26223414e-004 0. 5.24240953e-004 0. 0. 0. 0.
      3.21522180e-004 1.38264222e-004 7.08290027e-004 0. 0. 0.
      1.65590073e-003 0. 6.80787605e-004 2.87698407e-004 1.53589388e-003
      0. 0. 0. 0. 0. 0. 1.03670533e-003 0. 0. 0. 6.52288320e-004 0. 0.
      3.31336894e-004 0. 0. 1.03670533e-003 0. 0. 0. 0. 0.
      7.84035714e-004 0. 0. 0. 0. -2.38095243e-002 2.75221863e-003 0. 0.
      2.35207728e-004 2.73863814e-004 0. 0. 0. 0. 1.71782612e-003
      7.67946942e-004 3.71819013e-004 0. 1.71369361e-003 0.
      4.33249748e-004 0. 0. 0. 3.32077005e-004 0. -1.84084605e-002 0. 0.
      4.56670154e-004 0. 0. 0. 9.95786628e-004 0. 4.50796448e-004 0.
      1.36614323e-003 5.16101904e-003 0. 0. 0. 0. 9.12910851e-004 0. 0.
      2.73863814e-004 3.32077005e-004 0. 0. 0. 4.43947065e-004
      1.03670533e-003 0. 0. 0. 1.85142271e-003 5.11368969e-004 0. 0. 0.
      0. 0. 0. 0. 0. 9.46642424e-004 0. 0. 0. 7.54666515e-004 0. 0. 0.
      0. 0. 0. 0. 0. 7.53852248e-004 9.66427440e-004 6.34101918e-004 0.
      2.99956708e-004 0. 2.87698407e-004 2.87698407e-004 3.21522180e-004
      0. 1.03670533e-003 0. 2.28592689e-004 0. 0. 0. 3.03547335e-004 0.
      4.22593876e-004 0. 0. 0. 0. 5.03973162e-004 0. 0. 0.
      1.91454164e-004 0. 2.87698407e-004 8.56846804e-004 0. 0. 0. 0. 0.
      0. 2.73863814e-004 0. 5.03973162e-004 0. 0. 0. 1.06738706e-003 0.
      0. 5.60588960e-004 1.97195637e-004 1.78490649e-003 0. 0. 0.
      1.30457664e-003 2.28592689e-004 4.82201664e-004 3.62671155e-004
      1.88253631e-004 0. 1.35973678e-004 0. 1.80757034e-003
      1.38264222e-004 0. 0. 1.03670533e-003 6.96418283e-004
      2.73863814e-004 0. 2.35207728e-004 8.87894130e-004 5.40574256e-004
      3.50183749e-004 5.25893993e-004 0. 0. 0. 0. 0. 0. 0. 0. 0. 0. 0.
      0. 0. 0. 0. 3.31336894e-004 1.36614323e-003 0. 0. 0. 0. 0. 0. 0.
      0. 0. 1.03670533e-003 0. 0. 0. 0. 4.09640430e-004 0.
      2.75040395e-004 1.85263343e-003 0. 0. 1.34197378e-003 0.
      1.61806797e-003 0. 3.71819013e-004 0. 2.28592689e-004 0.
      1.38264222e-004 1.09133858e-003 0. 0. 0. 0. 6.08482689e-004 0. 0.
      0. 0. 7.66540354e-004 0. 0. 0. 7.84035714e-004 0. 4.37866664e-004
      0. 0. 0. 6.14012301e-004 1.91976363e-003 0. 5.17179142e-004 0. 0.
      0. 0. 0. 0. 0. 0. 0. 0. 5.40574256e-004 2.28978242e-004 0. 0. 0.
      3.35095974e-004 5.17179142e-004 1.15260715e-003 0. 0. 0. 0. 0. 0.
      0. 0. 0. 5.03973162e-004 0. 0. 1.88253631e-004 6.34101918e-004
      2.53330625e-004 0. 6.52288320e-004 0. 0. 3.23194894e-004 0.
      6.70986890e-004 0. 0. 0. 2.96622049e-004 0. 0. 0. 2.25398224e-004
      0. 0. 0. 0. 6.70986890e-004 0. 0. 7.61221105e-004 0. 0. 0.
      1.09595258e-003 0. 0. 0. 0. 0. 5.52396639e-004 5.03973162e-004 0.
      7.66540354e-004 0. 0. 1.88503385e-004 2.20636046e-003 0. 0. 0. 0.
      6.52288320e-004 0. 0. 2.80294480e-004 7.08290027e-004
      1.11569860e-003 0. 0. 0. 0. 7.53852248e-004 6.08482689e-004 0.
      1.36614323e-003 0.</_></support_vectors>
  <decision_functions>
    <_>
      <sv_count>1</sv_count>
      <rho>-9.9985500723756304e-001</rho>
      <alpha>
        1.</alpha>
      <index>
        0</index></_></decision_functions></my_svm>
</opencv_storage>
