<?xml version="1.0"?>
<opencv_storage>
<my_svm type_id="opencv-ml-svm">
  <svm_type>C_SVC</svm_type>
  <kernel><type>LINEAR</type></kernel>
  <C>1.</C>
  <term_criteria><epsilon>2.2204460492503131e-016</epsilon>
    <iterations>100</iterations></term_criteria>
  <var_all>10000</var_all>
  <var_count>10000</var_count>
  <class_count>2</class_count>
  <class_labels type_id="opencv-matrix">
    <rows>1</rows>
    <cols>2</cols>
    <dt>i</dt>
    <data>
      -1 1</data></class_labels>
  <sv_total>1</sv_total>
  <support_vectors>
    <_>
      1.34229718e-004 0. -4.76190485e-002 0. 0. 0. 0. 1.47752929e-004 0.
      0. 0. 0. 0. 0. 0. 0. 8.80150823e-004 2.48226104e-004
      1.29198015e-003 6.95533876e-004 4.50150663e-004 0. 0. 0.
      1.75991721e-004 0. 1.17182164e-004 0. 0. 2.30003661e-003 0. 0. 0.
      0. 0. 0. 0. 0. 5.16443863e-004 0. 4.77790833e-004 0.
      1.09088828e-003 1.95894099e-004 0. 2.50943151e-004 0. 0.
      7.47058541e-004 6.88485336e-004 2.22216418e-004 0. 0. 0.
      1.06206178e-004 0. 0. 2.50943151e-004 8.97164689e-004
      7.40226475e-004 6.38363766e-004 1.38027384e-003 1.98270180e-004 0.
      0. 9.91429901e-004 0. 0. 5.77084953e-004 6.49187597e-004
      9.91666748e-005 0. 2.78794789e-004 4.60680248e-003 0.
      3.12747248e-003 3.01253691e-004 0. 3.10409087e-004 2.00901646e-004
      0. 0. 0. 0. 2.00901646e-004 0. 1.89937942e-003 0. 0. 0.
      1.98270180e-004 0. 3.64849810e-004 3.64849810e-004 2.77618266e-004
      0. 0. 4.39959927e-004 0. 9.91666748e-005 1.27767431e-004 0. 0.
      2.57263484e-004 0. 0. 0. 1.59119337e-003 2.48002994e-004
      4.95250744e-004 9.91666748e-005 1.56978890e-003 0. 0. 0.
      1.04160274e-004 0. -1.60720609e-002 1.10683136e-003 0. 0. 0.
      3.48490692e-004 0. 3.26752430e-004 0. 9.72948765e-005 0. 0. 0. 0.
      4.01803292e-004 0. 0. 0. 1.31884567e-003 0. 0. 0. 3.13050637e-004
      0. 0. 0. 1.31884567e-003 0. 0. 0. 1.84690594e-004 0. 0.
      3.42762156e-004 0. 0. 4.14331676e-004 2.16471544e-003
      8.07358592e-004 0. 0. -1.71136111e-002 0. 8.34641571e-004 0. 0. 0.
      0. 3.58283869e-004 0. 0. 5.31912781e-004 7.24914891e-004 0. 0.
      3.78750381e-004 0. 1.03227183e-004 5.83864923e-004 0.
      5.61518653e-004 0. 0. 4.14331676e-004 0. 1.61471718e-003
      6.38363766e-004 1.56525319e-004 1.94299745e-003 1.52325025e-004
      6.96005067e-004 2.13912426e-004 5.27267286e-004 0. 0.
      1.19833008e-003 0. 1.31884567e-003 0. 0. 1.14548428e-003 0.
      1.17182164e-004 0. 1.35941512e-003 0. 4.39959927e-004 0. 0.
      5.45920688e-004 0. 0. 0. 3.65898042e-004 0. 0. 7.29286869e-004
      2.16488770e-004 1.17182164e-004 0. 0. 1.60485518e-003
      1.44468737e-004 1.11127365e-003 2.50741607e-004 0. 5.57589578e-004
      1.96886307e-004 4.04910184e-004 0. 4.93484316e-004 0.
      5.98477491e-004 1.34229718e-004 7.98352703e-004 0. 1.03227183e-004
      1.31884567e-003 0. 0. 0. 0. 0. 7.22343684e-005 0. 0.
      1.17182164e-004 0. 0. 0. 2.77618266e-004 0. 0. 1.31884567e-003 0.
      0. 0. 8.87104601e-004 1.04160274e-004 0. 4.39250958e-004 0. 0.
      4.09831933e-004 0. 7.16567738e-004 1.06206178e-004 0.
      2.53584818e-004 2.88097392e-004 0. 0. 0. 0. -1.63043048e-002 0. 0.
      7.05253158e-004 3.26752430e-004 0. 2.57263484e-004 0. 0.
      -1.59978159e-002 1.83319295e-004 0. 3.78083147e-004
      1.17182164e-004 0. 0. 0. 0. 2.22254731e-003 8.16016924e-004
      5.47754869e-004 0. 0. 4.39959927e-004 0. 0. 0. 0. 1.79398368e-004
      1.91509130e-003 2.98196508e-004 0. 1.29733549e-003 0.
      3.51983443e-004 0. 7.59337156e-004 0. 0. 0. 0. 0. 0. 0. 0. 0. 0.
      0. 1.01432728e-004 0. 1.29733549e-003 0. 3.72878014e-004
      3.10409087e-004 0. 2.81455490e-004 4.06469597e-004 0. 0.
      1.52325025e-004 0. 2.78598093e-003 4.04910184e-004 0.
      2.48002994e-004 5.27267286e-004 2.13912426e-004 1.50042833e-004 0.
      0. 0. 0. 3.43117863e-004 0. 0. 1.52325025e-004 0. 5.11333696e-004
      5.45920688e-004 4.39959927e-004 0. 0. 1.24803046e-003 0. 0.
      2.57263484e-004 2.46742158e-004 0. 0. 2.46915879e-004 0.
      1.56525319e-004 1.65171412e-004 9.52829549e-004 0. 7.80476141e-004
      0. 0. 0. 0. 0. 3.42762156e-004 1.65862992e-004 0. 0.
      2.68089119e-003 0. 2.80788256e-004 6.88485336e-004 1.65862992e-004
      4.34194197e-004 0. 0. 0. 5.16443863e-004 3.93772614e-004
      8.68767907e-004 0. 3.01253691e-004 0. 0. 2.66002171e-004 0. 0.
      2.48002994e-004 3.36138823e-004 0. 0. 0. 0. 2.53584818e-004 0.
      8.15827865e-004 0. 0. 2.94488715e-003 1.31769280e-003 0. 0. 0.
      1.25370803e-004 1.84145814e-004 0. 0. 1.79432938e-003 0.
      1.29198015e-003 1.06206178e-004 0. 0. 2.22216418e-004 0. 0.
      3.47766938e-004 0. 2.95505859e-004 6.21687737e-004 0.
      6.80641213e-004 0. 5.16443863e-004 0. 8.47069838e-004 0.
      2.48002994e-004 0. 0. 2.20325566e-003 0. 0. 0. 5.85932576e-004 0.
      0. 0. -1.66406687e-002 0. 0. 0. 0. 0. 0. 2.04718299e-003
      5.61576511e-004 0. 0. 9.19055077e-004 0. 4.39959927e-004 0.
      7.78486545e-004 0. 0. 3.42762156e-004 0. 1.89918047e-003
      7.57955713e-004 0. 0. 1.72088470e-003 0. 0. 2.80788256e-004
      1.52325025e-004 0. 2.00901646e-004 0. 0. 0. 0. 1.84145814e-004 0.
      0. 6.30963070e-004 0. 0. 0. 0. 5.45920688e-004 0. 0.
      4.03679296e-004 0. 2.46915879e-004 1.21009303e-003 3.65898042e-004
      0. 0. 0. -1.91907920e-002 0. 7.18094641e-004 0. 2.77618266e-004 0.
      0. 1.84145814e-004 8.15827865e-004 0. 0. 7.59337156e-004
      5.14526968e-004 1.06790045e-003 4.06159088e-004 0. 0. 0. 0.
      1.05453457e-003 5.41466521e-004 0. 7.98352703e-004 2.80788256e-004
      3.43117863e-004 0. 0. 0. 3.65141517e-004 0. 4.06469597e-004 0. 0.
      0. 0. 0. 0. 1.54933170e-003 4.46651276e-004 2.43438059e-003 0. 0.
      0. 2.78312946e-004 0. 0. 0. 1.02266739e-003 1.52325025e-004 0.
      1.03288773e-003 0. 0. 0. 0. 0. 2.57263484e-004 1.10891380e-003
      4.73512366e-004 0. 4.04910184e-004 0. 0. 0. 9.49590234e-004
      1.03227183e-004 9.91666748e-005 1.00159936e-003 0. 2.48002994e-004
      0. 0. 6.00710220e-004 0. 0. 0. 1.98270180e-004 0. 0. 0.
      2.91884644e-004 7.08856853e-004 0. 3.36138823e-004 2.97500024e-004
      0. 0. 3.43117863e-004 6.01796492e-004 1.47752929e-004
      -3.36493887e-002 2.97795748e-004 0. 0. 0. 2.81455490e-004
      5.61576511e-004 7.59337156e-004 0. 0. 4.77790833e-004
      4.03679296e-004 1.00734015e-003 1.51655148e-003 1.95894099e-004 0.
      0. 0. 1.19929714e-003 0. 0. 0. 5.79946965e-004 7.40226475e-004 0.
      0. 1.01432728e-004 2.22216418e-004 0. 0. 1.31884567e-003 0.
      5.14526968e-004 0. 0. 1.04197627e-003 2.00901646e-004 0. 0. 0. 0.
      1.29742024e-003 3.10409087e-004 2.22216418e-004 0. 3.00085667e-004
      0. 2.14477041e-004 0. 3.65141517e-004 0. 0. 0. 0. 0. 0. 0.
      4.65367222e-004 0. 0. 0. 0. 0. 1.98333350e-004 0. 5.90658921e-004
      0. 4.06469597e-004 0. 4.45959682e-004 4.39250958e-004 0.
      9.91666748e-005 0. 2.13912426e-004 6.21687737e-004 0. 0. 0. 0.
      6.85524312e-004 0. 1.87600800e-003 0. 0. 1.65171412e-004 0. 0.
      1.44468737e-004 2.00901646e-004 0. 1.04012550e-003 7.64135853e-004
      5.46225463e-004 2.78312946e-004 0. 3.65141517e-004 2.42762544e-004
      0. 0. 7.22343684e-005 3.99176351e-004 0. 2.60158704e-004 0.
      1.17800175e-003 0. 0. 2.80092470e-004 2.73112732e-004
      3.28851340e-004 0. 0. 0. 0. 0. 0. 2.01263512e-003 0.
      1.50042833e-004 0. 0. 1.96886307e-004 0. 0. 2.03234798e-004 0. 0.
      0. 0. 3.99176351e-004 0. 0. 0. 0. 0. 0. 1.15001830e-003
      3.42762156e-004 0. 2.63677706e-004 1.57623494e-003 0. 0. 0.
      6.96005067e-004 0. 0. 4.62734140e-004 6.00710220e-004
      1.29198015e-003 0. 0. 0. 0. 0. 7.22343684e-005 1.29733549e-003
      4.25194739e-004 0. 7.60754454e-004 0. 0. 5.95497608e-004
      1.65862992e-004 4.93484316e-004 0. -1.47573985e-002 0.
      1.96886307e-004 1.92320533e-003 0. 0. 0. 0. 0. 0. 0.
      4.82623931e-004 4.93484316e-004 0. 0. 1.72088470e-003 0.
      2.13912426e-004 0. 0. 0. 6.95533876e-004 0. 0. 3.36138823e-004
      8.19663866e-004 0. 0. 5.95497608e-004 0. 0. 3.65898042e-004 0. 0.
      2.77618266e-004 3.99176351e-004 1.96886307e-004 0. 2.78312946e-004
      3.65141517e-004 5.27267286e-004 5.27267286e-004 0. 9.52829549e-004
      1.47752929e-004 1.06206178e-004 0. 1.98270180e-004 6.63658720e-004
      0. 0. 0. 6.85524312e-004 0. 1.43739235e-004 0. 3.69381189e-004 0.
      0. 5.95497608e-004 0. 3.47766938e-004 5.00799681e-004
      4.16806142e-004 0. 5.95497608e-004 0. 9.49590234e-004
      3.68291629e-004 0. 2.48002994e-004 0. 1.17182164e-004
      3.10409087e-004 1.96886307e-004 2.60158704e-004 0. 0.
      1.44468737e-004 8.60868895e-004 0. 0. 0. 0. 2.03234798e-004 0. 0.
      0. 0. 0. 0. 2.66002171e-004 4.37313574e-004 1.27767431e-004 0.
      1.43739235e-004 0. 0. 0. 0. 0. 0. 0. 0. 0. 1.01432728e-004 0. 0.
      0. 9.91666748e-005 6.48667745e-004 2.34364328e-004 3.09516618e-004
      3.43117863e-004 1.36556366e-004 4.09831933e-004 0. 0. 0.
      2.78794789e-004 1.75991721e-004 0. 3.52910982e-004 0.
      6.21687737e-004 1.43739235e-004 1.15001830e-003 0. 0. 0. 0.
      3.26752430e-004 0. 3.08563263e-004 3.08563263e-004 0. 0. 0.
      2.06454366e-004 0. 1.31884567e-003 1.04160274e-004 3.42762156e-004
      0. 7.57661648e-004 0. -3.39875072e-002 0. 0. 0. 2.00901646e-004 0.
      1.17182164e-004 0. 7.22343684e-005 5.00799681e-004 0.
      1.29198015e-003 0. 0. 0. 4.09831933e-004 2.08320547e-004 0. 0. 0.
      1.43147376e-003 1.74730399e-003 0. 0. 5.11333696e-004
      -1.53997662e-002 0. 0. 0. 0. 7.20039243e-004 1.83319295e-004 0.
      4.97589004e-004 0. 0. 0. 5.57589578e-004 0. 0. 2.63677706e-004 0.
      6.21687737e-004 1.52325025e-004 0. 0. 2.66002171e-004
      8.28663353e-004 8.79919855e-004 0. 0. 4.32977540e-004 0. 0.
      2.91849195e-004 0. 1.11127365e-003 2.57263484e-004 9.91666748e-005
      1.52771559e-003 2.66002171e-004 7.08660227e-004 0. 0. 0. 0. 0.
      3.93772614e-004 4.96005989e-004 0. 0. 4.01803292e-004
      8.54483980e-004 0. 0. 6.24573382e-004 1.43739235e-004 0. 0. 0.
      5.11333696e-004 0. 0. 0. 2.60158704e-004 0. 0. 5.00799681e-004 0.
      5.27267286e-004 0. 0. 5.16443863e-004 0. 2.16488770e-004
      6.01796492e-004 0. 7.16567738e-004 4.14331676e-004 0.
      1.06274372e-003 8.68388393e-004 0. 5.27267286e-004 0.
      6.28312235e-004 0. 0. 0. 0. 7.47814251e-004 0. 0. 0. 0. 0. 0. 0.
      1.27767431e-004 4.14331676e-004 0. 0. 0. 6.88485336e-004
      1.06206178e-004 3.42762156e-004 5.90719515e-004 0. 0.
      9.98597359e-004 2.00901646e-004 1.09059655e-003 0. 1.65862992e-004
      0. 5.00799681e-004 6.82879123e-004 0. 0. 2.03234798e-004
      1.24551565e-003 0. 1.70808902e-003 0. 6.21687737e-004
      5.07169636e-004 0. 0. 1.04160274e-004 3.93772614e-004
      2.60158704e-004 0. 0. 0. 0. 0. 0. 0. 0. 7.64135853e-004 0.
      6.88485336e-004 0. 8.26981559e-004 0. 6.21398969e-004
      1.03227183e-004 0. 0. 0. 1.44468737e-004 0. 4.14331676e-004 0.
      1.80569617e-003 2.53584818e-004 7.44009041e-004 0. 1.24337547e-003
      2.53584818e-004 0. 0. 0. 0. 0. 7.79473165e-004 0. 0. 0. 0.
      9.64742037e-004 1.11839396e-003 5.16443863e-004 0. 1.29198015e-003
      0. 4.82371019e-004 0. 2.78794789e-004 0. 0. 0. 1.03288773e-003 0.
      1.96886307e-004 6.34391326e-004 0. 0. 0. 0. 7.61360629e-004 0. 0.
      0. 0. 1.72088470e-003 0. 0. 2.16488770e-004 0. 7.22343684e-005 0.
      0. 0. 0. 2.78794789e-004 2.57263484e-004 3.01253691e-004
      1.24299503e-003 4.04910184e-004 0. 3.08563263e-004 0.
      4.04910184e-004 0. 2.78312946e-004 0. 0. 1.98270180e-004 0.
      2.78312946e-004 0. 0. 0. 5.62910980e-004 0. 9.29087342e-004
      5.95497608e-004 0. 0. 0. 2.77618266e-004 5.01886301e-004
      9.72948765e-005 0. 5.56413026e-004 -1.68246944e-002 0. 0. 0.
      1.53400109e-003 0. 4.83080221e-004 0. 6.05811831e-004 0. 0. 0. 0.
      2.85418029e-003 0. 2.78312946e-004 9.04471090e-004 7.44009041e-004
      9.90501489e-004 6.53504860e-004 1.27767431e-004 5.91864577e-004
      2.77618266e-004 8.15827865e-004 2.48002994e-004 0.
      -1.97396316e-002 5.16443863e-004 0. 0. 0. 5.82386798e-004 0. 0.
      1.15001830e-003 2.00901646e-004 4.14331676e-004 0. 0.
      8.15827865e-004 0. 1.33307651e-003 1.38702372e-003 1.02981331e-003
      1.85701950e-003 3.58283869e-004 0. 2.06454366e-004 0. 0. 0.
      1.52325025e-004 0. 0. 0. 6.50982081e-004 4.01803292e-004
      1.06206178e-004 0. 6.38363766e-004 3.65141517e-004 0.
      1.43739235e-004 0. 3.47766938e-004 0. 1.94621636e-004
      1.17182164e-004 0. 0. 0. 8.97164689e-004 5.56004292e-004
      1.69413479e-003 1.65650190e-003 3.99176351e-004 0. 0. 0.
      9.72948765e-005 4.04910184e-004 0. 4.77790833e-004 4.39250958e-004
      5.32004342e-004 1.94621636e-004 5.27267286e-004 0. 0.
      9.03761073e-004 7.78417918e-004 0. 0. 0. 0. 0. 0. 0.
      6.86235726e-004 1.17182164e-004 1.37697067e-003 0. 0.
      6.80562924e-004 0. 0. 1.31884567e-003 0. 0. 0. 0. 1.84145814e-004
      0. 2.03234798e-004 1.25370803e-004 1.52325025e-004 3.65141517e-004
      6.88485336e-004 0. 0. 0. 1.75991721e-004 7.18754716e-004 0.
      9.72948765e-005 9.64742037e-004 0. 4.95250744e-004 3.99176351e-004
      5.16038097e-004 0. 0. 0. 0. 2.77618266e-004 2.80788256e-004
      1.36556366e-004 1.47752929e-004 0. 0. 3.12480814e-004 0.
      3.26752430e-004 3.19329381e-004 0. 2.80788256e-004 0. 0.
      4.95250744e-004 1.84690594e-004 0. 0. 0. 0. 0. 0. 2.77968938e-004
      0. 0. 3.26752430e-004 0. 0. 1.25370803e-004 0. 1.83319295e-004 0.
      5.27267286e-004 0. 1.24337547e-003 0. 0. 0. 3.36138823e-004
      2.91849195e-004 2.91849195e-004 0. 4.06469597e-004 0. 0.
      8.15827865e-004 1.09352148e-003 0. 9.49590234e-004 0. 0.
      9.49590234e-004 0. 0. 2.91849195e-004 2.80676613e-004
      1.96886307e-004 0. 0. 5.27267286e-004 0. 0. 1.65862992e-004
      5.95497608e-004 0. 0. 4.39250958e-004 0. 0. 0. 2.00901646e-004 0.
      0. 0. 6.00710220e-004 0. 0. 2.81455490e-004 2.63677706e-004
      2.22216418e-004 1.42633391e-004 -1.58969145e-002 0.
      2.58396030e-003 1.17182164e-004 2.48002994e-004 0. 0.
      4.39250958e-004 8.69579031e-004 1.27767431e-004 0. 0. 0.
      4.82371019e-004 7.23455683e-004 0. 2.73112732e-004 3.47766938e-004
      1.05453457e-003 0. 1.52325025e-004 0. 0. 0. 2.78312946e-004 0.
      1.46571873e-003 2.80676613e-004 9.91785666e-004 6.20818173e-004
      -1.65093262e-002 0. 0. 6.17126527e-004 0. 0. 0. 1.30347582e-003 0.
      9.75420175e-004 0. 8.79919855e-004 0. 6.48667745e-004
      2.16488770e-004 0. 0. 0. 5.95497608e-004 2.78794789e-004 0.
      4.77790833e-004 5.36918873e-004 0. 0. 0. 3.58283869e-004
      5.11333696e-004 4.27824853e-004 0. 5.94810583e-004 2.53584818e-004
      0. 0. 0. 0. 3.52948351e-004 5.61353227e-004 0. 0. 0.
      2.22216418e-004 0. 3.51983443e-004 1.46933272e-003 0.
      2.91849195e-004 1.87923410e-003 0. 1.75991721e-004 2.46742158e-004
      0. 1.65862992e-004 0. 0. 0. 1.03227183e-004 0. 0. 3.01253691e-004
      0. 0. 0. 0. 7.50985870e-004 1.37497694e-003 0. 0. 0. 0.
      1.31884567e-003 0. 0. 0. 9.85570601e-004 0. 2.88097392e-004 0.
      1.72088470e-003 1.11127365e-003 0. 4.04910184e-004 2.00901646e-004
      0. 0. 0. 0. 1.72088470e-003 1.79398368e-004 4.77790833e-004 0.
      6.30088325e-004 4.04910184e-004 0. 3.10409087e-004 0. 0. 0. 0. 0.
      0. 8.28663353e-004 0. 0. 0. 0. 2.57263484e-004 0. 0. 0. 0. 0. 0.
      8.09820369e-004 0. 0. 6.88485336e-004 0. 1.65171412e-004 0. 0. 0.
      0. 1.84145814e-004 1.17182164e-004 7.58467475e-004 0.
      9.90501489e-004 0. 0. 2.53584818e-004 0. 1.35483476e-003
      6.88485336e-004 0. 0. 5.14526968e-004 0. 0. 0. 7.22343684e-005 0.
      0. 0. 0. 0. 3.65898042e-004 0. 0. 0. 0. 0. 0. 2.50741607e-004 0.
      1.44468737e-004 3.58283869e-004 7.76956382e-004 2.00901646e-004
      3.66638589e-004 0. 0. 1.13881088e-003 7.22343684e-005
      2.43779691e-003 0. 0. 0. 0. 6.96005067e-004 0. 0. 0. 0.
      9.52829549e-004 0. 0. 1.06206178e-004 1.09547598e-003
      6.96005067e-004 6.53504860e-004 0. -2.00423878e-002
      1.22891308e-003 0. 1.98270180e-004 0. 1.29198015e-003
      5.20317408e-004 1.36556366e-004 1.00746448e-003 0. 0. 0.
      1.19414146e-003 2.44748360e-003 0. 0. 1.24163635e-003 0. 0.
      9.52829549e-004 0. 1.65862992e-004 3.42762156e-004 0. 0. 0. 0. 0.
      0. 2.34364328e-004 3.47766938e-004 0. 0. 0. 0. 4.95250744e-004
      8.72874050e-004 0. 1.84145814e-004 0. 2.00901646e-004 0. 0. 0.
      3.00085667e-004 8.15827865e-004 9.86604136e-004 0. 0. 0.
      2.95505859e-004 2.22216418e-004 2.16488770e-004 0. 4.14331676e-004
      0. 0. 0. 2.46915879e-004 0. 0. 0. 0. 1.54051930e-003
      7.40751624e-004 1.43739235e-004 2.46742158e-004 0. 0. 0.
      2.57263484e-004 0. 0. 2.80676613e-004 0. 0. 4.96005989e-004
      1.96886307e-004 4.39959927e-004 0. 4.06469597e-004 0. 0. 0.
      2.77618266e-004 0. 0. 7.74896005e-004 0. 0. 0. 0. 0. 0.
      1.11127365e-003 0. 1.43739235e-004 0. 0. 0. 0. 0. 0. 0. 0. 0.
      5.55236533e-004 0. 0. 0. 1.31884567e-003 1.29198015e-003 0.
      8.28663353e-004 0. 0. 1.47752929e-004 0. 2.00901646e-004 0. 0.
      1.52325025e-004 0. 0. 0. 5.37599379e-004 0. 0. 0. 0. 0. 0. 0. 0.
      2.50943151e-004 0. 0. 0. 1.20291149e-003 0. 0. 4.34194197e-004 0.
      1.24299503e-003 0. 0. 1.96886307e-004 0. 1.09352148e-003 0.
      3.89243272e-004 0. 0. 1.43739235e-004 4.39959927e-004
      1.24337547e-003 0. 0. 3.09681549e-004 0. 0. 0. 2.00901646e-004
      2.22216418e-004 0. 0. 3.43117863e-004 6.38363766e-004 0. 0. 0. 0.
      0. 0. 2.21613538e-003 0. 0. 0. 0. 1.89918047e-003 -4.76190485e-002
      0. 0. 0. 1.52325025e-004 0. 0. 0. 0. 0. 3.36138823e-004 0. 0.
      5.47754869e-004 1.01432728e-004 0. 0. 6.21687737e-004
      4.39959927e-004 0. 0. 0. 2.16488770e-004 5.27267286e-004
      5.47754869e-004 4.04910184e-004 5.88678231e-004 0. 0.
      2.13912426e-004 0. 0. 3.65141517e-004 0. 0. 0. 3.00479797e-003
      1.52325025e-004 1.03288773e-003 0. 5.14526968e-004 0. 0.
      1.65862992e-004 4.82371019e-004 2.16488770e-004 2.48002994e-004 0.
      4.04910184e-004 0. 1.94621636e-004 0. 4.16045019e-004 0.
      1.09352148e-003 0. 0. 0. 0. 5.27267286e-004 8.27552110e-004 0.
      5.34220657e-004 0. 0. -1.72413792e-002 1.29198015e-003 0. 0. 0.
      2.53584818e-004 0. 0. 0. 2.13912426e-004 -1.92788988e-002
      5.00799681e-004 0. 5.95497608e-004 5.95497608e-004 0. 0. 0. 0. 0.
      0. 0. 0. 0. 0. 0. 1.15001830e-003 0. 2.57263484e-004 0. 0. 0.
      3.43117863e-004 1.43739235e-004 0. 0. 0. 0. 9.72948765e-005 0. 0.
      3.99176351e-004 0. 0. 0. 1.19099522e-003 2.50943151e-004 0.
      -1.72413792e-002 5.61353227e-004 0. 0. 0. 0. 0. 2.78794789e-004 0.
      1.95894099e-004 0. -1.72413792e-002 0. 2.91849195e-004 0. 0.
      1.94621636e-004 0. 8.09820369e-004 4.39959927e-004 0. 0.
      2.09577894e-003 0. 1.73015008e-003 0. 0. 0. 0. 0. 0. 0.
      3.65141517e-004 0. 1.65862992e-004 6.88485336e-004 0. 0. 0.
      1.83319295e-004 1.36556366e-004 0. 0. 0. 0. 0. -2.30476595e-002 0.
      0. 4.34194197e-004 0. 0. 0. 1.65171412e-004 0. 0. 2.78794789e-004
      6.95533876e-004 1.94621636e-004 1.49059133e-003 0. 0. 0. 0. 0. 0.
      2.91849195e-004 0. 2.60158704e-004 0. 9.90501489e-004 0.
      1.17182164e-004 0. 0. 0. 0. 4.39250958e-004 0. 9.52665054e-004
      2.53584818e-004 0. 0. 0. 2.13912426e-004 2.88097392e-004
      5.00799681e-004 4.09831933e-004 3.36138823e-004 3.01253691e-004 0.
      -1.84657797e-002 0. 1.01432728e-004 0. 0. 3.08563263e-004 0.
      3.57453595e-004 1.95894099e-004 0. 0. 5.56625891e-004 0.
      1.50042833e-004 1.64326467e-003 0. 0. 0. 0. 0. 2.81455490e-004
      2.46742158e-004 0. 2.78794789e-004 1.47752929e-004 0. 0. 0. 0.
      1.36556366e-004 9.72948765e-005 0. 0. 0. 0. 5.20317408e-004 0. 0.
      3.65898042e-004 0. 0. 5.11333696e-004 0. 0. 0. 0. 0. 0. 0. 0.
      1.94621636e-004 0. 0. 2.03234798e-004 0. 1.96751347e-003
      1.43973308e-003 0. 6.38363766e-004 0. 0. 2.88097392e-004
      1.24020036e-003 4.82371019e-004 6.21687737e-004 5.42974449e-004 0.
      0. 0. 0. 1.88712799e-003 0. 6.07994734e-004 5.47754869e-004 0. 0.
      0. 6.38363766e-004 0. 3.08563263e-004 0. 2.57263484e-004
      3.51983443e-004 3.89243272e-004 0. 0. 0. 0. 1.17182164e-004 0. 0.
      2.03234798e-004 7.31796084e-004 0. 4.34194197e-004 0. 0.
      5.83698391e-004 0. 0. 7.22343684e-005 0. 3.65141517e-004 0.
      1.11127365e-003 0. 0. 8.15827865e-004 0. 2.91849195e-004 0. 0. 0.
      0. 1.29198015e-003 0. 0. 0. 2.63677706e-004 3.99176351e-004 0.
      6.21687737e-004 2.78794789e-004 0. 2.73112732e-004 1.36556366e-004
      0. 8.17198947e-004 5.57589578e-004 2.00901646e-004 1.39201013e-003
      0. 0. 5.76194783e-004 2.22254731e-003 0. 2.81455490e-004 0. 0. 0.
      2.16488770e-004 2.78312946e-004 0. 0. 0. 0. 0. 0. 0. 0.
      1.75991721e-004 5.16443863e-004 0. 0. 0. -2.26755142e-002
      5.11333696e-004 0. 3.66638589e-004 3.93772614e-004 0. 0. 0.
      1.27930194e-003 4.82318603e-004 0. 0. 5.00689552e-004 0.
      3.26752430e-004 0. 2.00901646e-004 7.64135853e-004 0.
      1.24337547e-003 0. 3.65141517e-004 2.06454366e-004 0. 0.
      1.10209931e-003 2.34364328e-004 1.65862992e-004 0. 0.
      1.09550974e-003 0. 0. 0. 0. 0. 0. 0. 1.25370803e-004 0. 0.
      8.80643027e-004 8.42029869e-004 0. 8.15827865e-004 2.50943151e-004
      -3.32746655e-002 0. 3.09681549e-004 1.83319295e-004 0.
      1.43739235e-004 2.16488770e-004 7.16567738e-004 0. 0.
      1.98270180e-004 0. 0. 5.00799681e-004 0. 5.62243746e-004
      1.72088470e-003 0. 4.04910184e-004 0. 0. 1.96886307e-004 0. 0.
      1.43739235e-004 0. 0. 5.56625891e-004 0. 0. 0. 3.52419418e-004
      1.11869257e-003 0. 2.50741607e-004 0. 0. 0. 0. 1.27767431e-004 0.
      2.60158704e-004 7.66003388e-004 0. 0. 0. 0. 0. 5.07169636e-004 0.
      1.11127365e-003 0. 0. 0. 1.36556366e-004 0. 0. 0. 9.72948765e-005
      2.77618266e-004 0. 2.00901646e-004 3.89243272e-004 4.64949117e-004
      0. 0. 0. 0. 0. 4.01803292e-004 1.27767431e-004 0. 0. 0. 0.
      2.77618266e-004 2.41311966e-004 1.09352148e-003 4.04910184e-004 0.
      9.91666748e-005 5.38719003e-004 5.61353227e-004 0. 0. 0. 0. 0. 0.
      7.64135853e-004 2.22216418e-004 0. 8.56329803e-004 0.
      1.52325025e-004 0. 0. 0. 0. 1.84145814e-004 0. 1.17182164e-004 0.
      0. 0. 1.01432728e-004 2.41454551e-003 0. 0. 0. 0. 0. 0. 0. 0.
      3.42762156e-004 2.88097392e-004 2.80788256e-004 1.60218484e-003 0.
      0. 0. 0. 4.39250958e-004 0. 0. 9.91666748e-005 7.64135853e-004 0.
      0. 0. 0. 4.39250958e-004 2.56249012e-004 2.80676613e-004 0.
      -2.38095243e-002 1.79398368e-004 0. 0. 1.96886307e-004 0. 0. 0.
      1.75991721e-004 8.15827865e-004 2.06454366e-004 1.41543790e-003
      1.52325025e-004 0. 0. 8.28663353e-004 3.36138823e-004 0. 0. 0. 0.
      0. 6.96005067e-004 1.64326467e-003 4.34194197e-004 5.62910980e-004
      0. 0. 0. 0. 1.04160274e-004 1.09352148e-003 0. 0. -3.10409889e-002
      5.95497608e-004 0. 0. -2.17542388e-002 0. 2.16488770e-004
      9.52829549e-004 0. 0. 2.41311966e-004 4.14331676e-004
      3.01253691e-004 1.03227183e-004 0. 0. 0. 1.16739678e-003
      1.01432728e-004 0. 2.57263484e-004 1.29198015e-003 2.57263484e-004
      0. 0. 0. 1.25370803e-004 1.17182164e-004 1.96886307e-004
      8.68388393e-004 0. 6.00710220e-004 0. 0. 0. 9.52829549e-004 0.
      2.77618266e-004 2.03234798e-004 0. 0. 7.59337156e-004 0. 0. 0.
      1.65171412e-004 0. 8.38012900e-004 0. 0. 1.98270180e-004 0. 0.
      6.20424224e-004 0. 0. 0. 2.77618266e-004 0. 6.88485336e-004
      6.72277645e-004 0. 0. 9.52829549e-004 4.64089127e-004 0.
      1.90565910e-003 0. 0. 1.94589753e-004 0. 0. 0. 0. 0.
      7.22343684e-005 -1.72413792e-002 0. 9.99973738e-004 0.
      4.04910184e-004 0. 0. 0. 0. 0. 0. 1.29198015e-003 5.95497608e-004
      0. 0. 0. 2.81455490e-004 6.96005067e-004 0. 3.58283869e-004 0.
      6.21687737e-004 0. 0. 0. 0. 1.72088470e-003 4.60623822e-004
      2.46742158e-004 1.85304787e-003 0. 0. 0. 0. 0. 0. 0.
      4.39250958e-004 0. 0. 0. 0. 0. 5.61576511e-004 0. 1.84690594e-004
      0. 6.00710220e-004 0. 0. 0. 0. 0. 0. 0. 0. 4.77790833e-004
      2.78794789e-004 0. 0. 0. 0. 0. 6.00710220e-004 0. 0. 0.
      5.95497608e-004 0. 0. 0. 0. 0. 0. 0. 0. 0. 0. 0. 0.
      3.31127527e-003 0. 0. 0. 1.06206178e-004 0. 0. 0. 2.81455490e-004
      0. 1.08614657e-003 0. 0. 0. 0. 1.79398368e-004 4.04910184e-004 0.
      0. 1.95894099e-004 0. 0. 0. 2.50943151e-004 3.10409087e-004 0.
      1.55523978e-003 0. 1.98333350e-004 2.81455490e-004 0.
      2.81455490e-004 0. 4.44432837e-004 0. 0. 2.00901646e-004 0. 0. 0.
      0. 0. 1.25370803e-004 2.02865456e-004 5.47754869e-004 0. 0. 0. 0.
      5.00799681e-004 0. 0. 0. 0. 0. 0. 0. 0. 4.88988764e-004 0.
      6.38658763e-004 2.88097392e-004 0. 2.57263484e-004 3.36138823e-004
      2.63677706e-004 0. 1.03227183e-004 0. 1.99741567e-003 0.
      5.95497608e-004 9.01785563e-004 4.82371019e-004 0. 5.16443863e-004
      0. 4.27824853e-004 4.95250744e-004 7.43343611e-004 0.
      1.47752929e-004 1.36556366e-004 0. 1.25413772e-003 1.41801243e-003
      0. 0. 0. 6.20818173e-004 0. 2.91849195e-004 0. 0. 0. 0. 0.
      4.39250958e-004 0. 0. 0. 0. 0. 0. 0. 0. 0. 0. 0. 7.59337156e-004
      0. 0. -2.38095243e-002 -2.38095243e-002 0. 2.66002171e-004 0.
      1.47752929e-004 0. 0. 0. 7.79044523e-004 0. 0. 5.45920688e-004 0.
      4.37206065e-004 0. 0. 1.13451178e-003 0. 0. 1.13157346e-003 0.
      4.95250744e-004 1.05931819e-003 0. 0. -1.67590082e-002
      1.98270180e-004 0. 1.36556366e-004 0. 0. 1.90565910e-003 0. 0. 0.
      0. 0. 0. 0. 3.50902439e-004 7.64135853e-004 2.77618266e-004 0.
      3.96540359e-004 0. 0. 0. 0. 0. 3.58283869e-004 0. -2.38095243e-002
      0. 0. 0. 0. 6.21687737e-004 1.29149447e-003 0. 2.91849195e-004 0.
      0. 0. 1.75991721e-004 5.47754869e-004 0. 0. 0. 0. 0. 0. 0.
      1.56525319e-004 0. 0. 0. 8.28663353e-004 1.43739235e-004 0. 0. 0.
      0. 0. 4.82371019e-004 5.95497608e-004 6.96005067e-004 0. 0.
      1.11127365e-003 0. 0. 2.29711086e-003 0. 2.57263484e-004 0.
      2.88097392e-004 1.22949586e-003 8.70029442e-004 0. 1.43739235e-004
      0. 0. 0. 0. 0. 0. 1.04160274e-004 0. 0. 1.27767431e-004 0. 0.
      1.30833022e-003 0. 0. 2.78794789e-004 2.46742158e-004
      2.08320547e-004 6.31143688e-004 0. 0. 0. 0. 6.72277645e-004 0.
      4.95250744e-004 1.03227183e-004 1.06206178e-004 1.86887092e-003 0.
      2.41311966e-004 0. 8.09008256e-004 0. 0. 0. -2.33996920e-002
      2.46915879e-004 0. 0. 5.14526968e-004 0. 7.22343684e-005
      1.06206178e-004 4.04910184e-004 2.57263484e-004 0. 6.02507382e-004
      2.63677706e-004 0. 0. 0. 0. 0. 6.09704410e-004 0. 7.23746605e-004
      5.62910980e-004 1.19633239e-003 0. 0. 0. 5.27355412e-004 0. 0. 0.
      0. 0. 0. 0. 3.58283869e-004 0. 4.39250958e-004 0. 1.56525319e-004
      0. 0. 7.22343684e-005 0. 2.57263484e-004 0. 0. 0. 6.98724820e-004
      2.00319872e-003 0. 0. 5.02648647e-004 0. 0. 3.08563263e-004 0.
      1.94589753e-004 0. -2.38095243e-002 0. 0. 2.53584818e-004 0. 0. 0.
      4.82623931e-004 0. 0. 0. 0. 0. 0. 0. 6.48667745e-004 0. 0. 0. 0.
      2.41311966e-004 1.43739235e-004 0. 0. 0. 4.39959927e-004 0.
      1.34229718e-004 0. 0. 0. 0. 0. 2.80788256e-004 0. 5.15504857e-004
      1.52827171e-003 0. 0. 8.44026159e-004 1.27672753e-003 0.
      2.03234798e-004 0. 0. 0. 5.27267286e-004 0. 0. 0. 0.
      2.35483795e-003 1.25370803e-004 0. 0. 2.81455490e-004 0. 0. 0. 0.
      6.88485336e-004 0. 0. 1.04160274e-004 6.28685986e-004 0. 0.
      2.18704296e-003 1.21183018e-003 0. 6.51681155e-004 2.00901646e-004
      0. 0. 0. 0. 0. 0. 3.48490692e-004 0. 3.58283869e-004 0.
      2.63677706e-004 5.62910980e-004 8.38140666e-004 0. 0. 0. 0.
      4.34194197e-004 0. 5.47754869e-004 0. 9.64742037e-004 0.
      6.38363766e-004 1.92569813e-003 3.01253691e-004 0. 0. 0. 0. 0. 0.
      0. 3.47766938e-004 5.57589578e-004 0. 3.48654576e-004
      2.77618266e-004 -1.69637613e-002 5.16443863e-004 3.43117863e-004
      2.91849195e-004 4.14331676e-004 0. 0. 0. 1.34229718e-004 0. 0.
      6.96005067e-004 0. 6.04026834e-004 0. 2.53584818e-004 0. 0. 0.
      1.01420027e-003 0. 1.72088470e-003 1.94621636e-004 0.
      5.43187081e-004 0. 7.98352703e-004 0. 0. 0. 0. 5.45920688e-004 0.
      0. 1.65171412e-004 0. 0. 0. 1.65171412e-004 3.99176351e-004 0. 0.
      0. 0. 0. -2.38095243e-002 0. 1.31884567e-003 0. 1.43739235e-004 0.
      0. 2.22216418e-004 0. 0. 0. 0. 0. 2.63769133e-003 0.
      9.90501489e-004 0. 2.13912426e-004 0. 1.45271933e-003
      1.11152860e-003 0. 0. 1.07485161e-003 6.21687737e-004
      3.54795484e-004 0. 0. 0. 1.24337547e-003 5.56625891e-004
      1.75991721e-004 0. 0. 0. 0. 1.04160274e-004 1.52325025e-004
      1.56525319e-004 0. 0. 0. 0. 0. 0. 1.40766834e-003 1.01432728e-004
      0. -4.76190485e-002 1.29589695e-003 2.78794789e-004 0.
      1.43739235e-004 0. 0. 0. 0. 0. 0. 0. 0. 4.03679296e-004 0.
      1.17182164e-004 5.00799681e-004 4.82371019e-004 0. 0. 0.
      5.95497608e-004 0. 0. 0. 0. 0. 0. 1.25370803e-004 0.
      1.01432728e-004 0. 0. 0. 0. 0. 2.85266782e-004 1.84145814e-004 0.
      8.79919855e-004 2.88097392e-004 8.15827865e-004 0. 6.00710220e-004
      -6.93724602e-002 2.78794789e-004 0. 0. 0. 5.00799681e-004 0. 0. 0.
      0. 1.35818950e-003 0. 6.09704410e-004 5.16443863e-004 0. 0. 0. 0.
      0. 0. 9.64742037e-004 8.79919855e-004 1.02828641e-003 0. 0.
      1.01432728e-004 1.01432728e-004 2.62731483e-004 2.57263484e-004
      1.43739235e-004 0. 0. 0. 2.60158704e-004 0. 0. 0. 0.
      5.95497608e-004 0. 0. 6.88485336e-004 3.65898042e-004
      6.58345234e-004 0. 0. 0. 0. 0. 0. 0. 0. 6.88485336e-004 0.
      1.29198015e-003 0. 3.76112410e-004 0. 3.36138823e-004 0.
      5.45920688e-004 9.91666748e-005 7.31796084e-004 0. 0. 0.
      8.15827865e-004 0. 0. 1.83319295e-004 0. 2.77618266e-004 0.
      1.94589753e-004 0. 0. 0. 2.66002171e-004 0. 1.79432938e-003 0. 0.
      0. 2.48002994e-004 0. 1.03227183e-004 0. 0. 0. 0. 0. 0.
      2.46742158e-004 0. 2.66002171e-004 0. 1.34229718e-004
      3.43117863e-004 0. 0. 0. 0. 6.88485336e-004 7.01280369e-004
      4.14331676e-004 1.34878536e-003 0. 0. -2.35458463e-002 0.
      8.97164689e-004 2.97795748e-004 7.22343684e-005 0. 0. 0. 0. 0.
      4.39250958e-004 0. 4.06469597e-004 5.45920688e-004 0. 0. 0. 0.
      2.48002994e-004 4.77790833e-004 0. 0. 0. 0. 0. 0. 6.38363766e-004
      0. 2.63677706e-004 0. 2.57263484e-004 0. 3.58283869e-004 0.
      8.99976003e-004 1.11127365e-003 0. 0. 0. 0. 0. 0. 0. 0.
      1.12582196e-003 0. 4.09831933e-004 0. 4.34194197e-004 0. 0. 0.
      1.94621636e-004 0. 5.45920688e-004 2.53584818e-004 0. 0. 0.
      5.16443863e-004 8.06150201e-004 8.09820369e-004 1.03227183e-004
      3.43117863e-004 0. 0. 2.88097392e-004 0. 0. 0. 0. 0. 0. 0. 0.
      1.43739235e-004 8.09820369e-004 4.44432837e-004 1.98270180e-004 0.
      0. 0. 0. 0. 2.46915879e-004 9.91666748e-005 9.72948765e-005
      9.52384260e-004 4.34194197e-004 0. 0. 6.00710220e-004 0. 0.
      2.16488770e-004 0. 4.39959927e-004 0. 0. 0. 0. 1.65171412e-004 0.
      0. 0. 0. 0. 9.91666748e-005 0. 1.27767431e-004 4.39250958e-004
      1.98333350e-004 0. 0. 3.58796737e-004 8.15827865e-004 0.
      2.88097392e-004 1.72088470e-003 3.43117863e-004 0. 7.79112568e-004
      0. 0. 2.08320547e-004 0. 3.08563263e-004 2.81455490e-004
      7.37949566e-004 0. 0. 0. 0. 2.03234798e-004 0. 0. 0.
      1.31884567e-003 0. 0. 0. 4.17344621e-004 0. 5.83698391e-004
      7.22343684e-005 3.99176351e-004 0. 2.60158704e-004 1.25370803e-004
      8.34938837e-004 2.50943151e-004 1.84145814e-004 0. 0.
      9.49590234e-004 0. 2.53584818e-004 0. 0. 0. 4.06469597e-004 0.
      8.09820369e-004 7.94889114e-004 5.00799681e-004 2.03234798e-004
      2.91849195e-004 4.39959927e-004 0. 0. 0. 0. 2.53584818e-004
      2.03234798e-004 0. 0. 0. 0. 0. 0. 9.22330946e-004 0. 0.
      1.27767431e-004 0. 8.68388393e-004 6.96005067e-004 0.
      4.93484316e-004 0. 0. 0. 0. 6.21687737e-004 0. 1.26242568e-003
      4.14331676e-004 6.52947230e-004 3.34188633e-004 5.00799681e-004
      1.75991721e-004 9.64742037e-004 0. 0. 0. 1.29198015e-003
      4.95250744e-004 3.01253691e-004 2.80676613e-004 0. 0.
      4.06469597e-004 0. 0. 5.76961320e-004 9.91666748e-005 0.
      1.42633391e-004 0. 0. 8.78501916e-004 0. 0. 7.03259022e-004
      1.56525319e-004 0. 3.65141517e-004 0. 1.79398368e-004
      5.27267286e-004 2.12412357e-004 0. 0. 1.98333350e-004 0. 0.
      5.00799681e-004 0. 3.10409087e-004 4.95250744e-004 3.42762156e-004
      0. 0. 0. 0. 4.03679296e-004 6.30494498e-004 3.44176940e-003
      3.65141517e-004 0. 3.19329381e-004 0. 0. 0. 0. 4.77790833e-004 0.
      0. 9.52829549e-004 0. 0. 0. 1.36556366e-004 1.98333350e-004
      2.46742158e-004 0. 8.15827865e-004 0. 0. 0. 7.18754716e-004 0. 0.
      4.04910184e-004 0. 0. 0. 0. 0. 0. 1.94589753e-004 2.63677706e-004
      -1.28772464e-002 0. 1.27767431e-004 7.98352703e-004
      6.96005067e-004 1.84145814e-004 4.34194197e-004 2.81455490e-004
      1.50042833e-004 0. 1.56525319e-004 2.22216418e-004 0. 0. 0. 0. 0.
      0. 0. 0. 8.19663866e-004 2.13912426e-004 2.88097392e-004 0. 0. 0.
      0. 0. 0. 0. 0. 0. 1.98333350e-004 0. 1.11127365e-003 0. 0. 0.
      9.72948765e-005 0. 0. 0. 0. 5.57030318e-004 0. 0. 4.04910184e-004
      0. 0. 2.50943151e-004 0. 0. 0. 0. 9.52829549e-004 0. 0.
      1.27773779e-003 0. 0. 0. 0. 0. 0. 0. 0. 0. 0. 1.65171412e-004 0.
      0. 3.36138823e-004 0. 0. 0. 2.63677706e-004 0. 0. 3.71885835e-004
      0. 5.47754869e-004 3.58283869e-004 0. 1.84145814e-004 0. 0. 0.
      2.81455490e-004 2.60158704e-004 0. 0. 0. 6.38658763e-004 0.
      2.60158704e-004 0. -2.38095243e-002 5.11333696e-004
      1.72088470e-003 0. 0. 1.37762039e-003 0. 0. 0. 0. 1.27767431e-004
      1.47752929e-004 0. 0. 0. 0. 8.44366499e-004 0. 0. 0.
      1.17182164e-004 2.57263484e-004 0. 0. 0. 5.32004342e-004 0. 0. 0.
      2.28881952e-003 0. 1.39201013e-003 3.26752430e-004 0. 0.
      2.03234798e-004 3.42762156e-004 5.47754869e-004 0. 4.77790833e-004
      7.20854383e-004 0. 6.88485336e-004 3.00085667e-004 0. 0. 0. 0. 0.
      0. 0. 5.15940890e-004 0. 1.75991721e-004 0. 0. 0. 0.
      7.04712525e-004 8.78501916e-004 0. 0. 0. 0. 0. 1.31884567e-003
      1.52325025e-004 1.46056607e-003 9.91666748e-005 0. 2.66002171e-004
      2.53584818e-004 -1.61396749e-002 0. 0. 0. 1.03227183e-004
      3.47766938e-004 0. 0. 0. 1.96886307e-004 0. 0. 8.97164689e-004 0.
      9.72948765e-005 1.06206178e-004 0. 3.10409087e-004
      -1.72413792e-002 3.47766938e-004 0. 0. 0. 0. 1.04160274e-004 0. 0.
      0. 0. 0. 1.09550974e-003 0. 5.47754869e-004 0. 0. 1.06206178e-004
      9.52829549e-004 0. 0. 0. 0. 0. 0. 0. 2.57263484e-004 0.
      1.42633391e-004 0. 0. 1.03227183e-004 0. 0. 0. 0. 0. 0. 0. 0. 0.
      0. 2.68459436e-004 0. 0. 0. 3.36138823e-004 2.22216418e-004
      2.53584818e-004 9.72948765e-005 6.21687737e-004 0. 0. 0. 0. 0. 0.
      0. 1.79398368e-004 0. 0. 4.03679296e-004 0. 0. 4.23126476e-004 0.
      0. 0. 1.84145814e-004 0. 0. 0. 0. 8.92891316e-004 0.
      1.84145814e-004 0. 0. 1.51867431e-003 4.34194197e-004 0. 0. 0. 0.
      0. 0. 0. 2.46742158e-004 0. 0. 7.41179741e-004 7.73912354e-004 0.
      9.49590234e-004 1.96886307e-004 0. 0. 1.88655558e-003 0. 0. 0. 0.
      4.03679296e-004 0. 0. 0. 4.77790833e-004 0. 1.72088470e-003
      2.46742158e-004 0. 0. 0. 3.08563263e-004 3.42762156e-004 0. 0.
      2.50943151e-004 5.96485217e-004 2.50943151e-004 0. 0. 0. 0. 0.
      3.43117863e-004 6.38363766e-004 2.78794789e-004 0. 0. 0. 0. 0. 0.
      1.84145814e-004 0. 1.31884567e-003 0. 0. 1.11127365e-003 0. 0. 0.
      1.27767431e-004 1.50042833e-004 0. 0. 0. 6.96005067e-004 0. 0.
      7.19825388e-004 0. 0. 2.41311966e-004 0. 0. 0. 5.89230331e-004 0.
      0. 3.47766938e-004 0. 0. 0. 0. 1.11127365e-003 0. 0.
      1.19353132e-003 0. 0. 0. 0. 3.01253691e-004 0. 1.31884567e-003
      1.50042833e-004 0. 0. 0. 0. 5.95497608e-004 2.57263484e-004 0. 0.
      2.53584818e-004 0. 0. 0. 4.83080221e-004 0. 4.39959927e-004 0. 0.
      0. 0. 0. 0. 4.04910184e-004 0. 0. 0. 1.94621636e-004 0. 0.
      6.73704781e-004 0. 0. 0. 2.88097392e-004 0. 4.44432837e-004
      1.84690594e-004 1.36556366e-004 1.84145814e-004 -2.38095243e-002
      0. 0. 0. 0. 1.47752929e-004 1.79398368e-004 3.65141517e-004
      5.16443863e-004 6.15665107e-004 0. 4.95250744e-004 0.
      3.42762156e-004 0. 1.75991721e-004 0. 3.19329381e-004
      6.30123948e-004 0. 2.06454366e-004 2.50943151e-004 0. 0.
      1.84145814e-004 0. 0. 2.48002994e-004 0. 1.83319295e-004
      5.90658921e-004 0. 0. 0. 0. 6.88485336e-004 0. 0. 0.
      1.28950772e-003 0. 2.29240744e-003 0. 0. 0. 1.31017307e-003 0. 0.
      2.46742158e-004 0. 0. 2.43287138e-003 0. 0. 0. 0. 1.36556366e-004
      1.84690594e-004 6.09704410e-004 7.16567738e-004 1.66174537e-003 0.
      2.13912426e-004 0. 0. 0. 0. 0. 1.52325025e-004 1.37495133e-003 0.
      0. 0. 1.30214682e-003 0. 1.72088470e-003 8.15827865e-004 0. 0.
      2.54035229e-003 2.60158704e-004 1.83319295e-004 0. 0. 0.
      4.39250958e-004 6.38363766e-004 9.72948765e-005 0. 0. 0.
      1.65953627e-003 0. 4.82371019e-004 3.58283869e-004 1.72088470e-003
      5.40946960e-004 0. 9.72948765e-005 0. 2.00901646e-004 0. 0. 0.
      2.88097392e-004 0. 2.41311966e-004 3.68291629e-004 0. 0. 0. 0. 0.
      0. 0. 3.58283869e-004 0. 3.43117863e-004 0. 4.09831933e-004
      9.72948765e-005 0. 9.91666748e-005 0. 0. 0. 0. 7.46230304e-004 0.
      2.03234798e-004 0. 0. 3.65141517e-004 0. 0. 8.75547645e-004 0. 0.
      0. 0. 1.72088470e-003 0. 6.02704939e-004 0. 0. 1.25370803e-004 0.
      0. 0. 0. 1.76433229e-003 2.50943151e-004 0. 4.93484316e-004
      6.38363766e-004 5.00799681e-004 2.73112732e-004 2.50943151e-004
      2.80676613e-004 0. 0. 7.39302544e-004 0. 9.91666748e-005
      2.22216418e-004 2.88097392e-004 0. 0. 2.91849195e-004 0. 0. 0. 0.
      0. 0. 0. 0. 0. 0. 0. 1.46603410e-003 4.03679296e-004 0. 0. 0. 0.
      4.82371019e-004 0. 4.01803292e-004 0. 1.09352148e-003
      1.25370803e-004 0. 0. 0. 0. 0. 0. 0. 1.29198015e-003
      1.19752903e-003 0. 2.81455490e-004 1.27767431e-004 9.91666748e-005
      1.36556366e-004 0. 0. 3.10409087e-004 0. 0. 0. 1.29594747e-003 0.
      0. 0. 1.04160274e-004 0. 0. 0. 5.11333696e-004 6.72277645e-004 0.
      0. 0. 0. 0. 0. 0. 6.00710220e-004 0. 0. 0. 0. 0. 0. 0. 0. 0. 0. 0.
      0. 0. 2.80788256e-004 0. 0. 0. 0. 1.72088470e-003 0. 0.
      2.22216418e-004 4.82623931e-004 0. 1.51867431e-003 6.21687737e-004
      0. 0. 1.20665564e-003 0. 0. -1.72413792e-002 6.21687737e-004
      2.53805378e-003 0. 0. 0. 0. 0. 0. 5.32004342e-004 0.
      2.16488770e-004 0. 4.11913585e-004 0. 3.65141517e-004
      2.46915879e-004 0. 2.46742158e-004 2.80788256e-004 0. 0. 0.
      2.81455490e-004 0. 2.77618266e-004 3.87264066e-004 3.43117863e-004
      4.34194197e-004 0. 0. 0. 1.95894099e-004 0. 0. 1.34229718e-004 0.
      6.77971111e-004 0. 7.63359771e-004 2.22216418e-004 0.
      2.22254731e-003 2.48002994e-004 0. 7.21888908e-004 0. 0. 0.
      2.80676613e-004 0. 7.64135853e-004 0. 3.66638589e-004
      1.96886307e-004 0. 0. 0. 0. 0. 1.74286868e-003 1.34229718e-004 0.
      3.30342824e-004 0. 0. 0. 0. 0. 0. 2.77618266e-004 1.06206178e-004
      1.31884567e-003 1.52325025e-004 0. 0. 0. 8.79919855e-004 0. 0. 0.
      1.42633391e-004 0. 0. 0. 0. 0. 1.39201013e-003 0. 0. 0.
      7.64135853e-004 0. 0. 2.86554743e-004 0. 0. 1.27767431e-004 0.
      4.04910184e-004 0. 0. 2.13912426e-004 0. 0. 0. 0. 0.
      1.17182164e-004 0. 0. 1.03227183e-004 2.50741607e-004 0. 0. 0.
      4.82371019e-004 0. 0. 2.16488770e-004 0. 2.48002994e-004 0. 0. 0.
      6.38363766e-004 1.84760115e-003 0. 0. 1.29198015e-003 0.
      3.08563263e-004 0. 8.14380124e-004 0. 0. 0. 3.26752430e-004
      8.09820369e-004 0. 5.27267286e-004 0. 0. 0. 0. 2.88097392e-004 0.
      4.09831933e-004 1.94621636e-004 3.26752430e-004 0. 0. 0.
      2.77618266e-004 1.52325025e-004 4.09831933e-004 0. 0.
      4.34194197e-004 2.80788256e-004 0. 2.53584818e-004 0.
      2.78312946e-004 2.50741607e-004 0. 0. 2.03234798e-004
      7.59337156e-004 0. 0. 1.01432728e-004 0. 3.08563263e-004
      6.72277645e-004 4.34194197e-004 0. 1.27767431e-004 1.52325025e-004
      0. 0. 3.99176351e-004 0. 2.80676613e-004 0. 0. 0. 0. 0. 0. 0. 0.
      1.31884567e-003 0. 0. 0. 0. 1.98270180e-004 0. 9.91666748e-005 0.
      0. 9.37099219e-004 0. 0. 6.21687737e-004 0. 1.17182164e-004 0. 0.
      2.60158704e-004 3.01253691e-004 0. 0. 0. 1.63165573e-003 0. 0.
      3.00085667e-004 6.20818173e-004 3.58283869e-004 1.29733549e-003 0.
      0. 2.91849195e-004 0. 1.36556366e-004 0. 1.36556366e-004 0.
      1.78200682e-003 0. 0. 0. 0. 0. 4.83911426e-004 0. 2.78312946e-004
      0. 5.47754869e-004 0. 0. 0. 0. 0. 4.95442888e-004 0.
      3.65141517e-004 5.16443863e-004 0. 1.25370803e-004 0. 0.
      9.91666748e-005 0. 0. 2.66002171e-004 5.38195134e-004 0.
      7.64135853e-004 0. 2.12412357e-004 0. 0. 3.91742244e-004
      1.22589502e-003 4.04910184e-004 0. 0. -1.72413792e-002
      3.65141517e-004 0. 0. 1.84690594e-004 0. 0. 5.95497608e-004 0.
      6.00710220e-004 0. 0. 0. 0. 6.38363766e-004 0. 0. 1.09352148e-003
      0. 0. 7.30283034e-004 1.47752929e-004 2.78794789e-004 0. 0. 0. 0.
      4.39959927e-004 9.72948765e-005 1.75991721e-004 6.13738783e-004 0.
      0. 5.95497608e-004 0. 0. 0. 0. 1.84145814e-004 -1.68040656e-002
      5.95497608e-004 0. 0. 1.50042833e-004 0. 0. -2.37062965e-002 0. 0.
      1.52325025e-004 0. 0. 0. 0. 3.87926149e-004 0. 1.05199625e-003 0.
      8.97164689e-004 4.95250744e-004 2.33973609e-004 0. 0.
      1.65862992e-004 1.79432938e-003 0. 0. 0. 0. 1.94621636e-004 0. 0.
      3.04650050e-004 9.64742037e-004 0. 2.63677706e-004 0. 0. 0. 0. 0.
      0. 0. 0. 0. -2.38095243e-002 6.38363766e-004 2.55534862e-004
      4.46933642e-004 0. 3.08563263e-004 3.43117863e-004 0. 0. 0.
      3.99176351e-004 3.30342824e-004 5.55236533e-004 0. 1.42633391e-004
      2.88097392e-004 0. 0. 0. 8.68388393e-004 0. 9.52829549e-004 0.
      7.37949566e-004 0. 0. 3.42762156e-004 0. 0. 0. 1.17182164e-004 0.
      6.88485336e-004 1.27767431e-004 6.96005067e-004 0. 0. 0.
      3.26752430e-004 1.34229718e-004 0. 0. 0. 2.63769133e-003 0. 0.
      2.00901646e-004 0. 0. 0. 0. 0. 0. 1.72088470e-003 6.00710220e-004
      0. 0. 1.43739235e-004 0. 0. 0. 0. 0. 0. 2.12412357e-004
      4.14331676e-004 0. 7.22343684e-005 4.43258759e-004 1.04160274e-004
      0. 3.26752430e-004 1.27767431e-004 1.29198015e-003 2.78312946e-004
      0. 0. 2.80676613e-004 3.26752430e-004 0. 0. 0. 0. 0.
      1.36556366e-004 1.79398368e-004 0. 9.49590234e-004 0. 0.
      -1.72413792e-002 0. 0. 4.04910184e-004 2.16488770e-004 0.
      1.47752929e-004 0. 0. 0. 0. 2.60158704e-004 0. 0. 0.
      2.30994614e-004 0. 0. 0. 2.66002171e-004 0. 0. 1.79398368e-004 0.
      6.94493938e-004 0. 0. 0. 0. 9.55581665e-004 4.34194197e-004 0. 0.
      0. 1.03227183e-004 4.37571551e-004 0. 1.65862992e-004
      3.26752430e-004 1.03288773e-003 0. 1.56525319e-004 0.
      3.58283869e-004 7.22343684e-005 5.47754869e-004 2.78794789e-004
      3.10409087e-004 4.34194197e-004 0. 0. 0. 6.38363766e-004 0. 0.
      2.81455490e-004 0. 0. 0. 0. 0. 6.00710220e-004 0. 0.
      1.84145814e-004 0. 1.72516110e-003 4.62458760e-004 0. 0. 0.
      2.46742158e-004 1.75991721e-004 0. 6.48667745e-004 1.11127365e-003
      0. 0. 0. 0. 2.03234798e-004 0. 0. 2.00901646e-004 0. 0.
      4.04910184e-004 2.03234798e-004 1.47752929e-004 0. 0. 0. 0. 0. 0.
      0. 4.87743295e-004 0. 0. 0. 4.14331676e-004 0. 0. 0. 0. 0.
      1.52325025e-004 3.84519110e-004 4.39959927e-004 1.32112112e-003 0.
      0. 0. 0. 0. 1.65862992e-004 1.27767431e-004 0. 0. 0.
      1.52325025e-004 6.48667745e-004 0. 4.01803292e-004 9.49590234e-004
      1.72088470e-003 0. 3.26752430e-004 0. 0. 0. 0. 0. 0. 0.
      4.97589004e-004 0. 8.31039157e-004 0. 7.59337156e-004 0.
      3.65141517e-004 0. 0. 1.65862992e-004 0. 0. 5.47754869e-004 0.
      7.93299929e-004 0. 0. 0. 0. 0. 5.27267286e-004 4.14331676e-004 0.
      0. 6.21687737e-004 5.00799681e-004 0. 2.22216418e-004
      5.00799681e-004 0. 1.72088470e-003 5.95497608e-004 0.
      5.45920688e-004 9.29344387e-004 0. 0. 4.03679296e-004 0. 0. 0.
      1.01432728e-004 0. 0. 0. 0. 0. 0. 0. 0. 0. 0. 0. -2.38095243e-002
      2.81455490e-004 0. 0. 0. 5.16443863e-004 0. 0. 9.91666748e-005 0.
      0. 1.96886307e-004 0. 0. 0. 1.75991721e-004 5.95497608e-004 0.
      2.60158704e-004 0. 0. 8.26339470e-004 1.43739235e-004 0. 0. 0. 0.
      3.47766938e-004 0. 1.56525319e-004 2.41311966e-004 0. 0.
      2.41311966e-004 0. 0. 0. 0. 0. 0. 4.29943291e-004 5.56625891e-004
      0. 0. 0. 1.17182164e-004 2.63769133e-003 0. 4.34194197e-004
      6.96005067e-004 0. 0. 0. 0. 8.15827865e-004 0. 0. 0. 0. 0.
      9.97258699e-004 0. 0. 0. 2.86123308e-004 0. 2.03234798e-004 0.
      3.01253691e-004 0. 0. 2.50943151e-004 1.94589753e-004 0. 0.
      4.77790833e-004 0. 1.27767431e-004 0. 6.96005067e-004 0.
      1.44468737e-004 1.96636049e-003 0. 0. 0. 0. 0. 0. 0.
      8.97164689e-004 0. 4.95250744e-004 1.52325025e-004 2.91849195e-004
      5.95497608e-004 0. 0. 0. 0. 0. 0. 0. 2.03234798e-004 0.
      2.00843834e-003 0. 0. 0. 1.01432728e-004 0. 0. 1.04160274e-004
      3.00085667e-004 0. 3.47766938e-004 0. 1.84145814e-004 0. 0.
      -2.38095243e-002 0. -1.60882883e-002 0. 1.27767431e-004
      3.65898042e-004 2.66002171e-004 3.99176351e-004 0. 6.96005067e-004
      4.39250958e-004 0. 0. 0. 0. 0. 0. 0. 0. 1.06206178e-004 0. 0.
      1.17182164e-004 4.04910184e-004 4.04910184e-004 7.59337156e-004 0.
      0. 0. 0. 0. 2.22216418e-004 0. 3.08563263e-004 6.09704410e-004 0.
      9.64742037e-004 2.57263484e-004 0. 2.16488770e-004 0. 0. 0. 0. 0.
      0. 0. 0. 1.25370803e-004 7.75357359e-004 2.88097392e-004 0.
      3.65141517e-004 4.52649896e-004 1.63165573e-003 0. 1.43739235e-004
      0. 1.27767431e-004 0. 0. 2.63677706e-004 0. 0. 0. 0.
      1.27767431e-004 0. 3.00085667e-004 0. 3.58283869e-004 0. 0. 0. 0.
      0. 3.08563263e-004 0. 3.26752430e-004 0. 1.11127365e-003 0. 0.
      2.77618266e-004 0. 1.39201013e-003 0. 4.34194197e-004 0. 0. 0. 0.
      0. 4.01803292e-004 1.25370803e-004 0. 0. 0. 6.21687737e-004 0. 0.
      0. 0. 0. 0. 0. 0. 0. 0. 0. 2.46742158e-004 0. 2.16488770e-004 0.
      5.16443863e-004 3.65898042e-004 0. 0. 0. 2.22216418e-004 0.
      1.43739235e-004 1.65171412e-004 0. 0. 7.59337156e-004 0. 0. 0. 0.
      6.66649255e-004 0. 0. 0. 0. 4.32977540e-004 0. 0. 0. 0. 0.
      1.72088470e-003 2.78794789e-004 0. 0. 0. 0. 0. 0. 2.57263484e-004
      0. 4.71347681e-004 0. 0. 0. 0. 0. 5.16443863e-004 0. 0.
      4.39959927e-004 0. 0. 8.15827865e-004 5.47754869e-004 0. 0. 0. 0.
      0. 8.15827865e-004 0. 1.56525319e-004 5.95497608e-004 0.
      4.14331676e-004 0. 2.50943151e-004 0. 2.00901646e-004
      4.39959927e-004 0. 0. 0. 0. 0. 3.10409087e-004 0. 0. 0. 0. 0. 0.
      0. 1.52827171e-003 0. 0. 6.48667745e-004 1.43739235e-004
      1.11127365e-003 0. 0. 6.96005067e-004 0. 0. 2.22216418e-004 0. 0.
      0. 0. 1.83319295e-004 2.80676613e-004 0. 9.91666748e-005 0. 0. 0.
      0. 0. 0. 0. 0. 0. 0. 0. 2.46742158e-004 0. 1.04160274e-004
      1.17182164e-004 0. 0. 0. 0. 0. 0. 0. 2.22216418e-004
      2.78794789e-004 0. 1.17182164e-004 1.03288773e-003 1.72088470e-003
      0. 0. 0. 0. 0. 0. 2.80788256e-004 1.96886307e-004 3.26752430e-004
      3.10409087e-004 0. 0. 2.77618266e-004 0. 1.17182164e-004 0. 0. 0.
      0. 2.06364691e-003 6.38363766e-004 9.49590234e-004 0.
      3.10409087e-004 0. 0. 5.00799681e-004 0. 0. 0. 0. 3.10409087e-004
      0. 0. 0. 0. 2.13912426e-004 4.47318482e-004 9.49590234e-004 0. 0.
      0. 0. 0. 0. 0. 0. 0. 9.72948765e-005 0. 0. 0. 0. 5.57589578e-004
      1.25370803e-004 1.31884567e-003 0. 0. 0. 2.13912426e-004 0. 0. 0.
      0. 4.95250744e-004 0. 0. 7.64135853e-004 0. 3.08690098e-004
      2.91849195e-004 1.27767431e-004 6.38363766e-004 2.08801520e-003
      4.77790833e-004 0. 2.77618266e-004 0. 0. 0. 0. 0. 3.47766938e-004
      0. 1.29198015e-003 2.46742158e-004 9.91666748e-005 0.
      7.22343684e-005 0. 0. 0. 1.29198015e-003 0. 2.16488770e-004
      1.50042833e-004 0. 1.04160274e-004 0. 1.39201013e-003 0. 0.
      2.87478470e-004 6.86235726e-004 0. 1.06206178e-004 5.11333696e-004
      4.62940603e-004 0. 1.75461551e-004 0. 0. 0. 0. 0. 0.
      1.31884567e-003 0. 0. -1.72413792e-002 0. 7.62075302e-004
      1.52632419e-003 0. 0. 0. 0. 0. 0. 0. 6.51083305e-004 0. 0. 0. 0.
      0. 2.22216418e-004 5.61353227e-004 0. 0. 7.24657963e-004
      1.29198015e-003 0. 1.98333350e-004 1.09352148e-003 0.
      3.26752430e-004 3.47766938e-004 0. 0. 0. 0. 0. 0. 4.69575956e-004
      0. 0. 0. 0. 7.82446063e-004 0. 0. 0. 0. 9.80114914e-004 0.
      4.04910184e-004 0. 2.46742158e-004 0. 0. 0. 0. 7.98352703e-004 0.
      0. 5.27267286e-004 0. 0. 0. 0. 0. 1.50042833e-004 5.08137338e-004
      0. 4.14331676e-004 6.96005067e-004 0. 0. -1.72413792e-002
      2.06454366e-004 0. 0. 3.42762156e-004 1.34405377e-003 0. 0.
      3.89243272e-004 0. 1.94621636e-004 0. 0. 3.10409087e-004 0.
      3.10409087e-004 0. 0. 0. 0. 3.99176351e-004 0. 8.64292204e-004
      2.78794789e-004 0. 0. 0. 0. 1.35927659e-003 0. 0. 0. 0. 0.
      1.98333350e-004 0. 0. 0. 0. 2.81455490e-004 1.82504498e-003 0. 0.
      2.78794789e-004 1.36556366e-004 3.65898042e-004 0. 0.
      6.01796492e-004 0. 0. 0. 6.61936647e-004 0. 2.66002171e-004 0. 0.
      0. 0. 0. 0. 0. 0. 1.98270180e-004 0. 0. 0. 1.94621636e-004 0.
      1.03227183e-004 0. 0. 1.47752929e-004 0. 0. 0. 0. 0.
      1.94621636e-004 0. 1.43739235e-004 5.85823669e-004 0.
      -1.72413792e-002 0. 0. 0. 0. 0. 0. 0. 1.50042833e-004 0. 0. 0. 0.
      1.50613429e-003 0. 0. 2.87478470e-004 6.47811044e-004 0.
      5.00799681e-004 2.53584818e-004 2.41311966e-004 0. 5.16443863e-004
      0. 0. 1.83319295e-004 0. 0. 0. 0. 0. 0. 0. 0. 9.72948765e-005
      1.09374244e-003 0. 0. 4.06469597e-004 0. 0. 0. 2.41311966e-004
      1.11127365e-003 0. 4.39250958e-004 0. 3.72286682e-004
      1.36556366e-004 2.48002994e-004 0. 0. 2.78312946e-004
      6.48667745e-004 2.22216418e-004 0. 2.03234798e-004 0. 0. 0.
      7.64135853e-004 0. 6.34702097e-004 0. 0. 0. 0. 1.47156988e-003
      3.36138823e-004 0. 6.20818173e-004 -2.38095243e-002 0. 0. 0.
      4.82371019e-004 0. 2.57263484e-004 0. 0. 0. 2.88097392e-004 0.
      3.36138823e-004 0. 1.17410661e-003 0. 9.49590234e-004 0.
      3.97970434e-004 0. 0. 0. 0. 2.00901646e-004 0. 0. 5.00799681e-004
      0. 0. 0. 0. 1.34229718e-004 2.46742158e-004 0. 1.29198015e-003 0.
      0. 3.99176351e-004 0. 2.50943151e-004 0. 5.45920688e-004 0. 0. 0.
      7.64135853e-004 8.39104410e-004 0. 0. 1.47752929e-004 0.
      4.09831933e-004 0. 5.75085694e-004 0. 1.31884567e-003 0. 0. 0. 0.
      0. 3.42762156e-004 1.47752929e-004 0. 5.76194783e-004 0. 0.
      8.28663353e-004 0. 0. 0. 1.56525319e-004 0. 2.50741607e-004
      3.58283869e-004 0. 0. 1.94621636e-004 0. 2.88097392e-004 0. 0. 0.
      0. 0. 1.42633391e-004 0. 0. 0. 0. 0. 6.83704973e-004
      3.47766938e-004 0. 0. 0. 0. 0. 0. 9.72948765e-005 0. 0. 0. 0. 0.
      0. -1.72413792e-002 0. 8.15827865e-004 0. 0. -1.72413792e-002
      7.52829423e-004 0. 0. 4.39250958e-004 1.84145814e-004
      4.95250744e-004 0. 2.81498604e-003 9.72948765e-005 0. 0.
      4.04910184e-004 0. 0. 0. 0. 0. 0. 0. 0. 0. 0. 2.63677706e-004
      2.78794789e-004 0. 2.22216418e-004 0. 0. 0. 0. 0. 0.
      4.82371019e-004 1.27767431e-004 1.34229718e-004 0. 7.59337156e-004
      0. 7.42376549e-004 0. 9.72948765e-005 0. 1.75991721e-004
      2.50943151e-004 0. 2.03234798e-004 0. 0. 0. 0. 0. 0. 0.
      7.64135853e-004 0. 9.49895941e-004 0. 0. 4.04910184e-004 0. 0. 0.
      0. 0. 6.25385204e-004 0. 0. 0. 2.00901646e-004 0. 0. 0.
      2.22216418e-004 4.82371019e-004 2.00901646e-004 0. 0.
      1.43739235e-004 0. 0. 0. 0. 1.83319295e-004 0. 0. 3.36138823e-004
      0. 2.95505859e-004 0. 8.15827865e-004 3.93769616e-004
      1.25370803e-004 0. 0. 0. 0. 1.43739235e-004 0. 0. 0. 0. 0.
      7.98352703e-004 1.31884567e-003 1.98333350e-004 6.00710220e-004 0.
      0. 0. 0. 0. 0. 4.09831933e-004 0. 0. 0. 0. 0. 0. 0. 0. 0. 0. 0. 0.
      0. 4.14331676e-004 3.15954734e-004 2.08320547e-004 2.46915879e-004
      0. 0. 0. 0. 0. 8.97164689e-004 0. 0. 0. 1.58382929e-003 0. 0. 0.
      0. 1.96886307e-004 0. 0. 8.52549623e-004 0. 0. 2.85266782e-004 0.
      0. 0. 0. 0. 5.00799681e-004 0. 0. 0. 1.31884567e-003
      3.58283869e-004 0. 0. 0. 1.01432728e-004 0. 6.96005067e-004
      1.29198015e-003 2.48002994e-004 4.39557072e-004 0. 0. 0. 0.
      9.72948765e-005 0. 0. 0. 0. 0. 0. 3.42762156e-004 0.
      1.79398368e-004 0. 0. 0. 0. 5.00799681e-004 0. 2.66002171e-004 0.
      0. 0. 1.04160274e-004 0. 6.48667745e-004 4.09831933e-004 0. 0. 0.
      3.99176351e-004 0. 0. 2.77618266e-004 0. 0. 0. 0. 0. 0.
      5.87682298e-004 0. 4.14331676e-004 0. 0. 3.26752430e-004 0.
      6.18339982e-004 4.09831933e-004 3.89243272e-004 0. 0. 0. 0. 0.
      2.00901646e-004 1.09352148e-003 0. 0. 0. 0. 1.47752929e-004 0. 0.
      0. 2.78312946e-004 0. 0. 0. 0. 0. 0. 0. 2.46742158e-004
      8.91720119e-004 0. 9.90501489e-004 0. 0. 0. 0. 0. 0. 0.
      2.34364328e-004 0. 0. 5.16135886e-004 1.27767431e-004 0. 0. 0. 0.
      0. 0. 0. 5.16443863e-004 0. 2.88724736e-003 1.52325025e-004
      5.00799681e-004 0. 0. 1.11127365e-003 1.56525319e-004 0. 0. 0.
      2.48002994e-004 6.88485336e-004 2.73112732e-004 0. 0. 0.
      6.96005067e-004 0. 0. 4.09831933e-004 3.47766938e-004 0. 0.
      9.52829549e-004 1.34229718e-004 0. -2.38095243e-002 0. 0. 0.
      -1.56518556e-002 0. 9.52829549e-004 0. 0. 0. 1.94621636e-004 0. 0.
      1.93793082e-003 0. 0. 0. 2.03234798e-004 0. 0. 1.34229718e-004 0.
      0. 0. 3.98603006e-004 0. 0. 0. 8.85551155e-004 0. 0. 0. 0.
      2.81455490e-004 0. 8.97164689e-004 4.77790833e-004 2.53584818e-004
      0. 0. 4.82371019e-004 0. 0. 0. 0. 0. 0. 0. 4.34194197e-004
      9.91666748e-005 0. 3.42762156e-004 0. 1.45787827e-003 0. 0. 0. 0.
      0. 0. 0. 0. 0. 1.84145814e-004 0. 4.77790833e-004 0. 0. 0. 0.
      6.21687737e-004 0. 0. 0. 3.91788199e-004 1.47752929e-004
      6.20818173e-004 0. 0. 9.52829549e-004 8.87281203e-004
      3.65141517e-004 6.00710220e-004 9.52829549e-004 0. 0. 0. 0. 0. 0.
      0. 0. 1.98270180e-004 3.26752430e-004 0. 0. 0. 0. 0. 0.
      1.98270180e-004 0. 3.10409087e-004 4.62458760e-004 0. 0. 0. 0. 0.
      1.95894099e-004 0. 0. 0. 0. 2.00901646e-004 0. 0. 0.
      1.15001830e-003 0. 3.13050637e-004 1.94621636e-004 0.
      6.36465149e-004 4.61962773e-004 0. 2.78794789e-004 0.
      1.83319295e-004 1.84145814e-004 0. 0. 4.04910184e-004
      1.36556366e-004 2.53584818e-004 0. 0. 4.75199253e-004 0. 0. 0. 0.
      0. 0. 0. 6.96005067e-004 0. 1.76037347e-003 0. 0. 0.
      2.22216418e-004 4.39959927e-004 0. 0. 0. 4.39959927e-004
      2.16488770e-004 0. 2.48002994e-004 2.48002994e-004 0.
      9.52829549e-004 5.95497608e-004 4.39250958e-004 0. 0. 0. 0. 0.
      1.96886307e-004 2.91849195e-004 0. 3.42762156e-004 0. 0.
      1.65171412e-004 0. 0. 2.46742158e-004 1.96886307e-004 0. 0. 0. 0.
      7.22343684e-005 0. 0. 0. 2.13912426e-004 0. 0. 6.00710220e-004 0.
      1.96886307e-004 7.55183923e-004 2.56380183e-004 1.72088470e-003 0.
      1.52325025e-004 0. 0. 1.29198015e-003 0. 0. 4.14331676e-004
      5.11333696e-004 0. 0. 5.47754869e-004 0. 1.03227183e-004 0. 0. 0.
      1.11127365e-003 4.39959927e-004 5.47754869e-004 0. 3.65898042e-004
      0. 0. 2.53584818e-004 2.78794789e-004 0. 0. 6.00710220e-004
      2.08320547e-004 1.52827171e-003 1.25370803e-004 3.26752430e-004
      6.07741822e-004 4.14331676e-004 0. 3.99176351e-004 0. 0. 0. 0. 0.
      3.01253691e-004 0. 0. 0. 0. 0. 0. 0. 1.20083254e-003 0.
      3.43117863e-004 1.56525319e-004 0. 0. 0. 1.06206178e-004
      9.91666748e-005 1.98247796e-003 0. 0. 0. 2.48002994e-004 0. 0.
      1.56525319e-004 7.60669063e-004 0. 0. 1.36556366e-004
      2.80788256e-004 4.95250744e-004 0. 2.46447115e-003 0. 0.
      3.36138823e-004 0. 4.09831933e-004 4.39250958e-004 0.
      4.95250744e-004 2.16488770e-004 1.84690594e-004 0. 0.
      4.14331676e-004 0. 0. 0. 3.10409087e-004 2.46742158e-004 0. 0. 0.
      4.92709107e-004 0. 1.06206178e-004 0. 0. 2.50943151e-004 0. 0.
      4.77790833e-004 0. 1.07145403e-003 0. 3.43117863e-004 0.
      4.03679296e-004 0. 4.04910184e-004 3.65898042e-004 1.17182164e-004
      3.01253691e-004 0. 0. 0. 0. 0. 0. 1.75991721e-004 0. 0.
      4.44432837e-004 2.08320547e-004 7.27822480e-004 4.83211246e-004 0.
      1.96886307e-004 0. 0. 1.83319295e-004 0. 0. 1.36556366e-004
      6.96005067e-004 0. 0. 0. 0. 0. 0. 0. 0. 0. 0. 3.43117863e-004 0.
      2.80676613e-004 1.56525319e-004 0. 0. 2.78312946e-004
      2.46742158e-004 0. 0. 0. 0. 0. 1.84145814e-004 0. 3.47766938e-004
      6.38363766e-004 0. 0. 2.78794789e-004 3.65141517e-004 0. 0. 0. 0.
      0. 3.01253691e-004 1.89918047e-003 2.22216418e-004 0.
      1.65171412e-004 0. 0. 0. 0. 2.80676613e-004 0. 0. 0. 0. 0.
      1.27767431e-004 0. 3.10409087e-004 5.00799681e-004 1.65862992e-004
      0. 0. 0. 0. 0. 2.57263484e-004 1.84145814e-004 0. 0. 0. 0. 0.
      9.91666748e-005 0. 3.01253691e-004 1.04160274e-004 2.48002994e-004
      0. 0. 0. 1.47752929e-004 1.75991721e-004 1.47752929e-004
      2.60097091e-003 1.50042833e-004 1.04160274e-004 1.11127365e-003 0.
      3.47766938e-004 2.50943151e-004 3.58283869e-004 0. 1.09352148e-003
      1.34229718e-004 0. 0. 7.18395226e-004 0. 0. 5.07169636e-004
      1.65862992e-004 1.36556366e-004 0. 0. 0. 2.53584818e-004
      3.58283869e-004 4.24631260e-004 2.46915879e-004 1.36556366e-004 0.
      0. 0. 0. 1.65862992e-004 0. 1.06206178e-004 0. 6.00710220e-004 0.
      0. 0. 0. 3.99176351e-004 1.01432728e-004 1.29198015e-003 0. 0. 0.
      0. 0. 2.57263484e-004 0. 5.00799681e-004 0. 4.34194197e-004 0. 0.
      0. 1.50042833e-004 1.50042833e-004 0. 1.72088470e-003
      1.65171412e-004 0. 0. 0. 8.15827865e-004 0. 0. 0. 1.41773652e-003
      0. 1.04160274e-004 0. 0. 0. 0. 0. 0. 0. 0. 0. 0. 0. 0. 0. 0.
      3.01253691e-004 0. 0. 0. 0. 3.31725983e-004 0. 1.95894099e-004 0.
      2.80676613e-004 2.77618266e-004 7.64135853e-004 0. 7.22343684e-005
      2.03234798e-004 0. 0. 0. 1.11127365e-003 0. 0. 0. 0. 0. 0.
      2.60158704e-004 6.47353532e-004 0. 0. 0. 0. 2.16488770e-004 0. 0.
      0. 1.95894099e-004 0. 0. 0. 0. 0. 5.11333696e-004 0.
      1.36556366e-004 0. 0. 1.84145814e-004 2.78794789e-004
      1.95894099e-004 -2.36657858e-002 0. 1.72088470e-003 0. 0. 0. 0. 0.
      2.60158704e-004 4.04910184e-004 0. 0. 6.20786042e-004 0. 0. 0. 0.
      4.39250958e-004 0. 0. 0. -2.25406047e-002 0. 0. 0. 0. 0.
      1.17182164e-004 2.77618266e-004 0. 3.19329381e-004 0. 0. 0.
      2.81455490e-004 2.22216418e-004 0. 0. 0. 1.83319295e-004
      1.56525319e-004 0. 5.11333696e-004 0. 0. 3.26752430e-004 0. 0. 0.
      0. 5.11333696e-004 0. 4.82371019e-004 0. 1.04330084e-003 0. 0. 0.
      2.78312946e-004 0. 0. 2.00901646e-004 0. 0. 0. 0. 0. 0. 0. 0.
      1.52325025e-004 0. 0. 1.17182164e-004 4.77790833e-004 0.
      1.01432728e-004 0. 0. 0. 0. 0. 0. 8.63251102e-004 2.80788256e-004
      0. 8.97164689e-004 5.95497608e-004 0. 0. 1.79398368e-004 0. 0.
      6.00710220e-004 5.11333696e-004 0. 2.57263484e-004 0. 0. 0.
      3.89243272e-004 1.45085726e-003 5.61353227e-004 0. 0.
      3.36138823e-004 0. 2.46742158e-004 2.78794789e-004 1.34159753e-003
      0. 9.91666748e-005 0. 0. 0. 0. 1.84690594e-004 0. 0. 0.
      1.75991721e-004 0. 3.47766938e-004 1.15001830e-003 3.91788199e-004
      0. 2.63677706e-004 0. 0. 0. 0. 0. 1.15001830e-003 0.
      1.36556366e-004 0. 0. 3.65898042e-004 0. 0. 0. 3.37458012e-004 0.
      0. 5.61353227e-004 0. 1.27767431e-004 0. 6.88485336e-004
      5.45920688e-004 0. 0. 4.77790833e-004 0. 0. 5.45920688e-004
      -1.58334170e-002 7.22343684e-005 1.36556366e-004 1.43739235e-004
      0. 0. 0. 0. 0. 0. 2.63677706e-004 0. 9.49590234e-004
      1.38378446e-003 7.64135853e-004 0. 9.91666748e-005 0.
      6.21687737e-004 0. 2.63677706e-004 1.56525319e-004 0. 0.
      1.84690594e-004 8.79919855e-004 -2.38095243e-002 3.42762156e-004
      0. 0. 0. 0. 0. 0. 0. 0. 0. 3.43117863e-004 0. 0. 2.48002994e-004
      0. 0. 2.60158704e-004 2.48002994e-004 0. 1.36556366e-004
      4.96005989e-004 0. 1.20249751e-003 0. 0. 0. -2.38095243e-002 0. 0.
      0. 0. 0. 1.29198015e-003 0. 0. 3.42762156e-004 0. 1.12473127e-003
      0. 0. 0. 1.79398368e-004 3.36138823e-004 0. 0. 0. 0.
      1.84145814e-004 7.10384629e-004 4.82371019e-004 0. 0.
      3.43117863e-004 0. 0. 0. 0. 3.58283869e-004 0. 3.08563263e-004 0.
      0. 0. 0. 0. 0. 2.48002994e-004 9.91666748e-005 0. 0. 0.
      5.29256067e-004 5.27267286e-004 0. 0. 0. 1.04300561e-003 0. 0.
      1.36556366e-004 3.08563263e-004 0. 0. 8.28663353e-004 0. 0. 0.
      3.97787953e-004 2.03234798e-004 0. 0. 1.25370803e-004 0. 0.
      1.36556366e-004 0. 0. 0. 0. 0. 2.60158704e-004 0. 0.
      7.22343684e-005 0. 0. 0. 0. 2.81455490e-004 0. 0. 0. 0. 0. 0.
      2.22254731e-003 0. 4.39959927e-004 8.38025124e-004 4.77790833e-004
      0. 0. 0. 0. 0. 0. 0. 0. 0. 0. 0. 0. 0. 0. 1.83319295e-004 0. 0. 0.
      3.99176351e-004 0. 4.82371019e-004 0. 7.22343684e-005
      3.01253691e-004 0. 0. 0. 4.09831933e-004 0. 0. 2.03234798e-004 0.
      2.22216418e-004 0. 0. 0. 1.15001830e-003 0. 0. 6.96005067e-004 0.
      6.96005067e-004 0. 0. 0. 3.10409087e-004 0. 2.78312946e-004
      9.49590234e-004 0. 0. 2.48002994e-004 2.81455490e-004
      1.65171412e-004 5.16443863e-004 0. 1.91550644e-003 2.77618266e-004
      3.26752430e-004 2.78312946e-004 0. 0. 0. 3.42762156e-004 0. 0. 0.
      1.94621636e-004 0. 0. 1.29198015e-003 0. 1.36556366e-004 0. 0. 0.
      0. 7.48481601e-004 7.64135853e-004 0. 0. 5.16443863e-004
      1.27767431e-004 0. 0. 1.83319295e-004 0. 0. 0. 0. 0. 0. 0.
      3.36138823e-004 0. 6.38658763e-004 2.46915879e-004 0. 0. 0. 0. 0.
      0. 0. 0. 0. 0. 1.56525319e-004 -2.38095243e-002 0. 0.
      6.00710220e-004 0. 0. 0. 0. 0. 1.65171412e-004 0. 0. 0. 0. 0.
      3.01253691e-004 0. 2.16488770e-004 0. 0. 1.84145814e-004
      1.27767431e-004 9.52884846e-004 0. 0. 0. 0. 0. 0. 2.66002171e-004
      0. 0. 1.84145814e-004 1.15001830e-003 0. 0. 0. 0. 0. 0.
      3.42762156e-004 2.81455490e-004 0. 0. 0. 1.47752929e-004
      8.97164689e-004 3.42762156e-004 0. 1.11127365e-003 0.
      9.52829549e-004 0. 0. 0. -2.34958958e-002 0. 0. 6.21687737e-004 0.
      2.22216418e-004 0. 0. 0. 0. 0. 4.96005989e-004 5.16443863e-004
      6.38363766e-004 3.58283869e-004 0. 0. 0. 0. 0. 0. 6.80631842e-004
      0. 4.77790833e-004 0. 0. 0. 0. 2.46742158e-004 2.46742158e-004
      6.38363766e-004 4.14331676e-004 5.00799681e-004 0. 0. 0.
      1.56525319e-004 0. 0. 0. 0. 3.13050637e-004 0. 4.04910184e-004
      1.65171412e-004 9.72948765e-005 0. 2.41311966e-004 0. 0. 0.
      1.47752929e-004 9.49590234e-004 0. 0. 2.22216418e-004 0. 0.
      1.66543736e-003 3.47766938e-004 0. 7.42166652e-004 0.
      3.43117863e-004 0. 1.84145814e-004 0. 0. 0. 0. 0. 0.
      1.29198015e-003 0. 2.80788256e-004 2.81455490e-004 0. 0. 0. 0.
      1.65862992e-004 0. 0. 0. 0. 0. 2.46915879e-004 0. 0. 0. 0.
      1.27767431e-004 0. 1.83319295e-004 2.55534862e-004 2.46742158e-004
      2.59815570e-004 0. 4.77790833e-004 0. 0. 3.42762156e-004 0.
      3.36138823e-004 0. 7.59337156e-004 3.99176351e-004 1.72088470e-003
      0. 0. 0. 0. 6.96005067e-004 5.14526968e-004 5.00799681e-004 0. 0.
      0. 1.36556366e-004 3.65898042e-004 0. 0. 0. 0. 0. 0.
      1.25370803e-004 5.16443863e-004 6.00710220e-004 0. 0. 0. 0.
      6.96005067e-004 0. 0. 0. 0. 9.04795772e-004 9.91666748e-005 0. 0.
      3.01253691e-004 0. 0. 4.14331676e-004 0. 3.26752430e-004
      2.78794789e-004 0. 0. 0. 0. 6.96005067e-004 0. 0. 1.98270180e-004
      0. 1.84145814e-004 1.98270180e-004 1.84145814e-004 0. 0. 0.
      1.09550974e-003 0. 0. 1.56525319e-004 1.06206178e-004
      5.45920688e-004 0. 0. 0. 0. 2.13912426e-004 0. 3.47766938e-004 0.
      0. 1.01432728e-004 7.59337156e-004 4.09831933e-004 0.
      2.81455490e-004 3.36138823e-004 0. 2.16488770e-004 5.16443863e-004
      0. 0. 0. 0. 0. 8.63497437e-004 1.11127365e-003 0. 0. 0. 0. 0. 0.
      3.26752430e-004 2.81455490e-004 0. 0. 0. 0. 1.65171412e-004 0.
      2.16488770e-004 0. 1.27767431e-004 0. 0. 1.67840987e-003 0. 0. 0.
      1.84145814e-004 0. 2.03234798e-004 -3.44827585e-002 0.
      1.31884567e-003 0. 0. 0. 0. 0. 2.48002994e-004 6.73509669e-004 0.
      0. 0. 0. 0. 0. -1.72413792e-002 0. 0. 0. 0. 0. 0. 0. 0.
      3.08563263e-004 7.22343684e-005 0. 0. 0. 2.80676613e-004
      1.94621636e-004 0. 0. 1.65862992e-004 3.26752430e-004 0. 0.
      2.22216418e-004 0. -1.72413792e-002 0. 0. 4.82371019e-004 0. 0.
      2.50943151e-004 1.25370803e-004 0. 0. 0. 0. 0. 1.47752929e-004 0.
      1.65862992e-004 0. 0. 0. 0. 1.83319295e-004 2.03234798e-004 0. 0.
      0. 1.84145814e-004 2.50943151e-004 2.91849195e-004 0. 0. 0. 0.
      7.07739615e-004 0. 0. 0. 0. 0. 0. 1.43739235e-004 0.
      3.04650050e-004 0. 0. 0. 5.00799681e-004 6.96005067e-004 0.
      3.60331789e-004 0. 0. 0. 3.08563263e-004 0. 0. 1.01432728e-004 0.
      0. 0. 0. 1.36556366e-004 0. 9.61022160e-004 0. 5.16443863e-004
      2.88097392e-004 6.48667745e-004 0. 0. 1.36556366e-004 0.
      3.36138823e-004 4.45564772e-004 1.58991257e-003 0. 0. 0.
      1.01432728e-004 2.78312946e-004 0. 2.81455490e-004 1.74883706e-003
      0. 3.95495095e-004 0. 0. 0. 1.03227183e-004 0. 0. 3.47766938e-004
      0. 1.04160274e-004 1.17182164e-004 0. 0. 3.10409087e-004 0. 0. 0.
      1.84690594e-004 0. 0. 2.03234798e-004 0. 0. 0. 1.94621636e-004 0.
      0. 0. 2.48002994e-004 0. 2.77618266e-004 0. 0. 0. 1.27767431e-004
      0. 0. 0. 0. 2.81455490e-004 0. 0. 0. 0. 0. 0. 0. 0.
      1.34229718e-004 0. 4.03679296e-004 1.03227183e-004 1.29198015e-003
      6.00710220e-004 0. 5.47754869e-004 0. 0. 2.41311966e-004 0. 0.
      2.91849195e-004 0. 0. 0. 0. 1.04160274e-004 0. 0. 3.99176351e-004
      0. 0. 0. 0. 0. 0. 0. 0. 0. 3.42762156e-004 0. 8.15827865e-004
      4.05858154e-004 0. 0. 0. 0. 0. 0. 0. 0. 0. 1.65862992e-004 0.
      1.96886307e-004 0. 0. 0. 0. 0. 1.75991721e-004 0. 4.01803292e-004
      2.77618266e-004 2.13912426e-004 0. 0. 1.01432728e-004 0. 0.
      1.04160274e-004 0. 1.38927507e-003 0. 0. 2.22216418e-004 0. 0.
      1.03227183e-004 0. 0. 1.94621636e-004 0. 2.80676613e-004
      1.34229718e-004 4.39959927e-004 0. 0. 0. 5.61353227e-004 0.
      3.09681549e-004 0. 4.03679296e-004 0. 0. 3.22694948e-004 0.
      1.83319295e-004 1.27672753e-003 0. 5.95497608e-004 0. 0.
      9.52829549e-004 0. 0. 0. 0. 2.53584818e-004 3.10409087e-004
      2.46915879e-004 0. 0. 0. 0. 0. 0. 2.78312946e-004 4.77790833e-004
      0. 0. 0. 0. 3.36138823e-004 0. 0. 0. 0. 0. 0. 0. 0. 0. 0. 0. 0.
      4.93831758e-004 0. 0. 0. 7.22343684e-005 5.00799681e-004
      2.60158704e-004 0. 0. 2.41311966e-004 0. 0. 0. 0. 0. 0.
      8.92891316e-004 0. 1.94589753e-004 0. 0. 0. 0. 0. 4.14331676e-004
      0. 0. 0. 3.65141517e-004 1.01432728e-004 0. 1.52325025e-004 0. 0.
      4.09831933e-004 5.55236533e-004 1.52325025e-004 0. 0.
      1.11127365e-003 3.99176351e-004 0. 0. 0. 2.48002994e-004
      5.61576511e-004 0. 5.01886301e-004 3.36138823e-004 0.
      2.80676613e-004 0. 0. 4.64491779e-004 0. 0. 0. 0. 0. 0. 0.
      3.42762156e-004 4.39959927e-004 6.38363766e-004 0. 1.43739235e-004
      1.29198015e-003 0. 0. 0. 7.64135853e-004 0. 2.78794789e-004 0. 0.
      0. 1.79398368e-004 6.38363766e-004 0. 0. 0. 1.47752929e-004 0. 0.
      0. 6.88485336e-004 4.95250744e-004 1.52325025e-004 0. 0.
      7.78486545e-004 -1.72413792e-002 1.29198015e-003 1.96886307e-004
      0. 2.63677706e-004 0. 3.08563263e-004 4.14331676e-004 0.
      -1.69630665e-002 0. 0. 0. 0. 0. 0. 0. 2.46742158e-004
      2.60158704e-004 0. 2.03234798e-004 3.08690098e-004 0. 0. 0. 0.
      4.34194197e-004 0. 0. 0. 0. 0. 0. 0. 0. 4.04910184e-004 0. 0.
      5.47754869e-004 0. 0. 2.78794789e-004 1.09352148e-003
      7.64135853e-004 0. 0. 0. 5.55931183e-004 0. 3.89243272e-004 0. 0.
      4.95250744e-004 2.46742158e-004 0. 6.17876591e-004 0. 0. 0. 0. 0.
      1.50042833e-004 7.55545916e-004 0. 8.97164689e-004 3.26752430e-004
      0. 0. 0. 0. 0. 0. 0. 4.95250744e-004 0. 0. 1.25370803e-004
      8.82165681e-004 1.52325025e-004 0. 0. 1.36556366e-004 0. 0.
      2.22216418e-004 0. 0. 0. 0. 1.83261326e-003 0. 0. 1.36136357e-003
      0. 0. 0. 1.96886307e-004 9.91666748e-005 0. 9.55581665e-004
      3.26752430e-004 0. 2.46742158e-004 0. 0. 9.87585750e-004 0. 0. 0.
      0. 8.97164689e-004 4.95250744e-004 5.27267286e-004 0. 0. 0. 0. 0.
      0. 1.52325025e-004 5.00799681e-004 0. 2.78794789e-004 0.
      3.26752430e-004 1.17182164e-004 0. 0. 0. 0. 0. 0. 2.55000312e-003
      0. 2.66002171e-004 0. 1.84145814e-004 2.78312946e-004 0. 0. 0.
      4.39959927e-004 0. 0. 9.91666748e-005 0. 3.99176351e-004
      5.16443863e-004 0. 0. 4.03679296e-004 0. 0. 0. 2.03234798e-004
      6.21687737e-004 1.52325025e-004 4.77790833e-004 1.52325025e-004 0.
      0. 0. 0. 0. 5.15537220e-004 0. 2.63677706e-004 0. 0. 0. 0. 0. 0.
      0. 0. 0. 1.72088470e-003 0. 0. 7.88706471e-004 0. 0. 0.
      4.09831933e-004 0. 0. 9.91666748e-005 0. -1.72413792e-002
      1.09547598e-003 0. 3.58283869e-004 0. 0. 0. 0. 1.43739235e-004 0.
      0. 3.47766938e-004 6.96005067e-004 3.42762156e-004 0.
      1.01432728e-004 -1.72413792e-002 5.45920688e-004 0.
      1.11127365e-003 3.42762156e-004 0. 0. 0. 0. 4.34194197e-004
      2.60158704e-004 0. 0. 0. 0. 0. 0. 0. 6.42962230e-004 0. 0.
      1.75991721e-004 0. 0. 0. 6.00710220e-004 0. 0. 0. 0. 0. 0. 0.
      6.91776688e-004 2.48002994e-004 0. 3.36138823e-004 0.
      3.99176351e-004 6.48667745e-004 1.79398368e-004 0. 0. 0.
      2.78529874e-003 0. 1.50042833e-004 0. 0. 0. 0. 0. 2.03350722e-003
      0. 2.13912426e-004 2.18704296e-003 4.34194197e-004 0.
      8.07358592e-004 0. 0. 1.96886307e-004 2.60158704e-004 0. 0. 0. 0.
      1.24337547e-003 1.27767431e-004 2.60158704e-004 0. 0. 0.
      1.15001830e-003 0. 0. 2.00901646e-004 0. 0. 2.80676613e-004 0.
      2.53584818e-004 0. 0. 6.48667745e-004 0. 0. 0. 0. 0.
      8.97164689e-004 1.03227183e-004 0. 0. 1.27767431e-004
      1.17182164e-004 0. 8.70342075e-004 2.63677706e-004 0. 0. 0. 0. 0.
      0. 0. 0. 6.54922565e-004 5.45920688e-004 0. 0. 0. 0.
      3.08563263e-004 0. 0. 1.31884567e-003 0. 6.95533876e-004 0.
      4.69575956e-004 0. 0. 0. 4.39250958e-004 4.82623931e-004 0. 0.
      1.03227183e-004 0. 0. 0. 5.11333696e-004 0. 0. 0. 0. 0. 0. 0.
      1.00350531e-003 1.42633391e-004 2.48002994e-004 3.42762156e-004 0.
      8.15827865e-004 9.49590234e-004 0. 1.65862992e-004 9.52829549e-004
      3.42762156e-004 5.27267286e-004 0. 9.91666748e-005 4.44432837e-004
      0. 5.62910980e-004 4.77790833e-004 0. 4.04910184e-004
      3.43117863e-004 3.65898042e-004 0. 0. 1.84690594e-004 0.
      3.65141517e-004 3.01253691e-004 0. 0. -1.51932072e-002
      1.95894099e-004 0. 1.96886307e-004 0. 0. 0. 0. 0. 0. 0. 0. 0.
      3.65898042e-004 0. 0. 1.72088470e-003 0. 2.90267495e-003 0.
      2.91916513e-004 1.84145814e-004 2.81455490e-004 0. 2.81455490e-004
      0. 0. 0. 0. 0. 0. 0. 0. 1.29198015e-003 0. 0. 0. 0. 0. 0.
      4.14331676e-004 5.27267286e-004 0. 0. 9.91666748e-005
      2.78794789e-004 5.95497608e-004 0. 1.24127441e-003
      -2.38095243e-002 0. 0. 6.45563414e-004 0. 0. 2.22277216e-004 0. 0.
      0. 0. 4.04910184e-004 2.66002171e-004 6.88485336e-004 0. 0.
      1.65862992e-004 0. 1.09495490e-003 0. 5.11333696e-004
      1.43739235e-004 9.72948765e-005 0. 4.93160682e-004 0. 0. 0. 0. 0.
      0. 4.39959927e-004 6.92792528e-004 0. 0. 0. 0. 0. 5.11333696e-004
      0. 0. 0. 0. 2.50943151e-004 7.22343684e-005 0. 0. 0. 0.
      8.15827865e-004 0. 0. 0. 0. 3.26752430e-004 1.09352148e-003 0. 0.
      4.34194197e-004 0. 2.22216418e-004 5.16443863e-004 0. 0.
      2.80676613e-004 0. 0. 0. 0. 0. 9.91666748e-005 0. 0.
      1.79398368e-004 2.80788256e-004 0. 0. 1.06206178e-004
      7.64135853e-004 4.82371019e-004 1.94621636e-004 0. 7.22343684e-005
      0. 1.43739235e-004 0. 5.50741970e-004 1.15001830e-003 0.
      1.18131784e-003 0. 4.14331676e-004 0. 6.00710220e-004
      1.09550974e-003 1.04160274e-004 6.15665107e-004 0. 0.
      8.97164689e-004 0. 0. 1.43739235e-004 3.43117863e-004 0. 0. 0. 0.
      2.00901646e-004 0. -2.15387698e-002 0. 9.52829549e-004
      1.11194153e-003 9.49590234e-004 0. 0. 0. 0. 7.22343684e-005
      1.94621636e-004 0. 4.95321117e-004 0. 1.95894099e-004
      3.58283869e-004 6.00710220e-004 0. 4.27824853e-004 2.91849195e-004
      0. 0. 0. 5.95497608e-004 0. 1.52325025e-004 2.81455490e-004
      6.20168052e-004 0. 0. 0. 0. 0. 1.47605292e-003 0. 0. 0. 0. 0.
      2.50943151e-004 0. 0. 0. 0. 0. 9.72948765e-005 2.88097392e-004 0.
      0. 0. 5.72525838e-004 0. 1.00159936e-003 0. 0. 6.21687737e-004 0.
      0. 0. 0. 0. 9.52829549e-004 0. 0. 4.09831933e-004 0.
      -1.70762073e-002 6.21687737e-004 0. 0. 1.52827171e-003 0. 0. 0.
      1.90241972e-003 0. 0. 0. 0. 0. 2.48002994e-004 2.86546478e-004 0.
      9.72948765e-005 4.09831933e-004 9.72948765e-005 0. 0.
      1.17182164e-004 6.21687737e-004 0. 6.48667745e-004 0. 0. 0.
      3.10409087e-004 0. 3.58283869e-004 1.36556366e-004 0.
      2.03234798e-004 8.15827865e-004 5.47754869e-004 0. 0. 0. 0.
      9.72948765e-005 2.03234798e-004 0. 4.95707034e-004 0.
      6.62173668e-004 0. 0. 0. 1.34229718e-004 0. 0. 7.59337156e-004 0.
      2.57263484e-004 0. 0. 0. 0. 5.45920688e-004 0. 0. 4.95250744e-004
      3.58283869e-004 3.42762156e-004 0. 0. 0. 0. 0. 0. 0. 0. 0. 0. 0.
      0. 0. 0. 0. 0. 0. 0. 1.52325025e-004 5.27267286e-004
      1.29198015e-003 0. 0. 1.03227183e-004 0. 0. 0. 0. 0.
      1.06206178e-004 0. 0. 0. 5.45920688e-004 8.97164689e-004
      1.83319295e-004 0. 0. 0. 4.77790833e-004 0. 0. 0. 2.66002171e-004
      0. 2.81455490e-004 0. 1.01432728e-004 0. 2.41311966e-004
      1.96886307e-004 0. 0. 0. 1.50042833e-004 0. 9.49590234e-004
      2.13912426e-004 0. 0. 2.77618266e-004 0. 0. 7.64135853e-004 0.
      3.10409087e-004 2.61927169e-004 0. 0. 0. 0. 0. 3.42762156e-004
      4.34194197e-004 3.26752430e-004 1.83319295e-004 1.04160274e-004 0.
      0. 0. 1.11127365e-003 0. 0. 0. 3.99176351e-004 0. 0.
      1.98270180e-004 0. 0. 0. 0. 7.20706477e-004 0. 0. 2.00901646e-004
      0. 0. 0. 0. 0. 4.39959927e-004 0. 2.77618266e-004 0. 0. 0. 0.
      2.22216418e-004 0. 0. 0. 0. 3.99176351e-004 0. 9.91666748e-005 0.
      3.99176351e-004 0. 4.13024507e-004 0. 0. 0. 0. 0. 0.
      4.93253872e-004 5.16443863e-004 0. 0. 0. 0. 0. 0. 0. 0. 0. 0. 0.
      0. 3.47766938e-004 0. 0. 1.98270180e-004 0. 0. 0. 0.
      8.26852978e-004 0. 0. 1.83319295e-004 0. 0. 5.93402307e-004 0.
      1.04160274e-004 0. 0. 0. 0. 0. 0. 0. 8.23610229e-004 0. 0.
      1.69118261e-003 0. 0. 0. 0. 1.94621636e-004 4.54877852e-004 0.
      7.41179741e-004 0. 4.09831933e-004 0. 0. 7.33314140e-004
      1.65171412e-004 0. 0. 4.95250744e-004 0. 0. 0. 2.63677706e-004
      8.15827865e-004 0. 3.65141517e-004 4.39959927e-004 1.84145814e-004
      9.49590234e-004 0. 2.03234798e-004 1.36556366e-004 0. 0.
      3.42762156e-004 0. 0. 3.42762156e-004 0. 0. 0. 7.59337156e-004 0.
      0. 2.60158704e-004 0. 1.83319295e-004 0. 0. 0. 0. 0. 0. 0. 0. 0.
      0. 0. 0. 1.48246181e-003 7.71790452e-004 0. 1.98270180e-004
      2.78794789e-004 0. 0. 1.84690594e-004 7.26081023e-004
      1.94621636e-004 0. 0. 0. 0. 0. 0. 0. 1.01292203e-003
      1.01432728e-004 0. 0. 0. 4.04910184e-004 0. 0. 5.29996178e-004 0.
      0. 0. 0. 8.15827865e-004 5.47754869e-004 0. 2.77618266e-004 0. 0.
      0. 2.78794789e-004 1.04160274e-004 1.01432728e-004 0. 0. 0.
      3.36138823e-004 -1.72413792e-002 2.78794789e-004 9.91666748e-005
      0. 2.78312946e-004 0. 3.47766938e-004 0. 6.88485336e-004 0. 0. 0.
      2.78312946e-004 1.17182164e-004 0. 0. 0. 0. 0. 4.04910184e-004
      2.80788256e-004 0. 1.98270180e-004 0. 4.04910184e-004 0.
      4.82371019e-004 1.06206178e-004 0. 0. 0. 0. 6.38363766e-004 0. 0.
      0. 0. 0. 1.03227183e-004 0. 0. 0. 1.36556366e-004 0. 0. 0. 0. 0.
      2.77618266e-004 0. 0. 0. 0. 9.72948765e-005 0. 1.50042833e-004 0.
      5.00799681e-004 0. 0. 0. 0. 1.10924162e-003 1.11127365e-003
      3.65898042e-004 0. 7.89646641e-004 0. 0. 0. 2.78794789e-004
      1.01432728e-004 1.27767431e-004 0. 0. 6.38363766e-004
      8.43917544e-004 0. 0. 2.46742158e-004 1.84145814e-004
      1.04160274e-004 0. 7.59246352e-004 3.58283869e-004 7.22343684e-005
      0. 0. 2.77618266e-004 0. 0. 0. 0. 2.57263484e-004 1.96886307e-004
      0. 0. 0. 0. 0. 0. 0. 1.36556366e-004 0. 0. 0. 0. 6.88485336e-004
      2.50943151e-004 0. 3.36138823e-004 0. 0. 0. 4.14331676e-004 0. 0.
      0. 1.80727872e-003 0. 0. 2.78794789e-004 2.41311966e-004 0.
      4.09831933e-004 0. 5.45920688e-004 0. 0. 0. 0. 0. 0. 0. 0. 0.
      2.16488770e-004 0. 0. 0. 0. 0. 2.57263484e-004 0. 0. 0.
      2.16488770e-004 5.20317408e-004 0. 2.60158704e-004 0.
      1.65171412e-004 0. 8.07358592e-004 0. 0. 0. 1.01432728e-004 0. 0.
      0. 0. 0. 0. 0. 0. 4.93026455e-004 0. 2.88097392e-004 0. 0. 0.
      1.79398368e-004 0. 0. 0. 1.03227183e-004 3.47766938e-004 0. 0. 0.
      0. 0. 0. 0. 0. 0. 0. 1.36556366e-004 0. 0. 5.01886301e-004 0.
      3.42762156e-004 1.25370803e-004 0. 9.72948765e-005 0. 0. 0. 0. 0.
      2.22216418e-004 0. 0. 0. 0. 0. 0. 0. 2.77618266e-004
      6.38363766e-004 0. 0. 0. 0. 0. 0. 8.00443697e-004 1.06206178e-004
      0. 0. 1.27767431e-004 3.42762156e-004 6.21687737e-004 0.
      7.86354125e-004 0. 0. 3.58283869e-004 8.59100663e-004
      3.58283869e-004 0. 6.95533876e-004 0. 0. 1.63165573e-003
      1.30463357e-003 9.72948765e-005 0. 0. 0. 0. 0. 0. 0. 0.
      5.00799681e-004 0. 0. 0. 0. 2.81455490e-004 0. 0. 0. 0.
      6.88485336e-004 0. 4.03679296e-004 3.08563263e-004 2.16488770e-004
      0. 0. 0. 1.03227183e-004 1.29198015e-003 0. 3.25443601e-004 0. 0.
      2.91849195e-004 0. 5.16443863e-004 4.44432837e-004 0. 0.
      3.36138823e-004 0. 3.36138823e-004 2.41311966e-004 0. 0. 0.
      4.39959927e-004 0. 0. 0. 1.84145814e-004 2.00901646e-004 0. 0.
      3.65898042e-004 3.08563263e-004 0. 1.09543488e-003 1.84145814e-004
      0. 0. 1.65862992e-004 0. 2.53584818e-004 0. 7.31796084e-004
      9.91666748e-005 2.60158704e-004 2.06454366e-004 0. 0. 0. 0. 0.
      1.50042833e-004 1.84690594e-004 0. 2.00901646e-004 0. 0. 0. 0.
      3.04650050e-004 3.47766938e-004 0. 1.39721460e-003 0. 0. 0. 0.
      1.43739235e-004 0. 0. 0. 1.96886307e-004 0. 0. 0. 0. 0.
      1.04160274e-004 0. 0. 0. 0. 1.11127365e-003 0. 0. 0. 0. 0.
      -1.66718271e-002 0. 0. 5.14065614e-004 0. 0. 0. 1.19125575e-003 0.
      0. 0. 1.52325025e-004 3.26752430e-004 1.98270180e-004 0.
      6.96005067e-004 0. 0. 0. 0. 8.97164689e-004 0. 1.06206178e-004
      1.57900446e-003 0. 0. 0. 0. 6.88485336e-004 0. 0. 0. 0.
      1.84145814e-004 0. 1.72088470e-003 0. 0. 0. 5.00799681e-004 0. 0.
      0. 0. 0. 0. 0. 0. 0. 0. 0. 0. 2.03234798e-004 4.86181671e-004 0.
      0. 0. 0. 0. 0. 0. 0. 7.22343684e-005 0. 0. 4.77790833e-004
      1.29733549e-003 0. 0. 2.03234798e-004 3.26752430e-004 0. 0. 0. 0.
      0. 0. 0. 1.05453457e-003 0. 5.11333696e-004 2.41311966e-004
      -1.65025089e-002 0. 0. 0. 0. 0. 0. 4.14331676e-004 0. 0. 0. 0.
      9.49590234e-004 2.66002171e-004 0. 0. 5.00799681e-004
      1.11127365e-003 0. 2.50741607e-004 0. 0. 2.85266782e-004 0. 0. 0.
      0. 0. 1.56525319e-004 2.60158704e-004 0. 1.98270180e-004 0. 0.
      9.20661201e-004 6.48667745e-004 0. 6.88485336e-004 0.
      1.11706706e-003 0. 0. 0. 5.00799681e-004 6.21687737e-004
      4.95250744e-004 1.09352148e-003 0. 0. 1.98270180e-004
      3.65141517e-004 4.34194197e-004 0. 0. 0. 1.20280951e-003
      1.75991721e-004 0. 0. 0. 0. 0. 2.77618266e-004 3.99176351e-004 0.
      0. 0. 0. 7.30283034e-004 1.01432728e-004 1.75991721e-004
      1.75991721e-004 9.72948765e-005 0. 0. 2.91849195e-004 0.
      7.44569930e-004 0. 7.22343684e-005 4.77790833e-004 0. 0.
      1.72088470e-003 0. 0. 0. 0. 0. 2.50943151e-004 0. 0.
      9.49590234e-004 0. 0. 0. 0. 1.12815388e-003 0. 0. 1.45485671e-003
      0. 0. 2.81455490e-004 0. 0. 0. 0. 0. 3.26752430e-004
      1.96886307e-004 0. 0. 0. 1.84145814e-004 0. 2.03234798e-004 0.
      2.46742158e-004 1.52325025e-004 1.27767431e-004 0. 0. 0.
      3.43117863e-004 1.30815990e-003 1.43739235e-004 1.65171412e-004 0.
      0. 0. 0. 3.10409087e-004 1.52325025e-004 0. 0. 0. 0. 0.
      4.06469597e-004 3.58283869e-004 0. 6.00710220e-004 0.
      2.46742158e-004 1.29198015e-003 2.16488770e-004 0. 9.91666748e-005
      0. 0. 0. 0. 0. 2.03234798e-004 0. 0. 0. 0. 0. 0. 1.94621636e-004
      0. 0. 0. 0. 9.72948765e-005 0. 4.14331676e-004 0. 0. 0.
      3.01253691e-004 0. 2.80676613e-004 0. 4.95250744e-004 0.
      1.08441757e-003 0. 0. 0. 0. 0. 0. 1.29198015e-003 0. 0.
      6.26170484e-004 0. 0. 0. 0. 1.79398368e-004 0. 6.21687737e-004
      3.99176351e-004 3.47045832e-003 0. 0. 0. 0. 0. 1.06206178e-004 0.
      5.45920688e-004 2.03234798e-004 5.60880755e-004 0. 0. 0. 0. 0. 0.
      3.10409087e-004 0. 7.01703830e-004 1.29198015e-003 1.65862992e-004
      0. 0. 2.78312946e-004 0. 2.22216418e-004 0. 0. 2.91849195e-004 0.
      0. 0. 4.96471243e-004 0. 0. 0. 0. 3.43117863e-004 4.34194197e-004
      0. 0. 2.22216418e-004 0. 0. 1.27767431e-004 0. 0. 2.66002171e-004
      1.03227183e-004 1.84145814e-004 0. 0. 0. 0. 0. 0. 0. 0.
      1.31884567e-003 0. 0. 2.78794789e-004 2.00901646e-004 0. 0.
      5.16443863e-004 0. 3.65898042e-004 0. 4.34194197e-004 0. 0.
      2.60158704e-004 6.21687737e-004 7.64135853e-004 8.15827865e-004 0.
      0. 1.79398368e-004 8.97164689e-004 8.15827865e-004 0. 0.
      3.47766938e-004 0. 0. 0. 0. 0. 0. 2.13912426e-004 5.00799681e-004
      0. 0. 1.36556366e-004 0. 3.65898042e-004 0. 0. 1.59432110e-003 0.
      0. 5.16443863e-004 0. 0. 5.45920688e-004 6.48667745e-004
      1.06206178e-004 1.27767431e-004 4.39250958e-004 0. 0. 0. 0.
      6.96005067e-004 0. 4.14331676e-004 5.23472962e-004 0. 0.
      6.21687737e-004 2.60158704e-004 0. 5.19587018e-004 0. 0. 0. 0.
      1.37419812e-003 3.99176351e-004 0. 2.03234798e-004 0.
      8.15827865e-004 0. 0. 2.00901646e-004 0. 0. 0. 0. 0. 0.
      -1.72413792e-002 0. 0. 6.38363766e-004 4.82367323e-004
      2.16488770e-004 1.42633391e-004 0. 0. 7.14834780e-004
      1.52325025e-004 0. 3.42762156e-004 5.11333696e-004 3.31725983e-004
      1.04160274e-004 0. 3.89243272e-004 0. 3.36138823e-004 0. 0. 0. 0.
      0. 0. 0. 0. 2.91849195e-004 0. 0. 4.04910184e-004 0.
      5.27267286e-004 0. 0. 0. 0. 0. 9.91666748e-005 1.36556366e-004
      6.88485336e-004 0. 0. 0. 0. 0. 2.78794789e-004 4.09831933e-004
      8.90147174e-004 0. 0. 0. 0. 0. 0. 0. 0. -1.72413792e-002 0.
      2.63677706e-004 0. 0. 0. 0. 2.57263484e-004 3.08563263e-004 0. 0.
      2.78794789e-004 0. 0. 0. 0. 5.47754869e-004 0. 1.31884567e-003 0.
      7.59337156e-004 0. 0. 0. 0. 6.48667745e-004 3.58283869e-004 0.
      1.03227183e-004 0. 0. 0. 0. 0. 2.58396030e-003 4.39250958e-004 0.
      0. 0. 0. 0. 0. 6.96005067e-004 0. 0. 4.34194197e-004 0. 0. 0. 0.
      1.15001830e-003 0. 0. 0. 0. 4.77790833e-004 0. 1.03227183e-004 0.
      0. 0. 0. 0. 0. 0. 2.57263484e-004 0. 2.81455490e-004 0.
      2.53584818e-004 0. 0. 0. 1.84145814e-004 0. 1.24918495e-003
      1.98270180e-004 1.84145814e-004 0. 2.41311966e-004 0. 0. 0. 0. 0.
      0. 4.82371019e-004 0. 2.46915879e-004 0. 2.68459436e-004
      2.60158704e-004 0. 0. 1.00607937e-003 4.04910184e-004 0. 0. 0. 0.
      0. 0. 0. 1.06206178e-004 6.21687737e-004 0. 0. 1.84145814e-004
      6.00710220e-004 0. 0. 0. 1.36556366e-004 1.04160274e-004 0.
      1.31884567e-003 0. 0. 2.03234798e-004 0. 0. 0. 0. 0. 0.
      3.58283869e-004 1.65862992e-004 0. 3.66638589e-004 0. 0. 0. 0.
      3.89243272e-004 0. 0. 0. 4.14331676e-004 0. -1.57702081e-002 0. 0.
      0. 2.57263484e-004 0. 3.47766938e-004 0. 3.65141517e-004 0. 0. 0.
      6.96005067e-004 8.70139804e-004 0. 0. 0. 0. 6.38363766e-004 0.
      2.00901646e-004 0. 0. 1.25370803e-004 2.91849195e-004 0.
      1.06206178e-004 3.66638589e-004 5.16443863e-004 6.21687737e-004 0.
      2.57263484e-004 0. 0. 0. 2.80676613e-004 1.19759317e-003
      5.27267286e-004 0. 0. 0. 2.66002171e-004 0. 0. 3.01253691e-004 0.
      0. 0. 0. 0. 0. 0. 0. 0. 0. 0. 0. 0. 0. 0. 0. 0. 0. 0. 0.
      1.42633391e-004 7.64135853e-004 0. 0. 0. 0. 6.00710220e-004 0. 0.
      0. 0. 2.46742158e-004 0. 1.52325025e-004 2.81455490e-004 0.
      9.06185363e-004 1.12882128e-003 2.60158704e-004 1.17182164e-004 0.
      0. 0. 4.39250958e-004 3.99176351e-004 3.35644319e-004
      7.64135853e-004 0. 5.45920688e-004 0. 0. 0. 0. 0. 0.
      -3.44827585e-002 1.29375758e-003 2.46915879e-004 3.69381189e-004
      0. 0. 7.22343684e-005 0. 0. 3.08563263e-004 6.00710220e-004 0.
      1.29198015e-003 0. 0. 0. 0. 9.62086546e-004 4.82371019e-004
      1.79398368e-004 3.47766938e-004 4.04910184e-004 0. 4.39959927e-004
      0. 5.16443863e-004 0. 0. 1.04160274e-004 0. 3.47766938e-004
      1.65862992e-004 0. 1.38884119e-003 0. 4.34194197e-004 0. 0. 0. 0.
      0. 0. 0. 4.82371019e-004 0. 0. 6.96005067e-004 0. 0.
      6.96005067e-004 0. 0. 0. 2.41311966e-004 0. 0. 2.22216418e-004 0.
      4.04910184e-004 0. 6.38363766e-004 0. 4.09831933e-004
      1.47752929e-004 3.65141517e-004 0. 0. 1.29198015e-003 0. 0.
      3.65898042e-004 0. 2.77618266e-004 0. 0. 0. 0. 0. 5.11333696e-004
      0. 0. 1.70631183e-003 0. 0. 0. 0. 1.65862992e-004 1.30716769e-003
      0. 0. 5.61353227e-004 1.81303371e-003 0. 0. 5.57107734e-004 0. 0.
      2.78794789e-004 0. 0. 0. 0. 0. 0. 5.00799681e-004 0.
      -1.67405792e-002 0. 0. 4.03679296e-004 0. 0. 0. 6.88485336e-004 0.
      0. 5.47754869e-004 0. 1.03227183e-004 2.41311966e-004 0. 0. 0. 0.
      1.43739235e-004 0. 7.64135853e-004 0. 0. 0. 0. 2.48002994e-004
      4.99834656e-004 0. 0. 0. 2.46742158e-004 5.00799681e-004
      6.21687737e-004 0. 0. 0. 0. 0. 0. 0. 9.25958215e-004 0. 0. 0.
      5.89055999e-004 0. 0. 0. 0. 0. 0. 2.22216418e-004 0. 0. 0.
      1.25417858e-003 0. 0. 0. 0. 1.47752929e-004 0. 2.22216418e-004 0.
      0. 1.06206178e-004 0. 2.77618266e-004 0. 0. 1.18281704e-003 0. 0.
      0. 2.78312946e-004 0. 8.15827865e-004 2.41311966e-004 0.
      7.22343684e-005 2.63677706e-004 0. 3.43117863e-004 0. 0.
      4.14331676e-004 0. 0. 0. 9.49590234e-004 4.39959927e-004 0.
      3.43117863e-004 0. 0. 3.99176351e-004 2.46915879e-004 0.
      1.98333350e-004 1.01432728e-004 0. 0. 0. 0. 7.26331782e-004 0. 0.
      0. 0. 0. 0. 0. 7.09163200e-004 0. 0. 0. 5.16443863e-004 0. 0. 0.
      0. 0. 2.57263484e-004 0. 0. 0. 0. 2.88097392e-004 0.
      2.57263484e-004 0. 9.42747225e-004 0. 0. 0. 0. 1.96886307e-004
      2.83362973e-003 0. 0. 0. 0. 4.77790833e-004 1.43739235e-004
      1.17182164e-004 0. 0. 0. 0. 0. 0. 3.43117863e-004 0. 0.
      4.14331676e-004 0. 7.05317419e-004 0. 0. 0. 0. 0. 0. 0.
      2.46742158e-004 7.31100154e-004 1.79398368e-004 6.88485336e-004
      1.58025103e-003 0. 0. 0. 1.31884567e-003 0. 3.99176351e-004 0.
      8.97164689e-004 0. 1.94621636e-004 0. 0. 0. 0. 0. 2.78312946e-004
      2.78312946e-004 1.06206178e-004 2.81455490e-004 3.43117863e-004 0.
      0. 0. 1.65862992e-004 0. 6.21687737e-004 0. 1.27767431e-004 0. 0.
      0. 0. 1.29198015e-003 1.03227183e-004 0. 0. 1.11127365e-003 0.
      2.78312946e-004 0. 0. 4.27824853e-004 0. 0. 2.13912426e-004 0. 0.
      0. 1.29198015e-003 0. 0. 0. 4.04627441e-004 1.17182164e-004
      3.99176351e-004 5.61353227e-004 1.27767431e-004 1.27672753e-003 0.
      3.47766938e-004 0. 0. 0. 0. 1.34229718e-004 0. 0. 0. 0. 0. 0. 0.
      1.04160274e-004 3.43117863e-004 0. 0. 2.88097392e-004 0. 0.
      3.42762156e-004 0. 5.27267286e-004 0. 0. 5.16443863e-004
      3.47766938e-004 0. 0. 0. 3.10409087e-004 0. 1.56525319e-004
      2.57263484e-004 0. 0. 0. 0. 9.49590234e-004 1.96886307e-004 0. 0.
      0. 9.64742037e-004 0. 0. 0. 0. 2.78794789e-004 5.26437187e-004 0.
      4.14331676e-004 0. 8.15827865e-004 0. 0. 1.25370803e-004 0. 0. 0.
      2.18704296e-003 0. 2.53584818e-004 6.96005067e-004 7.22343684e-005
      0. 0. 4.14331676e-004 0. 6.38363766e-004 4.39250958e-004
      7.22343684e-005 5.00799681e-004 0. 0. 0. 2.60158704e-004 0. 0. 0.
      7.64135853e-004 0. 0. 0. 1.01432728e-004 2.53584818e-004 0.
      1.04160274e-004 1.15001830e-003 0. 0. 0. 0. 0. 0. 0. 0.
      3.47766938e-004 0. 7.22343684e-005 0. 1.01432728e-004 0.
      3.42762156e-004 0. 0. 0. 0. 2.91849195e-004 0. 0. 2.60158704e-004
      2.16488770e-004 3.01253691e-004 1.65862992e-004 0. 5.00799681e-004
      0. 0. 0. 1.29198015e-003 0. 0. 0. 0. 0. 0. 0. 0. 0. 0. 0.
      1.34152442e-003 0. 0. 0. 0. 0. 0. 0. 0. 0. 4.09831933e-004
      6.00710220e-004 0. 1.09352148e-003 0. 0. 0. 3.69381189e-004 0.
      2.81455490e-004 0. 0. 0. 0. 0. 1.43739235e-004 1.01674406e-003
      1.29198015e-003 0. 1.42633391e-004 0. 0. 0. 0. 2.81455490e-004
      4.14331676e-004 0. 2.81455490e-004 0. 5.11333696e-004 0.
      2.80676613e-004 2.77618266e-004 0. 2.91849195e-004 0. 0.
      4.03679296e-004 1.94621636e-004 -1.72413792e-002 6.96005067e-004
      1.96886307e-004 0.</_></support_vectors>
  <decision_functions>
    <_>
      <sv_count>1</sv_count>
      <rho>-9.9987400799697024e-001</rho>
      <alpha>
        1.</alpha>
      <index>
        0</index></_></decision_functions></my_svm>
</opencv_storage>
