<?xml version="1.0"?>
<opencv_storage>
<my_svm type_id="opencv-ml-svm">
  <svm_type>C_SVC</svm_type>
  <kernel><type>LINEAR</type></kernel>
  <C>1.</C>
  <term_criteria><epsilon>2.2204460492503131e-016</epsilon>
    <iterations>100</iterations></term_criteria>
  <var_all>10000</var_all>
  <var_count>10000</var_count>
  <class_count>2</class_count>
  <class_labels type_id="opencv-matrix">
    <rows>1</rows>
    <cols>2</cols>
    <dt>i</dt>
    <data>
      -1 1</data></class_labels>
  <sv_total>1</sv_total>
  <support_vectors>
    <_>
      0. 2.45391186e-002 1.69419870e-002 0. 0. 0. 4.38735448e-003
      -5.26566282e-002 0. 0. 8.25476553e-003 0. 0. 5.68204653e-003 0. 0.
      0. 1.73757616e-002 5.63642010e-003 1.75773408e-002
      -3.61689669e-003 1.00003826e-002 0. 0. -1.99999996e-002 0.
      -7.83803500e-003 5.09764580e-003 0. 1.05477292e-002
      1.26831224e-002 0. 0. 0. 0. 1.10907732e-002 6.88308896e-003 0.
      6.17979374e-003 0. -2.04201397e-002 4.02502157e-003 0. 0. 0.
      9.32758674e-003 4.02502157e-003 0. 0. -5.82347997e-003 0.
      8.25476553e-003 0. 1.38539076e-002 9.38268658e-003
      -2.27272734e-002 0. 9.32758674e-003 1.43343927e-002
      2.77530067e-002 0. 9.38268658e-003 -3.86095531e-002
      1.15262652e-002 0. 4.89005726e-003 0. 4.79742698e-003
      2.07772683e-002 6.17979374e-003 1.78062283e-002 0.
      -1.04028694e-002 2.77840663e-002 -5.97381368e-002 -1.17810816e-003
      0. 6.72538765e-003 -2.84455772e-002 0. 0. -3.63636352e-002
      1.54315634e-002 0. 7.64870690e-003 1.00003826e-002
      -3.08253206e-002 1.00003826e-002 1.07850395e-002 0.
      -2.38095243e-002 7.13756448e-003 5.80447027e-003 1.39841773e-002
      6.72538765e-003 0. -1.37965521e-002 7.23744184e-003
      3.38023156e-003 0. 0. 0. 0. 0. 0. 0. 0. 1.18964007e-002
      1.58715229e-002 0. 0. -1.02802571e-002 1.01459082e-002 0. 0.
      4.54648677e-003 0. 1.18964007e-002 0. 4.38735448e-003
      1.19034527e-002 9.63751599e-003 0. 4.38735448e-003 1.82481445e-002
      0. 4.88688843e-003 0. 0. 0. -1.81818176e-002 0. 0. 0. 0.
      -7.76475621e-003 0. 0. 0. -9.01605096e-003 0. 9.11279768e-003 0.
      -1.96078438e-002 6.16690051e-003 1.37962839e-002 7.66670797e-003
      2.64863633e-002 6.16690051e-003 4.00109589e-003 8.88310373e-003
      3.26550798e-003 0. 0. 1.21765807e-002 1.52679812e-002
      1.24770077e-002 -1.78571437e-002 0. 0. 2.97019240e-002
      1.24770077e-002 1.23032145e-002 0. 0. 0. 0. 8.25476553e-003
      5.98950498e-003 0. 0. 0. 4.88688843e-003 0. 0. 7.71578168e-003
      -1.20864678e-002 9.50774818e-004 0. 4.70552314e-003
      8.98813456e-003 0. 1.55489743e-002 0. 9.78357904e-003
      2.37754900e-002 9.21228435e-003 0. 2.20230278e-002 1.54295480e-002
      -2.08333340e-002 3.26550798e-003 -2.03144159e-002 6.66126097e-003
      -1.96078438e-002 0. 0. 0. 8.88310373e-003 -1.61290318e-002 0.
      -2.32558139e-002 0. 7.23744184e-003 1.81590542e-002 0.
      5.43217175e-003 0. 8.92298296e-003 0. -2.38095243e-002
      6.53101597e-003 1.37962839e-002 7.34268222e-003 0.
      -8.72422382e-003 7.49349361e-003 5.76821435e-003 -1.18285911e-002
      1.82067920e-002 1.41228512e-002 2.11437568e-002 1.15050487e-002 0.
      0. 0. 1.35209262e-002 1.85020044e-002 1.06180236e-002 0. 0. 0. 0.
      5.85928420e-003 -1.96078438e-002 0. 0. 2.40619183e-002 0. 0.
      1.80065092e-002 8.88310373e-003 0. -5.24926670e-002 0.
      1.86922196e-002 9.11279768e-003 0. -6.27413169e-002
      5.09764580e-003 -7.74904573e-003 -3.84615399e-002 0.
      4.45109792e-003 -2.32558139e-002 1.03176236e-002 0.
      1.19866636e-002 0. 0. 1.12615395e-002 0. 0. -2.26516556e-002 0.
      4.88821277e-003 6.16690051e-003 0. 0. 8.29099678e-003 0.
      1.67112928e-002 0. 0. 1.19866636e-002 0. 0. 0. 1.68157909e-002 0.
      -1.75731778e-002 0. -1.78571437e-002 -4.80807945e-002
      -1.61290318e-002 0. 0. 0. 5.47995139e-003 -2.63438039e-002
      1.32437199e-002 0. -1.75438598e-002 0. 7.23744184e-003 0. 0. 0. 0.
      -2.70270277e-002 0. 4.88688843e-003 0. 9.78011452e-003
      -1.81818176e-002 0. 0. -2.32558139e-002 0. 0. 0. 0. 0. 0. 0. 0.
      6.89814193e-003 -1.92307699e-002 0. 0. 0. 9.78011452e-003 0. 0.
      -3.24101858e-002 0. 0. -2.50000004e-002 8.92298296e-003 0.
      9.21228435e-003 1.54315634e-002 -4.13045939e-003 5.98513428e-003
      0. 3.84056382e-003 -4.91748080e-002 1.36935236e-002
      8.74261186e-003 1.24770077e-002 0. 0. 1.08433906e-002 0.
      5.33345900e-003 0. 9.21228435e-003 2.12097540e-002 5.01347799e-003
      5.43217175e-003 7.23744184e-003 5.68204653e-003 -1.56406425e-002
      1.73004139e-002 5.33345900e-003 0. 7.41400477e-003 9.25100222e-003
      0. 1.66359413e-002 5.09764580e-003 0. -1.03489368e-003
      8.29099678e-003 -1.41818691e-002 0. 0. 2.66493112e-002 0. 0. 0. 0.
      0. -1.78571437e-002 0. 7.40480796e-003 0. 0. -1.23044755e-002
      1.41765196e-002 -1.78571437e-002 6.71261176e-003 1.14653995e-002
      -1.99999996e-002 9.48887225e-003 0. 0. 1.98506154e-002
      4.00109589e-003 1.24770077e-002 5.47995139e-003 9.43760946e-003 0.
      0. 0. 3.84056382e-003 0. 0. 0. 0. 5.92939882e-003 4.88821277e-003
      8.93443357e-003 0. 7.41400477e-003 0. -4.98561189e-003
      7.41400477e-003 0. 0. 0. 0. 0. 0. -1.81818176e-002 0.
      8.93443357e-003 0. -8.79913103e-003 9.11279768e-003
      8.88310373e-003 0. 5.37440134e-003 5.98513428e-003 8.78867041e-003
      0. -1.34832682e-002 5.76821435e-003 1.15704285e-002
      -4.10509035e-002 1.65095311e-002 -1.81818176e-002 0.
      7.71578168e-003 5.77113731e-003 1.17262593e-002 1.24770077e-002 0.
      -1.25211058e-002 0. 0. 0. 7.41400477e-003 0. 3.38023156e-003 0. 0.
      -3.63636352e-002 -2.70270277e-002 0. 0. 0. 0. -1.49960686e-002
      -5.42958193e-002 5.76821435e-003 0. 0. 0. 7.23744184e-003 0. 0. 0.
      2.99604470e-003 0. 0. 0. 1.22083295e-002 1.20309591e-002 0. 0.
      1.15262652e-002 1.00003826e-002 -2.38095243e-002 9.21228435e-003
      0. 0. 0. 7.41400477e-003 1.00003826e-002 0. 0. 5.09764580e-003 0.
      9.25100222e-003 1.19034527e-002 0. 0. 0. 5.43217175e-003 0.
      -2.08333340e-002 3.88724357e-003 0. 0. 2.01511662e-002
      -2.38095243e-002 0. 0. 0. -3.74526419e-002 0. 1.28678950e-002
      4.00109589e-003 0. -2.38095243e-002 0. 0. 7.06991786e-003 0.
      8.79216753e-003 -2.32558139e-002 0. -2.32558139e-002
      -4.46428582e-002 0. -1.53471958e-002 1.48280095e-002 0.
      8.33601691e-003 8.27416684e-003 -3.70879136e-002 0.
      -2.38095243e-002 0. 9.41104628e-003 1.52974138e-002 0. 0. 0.
      -2.50000004e-002 4.02502157e-003 1.88752189e-002 0. 0. 0.
      4.06059157e-003 0. -4.16666679e-002 -3.00790966e-002
      5.28159225e-003 7.64870690e-003 8.90311413e-003 0. 1.15050487e-002
      0. 8.92298296e-003 0. 9.21228435e-003 0. 0. 0. 7.41400477e-003 0.
      0. 3.26550798e-003 -1.81818176e-002 0. 0. -1.15954643e-002 0.
      5.92939882e-003 0. 0. 0. 0. 0. 0. 0. 3.84056382e-003 0.
      7.40480796e-003 0. 0. 9.44054686e-003 2.42874715e-002
      -2.38095243e-002 0. 0. 0. 1.46606658e-002 1.23349149e-002
      9.59485397e-003 -3.99999991e-002 0. -1.46255987e-002 0. 0. 0. 0.
      6.71261176e-003 8.74261186e-003 -3.57142873e-002 0. 0.
      8.29099678e-003 -8.46560895e-002 -2.32558139e-002 -2.38095243e-002
      -1.81818176e-002 -1.27247553e-002 3.88724357e-003 -1.03024524e-002
      1.90665778e-002 2.99604470e-003 0. 2.12097540e-002 4.72027343e-003
      -1.60183720e-002 0. -1.99571103e-002 0. -3.24458294e-002
      2.77530067e-002 0. 5.89565048e-003 0. 0. 1.41398357e-002
      -3.22580636e-002 -2.82023248e-004 0. 0. 0. 0. -5.65596186e-002
      1.01459082e-002 0. 0. 0. 0. 3.73321283e-003 -2.04081628e-002 0. 0.
      1.74852237e-002 0. -2.85314582e-002 5.85928420e-003
      1.34507753e-002 0. 0. 0. 0. 7.49349361e-003 0. 1.41608203e-002
      -1.46108447e-002 0. 0. 1.65095311e-002 8.93443357e-003 0. 0.
      2.40619183e-002 0. 7.64870690e-003 -2.50000004e-002 0.
      -2.38095243e-002 -3.58273834e-002 6.16690051e-003 0. 0.
      -4.55104187e-003 0. 7.40480796e-003 -2.08333340e-002 0.
      -9.67497064e-004 0. 5.09764580e-003 -4.76190485e-002
      -2.70270277e-002 -1.81818176e-002 6.66126097e-003 0. 0.
      2.35811919e-002 2.99604470e-003 0. -4.70653400e-002 0.
      3.30966674e-002 0. 0. 6.72538765e-003 -3.66065837e-002
      1.01952916e-002 0. 1.85922682e-002 0. 8.92298296e-003
      2.99604470e-003 0. 1.42686227e-002 0. 0. 1.35996388e-002
      1.65483337e-002 8.92298296e-003 0. 9.93270148e-003 0.
      -1.75438598e-002 -2.38095243e-002 0. -1.53674698e-002
      3.38023156e-003 8.74261186e-003 0. 0. 0. 8.92298296e-003 0.
      -1.25000002e-002 0. 0. 0. 0. 5.99208940e-003 5.98513428e-003
      7.41400477e-003 0. 0. 1.52974138e-002 0. 9.16150864e-003
      3.69692431e-003 5.76821435e-003 -2.50000004e-002 -1.24738580e-002
      -1.78571437e-002 1.06180236e-002 0. 5.01347799e-003
      5.92939882e-003 0. -1.11958785e-002 8.93443357e-003
      -3.89156379e-002 -5.40540554e-002 0. 8.77809152e-003 0. 0.
      9.10339598e-003 9.78011452e-003 0. -1.28624346e-002
      1.46646379e-002 0. 1.15262652e-002 0. -1.78571437e-002
      1.85020044e-002 0. 1.90996546e-002 0. 0. 7.81267136e-003 0. 0.
      5.92939882e-003 0. 0. 0. 0. 1.32497847e-002 1.85020044e-002
      7.06991786e-003 0. 7.71578168e-003 0. 2.85013230e-003
      2.96192318e-002 0. 0. 1.75773408e-002 5.01347799e-003
      3.26550798e-003 0. 0. 0. 0. 0. 0. 3.38023156e-003 -1.22672496e-002
      2.63342727e-002 0. 0. 7.71578168e-003 0. 0. 8.88310373e-003 0.
      4.16800845e-003 4.16800845e-003 0. 1.18964007e-002 4.79742698e-003
      1.96656920e-002 0. -5.95238134e-002 2.02105828e-002
      7.06991786e-003 -2.56410260e-002 0. 0. 0. 8.25476553e-003
      6.62185997e-003 1.72529574e-002 0. -3.39515768e-002 0. 0.
      1.83835253e-002 0. -8.52955692e-003 0. 0. 0. -2.70270277e-002 0.
      0. -1.40165798e-002 8.90311413e-003 -1.20684402e-002
      -6.00948837e-003 0. 0. 9.48887225e-003 1.12615395e-002
      1.82067920e-002 0. -4.33298871e-002 0. 1.15050487e-002
      1.42664583e-002 -1.25000002e-002 0. 0. 3.83335399e-003
      9.43760946e-003 0. 1.00003826e-002 0. -3.53025422e-002 0. 0.
      8.93443357e-003 0. 0. -1.78571437e-002 0. 7.88569544e-003
      -2.94117648e-002 1.60000287e-002 5.47995139e-003 0. 0. 0. 0. 0. 0.
      9.02624056e-003 -3.22580636e-002 0. 0. 8.27416684e-003 0.
      2.01761611e-002 0. 0. 0. 0. 4.38735448e-003 -2.86458936e-002 0. 0.
      9.11279768e-003 -1.17877228e-002 6.88308896e-003 6.09534979e-003
      1.05477292e-002 2.68334579e-002 1.77662075e-002 -2.70270277e-002
      0. 0. 0. -2.08333340e-002 4.70552314e-003 0. 0. -1.36784445e-002
      1.28374835e-002 0. 0. 4.88821277e-003 2.31408570e-002 0.
      9.48887225e-003 0. 0. 0. 0. -1.61290318e-002 0. -8.75374768e-003
      0. 1.50053781e-002 -2.35362467e-003 0. 0. 0. 0. 9.09297355e-003 0.
      4.72027343e-003 -1.02961222e-002 7.06991786e-003 5.03750285e-003
      0. 7.41400477e-003 0. -5.48945786e-003 0. 2.10954584e-002
      -3.79920681e-003 1.12615395e-002 -1.18228607e-002 -7.87961856e-002
      0. -7.62987062e-002 0. 0. 1.12728402e-002 0. 0. 0.
      -2.50000004e-002 -5.40540554e-002 5.09764580e-003 9.21228435e-003
      1.88752189e-002 0. 0. 0. 1.44748837e-002 -2.12765951e-002 0. 0. 0.
      -1.81818176e-002 0. 0. 1.17551591e-002 0. 2.10954584e-002
      -1.96031779e-002 0. -2.38095243e-002 1.15262652e-002
      -1.99999996e-002 -1.89058445e-002 0. 0. 0. 7.68112764e-003
      9.48887225e-003 0. 0. 1.96557939e-002 -1.92307699e-002
      2.05507241e-002 -1.75438598e-002 0. 5.99208940e-003
      8.17970652e-003 9.48887225e-003 0. 0. 9.93270148e-003
      -2.01439392e-002 9.41104628e-003 2.35509127e-002 0. 0. 0.
      4.16800845e-003 0. 0. 0. 0. -4.11180109e-002 0. 0. 0. 0. 0.
      2.36485316e-003 1.34252235e-002 0. 4.16800845e-003 0. 0.
      3.85789089e-002 0. 0. 0. 1.19866636e-002 0. 0. 0. 0.
      -1.94612313e-002 0. 5.33345900e-003 1.25801889e-002 0.
      7.23204715e-003 9.11279768e-003 2.99604470e-003 1.41765196e-002
      9.38268658e-003 0. -3.50380945e-003 9.43760946e-003 0. 0. 0.
      4.89005726e-003 1.44270435e-002 -1.09590013e-002 7.39384862e-003
      0. 0. 0. 0. -1.25000002e-002 1.70266517e-002 0. -1.96078438e-002
      9.69315134e-003 0. 9.77642555e-003 5.98513428e-003 9.48887225e-003
      4.54648677e-003 0. 0. 0. 6.72538765e-003 0. 8.17970652e-003 0.
      5.98513428e-003 1.08433906e-002 0. 0. 6.66126097e-003
      1.41765196e-002 0. 8.78867041e-003 0. 0. 0. 4.02502157e-003 0. 0.
      1.82067920e-002 1.23595875e-002 0. 0. 5.92939882e-003
      1.17863547e-002 1.68960933e-002 0. 0. 4.88821277e-003
      4.02502157e-003 1.57713909e-002 7.13756448e-003 0. 0. 0. 0.
      9.79323592e-003 0. 0. -3.44827585e-002 6.16690051e-003
      4.70552314e-003 7.06991786e-003 0. 1.48280095e-002
      -1.81863538e-003 0. 0. 5.09764580e-003 0. 0. 0. 1.15422746e-002 0.
      3.10048759e-002 5.09764580e-003 0. 0. 5.47995139e-003
      -1.19614936e-002 -8.93416069e-003 8.29099678e-003 0. 0. 0. 0.
      7.40480796e-003 0. 0. 9.10339598e-003 0. 0. 0. 0. 0. 0.
      -4.52088453e-002 0. 0. 6.17979374e-003 0. 0. 1.15262652e-002
      2.73383930e-002 0. 0. 7.40480796e-003 -1.09037459e-002 0. 0.
      1.37594249e-002 1.15050487e-002 5.68204653e-003 3.69692431e-003
      1.42751290e-002 1.42225632e-002 -2.38095243e-002 0.
      8.90311413e-003 0. 0. 1.86551735e-002 4.88688843e-003 0.
      4.70552314e-003 9.78357904e-003 0. 4.13618283e-003 0. 0.
      1.49784535e-002 -3.99385542e-002 0. 0. 0. 1.05477292e-002 0.
      8.25476553e-003 -3.92156877e-002 0. 2.99604470e-003
      -5.52188531e-002 1.15216915e-002 0. 0. 0. -2.04081628e-002 0.
      8.77809152e-003 3.84056382e-003 0. 4.44773491e-003 0.
      1.41398357e-002 1.44949676e-002 -1.81818176e-002 -2.38095243e-002
      0. 0. 0. 0. 0. 8.88310373e-003 -2.70270277e-002 0. 0.
      -2.04081628e-002 1.86090115e-002 4.89005726e-003 1.29661197e-003
      0. 1.12728402e-002 0. 7.13756448e-003 0. 0. -2.58754343e-002 0.
      2.99604470e-003 0. 0. 0. 9.38268658e-003 0. 0. 0. 0. 0.
      -6.45161271e-002 8.78867041e-003 6.16690051e-003 -3.33038624e-003
      -8.72422382e-003 0. 0. 0. 0. 1.30995279e-002 -1.78571437e-002
      -2.32558139e-002 0. 0. 0. -1.81818176e-002 -1.63897071e-002
      1.35079911e-002 1.88752189e-002 0. 1.19866636e-002 0.
      -3.22580636e-002 4.16800845e-003 5.47995139e-003 0. 0. 0. 0. 0.
      7.06991786e-003 0. 0. 1.08433906e-002 9.43760946e-003 0.
      -3.43108475e-002 3.55850868e-002 0. 7.88569544e-003
      7.54412613e-004 0. 0. -1.96078438e-002 0. 1.23338010e-002 0.
      7.64870690e-003 4.06059157e-003 0. -3.17307711e-002 0.
      2.20060777e-002 -2.32457183e-003 2.57027857e-002 2.49540154e-002
      0. 1.48096159e-002 9.93270148e-003 7.23744184e-003 0.
      1.67456865e-002 -3.44827585e-002 -1.98654849e-002 -1.28483586e-002
      0. -8.79913103e-003 1.41398357e-002 0. 0. 0. 0. -5.79343084e-003
      8.27416684e-003 0. 0. 0. 1.36394594e-002 0. 3.83335399e-003 0.
      -5.55944070e-002 -2.38095243e-002 0. 7.41400477e-003 0.
      3.90767399e-003 6.72538765e-003 6.89814193e-003 0. 9.69315134e-003
      1.46821579e-002 0. 2.26776935e-002 0. 0. 0. 0. 0. 8.88310373e-003
      0. 0. -2.12765951e-002 -2.87328456e-002 8.29099678e-003 0.
      1.40168332e-002 0. -2.70270277e-002 0. 0. 5.47995139e-003
      9.48887225e-003 -2.50000004e-002 5.63642010e-003 8.17970652e-003
      0. -4.20812778e-002 0. -3.34480628e-002 -1.99999996e-002 0.
      5.68204653e-003 0. 0. 4.79742698e-003 -1.85185187e-002 0. 0. 0.
      4.16800845e-003 0. 5.47995139e-003 -3.60976644e-002 0. 0.
      -1.75438598e-002 1.88697521e-002 8.92298296e-003 0. 0. 0. 0. 0.
      8.88310373e-003 0. -2.70270277e-002 7.66670797e-003
      4.79742698e-003 -2.50000004e-002 0. 1.25649339e-002
      -1.69882029e-002 6.72538765e-003 0. -1.61290318e-002
      3.84056382e-003 0. 2.59355176e-002 1.19866636e-002 0. 0.
      6.09534979e-003 4.72027343e-003 0. -7.83033296e-003
      2.21313722e-002 0. 1.65483337e-002 -8.75518937e-003
      8.33601691e-003 0. 9.21228435e-003 0. -5.26315793e-002 0. 0. 0.
      1.41765196e-002 -1.85185187e-002 1.23040620e-002 -3.20298187e-002
      8.27416684e-003 0. 0. 0. 1.01459082e-002 0. 6.16690051e-003
      -1.91955306e-002 0. 1.30697638e-002 0. 1.44748837e-002
      6.89814193e-003 4.89005726e-003 1.08433906e-002 0. 0. 0. 0.
      1.20309591e-002 0. -3.16650867e-002 -2.70270277e-002
      4.66593495e-003 0. -1.75438598e-002 0. 0. 5.70026459e-003
      -1.00579942e-002 -7.14285746e-002 4.88821277e-003 0. 0.
      5.92939882e-003 5.77113731e-003 7.76544679e-004 -3.70370373e-002
      0. 0. 0. 0. 8.90311413e-003 0. 7.71578168e-003 0. 0.
      -6.35069329e-003 4.72027343e-003 0. 9.25100222e-003 0.
      -1.78571437e-002 1.57713909e-002 0. 0. 0. 0. 1.48096159e-002 0.
      8.00219178e-003 0. 0. 9.48887225e-003 -2.70270277e-002
      -2.63157897e-002 0. 0. 5.28159225e-003 0. -9.06011462e-003
      3.69692431e-003 0. 0. -2.70380848e-003 1.01952916e-002 0. 0. 0.
      4.68524126e-003 0. 0. 0. 1.57713909e-002 1.24770077e-002
      1.23595875e-002 0. 0. 0. 0. 0. 6.71261176e-003 0. 0.
      -2.04081628e-002 -3.50877196e-002 7.39384862e-003 -5.47241932e-003
      4.06059157e-003 0. 8.85801855e-003 0. 0. 0. 1.08433906e-002
      -2.70270277e-002 0. 4.38735448e-003 0. 0. 0. 0. 6.17979374e-003
      1.20309591e-002 0. 0. 1.38874669e-002 1.15364287e-002 0. 0. 0.
      1.12615395e-002 7.88569544e-003 0. -4.31560576e-002
      -3.85185182e-002 -2.08333340e-002 0. 6.17979374e-003
      5.28159225e-003 4.88821277e-003 0. -2.32558139e-002
      -3.36734019e-003 8.93443357e-003 1.05477292e-002 0. 0. 0. 0.
      1.52702965e-002 0. 4.02502157e-003 0. 7.06991786e-003 0.
      -2.38095243e-002 0. 0. 0. 0. 0. 1.15704285e-002 0. 4.38735448e-003
      2.78999433e-002 2.99604470e-003 -2.85918289e-003 8.77809152e-003
      0. 0. 0. -5.15798340e-003 6.35314127e-003 4.47607739e-003 0. 0. 0.
      8.77470896e-003 0. 9.93270148e-003 5.28159225e-003 3.38023156e-003
      8.90311413e-003 -3.29753943e-002 5.85928420e-003 -1.75438598e-002
      9.38268658e-003 -2.32558139e-002 0. 0. 1.06180236e-002
      1.18400613e-002 -1.51816718e-002 0. -3.43426354e-002
      1.64279267e-002 -7.37896143e-003 0. 8.27416684e-003
      4.89005726e-003 0. 0. 0. -1.47870684e-003 0. 0. -6.32071542e-003
      -1.01240493e-001 1.48280095e-002 -1.75894182e-002 1.18964007e-002
      0. -1.78571437e-002 1.23595875e-002 0. 1.57713909e-002
      1.41398357e-002 0. -1.75438598e-002 6.16690051e-003
      -3.22580636e-002 8.78867041e-003 0. 0. 8.25476553e-003
      2.26953104e-002 0. 6.88308896e-003 -2.68311836e-002
      8.92298296e-003 0. 1.00003826e-002 0. 0. 0. 2.28186827e-002
      5.28159225e-003 8.78867041e-003 0. 0. -3.20173614e-002 0.
      -1.20639084e-002 0. 8.88310373e-003 0. -1.33843906e-002 0. 0.
      5.09764580e-003 0. 0. -3.99999991e-002 0. 0. -3.70370373e-002
      1.48280095e-002 -2.71126330e-002 -1.81818176e-002 0. 0. 0. 0.
      1.15704285e-002 -1.85185187e-002 0. -2.94117648e-002
      7.68112764e-003 0. 7.23744184e-003 -4.33837399e-002
      -2.50000004e-002 -4.38228436e-002 0. -2.27272734e-002
      -1.01572396e-002 1.14456611e-002 1.14456611e-002 1.36086373e-002
      0. -1.81818176e-002 0. 9.43760946e-003 4.38735448e-003
      8.17970652e-003 4.68524126e-003 0. 8.92298296e-003 2.22144239e-002
      -3.57142873e-002 -1.72515735e-002 0. 0. 0. -1.81818176e-002 0.
      8.77809152e-003 0. 0. 7.40480796e-003 0. -1.96078438e-002 0.
      5.89565048e-003 0. 0. 0. 0. 0. 0. 0. 0. 9.21228435e-003
      5.28159225e-003 -2.38095243e-002 5.98513428e-003 2.12360471e-002
      0. 8.05004314e-003 -5.40540554e-002 1.24770077e-002
      -5.49450591e-002 0. 0. 0. 9.32758674e-003 -1.99999996e-002 0.
      1.93863027e-002 3.88724357e-003 0. 0. 6.71261176e-003 0. 0. 0.
      8.93443357e-003 8.88310373e-003 6.53101597e-003 -4.08633575e-002
      -8.36827140e-003 0. -6.81818202e-002 -2.94117648e-002 0.
      1.33327916e-002 0. 0. 0. 0. 8.88310373e-003 0. 5.76821435e-003
      6.83314865e-003 0. -3.70370373e-002 0. 0. 0. 1.08433906e-002
      2.30100974e-002 0. 7.40480796e-003 1.78062283e-002
      -1.92307699e-002 0. 0. 8.29099678e-003 0. 0. 0. 1.69419870e-002 0.
      1.89777445e-002 0. 9.21228435e-003 7.06991786e-003 2.16807853e-002
      0. 0. 0. 0. 7.06991786e-003 0. 0. 0. 7.40480796e-003
      8.25476553e-003 0. 7.23744184e-003 3.83335399e-003 0. 0.
      2.00460665e-002 8.22860003e-003 0. -1.78571437e-002
      1.62409600e-002 0. 0. 2.85013230e-003 0. 0. 6.72538765e-003 0.
      1.05477292e-002 8.25476553e-003 0. 9.21228435e-003 0. 0. 0. 0. 0.
      -7.71123497e-003 -1.72413792e-002 1.51422005e-002 3.84056382e-003
      7.88569544e-003 0. 1.15000624e-002 0. 1.15262652e-002
      -9.43920575e-003 0. -1.09487809e-002 0. 0. 0. 0. -2.28590202e-002
      8.90311413e-003 0. 9.25100222e-003 0. 1.39479116e-002 0.
      8.93443357e-003 0. 8.29099678e-003 0. 4.88821277e-003
      6.09534979e-003 0. -1.81818176e-002 9.92005039e-003
      2.25267168e-002 5.76821435e-003 0. 0. -1.99999996e-002
      8.78650695e-003 0. 0. 5.85928420e-003 0. 2.63595209e-002
      1.98654030e-002 0. 0. 0. 0. 8.78650695e-003 1.15262652e-002 0. 0.
      -1.20020239e-002 0. 0. 0. 0. 0. 0. 9.76931024e-003 9.68431588e-003
      0. 1.47704650e-002 0. 0. -2.63157897e-002 9.48887225e-003 0.
      9.32758674e-003 4.38735448e-003 0. -3.70370373e-002 0. 0.
      7.06991786e-003 0. 1.15050487e-002 0. -1.81818176e-002 0.
      -1.84096452e-002 0. 0. 0. 0. 0. 0. 0. 0. 2.24455893e-002
      7.21352175e-003 0. -1.16148759e-002 0. 9.93270148e-003 0. 0.
      1.17185684e-002 5.68204653e-003 1.23595875e-002 -4.10547759e-003
      0. 6.72538765e-003 0. -1.78571437e-002 2.18923017e-002 0. 0.
      3.83335399e-003 0. 8.27416684e-003 0. 0. 0. -2.70270277e-002 0.
      8.47099349e-003 0. 0. 6.71261176e-003 5.89565048e-003 0.
      1.00003826e-002 1.19702686e-002 0. 1.05477292e-002
      -3.57142873e-002 1.75773408e-002 0. 2.68417057e-002
      1.46373753e-002 0. 5.63642010e-003 0. 0. 0. 0. 0. 0.
      5.92939882e-003 0. 0. -5.98312309e-003 3.26550798e-003
      -1.92307699e-002 0. 4.72027343e-003 1.61228459e-002
      7.40480796e-003 0. 4.88821277e-003 4.13618283e-003
      -2.12181434e-002 0. 2.85013230e-003 7.88569544e-003 0.
      4.38735448e-003 0. 0. 5.01347799e-003 -1.67701878e-002 0.
      -2.70270277e-002 8.93443357e-003 0. -7.63283204e-003
      1.01459082e-002 1.38213215e-002 0. 0. 7.40480796e-003 0.
      5.98513428e-003 1.75207034e-002 0. 0. 0. 7.40480796e-003 0.
      -3.99999991e-002 -2.56410260e-002 9.25100222e-003 0.
      8.90311413e-003 0. 0. 0. 5.77113731e-003 -4.22860868e-003
      2.23338492e-002 4.88688843e-003 0. 0. 2.00007651e-002 0. 0.
      -2.12765951e-002 5.68204653e-003 -1.96733419e-002 0. 0. 0. 0.
      1.05477292e-002 0. 0. 4.38735448e-003 0. 0. 0. 0. 1.41398357e-002
      0. -1.25000002e-002 0. -4.17448133e-002 0. 0. 0. 0. 0. 0.
      1.12033095e-002 -1.24439523e-002 0. 3.90767399e-003 0. 0. 0. 0.
      -1.21842138e-002 0. 1.32497847e-002 0. 9.79652349e-003
      5.89565048e-003 0. 1.44567555e-002 0. 0. 3.83335399e-003
      6.62185997e-003 0. 8.29099678e-003 5.68204653e-003 0. 0. 0.
      -1.61290318e-002 1.78459659e-002 0. -1.25000002e-002
      -4.76190485e-002 0. 1.56157259e-002 -2.94117648e-002 0. 0. 0. 0.
      9.10339598e-003 0. 6.72538765e-003 1.52974138e-002 4.68524126e-003
      1.08433906e-002 0. 0. 0. 0. 0. 1.05477292e-002 0. 0. 0.
      -2.75994278e-002 0. 4.72027343e-003 -2.50000004e-002
      -2.70270277e-002 1.54315634e-002 9.59485397e-003 0. 0.
      2.29246095e-002 8.27416684e-003 4.00109589e-003 0. 0. 0. 0. 0.
      8.92298296e-003 0. 9.37048253e-003 0. 0. 0. 0. 0. 0.
      -3.48283313e-002 0. -1.99999996e-002 1.15050487e-002 0.
      4.70552314e-003 0. 1.24770077e-002 -1.99999996e-002 0. 0. 0. 0.
      7.71578168e-003 -4.02900670e-003 0. 3.13846879e-002 0.
      1.63594130e-002 8.90311413e-003 0. 6.09534979e-003 2.85013230e-003
      9.38268658e-003 -1.78571437e-002 1.78459659e-002 -2.61789802e-002
      -1.75438598e-002 0. 1.15704285e-002 7.13756448e-003 0.
      4.70552314e-003 0. 9.93270148e-003 0. 0. -2.94117648e-002 0.
      -1.65945534e-002 -3.22580636e-002 -1.78571437e-002 5.99208940e-003
      -1.78571437e-002 1.91811807e-002 -4.89346534e-002 4.13618283e-003
      0. 7.71578168e-003 0. 0. 0. 0. 0. 0. 4.88688843e-003
      -4.88942936e-002 0. 8.88310373e-003 9.32758674e-003
      5.43217175e-003 8.88310373e-003 0. 0. 8.29099678e-003 0.
      9.11279768e-003 0. 1.88810937e-002 0. -2.38095243e-002 0.
      5.68204653e-003 0. 0. -5.01253158e-002 0. 0. 0. 5.98513428e-003 0.
      0. 0. 1.00003826e-002 0. 0. 0. 0. 0. 0. 0. 9.78357904e-003
      -5.96074341e-003 0. 8.29099678e-003 2.99604470e-003 0.
      7.21352175e-003 2.48729903e-002 0. 0. 3.69692431e-003
      1.97024457e-002 0. 0. 1.15050487e-002 0. 0. 9.77642555e-003 0.
      4.68524126e-003 5.09764580e-003 0. -1.78571437e-002
      8.27416684e-003 0. 9.93270148e-003 0. 4.88688843e-003 0.
      1.47827882e-002 7.64870690e-003 0. -1.94982681e-002 0. 0.
      -6.18495094e-003 0. 0. 0. 0. 0. -1.81818176e-002 0.
      -1.61666460e-002 0. 6.62489235e-003 -2.63157897e-002 0. 0. 0.
      1.06180236e-002 -3.70370373e-002 5.28159225e-003 0. 0. 0. 0. 0. 0.
      0. 1.18519645e-002 -3.40556214e-003 -4.46428582e-002
      9.21228435e-003 0. 1.09599028e-002 0. -2.08333340e-002 0. 0.
      -1.61290318e-002 1.01459082e-002 7.71578168e-003 -2.27272734e-002
      0. 2.32648849e-002 0. 0. 6.89814193e-003 1.15262652e-002 0. 0.
      4.72027343e-003 8.90311413e-003 1.15262652e-002 0. 5.12678176e-003
      1.33568412e-002 0. 0. 5.98513428e-003 0. 2.19193660e-002 0. 0. 0.
      0. 0. 0. -8.93416069e-003 0. 1.19866636e-002 1.81252975e-002
      -1.85185187e-002 -2.12765951e-002 8.47099349e-003 0. 0.
      3.26550798e-003 0. 0. 0. 0. 0. 0. 0. -4.01977487e-002
      9.21228435e-003 0. 0. 0. 0. -1.65087450e-002 0. 0. 0.
      7.71578168e-003 0. 0. -1.08312480e-002 1.12615395e-002 0. 0.
      8.90311413e-003 9.48887225e-003 4.54648677e-003 -2.63157897e-002
      0. 0. 0. 0. 7.64870690e-003 9.69315134e-003 -2.88842013e-003 0. 0.
      1.18964007e-002 3.26550798e-003 0. 6.62489235e-003 8.92298296e-003
      0. 0. 0. 0. 0. 0. 1.03354258e-002 1.05477292e-002 0. 0. 0.
      1.05477292e-002 -2.12765951e-002 0. 1.48096159e-002
      -1.61290318e-002 0. 1.34252235e-002 0. 0. 0. 0. 0. 2.15895530e-002
      0. 0. -1.25000002e-002 -1.78571437e-002 6.09534979e-003
      -4.36215810e-002 -2.08333340e-002 2.80812732e-003 2.88596265e-002
      5.99208940e-003 0. 0. 7.64870690e-003 -5.12820520e-002
      -2.38095243e-002 0. 0. 5.80447027e-003 0. 6.88308896e-003 0.
      -1.78571437e-002 -4.43041958e-002 1.41765196e-002 0. 0.
      -3.99999991e-002 1.18964007e-002 0. -1.75438598e-002
      2.37928014e-002 1.45463049e-002 4.06059157e-003 9.77377687e-003
      6.72538765e-003 0. 0. 5.33345900e-003 0. 9.10339598e-003 0. 0. 0.
      0. 0. 1.08433906e-002 0. 2.69015506e-002 0. 0. 0. 0. 0. 0. 0. 0.
      0. 0. -1.62347257e-002 0. 0. 0. 5.33345900e-003 0. 0.
      5.76821435e-003 8.25476553e-003 -6.01731613e-002 9.25100222e-003
      1.88154206e-002 7.71578168e-003 0. 6.17979374e-003 0. 0. 0. 0.
      1.19866636e-002 -1.99589785e-002 5.37440134e-003 0. 0.
      1.15050487e-002 -4.19826284e-002 0. 3.90767399e-003
      -2.82569677e-002 -1.98894627e-002 0. 0. 0. 8.77809152e-003 0. 0.
      5.99208940e-003 1.24770077e-002 0. 0. 3.69692431e-003 0.
      8.88310373e-003 4.00109589e-003 0. -4.41444889e-002
      -1.81818176e-002 0. 0. 0. -2.55683791e-002 7.40480796e-003 0. 0.
      9.11279768e-003 0. 0. 0. 5.76821435e-003 0. 0. 0. 1.81069225e-002
      7.64870690e-003 2.49540154e-002 0. 9.38268658e-003 3.38023156e-003
      -1.81818176e-002 0. 0. 0. -1.09566031e-002 2.18974333e-002 0. 0.
      1.93863027e-002 9.43760946e-003 0. 0. 0. 0. 0. 0. 0.
      9.32758674e-003 -2.04081628e-002 0. 8.51859525e-003
      -4.45708856e-002 0. 2.07225569e-002 0. 2.99604470e-003
      -2.85573979e-003 0. 0. 0. 0. 0. 0. 0. 5.28159225e-003
      -6.67676888e-003 0. 0. 0. 1.50404349e-002 0. -2.63157897e-002 0.
      1.01203714e-002 0. 9.41104628e-003 8.92298296e-003 2.48518139e-002
      0. 0. 0. 0. 3.90767399e-003 -2.38095243e-002 0. 0. 0. 0. 0.
      -1.67090036e-002 1.77991726e-002 1.86970718e-002 0.
      1.54992566e-003 0. 0. 1.79953184e-002 -1.72413792e-002
      6.62185997e-003 4.72027343e-003 0. 5.70026459e-003 0.
      5.80447027e-003 -1.81818176e-002 0. 8.27416684e-003 0.
      2.54277028e-002 -1.96078438e-002 0. 8.12118314e-003
      5.63642010e-003 -4.08163257e-002 7.41400477e-003 5.76821435e-003
      0. 0. -2.38095243e-002 1.08433906e-002 0. 1.19866636e-002
      5.77113731e-003 0. 0. 0. 0. 1.24770077e-002 0. 1.41088990e-002 0.
      0. 7.06991786e-003 -2.32558139e-002 0. -3.92156877e-002
      8.47099349e-003 8.47099349e-003 0. 0. 0. 0. 0. 1.06180236e-002
      1.15704285e-002 0. 7.64870690e-003 0. 1.42186787e-002
      1.06180236e-002 6.62489235e-003 0. 0. 0. 9.48887225e-003
      -3.92156877e-002 -1.36206020e-002 0. -1.78571437e-002
      1.44748837e-002 0. 0. -1.72413792e-002 -2.38095243e-002 0.
      1.33718122e-002 0. -1.37965521e-002 2.37928014e-002 0.
      5.98513428e-003 -5.88235296e-002 0. 7.49349361e-003
      7.49349361e-003 0. 1.99772827e-002 0. 0. 0. -4.76190485e-002 0.
      2.00007651e-002 0. 0. 4.79742698e-003 4.00109589e-003 0.
      8.47099349e-003 -1.99999996e-002 0. 0. 0. 0. -3.44827585e-002 0.
      0. 0. 0. -5.12820520e-002 8.92298296e-003 0. 0. 0.
      -1.78571437e-002 0. 0. 0. 0. 2.13540066e-002 8.90311413e-003
      1.01459082e-002 0. 1.54315634e-002 0. 0. 0. 0. 0. 8.78650695e-003
      -1.72413792e-002 0. 0. 7.71578168e-003 -3.70370373e-002
      4.68524126e-003 0. 0. 9.78357904e-003 1.24770077e-002 0. 0.
      4.06059157e-003 0. 4.16800845e-003 7.41400477e-003 0. 0. 0.
      4.70552314e-003 5.09764580e-003 1.78459659e-002 0. 4.54648677e-003
      0. 0. 0. 8.29099678e-003 0. 1.08643435e-002 -3.63636352e-002 0. 0.
      3.28228101e-002 9.09297355e-003 0. -1.81818176e-002 0. 0. 0. 0. 0.
      0. 0. 1.30796107e-002 -1.39710000e-002 0. 6.62489235e-003 0.
      -1.73338763e-002 9.11279768e-003 0. 0. 8.47099349e-003 0. 0. 0. 0.
      0. 9.10339598e-003 9.38268658e-003 0. -1.78571437e-002 0. 0.
      -2.50000004e-002 0. 0. 0. 0. 0. -3.75000015e-002 8.78650695e-003
      4.70552314e-003 7.13756448e-003 -4.28776778e-002 1.00003826e-002
      -2.12765951e-002 8.05004314e-003 -5.59315681e-002 0. 0. 0. 0. 0.
      -5.26315793e-002 1.15262652e-002 0. 9.69315134e-003
      1.19866636e-002 0. -1.65322106e-002 1.08433906e-002 0.
      9.10339598e-003 0. 0. -2.70270277e-002 3.69692431e-003
      1.01459082e-002 -2.70270277e-002 0. 0. 0. 0. 0. 0. 0. 0.
      9.77377687e-003 0. 8.47099349e-003 0. -2.63157897e-002
      8.80478788e-003 7.13756448e-003 7.71578168e-003 0. 1.32497847e-002
      0. 0. 1.53999515e-002 0. 5.28159225e-003 -1.75438598e-002
      1.08433906e-002 1.43276667e-002 0. 0. -1.81818176e-002
      4.06059157e-003 6.62489235e-003 0. 0. 9.69315134e-003 0.
      7.23744184e-003 -2.12765951e-002 0. 0. -1.90837421e-002 0. 0. 0.
      -4.16666679e-002 0. 2.81480588e-002 0. 0. 8.25476553e-003
      1.39261335e-002 0. 0. -1.25000002e-002 6.89814193e-003 0. 0.
      1.59593094e-002 0. 8.12118314e-003 0. 0. -4.88138981e-002 0. 0. 0.
      1.91585347e-002 0. 0. 0. 0. -2.15377677e-002 3.69692431e-003
      1.15262652e-002 4.54648677e-003 -2.50000004e-002 0. 0.
      -5.26315793e-002 9.78357904e-003 0. -1.23044755e-002 0. 0. 0. 0.
      1.24770077e-002 1.56824291e-002 0. 0. 8.88310373e-003 0. 0.
      -2.50000004e-002 0. -9.67743713e-003 0. 0. 4.13618283e-003 0.
      6.71261176e-003 1.93863027e-002 0. 0. -3.44827585e-002
      1.24770077e-002 -2.39804257e-002 2.60654697e-003 7.13756448e-003
      0. 5.47995139e-003 5.85928420e-003 7.88569544e-003 1.15050487e-002
      0. 7.40480796e-003 8.78867041e-003 0. -2.70270277e-002 0. 0. 0. 0.
      0. 9.48887225e-003 0. 0. 0. 0. 0. -2.70270277e-002 2.80812732e-003
      0. 0. 0. -3.63636352e-002 4.88821277e-003 -1.99999996e-002 0.
      7.49349361e-003 1.12702111e-002 0. 0. 0. 0. -1.19933281e-002 0. 0.
      1.21817747e-002 0. 1.30706159e-002 0. 1.77917592e-002
      1.00003826e-002 0. 0. 0. 5.01347799e-003 1.00131482e-002 0. 0. 0.
      1.54723646e-002 0. 0. 0. 8.47099349e-003 0. -1.96078438e-002
      1.15704285e-002 0. 0. 0. 0. 8.77809152e-003 5.76821435e-003
      2.20264252e-002 -1.92307699e-002 0. -3.92156877e-002 0. 0. 0.
      2.85013230e-003 0. 0. 1.19866636e-002 -5.40540554e-002 0.
      1.29637057e-002 0. 1.55465975e-002 0. 0. 0. 0. 0. 0.
      2.42472254e-002 -3.27794924e-002 0. 0. 4.54648677e-003
      9.21228435e-003 9.78357904e-003 0. 7.88569544e-003 7.40480796e-003
      0. -3.54010016e-002 6.89814193e-003 9.38268658e-003
      7.49349361e-003 0. 1.69419870e-002 -3.54868732e-002
      5.09764580e-003 -5.40540554e-002 0. 4.70552314e-003 0.
      3.38023156e-003 1.29764061e-002 1.19841788e-002 8.88310373e-003 0.
      0. -9.57430061e-003 9.93270148e-003 -1.61290318e-002 0.
      -1.72413792e-002 0. 0. 0. 0. 0. -1.99999996e-002 0.
      1.24770077e-002 0. 0. 8.92298296e-003 0. 0. -3.46611142e-002 0. 0.
      0. 0. -2.43669376e-003 0. 0. 1.44748837e-002 -1.68892406e-002 0.
      0. 1.29240789e-002 2.54129805e-002 0. 0. 0. 7.49349361e-003 0. 0.
      1.24770077e-002 0. 1.00003826e-002 4.68524126e-003 0.
      -3.75000015e-002 0. 0. 9.48887225e-003 0. 0. 0. 4.02502157e-003
      -3.44827585e-002 1.44748837e-002 0. 0. 1.23595875e-002
      7.06991786e-003 0. 1.91662647e-002 0. 0. 6.09534979e-003
      -5.40540554e-002 0. 0. 9.48887225e-003 0. 0. 6.16690051e-003 0. 0.
      0. 2.29546111e-002 -1.97489318e-002 2.85013230e-003 0. 0.
      2.20050495e-002 -2.94117648e-002 0. 0. 7.41400477e-003 0.
      1.41765196e-002 0. 0. 2.02915557e-002 0. 0. 0. 7.06991786e-003
      5.43217175e-003 0. -1.01673104e-001 -1.78571437e-002
      5.01347799e-003 0. 0. 0. -2.08333340e-002 0. 0. -1.78571437e-002
      0. 9.77377687e-003 2.80812732e-003 -8.70186929e-003 0. 0. 0. 0.
      6.62185997e-003 0. -1.81818176e-002 3.84056382e-003
      1.17913010e-002 -2.70270277e-002 0. 1.78459659e-002 0.
      -1.78571437e-002 0. 0. 9.25100222e-003 4.02502157e-003 0. 0. 0. 0.
      4.38735448e-003 2.15428900e-002 0. 1.20309591e-002 1.41765196e-002
      0. 4.72027343e-003 1.12741133e-002 0. 0. -1.65290069e-002 0.
      -2.16526259e-002 8.74261186e-003 1.34907505e-002 1.05477292e-002
      0. 6.09534979e-003 2.99604470e-003 7.64870690e-003 1.19866636e-002
      0. -2.50000004e-002 5.43217175e-003 1.12615395e-002 0. 0. 0.
      1.83982085e-002 8.25476553e-003 0. 8.05004314e-003 1.54315634e-002
      0. 1.15050487e-002 0. 0. 2.36570854e-002 -2.50000004e-002 0. 0. 0.
      0. 0. 9.43760946e-003 4.68524126e-003 0. 1.23595875e-002 0. 0.
      1.13640931e-002 0. 0. 5.63642010e-003 0. 6.17979374e-003 0.
      1.08433906e-002 6.71261176e-003 4.02502157e-003 -3.57256755e-002
      0. 0. 7.88569544e-003 5.43217175e-003 4.88821277e-003 0.
      4.79742698e-003 1.65095311e-002 0. -4.17830423e-003 0. 0. 0. 0. 0.
      0. 8.88310373e-003 0. 5.68204653e-003 0. -2.12765951e-002 0. 0. 0.
      2.63595209e-002 7.49349361e-003 0. -1.50314327e-002 0. 0.
      9.33455490e-003 3.26550798e-003 0. 0. 0. 4.88688843e-003
      8.27416684e-003 6.71261176e-003 0. 5.68204653e-003 1.24770077e-002
      0. -2.69080140e-002 0. 0. -1.90783478e-002 0. 1.78688671e-002 0.
      -1.72252636e-002 0. 8.92298296e-003 0. 0. 5.92939882e-003
      1.37661779e-002 4.38735448e-003 8.92298296e-003 1.01459082e-002
      1.19866636e-002 0. 0. 9.11279768e-003 0. 0. 0. 5.77113731e-003
      4.38735448e-003 0. 0. 0. 5.98513428e-003 0. 9.09297355e-003
      -1.81818176e-002 0. 0. -9.25883465e-003 0. 0. 1.57713909e-002 0.
      2.79741362e-003 0. 0. -1.78571437e-002 -1.96078438e-002 0. 0. 0.
      -1.08298352e-002 0. 4.38735448e-003 9.10339598e-003 0. 0. 0. 0. 0.
      9.32758674e-003 0. 1.20309591e-002 0. 0. 4.79742698e-003
      4.88821277e-003 0. 0. 1.01459082e-002 -2.09749788e-002 0.
      5.92939882e-003 1.32606821e-002 0. -1.25000002e-002 0.
      7.23744184e-003 0. 2.00007651e-002 0. 0. 4.88821277e-003
      -1.25000002e-002 8.90311413e-003 0. 0. 5.89565048e-003
      5.28159225e-003 0. -3.90858809e-003 0. 0. 0. 1.15050487e-002
      1.34252235e-002 0. -1.44848935e-002 1.85020044e-002 0. 0. 0. 0.
      -2.70270277e-002 1.15422746e-002 -2.25407593e-002 0.
      2.56698746e-002 8.74261186e-003 0. 6.17979374e-003
      -3.44827585e-002 6.89814193e-003 0. 0. 0. 0. 0. -1.85185187e-002
      0. 0. -2.50000004e-002 0. 0. 0. 0. 0. 5.80447027e-003 0. 0.
      2.39733271e-002 0. 0. 1.94964167e-002 9.78357904e-003 0. 0. 0. 0.
      4.16800845e-003 1.87653732e-002 5.92939882e-003 0. 0. 0.
      8.93443357e-003 0. 0. -2.04081628e-002 0. 0. 0. 7.71578168e-003
      -1.30841713e-002 2.24804822e-002 3.88724357e-003 4.16800845e-003
      0. 0. 0. -2.22147070e-002 1.63594130e-002 9.48887225e-003 0.
      3.16431895e-002 0. 6.72538765e-003 0. 1.59214213e-002 0. 0.
      6.89814193e-003 1.41698169e-002 0. 9.25100222e-003 1.37962839e-002
      0. 9.93270148e-003 -1.78571437e-002 0. 7.23744184e-003 0.
      4.00109589e-003 0. 0. -2.38095243e-002 4.72027343e-003 0.
      1.01459082e-002 0. 9.77377687e-003 -4.59845069e-005
      3.10862139e-002 7.41400477e-003 0. 6.72538765e-003 0. 0.
      2.21411735e-002 0. 1.28032034e-002 8.17970652e-003 9.78357904e-003
      0. 6.62185997e-003 -2.12765951e-002 0. 0. 0. 0. 0. 9.69315134e-003
      0. 2.85013230e-003 0. 0. 0. 0. 0. 0. 0. -2.12765951e-002
      8.88310373e-003 1.05477292e-002 0. 0. 1.34633323e-002
      1.06669180e-002 0. 0. 4.88688843e-003 0. 0. 0. 0. 2.85013230e-003
      1.88752189e-002 0. -4.56096372e-003 7.71578168e-003
      8.85801855e-003 9.32758674e-003 0. 0. 0. 1.07488027e-002
      1.18964007e-002 0. 0. 4.16800845e-003 0. 0. 0. 0. 1.18587976e-002
      -3.57142873e-002 0. 0. -2.12765951e-002 0. 0. 0. 0. 0.
      -1.81818176e-002 0. 0. -2.50000004e-002 5.37440134e-003
      1.10628931e-002 2.30062921e-002 0. 0. 0. 0. 0. 6.66126097e-003
      4.38735448e-003 0. 0. 0. 0. 0. 1.00003826e-002 0. 0. 0. 0.
      8.47099349e-003 0. 0. 0. -3.63636352e-002 8.09369050e-003
      1.12615395e-002 0. 7.71578168e-003 0. 7.40480796e-003 0. 0. 0. 0.
      0. 0. 0. 0. 0. -4.62398306e-003 7.13756448e-003 0. 0.
      8.40244722e-003 0. 0. 0. 0. 2.71155052e-002 0. 0. 0. 0.
      -1.78571437e-002 -1.25000002e-002 0. 0. 0. 0. 0. 6.72538765e-003
      1.41765196e-002 1.74852237e-002 5.37440134e-003 0. 5.68204653e-003
      -1.99999996e-002 3.69692431e-003 0. 0. -4.51918272e-003 0. 0.
      7.64870690e-003 1.06180236e-002 0. 1.12615395e-002
      -2.62571685e-003 2.39733271e-002 7.49349361e-003 0.
      1.15364287e-002 0. 0. -1.96078438e-002 9.21228435e-003 0. 0. 0.
      4.79742698e-003 9.90169123e-003 0. 0. 8.00219178e-003
      1.49350837e-002 0. 1.99398734e-002 0. 9.11279768e-003 0. 0. 0. 0.
      0. 7.49349361e-003 -1.43438810e-002 9.38268658e-003
      1.23595875e-002 -4.10334207e-002 0. 8.78867041e-003
      6.09534979e-003 1.09599028e-002 -2.56410260e-002 1.15262652e-002
      1.19403349e-002 -1.99999996e-002 -1.81818176e-002 4.38735448e-003
      4.02502157e-003 0. 0. 4.02502157e-003 7.21352175e-003
      6.88308896e-003 0. 9.38268658e-003 2.01511662e-002 0. 0.
      7.64870690e-003 0. 0. 0. 5.63642010e-003 1.01459082e-002
      1.15704285e-002 5.80447027e-003 5.47995139e-003 3.38023156e-003 0.
      1.20309591e-002 0. 8.77809152e-003 0. -1.99999996e-002
      -1.78571437e-002 0. 0. 0. 0. 0. -2.70270277e-002 0. 0.
      1.48096159e-002 5.99208940e-003 4.88821277e-003 1.43244984e-002 0.
      1.01459082e-002 0. 0. 0. 0. 0. 6.72538765e-003 0. 8.05004314e-003
      0. 3.88724357e-003 5.37440134e-003 0. -1.78571437e-002
      -1.99999996e-002 0. -2.70270277e-002 0. -1.78571437e-002
      7.13756448e-003 -5.40540554e-002 1.15704285e-002 0. 0. 0.
      -1.99999996e-002 7.40480796e-003 -7.59233907e-002 6.71261176e-003
      5.33345900e-003 0. 3.38023156e-003 0. -1.45101976e-002
      7.88569544e-003 0. 9.25100222e-003 0. 0. -4.83142659e-002
      -1.04786949e-002 4.70552314e-003 0. 0. 0. 0. 0. 0. 7.64870690e-003
      0. 8.92298296e-003 -3.44385132e-002 0. 0. 0. 0. 0. 0.
      9.25100222e-003 1.37661779e-002 1.08433906e-002 0. 0. 0. 0.
      3.38023156e-003 9.32758674e-003 2.23026127e-002 1.33526083e-002 0.
      0. 0. 0. 0. 0. 6.09534979e-003 0. 0. 2.99604470e-003
      8.88310373e-003 -9.54166800e-003 0. 0. 0. -2.56410260e-002
      -1.96078438e-002 0. 0. -8.69289786e-003 -1.99999996e-002 0. 0. 0.
      8.74261186e-003 0. 0. 0. 0. 0. -1.99999996e-002 3.03013297e-003 0.
      0. 1.55478753e-002 1.75561830e-002 1.15050487e-002 0. 0. 0. 0.
      8.78867041e-003 0. 0. 1.15262652e-002 -1.78571437e-002
      4.68524126e-003 0. 0. -8.65750667e-003 1.15704285e-002 0.
      1.00003826e-002 0. 0. 9.93270148e-003 -1.96078438e-002
      8.74261186e-003 5.63642010e-003 4.02502157e-003 0. 0. 0. 0.
      8.05004314e-003 0. 4.88821277e-003 5.37440134e-003 0. 0.
      -5.51243275e-002 0. 7.23744184e-003 8.77470896e-003
      5.47995139e-003 7.49349361e-003 0. 0. 0. 0. 2.23579761e-002
      7.41400477e-003 1.97465047e-002 8.92298296e-003 3.38023156e-003
      4.79742698e-003 0. 4.06059157e-003 0. 0. 0. 0. 0. 3.90767399e-003
      8.27416684e-003 9.44054686e-003 8.47099349e-003 8.90311413e-003 0.
      0. -1.99999996e-002 1.91405788e-002 0. 0. 0. 0. 0.
      -1.78571437e-002 0. 0. 2.02918164e-002 0. 3.83335399e-003 0.
      -3.03589310e-002 0. 0. 9.32758674e-003 0. 0. 0. 1.17185684e-002
      6.16690051e-003 3.84056382e-003 0. 5.76821435e-003 0. 0.
      -2.94117648e-002 -1.78571437e-002 0. 1.41765196e-002
      1.48096159e-002 0. 0. 6.62489235e-003 5.98513428e-003 0. 0.
      7.13756448e-003 8.92298296e-003 1.41765196e-002 0. 0.
      -1.77760255e-002 0. 5.63642010e-003 1.15473466e-002
      -1.99999996e-002 0. -3.22580636e-002 9.43760946e-003
      1.12702111e-002 -1.04407892e-002 -2.54690424e-002 0.
      -1.97810549e-002 0. -1.11316759e-002 0. 0. -5.88235334e-002 0.
      5.47995139e-003 9.21228435e-003 -2.03147586e-002 0. 0.
      1.13640931e-002 1.18964007e-002 1.60185546e-002 0. 0. 0. 0.
      1.12752907e-003 0. 0. 0. 0. 0. 1.19866636e-002 0. 4.88688843e-003
      0. 4.72027343e-003 6.62185997e-003 1.77469365e-002 3.69692431e-003
      -1.72413792e-002 0. 0. -2.38095243e-002 7.41400477e-003
      4.88688843e-003 0. 0. 6.76046312e-003 0. 0. -4.46507223e-002 0.
      6.62489235e-003 0. 0. 6.17979374e-003 0. 9.16150864e-003 0. 0. 0.
      0. 0. 0. 8.77809152e-003 0. 8.72024242e-003 1.06180236e-002 0.
      7.06991786e-003 0. 1.65819936e-002 -1.48610985e-002
      8.25476553e-003 0. -1.25000002e-002 0. -1.46535402e-002 0. 0. 0.
      0. 0. 1.49869872e-002 0. -2.70270277e-002 0. -1.99999996e-002 0.
      2.99604470e-003 0. 1.57661922e-002 0. 0. 0. 4.38735448e-003
      3.43416966e-002 1.82307009e-002 7.64870690e-003 1.85020044e-002 0.
      3.83335399e-003 1.65483337e-002 9.32758674e-003 -1.85185187e-002
      0. 0. -3.93642820e-002 0. 0. 0. 0. 0. 2.80812732e-003 0. 0.
      -2.70270277e-002 0. 0. 0. -2.70270277e-002 8.77809152e-003
      -2.12765951e-002 8.77809152e-003 7.49349361e-003 7.23204715e-003
      0. 3.88724357e-003 4.70552314e-003 0. 0. 0. -1.72413792e-002 0. 0.
      0. -1.74326859e-002 0. 0. 0. 0. 0. 0. -1.81040447e-002 0.
      1.00003826e-002 0. 0. 0. 0. 0. 8.27416684e-003 0. 8.29099678e-003
      -2.04081628e-002 5.89565048e-003 0. 0. 1.18964007e-002 0.
      2.02918164e-002 3.69692431e-003 4.54648677e-003 0.
      -2.70270277e-002 7.13756448e-003 0. 0. 0. 7.06991786e-003 0. 0. 0.
      4.00109589e-003 0. 0. 9.11279768e-003 0. 0. -1.81818176e-002
      8.25476553e-003 4.72027343e-003 0. 0. -1.34193292e-002 0.
      -2.01488882e-002 0. 7.41400477e-003 -2.38095243e-002
      6.16690051e-003 0. -2.27272734e-002 7.39384862e-003 0. 0.
      1.48514314e-002 0. 1.32497847e-002 0. -3.98503654e-002 0. 0. 0.
      -6.77834377e-002 2.80812732e-003 6.89814193e-003 0. 0. 0.
      4.70552314e-003 7.71578168e-003 0. 8.29099678e-003 0. 0.
      1.24770077e-002 1.05477292e-002 5.01347799e-003 0. 9.25100222e-003
      0. 0. 0. 0. 9.25100222e-003 -2.38095243e-002 0. 0. 8.93443357e-003
      0. 0. 0. 1.06180236e-002 0. 6.71261176e-003 0. 8.92298296e-003 0.
      7.88569544e-003 7.88569544e-003 0. 0. 0. 0. 5.37440134e-003
      1.45317959e-002 -3.33137438e-002 4.00109589e-003 9.37048253e-003
      3.84056382e-003 0. 4.16800845e-003 0. 0. 8.93443357e-003
      -1.37210917e-002 0. 0. 0. 0. 0. 1.75778531e-002 0. 0.
      5.89565048e-003 0. 4.54351492e-003 1.07314959e-002 4.00109589e-003
      0. 0. 0. 0. 5.09764580e-003 5.63642010e-003 0. 0. -8.47445708e-003
      -1.96078438e-002 1.32133802e-002 0. 8.88310373e-003 0.
      1.44748837e-002 0. 0. 0. 5.80447027e-003 9.48887225e-003 0.
      1.52929379e-002 0. 0. 4.13618283e-003 0. 0. 0. 0. 0.
      1.23595875e-002 9.21228435e-003 3.69692431e-003 0. 0. 0. 0.
      -1.99999996e-002 0. 2.85013230e-003 0. 0. 7.64870690e-003 0. 0.
      -1.61290318e-002 0. 0. 0. 0. 1.74220502e-002 9.69315134e-003 0.
      -1.72413792e-002 4.00109589e-003 8.90311413e-003 0.
      4.70552314e-003 3.84056382e-003 1.44270435e-002 8.29099678e-003
      9.43760946e-003 0. 0. 0. 0. 0. 0. 0. 0. 5.43217175e-003 0.
      1.15050487e-002 0. 0. 0. 7.21352175e-003 4.16800845e-003 0. 0.
      -3.70370373e-002 0. 0. 5.47995139e-003 0. 0. 0. 0. 0.
      2.99604470e-003 0. 9.21228435e-003 0. -1.96078438e-002 0.
      1.14328852e-002 -1.39912944e-002 0. -2.14275774e-002
      7.49349361e-003 0. 0. 0. 0. -1.25000002e-002 -2.32558139e-002
      6.62185997e-003 5.85928420e-003 0. 7.79347168e-003 0.
      -1.01189716e-002 6.71261176e-003 0. 0. 9.21228435e-003 0.
      -2.70270277e-002 0. 6.89814193e-003 -1.85185187e-002 0.
      1.15704285e-002 0. 0. -1.96078438e-002 0. 5.99208940e-003
      6.16690051e-003 -1.96078438e-002 0. 0. 0. 0. -6.52629733e-002
      8.93443357e-003 0. 5.85928420e-003 -1.23421615e-002
      4.16800845e-003 0. 0. 0. 0. -1.61290318e-002 2.99604470e-003 0. 0.
      -1.49376839e-002 0. -2.38095243e-002 6.89814193e-003 0.
      1.48280095e-002 6.16690051e-003 1.74852237e-002 -4.08163257e-002
      -5.57371899e-002 9.78011452e-003 1.58060715e-002 0. 0. 0.
      8.27416684e-003 0. 1.59228742e-002 0. -4.91763055e-002 0. 0. 0.
      1.26069942e-002 0. -3.10185179e-002 0. 0. 0. 0. 0. 4.06059157e-003
      1.77662075e-002 0. 0. 9.21228435e-003 -2.56410260e-002 0. 0. 0. 0.
      0. 0. 0. 0. 0. 0. 0. 0. 0. 0. 1.87653732e-002 0. 5.76821435e-003
      2.03660019e-002 6.11564051e-003 1.41398357e-002 0. 7.21352175e-003
      0. 0. 7.13756448e-003 0. 3.90767399e-003 7.71578168e-003
      5.47995139e-003 0. 0. 0. -2.70270277e-002 0. 9.43760946e-003
      1.24770077e-002 0. 0. 9.93270148e-003 -1.47656016e-002 0. 0. 0. 0.
      0. 4.70552314e-003 0. 0. 0. 7.23744184e-003 4.88688843e-003 0.
      -1.74346156e-002 0. 7.64870690e-003 0. 0. 0. 0. 0. 0.
      -1.40259452e-002 7.40480796e-003 0. -1.99999996e-002
      8.74261186e-003 8.77470896e-003 0. 8.47099349e-003 0.
      1.15050487e-002 9.21228435e-003 2.16867812e-002 0. 0. 0. 0. 0.
      1.18964007e-002 1.06180236e-002 0. 0. 9.38268658e-003 0. 0.
      -5.70728332e-002 0. 0. 0. 0. 8.17970652e-003 7.32609956e-003
      7.64870690e-003 0. 1.84245687e-002 -3.44827585e-002
      1.78459659e-002 -2.50000004e-002 6.89814193e-003 8.78650695e-003
      7.71578168e-003 0. 8.17970652e-003 -3.22580636e-002 0.
      3.69692431e-003 0. 8.47099349e-003 0. 0. 8.78867041e-003 0. 0. 0.
      0. 0. 4.38735448e-003 0. 0. 0. 0. 5.80447027e-003 0. 0. 0.
      8.93443357e-003 1.34252235e-002 -1.56406425e-002 1.18964007e-002
      0. 0. 6.17979374e-003 0. 0. 7.13756448e-003 6.76046312e-003
      1.15262652e-002 -1.13316048e-002 1.06180236e-002 1.41765196e-002
      0. 1.00003826e-002 5.85928420e-003 2.99604470e-003 1.35755185e-002
      0. 0. 0. 1.15422746e-002 0. -3.92156877e-002 0. 8.12118314e-003 0.
      0. 0. 0. 0. 0. 0. 0. -2.27272734e-002 0. 2.99604470e-003 0. 0. 0.
      0. 1.08433906e-002 8.88310373e-003 0. 1.87653732e-002 0. 0.
      9.10339598e-003 0. -2.77115777e-002 -2.16114940e-003 0. 0. 0. 0.
      -1.81818176e-002 0. -1.85185187e-002 0. 0. 1.04501490e-002 0. 0.
      -2.38095243e-002 8.27416684e-003 0. 6.89814193e-003
      -1.16773499e-002 0. 0. 0. 0. 0. 0. 0. -1.78571437e-002
      -8.75735283e-003 0. 9.48887225e-003 1.18791480e-002
      -3.70370373e-002 0. 0. 0. 1.15262652e-002 0. 0. 0.
      -2.12765951e-002 7.49349361e-003 0. 8.98813456e-003
      5.33345900e-003 0. 2.73101870e-002 0. 1.05477292e-002
      -1.78571437e-002 0. -1.96078438e-002 6.71261176e-003
      8.25476553e-003 0. 0. 0. 0. -3.92156877e-002 -1.78571437e-002 0.
      0. 0. 9.78357904e-003 -2.27272734e-002 0. 1.78781040e-002 0. 0.
      -2.04081628e-002 -1.32873878e-002 -3.48197971e-003 0.
      1.65095311e-002 1.00269560e-002 0. 1.48435552e-002 1.20309591e-002
      0. 1.15050487e-002 8.90311413e-003 4.38735448e-003 5.77113731e-003
      0. 1.42751290e-002 2.22144239e-002 0. -9.00354516e-003
      -2.02340586e-003 0. 1.00003826e-002 0. 0. 9.25100222e-003 0. 0.
      4.89005726e-003 4.68524126e-003 0. 0. 1.23595875e-002 0.
      -1.25000002e-002 0. 6.16690051e-003 0. 6.72538765e-003
      6.17979374e-003 0. -5.08599542e-003 0. 0. 0. 0. -3.57142873e-002
      1.42365731e-002 5.01347799e-003 0. 5.76821435e-003 0. 0.
      1.24770077e-002 0. 0. 0. 0. 0. 0. 9.21228435e-003 9.38268658e-003
      1.33327916e-002 1.48924449e-002 0. 0. 8.29099678e-003 0. 0.
      -4.05844152e-002 0. 0. 0. 0. 9.21228435e-003 4.89005726e-003
      5.37440134e-003 0. 0. 0. 5.37440134e-003 0. 0. -2.70270277e-002 0.
      0. 0. 8.92298296e-003 0. -5.35714328e-002 0. 1.19866636e-002 0.
      -2.32558139e-002 5.68204653e-003 0. 2.80812732e-003
      -1.92307699e-002 -3.60389613e-002 0. 9.48887225e-003 0. 0.
      4.88688843e-003 0. 0. 0. 4.79742698e-003 -1.78571437e-002
      4.16800845e-003 6.62185997e-003 0. -1.75438598e-002 0. 0.
      -1.70908533e-002 0. 0. 0. 7.21352175e-003 7.41400477e-003 0.
      2.26390213e-002 -7.85732362e-003 0. 0. 3.88724357e-003
      -2.94117648e-002 1.16033619e-002 0. 0. 0. 0. 0. 0. 1.16114458e-002
      0. 6.89814193e-003 4.79742698e-003 0. 0. 0. 8.47099349e-003 0. 0.
      0. 1.52974138e-002 0. 6.17979374e-003 0. 0. 0. 0. 0.
      5.85928420e-003 0. 1.15050487e-002 0. 0. 0. 0. 4.13618283e-003 0.
      0. 7.71578168e-003 0. 0. 0. 0. 8.78867041e-003 1.24770077e-002
      9.78357904e-003 1.63180437e-002 0. 0. 6.62489235e-003 0. 0.
      1.23032145e-002 0. 0. -9.40372609e-003 1.64258070e-002 0. 0.
      7.88569544e-003 7.39384862e-003 -1.61290318e-002 -3.92156877e-002
      0. 6.71261176e-003 1.24770077e-002 8.90311413e-003 4.79742698e-003
      1.30868545e-002 1.06180236e-002 0. 7.39384862e-003
      -1.75438598e-002 0. 0. 3.69692431e-003 0. 0. 1.17185684e-002 0.
      -3.08193057e-003 0. -1.25000002e-002 0. 0. 0. 1.05477292e-002
      -6.22717198e-003 9.77377687e-003 0. 0. 0. 0. 0. 0. 0.
      5.85928420e-003 1.82067920e-002 4.89005726e-003 0. 1.12615395e-002
      0. 0. -3.57142873e-002 0. 5.28159225e-003 0. 0. 0. 9.21228435e-003
      0. 0. 0. 0. 0. -1.96078438e-002 0. 0. 8.29099678e-003
      -1.25000002e-002 7.88569544e-003 1.46179432e-002 0. 0. 0. 0. 0. 0.
      4.54648677e-003 1.74852237e-002 0. 8.78867041e-003
      -1.92307699e-002 1.69092603e-002 0. 0. 8.47099349e-003
      1.15050487e-002 1.42695745e-002 1.15262652e-002 0.
      -2.38095243e-002 0. 0. 0. 0. 1.19866636e-002 6.17979374e-003 0.
      7.40480796e-003 0. 0. 4.72027343e-003 0. -1.99999996e-002
      9.38268658e-003 0. 0. -1.61290318e-002 0. 0. -2.32558139e-002 0.
      0. 0. 0. 1.15050487e-002 0. 3.26550798e-003 0. -5.56818172e-002 0.
      -2.53699608e-002 0. 0. 0. 7.40480796e-003 -3.99999991e-002
      -1.78571437e-002 2.12884955e-002 0. 1.23466942e-002 0. 0. 0.
      6.71261176e-003 6.66126097e-003 -1.81818176e-002 0. 0. 0.
      2.31408570e-002 0. -4.05491292e-002 0. -2.38095243e-002
      9.43760946e-003 -1.75951924e-002 3.26550798e-003 0. 0. 0. 0. 0.
      1.74852237e-002 0. 0. 0. -3.70370373e-002 0. 0. 0. 0.
      6.17979374e-003 0. 8.92298296e-003 4.68524126e-003
      -1.50945866e-002 0. 5.85928420e-003 0. 0. 5.68204653e-003
      -2.85918289e-003 -1.81818176e-002 0. 1.22633353e-002 0. 0. 0.
      1.48096159e-002 0. 1.15704285e-002 5.09764580e-003 0. 0.
      -2.38095243e-002 4.79742698e-003 7.88569544e-003 0. 0.
      -2.70270277e-002 0. 0. 0. -2.08333340e-002 9.25100222e-003 0. 0.
      0. 7.88569544e-003 -1.46967266e-002 -1.78571437e-002 0.
      1.15050487e-002 0. 0. 0. 0. 0. 0. -9.08488408e-003 0. 0.
      1.15704285e-002 -5.40540554e-002 0. 0. 0. 8.92298296e-003 0. 0. 0.
      3.69692431e-003 6.88308896e-003 -2.70270277e-002 6.17979374e-003
      0. 3.69692431e-003 9.43760946e-003 -1.54998749e-002 0.
      1.15050487e-002 0. 0. 0. 0. 9.38268658e-003 0. 0. 5.09764580e-003
      1.45988706e-002 0. 0. 5.09764580e-003 -2.50445418e-002
      1.33327916e-002 1.05477292e-002 5.28159225e-003 0. 0. 0. 0. 0. 0.
      0. 0. 0. 1.66666675e-002 0. 4.72027343e-003 0. 1.15262652e-002
      9.32758674e-003 0. 2.80812732e-003 7.23744184e-003 3.26550798e-003
      9.16150864e-003 3.26550798e-003 0. 0. -2.04081628e-002 0.
      1.00003826e-002 0. 0. 0. 0. 0. 0. 0. 0. 4.89005726e-003 0.
      4.68524126e-003 0. 0. 0. 0. 0. 0. 0. -2.27272734e-002
      6.16690051e-003 0. 7.71578168e-003 -1.85185187e-002
      1.15704285e-002 0. 0. 0. -3.99999991e-002 0. 2.99604470e-003
      6.76046312e-003 0. 0. 0. 0. 0. -8.60614143e-003 0. 4.54648677e-003
      -7.20604928e-003 1.23595875e-002 0. 0. 0. -1.50114922e-002 0. 0.
      0. 0. 6.16690051e-003 -1.61290318e-002 0. 0. 3.38023156e-003
      8.17970652e-003 0. 0. 0. 0. -2.38095243e-002 5.77113731e-003 0.
      -2.04081628e-002 -5.40540554e-002 0. 0. 1.15050487e-002
      -1.61290318e-002 7.71578168e-003 1.00269560e-002 9.69315134e-003
      5.85928420e-003 0. 0. 0. 0. -2.04081628e-002 4.70552314e-003 0. 0.
      0. -3.22580636e-002 0. 8.90311413e-003 -2.04081628e-002 0.
      7.40480796e-003 0. 4.02502157e-003 2.85013230e-003
      -1.78571437e-002 0. 0. 0. 0. 8.77809152e-003 0. 1.65762398e-002 0.
      0. -1.30341221e-002 4.88688843e-003 0. 0. 8.90311413e-003 0. 0. 0.
      -6.64413814e-003 0. 6.89814193e-003 7.06991786e-003
      2.85013230e-003 6.16690051e-003 4.13618283e-003 0. 0. 0. 0.
      8.93443357e-003 0. 0. 0. 0. 0. 0. 0. 0. -3.57142873e-002 0.
      -1.99999996e-002 0. 0. 0. 0. 8.78867041e-003 0. 0. 9.25100222e-003
      0. 5.76821435e-003 9.10339598e-003 1.67039149e-002 0. 0. 0.
      1.23338010e-002 0. 8.74261186e-003 0. 4.54648677e-003 0. 0. 0. 0.
      0. 0. 1.65328644e-002 9.38268658e-003 0. 0. 0. 9.10339598e-003 0.
      7.06991786e-003 7.71578168e-003 0. 8.92298296e-003 0.
      -3.68341133e-002 0. -2.70270277e-002 0. 0. 8.88310373e-003
      3.11477855e-002 1.15262652e-002 1.48188127e-002 0.
      -2.56410260e-002 0. 0. 8.29099678e-003 1.22752627e-002
      9.59485397e-003 0. 0. 7.40480796e-003 0. 0. -3.70370373e-002
      5.98513428e-003 -1.92307699e-002 0. 0. 0. 0. -2.63157897e-002 0.
      0. 8.78867041e-003 0. 1.15704285e-002 -2.27272734e-002 0. 0.
      -4.25531901e-002 2.93507371e-002 0. 0. 0. 0. 0. 5.76821435e-003 0.
      0. 0. 1.21447835e-002 0. 0. 0. -8.93081538e-003 3.26550798e-003
      9.93270148e-003 0. 0. 1.05477292e-002 5.09764580e-003 0.
      1.47860320e-002 0. 0. -3.50877196e-002 4.06059157e-003 0.
      8.74261186e-003 0. 6.88308896e-003 0. 0. 1.01459082e-002 0. 0. 0.
      1.88752189e-002 0. 0. 5.80447027e-003 0. 0. 0. 0. 0. 0.
      8.17970652e-003 -2.04081628e-002 0. -2.04081628e-002
      3.38023156e-003 0. 7.41400477e-003 3.69692431e-003 0. 0. 0.
      1.37661779e-002 0. 5.68204653e-003 5.68204653e-003 0.
      8.52580462e-003 6.72538765e-003 7.88569544e-003 0. 0.
      5.76821435e-003 1.12615395e-002 0. 0. 0. 7.13756448e-003 0.
      5.33007842e-004 9.43760946e-003 0. 0. 8.27416684e-003
      -2.38095243e-002 0. 1.15262652e-002 0. 0. 0. 0. 0. 0. 0.
      1.12615395e-002 9.69315134e-003 0. 0. 0. 0. -3.99999991e-002 0.
      -2.38095243e-002 0. 8.88310373e-003 6.62185997e-003 0.
      9.93270148e-003 0. 0. 5.33345900e-003 7.71578168e-003 0. 0.
      4.72027343e-003 0. 0. 0. 0. 0. -3.68601903e-002 0. 0. 0. 0.
      8.88310373e-003 0. 8.17970652e-003 5.77113731e-003 0.
      1.44246584e-002 0. 0. -3.57142873e-002 0. 4.59103985e-003 0. 0.
      8.92298296e-003 -5.47686219e-002 1.24770077e-002 0.
      1.55551303e-002 6.62489235e-003 1.48096159e-002 0. 0. 0.
      8.77809152e-003 7.40480796e-003 0. 0. 7.49349361e-003 0.
      6.72538765e-003 8.92298296e-003 0. 4.88688843e-003
      -1.89252719e-002 0. 0. -2.50000004e-002 0. -2.27272734e-002 0.
      6.62489235e-003 4.68524126e-003 8.92298296e-003 2.35570930e-002
      -2.08333340e-002 0. -1.73668601e-002 3.84056382e-003
      2.63595209e-002 0. 0. 2.65835281e-002 0. 0. -1.25000002e-002 0.
      9.61613469e-003 0. -2.40391158e-002 7.23204715e-003
      7.23204715e-003 0. 0. 8.25476553e-003 -1.81818176e-002
      2.23601162e-002 0. 0. -4.08163257e-002 8.47099349e-003 0.
      8.29099678e-003 0. -1.72413792e-002 0. 0. 8.77809152e-003
      -2.63157897e-002 0. 0. 8.77809152e-003 0. 0. -1.38731273e-002
      5.47995139e-003 0. 0. -3.10041234e-002 -2.08333340e-002 0.
      -1.33843906e-002 -1.99999996e-002 0. 0. 0. 0. 1.48096159e-002 0.
      0. 0. 9.11279768e-003 9.25100222e-003 0. 0. -1.81818176e-002 0. 0.
      7.13756448e-003 9.32758674e-003 0. 1.59953572e-002
      -1.78571437e-002 0. 0. 0. 6.71261176e-003 0. 3.38023156e-003 0.
      6.89814193e-003 0. 0. 4.88688843e-003 -1.81818176e-002
      -1.96078438e-002 1.33103374e-002 0. 1.48661816e-002 0. 0. 0. 0. 0.
      0. 0. 0. 0. 5.92939882e-003 0. 2.22764555e-002 9.78357904e-003 0.
      3.69692431e-003 7.06991786e-003 -3.99999991e-002 0. 0. 0.
      8.25476553e-003 0. 0. 0. 0. 0. 5.80447027e-003 0. -2.41301730e-002
      -3.57142873e-002 0. 0. 0. 8.78867041e-003 0. 0. 8.92298296e-003 0.
      0. 9.69315134e-003 4.88688843e-003 0. 4.70552314e-003
      1.20309591e-002 0. 0. 3.69692431e-003 0. 0. 0. 0. 0. 0.
      3.20433527e-002 1.64021384e-002 0. 1.19866636e-002 0. 0.
      8.17970652e-003 -4.61378461e-003 4.88688843e-003 9.93270148e-003
      0. 0. 1.42751290e-002 0. -2.38095243e-002 -1.81818176e-002
      -3.57142873e-002 6.62185997e-003 9.79652349e-003 0.
      3.83335399e-003 0. -2.50000004e-002 0. 0. 0. 0. 4.02502157e-003
      2.48922165e-002 0. 0. 0. -1.72413792e-002 0. 0. 0.
      -2.32558139e-002 0. 7.21352175e-003 -1.81818176e-002
      4.88688843e-003 0. 0. 9.32758674e-003 0. -1.25000002e-002 0. 0. 0.
      0. -1.92307699e-002 0. 3.83335399e-003 1.06938230e-002 0.
      1.84956826e-002 7.71578168e-003 8.90311413e-003 0. 0.
      -1.81818176e-002 0. 3.69692431e-003 0. 8.78867041e-003 0. 0. 0. 0.
      -2.70270277e-002 0. 1.06180236e-002 1.01459082e-002
      -1.72413792e-002 0. 1.54315634e-002 0. 0. 8.93443357e-003 0.
      7.71578168e-003 2.61774063e-002 0. 0. 0. 0. 0. 0. -1.78571437e-002
      0. 0. 0. 1.65819936e-002 0. 0. 0. 0. 0. 0. 0. 0. 0. 0.
      -1.96078438e-002 0. 0. 0. 0. -1.98135059e-002 1.08433906e-002 0.
      0. 0. 9.69315134e-003 -1.81818176e-002 6.16690051e-003 0.
      -8.47373437e-003 7.64870690e-003 2.99604470e-003 0. 0. 0. 0. 0. 0.
      0. 1.37541182e-002 9.09297355e-003 0. 0. 0. 5.92939882e-003 0.
      -2.56410260e-002 9.69315134e-003 0. 8.90311413e-003 0.
      2.30525304e-002 5.47995139e-003 0. 0. 0. 1.20309591e-002 0.
      -1.81818176e-002 1.36912530e-002 -3.57927978e-002 1.37661779e-002
      2.10978128e-002 0. -1.78571437e-002 0. 0. 7.64870690e-003 0. 0. 0.
      1.47055704e-002 -1.96078438e-002 0. 7.88569544e-003 0.
      5.09764580e-003 0. 0. 0. 0. -1.37032960e-002 0. 9.43760946e-003
      8.17970652e-003 0. 0. 4.88688843e-003 1.37661779e-002 0. 0.
      1.47159062e-002 0. 0. 6.88308896e-003 0. 8.77809152e-003 0. 0. 0.
      8.88310373e-003 0. 0. 0. 3.26550798e-003 8.92298296e-003
      -1.81818176e-002 4.54648677e-003 9.11279768e-003 4.89005726e-003
      0. 0. 9.11279768e-003 -2.70270277e-002 0. 4.02502157e-003
      1.00003826e-002 0. 0. 0. 7.21352175e-003 0. -1.78571437e-002 0. 0.
      -6.65555196e-003 -7.29571003e-003 0. -2.63157897e-002 0.
      9.43760946e-003 6.71261176e-003 0. 0. 0. 9.48887225e-003
      4.70552314e-003 0. 0. 0. -2.63157897e-002 0. -1.25813652e-002
      3.26550798e-003 0. 0. 0. -1.81818176e-002 0. 0. 0.
      -2.70270277e-002 0. 5.68204653e-003 0. 0. 8.88310373e-003
      9.25100222e-003 1.67651952e-003 0. 0. 0. 0. 1.08433906e-002
      6.62185997e-003 8.88310373e-003 0. 4.00109589e-003
      -3.22580636e-002 -1.81818176e-002 0. 0. 0. 0. 0. 0.
      -2.56410260e-002 0. 3.69692431e-003 0. 0. 0. 3.69692431e-003
      9.21228435e-003 0. 4.13618283e-003 6.17979374e-003 4.68524126e-003
      9.78357904e-003 1.20309591e-002 6.88308896e-003 0. 1.20202703e-002
      1.41765196e-002 1.65483337e-002 0. 0. 0. 0. 6.17979374e-003
      5.33345900e-003 -1.37634156e-002 8.78867041e-003 0. 0.
      -1.51306270e-002 0. 0. 8.47099349e-003 0. -2.08333340e-002
      -1.99999996e-002 -9.33464058e-003 1.24770077e-002 1.18964007e-002
      0. 0. -1.99999996e-002 0. 0. 0. 5.43217175e-003 0. 0.
      -2.70270277e-002 -1.25000002e-002 0. 0. 0. 0. -8.48866627e-003 0.
      6.75780652e-003 0. 0. 0. -1.14618093e-002 0. 6.89814193e-003 0. 0.
      0. 1.30650429e-002 0. 0. 4.88821277e-003 0. -2.38095243e-002
      -1.72413792e-002 0. 6.66126097e-003 1.15050487e-002
      6.72538765e-003 9.69315134e-003 1.05477292e-002 -2.28175167e-002
      6.71261176e-003 0. -3.84615399e-002 0. 0. 4.68524126e-003
      -1.78571437e-002 -1.81818176e-002 0. 0. 0. 0. 0. 1.78459659e-002
      0. 7.64870690e-003 0. 1.05477292e-002 0. 0. 0. 5.28159225e-003 0.
      0. -2.70270277e-002 0. -1.81818176e-002 0. -4.08163257e-002 0. 0.
      1.18964007e-002 -1.72413792e-002 0. 5.28159225e-003
      -4.91593964e-003 0. 0. 0. 0. 0. 0. 0. 0. -2.38095243e-002 0.
      1.88752189e-002 8.17970652e-003 0. 9.93270148e-003 4.13618283e-003
      0. -2.38095243e-002 -1.81818176e-002 -2.04081628e-002 0. 0. 0.
      6.17979374e-003 3.26550798e-003 0. 0. 0. 1.08433906e-002
      5.92939882e-003 0. 0. 0. 0. 8.00219178e-003 8.17970652e-003 0.
      1.95671581e-002 0. 0. 5.80447027e-003 1.25298584e-002 0. 0. 0. 0.
      0. 0. 0. 0. 8.27416684e-003 4.88821277e-003 0. 0. 0. 0. 0. 0.
      5.47995139e-003 0. 0. 1.65095311e-002 0. 4.02502157e-003
      -3.21349390e-002 8.88310373e-003 -2.23067552e-002 0. 0.
      1.33327916e-002 0. 9.59485397e-003 0. 7.23744184e-003
      1.08433906e-002 0. 3.84056382e-003 3.84056382e-003 0.
      1.93898939e-002 0. 1.19866636e-002 -4.26843837e-002
      -6.67676888e-003 0. 0. 0. 2.02918164e-002 0. 0. 8.90311413e-003
      5.85928420e-003 0. 0. 0. 0. 9.25100222e-003 0. 0. 1.57713909e-002
      0. 0. 9.10339598e-003 6.17979374e-003 3.38023156e-003 0.
      2.85013230e-003 0. 0. 0. 5.77113731e-003 0. -3.91777642e-002
      9.10339598e-003 0. 0. 9.21228435e-003 4.02502157e-003 0. 0. 0. 0.
      0. 5.77113731e-003 0. 0. 0. -2.27272734e-002 0. 1.00003826e-002
      -3.57142873e-002 6.53101597e-003 4.68524126e-003 7.23744184e-003
      0. 7.21352175e-003 -2.38095243e-002 0. 8.77809152e-003
      4.88821277e-003 0. 0. 0. 0. 9.09297355e-003 0. 9.44054686e-003
      5.68204653e-003 -1.72413792e-002 0. 0. 0. 0. 0. 0. 0.
      -1.75438598e-002 0. 0. 0. 0. 1.20309591e-002 0. 0. 0.
      1.57369636e-002 -1.96078438e-002 0. 9.78357904e-003 0. 0.
      8.93443357e-003 9.38268658e-003 0. 0. 1.05477292e-002 0. 0.
      1.04624238e-002 1.12615395e-002 0. 9.78357904e-003 5.22102555e-003
      6.17979374e-003 3.38023156e-003 8.27416684e-003 -1.23044755e-002
      0. 0. 9.88879893e-003 6.17979374e-003 0. 0. 0. 0. 1.19866636e-002
      0. 5.89565048e-003 0. 3.90767399e-003 0. -3.70370373e-002 0.
      6.16690051e-003 0. 0. -1.67112388e-002 9.25100222e-003 0. 0.
      7.49349361e-003 0. 0. 9.38268658e-003 0. 0. 9.32758674e-003 0. 0.
      0. 8.92298296e-003 0. 0. 0. 0. 1.33277904e-002 4.00109589e-003 0.
      -2.38095243e-002 -1.61290318e-002 0. 0. 0. 0. 1.09599028e-002
      5.98513428e-003 4.00109589e-003 0. -2.08333340e-002
      -1.75438598e-002 0. 9.09297355e-003 0. 4.54648677e-003
      5.63642010e-003 0. 0. 7.06991786e-003 0. 0. 0. 1.59228742e-002 0.
      0. 0. 7.66670797e-003 -1.75438598e-002 4.38735448e-003
      4.79742698e-003 0. -3.63636352e-002 1.06180236e-002 0. 0. 0.
      -1.85185187e-002 1.72770731e-002 0. 0. 0. 9.25100222e-003 0.
      3.69692431e-003 0. 9.93270148e-003 -9.77154635e-003
      5.68204653e-003 -2.12765951e-002 8.78867041e-003 0. 0. 0. 0.
      6.72538765e-003 0. 2.12360471e-002 1.12615395e-002 0.
      -1.92307699e-002 0. 0. 0. 0. 0. -3.63636352e-002 0. 0. 0.
      -9.63541493e-003 1.99837834e-002 7.40480796e-003 2.04394814e-002
      0. 7.06991786e-003 -1.96078438e-002 7.13756448e-003
      -2.04081628e-002 0. -1.78571437e-002 0. 0. 0. 5.77113731e-003 0.
      0. 7.40480796e-003 0. 0. 0. 5.63642010e-003 0. 0. 0.
      6.09534979e-003 4.54648677e-003 3.84056382e-003 0. 0. 0. 0.
      -1.78571437e-002 0. 0. 8.74261186e-003 1.03176236e-002
      4.68524126e-003 0. 8.78867041e-003 9.32758674e-003 0. 0.
      -2.63157897e-002 0. 5.09764580e-003 0. -4.11677435e-002 0.
      8.25476553e-003 9.77642555e-003 -1.78571437e-002 8.27416684e-003
      0. 0. 0. 4.88821277e-003 0. 6.62489235e-003 -1.78571437e-002
      8.27416684e-003 1.01336092e-002 0. 9.16150864e-003 1.20309591e-002
      -1.19614936e-002 0. 9.38268658e-003 7.21352175e-003 0. 0.
      1.05477292e-002 0. 0. 0. 0. 0. 0. 0. 2.80812732e-003 0.
      1.12615395e-002 4.79742698e-003 8.93443357e-003 0. 6.89814193e-003
      1.28924055e-002 7.40480796e-003 6.17979374e-003 0.
      -9.11453180e-003 -1.25339832e-002 8.17970652e-003 0. 0. 0. 0. 0.
      0. 0. 5.85928420e-003 0. -3.21677998e-002 0. 4.54648677e-003
      -1.92307699e-002 0. -2.70270277e-002 0. 0. 0. 0. 0. 0. 0.
      8.17970652e-003 8.90311413e-003 0. 0. 1.20309591e-002
      3.69692431e-003 0. 0. 7.64870690e-003 -3.57142873e-002
      -2.12765951e-002 0. 0. -1.85185187e-002 0. 0. 0. 9.10339598e-003
      -1.25000002e-002 0. 0. -1.78571437e-002 4.68524126e-003
      -2.70270277e-002 5.09764580e-003 4.06059157e-003 0. 0.
      8.17970652e-003 1.15704285e-002 -2.38095243e-002 0. 0.
      -2.27272734e-002 0. 1.59793869e-002 8.93443357e-003
      7.49349361e-003 0. 0. 9.44054686e-003 -3.57142873e-002
      6.88308896e-003 0. 0. 4.06059157e-003 0. 8.27416684e-003 0. 0.
      -1.99999996e-002 0. 0. 8.47099349e-003 0. 5.92939882e-003
      9.93270148e-003 0. 0. 0. 0. 0. 0. 1.20309591e-002 0. 0. 0.
      2.00007651e-002 0. 0. 1.19866636e-002 0. 0. 0. 8.47099349e-003
      1.12615395e-002 0. -1.80125013e-002 0. 0. -1.61290318e-002 0. 0.
      0. 7.49349361e-003 4.02502157e-003 5.47995139e-003 0.
      1.28269531e-002 1.06180236e-002 0. 0. 0. 1.52635304e-002 0. 0. 0.
      1.06180236e-002 0. 0. 0. 0. 0. 0. 0. -1.72413792e-002 0.
      2.63660140e-002 0. 8.17970652e-003 0. 0. 0. 0. 0. 0.
      -1.99999996e-002 7.88569544e-003 0. 3.38023156e-003
      8.29099678e-003 7.13756448e-003 5.33345900e-003 9.21228435e-003 0.
      8.25476553e-003 1.84773598e-002 5.89565048e-003 0. 0. 0.
      9.69315134e-003 0. 0. 3.21755335e-002 0. -9.79416352e-003
      -2.38095243e-002 0. 0. 0. 8.77809152e-003 1.06180236e-002 0. 0. 0.
      0. 1.06669180e-002 0. 0. -2.70270277e-002 -2.70270277e-002 0. 0.
      9.48887225e-003 -3.70370373e-002 0. 1.15704285e-002 0.
      8.29099678e-003 9.25100222e-003 -5.74571751e-002 0. 0.
      6.17979374e-003 -2.63157897e-002 0. -2.63157897e-002 0.
      3.90767399e-003 0. 0. 0. 0. 0. 8.78867041e-003 0. 3.38023156e-003
      0. -2.50000004e-002 0. 0. 1.15262652e-002 0. 1.08433906e-002
      6.16690051e-003 -1.78571437e-002 8.27416684e-003 0. 0.
      -1.78801250e-002 0. 0. 0. -2.37042028e-002 0. -3.22580636e-002
      -3.70370373e-002 8.25476553e-003 0. 7.49349361e-003
      1.41765196e-002 1.12033095e-002 0. 8.88310373e-003 0. 0. 0.
      5.43217175e-003 8.07568245e-003 9.10339598e-003 8.27416684e-003 0.
      2.99604470e-003 0. 0. 2.02918164e-002 1.20309591e-002
      9.48887225e-003 -2.50000004e-002 0. 0. 1.74943041e-002 0.
      7.64870690e-003 0. 0. 0. 0. -2.50000004e-002 9.78357904e-003
      8.12118314e-003 0. 3.90767399e-003 1.44748837e-002 8.47099349e-003
      0. 5.68204653e-003 0. 0. 0. 0. 0. 5.77113731e-003 0. 0. 0. 0. 0.
      3.84056382e-003 0. 0. 0. 3.84056382e-003 1.00003826e-002
      8.27416684e-003 7.68112764e-003 -2.12765951e-002 8.90311413e-003
      0. 0. 1.01459082e-002 8.47099349e-003 0. 9.41104628e-003 0.
      8.90311413e-003 0. 7.49349361e-003 1.15704285e-002 0. 0. 0. 0. 0.
      0. 1.89777445e-002 5.77113731e-003 0. 9.41104628e-003 0. 0. 0. 0.
      -1.72754992e-002 -1.72413792e-002 0. 4.02502157e-003 0. 0.
      -2.70270277e-002 1.01459082e-002 0. 0. 0. 1.24770077e-002
      1.15704285e-002 0. 0. -3.57142873e-002 0. 0. -1.43412538e-002 0.
      0. 0. 0. 9.32758674e-003 2.11164784e-002 5.28159225e-003 0. 0. 0.
      1.13640931e-002 0. 8.27416684e-003 0. 0. 0. 0. 0. 0. 0. 0.
      -1.25000002e-002 -1.96078438e-002 8.29099678e-003 0. 0. 0.
      8.27416684e-003 0. 0. 0. 0. 0. 0. 0. 7.41400477e-003
      -9.59885586e-003 0. 0. 0. 0. 0. 0. 0. -2.38095243e-002 0. 0.
      5.47995139e-003 9.37048253e-003 1.15704285e-002 7.23744184e-003
      1.86551735e-002 0. 0. 0. 0. 0. 5.68204653e-003 1.24770077e-002
      9.43760946e-003 0. 0. 0. 0. 0. -2.94117648e-002 0. 0.
      1.15262652e-002 0. 7.49349361e-003 0. 0. -1.72413792e-002 0.
      9.10339598e-003 0. 0. 6.89814193e-003 0. 0. 0. 9.93270148e-003
      -1.25000002e-002 0. 0. 0. 0. 0. -4.98890951e-002 0. 0.
      5.09764580e-003 8.17970652e-003 -1.78571437e-002 0.
      2.31408570e-002 0. -2.04081628e-002 8.12118314e-003 0. 0.
      -1.78571437e-002 1.77662075e-002 -1.40249552e-002 7.23204715e-003
      0. 0. 0. 8.17970652e-003 0. 0. 0. -3.22580636e-002 5.37440134e-003
      0. 0. 0. -2.70270277e-002 0. 0. 0. 7.40480796e-003 0. 0.
      8.27416684e-003 1.15364287e-002 0. 0. 0. 1.64013188e-002 0. 0.
      5.33345900e-003 0. 0. -1.81818176e-002 -1.09219998e-002 0. 0.
      3.38023156e-003 0. 0. 0. 7.33652245e-003 0. 0. 9.11279768e-003 0.
      0. 0. 9.93270148e-003 0. 0. -1.78571437e-002 0. 0. 1.48280095e-002
      0. 0. 9.78357904e-003 8.47099349e-003 6.89814193e-003 0. 0. 0.
      6.53101597e-003 0. 0. -2.56410260e-002 0. -3.57142873e-002 0.
      6.09534979e-003 0. 6.66126097e-003 -1.30262673e-002
      -1.96078438e-002 0. 0. 2.99604470e-003 6.89814193e-003 0.
      6.61543477e-003 5.28159225e-003 0. 0. 1.35261398e-002 0.
      4.38735448e-003 0. 7.71578168e-003 4.70552314e-003 0. 0. 0.
      9.48887225e-003 6.76046312e-003 0. 0. -2.02204399e-002 0.
      7.40480796e-003 0. 5.09764580e-003 0. 0. 0. 0. 7.41400477e-003
      4.68524126e-003 0. 1.18964007e-002 0. -2.70270277e-002
      4.70552314e-003 8.47099349e-003 -1.99999996e-002 0. 0.
      9.69315134e-003 0. 0. 1.01459082e-002 -2.12765951e-002
      1.63159445e-002 4.72027343e-003 7.68112764e-003 0. 0. 0.
      9.16150864e-003 5.28159225e-003 0. 0. 0. 0. 0. 3.69692431e-003 0.
      0. 0. 0. 0. 9.25100222e-003 9.25100222e-003 0. 0. 0.
      4.79742698e-003 0. 0. 9.78357904e-003 0. 0. 0. 0. 2.90777422e-002
      7.06991786e-003 0. 0. 4.88688843e-003 0. 6.62489235e-003 0.
      -1.78571437e-002 1.15262652e-002 0. 0. 0. 3.69692431e-003 0.
      6.16690051e-003 9.48887225e-003 -5.50806709e-003 8.78867041e-003
      0. 0. 0. 0. 0. 0. 0. 0. 0. 4.70552314e-003 0. 0. 0. 0.
      -4.34173681e-002 0. 0. 0. 0. 1.15262652e-002 -1.78571437e-002
      1.23595875e-002 0. 0. 0. 7.66670797e-003 1.05800135e-002 0. 0.
      9.69315134e-003 0. -3.63636352e-002 0. 0. 0. 9.25100222e-003
      -3.41340862e-002 0. 0. 0. 5.33345900e-003 0. 0. 0. 0.
      -1.57623198e-002 0. 0. 0. 0. -2.70270277e-002 5.85928420e-003 0.
      0. 0. 0. 0. 0. 8.27416684e-003 -2.38095243e-002 0. 8.17970652e-003
      8.77470896e-003 0. 8.88310373e-003 0. 0. 0. 0. 0. 7.64870690e-003
      9.48887225e-003 0. 0. 0. -6.02397276e-003 0. 6.16690051e-003
      -1.48805017e-002 0. 3.83335399e-003 6.16690051e-003 0.
      6.89814193e-003 8.77809152e-003 0. 0. 0. 0. -1.92307699e-002 0. 0.
      0. 0. 0. 4.72027343e-003 -1.50314327e-002 0. 0. -4.19913419e-002
      0. 1.20309591e-002 0. 1.17533486e-002 0. 5.01347799e-003 0.
      -3.92360315e-002 9.38268658e-003 5.43217175e-003 0.
      -1.96078438e-002 0. 0. -1.46937277e-002 0. 8.78867041e-003
      7.88569544e-003 9.93270148e-003 1.05477292e-002 -2.32558139e-002
      0. 1.24770077e-002 0. 0. 0. 0. 0. 0. 1.15262652e-002 0. 0. 0.
      -1.87093280e-002 4.68524126e-003 0. 0. 5.77113731e-003
      1.37962839e-002 9.69315134e-003 0. 0. 0. -1.29661337e-002
      5.09764580e-003 1.23595875e-002 0. 0. 0. 0. 0. 3.38023156e-003 0.
      4.70552314e-003 -4.33590561e-002 0. 8.12118314e-003 0. 0.
      7.40480796e-003 -1.25000002e-002 0. 0. -1.96078438e-002
      8.29099678e-003 -1.99999996e-002 0. 0. 0. 3.84056382e-003
      -1.83781404e-002 0. 0. 0. 0. 0. -1.81818176e-002 0. 0.
      6.88308896e-003 -4.76190485e-002 0. 5.01347799e-003 0. 0.
      6.17979374e-003 0. 9.10339598e-003 0. 0. 0. -1.85185187e-002 0. 0.
      7.13756448e-003 -1.78571437e-002 0. 0. 8.92298296e-003 0. 0. 0. 0.
      -2.70270277e-002 -1.72413792e-002 0. -2.38163043e-002
      9.32758674e-003 0. -1.78571437e-002 0. -1.78571437e-002
      6.17979374e-003 -2.54666079e-002 0. 6.72538765e-003
      -1.78571437e-002 0. 0. 0. 0. 8.17970652e-003 -1.25000002e-002 0.
      5.37440134e-003 0. 0. 9.32758674e-003 0. 0. 9.48887225e-003 0.
      5.28159225e-003 0. 0. 7.13756448e-003 8.77809152e-003
      8.78650695e-003 0. 0. 0. 0. 1.84245687e-002 8.77809152e-003
      6.16690051e-003 0. 2.98207123e-002 0. 0. 9.10339598e-003 0. 0.
      9.93270148e-003 0. -1.78571437e-002 4.72027343e-003 0.
      2.99604470e-003 6.89814193e-003 0. 0. 1.84694584e-002
      -1.96078438e-002 7.71578168e-003 0. 0. 0. 4.89005726e-003 0.
      6.72538765e-003 8.27416684e-003 0. 0. -1.44819375e-002
      4.54648677e-003 0. 0. 2.80812732e-003 6.62185997e-003 0.
      1.06180236e-002 0. 4.68524126e-003 0. -1.61290318e-002 0. 0. 0. 0.
      0. 5.76821435e-003 8.78867041e-003 -3.57142873e-002
      4.54648677e-003 -1.02697480e-002 0. 1.00269560e-002
      -2.04081628e-002 0. 0. 0. 9.18926671e-003 0. 0. -1.25000002e-002
      8.77809152e-003 -2.27272734e-002 4.13618283e-003 0.
      3.69692431e-003 6.66126097e-003 0. 3.84056382e-003 0.
      1.20309591e-002 0. 2.99604470e-003 1.15050487e-002 0. 0.
      9.48887225e-003 0. 0. -1.19591365e-002 0. 0. 0. 0. 0. 0. 0.
      3.26550798e-003 0. 9.69315134e-003 7.91226514e-003 0. 0. 0. 0. 0.
      0. 0. 6.62489235e-003 0. 0. 0. 6.66126097e-003 0. 0. 0.
      4.54648677e-003 0. 0. 0. 0. 1.05477292e-002 2.52732709e-002 0.
      -1.78571437e-002 5.63642010e-003 0. 1.35079911e-002
      1.12615395e-002 6.16690051e-003 4.00109589e-003 0. 1.76435001e-002
      0. 0. 0. 1.20032886e-002 1.08433906e-002 0. 0. 7.49349361e-003
      7.88569544e-003 -1.78571437e-002 0. 0. 1.37962839e-002
      1.37660559e-002 -1.81818176e-002 0. 6.09534979e-003 0.
      -1.92307699e-002 0. 0. 2.85013230e-003 -1.85683742e-002 0. 0. 0.
      0. 4.54648677e-003 0. 4.88688843e-003 0. 0. 0. 0. 0. 0.
      1.41398357e-002 -3.22580636e-002 0. -1.29476385e-002
      -1.85185187e-002 0. 7.23744184e-003 1.12615395e-002 0.
      4.00109589e-003 -3.70370373e-002 0. 0. 7.49349361e-003
      -3.92528437e-002 -2.70270277e-002 0. 9.38268658e-003
      1.40406368e-002 0. 0. -1.81818176e-002 0. 9.48887225e-003 0.
      1.18964007e-002 1.01459082e-002 0. 8.25476553e-003 1.00003826e-002
      4.88821277e-003 -2.04081628e-002 0. -3.57142873e-002 0. 0. 0. 0.
      0. 0. 0. 0. -1.78571437e-002 0. 0. 0. 0. 0. 0. 4.00109589e-003 0.
      8.25476553e-003 0. -1.81818176e-002 4.70552314e-003 0. 0.
      3.35642621e-002 0. 6.89814193e-003 0. 6.72538765e-003
      9.10339598e-003 0. 0. -1.81818176e-002 0. 1.23931067e-002 0. 0.
      8.29099678e-003 0. 0. 2.23798193e-002 0. 0. 9.77377687e-003 0.
      -1.81818176e-002 0. 0. 0. 0. 0. 0. 3.69692431e-003 6.72538765e-003
      0. 4.00109589e-003 9.21228435e-003 0. 6.72538765e-003
      -2.38095243e-002 5.09764580e-003 9.21228435e-003 0.
      1.24770077e-002 4.68524126e-003 0. 3.38023156e-003 8.92298296e-003
      0. 3.84056382e-003 -4.76190485e-002 0. 1.86551735e-002
      1.15050487e-002 -2.10349374e-002 -1.85185187e-002 0. 0.
      3.84056382e-003 0. 0. 0. 0. 0. 0. 0. 0. 1.33327916e-002 0.
      -5.40540554e-002 0. 0. -1.92307699e-002 0. 0. 0. 0. 0. 0. 0.
      3.26550798e-003 0. 0. 0. 0. 0. 0. 2.80812732e-003 4.72027343e-003
      -3.57142873e-002 1.41765196e-002 0. 9.21228435e-003 0.
      7.64870690e-003 4.13618283e-003 -1.81818176e-002 0. 0.
      -1.75438598e-002 -2.50000004e-002 2.31408570e-002 0. 0.
      1.22582801e-002 0. 0. 4.13618283e-003 2.22420152e-002 0. 0. 0.
      7.13756448e-003 9.25100222e-003 0. 0. -8.36381689e-003 0.
      3.69692431e-003 1.01459082e-002 -1.99999996e-002 0.
      6.71261176e-003 0. 5.99208940e-003 0. -3.70370373e-002
      7.06991786e-003 4.00109589e-003 0. 6.09534979e-003 0.
      5.37440134e-003 0. 0. 4.72027343e-003 -3.74649875e-002 0.
      -2.63157897e-002 0. 0. 8.29099678e-003 0. 4.70552314e-003
      1.34507753e-002 0. 0. 1.05477292e-002 0. 9.25100222e-003 0. 0.
      7.71578168e-003 1.84253640e-002 0. 7.23204715e-003 8.92298296e-003
      1.41170127e-002 -9.54335835e-003 0. 0. 0. 7.23204715e-003 0. 0. 0.
      0. 5.37440134e-003 0. 0. 0. 0. 0. 0. 9.21228435e-003 0. 0.
      8.27416684e-003 0. 0. 0. 5.37440134e-003 0. -1.22207236e-002 0.
      -2.91332975e-002 0. 0. 7.99277052e-003 0. 1.20309591e-002
      -2.08333340e-002 0. 0. -2.56410260e-002 0. 0. 0. 9.25100222e-003
      5.76821435e-003 2.99604470e-003 -1.25479847e-002 0. 0. 0. 0. 0. 0.
      4.16800845e-003 0. 0. 0. 4.70552314e-003 -2.70270277e-002 0.
      9.21228435e-003 0. -1.78571437e-002 1.07488027e-002 0. 0.
      -1.61290318e-002 8.29099678e-003 5.37440134e-003 0.
      -1.49039347e-002 6.17979374e-003 0. -1.51369181e-002
      1.88266821e-002 0. -1.16773499e-002 8.88310373e-003
      5.37440134e-003 0. 0. 0. 7.23744184e-003 1.18587976e-002
      7.49349361e-003 0. 0. 0. 0. 0. 0. 3.88724357e-003 1.15262652e-002
      0. 0. -1.25000002e-002 0. 9.21228435e-003 0. 9.21228435e-003
      5.85928420e-003 0. 5.85928420e-003 0. 0. 0. 0. -2.50000004e-002
      -2.08333340e-002 -1.78571437e-002 4.13618283e-003 3.26550798e-003
      0. 2.80812732e-003 0. 5.37440134e-003 4.72027343e-003 0. 0. 0.
      -9.75032989e-003 0. 0. 5.63642010e-003 0. 1.05477292e-002 0. 0. 0.
      0. -3.99359055e-002 2.99604470e-003 0. 0. 0. 0. -2.70270277e-002
      0. 0. 4.00109589e-003 8.78867041e-003 1.48280095e-002 0.
      5.01347799e-003 0. 0. 5.43217175e-003 0. 4.68524126e-003 0.
      1.05477292e-002 0. 0. 0. 1.68585200e-002 0. 0. 0. -1.81818176e-002
      -1.03068482e-002 0. 0. 0. 7.40480796e-003 0. -2.12765951e-002 0.
      2.82796714e-002 1.19702686e-002 0. 0. 0. 0. 4.06059157e-003 0. 0.
      8.29099678e-003 8.92298296e-003 3.88724357e-003 3.84056382e-003
      4.00109589e-003 0. 0. 0. 4.89005726e-003 0. 9.59485397e-003
      1.00003826e-002 5.09764580e-003 1.27796233e-002 0. 8.74261186e-003
      8.78650695e-003 0. 1.48096159e-002 3.38023156e-003 9.93270148e-003
      0. 4.79742698e-003 2.85013230e-003 -5.26315793e-002
      6.71261176e-003 9.48887225e-003 7.77448714e-003 0. 0. 0. 0. 0. 0.
      0. 8.74545984e-003 0. 0. 0. 0. 0. 0. 0. -1.92307699e-002 0. 0. 0.
      0. -1.85185187e-002 4.00109589e-003 4.88821277e-003 0. 0.
      4.89005726e-003 -2.70270277e-002 1.08433906e-002 6.72538765e-003
      8.93443357e-003 0. 0. 0. 0. 0. 0. -1.61290318e-002 5.37440134e-003
      -1.33445868e-002 -2.50000004e-002 8.17970652e-003 0. 0.
      6.62185997e-003 4.79742698e-003 0. 5.09764580e-003 0.
      9.77642555e-003 5.43217175e-003 0. 0. 0. 9.69315134e-003 0. 0. 0.
      -1.96078438e-002 0. 1.75773408e-002 6.88308896e-003
      2.93507371e-002 0. 1.39479116e-002 0. 1.19866636e-002
      1.32497847e-002 7.39384862e-003 3.26550798e-003 0. 0.
      2.80812732e-003 0. 0. 4.13618283e-003 6.62185997e-003 0.
      6.17979374e-003 0. 0. 9.48887225e-003 0. 5.80447027e-003
      3.84056382e-003 4.06059157e-003 -1.96078438e-002 0. 0. 0.
      -1.78571437e-002 1.18964007e-002 0. 4.16800845e-003
      -3.78571451e-002 0. 0. 1.06180236e-002 0. 5.92939882e-003
      -2.23755185e-002 0. 0. -2.38095243e-002 0. 8.90311413e-003
      3.90767399e-003 0. 0. 0. 0. -1.81818176e-002 0. 0. 0. 0. 0.
      5.68204653e-003 0. -1.78571437e-002 0. 7.41400477e-003 0.
      -1.96078438e-002 6.62185997e-003 -2.38095243e-002 -2.38095243e-002
      5.33345900e-003 0. 0. -4.90196086e-002 0. 1.08162872e-002 0. 0. 0.
      0. 7.40480796e-003 0. 1.00003826e-002 0. 5.85928420e-003 0. 0. 0.
      0. 0. 0. 0. 0. -1.96078438e-002 0. 1.75561830e-002 4.16800845e-003
      0. 0. 0. 0. -3.70370373e-002 0. -2.63157897e-002 8.47099349e-003
      0. 0. 0. 0. 0. 7.89861195e-003 0. 0. -2.63157897e-002 0. 0. 0.
      1.41765196e-002 0. 7.40480796e-003 -1.78571437e-002 0.
      -1.08234808e-002 0. 0. 0. 4.88688843e-003 -3.70370373e-002
      1.97025146e-002 0. 0. 0. -3.57142873e-002 0. 7.88569544e-003
      7.23744184e-003 8.72024242e-003 4.72027343e-003 5.01347799e-003
      1.13640931e-002 0. 0. 0. 0. 0. 0. 0. 9.32758674e-003
      9.10339598e-003 3.26550798e-003 0. 1.54315634e-002 7.06991786e-003
      0. 0. 0. 0. 0. 0. -8.47573504e-002 0. 0. 6.71261176e-003
      3.38023156e-003 0. 0. 0. -1.19074397e-002 -1.85185187e-002 0. 0.
      0. 0. 0. 0. 1.00003826e-002 9.43760946e-003 0. -2.38095243e-002 0.
      0. 9.38268658e-003 7.88569544e-003 -1.72413792e-002 0. 0.
      9.10339598e-003 0. 0. 8.93443357e-003 0. 4.38735448e-003
      8.25476553e-003 0. 8.92298296e-003 0. 0. 0. 0. 4.54648677e-003 0.
      -3.99999991e-002 3.69692431e-003 0. 0. 0. 0. 0. 0. 0. 0. 0. 0. 0.
      -1.60403028e-002 0. -1.02597522e-002 7.88569544e-003 0.
      7.06991786e-003 -2.27272734e-002 0. 1.01459082e-002
      9.10339598e-003 0. 0. 0. 8.77809152e-003 0. 0. 0. 5.85928420e-003
      5.70026459e-003 0. 9.11279768e-003 0. 6.17979374e-003
      8.17970652e-003 -1.81818176e-002 9.21228435e-003 0.
      3.88724357e-003 0. 0. 1.15364287e-002 -1.78571437e-002
      4.06059157e-003 1.84357632e-002 5.37440134e-003 0. 0.
      1.15050487e-002 0. 9.32758674e-003 7.71578168e-003 0. 0.
      -2.08333340e-002 0. 4.88688843e-003 0. -8.58696364e-003 0. 0.
      -1.85185187e-002 -3.22580636e-002 0. 0. 7.88569544e-003 0. 0. 0.
      0. 4.79742698e-003 6.62185997e-003 1.18964007e-002
      -6.91391975e-002 0. 7.06991786e-003 6.16690051e-003 0. 0. 0.
      1.15262652e-002 0. 0. 0. 0. -5.37909847e-003 0. 0. 5.37440134e-003
      7.49349361e-003 0. 1.05659515e-002 0. 0. 4.88688843e-003 0.
      4.88688843e-003 0. 0. -1.07546309e-002 0. 0. 4.89005726e-003 0.
      4.13618283e-003 0. -2.04081628e-002 0. 0. 8.27416684e-003
      -2.70270277e-002 -1.25000002e-002 0. 0. 6.16690051e-003 0.
      7.06991786e-003 0. 4.88688843e-003 -1.25000002e-002
      -3.70263122e-003 -4.76190485e-002 0. 7.64870690e-003 0.
      -3.57142873e-002 -2.63157897e-002 0. 0. 8.25476553e-003
      -2.32558139e-002 0. 0. 2.99604470e-003 1.15050487e-002 0.
      1.48096159e-002 5.43217175e-003 6.88308896e-003 5.37440134e-003 0.
      0. 0. 0. 6.89814193e-003 0. -2.12765951e-002 2.00007651e-002 0.
      1.15704285e-002 3.26550798e-003 0. 4.70552314e-003 4.00109589e-003
      5.47995139e-003 8.25476553e-003 0. 9.43760946e-003
      -1.00609176e-002 0. 4.72027343e-003 9.21228435e-003
      4.16800845e-003 0. 0. 8.77809152e-003 0. 1.40654892e-002
      8.78650695e-003 0. 0. 0. 9.38268658e-003 0. 1.15704285e-002 0.
      -1.45678278e-002 0. 0. -2.12765951e-002 1.05477292e-002 0. 0. 0.
      0. 0. 0. 8.12118314e-003 0. 5.01347799e-003 7.49349361e-003 0.
      6.62489235e-003 5.33345900e-003 0. 0. 0. 8.74261186e-003
      7.41400477e-003 0. 2.85013230e-003 0. -1.75438598e-002 0. 0.
      7.88569544e-003 0. 0. -8.83773435e-003 8.27416684e-003
      6.88308896e-003 0. 0. 0. 0. 0. 6.71261176e-003 0. 0.
      -2.48652790e-002 0. 7.13756448e-003 -6.02426426e-003
      4.68524126e-003 0. 0. -2.56410260e-002 0. 4.13618283e-003 0.
      -1.78801250e-002 0. 0. 0. 7.40480796e-003 1.81535650e-002
      9.93270148e-003 7.40480796e-003 0. 0. 0. 0. 0. 1.20218787e-002
      7.23744184e-003 0. -2.70270277e-002 5.98513428e-003
      6.17979374e-003 0. 3.38023156e-003 0. 0. 5.37440134e-003 0. 0.
      1.21575529e-002 1.01459082e-002 0. -1.63030755e-002 0. 0. 0.
      7.64870690e-003 -2.08333340e-002 0. 1.23595875e-002 0. 0.
      3.90767399e-003 -8.03070888e-003 1.02274921e-002 0. 0.
      6.16690051e-003 0. 0. 0. 6.62185997e-003 8.77809152e-003 0. 0. 0.
      8.78867041e-003 0. 0. -2.38095243e-002 0. 0. 4.79742698e-003
      1.15262652e-002 -2.04081628e-002 0. 0. 0. 0. 0. 0. 0.
      4.54648677e-003 0. 1.73418578e-002 -2.63157897e-002
      2.80812732e-003 0. 0. 8.25476553e-003 -4.16666679e-002
      5.09764580e-003 0. 2.87159942e-002 3.83335399e-003 0.
      8.77809152e-003 0. 0. -8.05173516e-002 0. 7.01814052e-003 0.
      5.98513428e-003 0. 1.18587976e-002 -1.74689211e-003 0. 0. 0. 0.
      1.01459082e-002 0. 0. -2.50000004e-002 0. 5.76821435e-003 0.
      1.23350872e-002 0. 0. 0. -1.25000002e-002 8.27416684e-003
      5.92939882e-003 0. 0. 0. 8.93443357e-003 0. 9.69315134e-003
      -2.08333340e-002 0. -2.32558139e-002 0. 0. 0. -2.56410260e-002 0.
      0. 0. 0. 0. -1.78571437e-002 4.00109589e-003 0. -1.78571437e-002
      0. 0. 5.09764580e-003 0. 2.30065417e-002 0. 1.15262652e-002
      -1.50230173e-002 2.00007651e-002 3.26550798e-003 5.01347799e-003
      3.90767399e-003 1.06180236e-002 0. 0. 8.92298296e-003 0.
      8.29099678e-003 0. 0. 0. -1.83676016e-002 0. 3.69692431e-003 0.
      1.15262652e-002 0. 0. 8.93443357e-003 -5.95238134e-002 0.
      5.37440134e-003 3.69692431e-003 0. 0. 0. 0. 5.77113731e-003
      5.92939882e-003 8.05004314e-003 0. 6.72538765e-003 4.54648677e-003
      0. 0. 6.16690051e-003 0. 0. 0. 0. 0. 0. 7.64870690e-003 0.
      8.78867041e-003 0. 1.41765196e-002 1.82255954e-002 5.09764580e-003
      -2.12765951e-002 0. -1.61290318e-002 5.76821435e-003
      1.15704285e-002 0. 0. 0. 0. -2.38095243e-002 1.08433906e-002
      -2.38095243e-002 0. 0. 0. -1.72413792e-002 9.38268658e-003 0.
      5.99208940e-003 0. 0. 0. 0. 8.88310373e-003 0. -1.96078438e-002 0.
      0. 0. 0. 3.26550798e-003 8.27416684e-003 0. -1.81818176e-002 0. 0.
      1.15704285e-002 0. 0. 0. 8.92298296e-003 8.29099678e-003
      4.88688843e-003 0. 1.58125293e-002 0. 0. 0. 0. 0. 0.
      1.19866636e-002 8.82142410e-003 -2.38095243e-002 -2.60315333e-002
      0. 8.92298296e-003 0. 0. 0. -1.99999996e-002 0. 0. 0. 0.
      8.77809152e-003 0. 7.41400477e-003 9.25100222e-003 0.
      4.54648677e-003 -2.70270277e-002 0. 0. 9.10339598e-003 0. 0. 0. 0.
      0. 8.78650695e-003 0. 0. 0. 0. 0. 0. -1.78571437e-002 0. 0. 0.
      8.27416684e-003 0. 0. 0. 2.99604470e-003 1.41765196e-002
      9.32758674e-003 9.11279768e-003 0. -2.63157897e-002
      -1.81818176e-002 0. 0. 0. 2.99604470e-003 0. 4.68524126e-003 0. 0.
      0. 6.62489235e-003 0. 0. 5.68204653e-003 -1.28083490e-002
      -2.40309834e-002 0. 0. 7.41400477e-003 0. -2.70270277e-002 0.
      1.24770077e-002 0. 0. 0. -1.81818176e-002 0. 0. 0. 0. 0.
      5.37440134e-003 9.69315134e-003 8.90311413e-003 0. 0. 0.
      9.43760946e-003 0. 4.70552314e-003 1.90360267e-002 2.78935786e-002
      0. -1.75438598e-002 0. 0. 0. 9.69315134e-003 0. 0. 0.
      -1.81818176e-002 0. -5.82492584e-003 0. 0. 3.83335399e-003 0. 0.
      0. 8.88310373e-003 0. 0. 4.00109589e-003 8.78867041e-003 0.
      -1.81818176e-002 8.25476553e-003 0. 0. 0. 3.69692431e-003
      5.98513428e-003 1.24770077e-002 0. 8.27416684e-003 8.93443357e-003
      5.01347799e-003 1.86551735e-002 5.92939882e-003 0.
      -1.55137517e-002 6.09534979e-003 4.88688843e-003 -1.75438598e-002
      0. 7.49349361e-003 0. 0. 0. 0. 9.48887225e-003 0. 0. 0.
      5.47995139e-003 0. 0. 0. 3.26550798e-003 0. 5.68204653e-003 0.
      5.28159225e-003 0. -4.56316769e-003 1.60045456e-002 0.
      8.88310373e-003 0. 0. 7.06991786e-003 0. 0. 0. 0. 0.
      8.78867041e-003 0. 0. -6.04476023e-004 0. 9.69315134e-003 0.
      -3.70649546e-002 -5.21501489e-002 0. 0. -4.54545468e-002 0. 0.
      1.08433906e-002 1.15050487e-002 0. 0. 0. 0. -1.81818176e-002 0. 0.
      0. 0. 0. 6.16690051e-003 -3.36734019e-003 4.70552314e-003
      3.88724357e-003 0. 4.13618283e-003 0. 8.93443357e-003 0. 0. 0. 0.
      0. 0. 0. 0. 0. 0. 0. 0. 0. 0. 9.11279768e-003 0. 6.62489235e-003
      6.62185997e-003 -2.56410260e-002 0. -7.35692400e-003 0. 0.
      7.71578168e-003 0. 8.17970652e-003 1.18587976e-002 7.64870690e-003
      -2.38095243e-002 0. 9.48887225e-003 -5.08365519e-002 0. 0.
      7.64870690e-003 -1.78571437e-002 0. 4.88821277e-003 0.
      -4.07359600e-002 0. 0. 0. 0. 0. 0. 0. 8.71369056e-003
      8.74261186e-003 3.90767399e-003 8.25476553e-003 0. 0. 0.
      -1.78571437e-002 0. -7.57567585e-003 8.78867041e-003
      7.41400477e-003 -9.78953857e-003 0. 7.64870690e-003 0.
      -1.78571437e-002 0. -2.56410260e-002 1.06180236e-002
      4.02502157e-003 0. -2.27272734e-002 2.80812732e-003
      5.09764580e-003 0. 0. 4.54648677e-003 0. 0. 0. 4.02502157e-003
      4.68524126e-003 1.17913010e-002 5.68204653e-003 0. 1.00003826e-002
      -2.08333340e-002 8.17970652e-003 0. -2.38095243e-002 0. 0. 0.
      8.77809152e-003 0. 4.70552314e-003 9.93270148e-003 0.
      9.21228435e-003 0. -2.38095243e-002 0. 0. 0. 1.85249336e-002
      3.38023156e-003 9.48887225e-003 0. 0. 1.27629172e-002
      -3.96078452e-002 3.69692431e-003 0. 0. 0. 1.41765196e-002 0. 0. 0.
      0. 0. 0. 0. 7.71578168e-003 0. 0. 0. -1.78571437e-002 0.
      -1.02084363e-002 5.09764580e-003 0. 4.38735448e-003 0.
      -3.99999991e-002 5.92939882e-003 0. 1.37661779e-002
      5.92939882e-003 -1.25000002e-002 8.74261186e-003 0.
      9.69315134e-003 3.69692431e-003 1.05477292e-002 0. 5.85928420e-003
      1.08433906e-002 0. 9.10339598e-003 -2.12765951e-002
      5.28159225e-003 0. 9.78011452e-003 0. 0. -1.25000002e-002 0.
      -3.70370373e-002 0. 3.83335399e-003 0. 9.43760946e-003 0.
      1.15501881e-002 8.33601691e-003 0. 0. 6.62489235e-003
      -1.61290318e-002 4.02502157e-003 0. 0. -1.78571437e-002 0. 0. 0.
      -1.75438598e-002 0. 0. 7.64870690e-003 8.17970652e-003 0.
      4.72027343e-003 0. -1.99999996e-002 4.68524126e-003 0. 0. 0. 0.
      1.69833414e-002 0. 0. 6.09534979e-003 6.62185997e-003 0.
      9.61680152e-003 0. 0. -2.38095243e-002 5.89565048e-003 0.
      9.78357904e-003 4.89005726e-003 0. 1.41765196e-002 1.01459082e-002
      -1.82005558e-002 -1.78571437e-002 0. 0. 0. 0. 0. -2.63157897e-002
      0. 0. -2.38095243e-002 0. 6.71261176e-003 4.00109589e-003
      6.17979374e-003 5.92939882e-003 0. 0. 4.70552314e-003 0. 0. 0. 0.
      0. 0. 0. 0. 1.32437199e-002 1.05477292e-002 0. 0. 0. 0.
      4.88688843e-003 4.72027343e-003 0. 0. 0. 9.38268658e-003 0.
      -8.75374768e-003 0. 4.13618283e-003 -1.81818176e-002 0.
      -1.99999996e-002 0. 5.98513428e-003 0. 2.80812732e-003
      9.32758674e-003 0. 0. 7.21352175e-003 5.28159225e-003 0. 0.
      3.83335399e-003 3.84056382e-003 0. 7.41400477e-003 3.84056382e-003
      -1.96078438e-002 8.29099678e-003 0. 0. 0. 5.92939882e-003
      -2.38095243e-002 0. 0. 0. -5.00897318e-003 0. 0. 0. 0.
      -1.25000002e-002 0. 9.25100222e-003 9.21228435e-003 0. 0.
      -1.99999996e-002 8.29099678e-003 0. -1.34965759e-002 0. 0. 0.
      9.48887225e-003 0. 1.00003826e-002 -2.04081628e-002
      9.21228435e-003 0. 4.00109589e-003 0. -1.81818176e-002
      7.13756448e-003 -2.50000004e-002 0. 1.30706159e-002 0. 0.
      9.25100222e-003 0. 0. 0. 0. 0. 4.00109589e-003 0. 6.17979374e-003
      2.80812732e-003 -1.25000002e-002 7.06991786e-003 0. 0.
      1.00003826e-002 0. 3.69692431e-003 0. 1.00003826e-002 0.
      5.76821435e-003 0. 8.91191047e-003 0. 0. 0. 0. 0. 0. 0.
      -1.85185187e-002 0. 0. 0. 7.92671833e-003 0. 0. 5.76821435e-003 0.
      0. 0. 0. 0. 0. 0. 1.65095311e-002 1.06180236e-002 7.88569544e-003
      0. 0. 1.65819936e-002 0. -2.27272734e-002 1.15704285e-002 0.
      6.89814193e-003 0. 0. 0. 9.38268658e-003 0. 5.43217175e-003
      -1.40398706e-003 -1.45972399e-002 0. 6.88308896e-003 0. 0. 0.
      2.31408570e-002 -2.04081628e-002 0. 9.38268658e-003 0.
      -1.78571437e-002 1.66680738e-002 0. -1.38387820e-002 0. 0. 0.
      5.92939882e-003 0. 0. 3.69692431e-003 0. 4.88688843e-003
      5.99208940e-003 0. 0. 1.98390596e-002 0. 6.71261176e-003
      1.08433906e-002 1.01459082e-002 0. 6.17979374e-003 7.71578168e-003
      0. -2.56410260e-002 4.38735448e-003 0. 0. 0. -2.70270277e-002
      7.40480796e-003 5.37440134e-003 0. 0. 0. 8.93443357e-003
      7.88569544e-003 -3.07197440e-002 0. 2.99604470e-003 0. 0.
      7.13756448e-003 -2.70270277e-002 0. 0. -2.38095243e-002 0.
      6.71261176e-003 0. 0. 0. 0. 0. 0. -2.56410260e-002 0. 0. 0. 0. 0.
      0. 8.78867041e-003 0. -1.99999996e-002 -1.78571437e-002
      6.17979374e-003 0. 6.72538765e-003 2.85013230e-003 0. 0. 0.
      8.27416684e-003 0. -1.83295719e-002 0. 0. -2.63157897e-002
      7.64870690e-003 6.72538765e-003 0. 0. 0. 5.43217175e-003
      4.89005726e-003 9.38268658e-003 0. 1.19866636e-002 0. 0.
      1.15704285e-002 0. 0. -1.78571437e-002 0. 0. 4.72027343e-003
      7.88569544e-003 0. 0. 0. 4.88821277e-003 0. 8.12118314e-003 0.
      2.99604470e-003 -3.74295004e-002 4.06059157e-003 0.
      -1.25000002e-002 0. 0. 0. 0. 0. 3.69692431e-003 -2.08333340e-002
      0. 1.15704285e-002 1.47159062e-002 0. 0. 0. 0. 0. -4.25218493e-002
      -2.55988482e-002 5.80447027e-003 0. 4.02502157e-003
      2.01652255e-002 9.21228435e-003 0. 0. 0. -3.57142873e-002
      4.54648677e-003 0. 0. 0. 0. 7.64870690e-003 0. 9.48887225e-003 0.
      3.69692431e-003 0. 0. 0. 1.08433906e-002 0. 0. 0. 4.06059157e-003
      4.16800845e-003 -2.70270277e-002 0. 1.54315634e-002
      4.02502157e-003 0. 0. 8.27416684e-003 1.41765196e-002
      6.09534979e-003 0. 0. 1.24770077e-002 0. 0. 0. 4.38735448e-003 0.
      0. 0. 5.77113731e-003 0. 0. 0. 1.58732608e-002 0. 0.
      -1.84689853e-002 0. 0. 0. 7.88569544e-003 0. 0. 9.48887225e-003 0.
      0. 5.01347799e-003 0. 9.69315134e-003 0. 1.25069721e-002 0.
      -1.96078438e-002 -2.08333340e-002 -2.32558139e-002 5.98513428e-003
      1.31345335e-002 0. 7.64870690e-003 4.89005726e-003 0.
      1.65819936e-002 0. 0. 1.08433906e-002 0. 0. 0. 0. 1.76687110e-002
      1.65831409e-002 0. 0. 0. 0. 0. 0. 0. 3.38023156e-003
      6.71261176e-003 0. 0. 0. 0. 0. 0. 0. 0. 0. 0. 0. 0. 0. 0. 0. 0. 0.
      0. 0. 4.00109589e-003 6.62185997e-003 0. 7.40480796e-003
      4.88821277e-003 0. 0. 0. 9.11279768e-003 0. 0. -2.38095243e-002
      -3.63636352e-002 0. 6.62489235e-003 -1.96078438e-002 0.
      1.15262652e-002 0. 0. 0. -1.72413792e-002 0. 0. 6.72538765e-003
      1.15262652e-002 0. 8.27236567e-003 -1.31169111e-002
      -1.40048116e-002 0. 0. 9.43760946e-003 -4.67722937e-002 0. 0.
      6.66126097e-003 0. 9.38268658e-003 0. 1.26831224e-002 0.
      -2.70270277e-002 0. 0. 5.09764580e-003 -1.25951916e-002
      8.27416684e-003 4.54648677e-003 0. -1.96078438e-002 0.
      9.93270148e-003 -1.25000002e-002 0. 0. 0. 0. 4.02502157e-003
      8.77470896e-003 0. -1.78571437e-002 0. 0. 0. 0. 0. 0.
      -2.10349374e-002 4.00109589e-003 0. 5.76821435e-003 0. 0.
      -1.03955595e-002 5.85928420e-003 0. 0. -1.38625903e-002 0.
      8.78867041e-003 0. 0. 0. 2.99604470e-003 8.29099678e-003 0.
      -3.60486209e-002 0. 0. 9.93270148e-003 0. 4.70552314e-003
      7.88569544e-003 0. -1.81818176e-002 0. 0. 0. 0. 9.38268658e-003 0.
      0. 0. 0. 0. 0. 0. 0. -1.85185187e-002 9.21496470e-003
      4.16800845e-003 -1.75438598e-002 0. 7.49349361e-003 0. 0. 0. 0.
      -1.78571437e-002 0. 7.40480796e-003 0. 2.80812732e-003
      -2.70270277e-002 0. 6.17979374e-003 0. 0. 0. 0. 0. 9.43760946e-003
      1.24770077e-002 -6.36786083e-003 8.25476553e-003 3.26550798e-003
      4.79742698e-003 0. 5.80447027e-003 0. 0. 1.12615395e-002 0.
      1.02048153e-002 0. 0. 0. 7.49349361e-003 7.21352175e-003
      9.25100222e-003 -1.20864678e-002 9.21228435e-003 0. 0. 0.
      1.18964007e-002 0. -1.61290318e-002 6.62185997e-003
      4.38735448e-003 0. 1.19866636e-002 6.88308896e-003 9.21228435e-003
      0. 0. 5.43217175e-003 -2.70270277e-002 -1.75438598e-002
      -9.67514236e-003 0. 0. 8.00219178e-003 0. 2.34838184e-002 0.
      -1.03664696e-002 -1.78571437e-002 -1.81818176e-002 9.10339598e-003
      9.11279768e-003 -1.99999996e-002 0. 0. 1.24770077e-002 0. 0.
      4.02502157e-003 0. 0. 0. -1.72413792e-002 0. 8.78867041e-003 0. 0.
      7.23744184e-003 0. 0. 0. 0. 4.54648677e-003 0. 8.78867041e-003
      -1.78571437e-002 1.15704285e-002 1.19866636e-002 -1.78571437e-002
      6.71261176e-003 5.37440134e-003 0. 0. -3.84615399e-002 0.
      8.90311413e-003 8.77809152e-003 -1.72413792e-002 0. 0. 0. 0.
      7.40480796e-003 0. 0. -1.92307699e-002 3.38023156e-003
      6.62489235e-003 8.77809152e-003 1.18250493e-002 0. 0. 0. 0. 0. 0.
      0. 0. 5.92939882e-003 0. 0. 0. 0. -1.81818176e-002
      -2.38095243e-002 0. 0. 1.17913010e-002 0. 0. 6.72538765e-003 0.
      8.92298296e-003 -2.56410260e-002 7.13222800e-003 0. 0. 0.
      -4.54545468e-002 2.06390619e-002 -1.78571437e-002 4.68524126e-003
      1.77862179e-002 0. -3.70370373e-002 2.43594423e-002
      6.89814193e-003 -1.72710754e-002 0. 0. 0. 0. 2.12360471e-002 0. 0.
      0. 0. 6.16690051e-003 0. 0. 0. 7.41400477e-003 6.16690051e-003
      3.88724357e-003 -1.78571437e-002 0. -1.09740552e-002
      1.41765196e-002 0. 0. 0. 0. 0. -2.27868725e-002 0. 3.38023156e-003
      7.40480796e-003 0. 9.11279768e-003 0. 0. 4.38735448e-003
      8.29099678e-003 0. 0. 3.84056382e-003 8.93443357e-003 0. 0. 0.
      1.33871855e-002 0. 0. -2.38095243e-002 6.17979374e-003 0. 0.
      1.24770077e-002 4.72027343e-003 3.26550798e-003 4.88688843e-003
      2.80812732e-003 0. 8.29099678e-003 0. 6.62185997e-003 0. 0. 0. 0.
      0. 0. 0. 1.25800278e-002 -2.56410260e-002 -1.83201078e-002 0. 0.
      -2.27272734e-002 7.49349361e-003 0. 9.69315134e-003 0.
      1.08433906e-002 5.01347799e-003 1.99304149e-002 4.70552314e-003 0.
      0. 0. 1.36008263e-002 0. 1.12615395e-002 0. 0. 0. 0.
      6.62489235e-003 0. 9.10339598e-003 -2.50000004e-002 0. 0.
      4.02502157e-003 0. 0. 1.15262652e-002 0. 1.15050487e-002 0.
      7.23744184e-003 3.26550798e-003 0. -1.75438598e-002 0. 0. 0. 0. 0.
      0. 7.71578168e-003 0. 0. 0. 3.28513682e-002 -2.12765951e-002 0. 0.
      0. 5.37440134e-003 0. -1.78571437e-002 2.85013230e-003 0. 0.
      6.16690051e-003 0. 0. 0. 0. -1.75438598e-002 0. -3.22580636e-002
