<?xml version="1.0"?>
<opencv_storage>
<my_svm type_id="opencv-ml-svm">
  <svm_type>C_SVC</svm_type>
  <kernel><type>LINEAR</type></kernel>
  <C>1.</C>
  <term_criteria><epsilon>2.2204460492503131e-016</epsilon>
    <iterations>100</iterations></term_criteria>
  <var_all>10000</var_all>
  <var_count>10000</var_count>
  <class_count>2</class_count>
  <class_labels type_id="opencv-matrix">
    <rows>1</rows>
    <cols>2</cols>
    <dt>i</dt>
    <data>
      -1 1</data></class_labels>
  <sv_total>1</sv_total>
  <support_vectors>
    <_>
      0. 2.15839315e-002 7.88273197e-003 0. 0. 0. 1.01827849e-002
      6.63790433e-003 0. 0. 0. 0. 6.62191911e-003 0. 0. 0. 0.
      1.02354717e-002 3.05286553e-002 0. 7.99166039e-003 0. 0. 0.
      7.36700557e-003 0. 0. 0. 0. -6.06675930e-002 -2.70270277e-002 0.
      6.62191911e-003 2.07049027e-003 0. -1.99999996e-002 0.
      4.21828823e-003 0. 0. 8.14206898e-003 0. 0. 4.44392161e-003 0. 0.
      0. 0. 0. 7.89354462e-003 0. 0. 0. -1.36004269e-001 0. 0. 0. 0.
      -2.19492484e-002 0. 3.59859201e-003 2.84385998e-002
      -1.83783043e-002 0. 0. 4.60869167e-003 5.76181849e-003 0.
      9.56811383e-003 1.01362299e-002 0. 0. 1.52741773e-002
      -4.09345850e-002 1.47452494e-002 -1.97832026e-002 0.
      6.62191911e-003 9.27633606e-003 0. 0. 0. 0. 0. 0. 0.
      1.08886147e-002 2.01260243e-002 8.24464671e-003 0. 4.39011725e-003
      0. 0. 7.19464384e-003 0. 0. 0. 0. 0. 0. 0. -1.99999996e-002 0. 0.
      0. 1.35454116e-002 1.27763180e-002 3.59859201e-003
      -1.69550627e-002 4.67530871e-003 0. 4.21828823e-003 0.
      7.08762277e-003 -2.32558139e-002 0. 5.84548106e-003 0.
      5.31005347e-003 0. -3.92587446e-002 7.63759436e-003
      4.78405692e-003 0. -1.39284860e-002 0. 0. 4.05846070e-003
      4.16791951e-003 0. 0. 0. 0. -5.12820520e-002 0. 0. 0. 0. 0.
      -2.25912649e-002 0. 1.23867849e-002 0. 0. 1.59142409e-002 0. 0.
      -1.26015544e-001 1.25232525e-002 1.42595135e-002 0. 0. 0.
      2.07049027e-003 1.41214840e-002 -4.60472107e-002 0. 0. 0. 0.
      -1.36374282e-002 0. 0. 0. 8.11692141e-003 0. 0. 0. 0. 0.
      6.27995795e-003 0. 3.49362427e-003 0. 0. 0. -2.25774329e-002 0. 0.
      0. 0. 7.60038430e-003 -1.17647059e-001 3.59859201e-003 0.
      3.59859201e-003 5.75168151e-003 0. 6.11291314e-003
      -5.25313988e-002 0. 0. 4.55273036e-003 -3.57142873e-002 0.
      4.16791951e-003 8.24464671e-003 -1.10191433e-002 0. 0.
      -2.56410260e-002 1.04781687e-002 5.11919614e-003 0. 0.
      -1.87823810e-002 -2.70270277e-002 3.28269275e-003 0.
      6.62191911e-003 4.25071036e-003 4.53693513e-003 0.
      -9.53556746e-002 1.29648587e-002 0. 0. 0. 7.26758828e-003 0. 0.
      -1.83734372e-002 7.08495919e-003 0. 5.07821562e-003
      8.98723118e-003 0. 0. -1.52075961e-002 0. 1.70982536e-002 0. 0.
      6.62418967e-003 0. -1.81818176e-002 0. -5.12820520e-002 0. 0.
      3.44216614e-003 -9.64500755e-003 1.97392553e-002 0. 0.
      -6.13553151e-002 7.26758828e-003 6.27995795e-003 1.34454323e-002
      0. 0. 1.47452494e-002 0. 1.19095603e-002 1.04781687e-002
      -4.01839614e-002 0. 0. 0. -1.99999996e-002 -2.25784015e-002 0. 0.
      0. 0. 2.94676307e-003 1.37502775e-002 3.28269275e-003 0. 0.
      5.06445207e-003 4.44392161e-003 0. 0. 0. 0. 0. 0. 0.
      3.63788009e-003 0. 0. 0. 2.22757980e-002 0. 0. 0. -2.63157897e-002
      0. 7.94879533e-003 -6.05497994e-002 0. 0. 0. 0. -1.99999996e-002
      8.24464671e-003 0. 0. -1.53309451e-002 1.07957758e-002 0.
      3.44216614e-003 9.21738334e-003 0. 0. 6.56538550e-003
      1.04781687e-002 3.31427553e-003 0. -2.56410260e-002
      3.44216614e-003 0. 8.57971516e-003 9.27633606e-003 0. 0.
      7.37262471e-003 0. 0. 0. 9.21738334e-003 0. 0. 0. 0.
      3.49362427e-003 0. 0. 0. 5.75168151e-003 0. -1.94622222e-002
      1.04692075e-002 0. 8.68596230e-003 1.84614956e-002 0. 0. 0. 0. 0.
      1.03264982e-002 0. 6.11291314e-003 4.06981306e-003 1.16071068e-002
      0. 3.99300596e-003 -2.25774329e-002 0. 0. 0. -1.66032761e-002
      6.11291314e-003 0. 0. 0. 0. -2.26863846e-002 3.85067984e-003 0. 0.
      4.78405692e-003 4.60717548e-003 -1.14091123e-002 0. 0. 0.
      -5.75657897e-002 0. 0. 1.16879875e-002 0. 0. 0. 0. 0.
      -1.00272754e-002 1.22658126e-002 0. 4.55273036e-003
      5.43552125e-003 7.36700557e-003 1.18772406e-002 0. 0.
      -4.85060513e-002 -9.51220840e-002 0. 0. 0. 0. -5.12820520e-002
      4.44959477e-003 8.68596230e-003 0. 5.85542526e-003 0.
      3.28269275e-003 0. 2.94676307e-003 0. 0. 0. 5.11919614e-003
      -3.88979055e-002 0. 0. -1.53846154e-002 3.28269275e-003 0.
      -1.13148028e-002 0. 0. 1.23674888e-002 0. 5.00498852e-003 0.
      7.26758828e-003 0. 6.38815900e-003 0. 6.60117203e-003 0.
      -2.43902430e-002 0. 0. 0. 8.83971248e-003 0. 0. 0. 5.34226652e-003
      -2.50000004e-002 8.68596230e-003 0. 0. 4.51380294e-003 0. 0. 0. 0.
      0. 0. 0. 0. 0. 0. 7.30479741e-003 0. 3.13997897e-003 0.
      -4.60088067e-002 1.83150358e-002 0. 0. 0. -2.63157897e-002 0. 0.
      4.06981306e-003 -6.25000000e-002 0. 0. 0. -3.99999991e-002
      9.38956160e-003 -2.12687589e-002 0. 4.51380294e-003 0. 0.
      8.75501800e-003 5.75168151e-003 0. 0. 0. 0. 0. 1.21758403e-002 0.
      0. 0. 0. -1.48685016e-002 0. 0. 0. -5.33428192e-002
      6.27995795e-003 4.05846070e-003 -2.94117648e-002 7.08762277e-003
      8.96987598e-003 0. 4.25071036e-003 0. 7.60038430e-003
      9.10336804e-003 7.53995823e-003 0. 1.29648587e-002 7.63759436e-003
      0. 7.34115392e-003 0. 0. 8.12827423e-003 1.26281306e-002 0.
      1.04781687e-002 0. -4.22587385e-003 5.61503880e-003 0. 0. 0.
      3.31427553e-003 0. -1.15165804e-002 7.37262471e-003 0.
      5.61503880e-003 8.24464671e-003 0. 0. 0. 1.22700334e-002 0. 0. 0.
      0. -1.02654193e-002 0. -1.14905462e-002 0. 0. 5.61503880e-003 0.
      1.44413440e-002 0. 1.90893188e-002 3.28269275e-003 7.08495919e-003
      -2.56410260e-002 0. 0. 5.75168151e-003 5.34226652e-003 0. 0. 0.
      -1.56685691e-002 0. 0. 0. 0. 4.44392161e-003 0. 3.86803481e-003 0.
      7.60038430e-003 0. -1.28103131e-002 6.77270582e-003 0.
      6.29804377e-003 -3.16444747e-002 8.68596230e-003 0. 0.
      1.29648587e-002 0. 0. 0. 4.39011725e-003 0. 0. 3.31427553e-003 0.
      1.21795861e-002 0. 0. 0. 7.36700557e-003 4.53693513e-003 0.
      3.86803481e-003 1.00630121e-002 4.55273036e-003 0. 5.76181849e-003
      -2.91795097e-002 1.75364427e-002 7.59089738e-003 1.12300776e-002
      1.04781687e-002 0. 0. -1.00397486e-002 -2.94117648e-002
      2.64317188e-002 1.25022363e-002 4.44392161e-003 0. 0. 0.
      1.04781687e-002 3.31427553e-003 0. 6.85353717e-003 1.88173559e-002
      0. 1.26548652e-002 0. 0. 0. 0. 4.60717548e-003 8.29792395e-003
      -4.50311936e-002 0. -2.43902430e-002 0. 3.69089693e-002
      9.27633606e-003 0. 0. 8.69055465e-003 0. 2.98547950e-002 0.
      4.84878168e-004 0. 0. 3.28269275e-003 4.21828823e-003
      6.62418967e-003 4.13040724e-003 0. 1.35454116e-002 0. 0. 0.
      -3.07692308e-002 0. 1.20055452e-002 0. 5.43552125e-003 0. 0.
      1.11736031e-002 0. -5.12820520e-002 5.43552125e-003 0. 0. 0.
      1.03990957e-002 0. 6.63790433e-003 8.24464671e-003
      -7.19006918e-003 1.33713903e-002 0. 0. 0. 3.31427553e-003 0. 0. 0.
      -1.14985788e-002 0. 0. -3.09302304e-002 1.85526721e-002
      1.06803803e-002 0. 5.34226652e-003 6.79145614e-003 1.60932075e-002
      0. 0. 0. 0. 4.13040724e-003 1.34454323e-002 0. 0. 3.32811405e-003
      0. 7.08762277e-003 0. 0. 6.62191911e-003 8.54912680e-003
      1.33487843e-002 5.75168151e-003 0. 4.06981306e-003 0. 0. 0. 0. 0.
      0. 2.57965922e-002 9.07387026e-003 0. 3.13997897e-003 0. 0. 0.
      4.84878168e-004 0. 0. 4.06981306e-003 -1.02564104e-001 0. 0.
      6.60117203e-003 0. 0. 0. 0. 0. -6.78529069e-002 0. 0.
      9.88045987e-003 -2.10128841e-003 0. 7.51967728e-003 0.
      1.53834783e-002 0. 0. 5.75168151e-003 0. 5.00498852e-003 0.
      -1.81818176e-002 0. 1.52007686e-002 3.63788009e-003
      7.08762277e-003 9.21738334e-003 3.49362427e-003 0. 8.84028897e-003
      8.43657646e-003 0. 5.31005347e-003 2.28011534e-002 0. 0.
      1.42766880e-002 0. 0. 1.23856273e-002 -5.40540554e-002
      1.11318268e-002 0. 0. 0. 6.77270582e-003 0. 0. 0. 0. 0.
      4.51380294e-003 5.06445207e-003 0. 0. 0. 3.44216614e-003 0.
      9.08439886e-003 0. 0. 1.03987521e-002 4.44959477e-003 0.
      5.31005347e-003 -2.32558139e-002 0. -4.57492918e-002 0. 0. 0. 0.
      0. 0. 0. 4.13040724e-003 0. 0. 4.38319054e-003 0. 1.36784520e-002
      5.07821562e-003 0. 4.39011725e-003 -1.65128652e-002 0.
      1.09468177e-002 5.76181849e-003 0. -3.57142873e-002
      4.44959477e-003 -4.27440517e-002 1.45705966e-002 2.22636536e-002
      1.68671012e-002 5.31005347e-003 0. 0. 3.14902188e-003 0.
      -4.81960513e-002 5.31005347e-003 0. -7.73065770e-003 0. 0.
      8.68596230e-003 0. 3.28269275e-003 0. 0. 0. 3.32811405e-003
      -2.77777780e-002 -3.12500000e-002 0. -4.88650464e-002 0.
      7.08495919e-003 -1.83550064e-002 0. 0. -5.12820520e-002 0. 0. 0.
      0. 0. 5.61503880e-003 0. -1.53846154e-002 0. 0. 8.19454622e-003 0.
      0. 0. 4.09727311e-003 -9.75768343e-002 0. 0. 0. 1.16868131e-002 0.
      6.38815900e-003 0. -1.68831535e-002 0. 0. 0. 6.79145614e-003
      5.19937603e-003 0. 6.85353717e-003 0. 0. 8.69055465e-003 0.
      1.20928716e-002 0. 0. 7.26758828e-003 -3.11546437e-002
      5.06445207e-003 0. 8.29792395e-003 -4.25464101e-002 0. 0.
      5.29595744e-003 5.29595744e-003 0. 0. 0. 0. 2.07049027e-003 0. 0.
      0. 0. 6.81479787e-003 0. 4.67530871e-003 3.32811405e-003
      5.76181849e-003 0. 0. -1.53846154e-002 0. 1.70982536e-002 0.
      3.14902188e-003 7.51967728e-003 -3.97034660e-002 8.24464671e-003
      0. 0. 5.19937603e-003 0. 6.85353717e-003 0. 0. -2.76748594e-002
      -8.85413438e-002 0. 0. 0. 3.49362427e-003 4.37226798e-003
      1.65958479e-002 1.39945438e-002 -2.46917754e-002 5.61503880e-003
      7.51967728e-003 0. 0. -3.57142873e-002 0. 0. 0. 0. 0.
      9.88045987e-003 1.09932721e-002 0. 5.75168151e-003 0.
      1.71594303e-002 0. 0. 0. -2.27272734e-002 0. 0. 0. 0.
      -2.22046450e-002 0. 0. 0. 1.65958479e-002 4.55273036e-003 0.
      4.25071036e-003 -1.53846154e-002 4.16791951e-003 6.63163047e-003
      -2.40569990e-002 -5.12820520e-002 0. 1.73719246e-002
      3.32811405e-003 0. 0. -1.80931911e-002 7.37262471e-003
      -3.03128995e-002 3.49362427e-003 0. 0. 1.17463274e-002
      3.32811405e-003 0. 0. 0. 6.63163047e-003 0. 0. 0. 1.02366442e-002
      4.53693513e-003 4.09727311e-003 0. 0. 0. 5.88534819e-003 0.
      -2.94653010e-002 6.85353717e-003 0. 2.28011534e-002 0.
      3.85067984e-003 9.10546072e-003 3.31427553e-003 1.62510239e-002 0.
      1.50787132e-002 4.09727311e-003 5.34226652e-003 0. 5.43552125e-003
      5.29595744e-003 0. 0. -2.70270277e-002 9.69756336e-004 0. 0.
      -2.96013746e-002 0. 0. -5.54123782e-002 7.26758828e-003
      7.60038430e-003 7.89354462e-003 2.22479757e-002 0. 1.09408889e-002
      0. 0. 6.18374441e-003 0. 4.60869167e-003 -6.45161271e-002
      3.13997897e-003 0. 3.14902188e-003 1.68328937e-002 0. 0. 0.
      7.89354462e-003 0. 0. 0. 0. 5.89352613e-003 1.51965683e-002
      3.32811405e-003 0. 4.38319054e-003 0. -1.53846154e-002 0. 0.
      7.19464384e-003 0. 6.60117203e-003 5.06445207e-003 0. 0.
      -2.81139035e-002 7.89354462e-003 0. 0. 5.85542526e-003
      1.14684189e-002 0. 0. 8.13962612e-003 0. 0. 0. 0. 0. 0.
      2.94676307e-003 2.60578878e-002 1.31816585e-002 8.24464671e-003
      2.94676307e-003 0. -2.56410260e-002 0. 0. 0. 4.13040724e-003 0.
      1.37070743e-002 8.11692141e-003 0. 0. 1.32805500e-002 0.
      3.31427553e-003 5.00498852e-003 0. 6.60117203e-003 0. 0. 0.
      1.85711440e-002 0. 0. -5.00000007e-002 0. -8.80947616e-003 0.
      -5.12820520e-002 0. 0. 5.31005347e-003 0. 0. 0. 2.47339420e-002
      4.51380294e-003 0. 0. 0. 0. 0. 0. 0. 0. 0. 5.06445207e-003 0.
      1.13734007e-002 0. 3.86803481e-003 -1.53846154e-002
      5.29595744e-003 -4.70270291e-002 1.37415575e-002 2.18027662e-002
      0. 0. 0. 4.39011725e-003 9.86962765e-003 0. -2.22222228e-002
      7.08495919e-003 -3.33333351e-002 6.98724855e-003 0.
      1.14247622e-002 5.31005347e-003 0. 0. 0. 0. 0. 0. 0. 0. 0. 0.
      5.11773583e-003 0. 0. 0. 4.25071036e-003 -3.12500000e-002
      -1.93877798e-002 0. 8.29792395e-003 0. 0. 0. 0. 0. 9.44049284e-003
      2.60578878e-002 9.35061742e-003 0. 0. 3.49362427e-003
      8.24464671e-003 5.84548106e-003 8.68596230e-003 -3.33333351e-002
      1.78340580e-002 0. 0. -3.23486254e-002 0. 4.25071036e-003
      5.43552125e-003 0. -3.44827585e-002 0. 4.06981306e-003 0.
      5.49663603e-003 0. -5.12820520e-002 0. 3.26718092e-002
      8.45937151e-003 -9.09596775e-003 0. 0. 0. 0. 8.76638107e-003 0.
      -9.63293388e-003 0. 0. 0. 0. 3.13997897e-003 -1.39794778e-002 0.
      3.59859201e-003 4.13040724e-003 0. 0. 9.21435095e-003 0.
      6.63790433e-003 0. 0. 0. 0. 0. 1.20690921e-002 -2.36600842e-002 0.
      1.66619122e-002 -1.81818176e-002 8.24464671e-003 0. 0. 0.
      2.34570839e-002 0. 8.14206898e-003 0. 0. 9.67162754e-003 0.
      -5.12820520e-002 0. 0. 3.14902188e-003 0. 0. 0. 4.06981306e-003
      4.09727311e-003 0. 0. 0. 0. -3.76390405e-002 0. 0. 0.
      4.38319054e-003 0. 8.18956364e-003 0. 1.32758087e-002 0. 0.
      5.43552125e-003 0. 7.37262471e-003 0. 1.43008074e-002
      1.07683111e-002 7.89354462e-003 0. 0. 0. 0. 0. 1.01289041e-002 0.
      0. 9.21435095e-003 1.07882218e-002 0. 5.19937603e-003 0. 0.
      1.02383923e-002 0. 0. -5.79667352e-002 0. 0. 0. 7.08762277e-003 0.
      1.86057538e-002 0. 0. 7.37262471e-003 -1.71122346e-002
      3.28269275e-003 0. 4.67530871e-003 7.28529831e-003 0. 0.
      3.31427553e-003 0. -4.09090891e-002 0. -1.51268896e-002 0. 0.
      5.84548106e-003 0. 0. 0. 0. 4.21828823e-003 3.08600208e-003
      -3.05965524e-002 3.28269275e-003 0. 0. 0. 6.63163047e-003 0.
      3.43638053e-003 3.43638053e-003 3.32811405e-003 0. 0.
      7.19464384e-003 0. -2.22811420e-002 0. -2.39890181e-002
      7.36700557e-003 4.84878168e-004 -1.11008100e-002 0. 0.
      3.43638053e-003 4.72024642e-003 0. 5.76181849e-003 0. 0.
      4.84878168e-004 0. -1.47960391e-002 5.31005347e-003 0. 0. 0. 0. 0.
      0. 0. 1.73811093e-002 0. 0. 1.87266767e-002 6.63163047e-003 0.
      3.49362427e-003 9.88045987e-003 0. 0. 0. 0. 1.00099770e-002
      3.13997897e-003 -5.59102185e-002 6.79145614e-003 0. 0.
      1.70299113e-002 0. 8.57971516e-003 0. 9.27633606e-003 0.
      -2.99182367e-002 7.30479741e-003 0. 0. 0. 6.59082923e-003
      5.75168151e-003 0. 0. 0. 0. 0. 1.00895460e-003 9.79846250e-003
      4.60869167e-003 -2.27272734e-002 5.31005347e-003 0.
      6.38815900e-003 1.05919149e-002 0. 2.28011534e-002 6.63790433e-003
      2.06158888e-002 3.44216614e-003 -2.34422251e-003 0. 0. 0.
      4.60869167e-003 0. 0. 2.22636536e-002 0. 5.31005347e-003
      -2.56410260e-002 0. 8.14206898e-003 7.93123432e-003
      -4.62792218e-002 4.44959477e-003 0. 0. 0. 0. -2.50000004e-002
      1.31703522e-002 2.94676307e-003 6.62191911e-003 9.86962765e-003 0.
      -2.50000004e-002 0. 9.44049284e-003 5.85542526e-003 0. 0. 0. 0. 0.
      5.88534819e-003 0. 3.43638053e-003 2.16623582e-002 0. 0. 0.
      4.55168402e-003 0. 0. 3.44216614e-003 0. 0. 3.13997897e-003 0. 0.
      1.52751887e-002 0. 0. 2.04263665e-002 2.03659218e-002
      3.49362427e-003 0. 0. 7.35372119e-003 0. 8.29792395e-003 0. 0. 0.
      1.31752733e-002 0. 1.47127574e-002 0. 4.51380294e-003
      -2.43902430e-002 4.55168402e-003 3.86803481e-003 0. 0. 0. 0.
      2.07049027e-003 4.51380294e-003 3.28269275e-003 1.39974942e-002
      8.13962612e-003 8.99665151e-003 3.86803481e-003 0. 7.60038430e-003
      0. 0. 0. 0. 0. 0. 0. 0. 0. 5.85542526e-003 7.93123432e-003 0. 0.
      -5.12820520e-002 0. 0. 1.35829123e-002 0. -1.79049559e-002
      -1.63621195e-002 0. -1.92726664e-002 0. 4.78405692e-003 0. 0.
      -7.90598318e-002 0. 0. 5.49663603e-003 1.28623154e-002 0.
      9.35061742e-003 0. 7.35372119e-003 2.94676307e-003 0.
      1.57882217e-002 7.89354462e-003 0. 2.34986916e-002 0.
      4.44959477e-003 0. 0. 6.63790433e-003 0. 0. 5.43552125e-003 0. 0.
      1.06388694e-002 0. 0. 4.14098054e-003 4.44959477e-003 0. 0. 0. 0.
      4.44959477e-003 0. -2.32250486e-002 0. 0. 8.11692141e-003 0.
      3.99300596e-003 0. 9.20916162e-003 0. 0. 0. 0. 0. 0.
      7.35372119e-003 0. 0. 7.37262471e-003 6.62418967e-003 0.
      8.54912680e-003 1.04781687e-002 6.59082923e-003 0. 7.51967728e-003
      -6.40423074e-002 1.46964565e-002 8.69055465e-003 4.39011725e-003
      0. 1.16335396e-002 0. 4.16791951e-003 4.60869167e-003
      1.25037590e-002 5.09139244e-003 0. 2.09778119e-002 0. 0. 0. 0. 0.
      5.49663603e-003 0. 0. 1.11318268e-002 0. 6.85353717e-003 0. 0. 0.
      0. 6.63790433e-003 0. 3.28269275e-003 0. 0. 6.38815900e-003 0.
      -3.53246890e-002 0. 7.94879533e-003 0. 4.53693513e-003
      2.07049027e-003 0. 0. 0. 1.53892487e-002 7.35372119e-003 0. 0. 0.
      7.94879533e-003 0. 0. 0. 0. 6.79145614e-003 0. 0. 8.24464671e-003
      1.55615304e-002 0. 4.53693513e-003 0. -1.53846154e-002
      1.51479077e-002 9.44049284e-003 0. 0. 0. 1.62792522e-002 0. 0.
      -1.53846154e-002 0. 4.72024642e-003 0. 0. 1.73719246e-002 0. 0.
      -1.77586135e-002 0. 0. 0. 0. 4.55168402e-003 0. -1.53846154e-002
      5.31005347e-003 0. 5.09139244e-003 0. 3.08600208e-003 0.
      7.19464384e-003 0. -5.12820520e-002 0. 1.15273399e-002
      7.94879533e-003 0. 1.01827849e-002 0. 0. 0. 4.53693513e-003
      5.76181849e-003 0. 0. -1.53846154e-002 0. 0. 5.00498852e-003 0. 0.
      4.55168402e-003 -3.63636352e-002 0. -2.32558139e-002 0. 0. 0.
      5.75168151e-003 7.35372119e-003 0. 6.60117203e-003 2.02387311e-002
      4.09727311e-003 0. 1.32632609e-002 0. 1.53214205e-002
      -3.12500000e-002 7.08762277e-003 0. 0. 7.36700557e-003 0.
      4.09727311e-003 -2.35662833e-002 -2.56410260e-002 0.
      9.67192650e-003 0. 0. 6.59082923e-003 0. 0. 0. -1.67107210e-002
      3.32811405e-003 4.38319054e-003 0. 0. 0. 0. 0. 0. 3.13997897e-003
      7.27576017e-003 0. 0. 4.06981306e-003 5.20034274e-003 0. 0. 0. 0.
      3.59859201e-003 0. 1.41699184e-002 3.31427553e-003 5.43552125e-003
      0. 7.37262471e-003 9.18911118e-003 0. 0. 0. -3.12500000e-002
      -3.99999991e-002 7.88273197e-003 0. 6.65622810e-003
      3.28269275e-003 5.75168151e-003 0. 0. 0. 0. 5.76181849e-003 0. 0.
      0. 0. 5.09139244e-003 0. 0. 0. 0. 0. 0. 0. 0. 0. 0.
      8.98723118e-003 0. -1.53846154e-002 -2.70270277e-002 0. 0. 0.
      4.13040724e-003 -5.26315793e-002 8.29792395e-003 3.63788009e-003
      1.88941322e-002 5.75168151e-003 0. 3.44216614e-003 0. 0.
      -1.53846154e-002 0. 0. 4.38319054e-003 8.68596230e-003 0.
      -3.43989469e-002 0. 0. 0. 0. 0. 0. 0. 0. 0. 8.89918953e-003
      5.49663603e-003 8.91084038e-003 0. 0. 4.84878168e-004
      3.99300596e-003 0. 5.00498852e-003 1.22094397e-002 0. 0.
      2.94676307e-003 0. 0. 0. 0. 7.09038787e-003 3.14902188e-003 0.
      5.31005347e-003 5.31005347e-003 -2.27272734e-002 0.
      1.15236370e-002 6.62418967e-003 0. -6.81818202e-002 0. 0. 0. 0.
      3.08600208e-003 -4.38739918e-002 0. 0. 0. 0. 4.84878168e-004 0. 0.
      3.31427553e-003 0. 0. 7.63759436e-003 0. 0. 1.06818350e-002 0. 0.
      0. 3.32811405e-003 1.06201069e-002 0. 0. 0. 9.44049284e-003 0. 0.
      3.13997897e-003 5.76181849e-003 7.08495919e-003 0. 0.
      4.44392161e-003 7.94879533e-003 0. 0. 3.43638053e-003
      8.11692141e-003 0. 0. 0. 7.73606962e-003 7.26758828e-003
      -3.22580636e-002 -3.63636352e-002 8.94284714e-003 4.44959477e-003
      9.78233665e-003 0. 0. 1.32483793e-002 0. 0. 1.07007390e-002 0.
      4.13040724e-003 0. 7.00530410e-003 7.89354462e-003 0. 0. 0. 0. 0.
      4.84878168e-004 1.37070743e-002 0. 5.49663603e-003 0.
      3.94136598e-003 5.43552125e-003 0. 1.14062671e-002 0.
      1.27763180e-002 0. 1.79864019e-002 0. 2.34986916e-002
      4.44959477e-003 0. 0. 1.85443368e-002 1.17155826e-002
      -1.53846154e-002 0. 0. 0. -5.12820520e-002 3.43638053e-003 0. 0.
      0. 9.35061742e-003 0. -2.63157897e-002 0. 7.37262471e-003 0. 0.
      8.20373744e-003 0. 3.86803481e-003 2.94676307e-003 5.11773583e-003
      0. 0. 0. 7.11237313e-003 3.14902188e-003 5.19937603e-003
      -2.00570710e-002 0. 3.99300596e-003 -1.00470204e-002 0.
      7.93123432e-003 0. 3.44216614e-003 5.29595744e-003 0.
      -2.56410260e-002 4.44392161e-003 0. 0. 0. 6.60117203e-003 0.
      7.60038430e-003 0. 1.22918189e-002 0. 0. 1.47340111e-002
      3.49362427e-003 0. 0. 0. 0. 1.16471667e-002 0. -2.50000004e-002
      2.12273337e-002 -1.82873048e-002 0. 0. 0. 0. 0. 0. 0. 0.
      9.36844572e-003 0. 0. -1.61739048e-002 0. 8.29792395e-003 0.
      -1.09261293e-002 0. 0. 0. 0. 0. 0. 0. 0. 8.19454622e-003
      4.60869167e-003 5.00498852e-003 9.27633606e-003 3.59859201e-003 0.
      0. 7.11237313e-003 -5.92695735e-002 0. 0. 7.28529831e-003 0. 0. 0.
      0. -2.19879914e-002 6.88433228e-003 0. 0. 0. 0. 0. 3.59859201e-003
      0. 5.29595744e-003 0. -2.22222228e-002 7.70769315e-003 0.
      5.07821562e-003 0. -1.53846154e-002 0. -1.81755889e-002 0.
      -1.99999996e-002 0. 8.50142073e-003 0. 1.57785360e-002 0.
      1.32438382e-002 6.87276106e-003 0. 0. 0. 5.76181849e-003
      4.13040724e-003 0. 0. 1.29648587e-002 0. 0. 0. -5.96563555e-002 0.
      8.29792395e-003 0. 0. -1.86446272e-002 5.85542526e-003 0. 0.
      9.88045987e-003 6.63163047e-003 0. 0. 0. 0. 4.09727311e-003 0.
      -4.11428921e-002 0. 0. 0. 0. 5.88534819e-003 0. 2.35010833e-002 0.
      3.08600208e-003 3.49362427e-003 -8.25320482e-002 0. 0.
      3.28269275e-003 0. 1.64892934e-002 7.36700557e-003 7.08495919e-003
      0. 0. 5.76181849e-003 0. 7.36700557e-003 0. 0. 8.69055465e-003 0.
      0. 3.94136598e-003 0. 1.43525470e-002 0. 1.43892877e-002 0. 0. 0.
      0. 0. 0. 0. -2.47279666e-002 0. 0. 0. 6.79145614e-003 0. 0. 0. 0.
      4.13040724e-003 0. 0. 0. -2.11388469e-002 0. 0. 0. 4.84878168e-004
      5.85542526e-003 0. 9.56733059e-003 0. 0. -5.12820520e-002
      1.46095948e-002 0. 0. 3.13997897e-003 0. 2.04925369e-002
      -2.15535481e-002 0. 0. 0. -2.31589936e-002 0. 0. 0. 0. 0.
      7.26758828e-003 0. 0. -2.56410260e-002 4.39011725e-003 0. 0.
      3.14902188e-003 0. 9.10866261e-003 4.51380294e-003 0.
      3.86803481e-003 6.60117203e-003 0. 0. -3.33333351e-002 0.
      1.02276932e-002 1.17706964e-002 0. 0. 0. 0. 3.08600208e-003
      1.15315439e-002 0. 0. 0. 0. 5.06445207e-003 -3.22580636e-002 0.
      -2.56410260e-002 0. 0. 0. -3.63636352e-002 0. 7.08495919e-003
      8.54912680e-003 0. 5.89352613e-003 0. 0. 0. 0. 0. 0. 0. 0. 0. 0.
      0. 1.16306003e-002 4.05846070e-003 0. 0. 7.08762277e-003 0.
      -2.43902430e-002 0. 3.08600208e-003 0. -1.07142866e-001 0. 0. 0.
      0. 8.69055465e-003 0. 0. 3.86803481e-003 0. 0. 1.10133011e-002
      9.44049284e-003 7.35372119e-003 -6.66666701e-002 0.
      7.30479741e-003 7.60038430e-003 4.55168402e-003 -1.53846154e-002
      0. 5.11773583e-003 -2.70270277e-002 0. 5.75168151e-003
      -2.43902430e-002 0. 4.55168402e-003 0. 0. 7.08762277e-003 0. 0. 0.
      0. 0. 1.73425991e-002 3.63788009e-003 9.07387026e-003 0. 0. 0.
      1.11318268e-002 0. 0. -1.81818176e-002 7.11237313e-003
      7.85845518e-003 -2.27272734e-002 0. 7.27576017e-003
      6.60117203e-003 0. 3.28269275e-003 0. 0. 0. 0. 0. 0. 0.
      4.21828823e-003 0. 5.11919614e-003 4.72024642e-003 3.31427553e-003
      3.94136598e-003 0. 0. 0. 0. 0. 0. 0. 0. 0. 0. 9.36467107e-003
      5.75168151e-003 0. 0. 0. 0. -6.06304146e-002 0. 9.02532693e-003 0.
      0. 0. 0. -1.73907913e-002 -2.07905304e-002 1.11318268e-002
      1.11318268e-002 0. 3.32811405e-003 0. 3.31427553e-003
      4.21828823e-003 0. 9.02760588e-003 5.31005347e-003 0. 0.
      1.44195342e-002 1.46880066e-002 0. 2.30278708e-002 0.
      6.62191911e-003 -1.53846154e-002 2.07049027e-003 0.
      -1.99999996e-002 7.27576017e-003 0. 0. 1.37455221e-002 0.
      8.29792395e-003 0. 5.00498852e-003 0. 1.16122002e-002 0. 0. 0. 0.
      0. 9.10546072e-003 4.93481383e-003 0. 0. 0. -2.70270277e-002 0.
      1.37550067e-002 0. 0. 0. 0. -1.86044890e-002 0. 5.20034274e-003
      -5.76764857e-003 4.78405692e-003 1.32438382e-002 1.01108300e-002
      0. 0. 4.39011725e-003 0. 0. 8.14206898e-003 0. 0. 0. 0.
      2.21010167e-002 7.89354462e-003 0. 4.53693513e-003 0. 0.
      1.22315697e-002 0. 0. 0. 0. 0. 7.20979180e-003 -5.12820520e-002
      -5.12820520e-002 6.11291314e-003 0. 0. 0. 0. 0. 7.27576017e-003
      3.86803481e-003 0. 0. 0. 0. 0. 0. 5.00498852e-003 5.31005347e-003
      0. 0. 0. -1.46881938e-002 0. 7.37262471e-003 0. -3.07692308e-002
      0. 6.11291314e-003 4.93481383e-003 0. 0. 4.51380294e-003 0. 0.
      1.91346817e-002 0. 1.29648587e-002 6.62191911e-003 0.
      6.59082923e-003 0. 3.44216614e-003 0. 0. 0. 0. 0. 7.08495919e-003
      1.12300776e-002 0. 7.28529831e-003 -3.90372835e-002
      6.63163047e-003 7.30479741e-003 0. 0. 4.53693513e-003
      -2.56410260e-002 -3.33333351e-002 0. -1.45644778e-002
      8.14206898e-003 0. 0. 0. 0. 7.63759436e-003 0. -1.87188778e-002 0.
      0. 0. 5.31005347e-003 7.94879533e-003 0. 0. -2.56410260e-002
      7.26758828e-003 6.77270582e-003 6.85353717e-003 0. 0.
      6.56538550e-003 0. 0. 2.21529566e-002 0. 0. 4.53693513e-003 0. 0.
      0. 1.02383923e-002 -3.28700095e-002 -2.31505502e-002
      -3.89431641e-002 -1.88424028e-002 0. 0. 0. 0. 3.86803481e-003
      2.07049027e-003 0. 4.44392161e-003 7.30479741e-003 0. 0. 0. 0.
      4.44959477e-003 4.78405692e-003 7.93123432e-003 0. 2.20256429e-002
      8.24464671e-003 3.49362427e-003 -8.72921795e-002 0.
      -5.26315793e-002 8.19454622e-003 0. 1.27763180e-002
      -6.25000000e-002 0. 7.35372119e-003 7.08495919e-003
      6.62191911e-003 0. 0. 1.19790183e-002 0. 0. 0. 3.14902188e-003 0.
      0. 0. 0. 5.06445207e-003 0. 0. 0. 2.64840871e-002 0. 0.
      7.11237313e-003 8.33583903e-003 0. 0. 9.88045987e-003
      -2.56410260e-002 0. 0. -6.56411424e-002 4.93481383e-003
      5.31005347e-003 -1.35439895e-002 0. -2.22222228e-002 0. 0.
      6.77270582e-003 4.67530871e-003 0. 0. 0. 9.27633606e-003 0.
      -8.03411123e-004 0. 6.85353717e-003 0. 8.54912680e-003 0. 0.
      3.43638053e-003 0. 1.31495716e-002 0. 6.79145614e-003
      1.21337222e-002 1.13846259e-002 -2.50000004e-002 0. 0. 0. 0. 0.
      1.46095948e-002 2.07049027e-003 4.84878168e-004 0. 0.
      1.04781687e-002 0. 0. 3.94136598e-003 3.94136598e-003 0. 0. 0.
      1.80903859e-002 5.76181849e-003 -1.06621403e-002 0.
      8.14206898e-003 0. 5.76181849e-003 -4.97542992e-002
      7.51967728e-003 -1.82833523e-002 0. 0. 0. 3.32811405e-003 0.
      -1.40510108e-002 0. 4.67530871e-003 3.44216614e-003 0. 0. 0.
      4.39011725e-003 0. 0. -3.33333351e-002 0. 0. -2.27272734e-002
      6.60117203e-003 0. 0. 0. 0. 4.16791951e-003 0. 0. 0.
      3.28269275e-003 8.78023449e-003 0. 0. 0. 8.11692141e-003 0.
      1.21745300e-002 0. 3.94136598e-003 7.36700557e-003 3.31427553e-003
      0. 0. 0. 0. 0. 3.43638053e-003 0. 0. 0. 4.84878168e-004 0. 0. 0.
      3.28269275e-003 2.07049027e-003 0. 0. 0. 1.27476351e-002
      4.38319054e-003 0. 0. 0. 0. 0. 0. 0. 0. -2.27272734e-002 0.
      5.31005347e-003 0. 0. 0. 0. 0. 6.77270582e-003 -3.64069194e-002 0.
      5.85542526e-003 0. 7.11237313e-003 1.55981285e-002 0. 0. 0. 0. 0.
      0. 0. 0. 0. 0. 6.79145614e-003 0. 0. 5.88534819e-003
      6.62191911e-003 -5.40540554e-002 0. 1.37070743e-002 0.
      6.62418967e-003 0. 4.13040724e-003 0. 5.85542526e-003 0. 0. 0. 0.
      4.67530871e-003 0. 0. -2.83404924e-002 0. 0. 0. 1.31306099e-002
      7.26758828e-003 0. 0. 9.14074201e-003 3.85067984e-003
      -1.99999996e-002 0. 0. 0. 0. 0. 3.86803481e-003 0. 3.31427553e-003
      0. 9.88045987e-003 8.11692141e-003 4.06981306e-003 4.55168402e-003
      0. 8.33583903e-003 0. -2.27272734e-002 1.67912953e-002
      6.98724855e-003 -4.69748257e-003 0. 0. 0. 6.13911683e-003 0. 0. 0.
      0. 8.54912680e-003 0. 0. 0. 0. 0. 0. 8.92402790e-003 0. 0.
      5.34226652e-003 0. 0. 5.49663603e-003 1.71594303e-002 0.
      5.31005347e-003 1.25960875e-002 0. 4.93481383e-003 0.
      -1.88726243e-002 7.27576017e-003 5.29595744e-003 0. 0.
      4.55168402e-003 3.94136598e-003 -1.12166954e-002 0.
      1.03193875e-002 0. 0. 0. 0. 0. -3.57142873e-002 -2.22222228e-002
      8.24464671e-003 7.35372119e-003 0. 0. 4.60869167e-003 0. 0. 0. 0.
      0. 0. 0. 0. 1.09593756e-002 0. 0. 0. 0. -6.25000000e-002 0. 0. 0.
      5.61503880e-003 0. 0. 0. 0. 0. -2.25059576e-002 7.19718402e-003 0.
      0. 0. 0. 4.53693513e-003 4.21828823e-003 5.09139244e-003 0. 0. 0.
      1.87900290e-002 0. 0. 0. 3.49362427e-003 0. 0. 4.06981306e-003
      6.59082923e-003 1.58423409e-002 7.60038430e-003 0. 0. 0.
      -5.12820520e-002 0. 0. 2.60716639e-002 0. 1.23809166e-002 0.
      5.85542526e-003 0. 0. 0. 5.34226652e-003 4.06981306e-003
      4.78405692e-003 0. 9.27633606e-003 0. 9.88045987e-003
      -1.11945691e-002 7.19464384e-003 0. 5.06445207e-003
      5.11773583e-003 0. 4.55273036e-003 6.59082923e-003 0. 0. 0. 0.
      1.55594889e-002 2.96852924e-003 3.44216614e-003 1.85526721e-002 0.
      6.62418967e-003 0. 7.08495919e-003 8.89918953e-003 0. 0. 0.
      7.93123432e-003 0. 0. 0. 0. 1.01974122e-002 6.76449481e-003
      5.11919614e-003 0. 0. 8.54912680e-003 0. 5.49663603e-003
      5.20034274e-003 0. 0. 3.14902188e-003 0. 2.94676307e-003
      7.36700557e-003 0. 0. 0. 0. 4.51380294e-003 0. 5.09139244e-003
      -8.01199023e-003 3.28269275e-003 0. 0. 0. 5.11773583e-003 0.
      -2.70270277e-002 6.85353717e-003 1.11460835e-002 4.78405692e-003
      0. 3.99300596e-003 0. 4.78405692e-003 0. 0. 0. 0. 4.38319054e-003
      3.28269275e-003 3.94136598e-003 6.56538550e-003 0. 0. 0. 0. 0. 0.
      0. 0. -1.38991000e-002 7.37262471e-003 -2.27272734e-002 0.
      1.29648587e-002 9.35061742e-003 0. 0. 0. 7.19718402e-003 0. 0. 0.
      5.43552125e-003 0. 4.39011725e-003 0. 0. 0. 0. 0. 0. 0.
      1.47452494e-002 8.54912680e-003 0. 0. 5.75168151e-003 0.
      6.21147081e-003 9.27633606e-003 0. 0. 0. 0. 0. 0. 4.55168402e-003
      7.88273197e-003 4.25071036e-003 0. 1.09932721e-002 0. 0.
      7.60038430e-003 0. -6.96907751e-003 0. 0. 0. 4.53693513e-003
      -2.94117648e-002 0. 0. 3.14902188e-003 0. 7.08762277e-003
      -2.70270277e-002 0. 1.04014464e-002 0. 0. 0. 0. 0. 0.
      8.98545980e-003 1.16909621e-002 0. 8.29792395e-003 0.
      -3.12500000e-002 0. 0. 5.11773583e-003 0. 0. 0. 7.11237313e-003 0.
      -3.57142873e-002 7.63759436e-003 1.68290865e-002 0. 0.
      7.08762277e-003 0. 3.14902188e-003 0. -2.56410260e-002 0. 0.
      8.96987598e-003 0. 0. 0. 1.29648587e-002 3.32811405e-003
      1.00630121e-002 0. 0. 0. 0. 0. 0. -2.27272734e-002 0. 0. 0.
      -2.56410260e-002 0. 0. 0. 1.58624686e-002 0. 4.09727311e-003
      3.32811405e-003 -5.12820520e-002 0. 6.63790433e-003
      5.31005347e-003 0. -3.12500000e-002 7.89354462e-003
      1.08160954e-002 0. 0. 0. 5.11773583e-003 0. 0. 0. 0. 0.
      7.89354462e-003 0. 5.00498852e-003 -1.56423151e-002 0.
      -2.63157897e-002 0. 0. -2.70270277e-002 5.11919614e-003
      1.94946937e-002 8.24464671e-003 3.99300596e-003 2.07049027e-003 0.
      5.34226652e-003 0. 0. 0. 0. 0. 0. 5.20034274e-003 0.
      4.16791951e-003 0. 0. 1.23674888e-002 -2.22222228e-002 0. 0.
      8.68596230e-003 0. 7.93123432e-003 2.22636536e-002 0. 0. 0.
      8.43657646e-003 0. 0. 0. 0. 0. 0. 0. 0. 0. 0. -2.56410260e-002
      7.89354462e-003 4.13040724e-003 0. -4.99021299e-002 0.
      -2.70270277e-002 1.80401150e-002 0. 6.18374441e-003 0. 0.
      8.29792395e-003 -3.49355452e-002 0. 3.08600208e-003 0. 0. 0. 0.
      -2.70270277e-002 -2.77777780e-002 0. 0. 6.62191911e-003
      -3.90413105e-002 8.14206898e-003 5.76181849e-003 0. 0. 0.
      7.08495919e-003 0. 3.59859201e-003 0. 9.88045987e-003 0. 0.
      1.16909621e-002 0. 0. 3.14902188e-003 0. 3.13997897e-003
      8.57971516e-003 0. 0. 0. 2.07049027e-003 -3.57142873e-002 0.
      1.39744971e-002 0. 5.19937603e-003 0. 4.55273036e-003 0. 0.
      4.05846070e-003 0. 3.63788009e-003 -2.70270277e-002
      2.94676307e-003 5.11919614e-003 0. 0. 0. -3.52091454e-002
      7.73606962e-003 0. 0. 0. 0. 7.11237313e-003 0. 0. 0.
      -3.99999991e-002 0. 1.02336220e-002 0. 0. -6.81818202e-002
      7.73606962e-003 0. 4.39011725e-003 0. -2.56410260e-002
      1.90927740e-002 0. -2.70270277e-002 3.85067984e-003 0. 0. 0.
      4.55273036e-003 3.08600208e-003 0. 0. 9.27633606e-003
      7.19464384e-003 0. 0. 0. 5.07821562e-003 0. 0. 7.62363244e-003
      4.78405692e-003 0. 0. 0. 0. 0. 0. 0. 0. 0. 0. 8.69055465e-003
      7.26758828e-003 5.11919614e-003 0. 5.85542526e-003
      -5.12209609e-002 4.51380294e-003 0. 5.11919614e-003
      3.14902188e-003 1.00433379e-002 0. 3.08600208e-003 0.
      5.29595744e-003 3.49362427e-003 8.14206898e-003 0.
      -8.29699263e-003 0. 1.35454116e-002 0. 0. 0. 0. 4.55168402e-003
      -2.32558139e-002 4.21828823e-003 0. 5.61503880e-003
      -3.57142873e-002 6.87276106e-003 5.07821562e-003 0. 0. 0. 0. 0. 0.
      0. -2.56410260e-002 0. -1.99999996e-002 4.55168402e-003
      2.94676307e-003 -4.87804860e-002 0. 0. 0. 6.38815900e-003
      7.73606962e-003 1.66717079e-002 3.14902188e-003 0. 3.43638053e-003
      0. 0. 0. 0. 0. 2.94676307e-003 0. 5.11919614e-003 0.
      9.27633606e-003 0. 7.35372119e-003 0. 0. 0. 5.09139244e-003 0.
      7.08495919e-003 9.10546072e-003 0. 0. 0. 0. 9.86962765e-003 0.
      8.54912680e-003 6.63163047e-003 -5.00000007e-002 1.22738592e-002
      0. 1.90454684e-002 0. 3.14902188e-003 0. 0. 0. 0. 9.86962765e-003
      5.00498852e-003 4.67530871e-003 0. 4.72024642e-003 6.56538550e-003
      0. 0. 0. 0. 3.49362427e-003 0. 0. 0. 5.11919614e-003 0. 0. 0.
      6.62191911e-003 -3.18236351e-002 4.16791951e-003 0.
      4.13040724e-003 0. 0. 7.60038430e-003 0. 0. 0. 0. 0. 0.
      3.14902188e-003 6.77270582e-003 0. 1.12661375e-002 0. 0. 0.
      5.43552125e-003 0. -2.94117648e-002 -2.43902430e-002
      9.02760588e-003 4.13040724e-003 6.77270582e-003 3.60312536e-002
      1.43892877e-002 3.32811405e-003 1.02383923e-002 2.48937719e-002
      1.35775907e-002 0. 0. 3.28269275e-003 1.01564312e-002
      6.38815900e-003 0. 0. 0. 0. 0. 0. 0. 0. -2.43902430e-002 0. 0.
      7.63759436e-003 3.86803481e-003 0. 0. 0. 0. 6.62191911e-003 0. 0.
      9.88045987e-003 1.20663783e-002 0. 0. 0. 0. 0. 1.38398465e-002
      3.49362427e-003 4.16791951e-003 7.19464384e-003 0. 0.
      -1.80039350e-002 0. 0. 0. 0. 0. 6.17200416e-003 0. 1.03987521e-002
      0. 7.11237313e-003 4.05846070e-003 0. 0. 0. 0. 0. -5.12820520e-002
      0. 8.29792395e-003 0. 4.06981306e-003 0. 1.22258263e-002 0.
      -3.33333351e-002 0. 0. 0. 4.09727311e-003 4.38319054e-003 0. 0. 0.
      -2.47612931e-002 0. 0. 0. 5.85542526e-003 0. 0. 5.11919614e-003 0.
      0. 0. 0. 0. 8.54912680e-003 4.53693513e-003 4.37226798e-003 0. 0.
      5.88534819e-003 0. 0. 0. 4.78405692e-003 0. 0. 8.11692141e-003 0.
      -5.12820520e-002 0. 9.88045987e-003 5.34226652e-003
      5.20034274e-003 4.44392161e-003 0. 0. 0. 0. 0. -3.57142873e-002 0.
      0. 3.49362427e-003 0. 0. 0. 0. 0. 0. 0. 0. 3.94136598e-003 0.
      4.51380294e-003 0. -1.81818176e-002 4.78405692e-003
      -6.11111149e-002 0. 0. 6.27995795e-003 0. 0. 0. 0. 0. 0.
      1.04808724e-002 0. 0. 0. -1.61708556e-002 1.01827849e-002 0.
      5.07821562e-003 0. 5.34226652e-003 0. 8.19454622e-003 0.
      3.49362427e-003 -5.12820520e-002 0. 0. 8.74453597e-003 0.
      9.07387026e-003 0. 0. 5.11919614e-003 8.14206898e-003 0.
      4.05846070e-003 7.89354462e-003 5.07821562e-003 1.04336590e-002 0.
      0. 7.36700557e-003 0. 0. 0. 1.25486348e-002 0. 8.57971516e-003 0.
      7.51967728e-003 0. -2.09242404e-002 8.81840382e-003 0. 0.
      1.64892934e-002 0. 2.01260243e-002 0. 0. 5.75168151e-003
      1.65216289e-002 0. 0. 0. 6.93976879e-003 3.43638053e-003 0.
      1.52751887e-002 1.50893806e-002 0. 0. 0. 7.26758828e-003
      4.38319054e-003 0. 0. 8.69055465e-003 6.18374441e-003 0.
      7.37262471e-003 0. 0. -2.27272734e-002 0. 0. 0. 0. 0. 0. 0. 0. 0.
      0. 0. 0. 0. 0. -3.22580636e-002 9.65380948e-003 0. 0. 0. 0.
      5.76181849e-003 0. 8.89918953e-003 2.07049027e-003
      -1.02564104e-001 0. 4.44959477e-003 0. 0. 1.98657569e-002 0. 0.
      -5.89743629e-002 2.07049027e-003 0. 0. 7.36700557e-003 0. 0. 0.
      1.01564312e-002 1.88502073e-002 0. 1.59079656e-002 0. 0. 0. 0.
      2.94676307e-003 0. 0. 0. 6.56538550e-003 0. 0. 0. 0. 0. 0. 0. 0.
      -2.94117648e-002 0. 0. 0. 7.36700557e-003 8.69055465e-003
      6.63163047e-003 0. 0. 0. 1.58624686e-002 0. 0. 0. 0.
      7.36700557e-003 0. 2.09563375e-002 8.77101813e-003 6.11291314e-003
      0. 8.57971516e-003 0. 0. 0. 0. 0. 0. 0. -1.48552172e-002
      9.78065189e-003 0. -1.99999996e-002 0. 2.22636536e-002 0. 0.
      -2.56410260e-002 0. 0. 0. -2.27801353e-002 0. 1.29648587e-002 0.
      8.14206898e-003 0. 4.51380294e-003 4.09727311e-003 0. 0. 0.
      5.29595744e-003 0. 0. 0. 0. 7.35372119e-003 0. 0. 0. 0.
      -2.32558139e-002 0. 0. 3.59859201e-003 0. 6.85353717e-003 0. 0.
      1.52751887e-002 0. 0. 0. 0. 0. 0. 0. -3.68799567e-002 0. 0.
      4.21828823e-003 0. 0. 9.86962765e-003 0. 0. 0. 0. 7.36700557e-003
      1.13798808e-002 5.06445207e-003 0. 8.54912680e-003 0.
      7.08495919e-003 9.27633606e-003 9.25783720e-003 0. 0. 0.
      4.44959477e-003 8.57971516e-003 0. 0. 0. 0. 5.06445207e-003
      1.50308982e-002 0. 0. 0. 5.76181849e-003 0. 0. 0. 0. 0. 0.
      1.17108505e-002 0. 5.31005347e-003 0. 0. 0. 6.58464292e-003 0. 0.
      0. 4.25071036e-003 5.76181849e-003 3.44216614e-003 0. 0. 0. 0. 0.
      0. 3.86803481e-003 6.65622810e-003 0. 0. 1.70982536e-002 0. 0.
      9.42636468e-003 0. 0. 6.77270582e-003 7.11237313e-003
      -6.66666701e-002 0. 7.28529831e-003 0. 0. 3.94136598e-003 0.
      -2.70270277e-002 0. 7.36700557e-003 6.62191911e-003 0.
      4.13040724e-003 0. 0. 0. 2.24736873e-002 0. 0. 0. 0. 0. 0. 0. 0.
      0. 0. 3.08600208e-003 3.28269275e-003 0. 1.32483793e-002
      6.63790433e-003 8.68596230e-003 0. 0. 0. 0. 0. -1.99999996e-002 0.
      7.89354462e-003 0. 4.05846070e-003 0. -1.55922752e-002
      6.60117203e-003 0. 3.63788009e-003 0. 6.85353717e-003
      -6.68622367e-003 4.06981306e-003 0. 1.23934485e-002
      6.85353717e-003 0. -3.63945751e-003 7.36700557e-003
      5.84548106e-003 4.60717548e-003 0. 0. 7.28529831e-003
      -2.56410260e-002 0. -1.18579306e-002 0. 1.93355717e-002
      4.53693513e-003 0. 0. 7.60038430e-003 0. 5.75168151e-003
      1.31947352e-002 8.43657646e-003 4.84878168e-004 0. 9.00234561e-003
      -8.52272734e-002 4.51380294e-003 6.79145614e-003 0.
      5.09139244e-003 -3.37806088e-003 0. 0. 9.27633606e-003
      5.84548106e-003 0. 0. 3.59859201e-003 0. -5.12820520e-002 0.
      -2.22222228e-002 -3.88385989e-002 0. 0. 0. 4.51380294e-003
      5.61503880e-003 0. 0. 8.69055465e-003 0. 4.84878168e-004 0. 0.
      1.63267236e-002 0. 1.64892934e-002 0. 0. 0. 0. -3.84615399e-002
      7.27576017e-003 5.34226652e-003 0. 0. 0. 0. 0. 5.19937603e-003 0.
      7.51967728e-003 0. 0. 0. 0. 0. 1.10570611e-002 4.37226798e-003 0.
      0. 7.08762277e-003 4.13040724e-003 1.29648587e-002 0.
      1.45274308e-002 0. 0. 5.07821562e-003 5.49663603e-003
      4.51380294e-003 7.36700557e-003 0. 0. 0. 0. 0. 6.85353717e-003 0.
      0. -1.43531691e-002 0. 0. 0. 8.15027580e-003 3.14902188e-003 0. 0.
      4.72024642e-003 0. 1.36550507e-002 8.78023449e-003 0.
      4.53693513e-003 0. 7.11237313e-003 0. 5.20034274e-003
      3.43638053e-003 -3.33333351e-002 6.63163047e-003 0.
      4.09727311e-003 9.27633606e-003 4.37226798e-003 7.08762277e-003 0.
      -1.53846154e-002 0. -6.25000000e-002 -1.99999996e-002
      -2.94117648e-002 0. 7.60038430e-003 -1.53846154e-002 0. 0.
      4.06981306e-003 0. 0. -3.33333351e-002 0. 3.31427553e-003 0. 0.
      3.31427553e-003 0. 7.93123432e-003 0. 5.00498852e-003 0. 0.
      3.49362427e-003 0. 0. 0. 0. 0. 0. 7.08762277e-003 3.44216614e-003
      5.76181849e-003 0. -1.99999996e-002 0. 0. 0. 0. 7.93123432e-003 0.
      0. 0. 0. 0. 0. 0. 9.27633606e-003 7.63759436e-003 0. 0.
      7.26758828e-003 0. 0. 0. 0. 0. 0. 9.27633606e-003 0. 0.
      -6.31295443e-002 0. 0. 5.61503880e-003 6.63790433e-003
      -4.54545468e-002 0. 0. 4.51380294e-003 0. 5.85542526e-003 0. 0.
      1.70982536e-002 -1.47579508e-002 0. 0. 6.79145614e-003
      2.05937121e-002 5.20034274e-003 0. 4.93481383e-003 5.43552125e-003
      -2.15075575e-002 0. 0. 7.60038430e-003 0. 0. 0. 0. 1.41533492e-002
      3.99300596e-003 0. 4.78405692e-003 0. 4.13040724e-003
      3.85067984e-003 6.77270582e-003 0. 5.61503880e-003 8.65654182e-003
      -2.27272734e-002 0. 3.49362427e-003 0. 0. 1.46320509e-002 0.
      4.55273036e-003 0. 0. 1.41602857e-002 4.44392161e-003 0.
      3.63788009e-003 0. 0. 0. 0. 3.85067984e-003 1.37767149e-002
      7.63759436e-003 0. 8.68596230e-003 0. 4.55168402e-003
      -2.43902430e-002 4.16791951e-003 0. 4.72024642e-003
      -4.65116277e-002 0. 0. 0. 0. 1.98725704e-002 0. 0. 0. 0.
      2.00378001e-002 1.72854550e-002 7.63759436e-003 9.56811383e-003 0.
      0. -2.27272734e-002 0. 0. -3.33333351e-002 0. 0. 0.
      1.33892754e-002 1.11318268e-002 0. 0. 0. 5.85542526e-003
      4.06981306e-003 5.88534819e-003 0. 3.32811405e-003 0. 0.
      4.38319054e-003 0. 5.11773583e-003 -2.63157897e-002
      4.06981306e-003 0. 0. -4.58465293e-002 0. 5.75168151e-003
      3.31427553e-003 3.63788009e-003 0. 0. 3.86803481e-003
      7.36700557e-003 0. 0. 6.59082923e-003 0. 0. 0. 0. -1.81818176e-002
      0. 0. 0. 0. 5.20034274e-003 0. 0. 0. 7.63759436e-003 0. 0. 0.
      8.68596230e-003 -6.45161271e-002 0. 0. 3.59859201e-003 0.
      1.85526721e-002 0. 5.00498852e-003 0. 5.29595744e-003 0.
      -2.70270277e-002 0. 7.08495919e-003 5.34226652e-003 0.
      7.73606962e-003 -3.22580636e-002 0. 5.09139244e-003
      7.30479741e-003 0. 1.64892934e-002 7.11237313e-003 0.
      8.28537811e-003 7.30479741e-003 0. -2.27272734e-002 0. 0. 0.
      5.75168151e-003 5.19937603e-003 0. 1.16909621e-002 9.61718243e-003
      1.07327746e-002 3.08600208e-003 1.25898393e-002 0. 0. 0. 0. 0. 0.
      1.04781687e-002 -2.22222228e-002 -1.90168358e-002 0. 0.
      5.29595744e-003 3.32811405e-003 4.55273036e-003 1.11318268e-002 0.
      5.75168151e-003 0. 0. 0. 0. 4.72024642e-003 0. 0. 0.
      7.30479741e-003 0. 0. 0. 6.63790433e-003 0. 1.62475519e-002 0. 0.
      0. 1.20277116e-002 0. 0. 1.10737849e-002 0. 5.19937603e-003 0. 0.
      0. 0. 0. 0. 4.93481383e-003 0. 0. 0. 0. 8.54912680e-003 0. 0.
      6.63790433e-003 0. 0. 0. 9.21738334e-003 0. 0. 3.43638053e-003
      9.25800577e-003 0. 0. 0. -2.70270277e-002 1.80763304e-002 0. 0. 0.
      -1.56210503e-002 1.52007686e-002 4.72024642e-003 0. 0. 0.
      -3.57142873e-002 0. 0. -8.80699977e-003 1.64892934e-002
      6.85353717e-003 5.75168151e-003 0. 7.21640931e-003 9.86962765e-003
      0. -7.11030373e-003 0. 0. 0. 0. 0. 0. 8.43347143e-003 0. 0.
      4.44959477e-003 6.79145614e-003 0. 0. 8.68596230e-003 0.
      3.86803481e-003 0. -3.22580636e-002 0. 4.13040724e-003 0. 0.
      7.28529831e-003 0. 0. 5.31005347e-003 0. 0. 0. 1.01564312e-002 0.
      0. 3.59859201e-003 6.38815900e-003 5.06445207e-003 5.11773583e-003
      0. 0. 8.26081447e-003 0. 0. 0. 4.38319054e-003 0. -1.53846154e-002
      0. 0. 0. 7.93123432e-003 1.01289041e-002 0. 5.31005347e-003
      3.31427553e-003 0. 0. 8.43657646e-003 0. 5.61503880e-003
      5.31005347e-003 9.86962765e-003 0. 0. 0. 0. 3.94136598e-003 0.
      7.08495919e-003 5.75168151e-003 0. 0. 3.63788009e-003
      6.62191911e-003 0. 0. 4.09727311e-003 7.51967728e-003
      6.18374441e-003 4.67530871e-003 0. 0. 3.63788009e-003 0.
      1.23674888e-002 0. 0. 0. 7.19464384e-003 0. 0. 0. 1.15033630e-002
      0. 0. 9.88045987e-003 0. -2.27272734e-002 0. 0. -1.21311471e-002
      4.60717548e-003 4.84878168e-004 0. 0. 3.94136598e-003
      3.59859201e-003 0. 0. 0. 5.29595744e-003 0. 3.08600208e-003 0.
      7.60038430e-003 0. 9.56811383e-003 0. 0. 0. 7.11237313e-003 0. 0.
      0. 9.10546072e-003 -2.63157897e-002 0. 0. 8.14206898e-003
      5.06445207e-003 -2.70270277e-002 0. 0. 0. 0. 5.11919614e-003
      7.51967728e-003 7.89354462e-003 0. 0. 6.62418967e-003 0. 0. 0. 0.
      -2.70270277e-002 -5.00000007e-002 0. 0. 0. 0. 0. 4.37226798e-003
      0. 0. 0. 1.35454116e-002 0. 4.51380294e-003 0. 0. 0. 0.
      1.46095948e-002 0. 0. 0. 0. 0. 0. 4.53693513e-003 6.77270582e-003
      0. 0. 4.60717548e-003 -2.22015083e-002 0. 0. 5.00498852e-003 0. 0.
      0. 4.72024642e-003 0. 4.44959477e-003 1.08947803e-003 0.
      5.09139244e-003 0. 0. 0. 0. -1.99999996e-002 0. 8.24464671e-003 0.
      0. 1.29648587e-002 3.86803481e-003 0. 0. -2.27272734e-002
      5.11919614e-003 3.32811405e-003 0. 0. 0. 5.06445207e-003 0. 0. 0.
      5.34226652e-003 0. 0. 0. 0. 0. 1.29972454e-002 0. 8.14206898e-003
      1.01564312e-002 8.29792395e-003 1.35454116e-002 -2.32558139e-002
      1.62841380e-002 -2.87806056e-002 0. 0. 0. 0. 0. 0. 0.
      4.21828823e-003 0. 0. 0. 0. 0. 0. 0. 0. 0. 4.55273036e-003 0.
      4.44959477e-003 0. 1.15846042e-002 -1.99999996e-002
      -8.57428908e-002 -2.21474022e-002 0. 7.08495919e-003 0. 0.
      -2.50000004e-002 0. 0. 0. 0. 0. 1.88706722e-002 0. 0. 0. 0. 0. 0.
      5.84548106e-003 4.60869167e-003 0. 1.19912922e-002 0. 0.
      4.44959477e-003 0. 0. 6.63790433e-003 8.19944125e-003 0. 0.
      1.04588643e-002 0. 0. 3.28269275e-003 1.01827849e-002
      5.07821562e-003 7.94879533e-003 6.11291314e-003 9.87835415e-003 0.
      7.88030215e-003 8.69055465e-003 4.06981306e-003 0. 0.
      4.44959477e-003 5.34226652e-003 4.09727311e-003 0. 6.77270582e-003
      5.75168151e-003 0. 0. -1.91585403e-002 4.44959477e-003 0. 0. 0. 0.
      0. 0. 0. 4.09727311e-003 0. 5.75168151e-003 4.60869167e-003 0. 0.
      -1.99999996e-002 4.51380294e-003 5.11919614e-003 0.
      6.77270582e-003 7.93123432e-003 -1.98792070e-002 0. 0.
      4.53693513e-003 -2.43902430e-002 0. 0. 8.88784323e-003
      -3.63636352e-002 1.04781687e-002 0. 4.13040724e-003
      5.20034274e-003 7.37262471e-003 0. 0. 3.32811405e-003 0. 0. 0.
      -2.70270277e-002 3.28269275e-003 0. 0. 3.13997897e-003 0.
      -2.22222228e-002 0. 0. 0. 3.14902188e-003 4.06981306e-003 0.
      3.14902188e-003 6.38815900e-003 -2.77442615e-002 5.31005347e-003
      0. -2.70270277e-002 -2.97857132e-002 9.27633606e-003
      1.78955141e-002 -2.94117648e-002 0. 0. 0. 0. 0. 0. 0. 0. 0. 0. 0.
      0. 5.43552125e-003 -1.81818176e-002 0. 3.94136598e-003
      3.49362427e-003 4.05846070e-003 0. 8.57971516e-003 0. 0. 0. 0. 0.
      2.17420850e-002 0. 6.62418967e-003 0. 7.08495919e-003 0.
      5.31005347e-003 0. 0. 5.11773583e-003 0. 0. 0. 0. 0. 0. 0. 0. 0.
      0. 0. 0. 5.11919614e-003 0. 0. 3.31427553e-003 3.63788009e-003 0.
      0. 0. -2.65063830e-002 0. 1.08710425e-002 0. 0. 0. 0. 0.
      4.55273036e-003 0. 0. 0. 4.06981306e-003 7.51967728e-003 0. 0. 0.
      -2.56410260e-002 0. 0. 0. 0. 1.32483793e-002 0. 2.24723294e-002
      1.46095948e-002 0. 5.11919614e-003 0. 0. 8.29792395e-003
      1.11318268e-002 0. 0. 0. 8.14206898e-003 0. 0. 2.07049027e-003
      9.27633606e-003 6.62418967e-003 0. 4.60869167e-003 0.
      -2.77777780e-002 6.77270582e-003 -1.81818176e-002 7.94879533e-003
      0. 7.35372119e-003 6.18374441e-003 -1.81818176e-002
      4.67530871e-003 5.75168151e-003 3.43638053e-003 5.31005347e-003 0.
      2.07049027e-003 0. 0. 0. 4.09727311e-003 8.24464671e-003 0. 0.
      6.18374441e-003 3.13997897e-003 5.34226652e-003 6.62191911e-003 0.
      0. 8.24464671e-003 0. 0. 0. 8.24464671e-003 7.37262471e-003 0. 0.
      3.08600208e-003 3.94136598e-003 7.08495919e-003 -1.99999996e-002
      0. 0. 4.25071036e-003 0. 0. 8.76638107e-003 0. 6.17200416e-003 0.
      6.62191911e-003 0. 7.08762277e-003 0. 0. 0. 7.36700557e-003 0. 0.
      0. 0. 3.86803481e-003 3.86803481e-003 1.04781687e-002 0.
      9.10336804e-003 3.44216614e-003 0. 7.08495919e-003
      -2.70270277e-002 0. 5.29595744e-003 0. 0. 7.26758828e-003
      9.41993669e-003 0. 0. 0. 0. 0. -1.97917670e-002 6.59082923e-003
      6.63790433e-003 0. 0. 0. 9.33678728e-003 -1.31166011e-001 0.
      4.13040724e-003 4.78405692e-003 0. 0. 3.31427553e-003 0. 0. 0. 0.
      9.88045987e-003 -1.81818176e-002 0. 5.06445207e-003 0. 0. 0. 0.
      -6.09769020e-003 0. 0. 0. 0. 0. 8.69055465e-003 5.29595744e-003 0.
      0. 0. 0. 1.24903610e-002 8.24464671e-003 6.62418967e-003
      7.08762277e-003 0. 0. -1.46759218e-002 0. 0. 0. 0. 7.08762277e-003
      4.53693513e-003 0. 0. 0. 0. 0. 0. 0. 0. 0. 0. 7.60038430e-003
      6.63163047e-003 0. 0. 5.09139244e-003 4.53693513e-003 0. 0. 0.
      3.44216614e-003 0. 1.15182986e-002 0. 0. 7.08495919e-003 0.
      5.88534819e-003 3.28269275e-003 4.78405692e-003 0. 0.
      1.04781687e-002 6.62191911e-003 1.29648587e-002 0. 1.58624686e-002
      0. 0. 0. 0. 0. 0. 8.19454622e-003 0. 0. 6.63163047e-003 0.
      4.51380294e-003 0. 0. 6.11291314e-003 7.08762277e-003
      7.08495919e-003 -1.53846154e-002 4.06981306e-003 0.
      6.85353717e-003 4.13040724e-003 4.06981306e-003 0. 0.
      3.28269275e-003 -2.11853236e-002 0. 0. -6.09842241e-002 0.
      8.29792395e-003 7.35372119e-003 0. 0. 0. 0. 3.28269275e-003 0. 0.
      0. 3.13997897e-003 0. 5.31005347e-003 0. 0. 4.37226798e-003 0.
      4.53693513e-003 5.20034274e-003 0. 0. -3.84615399e-002 0.
      3.08600208e-003 9.27633606e-003 0. 0. 0. 0. 3.13997897e-003 0. 0.
      5.07821562e-003 0. 6.62191911e-003 0. 4.60869167e-003 0. 0. 0.
      1.41752455e-002 0. 9.84807778e-003 9.27633606e-003
      -4.09090891e-002 0. 0. 6.63790433e-003 0. -1.57817118e-002
      4.72024642e-003 0. 0. 0. 0. 0. 1.27763180e-002 0. 4.21828823e-003
      0. 0. 0. 0. 0. 0. 0. 0. 0. 0. 0. 0. 3.31427553e-003 0.
      4.09727311e-003 2.07049027e-003 0. 0. 6.63790433e-003 0. 0.
      2.22364590e-002 0. 7.19464384e-003 0. -1.43272309e-002
      1.73811093e-002 5.84548106e-003 5.61503880e-003 -1.99217852e-002
      0. 0. 1.32632609e-002 0. 0. 1.46853430e-002 0. 0. 7.98601191e-003
      0. 6.62418967e-003 4.51380294e-003 3.59859201e-003
      -1.99999996e-002 0. 0. 0. 0. 3.14902188e-003 0. 4.60717548e-003 0.
      1.02383923e-002 0. 3.28269275e-003 0. 0. 0. 0. 3.49362427e-003
      -1.99999996e-002 -1.81818176e-002 0. 0. 0. 0. 0. 5.88534819e-003
      5.34226652e-003 0. 0. 8.24464671e-003 0. 0. 0. 0. 0.
      -9.33107920e-003 0. 0. 0. 0. 6.63790433e-003 5.11773583e-003 0. 0.
      4.67530871e-003 0. 0. 0. 0. 0. 3.43638053e-003 0. 3.59859201e-003
      0. 8.14206898e-003 7.94879533e-003 0. 7.36700557e-003
      6.77270582e-003 0. 4.38319054e-003 0. 0. 0. 5.00498852e-003 0. 0.
      0. 0. 0. 0. 0. -1.82508249e-002 1.32758087e-002 0. 0. 0.
      6.62191911e-003 0. 0. 0. 6.56538550e-003 0. 0. 2.07545217e-002 0.
      0. 0. 3.88945788e-002 0. 0. 0. 0. 0. 0. 0. 3.94078437e-003
      5.06445207e-003 6.63163047e-003 0. 1.64892934e-002 0. 0. 0. 0. 0.
      4.05846070e-003 0. 0. 0. 7.63759436e-003 0. 0. -1.99999996e-002 0.
      3.44216614e-003 0. 9.44049284e-003 6.60117203e-003 7.37262471e-003
      0. 5.00498852e-003 0. 0. 0. 4.09727311e-003 0. 0. 0. 0. 0. 0.
      4.53693513e-003 0. 0. 0. 0. 5.88534819e-003 8.57971516e-003 0. 0.
      8.43657646e-003 -1.81818176e-002 6.85353717e-003 -2.24742983e-002
      3.63788009e-003 3.86803481e-003 3.08600208e-003 0. 0. 0. 0. 0.
      -1.73431020e-002 0. 0. 7.51967728e-003 4.53693513e-003
      -3.33333351e-002 0. 0. 0. 0. 3.86803481e-003 0. 0. 0. 0.
      5.88534819e-003 0. 0. 0. 4.05846070e-003 0. 0. 0. 8.69055465e-003
      0. 0. 0. 4.93481383e-003 7.19464384e-003 9.27633606e-003 0. 0.
      4.84878168e-004 0. 0. 0. 0. 0. 2.13371199e-002 0. 0. 0. 0. 0.
      8.68596230e-003 0. 0. 0. 4.05846070e-003 0. -2.77777780e-002 0. 0.
      0. 8.69055465e-003 3.49362427e-003 1.15987621e-002 6.62191911e-003
      0. 0. 0. 4.25071036e-003 0. 0. 3.86803481e-003 4.21828823e-003 0.
      0. 8.14206898e-003 0. 0. -2.77777780e-002 0. 4.16791951e-003 0. 0.
      0. 0. 0. 4.39011725e-003 0. -1.68600213e-002 -2.22222228e-002 0.
      0. 0. 0. 6.11291314e-003 0. 5.09139244e-003 0. 0. 0.
      4.09727311e-003 0. 0. 0. 1.52623886e-002 6.62855105e-003 0.
      1.00630121e-002 0. 4.09727311e-003 0. -8.18997156e-003
      -2.50000004e-002 -3.99999991e-002 1.29648587e-002 0. 0.
      7.94879533e-003 0. -3.80229913e-002 0. 0. 0. 7.57952686e-004 0.
      3.14902188e-003 1.51725896e-002 0. 0. 0. 0. 0. 0. 0. 0.
      -1.99999996e-002 0. 0. 0. 0. 5.09139244e-003 0. 3.05623710e-002 0.
      0. 0. 3.63788009e-003 0. 0. 0. 0. 0. 6.77270582e-003 0.
      7.94795249e-003 0. 8.68596230e-003 -6.81818202e-002 0. 0.
      1.22462865e-002 0. 0. 0. 6.85353717e-003 5.11773583e-003 0.
      5.85542526e-003 -9.58333313e-002 -4.77872416e-002 0.
      5.09139244e-003 0. 0. 8.08747485e-003 0. 5.84548106e-003 0.
      3.94136598e-003 0. 0. 0. 0. 0. 0. 0. 0. 5.88534819e-003
      7.11237313e-003 0. 0. 4.05846070e-003 1.57741252e-002 0.
      -1.99999996e-002 0. 5.61503880e-003 0. 0. 0. 7.36700557e-003 0. 0.
      0. 3.14902188e-003 0. 8.54912680e-003 0. 0. 7.26758828e-003 0.
      6.62855105e-003 5.00498852e-003 0. 0. 0. 3.13997897e-003 0. 0.
      -1.23195853e-002 4.84878168e-004 0. 4.09727311e-003 0.
      1.71113200e-002 3.31427553e-003 0. 0. 0. 5.19937603e-003 0.
      1.82050820e-002 0. 7.60038430e-003 0. 3.28269275e-003 0.
      -2.43902430e-002 0. 0. 0. 4.06981306e-003 1.42247463e-002
      -5.12820520e-002 0. 0. 0. 3.08600208e-003 5.85542526e-003 0. 0. 0.
      8.76997225e-003 1.47340111e-002 0. 0. -2.43902430e-002
      1.22315697e-002 0. 0. 0. 6.85353717e-003 0. 0. 0. 7.35372119e-003
      7.94879533e-003 0. 3.08600208e-003 3.86803481e-003 0. 0. 0. 0. 0.
      -1.99999996e-002 0. 0. 0. 0. -2.56410260e-002 0. 0. 0. 0. 0. 0. 0.
      -2.27272734e-002 0. 0. 0. -3.07692308e-002 0. 0. 4.67530871e-003
      7.67952204e-003 6.20794576e-003 -1.99999996e-002 4.16791951e-003
      1.36711076e-002 -4.79135327e-002 0. 0. 0. 0. 7.94879533e-003
      -2.22222228e-002 0. 5.06445207e-003 0. 0. 9.88045987e-003 0. 0. 0.
      0. 0. 0. 7.30479741e-003 0. 0. 0. 4.93481383e-003 0. 0.
      1.04781687e-002 0. -3.22580636e-002 0. 0. 4.93481383e-003 0. 0. 0.
      0. 0. -1.81818176e-002 0. 0. 7.37262471e-003 0. 0. 5.20034274e-003
      4.38319054e-003 1.23123797e-002 0. 0. 3.86803481e-003
      5.07821562e-003 0. 0. 0. 8.54912680e-003 0. 5.76181849e-003
      5.84548106e-003 7.27576017e-003 0. 7.93123432e-003
      -2.43902430e-002 7.51967728e-003 -2.63157897e-002 0. 0. 0.
      -5.12820520e-002 0. 0. 4.38319054e-003 0. 0. 0. 4.84878168e-004 0.
      0. 0. 0. 0. 0. 0. 0. 0. 0. 0. 0. 0. 0. 0. 0. 0. 0. 0. 0. 0. 0.
      2.07049027e-003 -2.27272734e-002 -9.34280977e-002 0. 0. 0.
      5.19937603e-003 0. 0. 6.63790433e-003 0. 7.36700557e-003 0. 0. 0.
      0. 5.09139244e-003 5.09139244e-003 0. 8.54912680e-003 0.
      1.11318268e-002 0. 3.85067984e-003 3.08600208e-003 0. 0.
      9.27633606e-003 0. 6.18374441e-003 0. 0. 0. 8.44136905e-003 0. 0.
      0. 6.38815900e-003 -1.71823762e-002 0. 0. 1.84171256e-002
      5.49663603e-003 0. 1.09284986e-002 0. 0. 0. 0. 0. 3.14902188e-003
      0. 4.06981306e-003 -3.75872441e-002 0. 0. 0. 5.84548106e-003 0. 0.
      0. 0. 1.26053728e-002 8.68596230e-003 0. 0. 7.19464384e-003 0.
      6.62191911e-003 0. 0. 0. 8.69055465e-003 -2.27272734e-002
      1.11318268e-002 0. 0. 0. 0. 0. 5.43552125e-003 0. 0.
      3.14902188e-003 0. 0. 0. 0. 0. 0. 7.26758828e-003 4.60869167e-003
      5.19937603e-003 4.05846070e-003 7.26758828e-003 1.65109485e-002 0.
      0. 0. 5.07821562e-003 0. 0. -3.22580636e-002 0. 0. 3.28269275e-003
      1.33317644e-002 -1.49355475e-002 8.57971516e-003 0. 0. 0. 0.
      7.83542264e-003 5.19937603e-003 0. 0. 3.32811405e-003 0. 0. 0. 0.
      0. 0. 0. 0. 5.85542526e-003 4.09727311e-003 0. 0. 5.34226652e-003
      0. 0. 1.21185556e-002 1.00630121e-002 0. 0. 0. 0. 0.
      7.89354462e-003 0. 9.35061742e-003 4.44959477e-003 1.00630121e-002
      0. -2.22222228e-002 0. 3.63788009e-003 7.63759436e-003 0. 0. 0. 0.
      0. 0. 0. 4.55168402e-003 0. 0. 0. 0. 0. 8.24464671e-003 0.
      5.75168151e-003 3.14902188e-003 1.34786442e-002 0. 0. 0.
      -2.56410260e-002 0. 5.85542526e-003 2.59436183e-002
      7.89354462e-003 0. 0. 0. 6.38815900e-003 0. 0. 6.11291314e-003
      1.18279271e-002 0. 3.28269275e-003 0. 7.93123432e-003
      1.29648587e-002 0. 3.94136598e-003 0. 0. 0. 4.39011725e-003 0. 0.
      0. 0. 7.36700557e-003 0. 6.85353717e-003 0. -2.70270277e-002 0. 0.
      6.63163047e-003 0. 0. 0. 0. 0. 0. 0. 7.28529831e-003 0.
      5.76181849e-003 3.63788009e-003 7.19464384e-003 0. 0.
      6.38815900e-003 0. 3.49362427e-003 1.51870307e-002 6.18374441e-003
      8.14206898e-003 6.03276491e-003 0. 0. 0. 0. -5.89701012e-002
      7.08495919e-003 0. 0. 8.29792395e-003 4.60717548e-003
      4.55273036e-003 0. 1.47452494e-002 0. 5.11919614e-003
      1.18564814e-002 5.34226652e-003 0. 0. 0. 8.43657646e-003 0. 0. 0.
      5.09139244e-003 0. 0. 1.64399929e-002 3.63788009e-003 0. 0.
      7.35372119e-003 5.06445207e-003 6.38815900e-003 0. 0.
      -1.74279474e-002 2.12376583e-002 5.88534819e-003 0. 0.
      5.09139244e-003 1.24477502e-002 4.13040724e-003 7.35372119e-003
      -4.82828990e-002 0. 0. 0. 0. 4.38319054e-003 8.74453597e-003 0. 0.
      4.39011725e-003 0. 0. 7.19464384e-003 0. 0. 5.11773583e-003 0.
      4.39011725e-003 0. 0. 0. 0. 0. 0. 0. 0. 4.44392161e-003
      4.16791951e-003 0. 4.38319054e-003 8.54912680e-003 0. 0.
      -6.66666701e-002 1.52751887e-002 -2.72881147e-002 0. 0. 0.
      8.11692141e-003 7.70135969e-003 0. 0. 0. -2.70270277e-002
      6.38815900e-003 0. 0. 4.05846070e-003 3.86803481e-003 0.
      2.94676307e-003 0. 0. 0. 0. 0. 0. 0. 0. 0. 0. 1.29648587e-002 0.
      5.75168151e-003 -3.12500000e-002 0. -1.99999996e-002 0.
      6.77270582e-003 0. 0. 0. 0. 0. -5.12820520e-002 8.68596230e-003
      8.68596230e-003 0. 0. 5.31005347e-003 0. 0. 1.82167869e-002 0.
      6.85353717e-003 -1.99999996e-002 0. 3.43638053e-003 0. 0.
      6.62418967e-003 -1.85534041e-002 4.78405692e-003 0.
      4.44959477e-003 0. 0. 3.63788009e-003 1.29648587e-002 0.
      -2.70270277e-002 1.00630121e-002 0. 0. -5.12820520e-002 0. 0.
      4.38319054e-003 0. -2.50000004e-002 0. 1.65120903e-002 0.
      4.51380294e-003 0. 5.75168151e-003 0. 0. 5.00498852e-003 0.
      8.54912680e-003 0. -1.73996165e-002 0. 6.85353717e-003
      5.11919614e-003 0. 0. 0. 7.94879533e-003 0. 0. 0. 0.
      -3.22580636e-002 4.25071036e-003 -2.43902430e-002 0.
      2.94676307e-003 0. 0. -3.12500000e-002 0. 0. 0. 8.57971516e-003 0.
      0. 1.32438382e-002 6.62191911e-003 0. 0. 0. 0. 7.08762277e-003 0.
      0. 6.77270582e-003 0. 0. -2.56410260e-002 0. 5.85542526e-003 0.
      8.68596230e-003 0. 0. 0. 0. -2.32558139e-002 0. 0. 0.
      -1.99999996e-002 8.29792395e-003 0. 1.01564312e-002
      -1.35362605e-002 -2.77777780e-002 0. 0. -1.20527344e-002 0. 0. 0.
      1.26999980e-002 4.67530871e-003 0. -1.16087861e-001 0. 0. 0.
      4.09727311e-003 5.19937603e-003 0. 8.24464671e-003 4.67530871e-003
      4.53693513e-003 7.28529831e-003 1.41752455e-002 0. 0.
      6.63790433e-003 0. 8.54912680e-003 0. 4.84878168e-004
      5.09139244e-003 0. 0. 9.46387649e-003 0. 0. 7.08762277e-003
      1.01827849e-002 0. 0. 1.66716781e-002 8.14206898e-003 0. 0. 0. 0.
      0. -2.94117648e-002 7.63759436e-003 3.86803481e-003
      4.25071036e-003 8.54912680e-003 0. -8.11880548e-003 0.
      4.53693513e-003 0. 6.60117203e-003 7.63759436e-003 0. 0. 0. 0. 0.
      4.09727311e-003 3.08600208e-003 0. 0. 0. 0. 0. 0. 0. 0. 0. 0. 0.
      0. 0. 0. 0. 6.85353717e-003 0. 7.51967728e-003 3.28269275e-003 0.
      0. 4.72024642e-003 8.24464671e-003 4.84878168e-004 0. 0.
      2.12565195e-002 1.27763180e-002 0. 6.59082923e-003 0.
      7.08495919e-003 0. 0. 4.09727311e-003 3.59859201e-003 0. 0. 0.
      4.13040724e-003 0. 1.81253571e-002 -2.77777780e-002 0.
      7.37262471e-003 0. -3.99999991e-002 0. -1.53846154e-002
      4.78405692e-003 0. 0. 0. 0. 4.72024642e-003 -1.07142866e-001 0.
      7.08495919e-003 0. 0. 0. 0. 0. 3.14902188e-003 0. 0. 0.
      8.57971516e-003 -2.50000004e-002 0. 0. 0. 4.37226798e-003 0. 0. 0.
      0. 0. 4.09727311e-003 8.24464671e-003 0. 8.68596230e-003 0. 0. 0.
      0. 4.05846070e-003 0. 5.29595744e-003 0. -2.50000004e-002 0. 0. 0.
      0. 0. -1.99999996e-002 0. 3.63788009e-003 0. 0. 2.50507575e-002 0.
      0. 5.89352613e-003 0. 0. 0. 0. 0. 2.94676307e-003 0.
      6.79145614e-003 3.85067984e-003 0. 0. 0. -3.84615399e-002
      -2.56410260e-002 6.85353717e-003 4.53693513e-003 0.
      -3.22580636e-002 0. 0. 8.29792395e-003 0. 0. 0. 0. 5.00498852e-003
      0. 9.27633606e-003 5.20034274e-003 1.98657569e-002
      -2.77777780e-002 2.07049027e-003 0. 3.14902188e-003
      1.20224366e-002 4.55273036e-003 0. 0. 3.44216614e-003 0. 0.
      7.19464384e-003 4.51380294e-003 4.78405692e-003 0. 0. 0. 0. 0.
      6.62418967e-003 0. 7.68709090e-003 0. 1.00630121e-002
      7.37262471e-003 8.24464671e-003 6.63163047e-003 0. 4.06981306e-003
      4.53693513e-003 0. 2.07049027e-003 0. 6.38815900e-003
      7.19464384e-003 0. 0. -1.53846154e-002 -1.90191064e-002 0. 0.
      4.37226798e-003 0. 0. 0. 4.44392161e-003 -4.54545468e-002
      4.72024642e-003 5.09139244e-003 0. 1.46095948e-002 0. 0. 0.
      4.38319054e-003 0. 0. 0. 0. 0. 3.08600208e-003 -9.49926767e-003
      7.19464384e-003 0. 1.18027953e-002 0. 2.07049027e-003 0. 0. 0. 0.
      0. 0. 1.10658407e-002 0. 0. 0. 0. 0. 2.40966864e-002 0.
      5.84548106e-003 0. 0. 0. 0. 8.98085628e-003 3.94136598e-003 0.
      4.51380294e-003 0. 3.28269275e-003 0. 0. 0. 0. 3.86803481e-003
      -2.56410260e-002 -2.43902430e-002 2.07049027e-003 0. 0. 0.
      -2.56410260e-002 0. -1.53846154e-002 0. 0. -1.60586331e-002
      -2.77777780e-002 0. 1.43892877e-002 0. 0. 0. 0. 1.29648587e-002 0.
      0. 0. 0. 3.49362427e-003 6.11291314e-003 7.51967728e-003 0. 0. 0.
      0. 0. 1.41299954e-002 5.88534819e-003 7.51967728e-003 0.
      5.09139244e-003 0. 0. 0. 0. 4.05846070e-003 0. 5.06445207e-003
      1.76252425e-002 0. 7.19464384e-003 0. 0. 0. 0. 0. 0.
      7.36700557e-003 4.53693513e-003 0. 0. 0. 0. 6.11291314e-003
      5.75168151e-003 0. 0. -1.20394379e-002 8.14206898e-003 0.
      -1.53846154e-002 0. 0. 0. 0. 0. 0. -2.37329816e-003
      5.61503880e-003 0. 6.18374441e-003 5.31005347e-003 0.
      7.51967728e-003 0. 0. 4.84878168e-004 0. 1.22258263e-002 0. 0.
      5.49663603e-003 7.93123432e-003 3.08600208e-003 0.
      -5.25504071e-003 9.44049284e-003 0. 0. 0. 0. 0. 0. 6.18374441e-003
      3.08600208e-003 0. 0. 0. 0. 0. 7.28529831e-003 2.07049027e-003 0.
      0. 0. 4.09727311e-003 0. -2.91404929e-002 8.88784323e-003
      4.09727311e-003 9.88045987e-003 0. 0. 1.29648587e-002
      6.62191911e-003 0. -2.78448537e-002 0. 0. 3.31427553e-003 0.
      9.59297642e-003 -3.12646925e-002 0. 8.19454622e-003 0. 0.
      4.60717548e-003 9.44049284e-003 0. 0. 0. 7.89354462e-003
      -5.20270281e-002 8.69055465e-003 0. 8.14206898e-003 0. 0.
      -2.70270277e-002 7.28529831e-003 0. 0. 0. 0. 5.43552125e-003 0. 0.
      -2.56410260e-002 3.32811405e-003 9.88045987e-003 0.
      -1.99999996e-002 -8.31428450e-003 0. 0. 0. 0. 0. 0.
      9.88045987e-003 2.07049027e-003 0. 0. 7.28529831e-003 0.
      3.94136598e-003 0. 0. 0. 0. 0. 0. 5.88534819e-003 -2.50000004e-002
      6.85353717e-003 8.24464671e-003 0. 6.38815900e-003 0.
      8.68596230e-003 0. 0. 0. 8.68596230e-003 0. 0. 1.73719246e-002 0.
      2.01348178e-002 6.85353717e-003 0. 0. 3.94136598e-003 0. 0.
      2.07049027e-003 4.84878168e-004 0. 5.00498852e-003 0.
      -2.56410260e-002 0. 0. 9.35061742e-003 6.77270582e-003 0.
      -2.45937724e-002 -2.50000004e-002 0. 0. 0. 0. -2.56410260e-002 0.
      7.63759436e-003 0. 0. 0. 0. 4.16791951e-003 0. 0. 0. 0. 0.
      5.29595744e-003 0. 0. 3.08600208e-003 7.94879533e-003 0. 0.
      2.18676217e-002 0. 0. 0. 0. 0. -1.60069931e-002 7.35372119e-003 0.
      0. 4.67530871e-003 0. 0. 0. 9.83289257e-003 -1.99999996e-002 0. 0.
      2.07049027e-003 5.88534819e-003 6.62191911e-003 0. 0. 0. 0. 0.
      4.37226798e-003 0. 0. 0. 8.24464671e-003 4.09727311e-003 0. 0. 0.
      5.09139244e-003 -2.32558139e-002 0. 5.43552125e-003 0. 0. 0.
      3.49362427e-003 -2.63157897e-002 0. 0. 0. 0. 4.05846070e-003 0. 0.
      0. 0. 8.14206898e-003 -2.43902430e-002 3.63788009e-003
      3.63788009e-003 0. 0. 0. 0. 0. 0. 3.44216614e-003 0.
      5.06445207e-003 0. 6.77270582e-003 0. 0. 6.79145614e-003 0. 0.
      3.31427553e-003 0. 2.07049027e-003 0. 0. 1.20499786e-002 0. 0.
      5.19937603e-003 1.60590112e-002 0. 0. 0. 0. 0. 4.21828823e-003 0.
      -2.76913028e-002 4.09727311e-003 0. 0. 1.22860363e-002
      3.08600208e-003 0. 5.09139244e-003 0. 0. 0. 4.44959477e-003
      -1.99999996e-002 0. 0. -2.42789406e-002 -5.90063743e-002
      4.78405692e-003 0. 6.21147081e-003 -1.26817962e-002 0. 0. 0.
      4.60717548e-003 0. 0. 5.06445207e-003 0. 7.93123432e-003 0. 0.
      3.44216614e-003 0. 5.00498852e-003 0. 0. 0. 0. 0. 4.53693513e-003
      5.89352613e-003 0. 4.16791951e-003 6.11291314e-003 0. 0. 0.
      -2.22222228e-002 0. 0. 0. 1.11318268e-002 0. 0. -2.30340213e-002
      0. 0. 7.26758828e-003 0. 3.85067984e-003 1.29648587e-002
      4.16791951e-003 6.59082923e-003 6.62191911e-003 0. 0. 0. 0.
      6.85353717e-003 0. 0. 3.94136598e-003 0. 1.70982536e-002 0. 0. 0.
      0. 4.16791951e-003 0. 4.78405692e-003 7.94879533e-003 0. 0. 0.
      -3.57142873e-002 1.41871907e-002 0. 0. 3.44216614e-003
      4.55168402e-003 0. 0. 2.87800990e-002 7.35372119e-003 0.
      3.28269275e-003 0. 0. 0. 0. 0. 0. 0. -3.44827585e-002 0.
      3.32811405e-003 0. 0. 0. 0. 0. 3.49362427e-003 3.13997897e-003 0.
      0. 0. 6.18374441e-003 0. 0. 0. 0. 0. 0. 6.63163047e-003 0.
      3.94136598e-003 0. -5.12820520e-002 0. 0. 0. 0. 0. 0.
      8.29792395e-003 0. 1.73719246e-002 0. 3.59859201e-003 0.
      -3.84615399e-002 -3.97455925e-003 5.88534819e-003 3.28269275e-003
      4.09727311e-003 5.85542526e-003 3.49362427e-003 0. 8.14206898e-003
      0. 9.27633606e-003 2.07049027e-003 0. 0. 0. 3.59859201e-003 0.
      3.14902188e-003 0. 1.00630121e-002 0. 0. 0. -1.90878939e-002 0. 0.
      5.11773583e-003 0. 3.86803481e-003 4.78405692e-003 0. 0. 0. 0. 0.
      0. 0. -1.99999996e-002 0. 0. 0. 6.63790433e-003 3.32811405e-003
      -4.58409935e-002 0. 8.54912680e-003 8.52598809e-003 0. 0. 0. 0. 0.
      0. -3.63636352e-002 0. 5.34226652e-003 -3.02473325e-002
      5.00498852e-003 0. 5.61503880e-003 3.49362427e-003 0. 0.
      5.85542526e-003 0. 0. 0. 0. 0. 0. 0. 3.85067984e-003 0. 0. 0. 0.
      0. 4.06981306e-003 0. 0. 0. -1.22964699e-002 0. 8.14206898e-003
      4.38319054e-003 6.11291314e-003 0. 0. 0. 5.09139244e-003
      1.04781687e-002 4.53693513e-003 4.51380294e-003 8.11692141e-003 0.
      5.49663603e-003 6.62418967e-003 0. 0. 3.14902188e-003
      6.79145614e-003 -1.81818176e-002 0. 0. 4.25071036e-003 0.
      7.19464384e-003 0. 0. 0. 7.60038430e-003 0. 0. 0. 0. 0.
      3.32811405e-003 -2.11965926e-002 0. 0. 0. 0. 6.63790433e-003
      4.60717548e-003 0. 0. 1.00800702e-002 0. 0. 0. 0. 8.24464671e-003
      0. 0. 7.37262471e-003 0. 0. 0. 0. 6.62191911e-003 0.
      4.39011725e-003 3.28269275e-003 0. 4.39011725e-003 0.
      -2.56410260e-002 0. 6.60117203e-003 0. 3.99300596e-003 0. 0. 0.
      -2.70270277e-002 5.34226652e-003 0. 0. 0. 5.85542526e-003
      8.24464671e-003 0. 6.52008504e-003 0. 8.29792395e-003
      1.04781687e-002 5.19937603e-003 0. 3.49362427e-003 0. 0. 0. 0. 0.
      0. 0. 3.08600208e-003 0. 1.04781687e-002 0. -1.81818176e-002
      -1.99999996e-002 -2.50000004e-002 0. 4.53693513e-003 0. 0.
      3.49362427e-003 0. 0. 0. 8.89918953e-003 4.78405692e-003 0. 0. 0.
      0. 0. 0. 6.22976618e-003 0. 0. 0. 0. 0. 0. 0. 0. 0. 0.
      7.36700557e-003 0. 1.29648587e-002 9.27633606e-003 8.68596230e-003
      -7.14238686e-003 4.09727311e-003 8.54912680e-003 4.53693513e-003
      9.07387026e-003 -3.33333351e-002 0. 0. 0. 0. 0. 0. 3.99300596e-003
      0. 0. 0. 5.29595744e-003 0. 0. 0. 0. 4.72024642e-003 0.
      4.21828823e-003 5.11919614e-003 0. 0. 0. 7.08762277e-003 0.
      5.88534819e-003 0. 5.34226652e-003 5.49663603e-003 0.
      4.05846070e-003 -1.10106759e-001 0. 0. 0. 4.44959477e-003 0. 0. 0.
      0. 0. 0. 0. 0. 0. 0. 7.19464384e-003 0. 0. 0. 0. 0. 0.
      3.43638053e-003 0. 3.32811405e-003 4.21828823e-003 7.35372119e-003
      5.29595744e-003 0. 0. 0. -1.68817919e-002 0. 0. 0. 0.
      1.15033630e-002 0. 6.63790433e-003 0. 3.20866741e-002 0.
      6.77270582e-003 1.44171705e-002 3.28269275e-003 0. 1.00630121e-002
      5.29595744e-003 0. 0. 0. 0. 0. 2.07049027e-003 0. 0. 0.
      5.85542526e-003 5.09139244e-003 0. 7.11237313e-003 4.60869167e-003
      0. 0. 0. 2.01260243e-002 0. 9.27633606e-003 1.40259257e-002
      4.09727311e-003 0. 5.20034274e-003 -1.81249492e-002 0.
      7.51967728e-003 3.49362427e-003 0. 0. 0. 6.38815900e-003
      6.56538550e-003 0. 0. 0. 0. 0. 7.94879533e-003 0. 6.62418967e-003
      4.55168402e-003 7.98601191e-003 0. 7.60038430e-003 6.85353717e-003
      7.27576017e-003 1.46390200e-002 0. 0. 0. 0. 0. 5.11773583e-003
      1.02383923e-002 0. -3.57142873e-002 0. 8.68596230e-003
      -3.12500000e-002 -2.56410260e-002 0. 5.06445207e-003
      7.08495919e-003 0. 6.85353717e-003 3.32811405e-003
      -2.43902430e-002 -1.53846154e-002 3.49362427e-003 0.
      5.09139244e-003 0. -1.99999996e-002 0. 0. 0. 0. 0. 0.
      -2.94117648e-002 0. 5.00498852e-003 0. 0. 0. 0. 0. 0. 0. 0.
      3.43638053e-003 -1.92249939e-002 6.77270582e-003 0. 0. 0.
      6.56538550e-003 5.43552125e-003 0. 5.09139244e-003 8.29792395e-003
      -7.85923153e-002 -3.57142873e-002 0. 0. 0. 6.62418967e-003
      -2.77777780e-002 6.63790433e-003 7.63759436e-003 0.
      -2.28287559e-002 5.06445207e-003 0. 0. 2.80041769e-002 0. 0. 0.
      -3.33333351e-002 0. 0. -3.33333351e-002 0. 0. 0. 0. 0. 0. 0.
      7.37262471e-003 0. 0. 0. 0. 3.31427553e-003 0. 2.01260243e-002 0.
      0. 0. 5.00498852e-003 5.07821562e-003 0. 0. 0. 0. 0. 0.
      4.60717548e-003 0. 0. 4.72024642e-003 0. 0. -2.77777780e-002 0.
      7.63759436e-003 -5.94412303e-003 0. 0. 0. -2.25582272e-002
      5.49663603e-003 0. 3.28269275e-003 2.60017142e-002 0.
      7.19718402e-003 0. 5.31005347e-003 3.32811405e-003 0. 0. 0.
      1.11318268e-002 0. 0. 2.94676307e-003 0. 3.85067984e-003
      7.94879533e-003 0. 0. 0. 6.38815900e-003 0. 0. 8.14206898e-003 0.
      0. 0. 0. 4.09727311e-003 0. 0. 0. 7.63759436e-003 0. 0.
      4.09727311e-003 0. 0. 0. 0. 1.85640566e-002 7.70135969e-003 0.
      7.60038430e-003 0. 0. 3.14902188e-003 0. 0. 0. 6.59082923e-003
      5.09139244e-003 0. 0. 1.62791349e-002 0. 5.88534819e-003 0.
      4.53693513e-003 0. 0. 0. 0. 0. 0. 1.17108505e-002 -5.12820520e-002
      0. 0. 4.13040724e-003 0. 1.18055139e-002 5.75168151e-003
      6.62191911e-003 0. 5.19937603e-003 1.13468263e-002
      -1.22014759e-002 -2.32558139e-002 0. 0. 0. 0. 0. 0.
      8.68596230e-003 1.12300776e-002 0. 0. 7.08495919e-003 0.
      4.72024642e-003 0. 1.11318268e-002 8.68596230e-003 0. 0. 0.
      7.27576017e-003 0. 0. 0. 0. 0. 3.59859201e-003 1.09932721e-002 0.
      5.00498852e-003 7.37262471e-003 0. 0. 0. 2.07049027e-003 0. 0. 0.
      0. 0. 3.59859201e-003 0. 4.38319054e-003 -9.37500000e-002 0.
      5.20034274e-003 0. -2.53845397e-002 7.89354462e-003
      4.67530871e-003 5.75168151e-003 4.05846070e-003 0. 5.11773583e-003
      0. 5.00498852e-003 0. 0. 9.88045987e-003 0. 5.29595744e-003 0.
      -4.54780385e-002 3.63788009e-003 0. 5.11773583e-003 0.
      5.76181849e-003 0. 0. 4.84878168e-004 0. 0. 0. 5.11773583e-003 0.
      0. 0. 7.36700557e-003 0. 4.55273036e-003 0. 4.21828823e-003
      3.28269275e-003 0. 0. 7.63759436e-003 0. 0. 3.86803481e-003 0.
      -3.12500000e-002 0. 0. 0. 0. 0. 0. 3.28269275e-003 0. 0.
      6.38815900e-003 0. 0. 0. 8.29792395e-003 4.67530871e-003 0.
      -1.53846154e-002 0. 0. -5.00000007e-002 -2.63157897e-002
      -6.25000000e-002 0. 0. 3.59859201e-003 0. -4.64478359e-002 0.
      -6.25000000e-002 0. 0. 0. 4.44959477e-003 6.79145614e-003 0.
      4.67530871e-003 0. 4.09727311e-003 0. 3.49362427e-003
      5.75168151e-003 0. 0. 7.60038430e-003 0. 0. 0. 0. 8.57971516e-003
      0. 0. -9.27276611e-002 0. 0. 2.03355309e-002 0. -1.23839239e-002
      0. 0. 0. 0. 1.62841380e-002 0. 0. 0. 0. 0. -2.35270672e-002
      4.93481383e-003 0. 0. 0. 6.18374441e-003 4.67530871e-003 0.
      3.08600208e-003 0. 0. 0. 5.49663603e-003 8.69055465e-003
      5.75168151e-003 3.14902188e-003 0. 0. 0. 0. 1.29648587e-002 0. 0.
      6.62191911e-003 4.84878168e-004 0. 0. -4.42755263e-005
      -1.13360263e-001 0. 5.34226652e-003 0. 0. 3.63788009e-003
      3.08600208e-003 6.85353717e-003 0. 0. 0. 0. 4.05846070e-003 0. 0.
      0. 0. -2.94117648e-002 0. 0. 6.77270582e-003 0. 0. 5.75168151e-003
      8.14206898e-003 5.75168151e-003 6.62418967e-003 0. 6.62418967e-003
      0. 3.28269275e-003 0. 0. 9.88045987e-003 0. 0. 5.11773583e-003 0.
      0. 5.20034274e-003 -2.70270277e-002 0. 0. 4.51380294e-003
      2.31299773e-002 7.30479741e-003 7.11237313e-003 0. 8.69055465e-003
      0. 5.19937603e-003 8.29792395e-003 0. 0. 4.09727311e-003 0.
      3.21532004e-002 0. 0. 0. 0. 0. 6.63163047e-003 0. 0.
      7.63759436e-003 0. 0. 0. 3.99300596e-003 0. 0. -2.70270277e-002 0.
      2.07049027e-003 0. 8.29792395e-003 0. 6.85353717e-003
      -3.33333351e-002 4.55273036e-003 0. 0. 0. 0. 0. 0. 0. 0.
      1.29261259e-002 8.33583903e-003 0. 0. 3.31427553e-003
      1.32023441e-002 0. 0. 0. 0. 0. 0. 8.89918953e-003 9.27633606e-003
      0. -4.87373434e-002 8.68596230e-003 7.63759436e-003 0.
      5.88534819e-003 0. 4.60869167e-003 0. 0. 0. 0. 4.67530871e-003 0.
      0. -1.10363113e-002 4.38319054e-003 0. 0. 0. 1.40259257e-002 0. 0.
      0. 4.55273036e-003 3.32811405e-003 -5.88235296e-002 0. 0. 0. 0. 0.
      0. 0. -1.39635289e-002 0. 0. 0. 0. 0. 0. -3.44827585e-002
      7.37262471e-003 0. 0. -1.26952026e-002 0. 4.72024642e-003
      7.63759436e-003 -1.02460384e-002 0. 0. 4.60869167e-003 0. 0. 0. 0.
      0. 6.18374441e-003 0. 0. 9.84807778e-003 0. 0. 0. 0.
      9.88045987e-003 7.19464384e-003 0. 0. -2.22222228e-002 0. 0. 0. 0.
      5.89352613e-003 -2.70270277e-002 0. 0. 4.53693513e-003 0.
      5.29595744e-003 0. 0. 0. 0. 0. 7.60038430e-003 0. 0.
      3.99300596e-003 0. 0. 0. 0. 0. 0. 0. 5.20034274e-003
      1.16868131e-002 0. 5.11773583e-003 -2.22222228e-002 0. 0. 0. 0.
      3.32811405e-003 7.72899948e-003 0. -1.45698516e-002 0. 0. 0.
      -1.99999996e-002 0. 0. 0. 0. 0. 7.36700557e-003 0. 0.
      7.51967728e-003 6.98724855e-003 8.14206898e-003 0. 3.86803481e-003
      0. 4.25071036e-003 5.84548106e-003 0. 7.28529831e-003
      8.24464671e-003 -1.58695932e-002 0. 0. 0. 7.19718402e-003
      4.44392161e-003 4.09727311e-003 0. 0. 0. 0. 0. 0. 0. 0. 0.
      -2.22222228e-002 4.25071036e-003 0. 6.11291314e-003
      1.12865083e-002 0. 1.28136370e-002 0. 0. 0. 3.49362427e-003 0.
      -4.50540846e-003 0. -5.75657897e-002 0. 0. 6.62418967e-003
      4.05846070e-003 0. 1.08710425e-002 5.00498852e-003 0. 0. 0. 0. 0.
      0. 0. 0. 0. 5.06445207e-003 0. 0. 5.31005347e-003 0. 0.
      3.94136598e-003 -3.33333351e-002 0. 1.79232825e-002 0.
      8.19454622e-003 8.97944346e-003 0. -1.53846154e-002 0. 0.
      3.86803481e-003 0. 7.89354462e-003 0. 0. 0. 4.55168402e-003
      7.89354462e-003 0. 0. 6.85353717e-003 0. 0. 4.38319054e-003 0.
      8.74453597e-003 0. 7.94879533e-003 -2.56410260e-002 0. 0.
      5.31005347e-003 0. 3.99300596e-003 0. 8.24464671e-003 0. 0. 0.
      8.89918953e-003 0. 0. 0. 0. 4.53693513e-003 0. -1.81818176e-002
      4.21828823e-003 0. 0. 0. 1.11318268e-002 4.09727311e-003 0.
      7.94879533e-003 0. 0. 4.55273036e-003 4.06981306e-003 0.
      1.00630121e-002 -2.27272734e-002 0. 4.72024642e-003 0. 0. 0.
      4.44959477e-003 -8.53107776e-003 0. 0. 0. 0. 5.61503880e-003 0. 0.
      0. 0. 0. 0. 0. 0. 0. 0. 0. 5.07821562e-003 -3.44827585e-002 0. 0.
      0. 0. 0. 0. 0. 0. 0. 0. 0. -7.77978497e-003 4.06981306e-003 0. 0.
      0. 0. 0. 0. 0. 0. 0. -2.23213769e-002 1.34857325e-002
      8.63420870e-003 5.31005347e-003 -1.99999996e-002 0. 0. 0. 0. 0.
      4.14098054e-003 0. 0. 0. 4.44392161e-003 0. 0. 6.62418967e-003 0.
      3.43638053e-003 7.26758828e-003 4.05846070e-003 0.
      -2.03437600e-002 0. 5.75168151e-003 3.49362427e-003
      -2.94117648e-002 3.28269275e-003 4.09727311e-003 0. 0. 0.
      -3.12000662e-002 0. 0. 0. 7.08495919e-003 0. 0. 0. 0. 0. 0. 0. 0.
      7.11237313e-003 0. 2.07049027e-003 -1.53846154e-002
      8.15662649e-003 4.60717548e-003 6.29804377e-003 0. 0. 0. 0.
      5.76181849e-003 4.06981306e-003 0. -2.22222228e-002 0.
      -1.99999996e-002 0. 5.19937603e-003 6.63790433e-003
      4.78405692e-003 0. -1.53846154e-002 0. 4.21828823e-003 0. 0.
      -3.12500000e-002 -1.23624047e-002 7.30479741e-003 0.
      4.53693513e-003 0. 0. -5.45385405e-002 0. 0. 0. 5.19937603e-003 0.
      5.11919614e-003 0. 0. 0. -2.63157897e-002 4.60869167e-003
      6.77270582e-003 5.11773583e-003 0. 0. 7.60038430e-003 0. 0.
      5.49663603e-003 0. 0. 0. 6.63790433e-003 0. 0. 0. 0. 0. 0.
      -1.96182858e-002 0. 3.86803481e-003 4.09727311e-003 0. 0. 0. 0. 0.
      1.04781687e-002 1.00630121e-002 0. 6.77270582e-003 7.08495919e-003
      0. 0. -2.70270277e-002 0. 0. 4.67530871e-003 0. 0. 0. 0.
      4.55168402e-003 0. 0. 0. 0. 0. 0. 0. 7.63759436e-003 0.
      8.40188935e-003 3.63788009e-003 0. 0. 0. 0. 5.75168151e-003 0.
      9.10226163e-003 0. 0. 0. 0. -2.27272734e-002 4.55168402e-003 0.
      -2.27272734e-002 0. 4.38319054e-003 0. 0. -2.06388682e-002
      6.18374441e-003 0. 0. 8.29792395e-003 0. 8.14206898e-003 0. 0. 0.
      0. 0. 3.49362427e-003 3.99300596e-003 0. 0. 0. 6.11291314e-003 0.
      0. 0. 0. 0. -1.99999996e-002 0. -1.53846154e-002 0. 0. 0. 0. 0. 0.
      0. 5.07821562e-003 0. 1.29648587e-002 0. 0. 0. 0. 4.55273036e-003
      0. 0. 0. 4.93481383e-003 0. -3.18707116e-002 0. 0. 4.44959477e-003
      0. 0. 5.11773583e-003 5.43552125e-003 4.39011725e-003 0.
      -3.33333351e-002 6.85353717e-003 0. 1.01315286e-002 0. 0. 0.
      5.84548106e-003 0. 6.62191911e-003 0. 5.11773583e-003 0. 0.
      7.93123432e-003 6.60117203e-003 0. 0. 0. -2.32558139e-002 0. 0.
      5.88534819e-003 0. -3.84615399e-002 0. 0. 0. 0. -1.53846154e-002
      0. 0. 0. 3.08600208e-003 0. 5.06445207e-003 0. 2.55461149e-002
      1.02354717e-002 6.63790433e-003 -2.32558139e-002 0.
      6.63790433e-003 7.30479741e-003 0. 5.34226652e-003
      -2.22222228e-002 0. 0. 3.44216614e-003 8.24464671e-003 0.
      5.06445207e-003 0. 4.39011725e-003 0. 6.88433228e-003 0. 0. 0.
      4.05846070e-003 5.84548106e-003 0. 0. 4.55168402e-003 0. 0. 0. 0.
      0. 0. 5.20034274e-003 0. 0. 0. 7.68709090e-003 0. 0.
      -2.85046976e-002 0. 0. 0. 0. 0. 0. 0. 0. 9.27633606e-003
      1.18005481e-002 -3.33333351e-002 0. 1.48825515e-002
      4.78405692e-003 3.31427553e-003 8.54912680e-003 4.67530871e-003 0.
      4.44959477e-003 0. 9.88045987e-003 0. 0. 4.13040724e-003 0. 0.
      -1.99999996e-002 0. 0. 0. 1.00630121e-002 4.37226798e-003
      4.38319054e-003 4.06981306e-003 0. 0. 0. 0. 0. 2.09229439e-002
      -1.32272942e-002 4.44959477e-003 0. 0. 0. 4.44959477e-003 0.
      4.21828823e-003 4.44959477e-003 0. 7.63759436e-003 0. 0. 0. 0. 0.
      0. -3.34243327e-002 0. 0. -1.25753377e-002 0. 0. 3.99300596e-003
      7.28529831e-003 7.51967728e-003 0. -2.63157897e-002 0. 0. 0. 0. 0.
      0. 1.34249311e-002 0. 0. 0. 0. 3.86803481e-003 0. 0.
      4.39011725e-003 0. 0. 0. 0. 0. 0. 0. -4.03846167e-002 0. 0. 0.
      8.57971516e-003 0. 0. 0. 6.63790433e-003 0. 0. 0. 0. 0. 0. 0. 0.
      0. 0. 7.89354462e-003 -5.46482252e-003 0. 0. -1.81818176e-002
      1.06492899e-002 0. 0. 0. 0. 0. 3.86803481e-003 5.61503880e-003
      2.98640374e-002 4.39011725e-003 0. 3.86803481e-003 4.06981306e-003
      0. 0. 0. 0. 3.08600208e-003 1.08887292e-002 9.44407284e-003
      1.00630121e-002 0. 0. 0. 0. 0. 0. 0. 0. 0. 0. 0. 0. 0. 0. 0. 0. 0.
      0. 0. 0. 0. 6.79145614e-003 4.53693513e-003 3.14902188e-003 0.
      4.06981306e-003 0. 0. 5.19937603e-003 5.11773583e-003
      4.25071036e-003 4.84878168e-004 0. 0. 0. 0. 0. 7.36700557e-003 0.
      0. 0. 3.59859201e-003 3.14902188e-003 -2.56410260e-002 0. 0. 0. 0.
      6.63163047e-003 1.16356937e-002 0. 2.07049027e-003 4.53693513e-003
      0. -8.90548155e-003 6.27995795e-003 0. -2.27272734e-002 0. 0. 0.
      0. 0. 6.59082923e-003 0. 0. 3.08600208e-003 0. 0. 0. 0. 0.
      2.07049027e-003 7.89354462e-003 0. 7.26758828e-003 0. 0. 0. 0. 0.
      0. 0. -1.53846154e-002 0. 0. 1.11318268e-002 0. 0. 0.
      5.19937603e-003 0. -4.18230668e-002 5.49663603e-003 0. 0. 0.
      4.16791951e-003 7.93123432e-003 0. 0. 0. 0. 0. 0. 0. 0. 0.
      1.16909621e-002 0. 0. 0. 0. 0. 0. 0. 0. 4.78405692e-003 0.
      -7.99793899e-002 1.04999738e-002 0. 0. 0. 0. 0. 4.53693513e-003 0.
      4.38319054e-003 3.28269275e-003 0. 0. 5.11773583e-003
      3.13997897e-003 -1.10694440e-002 0. 3.44216614e-003 0. 0. 0.
      1.11318268e-002 0. 1.69139300e-002 0. 0. 0. 0. 0. 0. 0. 0.
      6.60117203e-003 0. 0. 0. 0. 3.99300596e-003 0. 0. 0.
      -3.22580636e-002 0. 0. 0. 0. 0. 0. 4.05846070e-003 6.88433228e-003
      0. 3.32811405e-003 0. 0. 0. 0. 0. 0. 3.59859201e-003 0. 0. 0. 0.
      7.35372119e-003 4.16791951e-003 7.35372119e-003 -2.22222228e-002
      0. 0. 0. 0. 0. 0. 1.34380264e-002 3.08600208e-003 8.24464671e-003
      0. 0. 0. 0. 0. 0. 0. 0. 1.47288786e-002 0. 0. 0. 0. 0. 0. 0.
      7.08495919e-003 6.77270582e-003 3.14902188e-003 6.77270582e-003 0.
      0. 0. 3.49362427e-003 0. 0. 0. 1.07351774e-002 7.89354462e-003 0.
      -2.94117648e-002 5.29595744e-003 5.11773583e-003 3.08600208e-003
      0. 0. 0. 5.00498852e-003 0. 0. 0. 0. 7.65466876e-003 0. 0. 0. 0.
      0. 0. 7.26758828e-003 0. 0. -2.22222228e-002 0. 4.09727311e-003
      3.99300596e-003 0. 4.93481383e-003 0. 0. 7.19464384e-003 0. 0.
      4.25071036e-003 5.29595744e-003 3.32811405e-003 1.05738621e-002 0.
      0. 0. 0. 0. 2.94676307e-003 0. 1.43568451e-002 0. 0. 0. 0. 0. 0.
      0. -1.67131808e-003 0. 7.28529831e-003 0. 0. 0. 0. 0. 0.
      -8.43870640e-003 0. 0. -4.40764949e-002 -2.27272734e-002
      4.55168402e-003 0. 0. 0. 0. 7.51967728e-003 0. 0. 0.
      5.20034274e-003 0. 0. 7.60038430e-003 0. 4.05846070e-003 0. 0. 0.
      8.69240891e-003 0. 0. 3.13997897e-003 0. 0. 1.78006422e-002
      4.44959477e-003 0. 3.43638053e-003 0. 0. 0. 4.67530871e-003 0. 0.
      5.09139244e-003 5.75168151e-003 0. 4.39011725e-003 0. 0.
      7.08762277e-003 0. 0. 3.32811405e-003 6.18374441e-003
      4.16791951e-003 0. 1.73804071e-002 0. 3.63788009e-003 0. 0.
      7.89354462e-003 6.85353717e-003 0. 4.37226798e-003 0. 0. 0.
      4.51380294e-003 0. 0. 0. 3.14902188e-003 0. 4.44959477e-003 0. 0.
      0. 0. 0. 0. 0. 6.59082923e-003 0. 0. 0. 0. 0. 0. 0.
      8.29792395e-003 0. 6.62418967e-003 0. 0. 0. 6.79145614e-003
      7.35372119e-003 1.39974942e-002 9.21738334e-003 0. 0. 0. 0. 0. 0.
      0. 0. 0. 0. 1.09731611e-002 5.34226652e-003 0. 0. 0. 0. 0. 0. 0.
      0. 0. 0. 0. 0. 3.13997897e-003 0. 0. -1.28053557e-002 0. 0. 0.
      3.14902188e-003 0. 4.06981306e-003 0. 6.85353717e-003 0. 0. 0. 0.
      0. -2.22222228e-002 0. -5.41038550e-002 0. 5.88534819e-003
      4.39011725e-003 0. 0. 0. 4.60869167e-003 0. 7.89354462e-003 0.
      5.75168151e-003 0. 0. 0. 3.14902188e-003 0. 4.67530871e-003 0.
      3.63788009e-003 0. 4.39011725e-003 4.13040724e-003 4.55273036e-003
      7.63759436e-003 0. 0. 7.36165885e-003 0. 0. 0. 0. 0. 0. 0. 0. 0.
      0. -4.44444455e-002 8.29792395e-003 8.26081447e-003 0. 0. 0. 0. 0.
      0. 3.43638053e-003 0. 3.59859201e-003 0. 0. 8.14206898e-003
      5.11773583e-003 0. 4.51380294e-003 7.36700557e-003 5.88534819e-003
      6.60117203e-003 0. 5.20034274e-003 0. 4.09727311e-003 0.
      -4.71798480e-002 7.35372119e-003 0. 0. 0. 8.68596230e-003
      -5.12820520e-002 0. -1.13140373e-002 0. 0. 3.49362427e-003
      6.85353717e-003 0. 0. 0. 0. 0. 0. 3.31427553e-003 5.34226652e-003
      -2.32558139e-002 0. -2.27272734e-002 6.85353717e-003
      4.37226798e-003 0. 5.75168151e-003 0. 0. 7.36700557e-003 0.
      -3.12500000e-002 0. 0. 4.78405692e-003 1.51412282e-002
      3.32811405e-003 6.79145614e-003 0. 0. 5.75168151e-003
      -1.99999996e-002 7.63759436e-003 0. 0. 0. 0. 0. 5.11773583e-003 0.
      0. 0. 5.00498852e-003 0. 1.09498007e-002 0. 0. 7.63759436e-003 0.
      0. 5.20034274e-003 0. 0. 0. 0. 0. 5.07821562e-003 0. 0. 0. 0.
      7.08762277e-003 0. 0. 0. 0. 5.34226652e-003 0. 8.69055465e-003 0.
      5.34226652e-003 4.72024642e-003 0. 4.67530871e-003 5.11919614e-003
      0. 0. 0. 5.88534819e-003 1.32438382e-002 8.57971516e-003 0.
      5.00498852e-003 3.31427553e-003 6.38815900e-003 1.42808491e-002 0.
      7.51967728e-003 0. 0. 0. 0. 0. 0. -5.99999987e-002
      -2.32558139e-002 0. 5.07821562e-003 0. 0. 0. 1.00630121e-002
      -2.70270277e-002 0. 1.13667203e-002 0. 0. 5.11919614e-003 0. 0. 0.
      0. 0. 5.31005347e-003 5.00498852e-003 0. 0. 0. 0. 6.59082923e-003
      -1.53846154e-002 0. 0. 3.43638053e-003 9.27633606e-003 0. 0.
      -2.43902430e-002 0. 6.79145614e-003 0. 0. 0. 4.55273036e-003 0. 0.
      0. 0. 0. 3.44216614e-003 0. 8.57971516e-003 0. 0. 0.
      7.93123432e-003 0. 0. 0. 4.53693513e-003 0. 0. 0. 0. 0. 0. 0. 0.
      0. 6.63163047e-003 0. 0. 4.25071036e-003 7.30479741e-003
      4.55273036e-003 2.07049027e-003 4.55168402e-003 3.44216614e-003 0.
      0. 0. 0. 0. 0. 6.18374441e-003 0. 0. 0. 0. -2.32558139e-002
      -2.38829944e-002 0. 9.27633606e-003 0. 0. 0. 3.14902188e-003 0. 0.
      0. 0. 4.25071036e-003 -2.70270277e-002 0. 1.32120345e-002 0. 0. 0.
      0. 7.08762277e-003 -2.70270277e-002 4.60869167e-003
      -3.33333351e-002 0. 0. 0. 3.13997897e-003 0. 0. 0. 0. 0. 0. 0. 0.
      0. 0. 0. 8.83211102e-003 4.38319054e-003 0. 0. 0. 6.79073622e-003
      -1.53846154e-002 0. 0. 0. 0. 0. 0. 0. 0. 0. 0. 0. -2.27272734e-002
      0. 0. 0. 0. 8.67680833e-003 8.68596230e-003 3.32811405e-003 0. 0.
      0. 1.40296565e-002 5.75168151e-003 4.84878168e-004 0. 0. 0.
      8.57971516e-003 0. 0. 0. 0. 0. 4.06981306e-003 9.08993278e-003 0.
      0. 4.37226798e-003 0. 0. 8.52777343e-003 2.07049027e-003
      6.79145614e-003 3.86803481e-003 0. 0. 7.93123432e-003 0. 0. 0.
      -2.32558139e-002 0. 0. 7.89354462e-003 0. 9.27633606e-003
      3.31427553e-003 0. 3.63788009e-003 0. 5.19937603e-003 0.
      4.37226798e-003 0. 0. -2.50000004e-002 0. 4.09727311e-003
      5.76181849e-003 7.26758828e-003 0. 0. 9.88045987e-003 0. 0.
      5.84548106e-003 0. 0. 5.29595744e-003 3.32811405e-003
      6.59082923e-003 0. 3.99300596e-003 0. 0. 0. 3.99300596e-003 0. 0.
      0. -7.70364935e-003 6.60117203e-003 0. 0. 0. 4.60869167e-003 0. 0.
      0. 0. 0. 0. 0. -1.53846154e-002 1.00099770e-002 0. 0. 0. 0.
      -1.53846154e-002 0. 0. 0. 5.07821562e-003 0. 4.55273036e-003 0. 0.
      0. 0. -3.44827585e-002 0. 0. 4.55168402e-003 -4.87804860e-002
      8.14206898e-003 4.44959477e-003 0. 0. 5.88534819e-003 0.
      4.55168402e-003 -1.81818176e-002 8.45300313e-003 0.
      7.63759436e-003 -2.22222228e-002 3.49362427e-003 0.
      2.94676307e-003 0. 0. 7.61008589e-003 1.48679726e-002
      4.84878168e-004 -7.99373090e-002 4.39011725e-003 0. 0. 0. 0. 0. 0.
      -2.32558139e-002 5.76181849e-003 0. 0. 0. 3.85067984e-003 0. 0. 0.
      1.02354717e-002 0. 1.04781687e-002 3.86803481e-003 0. 0.
      1.30123487e-002 5.43552125e-003 0. -3.57142873e-002 0. 0. 0. 0.
      9.27633606e-003 6.63163047e-003 0. 0. 0. 0. 0. 0. 0. 0.
      -3.33333351e-002 0. 0. 0. 0. 6.62191911e-003 0. 0. 0. 0. 0. 0. 0.
      0. -1.81818176e-002 0. 0. 6.63163047e-003 7.63759436e-003
      4.05846070e-003 0. 0. -1.81818176e-002 5.75168151e-003
      6.62418967e-003 0. 4.37226798e-003 5.06445207e-003 0. 0.
      1.29648587e-002 4.13040724e-003 0. 0. 0. 0. 1.65260341e-002
      3.28269275e-003 0. 0. 0. 3.59859201e-003 0. 0. 0. 0. 0.
      8.55557714e-003 0. 0. 0. 0. 0. 0. 0. 0. 5.85542526e-003
      4.21828823e-003 4.72024642e-003 -1.13140373e-002 0. 0.
      7.60038430e-003 0. 0. -1.99999996e-002 5.43552125e-003 0. 0.
      5.09139244e-003 5.88534819e-003 0. 5.20034274e-003 0. 0. 0. 0. 0.
      0. 2.39517894e-002 0. 0. 0. 1.43892877e-002 0. 8.57971516e-003 0.
      0. 0. 0. 0. -2.77777780e-002 -1.53846154e-002 0. 0.
      4.37226798e-003 0. 0. -3.22580636e-002 0. 0. 5.75168151e-003
      3.49362427e-003 0. 3.14902188e-003 0. 0. 0. -1.77726280e-002 0.
      -6.66666701e-002 0. 0. 5.75168151e-003 0. 0. -2.70270277e-002
      5.49663603e-003 0. 0. 4.37226798e-003 0. 1.52751887e-002 0.
      -1.38766468e-002 3.85067984e-003 1.45705966e-002 0. 0. 0.
      7.26758828e-003 7.36700557e-003 5.29595744e-003 0. 0.
      5.00498852e-003 0. 0. 5.07821562e-003 5.07821562e-003 0. 0. 0. 0.
      3.86803481e-003 6.77270582e-003 0. 0. 0. 0. 0. 0. 0. 0. 0. 0.
      -1.99999996e-002 0. 4.55273036e-003 0. 0. -2.70270277e-002
      1.47452494e-002 0. 0. 0. 0. 4.53693513e-003 0. 0. 0. 0. 0.
      4.06981306e-003 7.37262471e-003 0. 0. 0. 0. 0. 0. 3.86803481e-003
      0. 3.59859201e-003 0. 5.19937603e-003 0. 4.13040724e-003 0. 0.
      5.00498852e-003 0. 0. 4.25071036e-003 7.60038430e-003 0. 0. 0. 0.
      0. 0. 0. 0. 5.11773583e-003 5.00498852e-003 0. 0. 0.
      7.26758828e-003 0. 4.44392161e-003 0. 6.17200416e-003
      9.44049284e-003 -1.56151680e-002 0. 4.60717548e-003 0. 0.
      6.38815900e-003 0. 1.50393546e-002 0. 0. 0. 0. 6.63790433e-003
      3.14902188e-003 -2.43902430e-002 3.14902188e-003 0.
      6.63790433e-003 -2.25582272e-002 0. 0. 0. 7.89354462e-003
      4.44959477e-003 0. 0. 0. 0. 0. 8.69055465e-003 0. 0.
      -2.43902430e-002 7.26758828e-003 0. 0. 0. 0. 0. 0. 8.68596230e-003
      -1.81818176e-002 6.85353717e-003 0. 0. -2.82156002e-002
      3.14902188e-003 0. 0. 0. 3.08600208e-003 0. 0. 0. 0. 0.
      5.20034274e-003 -2.27272734e-002 0. 3.86803481e-003
      -2.22222228e-002 7.60038430e-003 -4.76460569e-002 2.07049027e-003
      3.63788009e-003 3.63788009e-003 0. 0. 0. 0. -1.84251983e-002 0. 0.
      0. 0. 0. 0. 0. 0. 3.99300596e-003 8.29792395e-003 0. 0. 0. 0.
      2.29467973e-002 0. -2.77777780e-002 0. 0. 0. 0. 0. 8.57971516e-003
      0. 9.88045987e-003 0. 0. 0. 0. 0. 0. -2.32558139e-002
      7.08495919e-003 -1.99999996e-002 0. 0. 0. 0. 0. 0. 3.85067984e-003
      0. 5.84548106e-003 0. 0. 0. -1.53846154e-002 5.07821562e-003
      6.92569884e-003 0. 8.24464671e-003 0. 3.28269275e-003 0.
      4.37226798e-003 0. 4.67530871e-003 7.30479741e-003 0.
      6.63790433e-003 0. 0. 6.62191911e-003 6.79145614e-003 0.
      9.27633606e-003 4.60717548e-003 0. 2.07049027e-003 6.60117203e-003
      4.06981306e-003 7.11237313e-003 -3.84615399e-002 0. 0. 0. 0.
      -2.56410260e-002 0. 0. 0. 3.95830274e-002 0. 0. 0. 0.
      2.11069286e-002 0. 4.05846070e-003 3.28269275e-003 0.
      -2.70270277e-002 5.11773583e-003 0. 0. 0. 0. 5.20034274e-003 0. 0.
      1.74022913e-002 4.09727311e-003 0. 6.62191911e-003 0.
      5.20034274e-003 0. 0. 0. 1.13851763e-002 0. 7.89354462e-003
      -3.04129459e-002 7.08762277e-003 0. 4.84878168e-004 0.
      8.29792395e-003 0. 0. 6.18374441e-003 5.84548106e-003 0.
      -7.43193477e-002 8.57971516e-003 0. 0. 0. 0. 0. 0. 3.49362427e-003
      0. 0. 0. 2.07049027e-003 0. 1.11318268e-002 0. 0. 0. 0. 0.
      5.09139244e-003 0. 5.00498852e-003 0. 0. 0. 0. 3.08600208e-003 0.
      4.84878168e-004 0. 0. 0. 0. 7.51967728e-003 -1.53846154e-002
      3.28269275e-003 8.13962612e-003 5.00498852e-003 -5.26315793e-002
      0. 0. -2.72204224e-002 1.29648587e-002 0. 9.44049284e-003 0.
      7.19718402e-003 0. 0. 5.85542526e-003 0. 0. 0. 0. 0. 0. 0. 0.
      -4.87524942e-002 0. 0. 0. 0. 3.32811405e-003 3.28269275e-003
      -2.86019146e-002 0. 0. 0. 0. 0. 0. 0. 0. 0. -2.27272734e-002 0.
      8.02081544e-003 0. 0. 0. 0. 0. -2.27272734e-002 0. 7.35372119e-003
      -1.95151214e-002 0. 0. 0. 0. 0. 0. 7.93123432e-003 0. 0. 0. 0. 0.
      0. 0. 0. 0. 0. 0. 0. 6.11291314e-003 3.13997897e-003 0. 0.
      2.94676307e-003 0. 0. 0. 0. 0. 0. 3.59859201e-003 0. 0.
      3.14902188e-003 5.34226652e-003 0. 7.26758828e-003 0.
      3.08600208e-003 2.07049027e-003 7.37262471e-003 0. 0.
      -2.27272734e-002 0. 0. 6.08674204e-003 0. 0. -3.44827585e-002
      3.31427553e-003 -3.35420854e-002 0. 0. 3.44216614e-003
      5.34226652e-003 0. -2.56410260e-002 0. 4.84878168e-004 0. 0. 0.
      6.77270582e-003 0. 8.69055465e-003 0. 0. 3.13997897e-003
      3.43638053e-003 0. 3.63788009e-003 0. 0. 0. 0. 0. -1.90732013e-002
      0. -2.32558139e-002 0. 5.00498852e-003 4.44959477e-003
      6.59082923e-003 5.09139244e-003 0. 0. 0. 0. 0. -2.56410260e-002
      -2.50000004e-002 0. 8.68596230e-003 0. 0. 0. 6.62418967e-003 0. 0.
      4.93481383e-003 0. 0. 5.19937603e-003 0. 0. 0. 0. 0. 0.
      1.45705966e-002 0. 3.49362427e-003 4.21828823e-003 0.
      6.38815900e-003 4.55168402e-003 0. 0. 8.56180210e-003
      5.00498852e-003 0. 7.37262471e-003 0. 7.36700557e-003
      -1.99999996e-002 7.30479741e-003 3.49362427e-003 -2.27272734e-002
      0. 3.49362427e-003 0. 0. 0. 4.72024642e-003 0. 0. 3.43638053e-003
      0. 0. -2.94117648e-002 0. 0. 0. 0. 7.08762277e-003</_></support_vectors>
  <decision_functions>
    <_>
      <sv_count>1</sv_count>
      <rho>-9.9571959549339140e-001</rho>
      <alpha>
        1.</alpha>
      <index>
        0</index></_></decision_functions></my_svm>
</opencv_storage>
