<?xml version="1.0"?>
<opencv_storage>
<my_svm type_id="opencv-ml-svm">
  <svm_type>C_SVC</svm_type>
  <kernel><type>LINEAR</type></kernel>
  <C>1.</C>
  <term_criteria><epsilon>2.2204460492503131e-016</epsilon>
    <iterations>100</iterations></term_criteria>
  <var_all>10000</var_all>
  <var_count>10000</var_count>
  <class_count>2</class_count>
  <class_labels type_id="opencv-matrix">
    <rows>1</rows>
    <cols>2</cols>
    <dt>i</dt>
    <data>
      -1 1</data></class_labels>
  <sv_total>1</sv_total>
  <support_vectors>
    <_>
      9.30460915e-003 0. 0. -2.27272734e-002 -2.77777780e-002
      8.48209765e-003 0. 1.96305737e-002 0. 3.64543195e-003 0.
      -1.96078438e-002 0. 0. 0. -1.40845068e-002 -1.44927539e-002
      -1.71191804e-002 0. 0. -2.25878768e-002 0. 0. -2.43902430e-002
      -2.04081628e-002 0. 0. 6.67402847e-003 4.23157122e-003 0. 0.
      2.42283717e-002 0. 0. 0. 0. 4.50777495e-003 0. 0. 0.
      5.15250489e-003 0. 0. 0. 0. 0. 0. 0. -1.88679248e-002
      1.99161470e-002 0. 0. -1.88679248e-002 5.96853485e-003 0. 0. 0. 0.
      -1.99655276e-002 0. 1.33137181e-002 -2.01949477e-003 0.
      4.95294947e-003 0. -2.01564170e-002 0. -1.96078438e-002
      1.77975968e-002 1.08262878e-002 -4.08163257e-002 1.02655329e-002
      4.91838856e-003 -7.13408068e-002 4.91838856e-003 2.63642822e-003
      1.18958298e-002 -1.96078438e-002 6.03375724e-003 0.
      -2.56410260e-002 0. 0. 0. 9.23591014e-003 0. 2.00896040e-002
      2.51573436e-002 9.39187128e-003 -2.63157897e-002 0. 0.
      8.80962890e-003 8.80962890e-003 8.28208867e-003 1.21141858e-002 0.
      7.97541812e-003 0. 9.22297966e-003 0. 0. 0. 0. 1.11508248e-002 0.
      0. 1.33137181e-002 9.22297966e-003 5.94241638e-003 0.
      1.17534781e-002 0. -2.27272734e-002 0. 0. 4.82699927e-003 0.
      1.19131189e-002 0. 5.63546875e-003 1.01056248e-002
      -6.35569915e-003 0. -7.32944021e-003 0. -3.61804366e-002
      7.88714644e-003 0. 0. 0. 0. -2.81690136e-002 0. 0. 2.06504241e-002
      1.04286764e-002 0. 0. 2.96990275e-002 -1.56250000e-002
      1.05060311e-002 1.33369826e-002 1.17534781e-002 0. 2.02983860e-002
      0. -2.94117648e-002 -2.32558139e-002 1.89582836e-002
      1.45137720e-002 9.22297966e-003 4.82699927e-003 5.40379481e-003 0.
      8.72067083e-003 0. 0. 0. 0. 0. 0. 4.49639512e-003 7.26916688e-003
      1.57742929e-002 0. -1.51508965e-003 5.57541242e-003
      -3.96260107e-003 9.22297966e-003 0. 0. 0. -2.43902430e-002 0.
      8.48209765e-003 -1.05276750e-002 0. 0. 0. 0. 0. 1.74413417e-002
      -1.88107956e-002 0. 2.93815900e-002 0. 0. -1.19145699e-002
      1.82083100e-002 0. 0. -7.20251957e-003 4.73424885e-003
      1.17534781e-002 0. -2.18581278e-002 4.73957090e-003
      9.67018772e-003 0. 0. 0. 1.05060311e-002 2.98867468e-002 0.
      3.36202420e-002 0. 0. -8.83693807e-003 0. 0. 0. 2.02983860e-002
      -1.46568799e-002 1.49744647e-002 -1.96078438e-002 0.
      1.29896784e-002 1.19131189e-002 -2.98507456e-002 -1.96078438e-002
      8.05911422e-003 8.89694598e-003 0. 0. 1.05060311e-002 0. 0. 0.
      -1.44927539e-002 1.92196406e-002 0. 0. 0. 1.17534781e-002 0.
      -4.87661585e-002 0. 0. 8.91319104e-003 -5.22826873e-002
      9.67018772e-003 1.96704641e-002 4.73957090e-003 2.94117648e-002
      4.73424885e-003 0. 0. 7.26916688e-003 6.67402847e-003
      1.17534781e-002 0. -2.56410260e-002 -7.93521032e-002 0.
      1.03792669e-002 0. 1.20629678e-002 0. 0. 0. 5.40379481e-003 0.
      4.95294947e-003 0. 9.42687597e-003 0. 0. 0. 0. 0. 0. 0. 0.
      8.03377945e-003 0. 0. 0. 1.13106510e-002 0. 1.22337798e-002
      -1.81818176e-002 0. 2.83072572e-002 0. 0. 4.73957090e-003 0.
      4.51644836e-003 8.28208867e-003 8.82448535e-003 0. 9.38804168e-003
      0. 7.97541812e-003 0. 9.39187128e-003 0. -1.88679248e-002
      -2.22222228e-002 3.99411544e-002 9.18369833e-003 -4.25901785e-002
      -3.66630182e-002 0. -2.11802442e-002 0. 0. -1.96078438e-002 0. 0.
      -4.13393974e-002 -1.63934417e-002 1.15384087e-002 -2.56410260e-002
      4.59657423e-003 1.01491930e-002 0. 8.96064844e-003 6.12304453e-003
      1.33369826e-002 -5.00000007e-002 4.82699927e-003 -2.04081628e-002
      0. -6.81818202e-002 0. 0. 4.49639512e-003 -4.65116277e-002 0. 0.
      1.42479232e-002 1.40207382e-002 0. 0. 1.79213118e-002
      -1.06637869e-002 7.63720600e-003 0. 0. -3.92156877e-002
      -3.71210016e-002 8.84943269e-003 -3.50986458e-002 8.52963980e-003
      0. 0. 1.74885318e-002 5.54710673e-003 7.97541812e-003 0.
      9.35903005e-003 1.08188111e-002 -2.56410260e-002 0.
      4.15475341e-003 0. 0. 1.01056248e-002 -2.55840346e-002 0.
      1.94936674e-002 6.42232364e-003 1.16606019e-002 0. 0.
      2.90105641e-002 3.55877839e-002 6.57071080e-003 8.57660826e-003 0.
      1.54315364e-002 0. 0. 4.23157122e-003 0. 1.05573377e-002 0.
      -3.03030312e-002 0. -1.72413792e-002 0. 0. -4.65391465e-002 0. 0.
      1.01425797e-002 0. 1.18958298e-002 4.51644836e-003
      -1.96078438e-002 -1.15740644e-002 0. -2.40154695e-002
      8.96064844e-003 0. 0. 0. 0. 8.28208867e-003 9.42687597e-003 0. 0.
      4.15475341e-003 1.05060311e-002 3.50723453e-002 0. 0.
      8.39078706e-003 1.04286764e-002 0. 2.42767297e-003 0. 0.
      1.09478924e-002 -1.56250000e-002 0. 0. -2.43902430e-002
      9.67018772e-003 1.04286764e-002 0. 1.40207382e-002 0. 0.
      9.38804168e-003 4.02902998e-003 0. 1.36797931e-002 0. 0.
      3.64543195e-003 1.19145876e-002 1.03792669e-002 1.20629678e-002 0.
      0. 8.13268591e-003 0. -2.77777780e-002 8.46314244e-003 0.
      -9.19117592e-004 -1.31625226e-002 1.79212969e-002 0. 0.
      -6.35458203e-003 1.05879521e-002 1.84459593e-002 0.
      -2.81690136e-002 5.47394622e-003 0. -2.16119960e-002
      -2.63157897e-002 0. 0. 2.26812996e-002 0. 8.52963980e-003
      1.31414216e-002 0. -1.84122305e-002 -2.97095068e-002 0. 0.
      -2.60714591e-002 -3.12500000e-002 0. 4.95294947e-003 0.
      -1.33333337e-002 0. 0. 0. 0. 4.15475341e-003 0. 8.22221860e-003
      -1.44927539e-002 6.67402847e-003 0. -1.81818176e-002
      5.63546875e-003 1.13539919e-002 0. 0. 0. 0. 7.88714644e-003
      4.36033541e-003 -2.27272734e-002 -3.47882845e-002 0. 0. 0. 0. 0.
      4.65903385e-003 0. 1.83771290e-002 0. 0. 7.88714644e-003 0.
      -1.44927539e-002 1.64167862e-002 -3.48961446e-003 2.90105641e-002
      8.96064844e-003 0. 5.78224426e-003 -7.47524144e-004
      9.22297966e-003 4.91838856e-003 4.15475341e-003 0. 0.
      8.39078706e-003 0. 0. 0. 9.39187128e-003 0. 1.84718203e-002
      8.91319104e-003 -8.84940196e-003 -6.25000000e-002 7.26916688e-003
      0. -3.92156877e-002 1.88968182e-002 0. 1.32798515e-002 0. 0. 0.
      1.21336011e-002 -1.70918051e-002 9.23591014e-003 -2.04081628e-002
      0. -1.40845068e-002 0. 4.49639512e-003 2.38262378e-002
      1.33369826e-002 1.19145876e-002 0. 3.64543195e-003 4.15475341e-003
      0. -1.40845068e-002 0. 0. 0. -1.56250000e-002 1.00388601e-002 0.
      0. -2.56410260e-002 0. 1.05060311e-002 0. 0. 9.85712651e-003
      8.52963980e-003 0. -2.77777780e-002 -2.02354901e-002
      9.07251984e-003 0. 0. 1.37323048e-002 -1.96078438e-002 0.
      1.62113849e-002 0. 0. -2.22222228e-002 0. 2.13863347e-002 0. 0. 0.
      0. -3.12500000e-002 1.71752460e-002 -1.72413792e-002
      7.63720600e-003 0. 6.57071080e-003 0. 1.13539919e-002 0. 0. 0. 0.
      2.82376930e-002 4.36033541e-003 0. -3.91631089e-002 0.
      -5.03944978e-003 0. 0. 7.97541812e-003 0. 1.00388601e-002
      4.70324373e-003 8.05086456e-003 0. 0. 0. 6.12304453e-003 0. 0.
      1.16606019e-002 1.17534781e-002 0. 0. 0. 0. 0. 4.23157122e-003
      -1.63934417e-002 4.73957090e-003 -2.22222228e-002 0.
      -1.70741808e-002 0. 8.22221860e-003 0. 1.52744120e-002 0.
      -4.79660742e-003 1.76988654e-002 5.30069042e-003 1.13539919e-002
      0. 0. 0. 3.40619758e-002 -5.94569882e-003 0. -2.39735562e-002 0.
      0. 0. 0. 0. 0. 0. 0. -4.09742352e-003 0. -1.96078438e-002
      6.42232364e-003 0. 0. 9.39187128e-003 8.39078706e-003
      2.17593517e-002 7.29086390e-003 0. 0. -1.33333337e-002
      6.03375724e-003 9.68716852e-003 6.67402847e-003 0. 1.00388601e-002
      0. 1.11565720e-002 0. 7.88714644e-003 -5.65174147e-002
      1.19145876e-002 0. 0. -1.88679248e-002 0. 0. -2.56410260e-002
      -8.94448441e-003 6.67402847e-003 1.33480569e-002 0.
      -3.21667530e-002 0. -1.82308778e-002 0. 0. 1.38210580e-002
      4.95751575e-003 1.66413207e-002 0. 0. 2.23306436e-002
      4.82699927e-003 6.80287601e-003 2.02112496e-002 2.40939241e-002
      8.20330530e-003 4.15475341e-003 -8.10705998e-004 0.
      7.63720600e-003 0. 0. 0. 1.33458283e-002 8.22221860e-003 0. 0.
      8.52963980e-003 0. 0. 0. 1.40207382e-002 8.30950681e-003 0.
      8.28208867e-003 1.84718203e-002 7.26916688e-003 1.65213756e-002
      4.84358426e-003 1.41346548e-002 0. -7.14910552e-002 0. 0.
      -4.54545468e-002 4.70324373e-003 0. 0. 0. 0. 2.00521983e-002
      2.00777203e-002 0. 0. 0. 0. -6.93165213e-002 -4.14233916e-002
      8.82448535e-003 -1.56226223e-002 2.82806270e-002 0.
      4.95294947e-003 0. 0. 0. 8.89694598e-003 -5.49849682e-003 0.
      9.18369833e-003 1.45020662e-002 0. 8.89694598e-003 0.
      1.77938920e-002 8.96064844e-003 0. 8.48209765e-003 4.15475341e-003
      0. 0. 0. 0. 0. 0. 0. 0. -4.64380719e-002 -1.96078438e-002
      9.18369833e-003 0. 8.89694598e-003 0. 1.01436805e-002
      -2.17391308e-002 0. 0. 5.90194482e-003 2.07585339e-002 0.
      8.28208867e-003 0. 7.26916688e-003 0. 0. 9.67018772e-003
      -3.18140746e-003 0. 0. 0. 2.52632201e-002 4.95756324e-003
      -1.96078438e-002 0. 0. 2.17984281e-002 0. 9.35903005e-003 0.
      9.68716852e-003 0. 1.43715926e-002 2.06116550e-002
      -1.04747161e-001 0. 3.02690733e-002 0. 5.57541242e-003 0.
      4.92856326e-003 0. 0. 0. 4.23157122e-003 0. -2.89855078e-002 0. 0.
      -2.04081628e-002 1.13539919e-002 0. 0. 0. -1.72413792e-002 0.
      -4.99334596e-002 0. 7.43683847e-003 -2.56410260e-002 0.
      -2.57865824e-002 0. 9.22297966e-003 0. 0. -1.96078438e-002 0. 0.
      8.03377945e-003 4.91838856e-003 0. 1.29873613e-002 8.82448535e-003
      0. 0. 0. 0. 0. 9.81528684e-003 -7.51634035e-003 4.51644836e-003 0.
      6.12304453e-003 -5.40316403e-002 -2.66666673e-002 0. 0.
      -1.24275917e-003 0. -5.53210499e-003 0. 0. 0. 0. 4.70324373e-003
      0. 8.48209765e-003 -4.26303856e-002 8.05911422e-003
      -9.48716421e-003 1.21141858e-002 0. 8.82448535e-003
      -1.23229912e-002 4.50777495e-003 -2.94117648e-002 0.
      2.99556293e-002 1.93403754e-002 1.00388601e-002 5.78224426e-003
      5.78224426e-003 0. 0. 0. 0. 9.47914179e-003 1.17534781e-002
      8.48209765e-003 4.84358426e-003 2.94117648e-002 9.42687597e-003 0.
      5.94241638e-003 -1.72413792e-002 0. -1.96078438e-002
      8.91319104e-003 8.39078706e-003 3.64543195e-003 9.91503149e-003
      -1.49253728e-002 4.92856326e-003 0. 1.87104743e-003
      9.39187128e-003 0. 0. 0. 0. 4.70324373e-003 1.04286764e-002 0. 0.
      -4.80411618e-005 -2.27272734e-002 4.15475341e-003 1.19131189e-002
      1.17534781e-002 -3.03030312e-002 0. -1.40845068e-002 0.
      -1.33333337e-002 -1.48103694e-002 0. 0. 0. 1.21141858e-002 0. 0.
      0. 0. 0. 0. -3.34446318e-003 0. -3.92156877e-002 2.30768174e-002
      8.03377945e-003 0. 1.59508362e-002 4.91838856e-003 0. 0. 0. 0. 0.
      -1.56250000e-002 0. 0. 7.26916688e-003 -1.72413792e-002
      8.03377945e-003 4.84358426e-003 1.33437365e-002 1.62685793e-002 0.
      6.66990038e-003 0. 0. 0. -1.72413792e-002 1.08075896e-002 0.
      -3.74711375e-003 0. 3.51980217e-002 9.38804168e-003
      8.82448535e-003 0. 4.73957090e-003 -1.72413792e-002
      -2.43409947e-002 7.26916688e-003 6.80287601e-003 4.50777495e-003
      8.28208867e-003 0. 5.90194482e-003 -7.53317727e-003 0. 0. 0. 0.
      4.15475341e-003 -4.88968417e-002 4.91838856e-003 0.
      4.70324373e-003 0. 0. -1.33333337e-002 -3.08751315e-002
      -3.44827585e-002 0. 1.05060311e-002 -2.81690136e-002
      -2.24823803e-002 0. 1.19145876e-002 0. 0. 5.78224426e-003 0. 0. 0.
      1.64444372e-002 9.35903005e-003 0. -2.56410260e-002
      1.01491930e-002 0. -3.63665819e-002 0. 0. 0. 8.12769122e-003
      4.84358426e-003 -6.54821191e-003 -4.52488698e-002 0.
      1.15969907e-002 0. -2.01564170e-002 0. 1.01491930e-002
      1.13539919e-002 4.92856326e-003 -2.28296537e-002 0.
      4.82699927e-003 0. 0. 1.01056248e-002 1.17534781e-002
      -1.96078438e-002 0. 1.88537519e-002 2.19078846e-002
      -1.72413792e-002 0. 0. 0. 8.39078706e-003 -1.11257462e-002 0. 0.
      0. 1.40207382e-002 1.37264561e-002 1.13539919e-002 0.
      4.73424885e-003 0. 2.36190744e-002 0. 8.05911422e-003
      -2.77777780e-002 0. 0. 1.70592796e-002 0. -2.06277650e-002 0. 0.
      0. -1.42851183e-002 1.95760690e-002 0. -1.84682454e-003
      -1.49983717e-002 9.42687597e-003 0. 0. 0. 1.04286764e-002
      -2.32558139e-002 2.49085352e-002 8.96064844e-003 -7.46593764e-003
      1.57742929e-002 0. 1.62653718e-002 4.92856326e-003 0. 0. 0.
      8.30950681e-003 -1.91935506e-002 -4.91803251e-002 0.
      6.67402847e-003 -4.14555855e-002 0. 0. 2.07585339e-002 0.
      4.89578757e-004 6.67402847e-003 0. 1.21141858e-002 1.34296399e-002
      0. 4.49639512e-003 0. 8.05911422e-003 2.81756148e-002 0.
      8.84943269e-003 0. 0. 4.23157122e-003 -1.49253728e-002 0.
      4.59657423e-003 0. 0. 0. 0. -5.05332230e-003 0. 0. 8.39078706e-003
      -1.09618353e-002 0. 1.18420376e-002 0. 0. -3.77358496e-002 0.
      4.02902998e-003 9.83523205e-003 0. 0. 8.28208867e-003
      6.66990038e-003 8.28208867e-003 0. 3.36865298e-002 0.
      -1.56250000e-002 -2.04081628e-002 0. 0. 0. 7.26916688e-003
      1.45383338e-002 0. 0. 0. 8.46604537e-003 0. 3.57393585e-002
      -1.97415780e-002 0. 6.57071080e-003 8.84943269e-003 0. 0. 0.
      9.22297966e-003 2.35069562e-002 5.40379481e-003 0. 1.08764162e-002
      0. 1.18848328e-002 0. 0. 0. 9.39187128e-003 5.57541242e-003 0.
      1.69354323e-002 -2.34944765e-002 -2.27272734e-002 0.
      -9.11965035e-003 0. 0. 1.20629678e-002 0. 0. 0. 8.52963980e-003
      9.67018772e-003 0. 0. 0. 2.38262378e-002 -5.53683285e-003
      -4.79534529e-002 -1.14253152e-003 0. 0. 0. 0. 0. 0.
      3.61275189e-002 1.47058824e-002 0. 0. 0. 0. -1.96078438e-002
      4.59657423e-003 -4.94604036e-002 2.49085352e-002 0.
      8.82448535e-003 2.33212039e-002 0. 0. 4.23157122e-003 0.
      1.20629678e-002 -1.96078438e-002 -9.50221904e-003 -1.77818686e-002
      -1.52475080e-002 0. 5.47394622e-003 0. 9.39187128e-003
      5.57541242e-003 0. 4.91838856e-003 -9.46934801e-003
      -3.92156877e-002 9.63704661e-003 0. 1.60675589e-002
      2.05575489e-002 -2.31812038e-002 4.51644836e-003 0.
      3.56874913e-002 4.92856326e-003 0. -1.96078438e-002 0.
      8.52963980e-003 0. 1.37264561e-002 -3.52328420e-002 0. 0.
      -1.84217077e-002 0. 0. 0. 0. 4.10165265e-003 1.17534781e-002 0. 0.
      -1.33333337e-002 -4.31588180e-002 -3.33606787e-002 0. 0. 0.
      3.30280066e-002 1.33561622e-003 4.95294947e-003 0. 0. 0.
      -1.36052864e-002 7.97541812e-003 0. 0. 1.62653718e-002
      2.33212039e-002 9.71315522e-003 -4.16204240e-003 8.46314244e-003
      0. 0. -7.27068633e-004 4.15475341e-003 0. 2.77989134e-002 0. 0. 0.
      -3.83522734e-002 0. 1.15384087e-002 0. 9.55315400e-003 0. 0. 0. 0.
      1.18443612e-002 -2.94117648e-002 1.69641953e-002 1.37946252e-002
      0. 0. 0. 8.96064844e-003 1.81290954e-002 0. -5.13239838e-002
      8.89694598e-003 2.94117648e-002 -1.40845068e-002 9.67018772e-003
      0. -1.81818176e-002 4.91838856e-003 8.46604537e-003 0. 0. 0. 0. 0.
      0. 0. 4.51644836e-003 -1.72413792e-002 0. 0. 0. 0. 0.
      -2.12765951e-002 0. 0. 8.22221860e-003 1.10942135e-002 0. 0. 0.
      5.43820811e-003 0. 0. 0. 0. 1.71354096e-002 4.51644836e-003 0. 0.
      2.11146753e-002 9.38804168e-003 4.50777495e-003 4.49639512e-003 0.
      0. 0. -4.44444455e-002 0. -3.66314594e-003 9.07251984e-003 0. 0.
      0. 0. 0. 8.80962890e-003 0. 0. 0. 0. 0. 1.42603777e-002 0. 0.
      9.63704661e-003 0. -1.78733561e-002 0. 0. 8.13268591e-003
      -1.35925682e-002 1.05879521e-002 0. 9.38804168e-003 0.
      6.88908761e-003 0. -5.61365746e-002 1.76975839e-002
      1.77058354e-002 0. -1.40845068e-002 1.98435988e-002
      -1.53951254e-002 -2.50000004e-002 0. 0. 1.65641773e-002
      1.01056248e-002 1.15644885e-002 8.91319104e-003 0. 0.
      1.42835751e-002 -1.69491526e-002 2.34944653e-002 0.
      1.59508362e-002 1.01491930e-002 -2.50000004e-002 1.37264561e-002
      0. 0. 0. 0. 0. 5.40379481e-003 1.90250892e-002 1.09026469e-002 0.
      5.54710673e-003 9.38804168e-003 0. 1.19131189e-002 0.
      2.05284599e-002 0. 9.42687597e-003 8.91319104e-003 9.83523205e-003
      0. 1.03792669e-002 0. 1.08764162e-002 8.05911422e-003
      8.20330530e-003 4.23157122e-003 0. -2.04081628e-002
      -4.08163257e-002 -2.32558139e-002 0. 0. -8.19902420e-002 0.
      -2.04081628e-002 0. 0. 0. 0. -1.69491526e-002 0. 0.
      5.90194482e-003 0. 1.18958298e-002 0. 5.90194482e-003
      1.01056248e-002 4.78783809e-003 8.03377945e-003 0. 0. 0.
      -1.56411268e-002 -1.96078438e-002 1.17534781e-002 0.
      1.18038896e-002 0. -2.59531196e-002 1.33480569e-002 0.
      2.41259355e-002 0. 0. 0. 0. 0. 0. 0. 0. 0. 0. -2.22222228e-002
      9.63704661e-003 1.70592796e-002 -1.72413792e-002 0.
      -1.96078438e-002 0. 1.87760834e-002 0. 0. 0. -3.12500000e-002
      1.04286764e-002 0. 8.89694598e-003 9.22297966e-003
      -3.63048129e-002 0. 0. 8.28208867e-003 0. -2.90063694e-002
      -2.70270277e-002 0. 4.23157122e-003 0. 4.82699927e-003 0.
      2.69620549e-002 8.05805996e-003 6.42232364e-003 1.05573377e-002
      5.40379481e-003 0. 0. -1.44927539e-002 1.33369826e-002
      2.57684216e-002 0. 1.18848328e-002 0. 5.63546875e-003
      9.42687597e-003 -2.12765951e-002 0. 9.38804168e-003 0. 0. 0.
      5.54710673e-003 0. 2.27079839e-002 -1.49253728e-002 0. 0. 0.
      -1.88679248e-002 0. 0. 0. 0. 0. 5.54710673e-003 0. 0. 0. 0.
      -4.34394516e-002 0. -2.02146284e-002 0. -5.59714809e-002
      1.57742929e-002 1.18790497e-003 8.13268591e-003 -1.49253728e-002
      4.21349704e-003 1.21141858e-002 1.05573377e-002 -1.56250000e-002
      0. 1.08075896e-002 6.80287601e-003 5.63546875e-003 0.
      -2.04081628e-002 9.35903005e-003 0. 9.38804168e-003
      4.95751575e-003 0. 6.88908761e-003 0. 0. 3.29478122e-002
      1.08203329e-002 -2.22222228e-002 1.33375628e-002 0.
      2.66437326e-002 0. -2.70270277e-002 -9.38346907e-002 0. 0. 0. 0.
      0. 0. 8.05805996e-003 6.03375724e-003 8.30950681e-003
      -1.06471954e-002 0. 9.18369833e-003 0. 4.84358426e-003
      -9.38126352e-003 0. 0. 1.08075896e-002 9.38804168e-003
      4.82699927e-003 0. 0. -2.43902430e-002 8.84943269e-003 0. 0.
      5.94241638e-003 3.58865736e-003 9.67018772e-003 -9.99635831e-003
      0. -3.77235785e-002 0. -1.40845068e-002 1.69641953e-002
      -1.03666140e-002 5.63546875e-003 0. 0. 1.13539919e-002 0. 0.
      1.39044905e-002 0. 9.67018772e-003 1.25423782e-002 0.
      9.22297966e-003 9.39187128e-003 -2.55840346e-002 0. 0.
      2.13863347e-002 8.39078706e-003 -2.04137024e-002 -1.13458065e-002
      1.29792392e-002 0. 0. 3.41185592e-002 1.08075896e-002 0.
      8.39078706e-003 0. -2.15888191e-002 0. 9.81528684e-003 0.
      9.18369833e-003 7.97541812e-003 1.00388601e-002 0. 9.35903005e-003
      1.33369826e-002 0. 0. 0. 8.39078706e-003 -4.26303856e-002 0. 0.
      1.71532165e-002 -1.96078438e-002 0. 4.23157122e-003 0. 0.
      1.33208800e-002 9.39187128e-003 0. 4.91838856e-003 0.
      -1.01448536e-001 0. 1.04286764e-002 0. 0. 0. 4.15475341e-003
      8.39078706e-003 1.20629678e-002 1.17534781e-002 0. 0. 0.
      2.05310658e-002 4.59657423e-003 0. 0. 4.82699927e-003
      -3.92156877e-002 0. 0. 5.63546875e-003 0. 2.13116016e-002
      8.91319104e-003 0. 0. 0. 0. 0. 6.57071080e-003 -4.54545468e-002 0.
      0. 4.15475341e-003 0. 0. 4.36033541e-003 0. 9.22297966e-003
      2.44834973e-003 0. 0. 6.88908761e-003 0. 9.67018772e-003 0.
      8.22221860e-003 -1.72413792e-002 8.57660826e-003 0.
      9.81528684e-003 8.82448535e-003 6.60651829e-003 0. 7.26916688e-003
      0. 0. 9.67018772e-003 0. 2.31160074e-002 4.59657423e-003 0. 0. 0.
      0. 1.33137181e-002 1.37264561e-002 0. 0. 0. -4.08163257e-002 0.
      1.01739876e-002 8.05911422e-003 0. 0. 6.57071080e-003 0. 0.
      1.71952806e-002 -3.44827585e-002 0. 0. 0. 1.59099381e-002 0.
      -2.70270277e-002 0. 0. 0. 4.23157122e-003 0. 1.33922109e-002 0. 0.
      0. 7.97541812e-003 0. 0. -1.96078438e-002 -1.96078438e-002 0. 0.
      1.83830336e-002 -2.86240457e-003 8.39078706e-003 0.
      7.29782507e-003 0. -2.27272734e-002 2.49085352e-002 0.
      2.03701231e-004 0. 2.95713805e-002 0. 0. -1.69491526e-002 0. 0.
      1.56599544e-002 0. 8.13268591e-003 1.28813414e-002 0. 0.
      1.49672842e-002 4.82699927e-003 0. 4.95294947e-003 2.60996632e-002
      0. -1.96078438e-002 0. 0. -2.43902430e-002 1.10942135e-002 0.
      -1.54795991e-002 0. -4.09016013e-003 8.22221860e-003 0. 0. 0.
      2.55889203e-002 0. 0. 9.42687597e-003 -2.94117648e-002
      1.01056248e-002 0. 0. 4.92856326e-003 8.95759370e-003
      8.96064844e-003 0. 1.06931673e-002 0. 0. 0. 0. 0. 0.
      1.36057520e-002 0. 4.82699927e-003 -6.25000000e-002 0.
      9.39187128e-003 4.95294947e-003 0. 0. 0. 8.22221860e-003
      1.84459593e-002 -5.26002143e-003 0. 8.20330530e-003 0.
      4.02902998e-003 0. -2.43902430e-002 -1.16059100e-002 0. 0.
      8.84879194e-003 -1.72413792e-002 0. 0. 0. 0. 1.08764162e-002 0. 0.
      0. 0. 0. -2.56410260e-002 0. 0. 1.20870909e-002 0. 0. 0.
      2.05138642e-002 0. -2.32558139e-002 -1.88679248e-002 0.
      -6.73046429e-003 0. 0. -4.72243130e-002 5.54710673e-003
      2.33472651e-003 -3.77358496e-002 0. 0. 0. 0. -1.72413792e-002
      1.69641953e-002 -2.03403346e-002 -1.63934417e-002 1.33997137e-002
      -1.33333337e-002 0. -2.32558139e-002 0. -1.81818176e-002 0.
      8.22221860e-003 9.40648746e-003 0. 4.23157122e-003 8.28208867e-003
      4.84358426e-003 0. -4.25531901e-002 -2.49652974e-002 0. 0. 0.
      8.14800989e-003 0. 1.13539919e-002 5.54710673e-003 0.
      4.10165265e-003 3.46451141e-002 -2.56410260e-002 8.39078706e-003
      0. 0. 0. 0. 0. 0. 0. 1.28081795e-002 1.18848328e-002
      8.46314244e-003 0. 0. 0. 0. 0. 8.46604537e-003 0. 0.
      9.42687597e-003 8.46604537e-003 1.55228209e-002 -2.63157897e-002
      0. 0. 4.92856326e-003 0. 0. 1.61274020e-002 0. 1.47638619e-002 0.
      6.12304453e-003 4.23157122e-003 -6.34607822e-002 5.78224426e-003
      0. 0. 0. 2.67395750e-002 0. 0. 1.40207382e-002 7.63720600e-003
      8.96064844e-003 -1.96078438e-002 0. 0. 0. 0. 9.35903005e-003 0.
      8.57660826e-003 -9.60057322e-003 0. -2.32558139e-002 0.
      1.03792669e-002 -2.94618793e-002 5.63546875e-003 0.
      3.64543195e-003 0. 0. 0. 0. 4.91838856e-003 0. 8.46604537e-003 0.
      0. 2.83265021e-002 0. 0. 0. 0. 0. 0. 0. 0. 0. 0. 8.48209765e-003
      0. 8.89694598e-003 -3.20766238e-003 0. 0. -7.51961581e-003 0. 0.
      0. 8.79925676e-003 8.13268591e-003 0. -2.09486224e-002
      4.23157122e-003 0. 0. -3.92156877e-002 2.28303671e-002
      -3.38983051e-002 0. 0. 0. 0. 0. 1.33137181e-002 4.82699927e-003
      1.42643424e-002 0. 0. -5.11546098e-002 0. 0. 8.84943269e-003
      8.39078706e-003 3.64543195e-003 0. 8.99279024e-003 0. 0. 0. 0.
      -6.32493272e-002 9.81528684e-003 0. 0. 0. 1.21141858e-002
      -1.49253728e-002 0. 5.30069042e-003 1.84718203e-002 0.
      -8.45102407e-003 0. 0. 0. 0. 5.57541242e-003 0. -3.60012874e-002
      0. 6.57071080e-003 -1.96078438e-002 0. 0. 0. 0. 0. 0. 0. 0. 0. 0.
      -2.17391308e-002 1.80331301e-002 0. 0. 0. -1.91010609e-002
      -4.95576598e-002 9.18369833e-003 0. 0. 0. 6.57071080e-003
      -4.54545468e-002 -2.77777780e-002 3.64543195e-003 1.20675145e-002
      1.87837426e-002 0. 0. -1.96078438e-002 0. 0. 9.22297966e-003 0.
      -4.60491888e-002 -1.56250000e-002 -1.85767915e-002 0. 0. 0.
      1.19131189e-002 0. -3.63636352e-002 0. -3.92760858e-002 0.
      -2.94117648e-002 1.18958298e-002 0. 0. 8.99279024e-003 0.
      9.38804168e-003 0. 0. -4.16912846e-002 0. -1.96078438e-002
      3.64543195e-003 6.80287601e-003 2.72340272e-002 0. 9.81528684e-003
      0. -1.48124099e-002 0. 0. 8.96064844e-003 8.22221860e-003 0.
      1.76975839e-002 -7.13546178e-005 0. 0. 0. 2.11759042e-002
      1.01056248e-002 -1.40845068e-002 0. 2.05310658e-002
      1.00440690e-002 2.10488737e-002 4.23157122e-003 1.85671337e-002 0.
      0. 9.67018772e-003 0. -1.27780223e-002 0. 8.82448535e-003 0. 0. 0.
      0. 4.23157122e-003 0. 0. 4.92856326e-003 -1.96078438e-002
      8.84879194e-003 0. 0. 0. 5.57607098e-004 1.05573377e-002
      9.18369833e-003 0. 0. -3.15389829e-003 -4.65116277e-002
      1.84459593e-002 0. 0. 0. 0. -2.27272734e-002 0. 0. 0. 0. 0.
      8.46314244e-003 0. 8.91319104e-003 0. 0. 0. 0. 4.59657423e-003
      -1.33333337e-002 4.95751575e-003 1.26947146e-002 1.88537519e-002
      3.45546119e-002 0. 6.67402847e-003 0. 0. -2.77777780e-002 0.
      6.80287601e-003 0. 5.57541242e-003 0. 4.02902998e-003
      2.98013166e-002 8.91319104e-003 -3.15923840e-002 -1.61259901e-003
      0. 6.03375724e-003 7.26916688e-003 0. 0. 0. 0. 0. 1.33369826e-002
      1.06931673e-002 -2.22222228e-002 0. 0. 0. 0. 0. 0. 1.08764162e-002
      5.63546875e-003 2.22529918e-002 4.23157122e-003 1.05879521e-002 0.
      0. 8.39078706e-003 0. 8.46604537e-003 0. 0. 0. 0. 9.03289672e-003
      0. 0. -1.44927539e-002 -2.27272734e-002 0. 0. 0. 0.
      6.12304453e-003 -1.72533281e-002 0. 0. 1.01491930e-002
      4.95294947e-003 0. 0. 0. -2.04081628e-002 9.79653373e-003 0.
      4.95479908e-003 8.13268591e-003 0. 0. 1.40207382e-002
      8.84943269e-003 6.80287601e-003 0. -2.27272734e-002 0. 0. 0. 0.
      4.49639512e-003 1.02655329e-002 0. -3.59589374e-003
      5.43820811e-003 1.21875554e-002 0. -2.22222228e-002 0. 0.
      9.18369833e-003 1.01056248e-002 5.57541242e-003 0.
      -2.04081628e-002 0. 0. 7.97541812e-003 0. 8.48209765e-003
      -1.88679248e-002 0. 0. 2.12556235e-002 0. -2.32558139e-002
      4.10165265e-003 0. 5.40379481e-003 0. -6.44721612e-002 0. 0. 0.
      -1.14949718e-002 -2.19981056e-002 0. 0. 0. 0. 0. 0.
      9.23591014e-003 0. 0. -4.23351154e-002 0. 2.16511916e-002 0. 0.
      8.39078706e-003 4.49639512e-003 1.18958298e-002 0. 0.
      8.57660826e-003 0. 0. 6.12304453e-003 0. 0. 0. 0. 0.
      4.91838856e-003 0. 0. 0. 0. -3.44827585e-002 4.91761602e-003 0. 0.
      -1.84418205e-002 0. 7.26916688e-003 -2.22222228e-002 0.
      1.13539919e-002 0. -2.94117648e-002 -1.08907511e-002 0. 0.
      -6.01796508e-002 6.42232364e-003 4.82699927e-003 1.07860006e-002
      9.23591014e-003 1.87180601e-002 0. -2.63157897e-002
      -3.77358496e-002 1.84466746e-002 1.71532165e-002 4.50777495e-003
      2.66739652e-002 0. 0. 0. 0. 4.82699927e-003 2.13863347e-002 0.
      1.45186018e-003 9.38804168e-003 0. 4.02902998e-003
      -1.40845068e-002 0. 8.52963980e-003 0. 0. -2.56410260e-002
      -2.32558139e-002 -1.49253728e-002 0. 1.23049580e-002
      -1.44927539e-002 0. 0. 1.37264561e-002 0. 0. 0. 0. 5.57541242e-003
      0. 0. -2.56410260e-002 1.01056248e-002 1.18038896e-002 0. 0. 0. 0.
      1.67815741e-002 0. -2.56410260e-002 4.91761602e-003 0.
      4.02902998e-003 0. 8.03377945e-003 0. 8.39078706e-003 0.
      9.07251984e-003 0. 8.89694598e-003 6.88908761e-003 8.46314244e-003
      -1.69491526e-002 0. 9.35903005e-003 7.26916688e-003 0. 0. 0. 0. 0.
      -5.02450988e-002 1.16606019e-002 0. 1.05879521e-002
      4.59657423e-003 0. 0. 0. -5.12820520e-002 5.40379481e-003 0.
      -5.58609143e-003 0. 0. 0. 9.67018772e-003 0. 1.33369826e-002
      -4.23271814e-003 0. -2.56410260e-002 -2.56410260e-002
      8.57660826e-003 0. 0. 0. 0. 0. -1.50836883e-002 4.70324373e-003
      2.76689418e-002 4.02902998e-003 0. 1.78263821e-002
      -3.92156877e-002 1.02211945e-002 9.23591014e-003 0. 0. 0. 0. 0.
      2.10120622e-002 4.73957090e-003 0. 0. 8.46604537e-003
      1.33369826e-002 0. 0. -4.18300666e-002 8.20330530e-003 0. 0. 0.
      1.05879521e-002 1.02655329e-002 0. 0. 4.10165265e-003
      5.54710673e-003 1.85365099e-002 9.38804168e-003 0.
      -5.70297055e-003 9.39187128e-003 0. 1.04242247e-002 0. 0. 0.
      1.97410360e-002 0. 1.31414216e-002 -1.88679248e-002
      5.63546875e-003 0. 0. 1.22460891e-002 0. 0. 0. 8.84879194e-003
      3.64543195e-003 -2.44832020e-002 8.96064844e-003 0.
      4.49639512e-003 -1.56250000e-002 0. 8.30950681e-003
      9.22297966e-003 -3.12500000e-002 -8.31377041e-003 0.
      1.91063080e-002 0. 0. 0. 0. -1.96078438e-002 4.02902998e-003 0. 0.
      2.09929682e-002 4.91761602e-003 0. -1.85125228e-002
      8.13268591e-003 0. 0. 4.23157122e-003 0. 5.94241638e-003
      8.80962890e-003 0. 0. 0. 0. 1.31955910e-002 1.17534781e-002
      1.20010683e-002 0. 4.95751575e-003 0. 4.15475341e-003
      4.02902998e-003 1.78263821e-002 0. 0. 1.37264561e-002
      1.19145876e-002 9.39187128e-003 1.03792669e-002 0. 0. 0.
      4.23157122e-003 0. 2.11759042e-002 -2.08717934e-003
      -2.30277814e-002 0. 0. 0. 0. -8.97693727e-003 0. 0.
      -2.12765951e-002 8.03377945e-003 0. 0. 0. 0. 0. 2.15328764e-002
      9.23591014e-003 0. 0. 0. 0. 0. -1.69995595e-002 1.85826253e-002
      -1.72413792e-002 1.20675145e-002 2.34440062e-002 0.
      5.94241638e-003 -2.32205391e-002 5.57541242e-003 -2.12765951e-002
      8.13268591e-003 0. 0. 6.67402847e-003 6.66990038e-003 0. 0. 0.
      -1.16202878e-002 1.96305737e-002 0. 5.90194482e-003 0. 0. 0. 0. 0.
      0. 0. 0. 0. 0. -6.19149068e-004 0. 9.22297966e-003 0. 0. 0. 0. 0.
      -1.63934417e-002 -1.56250000e-002 1.62653718e-002 0. 0.
      9.65399854e-003 0. 1.87180601e-002 -7.68954912e-003 0.
      -1.33333337e-002 -1.88679248e-002 0. 0. 0. 2.94117648e-002
      -2.43902430e-002 1.15384087e-002 -2.04081628e-002 0.
      8.28208867e-003 0. 8.82448535e-003 1.69641953e-002 2.05310658e-002
      -2.43902430e-002 8.28208867e-003 0. 8.13268591e-003 0. 0. 0. 0. 0.
      -1.56250000e-002 0. 8.05911422e-003 0. 0. 0. 0. 1.20629678e-002
      4.84358426e-003 4.15475341e-003 -6.80051465e-003 0.
      1.05573377e-002 0. 6.67402847e-003 8.99279024e-003 5.90194482e-003
      0. 2.45183967e-002 0. 0. -2.32558139e-002 0. 0. 0. 9.40648746e-003
      0. 0. 0. 1.73294276e-003 1.61823574e-002 8.89694598e-003 0.
      5.90194482e-003 0. 0. 5.94241638e-003 0. 0. 9.26603377e-003 0. 0.
      0. 0. 0. 9.65399854e-003 0. 0. -3.22580636e-002 0. 0. 0.
      8.84943269e-003 -1.49253728e-002 0. 0. 0. 4.15475341e-003
      2.37916596e-002 0. 1.57742929e-002 1.74265858e-002 0. 0. 0. 0. 0.
      -2.87266802e-002 0. -4.15708777e-003 0. 4.91838856e-003 0. 0.
      7.26916688e-003 0. 7.29086390e-003 0. 4.95751575e-003
      1.76975839e-002 4.95294947e-003 0. 0. 0. -1.96078438e-002
      2.08212025e-002 1.37264561e-002 0. -3.01078544e-003 0. 0. 0.
      2.30768174e-002 0. 1.00388601e-002 1.97142530e-002 0.
      4.91761602e-003 -3.22486903e-003 -1.59081444e-002 0.
      5.78224426e-003 0. 0. 0. 0. 8.39078706e-003 8.84879194e-003
      9.42687597e-003 0. 0. 0. 0. 8.91319104e-003 0. 0. 9.39187128e-003
      -6.70320820e-003 9.38804168e-003 1.37264561e-002 -4.46078442e-002
      0. 4.59657423e-003 8.89694598e-003 0. 0. 8.82448535e-003 0. 0. 0.
      7.97541812e-003 4.91838856e-003 1.82015561e-002 -1.56250000e-002
      1.48173273e-002 0. 0. 0. 0. -1.33333337e-002 0. 0. 0. 0.
      -1.30098080e-002 2.66274363e-002 8.05911422e-003 0.
      1.98031906e-002 0. 0. 0. 0. 0. -4.65116277e-002 0.
      -3.52058597e-002 0. 0. 0. 0. 0. 0. 8.52963980e-003 6.88908761e-003
      0. 0. 4.95294947e-003 0. 0. 0. 8.48209765e-003 -1.56250000e-002
      -8.36149678e-002 0. 5.78224426e-003 0. 1.17045464e-002 0. 0. 0.
      1.19145876e-002 8.52963980e-003 -1.17594944e-002 9.67018772e-003
      0. 1.11508248e-002 0. 5.90194482e-003 0. 4.23157122e-003 0.
      8.46604537e-003 0. -3.91684771e-002 6.88908761e-003 0. 0.
      1.62653718e-002 0. 5.51869767e-003 -1.50873829e-002
      -1.59884654e-002 0. 4.51644836e-003 0. 0. -2.43902430e-002
      1.10942135e-002 0. 0. 0. 0. -2.17391308e-002 0. -1.56250000e-002
      0. 1.05060311e-002 -1.72413792e-002 1.05060311e-002
      -5.72916679e-002 4.15475341e-003 4.95751575e-003 9.30460915e-003
      0. 0. 0. 0. 4.92856326e-003 0. -1.76001508e-002 0.
      -1.40845068e-002 0. 4.84358426e-003 4.59657423e-003 0.
      8.57660826e-003 0. 3.29430983e-003 0. 0. 0. -1.40845068e-002
      8.46604537e-003 0. 0. 4.70324373e-003 -1.48401270e-002
      -1.98934656e-002 0. 0. 0. 6.42232364e-003 0. -1.56250000e-002
      7.26916688e-003 0. 0. 0. 0. 0. 1.17534781e-002 0. 8.82448535e-003
      0. -2.43902430e-002 0. 0. 4.02902998e-003 -4.86728828e-003 0. 0.
      2.35069562e-002 9.07251984e-003 1.18848328e-002 0. 0. 0.
      6.21927343e-003 0. 2.00777203e-002 0. -2.04081628e-002 0.
      1.84718203e-002 0. 8.84943269e-003 -1.40845068e-002 0. 0.
      -2.04081628e-002 -1.96078438e-002 0. 4.95751575e-003
      8.84943269e-003 0. 0. 0. 0. 0. 0. -2.43902430e-002 9.38804168e-003
      1.01491930e-002 2.38262378e-002 6.12304453e-003 8.84943269e-003 0.
      1.21141858e-002 6.67402847e-003 0. 8.82448535e-003 0. 0. 0.
      1.82084627e-002 0. 9.67018772e-003 5.90194482e-003 0.
      -2.68896651e-002 6.80287601e-003 0. 4.92856326e-003
      1.99365765e-002 -2.27272734e-002 0. 8.48209765e-003 0.
      7.26916688e-003 -1.59735009e-002 8.28208867e-003 0.
      8.28208867e-003 -3.92156877e-002 -1.98938474e-002 0.
      6.12304453e-003 1.00388601e-002 9.22297966e-003 6.57071080e-003
      9.22297966e-003 0. 2.60853022e-002 -1.44927539e-002
      -2.70270277e-002 2.51738168e-002 4.91838856e-003 0. 0.
      4.49639512e-003 0. -5.68910241e-002 0. -2.27272734e-002 0.
      4.92856326e-003 0. 0. 0. 0. -1.25683341e-002 8.84943269e-003 0. 0.
      9.07251984e-003 -1.72413792e-002 1.25786718e-002 0. 0. 0.
      1.62653718e-002 1.59508362e-002 1.45307519e-002 0. 0.
      6.12304453e-003 6.12304453e-003 0. 0. 8.82448535e-003
      -1.60747822e-002 0. 0. 1.84459593e-002 -1.72413792e-002 0. 0. 0.
      0. 8.89694598e-003 6.57071080e-003 0. 0. 0. 3.64543195e-003
      -2.08333340e-002 8.46604537e-003 1.87122338e-002 8.84943269e-003
      -2.08333340e-002 4.15475341e-003 0. 0. 0. 0. 0. 0. 0. 0. 0. 0.
      2.52119135e-002 0. 1.83525197e-002 0. 0. 0. 1.19145876e-002 0.
      -1.81818176e-002 -1.97032094e-003 0. 0. 0. 8.84943269e-003 0. 0.
      8.03377945e-003 -1.96078438e-002 1.09478924e-002 0.
      8.46314244e-003 0. 0. 0. 0. 0. 8.99279024e-003 0. 0. 0.
      -9.19117592e-004 0. 0. 8.03377945e-003 0. 9.30460915e-003 0. 0.
      8.99279024e-003 0. 0. 0. 2.49085352e-002 0. 1.18848328e-002
      1.11508248e-002 0. 0. 0. 2.43622381e-002 7.63720600e-003
      -1.49253728e-002 0. 0. -2.38363519e-002 0. 9.23591014e-003 0.
      7.26916688e-003 0. 0. 0. 8.57660826e-003 0. 0. 1.03792669e-002
      1.44640459e-002 0. 0. 0. 0. 0. 0. 1.33137181e-002 0. 0. 0. 0. 0.
      0. 4.82699927e-003 -1.46792801e-002 0. 0. 1.15384087e-002 0.
      5.57541242e-003 0. 0. 0. 0. 0. 0. 0. 1.37264561e-002
      -1.72413792e-002 0. -1.14177092e-004 7.88714644e-003 0. 0. 0.
      9.42687597e-003 1.05060311e-002 0. 0. 0. 2.23860778e-002 0. 0. 0.
      0. 3.12860273e-002 0. 9.67018772e-003 2.50581317e-002
      5.40379481e-003 0. 4.91838856e-003 -2.82596070e-002 0. 0.
      8.82448535e-003 0. 0. 0. 5.57541242e-003 0. -1.37264384e-002 0.
      -1.33333337e-002 -3.22580636e-002 0. 4.23157122e-003 0.
      -1.72413792e-002 0. 0. 0. 0. 1.87760834e-002 0. 0. 1.68242101e-002
      0. 0. 0. 1.03792669e-002 6.42232364e-003 4.49639512e-003 0.
      7.26916688e-003 -2.77777780e-002 9.01554991e-003 1.93256233e-002
      4.49639512e-003 0. 0. 0. -3.78472209e-002 0. -2.47154348e-002 0.
      0. 1.70491673e-002 0. 0. 1.64079759e-002 4.92856326e-003
      -2.92841438e-003 5.40379481e-003 0. 0. -7.76888989e-003 0.
      1.41334413e-002 0. -1.43364863e-002 0. 0. 1.84718203e-002
      7.26916688e-003 -2.77777780e-002 0. 1.17534781e-002 0. 0.
      4.23157122e-003 0. 0. 0. -1.49253728e-002 0. -1.63934417e-002 0.
      0. 0. 0. -1.44927539e-002 0. 4.73957090e-003 0. 0. 9.42687597e-003
      0. 4.82699927e-003 0. 0. 0. 0. 1.93474758e-002 4.92856326e-003 0.
      0. 7.97541812e-003 -1.96078438e-002 0. 8.28208867e-003 0.
      9.42687597e-003 0. -9.90213174e-003 -2.66666673e-002 0. 0.
      5.63546875e-003 0. -3.41369957e-002 0. 0. 0. 0. -3.44827585e-002
      -1.56250000e-002 0. 0. 0. 9.83523205e-003 1.79212969e-002
      4.95751575e-003 0. 2.07585339e-002 9.03289672e-003 0.
      -3.19516733e-002 -6.85554789e-003 4.92856326e-003 -2.04081628e-002
      1.62653718e-002 1.98031906e-002 0. 9.83523205e-003 0.
      5.94241638e-003 1.18958298e-002 5.43820811e-003 0. 0. 0. 0. 0. 0.
      0. 0. 8.80962890e-003 1.05060311e-002 0. 0. 0. 0. -3.16645652e-002
      -9.95473377e-003 3.64543195e-003 1.64264366e-002 0.
      -2.22222228e-002 0. 0. 0. 0. 0. 0. 0. 4.92856326e-003 0. 0.
      1.28315045e-002 4.84358426e-003 0. 0. 6.67402847e-003 0.
      4.36033541e-003 0. 0. -3.18140746e-003 0. -7.39126354e-002
      8.96064844e-003 -1.72413792e-002 2.10120622e-002 0.
      9.63704661e-003 0. 0. 0. 0. 0. -2.90664956e-002 0. 0. 0.
      2.02983860e-002 0. 6.80287601e-003 0. 0. 7.97541812e-003 0.
      -4.16666679e-002 0. 0. 0. 0. 8.89694598e-003 1.01056248e-002 0. 0.
      0. 1.83770731e-002 0. 0. 0. 5.40379481e-003 -1.44927539e-002
      -6.73534814e-003 0. 7.63720600e-003 0. 0. 0. 0. 4.91838856e-003 0.
      0. 4.15475341e-003 0. 4.23157122e-003 0. 0. 0. 0. 7.88714644e-003
      0. 0. 0. 5.90194482e-003 4.10165265e-003 4.91838856e-003
      9.67018772e-003 0. 0. 8.52963980e-003 0. -5.12820520e-002
      -2.12765951e-002 6.66990038e-003 0. 0. 0. 0. 0. 0.
      -3.92156877e-002 4.23157122e-003 4.73424885e-003 0. 0. 0.
      1.61182284e-002 1.77938920e-002 0. 1.05060311e-002 0.
      8.91319104e-003 0. -2.08333340e-002 -4.65116277e-002
      4.95751575e-003 0. -3.03030312e-002 0. 0. -2.32558139e-002 0.
      4.91838856e-003 -1.56250000e-002 6.42232364e-003 8.91319104e-003
      8.89694598e-003 1.57742929e-002 0. 0. 0. 0. -4.47885413e-003 0.
      -1.59003884e-002 9.18369833e-003 0. -2.27272734e-002
      -2.17391308e-002 -1.44927539e-002 4.73424885e-003 0.
      -3.52328420e-002 0. -1.96078438e-002 0. 4.23157122e-003 0.
      2.80194990e-002 0. 0. 0. 0. 2.39760876e-002 0. 0. 0.
      1.30963521e-002 1.05573377e-002 4.59657423e-003 0. 0.
      1.33369826e-002 0. -1.40845068e-002 2.05310658e-002
      8.28208867e-003 0. 0. -1.88679248e-002 0. -3.12500000e-002 0. 0.
      -4.59830873e-002 0. 0. 2.79821474e-002 -6.77556684e-003 0. 0.
      1.66219603e-002 0. 0. 0. -6.06060624e-002 0. 0. 4.84358426e-003 0.
      1.05060311e-002 9.63704661e-003 0. -7.73785356e-003 0.
      1.52744120e-002 1.19145876e-002 0. 0. 0. 0. 1.13539919e-002 0.
      7.63720600e-003 0. 9.08946677e-005 9.23591014e-003 0.
      2.08573528e-002 4.70324373e-003 3.38982791e-002 0. 0.
      1.87837426e-002 8.05805996e-003 2.51573436e-002 0. 1.17534781e-002
      0. -3.40022258e-002 0. 0. 8.03377945e-003 -6.19812403e-003 0. 0.
      0. 8.91319104e-003 0. -2.81690136e-002 1.83246471e-002
      -2.56410260e-002 0. 0. 8.28208867e-003 -1.39401341e-002
      5.47394622e-003 0. 0. 0. 0. 9.81528684e-003 0. 0. -2.94117648e-002
      9.03289672e-003 1.78221725e-002 4.95294947e-003 0. 1.06931673e-002
      0. 0. 0. 0. 0. 0. 0. 4.50777495e-003 0. 0. 0. 0. 0.
      9.23591014e-003 1.10942135e-002 0. 0. -1.56250000e-002
      1.03741065e-002 0. 8.80962890e-003 4.51644836e-003 0. 0.
      6.66990038e-003 0. 0. 0. 0. 0. -3.12500000e-002 0. 0.
      1.10799260e-002 1.86092183e-002 0. 8.28208867e-003 0. 0. 0.
      9.42687597e-003 -1.96078438e-002 -1.40845068e-002 -2.81690136e-002
      0. 0. 0. 0. 7.26916688e-003 0. -2.22222228e-002 0. 0.
      4.36033541e-003 0. 0. 0. 0. -1.79906506e-002 0. -5.99473007e-002
      0. 0. 0. 0. 0. 7.26916688e-003 8.89501255e-003 0. 0.
      9.81528684e-003 -4.16316241e-002 -2.56410260e-002 0.
      1.63654089e-002 0. 1.27077857e-002 0. 0. 0. 0. -1.96078438e-002
      -1.33442068e-002 4.92856326e-003 0. 0. 0. 0. 0. 0. 0.
      9.23591014e-003 0. 2.29423549e-002 8.86811037e-003 0.
      9.07251984e-003 8.84943269e-003 9.63704661e-003 -1.56250000e-002
      0. 0. 2.11297348e-002 3.26847397e-002 -2.56410260e-002
      5.78224426e-003 4.84358426e-003 1.21141858e-002 0. 0.
      1.36108873e-002 0. 0. 9.22297966e-003 1.02655329e-002 0. 0. 0.
      -5.77647127e-002 0. 4.70324373e-003 0. 9.67018772e-003
      9.38804168e-003 0. 0. -1.44927539e-002 9.35903005e-003
      1.17534781e-002 -2.70270277e-002 -1.96078438e-002 2.26077549e-002
      1.95426010e-002 1.02655329e-002 4.73957090e-003 0. 7.63720600e-003
      9.83523205e-003 0. 0. 0. 8.48209765e-003 0. 2.18097940e-002 0. 0.
      9.45391133e-003 0. 0. 0. -1.43350763e-002 -9.19117592e-004
      -1.96078438e-002 0. 1.02866776e-002 1.15384087e-002
      1.50585743e-002 0. 8.96064844e-003 -1.96078438e-002 0.
      -1.13394344e-002 0. -2.08333340e-002 0. 0. 1.18958298e-002
      6.80287601e-003 1.17534781e-002 7.63720600e-003 -2.77777780e-002
      0. 0. 2.05310658e-002 0. 0. 0. 1.02655329e-002 9.42687597e-003 0.
      -2.43902430e-002 0. 0. 0. 2.13613808e-002 0. 4.51644836e-003 0. 0.
      -1.40845068e-002 -1.63934417e-002 0. -3.44827585e-002 0.
      -6.68170722e-003 -1.57812349e-002 0. 0. -4.28537093e-002 0.
      1.01056248e-002 0. 0. 0. 0. -2.94117648e-002 0. -1.44927539e-002
      0. -2.04081628e-002 0. -4.52488698e-002 0. 9.01554991e-003
      -5.00000007e-002 1.64264366e-002 0. 0. 0. 2.81308442e-002
      1.02655329e-002 4.84358426e-003 0. -2.04081628e-002 0.
      9.55315400e-003 8.13268591e-003 0. 0. 0. 0. 0. -1.44927539e-002 0.
      0. 0. 0. -6.09367294e-003 0. 8.20330530e-003 9.81528684e-003 0.
      4.82699927e-003 0. 0. 1.70802940e-002 -4.91803251e-002
      -7.51961581e-003 1.40207382e-002 0. 0. 1.25374598e-002
      9.19963885e-003 -9.64355096e-003 8.52963980e-003 1.04286764e-002
      0. 4.70324373e-003 0. 1.19649600e-002 0. 0. 1.16606019e-002
      -4.73856218e-002 0. -2.94117648e-002 0. 0. 9.63704661e-003
      3.64543195e-003 2.39546802e-002 0. -1.49313891e-002
      1.81012731e-002 0. 4.51644836e-003 0. 0. 0. 8.22221860e-003 0.
      -8.07043072e-003 5.96853485e-003 0. 0. 1.11508248e-002 0.
      -1.32229198e-002 0. -1.81818176e-002 0. 0. 0. 0. 7.18626659e-003
      0. 0. 0. 0. -5.05810743e-003 0. 8.13268591e-003 0. 0. 0.
      -1.70450229e-002 0. -2.22222228e-002 0. 8.22221860e-003
      -2.66666673e-002 0. 3.69269550e-002 5.90194482e-003
      -2.04959093e-003 -2.05034092e-002 0. 0. 8.89694598e-003
      1.65213756e-002 0. 1.19145876e-002 0. 0. 1.84459593e-002 0. 0. 0.
      -1.88679248e-002 0. 0. 0. 0. 0. 0. -2.92600226e-002
      -3.03030312e-002 0. 1.04286764e-002 -2.27272734e-002
      1.64264366e-002 9.07251984e-003 0. 0. 0. 0. 0. 0. 0. 0. 0. 0. 0.
      -1.44703733e-003 -2.27272734e-002 4.70324373e-003 5.40379481e-003
      0. 1.03792669e-002 -2.04081628e-002 9.23591014e-003 0.
      -2.44221315e-002 4.92856326e-003 0. 0. 5.43820811e-003
      1.21141858e-002 0. 4.84358426e-003 0. 0. 0. 0. 0. 0.
      8.91319104e-003 6.66990038e-003 0. 1.65641773e-002 0. 0.
      -9.99863911e-003 -2.27272734e-002 -1.57742742e-002 8.39078706e-003
      0. 5.96853485e-003 -1.63934417e-002 4.36033541e-003 0. 0.
      8.39078706e-003 0. 8.13268591e-003 -2.92062107e-002
      1.33369826e-002 0. 9.67018772e-003 0. 0. 0. 0. 0. 2.41259355e-002
      4.49639512e-003 0. 0. 0. -2.32558139e-002 0. 0. -3.77358496e-002
      0. 8.57660826e-003 0. 0. -2.27272734e-002 -4.13393974e-002 0. 0.
      0. 0. 0. 0. 0. 0. 7.29782507e-003 1.19131189e-002 0. 0. 0.
      -3.12500000e-002 -2.08333340e-002 0. 0. 1.02655329e-002 0. 0. 0.
      0. 0. 1.02655329e-002 0. 0. 0. 0. 0. 8.84879194e-003 0. 0. 0. 0.
      0. 0. 0. 0. 0. 0. 0. 0. 9.91503149e-003 4.73424885e-003 0. 0. 0.
      0. 0. 1.01491930e-002 4.91761602e-003 0. 5.47394622e-003 0.
      5.57541242e-003 0. 8.46314244e-003 1.01056248e-002 0.
      1.60675589e-002 0. 0. 0. 6.42232364e-003 0. 1.64264366e-002
      -3.22580636e-002 0. 0. 0. 1.19145876e-002 1.04286764e-002 0. 0.
      1.08075896e-002 0. 0. 0. -1.72413792e-002 0. 4.49639512e-003
      1.25786718e-002 0. 0. 0. 9.30460915e-003 9.22297966e-003 0. 0.
      -1.85143780e-002 0. 0. 0. 0. 4.59657423e-003 0. 0. 0. 0.
      5.43820811e-003 0. 0. -4.34782617e-002 -3.63636352e-002 0.
      8.91319104e-003 2.27079839e-002 0. 0. 0. 1.21141858e-002
      2.48575974e-002 0. 1.28446473e-002 -1.96078438e-002
      -1.40845068e-002 0. 1.56346764e-002 0. 1.56305488e-002 0. 0.
      1.17534781e-002 0. 0. 9.67018772e-003 0. 1.59508362e-002
      8.05911422e-003 8.52963980e-003 -2.32558139e-002 8.80962890e-003
      -1.72413792e-002 -3.27868834e-002 2.00220868e-002 -2.56410260e-002
      0. 8.46604537e-003 0. 8.52963980e-003 0. 0. 0. 0. 9.30460915e-003
      0. 0. 0. 4.10165265e-003 0. 0. 0. 0. 6.88908761e-003 0.
      9.23591014e-003 7.29782507e-003 7.29086390e-003 0. 0. 0. 0. 0.
      1.43807642e-002 0. -4.39980850e-002 8.13268591e-003 0.
      -2.04081628e-002 0. 0. 0. 0. 0. -1.96078438e-002 1.33137181e-002
      9.55315400e-003 0. 0. 0. 0. 5.78224426e-003 4.23157122e-003
      1.86092183e-002 0. 0. 1.19145876e-002 0. 0. 0. 0. 0.
      1.78857781e-002 0. -8.24100745e-004 -1.33333337e-002
      4.51644836e-003 0. -3.49655445e-003 0. 0. 0. 0. 0. 0. 0.
      6.03375724e-003 0. -1.72413792e-002 8.46604537e-003 0.
      1.82756688e-002 2.42283717e-002 0. 0. 0. 0. 0. 0. 0. 0.
      6.12304453e-003 0. 5.78224426e-003 -1.12076215e-002
      -1.72413792e-002 0. 0. 0. -2.17391308e-002 1.00388601e-002 0.
      1.01491930e-002 5.43820811e-003 0. 0. -1.40845068e-002
      1.91645604e-002 6.03375724e-003 0. 0. 0. 1.17534781e-002
      9.07251984e-003 0. 0. 0. 0. 0. 0. 1.43965399e-002 4.91838856e-003
      0. 4.59657423e-003 0. 0. 3.64543195e-003 0. -1.56250000e-002
      9.14918724e-003 0. 1.18958298e-002 0. 4.82699927e-003
      1.51067087e-002 0. 8.30950681e-003 0. 1.52744120e-002 0.
      1.37264561e-002 -5.00000007e-002 9.00417008e-003 0. 0. 0. 0. 0.
      9.23591014e-003 0. 0. 0. 1.79212969e-002 3.64543195e-003
      -8.70653521e-003 0. 5.43820811e-003 -1.40845068e-002 0. 0.
      4.10165265e-003 0. 0. 2.42579915e-002 1.87837426e-002
      4.70324373e-003 0. 9.35903005e-003 -1.43071534e-002
      9.83523205e-003 0. 5.54710673e-003 -1.56250000e-002 0. 0.
      4.10165265e-003 -1.96078438e-002 8.03377945e-003 -3.10260803e-002
      0. 0. 5.54710673e-003 8.28208867e-003 1.20629678e-002
      4.02902998e-003 2.25509405e-002 -1.81818176e-002 -2.43902430e-002
      1.47058824e-002 -1.96078438e-002 0. -2.59086806e-002 0. 0.
      -2.94117648e-002 0. 4.51644836e-003 0. 1.04286764e-002 0.
      1.00388601e-002 0. -1.81395106e-003 0. 1.33137181e-002 0.
      6.80287601e-003 1.40414573e-002 -1.40845068e-002 -2.12765951e-002
      3.28528732e-002 9.22297966e-003 0. 0. 0. 3.64543195e-003
      8.39078706e-003 7.97541812e-003 5.40379481e-003 -7.59637207e-002
      0. 0. 9.23591014e-003 0. 0. 0. 1.11508248e-002 0. -1.44927539e-002
      0. 0. 9.83523205e-003 1.06931673e-002 7.63720600e-003 0.
      7.29086390e-003 0. 8.48209765e-003 0. 0. 2.74529122e-002 0. 0. 0.
      0. -1.63934417e-002 5.90194482e-003 0. 5.47394622e-003
      5.94241638e-003 0. 0. 0. 1.20675145e-002 1.09478924e-002 0.
      9.47914179e-003 4.10165265e-003 0. 0. 9.23591014e-003 0. 0.
      1.62653718e-002 8.99279024e-003 0. 1.01491930e-002 0. 0.
      5.40379481e-003 0. 1.16606019e-002 8.22221860e-003 0. 0. 0.
      3.16811129e-002 0. 0. 0. 5.78224426e-003 1.01056248e-002 0. 0. 0.
      0. 1.28446473e-002 0. 0. 8.80962890e-003 0. -2.12765951e-002 0. 0.
      -3.44827585e-002 9.35903005e-003 0. -2.63157897e-002
      9.63704661e-003 0. 0. 4.84358426e-003 0. 3.64543195e-003
      4.95294947e-003 1.05060311e-002 0. 0. 0. 0. 0. 0. 0. 0.
      9.30460915e-003 0. 2.07585339e-002 0. 2.35069562e-002
      -2.56410260e-002 0. 0. -3.03030312e-002 0. 1.01056248e-002 0. 0.
      0. 0. 0. -2.63157897e-002 0. 8.82448535e-003 2.11759042e-002 0. 0.
      1.37264561e-002 9.67018772e-003 4.10165265e-003 0.
      -2.63157897e-002 0. -1.49253728e-002 0. -7.20732287e-003
      9.67018772e-003 0. 0. 0. 0. 0. 1.79212969e-002 5.43820811e-003 0.
      5.54710673e-003 2.03053746e-002 1.65641773e-002 0. 0.
      8.84943269e-003 -2.22222228e-002 1.01491930e-002 -1.47926714e-002
      4.82699927e-003 9.39187128e-003 0. 7.29782507e-003 9.07251984e-003
      0. 0. 0. 9.38804168e-003 1.05060311e-002 -1.72413792e-002
      9.67018772e-003 0. 0. 0. -2.97267754e-002 4.95294947e-003
      -2.56410260e-002 1.19145876e-002 0. 4.91838856e-003
      8.03377945e-003 7.29086390e-003 1.01056248e-002 -8.17615539e-002
      1.33369826e-002 -3.51390727e-002 0. 0. 0. 0. 2.53078509e-002
      -1.72413792e-002 0. -2.12765951e-002 0. 0. 1.02777984e-002
      1.20675145e-002 0. 0. 0. -1.63934417e-002 0. 0. 0.
      -9.02342796e-003 0. 0. 0. -6.54821191e-003 1.41542982e-002
      5.54710673e-003 0. 1.33137181e-002 0. 1.65213756e-002 0.
      -1.56250000e-002 0. -2.04081628e-002 0. 1.03792669e-002 0. 0. 0.
      -1.44927539e-002 -1.63582060e-002 2.26007402e-003 -1.44927539e-002
      0. 0. -3.92156877e-002 0. -2.04081628e-002 0. -2.50000004e-002 0.
      -2.76865670e-003 -2.77777780e-002 0. 5.54710673e-003 0.
      -1.56250000e-002 0. 7.88714644e-003 8.48209765e-003 0.
      6.88908761e-003 0. 0. 0. 0. 0. 0. -4.60491888e-002
      -2.32558139e-002 0. 4.02902998e-003 -2.22222228e-002
      8.52963980e-003 0. 0. 5.54710673e-003 1.19145876e-002 0.
      -5.06766280e-003 0. 0. 0. -3.09156887e-002 -2.89855078e-002
      1.01436805e-002 0. 0. 0. 0. 0. 0. -1.96078438e-002 0. 0. 0.
      -2.50000004e-002 0. 0. 0. 0. 1.05060311e-002 0. 0. 0. 0. 0.
      -2.66666673e-002 4.49639512e-003 0. 0. 0. 0. 0. 0. 0.
      1.64264366e-002 0. 0. 0. -3.12500000e-002 -1.72413792e-002 0. 0.
      0. 0. 0. 0. 0. 0. 0. 0. -2.32558139e-002 9.38804168e-003 0.
      4.92856326e-003 8.52963980e-003 0. 4.92856326e-003 0. 0. 0. 0. 0.
      -2.10843477e-002 0. 1.05060311e-002 4.36033541e-003
      9.81528684e-003 4.50777495e-003 0. 6.12304453e-003 8.48209765e-003
      1.04286764e-002 -2.17391308e-002 0. 0. -1.56250000e-002
      1.01491930e-002 0. 0. 0. 1.65641773e-002 0. 0. 7.88714644e-003 0.
      2.98320106e-003 0. 0. 0. 0. 1.01056248e-002 0. 0. 0. 0.
      1.01056248e-002 -2.04081628e-002 0. 1.33369826e-002 0.
      8.46604537e-003 5.90194482e-003 3.02471444e-002 8.82448535e-003 0.
      -2.77777780e-002 0. -2.27272734e-002 0. 0. 0. 1.13539919e-002
      7.29782507e-003 1.05060311e-002 0. 0. 0. 4.49639512e-003
      4.15475341e-003 0. 0. 0. 7.26916688e-003 0. 2.02112496e-002 0. 0.
      2.35069562e-002 0. -1.72413792e-002 0. -4.60491888e-002 0.
      8.52963980e-003 0. 0. 0. 9.38804168e-003 0. 4.59657423e-003 0.
      2.18961984e-002 0. 0. 8.89694598e-003 -8.94316193e-003
      2.11759042e-002 0. 1.05060311e-002 1.18958298e-002 0.
      8.28208867e-003 -1.08854286e-002 0. 8.89694598e-003 0.
      9.63704661e-003 0. 0. 0. 0. 0. -4.94585894e-002 -2.50000004e-002
      0. 7.29782507e-003 0. 0. 0. 2.02112496e-002 1.44849019e-002
      5.47394622e-003 0. 5.94241638e-003 0. 0. 0. 0. 0. 0.
      6.03375724e-003 3.64543195e-003 0. 9.39187128e-003 0. 0.
      1.22768218e-002 0. 1.19145876e-002 0. 6.12304453e-003 0.
      9.39187128e-003 0. 1.52744120e-002 0. 9.39187128e-003 0.
      -1.44927539e-002 0. 0. 0. 0. 0. 4.95294947e-003 0.
      -1.56250000e-002 8.03377945e-003 0. 0. 0. 0. 0. 0. 0.
      -2.27272734e-002 0. 0. 0. 0. 0. -1.33333337e-002 -1.63934417e-002
      0. 0. 0. 0. 0. 0. -1.69491526e-002 5.90194482e-003 0. 0. 0.
      5.78224426e-003 8.91319104e-003 0. -1.00504179e-002 0.
      9.19314846e-003 0. 0. 2.13863347e-002 0. 0. 6.88908761e-003 0.
      5.57541242e-003 8.91319104e-003 0. -3.12272180e-002
      4.73424885e-003 0. -6.30083727e-003 2.40712948e-002 0. 0.
      8.82448535e-003 0. 0. 0. -1.96078438e-002 0. 0. 0. 0. 0. 0.
      -1.56250000e-002 1.52744120e-002 -8.37581791e-003 0. 0. 0.
      4.15475341e-003 7.26916688e-003 -2.22222228e-002 5.78224426e-003
      0. 0. 4.49639512e-003 0. 8.46604537e-003 9.39187128e-003 0.
      -2.27272734e-002 0. 0. -1.22838635e-002 0. 0. 9.67018772e-003 0.
      -2.27272734e-002 8.28208867e-003 0. 5.40379481e-003 0.
      6.67402847e-003 0. 4.59657423e-003 0. 0. 0. 0. 0. 0. 0. 0. 0. 0.
      0. 3.64543195e-003 0. -1.69491526e-002 0. 0. 0. -1.63934417e-002
      0. 0. -2.32558139e-002 4.34058439e-003 6.42232364e-003
      -3.84747498e-002 0. 0. 0. -6.55247970e-003 0. 0. 0.
      -1.40845068e-002 0. 4.49639512e-003 0. 0. 0. 0. 4.50777495e-003 0.
      0. 0. 0. -1.96078438e-002 -2.56410260e-002 -2.27272734e-002
      -3.12500000e-002 8.39078706e-003 8.52963980e-003 0.
      4.70324373e-003 2.85406224e-002 8.52963980e-003 0. 6.67402847e-003
      4.50777495e-003 0. 0. 6.67402847e-003 1.83305014e-002
      -2.14363467e-002 0. 5.63546875e-003 0. 0. 3.64543195e-003 0. 0.
      2.94117648e-002 0. 0. 0. 4.50777495e-003 0. 0. 0. -2.53500808e-002
      0. 3.64543195e-003 0. 2.26812996e-002 0. 1.65213756e-002 0.
      4.23157122e-003 0. 0. 0. 0. 0. 0. -2.32558139e-002 1.47058824e-002
      0. 0. 0. 0. -2.50000004e-002 8.82448535e-003 0. 0.
      -4.54545468e-002 5.40379481e-003 0. 0. 1.21141858e-002
      -1.96078438e-002 0. 0. 0. -1.81818176e-002 5.43820811e-003 0. 0.
      0. 0. 2.13863347e-002 0. 0. 8.57660826e-003 1.01056248e-002 0. 0.
      -1.63934417e-002 4.10165265e-003 0. 5.40379481e-003 0.
      1.66105814e-002 0. 1.02655329e-002 -1.88679248e-002 0. 0. 0. 0. 0.
      0. -2.31812038e-002 0. 0. 6.88908761e-003 0. 0. -2.56410260e-002
      2.28442047e-002 -4.44444455e-002 0. 8.28208867e-003
      -9.64009296e-003 -1.40845068e-002 0. 0. 0. 0. 0. 0. 0. 0. 0. 0.
      4.84358426e-003 1.33137181e-002 0. 0. 0. 0. 0. 4.92856326e-003 0.
      1.16606019e-002 0. 6.03899360e-004 0. 0. 0. 0. 7.26916688e-003 0.
      -2.66666673e-002 0. 0. 0. 4.15475341e-003 0. 0. -6.37765415e-003
      -1.96103826e-002 -6.95333723e-003 0. 0. 9.39187128e-003
      1.21141858e-002 -2.04081628e-002 -5.12820520e-002 0. 0.
      -1.51463272e-002 -2.77777780e-002 1.01491930e-002 0. 0. 0.
      8.46604537e-003 0. 0. 5.94241638e-003 0. 0. 0. 8.89694598e-003
      -1.81818176e-002 0. 0. 1.33137181e-002 0. 9.63704661e-003 0. 0. 0.
      0. 0. 0. 0. 0. 8.46314244e-003 0. 0. 0. 4.02902998e-003
      -3.13188136e-002 0. 1.76988654e-002 8.91319104e-003 0. 0. 0.
      1.81945432e-002 1.33369826e-002 0. 0. 0. 1.47058824e-002 0.
      1.76489707e-002 0. 1.40207382e-002 0. 1.19131189e-002
      -1.44927539e-002 2.72175614e-002 -7.62754772e-003 5.90194482e-003
      0. 0. 0. 4.49639512e-003 1.04286764e-002 1.29750594e-002 0. 0. 0.
      2.39030132e-003 3.06711270e-004 0. 4.95294947e-003 4.15475341e-003
      0. 1.72461774e-002 -2.56410260e-002 -1.40845068e-002 0. 0. 0. 0.
      9.22297966e-003 0. -1.69491526e-002 0. 1.08764162e-002
      1.40207382e-002 0. 2.65482981e-002 0. 0. 9.22297966e-003 0.
      -2.70270277e-002 0. 0. 0. 0. 0. -1.96078438e-002 0.
      9.83677711e-003 0. -2.17391308e-002 8.91319104e-003
      -2.32558139e-002 1.15384087e-002 8.03377945e-003 4.02902998e-003
      0. 0. 4.70324373e-003 -1.72413792e-002 0. 0. 0. 0. 0.
      6.80287601e-003 9.22297966e-003 0. 1.01056248e-002 6.67402847e-003
      1.18038896e-002 0. 0. 6.66990038e-003 1.87760834e-002 0. 0.
      7.63720600e-003 0. 1.65707432e-002 0. 0. 8.91319104e-003
      -2.32558139e-002 0. 0. -6.36059344e-002 7.88714644e-003
      4.84358426e-003 8.80962890e-003 -2.56410260e-002 -2.22222228e-002
      0. 0. 0. 4.91761602e-003 0. 0. 1.01056248e-002 0. 8.22221860e-003
      4.82699927e-003 0. 0. 0. -3.12500000e-002 0. -1.18177840e-002
      -1.33333337e-002 0. 0. -1.63934417e-002 0. 0. 0. 0.
      7.88714644e-003 -1.55788139e-002 0. 1.05573377e-002 0.
      -2.70270277e-002 -2.22222228e-002 0. 1.53282816e-002
      -1.96078438e-002 0. 0. 0. 0. -2.56410260e-002 4.95294947e-003 0.
      0. 0. -1.88679248e-002 -2.44635511e-002 0. 8.03377945e-003
      8.96064844e-003 0. 0. -1.40845068e-002 0. 0. 2.13863347e-002
      8.89694598e-003 0. 0. 9.67018772e-003 0. 0. 6.80287601e-003 0.
      -3.13670337e-002 -2.56410260e-002 0. 0. 5.40379481e-003 0.
      -1.40845068e-002 0. 0. 0. 8.82448535e-003 9.86809377e-003 0. 0.
      1.25786718e-002 0. 9.67018772e-003 -1.51672633e-002
      8.39078706e-003 1.03792669e-002 0. 1.67097263e-002 8.89694598e-003
      0. 0. -2.56410260e-002 8.87678377e-003 8.89694598e-003 0.
      2.21453663e-002 1.60880815e-002 0. 4.92856326e-003
      -3.14265005e-002 8.89694598e-003 0. 0. -2.08333340e-002 0.
      -1.81818176e-002 0. 8.28208867e-003 0. 0. 0. 8.48209765e-003
      4.49639512e-003 0. 0. -4.97429334e-002 8.48209765e-003 0. 0. 0. 0.
      0. 1.26947146e-002 0. 4.49639512e-003 0. 0. -3.22580636e-002
      9.35903005e-003 0. 0. -1.96078438e-002 0. -4.46078442e-002 0.
      -6.14585774e-003 0. 4.70324373e-003 1.29824942e-002 0.
      9.81528684e-003 5.96853485e-003 2.70391088e-002 0. 0. 0. 0.
      3.55675481e-002 0. 0. 0. 0. -1.40845068e-002 0. 0. 8.13268591e-003
      0. 0. 0. 8.84879194e-003 -2.32558139e-002 0. 0. 0.
      -1.17206974e-002 5.78224426e-003 4.51644836e-003 0. 0. 0. 0. 0.
      8.84943269e-003 4.82699927e-003 0. -1.56250000e-002 0.
      4.92856326e-003 0. 4.95751575e-003 0. 0. 9.30460915e-003 0. 0. 0.
      0. 0. 0. 0. 0. 0. 1.12709375e-002 1.71354096e-002 8.84943269e-003
      0. 0. -3.94636020e-002 0. 0. 0. 1.01491930e-002 0.
      -2.43902430e-002 3.07923257e-002 0. -3.87152168e-003
      4.49639512e-003 0. 0. 0. 0. 4.84358426e-003 0. 8.52963980e-003 0.
      0. 5.90194482e-003 0. 0. 0. 0. 0. 3.31283547e-002 0. 0. 0.
      8.48209765e-003 0. 0. 1.05060311e-002 -2.43902430e-002
      -2.08333340e-002 0. 4.70324373e-003 0. 8.80962890e-003
      1.04286764e-002 1.54507561e-002 0. 9.47914179e-003 0. 0.
      1.02655329e-002 0. 4.82699927e-003 4.49639512e-003 0. 0. 0. 0.
      2.08573528e-002 0. 0. -2.32558139e-002 -5.91032617e-002 0. 0. 0.
      0. 0. 0. 0. 0. 1.26060806e-002 1.67815741e-002 0. -1.44927539e-002
      5.94241638e-003 8.22221860e-003 -4.09037918e-002 0.
      6.80287601e-003 1.15384087e-002 -3.75984348e-002 0. 0. 0. 0. 0. 0.
      0. 0. 0. 1.20629678e-002 0. 0. 0. -7.04839220e-003 0. 0. 0.
      1.05879521e-002 -1.88679248e-002 8.91319104e-003 8.13268591e-003
      4.91761602e-003 1.82178002e-002 0. 0. 1.45383338e-002 0. 0. 0.
      4.91761602e-003 -2.04081628e-002 0. 0. 0. 0. 0. 0. 5.57541242e-003
      0. 5.40379481e-003 0. 0. 0. 8.46604537e-003 0. -2.04081628e-002 0.
      0. 0. -2.56410260e-002 0. 4.95751575e-003 0. 0. 1.47058824e-002 0.
      0. 0. 0. 0. 0. -7.49231409e-003 0. 0. 0. 8.82448535e-003 0. 0. 0.
      0. -1.81818176e-002 8.22221860e-003 0. 8.96064844e-003 0. 0. 0. 0.
      8.03377945e-003 0. 0. 8.46314244e-003 0. 0. 8.82448535e-003
      9.18369833e-003 0. 8.91319104e-003 0. 0. 0. 1.17534781e-002 0. 0.
      0. 0. 0. 1.37264561e-002 0. -1.56250000e-002 0. 0. 0. 0. 0.
      4.95294947e-003 9.23591014e-003 0. 8.46314244e-003 0. 0. 0. 0.
      4.95751575e-003 0. -4.33467999e-002 0. -2.49888971e-002 0.
      -2.43902430e-002 0. 0. 9.35903005e-003 5.47394622e-003
      7.26916688e-003 -2.04081628e-002 3.64543195e-003 1.35513311e-002
      4.51644836e-003 -1.56250000e-002 5.40379481e-003 0. 0.
      -1.96078438e-002 0. -1.74986459e-002 1.96535755e-002
      9.01554991e-003 3.77878343e-004 0. 0. 0. 0. 9.23591014e-003
      4.92856326e-003 -2.12765951e-002 8.52963980e-003 2.22938545e-002
      1.17534781e-002 0. 0. 0. 6.67402847e-003 6.12304453e-003 0. 0.
      -1.56250000e-002 9.38804168e-003 -2.22222228e-002 -4.59236354e-002
      0. 4.23157122e-003 0. 0. 9.01554991e-003 -2.56410260e-002
      -2.22222228e-002 0. 0. 0. 9.35135875e-003 0. -2.22222228e-002
      1.79212969e-002 0. 0. 9.67018772e-003 4.92856326e-003
      1.77938920e-002 8.03377945e-003 0. 8.65114853e-003 0. 0. 0.
      -2.50000004e-002 0. 7.88714644e-003 0. 1.15384087e-002 0.
      1.02655329e-002 0. 0. 0. 0. 0. 0. 0. 0. 0. 4.95294947e-003
      1.15384087e-002 0. 8.84879194e-003 0. -9.37292539e-003
      -3.17341313e-002 0. 0. 0. -1.72413792e-002 0. 0. 0. 0. 0. 0. 0. 0.
      0. 0. 0. 0. 1.19145876e-002 0. 0. 0. 1.25786718e-002 0.
      -2.56410260e-002 8.91319104e-003 9.67018772e-003 0. 0.
      2.41259355e-002 1.18848328e-002 5.54710673e-003 1.25786718e-002
      1.37264561e-002 0. 9.67018772e-003 0. 0. 0. 0. 0. 0. 0.
      4.23157122e-003 -3.92156877e-002 0. 9.35903005e-003 0. 0. 0. 0.
      9.39187128e-003 0. 0. 4.92856326e-003 1.26976166e-002 0. 0. 0. 0.
      4.50777495e-003 8.28208867e-003 1.25786718e-002 0. 0. 0. 0. 0. 0.
      0. -2.56410260e-002 -2.77777780e-002 0. 0. 0. 0. 1.83771290e-002
      1.08075896e-002 0. 0. 0. 1.06931673e-002 2.78639551e-002 0. 0.
      -1.56250000e-002 -2.17391308e-002 0. 0. 4.70324373e-003 0. 0.
      -2.56410260e-002 1.47058824e-002 0. 0. 8.28208867e-003
      3.64543195e-003 9.30460915e-003 1.01056248e-002 0. 0.
      -2.94117648e-002 0. 0. 0. 0. 0. 1.01491930e-002 0.
      -2.56410260e-002 0. 1.51067087e-002 5.47394622e-003
      9.63704661e-003 9.42687597e-003 -1.96078438e-002 0.
      8.13268591e-003 4.58796369e-003 4.73424885e-003 0. 8.96064844e-003
      -3.43886875e-002 0. 1.16606019e-002 -1.72413792e-002 0. 0.
      4.84358426e-003 1.05060311e-002 3.16585265e-002 1.19145876e-002 0.
      0. 0. 0. 0. 1.47058824e-002 8.99279024e-003 0. -1.85901783e-002
      -2.56410260e-002 9.63704661e-003 0. 8.96064844e-003 0.
      5.63546875e-003 0. 0. 1.00388601e-002 0. 0. 1.25786718e-002
      -2.32558139e-002 0. 0. -2.63157897e-002 1.96710955e-002
      1.64264366e-002 -1.51978647e-002 1.18213827e-002 4.10165265e-003
      -2.32558139e-002 0. 0. 0. -6.06060624e-002 -2.70270277e-002 0. 0.
      0. -3.92156877e-002 0. 0. 6.80287601e-003 8.46604537e-003 0. 0. 0.
      0. -1.44927539e-002 0. 1.21141858e-002 0. 0. 0. 0. 0.
      1.37264561e-002 0. 1.35341240e-002 0. 8.96064844e-003 0. 0. 0. 0.
      0. -1.33333337e-002 1.57742929e-002 -4.10006158e-002
      1.83627829e-002 -1.33333337e-002 0. 0. -1.81818176e-002
      -1.44927539e-002 0. 7.88714644e-003 0. 0. 9.42687597e-003
      -2.08333340e-002 1.21141858e-002 0. 0. 0. 1.02655329e-002
      4.51644836e-003 0. 0. 0. 9.07251984e-003 0. 0. 1.62408985e-002
      1.00388601e-002 0. 0. -2.14363467e-002 0. 0. 0. 7.97541812e-003
      1.37264561e-002 0. 0. 0. 1.04286764e-002 0. 0. 0. 1.00388601e-002
      0. 0. 4.70324373e-003 0. 0. 0. -2.70270277e-002 -1.55645786e-002
      -1.63934417e-002 -2.27272734e-002 6.42232364e-003 -1.63934417e-002
      5.54710673e-003 0. 0. 0. 9.07251984e-003 0. 0. -2.34670076e-003 0.
      0. 0. 0. 0. 0. 0. 1.03792669e-002 0. 8.82448535e-003
      -2.94181257e-002 0. 0. 0. 0. 7.29782507e-003 0. 0. 4.95751575e-003
      0. 8.86876788e-003 1.01056248e-002 4.70324373e-003 1.46607850e-002
      0. 0. 0. 0. 0. 7.26916688e-003 7.97541812e-003 0. 0. 0. 0. 0.
      9.42687597e-003 0. 0. 6.57071080e-003 0. 0. 0. 1.15384087e-002 0.
      8.13268591e-003 0. 0. 0. 0. 0. 0. -2.27272734e-002 9.38804168e-003
      1.18958298e-002 0. 2.16151793e-002 0. 0. 4.59657423e-003 0. 0.
      7.26916688e-003 6.03375724e-003 0. 0. 0. 0. 0. 0. 0. 0. 0.
      -1.33333337e-002 0. -1.33333337e-002 0. -2.70270277e-002 0.
      -1.85220279e-002 0. 0. 0. 0. 5.94241638e-003 0. 2.10116636e-002 0.
      0. 0. 0. 0. 0. 9.39187128e-003 5.94241638e-003 0. -2.94117648e-002
      -4.54545468e-002 -2.27272734e-002 0. 0. 0. 4.95751575e-003
      -1.96078438e-002 8.22221860e-003 -1.56250000e-002 0. 0.
      -8.71050917e-003 0. -1.96078438e-002 -2.27272734e-002 0. 0. 0. 0.
      9.63704661e-003 4.49639512e-003 0. 8.89694598e-003 0.
      -2.43902430e-002 4.36033541e-003 0. 0. 0. 4.95751575e-003
      1.18958298e-002 1.25786718e-002 0. 7.26916688e-003 9.03289672e-003
      1.40207382e-002 0. -2.04081628e-002 0. 9.38804168e-003 0. 0.
      -5.05868830e-002 1.03546157e-002 0. 1.71532165e-002
      9.19314846e-003 0. -1.81818176e-002 1.47058824e-002
      8.57660826e-003 9.23591014e-003 0. 8.96064844e-003 0. 0.
      9.38804168e-003 0. 0. 4.70324373e-003 0. 0. 0. 0. 0.
      5.43820811e-003 -1.72615536e-002 8.22221860e-003 -1.56250000e-002
      0. -2.81108469e-002 0. 0. 6.88908761e-003 6.80287601e-003
      4.91838856e-003 -1.44927539e-002 4.91838856e-003 3.64543195e-003
      -7.51961581e-003 0. -2.32558139e-002 0. -8.78381636e-003
      1.79212969e-002 0. 0. 0. 0. 1.18958298e-002 0. 0. 8.39078706e-003
      6.42232364e-003 0. 0. 0. 1.05573377e-002 1.51083963e-002
      1.42027466e-002 0. 0. 0. 0. 6.03375724e-003 0. 0. 4.92856326e-003
      0. -1.88679248e-002 0. 1.15384087e-002 1.03792669e-002 0. 0.
      -1.44927539e-002 -3.03030312e-002 0. 5.40379481e-003 0. 0. 0. 0.
      -2.89573967e-002 1.01056248e-002 0. 0. -2.70270277e-002 0. 0.
      -1.25210164e-002 0. 5.78224426e-003 7.63720600e-003
      -4.22523133e-002 1.62113849e-002 0. 0. 0. 0. 0. 0. 9.30460915e-003
      6.67402847e-003 0. 1.64754111e-002 0. 0. 1.88537519e-002 0. 0. 0.
      0. 0. 9.42687597e-003 0. -1.81818176e-002 -3.22580636e-002 0. 0.
      0. 1.65213756e-002 0. 4.70324373e-003 0. 0. 0. 0. 2.41259355e-002
      0. 9.18369833e-003 0. 0. 6.12304453e-003 0. 0. 0. 0. 0. 0. 0. 0.
      4.92856326e-003 -3.42889316e-003 -1.72413792e-002 0. 0.
      -1.69491526e-002 7.63720600e-003 1.25555946e-002 0. 0.
      6.42232364e-003 -1.96078438e-002 8.96064844e-003 0. 0.
      7.29782507e-003 0. 0. 1.78028736e-002 -3.12500000e-002
      1.25786718e-002 0. 9.39187128e-003 0. 0. 8.52963980e-003 0.
      7.26916688e-003 0. -2.43902430e-002 0. 0. -7.44622201e-002 0.
      8.39078706e-003 -1.44199599e-002 0. 0. -3.03030312e-002
      9.23591014e-003 0. 4.91838856e-003 0. 0. 5.43820811e-003
      -4.12660241e-002 0. 2.11759042e-002 -1.49253728e-002 0. 0. 0. 0.
      0. 1.00388601e-002 6.67402847e-003 0. 0. -4.43634996e-003 0.
      -2.12765951e-002 7.88714644e-003 -2.43902430e-002 0. 0. 0.
      6.67402847e-003 0. 0. 0. 0. 0. 0. 4.50777495e-003 0. 0.
      2.09856387e-002 -2.08333340e-002 0. 0. 0. -3.79958679e-003 0. 0.
      8.82448535e-003 8.05911422e-003 0. 6.80287601e-003 0.
      1.01056248e-002 -2.27272734e-002 0. 0. 0. 0. 0. -2.70270277e-002
      1.02655329e-002 0. 0. 0. 0. 8.39078706e-003 0. 0. 9.55315400e-003
      8.96064844e-003 0. -8.91467649e-003 8.91319104e-003
      8.05911422e-003 0. 0. 9.07251984e-003 1.81297623e-002
      8.96064844e-003 0. 4.51644836e-003 0. -2.56410260e-002 0. 0.
      1.21141858e-002 -1.27780223e-002 1.54597051e-002 2.66739652e-002
      -1.95082370e-003 -2.32558139e-002 0. 0. 0. 0. 2.48462670e-002 0.
      1.78150628e-002 7.88714644e-003 8.13268591e-003 0. 4.73957090e-003
      0. 0. 1.08075896e-002 0. 0. 0. 0. 0. 0. 0. 0. 8.28208867e-003 0.
      0. -2.56410260e-002 0. 0. 0. 9.54737701e-003 9.63704661e-003
      -2.32558139e-002 1.45138316e-002 0. 0. 0. 0. 1.84762739e-002
      -2.32558139e-002 -5.64402789e-002 0. 0. 5.47394622e-003 0. 0. 0.
      -2.22222228e-002 8.48209765e-003 8.22221860e-003 0.
      -3.93689349e-002 0. 0. 0. 0. 8.84943269e-003 0. -3.00820661e-003
      1.08764162e-002 0. 0. 0. -3.36923525e-002 0. 8.84879194e-003
      5.47394622e-003 0. 0. 8.84879194e-003 -1.56250000e-002
      8.84879194e-003 8.91319104e-003 -2.94117648e-002 0. 0. 0.
      -2.04081628e-002 0. -2.77777780e-002 1.19145876e-002 0. 0. 0. 0.
      0. 1.40254693e-002 0. 1.37264561e-002 0. 0. 0. 0. 5.90194482e-003
      1.19145876e-002 5.54710673e-003 0. 0. 2.01269556e-002 0.
      1.16606019e-002 1.08764162e-002 0. 0. 0. 4.10165265e-003
      1.03792669e-002 -2.22222228e-002 9.67018772e-003 9.63704661e-003
      0. 0. 0. -2.94117648e-002 -1.49253728e-002 8.48209765e-003
      8.82448535e-003 0. 0. 0. 0. 0. -1.72413792e-002 0. 0. 0.
      -4.37112525e-003 0. 9.23591014e-003 0. -3.73268537e-002 0.
      8.91319104e-003 0. 0. 0. 1.47058824e-002 -2.94117648e-002
      1.59508362e-002 0. 4.84358426e-003 0. 1.02655329e-002
      4.59657423e-003 0. 4.23157122e-003 -2.32558139e-002
      1.03792669e-002 -2.65467558e-002 9.39187128e-003 0. 0.
      -1.63934417e-002 0. 4.82699927e-003 0. 0. 0. 0. 0. 0.
      4.91838856e-003 -7.12436959e-002 4.70324373e-003 0. 0. 0.
      8.28208867e-003 0. 0. -1.21859442e-002 0. 0. 0. 0. 4.84358426e-003
      0. 2.11894419e-002 0. 1.04286764e-002 -1.73547100e-002
      -1.18429558e-002 0. 0. 0. 0. 0. -1.44927539e-002 4.91838856e-003
      8.13268591e-003 -1.96078438e-002 0. 0. 0. 1.00388601e-002 0.
      -2.63157897e-002 0. 0. 5.78224426e-003 0. 0. 0. 0. 9.19314846e-003
      0. 1.37781752e-002 0. 0. 0. 0. 0. 1.04286764e-002 5.63546875e-003
      0. 1.69641953e-002 5.94241638e-003 0. 4.23157122e-003 0.
      5.78224426e-003 0. 0. 0. 0. -2.32558139e-002 0. 0. 0.
      6.03375724e-003 0. 0. -3.03030312e-002 -2.43902430e-002 0.
      -2.62993127e-002 9.39187128e-003 0. -2.32558139e-002
      1.05573377e-002 0. 0. 1.14525789e-002 -1.49253728e-002 0. 0. 0.
      5.90194482e-003 0. 0. 0. 0. 0. 1.47058824e-002 1.24035943e-002 0.
      0. 7.97541812e-003 0. 1.37386993e-002 0. 0. 0. 0. 0. 0.
      -1.96078438e-002 -3.12500000e-002 -2.08333340e-002
      -1.69491526e-002 -5.40540554e-002 0. -1.10180471e-002 0.
      -1.81818176e-002 4.95294947e-003 0. 0. 0. 0. 8.13268591e-003 0.
      -1.49253728e-002 1.18958298e-002 5.54710673e-003 1.01491930e-002
      0. 0. 0. 6.80287601e-003 0. 0. 0. 0. 0. 2.08573528e-002
      1.96305737e-002 0. -2.77777780e-002 6.67402847e-003 0. 0.
      2.27079839e-002 9.22297966e-003 0. 0. 0. 5.54710673e-003 0. 0.
      1.93403754e-002 1.65213756e-002 5.96853485e-003 6.42232364e-003 0.
      0. 5.90194482e-003 0. 0. 0. 1.16606019e-002 0. 0. 4.84358426e-003
      0. 0. 0. 0. -1.69491526e-002 0. 0. 9.65399854e-003 0.
      8.05805996e-003 4.10165265e-003 0. 0. 1.88537519e-002 0. 0.
      -2.56410260e-002 0. 4.23157122e-003 0. 9.38804168e-003
      -1.81818176e-002 1.64815225e-002 0. 0. 1.20629678e-002 0. 0. 0. 0.
      0. 1.91063080e-002 -3.22580636e-002 9.07251984e-003
      6.80287601e-003 6.88908761e-003 -4.25531901e-002 0. 0. 0.
      4.15475341e-003 4.70324373e-003 0. 0. 0. 1.01491930e-002
      9.91503149e-003 0. 1.05573377e-002 0. 0. 0. 9.35903005e-003
      6.42232364e-003 0. 0. -2.94117648e-002 0. 4.73424885e-003
      -2.40605269e-002 6.03375724e-003 0. -1.69491526e-002 0.
      -4.34356090e-003 0. 4.79204999e-003 5.63546875e-003 0. 0. 0.
      -1.00495880e-002 0. 8.03377945e-003 -2.27272734e-002 0.
      -1.44927539e-002 0. -2.77777780e-002 -1.72413792e-002 0. 0. 0.
      -2.05629729e-002 4.84358426e-003 0. 0. 6.67402847e-003
      3.64543195e-003 0. 5.47394622e-003 4.84358426e-003 0. 0.
      -1.40845068e-002 0. 5.90194482e-003 0. 0. -1.29176136e-002
      1.06931673e-002 0. 0. 1.47058824e-002 0. 0. 0. 4.91838856e-003
      4.02902998e-003 0. 0. 0. 1.33137181e-002 0. 1.65213756e-002
      1.03387125e-002 -2.32558139e-002 4.59657423e-003 0. 0. 0. 0.
      9.63704661e-003 -1.40845068e-002 0. 0. 0. 0. 0. 1.33137181e-002 0.
      4.92856326e-003 8.89694598e-003 1.25786718e-002 0. 0.
      -2.56410260e-002 0. 8.28208867e-003 0. 8.46604537e-003 0. 0.
      6.42232364e-003 0. 0. 0. 0. 0. 4.95294947e-003 0. 0.
      1.78263821e-002 0. 0. 0. -5.88738732e-003 1.42174624e-002 0.
      4.95751575e-003 -2.63156481e-002 0. 0. -1.56250000e-002
      -5.64332074e-003 5.40379481e-003 0. 0. 0. 1.19145876e-002
      6.66990038e-003 0. -1.96078438e-002 6.03375724e-003 0. 0.
      8.89694598e-003 0. 1.50585743e-002 0. 0. -1.33333337e-002
      7.29782507e-003 0. 0. -2.77502891e-002 1.71532165e-002 0. 0. 0.
      8.57660826e-003 8.52963980e-003 -1.81818176e-002 0. 0.
      -1.44461850e-002 0. 9.63704661e-003 0. -2.56410260e-002
      4.84358426e-003 4.59657423e-003 0. 0. 0. 7.29782507e-003 0.
      1.57742929e-002 4.23157122e-003 0. 0. 0. 0. 4.92856326e-003 0. 0.
      0. 0. 0. 0. 0. 0. 0. 9.67018772e-003 0. 0. 0. 0. 0.
      -1.03719337e-002 -1.72413792e-002 1.05060311e-002 0. 0.
      8.84879194e-003 0. 0. -3.26477084e-003 0. 0. -1.69491526e-002
      1.18958298e-002 1.01491930e-002 0. 0. 9.39187128e-003 0. 0. 0.
      7.26916688e-003 0. 8.96064844e-003 5.40379481e-003 0.
      1.45956501e-002 0. 0. -1.44927539e-002 0. -1.44927539e-002 0. 0.
      1.80497691e-002 0. 0. 1.47058824e-002 1.58490445e-002 0. 0.
      1.19145876e-002 6.03375724e-003 0. 0. 9.38804168e-003
      9.39187128e-003 0. 5.54710673e-003 6.80287601e-003
      -1.56160863e-002 0. 0. 0. 0. 0. 0. 3.64543195e-003 0. 0.
      4.95294947e-003 -1.33333337e-002 0. 0. 1.53282816e-002 0. 0. 0.
      1.03792669e-002 2.02983860e-002 0. 0. 0. 0. 1.37264561e-002
      6.67402847e-003 0. 1.10942135e-002 6.42232364e-003
      -1.33333337e-002 0. -1.56250000e-002 4.10165265e-003 0. 0.
      3.22685987e-002 2.42283717e-002 0. 4.10165265e-003
      -1.44927539e-002 0. 0. 0. 0. 1.17534781e-002 0. 0. 0.
      -4.22095321e-002 0. 0. 4.73957090e-003 0. 4.95751575e-003 0. 0.
      6.66990038e-003 0. 0. 0. 4.50777495e-003 0. 0. 0. 0.
      -1.40845068e-002 0. -2.54677553e-002 -1.49253728e-002 0. 0. 0.
      5.43820811e-003 0. 0. 1.05060311e-002 0. 0. -1.40845068e-002
      -4.63998914e-002 0. -2.32558139e-002 0. 1.19145876e-002 0.
      8.13268591e-003 7.88714644e-003 -1.28993904e-002 0. 0. 0.
      5.54710673e-003 0. 0. 0. 0. 0. 0. -3.12500000e-002
      -1.33333337e-002 -2.43902430e-002 -1.40845068e-002
      -1.27780223e-002 0. -1.88679248e-002 0. 0. -1.44927539e-002 0. 0.
      -1.63934417e-002 -1.72413792e-002 3.64543195e-003 5.63546875e-003
      5.78224426e-003 -3.12500000e-002 0. 0. 0. 0. 0. 8.82448535e-003 0.
      0. 0. 0. 0. 1.05640320e-002 0. 0. -4.33742069e-003 0.
      4.10165265e-003 1.93815473e-002 5.78224426e-003 0. 0.
      6.12304453e-003 0. 1.01491930e-002 0. 0. 1.33480569e-002
      6.03375724e-003 0. 0. 0. 1.04286764e-002 -2.50000004e-002 0. 0. 0.
      2.51573436e-002 0. 0. -2.06362866e-002 0. -2.43902430e-002 0.
      6.12304453e-003 0. 0. 0. -4.29670326e-002 0. 0. 5.40379481e-003 0.
      0. 0. 0. 4.02902998e-003 0. 0. 0. 0. 0. 0. 0. 0. 4.70324373e-003
      0. -2.37762965e-002 0. 0. 0. 0. 0. 8.46604537e-003 2.10120622e-002
      0. 4.73424885e-003 4.59657423e-003 0. 6.57071080e-003 0.
      4.23157122e-003 0. 0. 0. 4.70324373e-003 -1.72413792e-002 0.
      8.39078706e-003 1.52696678e-002 -1.56250000e-002 8.28208867e-003
      0. 0. 4.10165265e-003 -1.40845068e-002 0. 0. -1.39512047e-002 0.
      4.36033541e-003 0. 0. 0. 0. 0. 8.48209765e-003 -2.12765951e-002 0.
      -1.33333337e-002 0. 0. 2.83449907e-002 0. 5.40379481e-003 0. 0. 0.
      0. 0. 0. 0. 5.96853485e-003 0. 0. 0. -1.63934417e-002
      1.77180078e-002 0. 4.84358426e-003 0. 0. -2.74326708e-002 0. 0. 0.
      0. 1.37264561e-002 0. 0. 6.66990038e-003 0. 0. 0. 9.18369833e-003
      2.02983860e-002 6.80287601e-003 0. 0. -2.94117648e-002
      -2.04081628e-002 0. 0. 0. 0. 2.35417429e-002 0. 6.12304453e-003
      2.51573436e-002 0. 0. 8.48209765e-003 0. 0. -2.43902430e-002
      -1.40845068e-002 0. 1.04286764e-002 0. 0. 1.16606019e-002 0. 0.
      5.43820811e-003 9.30460915e-003 7.97541812e-003 0.
      -1.96078438e-002 0. -3.40640225e-004 0. 0. 0. 1.91024393e-002 0.
      0. 0. 1.21141858e-002 -1.81818176e-002 2.66274363e-002 0. 0.
      -1.72413792e-002 0. 0. 0. 0. 0. 0. 9.42687597e-003 0.
      -3.22580636e-002 0. -2.27272734e-002 0. 8.84943269e-003 0.
      1.02655329e-002 0. -9.97079723e-003 0. 0. 0. 0. 0. 0. 0.
      1.02655329e-002 0. 0. 0. 0. 0. 0. 0. -2.32558139e-002
      -3.35116982e-002 -6.45161271e-002 1.01491930e-002 0. 0.
      -1.49253728e-002 4.92856326e-003 0. 0. -2.27272734e-002
      1.09181181e-002 0. 0. 0. 9.07251984e-003 0. -1.47129793e-003
      9.18369833e-003 0. 0. 5.40379481e-003 0. 0. 0. 0. 8.05911422e-003
      9.22297966e-003 0. 0. 1.64264366e-002 6.12304453e-003
      8.57660826e-003 0. 0. 0. 0. 6.67402847e-003 0. 0. 0.
      5.40379481e-003 0. 0. 4.49639512e-003 1.21141858e-002 0. 0. 0. 0.
      0. 1.00388601e-002 5.43820811e-003 0. 0. 0. 0. -2.43902430e-002 0.
      0. 0. 0. 0. 4.84358426e-003 -2.14363467e-002 1.33137181e-002 0.
      8.82448535e-003 0. 0. -1.56250000e-002 5.90194482e-003 0. 0. 0.
      -2.12765951e-002 -1.40845068e-002 0. -1.21165980e-002
      1.33137181e-002 0. 0. 2.79942211e-002 0. 0. 0. 7.29782507e-003 0.
      5.94241638e-003 0. 7.88714644e-003 9.23591014e-003 8.46604537e-003
      0. 0. 0. 9.38804168e-003 0. 0. 5.78224426e-003 0. 0.
      5.40379481e-003 -1.96078438e-002 8.46604537e-003 0. 0. 0.
      1.04286764e-002 8.22221860e-003 0. 0. -1.56250000e-002
      8.46604537e-003 -1.81818176e-002 0. 0. 0. 1.09362956e-002
      -1.72413792e-002 0. 0. 0. 0. 0. 0. 3.64543195e-003
      -3.94613519e-002 0. 0. 6.57071080e-003 -1.63934417e-002 0.
      6.03375724e-003 0. 0. 0. 0. 0. -2.77777780e-002 0. 0.
      -2.08333340e-002 4.82699927e-003 0. 1.01739876e-002 0.
      8.39078706e-003 6.12304453e-003 0. 2.52663083e-002 0.
      5.96853485e-003 4.49639512e-003 -8.75623524e-003 7.92328361e-003
      0. 5.47394622e-003 0. 5.96853485e-003 1.02655329e-002 0. 0.
      2.02529896e-002 0. 1.58744324e-002 1.07694156e-002 8.28208867e-003
      0. 0. 0. 1.01056248e-002 0. 0. 0. 4.23157122e-003 0. 0.
      -1.63934417e-002 1.15384087e-002 0. 0. 1.16222957e-002
      -1.56250000e-002 1.78263821e-002 1.15384087e-002 0. 0.
      1.02655329e-002 9.18369833e-003 0. 9.35903005e-003 1.92740932e-002
      0. 0. 0. 4.02902998e-003 0. 1.01056248e-002 4.91761602e-003 0. 0.
      9.22297966e-003 5.47394622e-003 5.94241638e-003 0. 0.
      8.89694598e-003 0. 0. 0. -2.22222228e-002 0. 4.92856326e-003 0. 0.
      -1.56250000e-002 0. 9.07251984e-003 0. 0. 0. 8.22221860e-003 0. 0.
      3.26542072e-002 5.96853485e-003 8.03377945e-003 1.19145876e-002
      -4.82256617e-003 0. -2.27272734e-002 0. 4.70324373e-003
      7.97541812e-003 0. 0. 0. 7.88714644e-003 0. 0. -1.40845068e-002 0.
      4.36033541e-003 -4.38132100e-002 0. 0. 0. 0. 0. 9.63704661e-003 0.
      0. 0. 0. -1.15233473e-002 0. -2.22222228e-002 0. 0. 0. 0.
      8.46604537e-003 0. -2.17391308e-002 8.84943269e-003 0. 0. 0. 0.
      -1.75123792e-002 1.05879521e-002 1.59943830e-002 1.47058824e-002
      -2.22222228e-002 0. 0. 0. 0. 0. -1.56250000e-002 0.
      -1.73589364e-002 0. 0. 0. -2.71483473e-002 0. 0. 8.82448535e-003
      0. 0. 0. 9.55854822e-003 4.84358426e-003 0. 6.12304453e-003 0. 0.
      0. 0. 4.84358426e-003 0. 0. -2.65467558e-002 6.66990038e-003
      -1.72413792e-002 0. 1.21275298e-002 0. 0. 1.06931673e-002 0.
      4.15475341e-003 0. 1.60593707e-002 0. -1.59149449e-002
      -1.11851832e-002 0. 2.80414764e-002 8.89694598e-003 0. 0.
      -2.12765951e-002 0. -1.40845068e-002 -1.52215762e-002 0.
      4.49639512e-003 4.36033541e-003 0. 0. 0. -2.32558139e-002 0.
      1.54829852e-003 -2.22222228e-002 0. 0. 6.67402847e-003
      2.45516356e-002 0. 7.63720600e-003 0. 0. 0. 0. 6.80287601e-003
      -7.81377684e-003 0. 0. 0. -1.72413792e-002 -1.72413792e-002
      8.72067083e-003 0. -1.60502568e-002 0. 0. 7.29782507e-003 0.
      1.21141858e-002 4.51644836e-003 0. 0. 0. 0. 4.15475341e-003 0. 0.
      0. 0. 0. 1.05879521e-002 1.13539919e-002 5.43820811e-003 0.
      2.20055487e-002 -1.96078438e-002 1.09145986e-002 -2.50000004e-002
      1.00388601e-002 1.37264561e-002 0. 0. 0. 5.47394622e-003 0. 0. 0.
      0. -2.17391308e-002 0. 7.26916688e-003 0. 0. 0. 0. 0. 0.
      -1.88679248e-002 6.67402847e-003 0. 1.88537519e-002 0.
      4.82699927e-003 1.13539919e-002 0. 0. 5.78224426e-003 0. 0.
      1.17534781e-002 0. 0. 4.50777495e-003 0. -2.43902430e-002 0. 0. 0.
      0. 0. 0. 0. 0. 0. -7.55728083e-003 1.19131189e-002 8.46604537e-003
      0. -1.96078438e-002 0. -5.25265932e-002 0. -1.72413792e-002
      2.97401547e-002 8.80962890e-003 0. 4.84358426e-003 6.03375724e-003
      0. 0. -2.17391308e-002 0. 0. 4.84358426e-003 0. 8.89694598e-003 0.
      0. 0. 0. 9.63704661e-003 9.35903005e-003 0. 0. 0. 0.
      -2.04081628e-002 -2.94117648e-002 9.39187128e-003 5.66802546e-003
      -2.33370140e-002 1.33369826e-002 0. 2.66274363e-002 0. 0. 0. 0. 0.
      0. 0. 0. 4.15475341e-003 0. 6.03375724e-003 0. 0. 0.
      -2.56410260e-002 1.05573377e-002 0. -8.73426534e-003
      5.90194482e-003 4.23157122e-003 -3.01177539e-002 0. 0. 0. 0.
      6.57071080e-003 0. 1.13539919e-002 0. 7.88714644e-003
      1.47058824e-002 0. 0. 0. 1.04286764e-002 5.90194482e-003
      7.26916688e-003 6.03375724e-003 4.10165265e-003 -2.43902430e-002
      0. 0. 0. 0. 0. 0. 0. 0. 0. 6.66990038e-003 -1.63934417e-002
      2.12177280e-002 0. 0. -7.05337301e-002 4.23157122e-003
      8.39078706e-003 8.84879194e-003 8.57660826e-003 0. 8.03377945e-003
      0. 0. 0. 0. 0. 0. 4.59657423e-003 -7.69472541e-003 1.35277286e-002
      0. 0. 3.38233188e-002 0. -6.06060624e-002 0. 0. 0. 0.
      7.97541812e-003 0. 0. 0. 0. 9.39187128e-003 1.20629678e-002
      1.19131189e-002 1.04286764e-002 2.80584097e-002 0. 0. 0.
      -4.12411615e-002 0. 5.90194482e-003 0. 0. 0. 0. -3.12500000e-002
      -2.56410260e-002 0. -1.40845068e-002 8.57660826e-003 0. 0.
      -1.72413792e-002 8.52963980e-003 -1.68253276e-002 1.25786718e-002
      0. 9.38804168e-003 5.43820811e-003 0. 5.90194482e-003 0.
      5.54710673e-003 1.30940313e-002 0. 0. -1.96078438e-002
      -2.22222228e-002 -9.85293556e-003 1.25647429e-002 0.
      7.26916688e-003 0. 8.13268591e-003 0. 1.02655329e-002
      -3.13188136e-002 0. 8.82448535e-003 0. 0. 0. 0. 0. 4.49639512e-003
      0. 8.28208867e-003 0. 0. 0. 0. -5.64069347e-003 0. 5.47394622e-003
      8.52963980e-003 9.19314846e-003 8.82448535e-003 0. 1.13539919e-002
      0. 4.23157122e-003 7.29782507e-003 0. 8.57660826e-003
      1.74215846e-002 -2.32558139e-002 0. 8.84943269e-003 0. 0. 0. 0.
      7.29782507e-003 -1.49253728e-002 0. 1.05573377e-002
      -6.02801004e-003 0. 0. 0. 0. 0. 0. 0. 8.28208867e-003
      7.88714644e-003 0. 1.00399656e-002 0. 0. 0. 4.36033541e-003
      -1.88679248e-002 0. 8.05805996e-003 0. 0. -1.27709564e-002 0.
      -1.33333337e-002 0. 0. 0. 0. 0. 0. -2.70270277e-002 0. 0. 0. 0. 0.
      0. 8.39078706e-003 5.43820811e-003 1.16606019e-002 9.85712651e-003
      0. 0. 0. 0. 0. 8.52963980e-003 0. 0. 0. 4.63355379e-003
      -1.33333337e-002 0. 0. 6.42232364e-003 0. 8.39078706e-003
      4.95294947e-003 0. 3.64543195e-003 1.21141858e-002 6.57071080e-003
      -4.83973138e-003 1.05879521e-002 0. 0. 0. 0. -3.48593518e-002
      -1.81818176e-002 0. -2.43902430e-002 0. 0. 1.05060311e-002
      4.23157122e-003 0. 0. 0. -2.50000004e-002 1.21141858e-002
      8.46604537e-003 0. 0. 0. 0. 0. 0. 0. 0. 0. 0. 1.76988654e-002 0.
      -1.33333337e-002 0. 0. 1.40678901e-002 1.15875164e-002
      8.84943269e-003 9.23591014e-003 0. 0. 8.84879194e-003
      9.30460915e-003 0. 0. 0. 1.25786718e-002 0. 0. 0. 8.89694598e-003
      0. 0. 8.60942714e-003 0. 5.94241638e-003 0. 4.84358426e-003
      -2.08333340e-002 1.01491930e-002 0. 4.91838856e-003 0. 0. 0. 0.
      2.94117648e-002 -1.63934417e-002 7.26916688e-003 4.51644836e-003
      1.05060311e-002 0. -1.96078438e-002 1.41782230e-002
      -1.11257462e-002 0. 0. 0. 0. 0. 0. 0. 0. 0. -1.22599890e-002 0. 0.
      0. 0. 0. -2.56410260e-002 1.91752650e-002 5.47394622e-003
      -1.81818176e-002 4.91838856e-003 0. 0. 9.63704661e-003 0.
      8.96064844e-003 9.22297966e-003 8.03377945e-003 0. 0. 0.
      6.12304453e-003 0. 0. -2.56410260e-002 0. 7.29782507e-003 0.
      7.63720600e-003 0. 0. 0. 1.89481247e-002 9.38804168e-003 0.
      1.02655329e-002 0. 0. 1.20629678e-002 0. 0. 4.50777495e-003
      9.07251984e-003 5.57541242e-003 -1.96078438e-002 0.
      4.84358426e-003 -1.72413792e-002 0. -1.81818176e-002
      9.81528684e-003 4.91761602e-003 0. 3.55246477e-002 0.
      5.57541242e-003 5.54710673e-003 9.35903005e-003 0. 8.46604537e-003
      4.82699927e-003 7.29782507e-003 8.96064844e-003 6.66990038e-003
      4.70324373e-003 0. 0. 6.80287601e-003 0. 0. 0. 0. 0.
      4.59657423e-003 8.46604537e-003 7.97541812e-003 0. 0.
      1.40207382e-002 0. 8.89694598e-003 0. 0. -1.56250000e-002 0.
      -1.29902810e-002 -1.56250000e-002 1.65213756e-002 0. 0.
      1.06931673e-002 0. 8.39078706e-003 9.30460915e-003 2.69347765e-002
      0. 0. 0. 0. 0. -1.45570002e-002 3.81825939e-002 0. 0.
      1.20629678e-002 0. 1.05879521e-002 -2.08333340e-002
      1.19145876e-002 0. 0. 0. -1.69491526e-002 9.39187128e-003 0. 0. 0.
      0. -1.96078438e-002 -3.38983051e-002 0. 4.95294947e-003 0.
      7.88714644e-003 0. -1.81818176e-002 5.40379481e-003 0. 0.
      1.05573377e-002 0. -4.25531901e-002 9.23591014e-003
      8.84879194e-003 1.05573377e-002 8.28208867e-003 0. 0. 0.
      6.67402847e-003 0. 1.81172024e-002 0. 0. 0. 3.64543195e-003 0.
      -2.91725108e-003 8.48209765e-003 0. 0. 1.40207382e-002
      6.66990038e-003 0. -3.75203765e-003 6.42232364e-003 0.
      4.95751575e-003 5.94241638e-003 0. 5.54710673e-003 8.84943269e-003
      0. 0. 4.02902998e-003 1.64264366e-002 1.46494471e-002
      -1.44927539e-002 0. -1.56250000e-002 0. 0. -5.55140944e-003
      -3.03030312e-002 4.84358426e-003 8.52963980e-003 0.
      4.84358426e-003 1.04286764e-002 0. 0. 3.25001702e-002 0.
      5.54710673e-003 0. 9.35903005e-003 -1.81818176e-002
      5.54710673e-003 -2.77777780e-002 0. 5.54710673e-003 0. 0. 0. 0. 0.
      0. 6.67402847e-003 9.18369833e-003 -4.10460345e-002 0.
      4.95294947e-003 0. 0. 0. 0. -2.94117648e-002 7.26916688e-003
      9.55854822e-003 0. 4.49639512e-003 0. 0. 0. -2.77777780e-002
      -1.96078438e-002 9.42687597e-003 6.12304453e-003 0.
      -2.32558139e-002 4.95294947e-003 0. 0. 0. 0. 4.59657423e-003 0.
      -1.40845068e-002 7.26916688e-003 0. 0. -2.77777780e-002
      1.87700540e-002 0. 0. 0. 1.15384087e-002 0. 6.12304453e-003 0. 0.
      1.05573377e-002 0. 0. 0. 0. -2.43902430e-002 9.23591014e-003 0. 0.
      0. 0. 0. 6.67402847e-003 4.91838856e-003 0. 1.47762336e-002
      -3.20150852e-002 0. 0. 3.64543195e-003 0. 0. 0. 1.37264561e-002 0.
      -1.88679248e-002 0. 8.52963980e-003 8.13268591e-003 0.
      -1.40845068e-002 0. 0. 0. 6.60190964e-003 1.25786718e-002
      9.67018772e-003 3.64543195e-003 6.03375724e-003 -2.32558139e-002
      0. 0. 4.23157122e-003 0. 0. 4.59657423e-003 0. 0. 0. 0. 0.
      3.64543195e-003 0. 4.49639512e-003 0. 0. -1.63934417e-002
      7.63720600e-003 0. 4.92856326e-003 -1.96078438e-002
      8.52963980e-003 4.23157122e-003 -2.27272734e-002 0.
      8.46604537e-003 0. 1.80375054e-002 1.19131189e-002 4.49639512e-003
      -2.56410260e-002 0. 0. 6.12304453e-003 0. 0. 0. 1.33137181e-002
      4.92856326e-003 0. 0. 0. -1.44927539e-002 0. 0. 9.63704661e-003 0.
      -1.49253728e-002 0. 9.22297966e-003 0. 0. -1.96078438e-002 0. 0.
      0. 0. -8.59376229e-003 0. 6.88908761e-003 0. 0. 0.
      -2.17391308e-002 0. 0. 0. 5.90194482e-003 0. 0. 0. 0. 0.
      8.84879194e-003 0. 0. 0. -1.33333337e-002 0. 8.39078706e-003 0. 0.
      0. 0. 0. 0. 0. 0. 0. 0. 8.91319104e-003 -1.33333337e-002
      4.15475341e-003 0. 3.64543195e-003 5.57541242e-003 0. 0.
      7.29782507e-003 9.22297966e-003 0. 0. -2.08333340e-002 0. 0.
      -1.96078438e-002 0. 0. -2.04081628e-002 0. 0. 0. -1.96078438e-002
      1.47044118e-002 0. 8.72067083e-003 5.90194482e-003
      -1.63934417e-002 9.38804168e-003 6.12304453e-003 0. 0. 0. 0. 0. 0.
      0. 1.13539919e-002 1.50747329e-003 0. 0. 0. -1.69491526e-002 0.
      -2.22222228e-002 9.67018772e-003 0. 0. 0. 0. 8.91319104e-003 0. 0.
      0. 1.18038896e-002 0. 0. 1.40207382e-002 8.96064844e-003 0. 0. 0.
      0. 0. 0. 1.37405302e-002 0. -2.94117648e-002 0. 9.38804168e-003 0.
      0. -2.81690136e-002 7.88714644e-003 -3.38983051e-002
      7.29782507e-003 -1.72413792e-002 2.94117648e-002 0.
      -2.12765951e-002 4.51644836e-003 -2.60296576e-002 0.
      1.33137181e-002 0. 0. 0. -3.12500000e-002 5.63546875e-003 0.
      1.37681551e-002 0. 0. 9.67018772e-003 0. 4.84358426e-003 0.
      7.29782507e-003 1.54192904e-002 0. 9.39187128e-003 0.
      1.19131189e-002 0. 8.48209765e-003 0. 0. 0. 0. -1.01080369e-002
      1.06931673e-002 -2.17391308e-002 4.23157122e-003 0.
      8.28208867e-003 -1.54295946e-002 1.37264561e-002 0. 0.
      4.92856326e-003 2.27079839e-002 0. 0. -1.96078438e-002 0. 0. 0.
      8.84943269e-003 0. 9.38804168e-003 0. 4.36033541e-003
      5.78224426e-003 1.73154790e-002 0. 0. -2.70270277e-002 0. 0. 0. 0.
      8.91319104e-003 0. 0. 0. 0. 0. 1.33369826e-002 0. 0. 0. 0. 0. 0.
      9.35903005e-003 0. 1.95845868e-002 0. 4.91761602e-003 0.
      -1.44927539e-002 0. 0. 9.23591014e-003 0. 5.78224426e-003
      -1.72413792e-002 1.55128054e-002 -1.44927539e-002 8.89694598e-003
      9.23591014e-003 0. 4.82699927e-003 9.42687597e-003
      -2.56410260e-002 4.50777495e-003 0. 0. 0. -2.27272734e-002
      -2.08333340e-002 0. 3.64543195e-003 -1.72502380e-002
      7.63720600e-003 -2.94117648e-002 0. 0. 9.22297966e-003
      1.01056248e-002 0. 0. 4.73957090e-003 0. 0. -2.88049150e-002
      1.76988654e-002 9.23591014e-003 0. 0. 8.82448535e-003
      9.35903005e-003 0. 0. 0. 0. 0. 6.67402847e-003 -2.43902430e-002 0.
      0. 1.21187177e-002 0. -1.88679248e-002 0. 0. 0. 0. 0. 0. 0. 0.
      5.54710673e-003 0. 0. 0. 0. 0. -6.50580740e-003 0. 6.80287601e-003
      0. 0. 0. 0. 0. 0. -4.97542992e-002 0. 0. -1.72413792e-002
      5.47394622e-003 0. 0. 1.17534781e-002 0. 0. 0. 3.64543195e-003 0.
      4.70324373e-003 0. -3.03030312e-002 0. -9.08895861e-003 0. 0. 0.
      0. -1.33333337e-002 4.92856326e-003 0. 5.54710673e-003
      9.23591014e-003 6.67402847e-003 -2.02372316e-002 0.
      -1.88679248e-002 2.13863347e-002 0. 6.88908761e-003
      9.01554991e-003 0. 0. 1.35391513e-002 1.20629678e-002 0. 0. 0. 0.
      0. 1.37264561e-002 7.29782507e-003 -1.49253728e-002
      4.91838856e-003 5.63546875e-003 9.63704661e-003 -3.79370339e-002
      0. 0. 0. 0. 5.90194482e-003 0. 0. 1.05573377e-002 -1.96078438e-002
      8.28208867e-003 8.46604537e-003 1.19145876e-002 -1.56250000e-002
      1.19131189e-002 0. 0. 0. 0. 0. 0. 0. 0. 0. 9.38804168e-003 0.
      -1.96078438e-002 9.23591014e-003 0. 8.03377945e-003 0.
      8.57660826e-003 1.56217301e-002 0. 8.52963980e-003
      -1.56250000e-002 4.70324373e-003 0. 1.76192578e-002 0.
      8.28208867e-003 -2.94117648e-002 0. 8.28208867e-003
      1.65213756e-002 0. -1.11416280e-002 0. 0. 7.29782507e-003
      1.21141858e-002 -2.50000004e-002 -3.12500000e-002 0. 0.
      1.62653718e-002 8.48209765e-003 1.20629678e-002 5.90194482e-003
      4.92856326e-003 0. 5.94241638e-003 0. 0. 0. 0. 1.64264366e-002
      -1.72413792e-002 0. 0. 0. 0. -2.04081628e-002 0. 0.
      7.26916688e-003 0. 0. 0. 0. 0. 0. 0. 0. 3.28528732e-002
      6.12304453e-003 -2.04081628e-002 -2.04081628e-002 0. 0.
      1.04286764e-002 0. 0. -2.31128186e-003 0. -1.49253728e-002
      9.63704661e-003 8.46604537e-003 0. 0. 0. -2.32558139e-002
      1.40207382e-002 0. 0. 0. 0. 0. 0. 5.63546875e-003 5.57541242e-003
      0. 0. -1.44927539e-002 0. 4.15475341e-003 0. 6.03375724e-003 0. 0.
      4.70324373e-003 1.02655329e-002 0. 0. 0. 0. 0. 1.05415322e-002
      1.19145876e-002 -1.96078438e-002 -1.44927539e-002 0.
      4.70324373e-003 -3.03030312e-002 0. 0. 0. 0. 0. 0. 6.57071080e-003
      1.83673967e-002 8.82448535e-003 6.42232364e-003 2.46928576e-002
      -1.72413792e-002 0. 0. 0. 0. 0. 0. 0. 0. 1.47058824e-002 0. 0.
      8.46604537e-003 -2.56410260e-002 0. 0. 0. 4.10165265e-003
      -2.32558139e-002 0. 0. 0. 4.15475341e-003 0. 0. 0. 0.
      8.48209765e-003 0. 0. 0. 0. 0. 0. 0. -1.86982434e-002 0. 0.
      8.57660826e-003 0. 1.19145876e-002 9.65399854e-003
      -2.22222228e-002 1.18958298e-002 1.19145876e-002 5.43820811e-003
      -1.33333337e-002 5.94241638e-003 1.05060311e-002 -1.33333337e-002
      -3.27868834e-002 0. -1.92267839e-002 0. 2.18039416e-002
      4.82699927e-003 0. 0. 0. 4.92856326e-003 0. 0. 0. 0.
      -2.22222228e-002 0. -1.96078438e-002 7.26916688e-003 0. 0.
      1.01491930e-002 0. 0. 8.28208867e-003 7.26916688e-003
      1.25786718e-002 0. 7.29086390e-003 -2.43902430e-002
      4.23157122e-003 4.50777495e-003 1.05060311e-002 -3.12500000e-002
      0. 0. 0. -2.56410260e-002 0. 0. 0. 6.67402847e-003 0.
      8.84879194e-003 6.88908761e-003 8.39078706e-003 3.64543195e-003 0.
      0. 0. 0. 2.66739652e-002 8.89694598e-003 0. 0. 0. 0. 0.
      -1.72413792e-002 1.37264561e-002 0. 0. 0. 0. -1.69491526e-002
      9.35903005e-003 1.15384087e-002 8.03377945e-003 0.
      -1.44927539e-002 0. 0. 0. 0. 0. 0. 0. 0. 1.17534781e-002
      9.22297966e-003 0. 0. 0. 0. 0. 0. 0. 0. 1.95011441e-002
      -1.29081320e-003 0. 0. -1.69491526e-002 0. 0. 0. 9.35903005e-003
      0. -2.22222228e-002 5.47394622e-003 0. 0. 0. 0. 0. 6.57071080e-003
      0. -2.56410260e-002 9.22297966e-003 -1.96078438e-002 0.
      4.92856326e-003 0. 0. 0. 0. 4.51644836e-003 0. 0. 1.11052152e-002
      9.23591014e-003 0. 0. 1.13539919e-002 3.94669175e-003 0.
      -2.50000004e-002 6.66990038e-003 0. 0. 8.84943269e-003 0. 0.
      1.21141858e-002 0. 0. 0. 9.30460915e-003 0. 0. 0. 0.
      -2.43902430e-002 -5.79515798e-003 0. 0. 0. 0. 5.43820811e-003
      8.39078706e-003 0. 0. 0. 0. 1.13539919e-002 1.02655329e-002 0. 0.
      0. 0. 0. 0. 0. 0. -1.63934417e-002 8.91319104e-003 1.33137181e-002
      1.06931673e-002 1.53470493e-003 8.80962890e-003 0. 0.
      -1.87671382e-003 0. 8.22221860e-003 4.84358426e-003
      1.19131189e-002 0. 1.15384087e-002 0. 0. -4.08844389e-002 0.
      9.23591014e-003 8.52963980e-003 -1.72413792e-002 8.05911422e-003
      0. -3.03030312e-002 -2.63157897e-002 0. 2.70634387e-002 0. 0. 0.
      0. 0. 0. 5.40379481e-003 0. 0. 0. 0. 0. 0. -2.94117648e-002 0. 0.
      0. 0. 0. 1.05573377e-002 2.71858256e-002 -3.03030312e-002
      -5.26315793e-002 0. 1.03792669e-002 0. 0. -1.88679248e-002
      -1.40845068e-002 0. 1.02655329e-002 0. 0. 0. 0. 0. 0.
      5.78224426e-003 -1.72413792e-002 6.88908761e-003 0. 0.
      -1.96078438e-002 0. 0. 0. 0. 1.17534781e-002 0. 0. 1.40207382e-002
      -1.96078438e-002 0. 9.23591014e-003 -7.28603601e-002 0. 0. 0.
      8.91319104e-003 1.37264561e-002 -2.12765951e-002 8.48209765e-003
      1.26223583e-002 0. 0. 9.23591014e-003 1.47058824e-002 0.
      8.39078706e-003 0. -2.17391308e-002 0. 0. 0. -1.72413792e-002 0.
      0. -2.43902430e-002 0. 0. 9.22297966e-003 0. 0. 0. 9.63704661e-003
      5.54710673e-003 0. 0. -2.32558139e-002 0. 0. 0. 8.52963980e-003 0.
      -2.70270277e-002 0. 0. 0. 9.42687597e-003 0. 4.10165265e-003
      -1.69491526e-002 -1.44927539e-002 8.22221860e-003 -2.12765951e-002
      0. -1.44927539e-002 -2.27272734e-002 0. 6.03375724e-003
      8.96064844e-003 4.95294947e-003 1.05573377e-002 0. 0.
      8.13268591e-003 -1.88679248e-002 -3.22580636e-002 5.57541242e-003
      2.35621687e-002 9.18369833e-003 1.69320907e-002 1.52009418e-002
      3.64543195e-003 0. -2.70270277e-002 -1.96078438e-002
      2.90515758e-002 0. 0. 4.73424885e-003 -1.96078438e-002 0. 0. 0. 0.
      -1.44927539e-002 0. 0. 6.67402847e-003 1.06931673e-002 0. 0. 0.
      1.17534781e-002 6.66990038e-003 6.80287601e-003 -2.43902430e-002
      4.23157122e-003 0. 0. -1.42528219e-002 0. 0. 0. 0. 8.05911422e-003
      -3.63636352e-002 1.02655329e-002 0. 4.10165265e-003 0. 0. 0.
      7.88714644e-003 4.02902998e-003 0. 0. 1.17534781e-002
      1.04286764e-002 8.91319104e-003 -3.03030312e-002 4.91838856e-003
      7.29782507e-003 0. 9.07251984e-003 1.64264366e-002 0. 0. 0. 0.
      5.78224426e-003 0. -2.77777780e-002 6.80287601e-003 0.
      -7.51961581e-003 0. 0. 0. 1.08075896e-002 0. 1.05060311e-002
      4.15475341e-003 0. -3.63636352e-002 0. 0. 0. 8.48209765e-003 0. 0.
      0. 5.43820811e-003 1.04286764e-002 0. 9.38804168e-003 0. 0.
      8.03377945e-003 0. 0. 1.18958298e-002 0. 0. -4.49949428e-002
      -1.56250000e-002 9.22297966e-003 1.00388601e-002 0. 0. 0.
      -1.88679248e-002 0. -1.10227512e-002 0. -1.96078438e-002 0. 0. 0.
      1.15384087e-002 0. 0. 8.80962890e-003 0. 4.15475341e-003 0.
      8.39078706e-003 0. 0. -3.03030312e-002 0. 0. 0. 0.
      -6.06617630e-002 0. 4.23157122e-003 8.20330530e-003
      4.92856326e-003 -2.04081628e-002 -1.56250000e-002 0.
      5.54710673e-003 0. 1.33398008e-002 0. 4.50777495e-003
      -3.70497406e-002 0. 1.05573377e-002 0. 0. 9.38804168e-003
      1.28366333e-002 -3.03030312e-002 -1.96078438e-002 0. 0.
      1.00700390e-002 -3.22580636e-002 -5.88235296e-002 0. 0.
      -1.49253728e-002 0. 0. 5.78224426e-003 0. 0. 0. 4.23157122e-003 0.
      0. 0. 5.90194482e-003 8.13268591e-003 -2.22222228e-002 0. 0. 0.
      7.97541812e-003 5.90194482e-003 0. 0. 0. 0. 4.23157122e-003 0. 0.
      0. 0. 0. -1.72413792e-002 0. 4.59657423e-003 0. 0.
      -2.43902430e-002 -1.63065102e-002 0. 8.13268591e-003 0. 0. 0.
      4.23157122e-003 0. 0. 8.52963980e-003 0. 0. 0. 0. 0. 0. 0. 0.
      -2.56410260e-002 1.33137181e-002 0. 0. 0. 2.49085352e-002 0.
      -2.77777780e-002 0. 0. 0. 0. 1.13539919e-002 0. 0. 1.02655329e-002
      1.20629678e-002 0. 9.22297966e-003 1.64095145e-002 9.35903005e-003
      8.46604537e-003 0. -1.96078438e-002 7.26916688e-003
      3.64543195e-003 4.95294947e-003 0. 0. -1.07379751e-002 0.
      1.08764162e-002 -1.21364752e-002 1.01491930e-002 1.16606019e-002
      0. 8.84943269e-003 0. 0. 0. 1.47058824e-002 -2.56410260e-002 0. 0.
      0. 4.92856326e-003 0. 4.92856326e-003 4.15475341e-003 0.
      9.06357914e-003 0. 4.82699927e-003 4.50777495e-003 4.73957090e-003
      5.54710673e-003 0. 0. 0. 0. 9.81528684e-003 -1.68184284e-002 0. 0.
      0. 8.82448535e-003 0. 5.90194482e-003 0. 0. 1.65434610e-002
      -1.33333337e-002 0. 0. 4.70324373e-003 0. 8.89694598e-003
      8.46604537e-003 4.92856326e-003 0. 0. 0. 0. -1.96078438e-002 0. 0.
      0. 0. 0. 1.04286764e-002 0. -1.44927539e-002 0. 0. 4.82699927e-003
      0. 0. 0. 0. 0. 9.67018772e-003 9.35903005e-003 -1.85767915e-002 0.
      -2.17391308e-002 0. 0. 0. 0. 0. 1.37264561e-002 0. 0. 0. 0.
      1.33369826e-002 0. 3.39579303e-003 0. 0. -4.54545468e-002 0.
      -4.34782617e-002 0. 0. 1.15384087e-002 -1.49253728e-002 0. 0. 0.
      0. 0. 0. -1.46548944e-002 0. 0. 0. 7.97541812e-003 0. 0.
      9.38804168e-003 1.33369826e-002 0. -3.22580636e-002 0.
      -1.56250000e-002 6.12304453e-003 0. 0. 1.76137667e-002 0.
      -1.30208284e-002 4.91838856e-003 9.39187128e-003 1.21141858e-002
      0. 0. -3.03030312e-002 0. 5.94241638e-003 1.05879521e-002
      -2.17391308e-002 0. 0. 1.45956501e-002 0. 4.82699927e-003
      9.38804168e-003 0. 1.16606019e-002 0. 0. -1.57549269e-002
      8.52963980e-003 0. 1.65213756e-002 0. 0. 0. 0. 0. -3.93924452e-002
      0. 0. 2.12329719e-002 1.01056248e-002 1.65641773e-002
      9.67018772e-003 0. 1.87095664e-002 8.82448535e-003 7.88714644e-003
      8.28208867e-003 0. 0. 8.46604537e-003 8.84879194e-003
      4.23157122e-003 0. 0. 0. 0. -3.56203178e-003 2.40436196e-002 0. 0.
      0. 0. 0. 0. 8.89694598e-003 0. 9.81528684e-003 -2.22222228e-002
      4.02902998e-003 8.52963980e-003 -2.27272734e-002 4.02902998e-003
      8.22221860e-003 -7.85436574e-003 0. 0. 0. 5.47394622e-003 0. 0.
      1.15384087e-002 1.15384087e-002 5.40379481e-003 9.81528684e-003 0.
      0. 0. 0. -6.81533990e-003 0. 1.01056248e-002 0. 0. 0. 0.
