<?xml version="1.0"?>
<opencv_storage>
<my_svm type_id="opencv-ml-svm">
  <svm_type>C_SVC</svm_type>
  <kernel><type>LINEAR</type></kernel>
  <C>1.</C>
  <term_criteria><epsilon>2.2204460492503131e-016</epsilon>
    <iterations>100</iterations></term_criteria>
  <var_all>10000</var_all>
  <var_count>10000</var_count>
  <class_count>2</class_count>
  <class_labels type_id="opencv-matrix">
    <rows>1</rows>
    <cols>2</cols>
    <dt>i</dt>
    <data>
      -1 1</data></class_labels>
  <sv_total>1</sv_total>
  <support_vectors>
    <_>
      0. 0. 0. 0. 7.12895999e-003 0. 1.92977991e-002 2.10775565e-002
      4.64983610e-003 8.77225492e-003 8.19768012e-003 0.
      -9.52862296e-003 5.37583092e-003 0. 0. 0. 4.76875901e-003
      -7.99523219e-002 0. 7.46009732e-003 -1.92307699e-002 0.
      -1.88679248e-002 9.71566327e-003 0. -1.75438598e-002
      3.48938210e-003 0. -1.12959938e-002 7.40999915e-003 0. 0.
      3.73004866e-003 0. 0. 5.72421076e-003 0. 0. -1.88679248e-002
      9.31962673e-003 -1.31001696e-002 0. 0. -7.50000030e-002 0.
      -1.85185187e-002 0. 0. 0. 0. 8.19768012e-003 0. 0. 0.
      7.53488299e-003 0. 0. -4.72053178e-002 0. 0. 3.86675745e-002
      6.18820963e-003 -2.22222228e-002 0. 0. 0. 0. -7.35027762e-003
      8.31484888e-003 0. -1.96078438e-002 1.28479209e-002
      1.28744179e-002 7.03915767e-003 6.19065622e-003 0. 0. 0. 0. 0. 0.
      0. 0. 0. -1.92307699e-002 5.30475937e-003 -9.20324307e-003 0.
      8.43274500e-003 0. 3.86042916e-003 8.01106915e-003 8.01106915e-003
      0. 0. 0. 2.36006100e-002 0. 0. 0. 0. 0. 0. 0. 0. 0.
      -2.38095243e-002 -3.93086718e-003 0. 0. 7.55753741e-003
      4.96444991e-003 0. -1.18563538e-002 0. 0. -4.46428582e-002
      6.18646853e-003 0. 7.03721819e-003 -1.63934417e-002
      7.43597234e-003 0. -5.49287489e-003 0. 0. 0. 0. 0. 0. 0. 0. 0. 0.
      -3.17618338e-004 0. 6.98901759e-003 0. 1.59516484e-002
      4.12895810e-003 1.35275619e-002 0. 7.55753741e-003 0.
      5.72550343e-003 0. -6.42403308e-003 5.98227885e-003
      -1.96383800e-002 0. 0. 0. 1.13851158e-002 -3.37760150e-002
      6.98897941e-003 4.37952718e-003 0. 0. 1.02616278e-002
      1.22497194e-002 4.37952718e-003 0. 1.19508272e-002 0. 0. 0.
      8.19768012e-003 -1.14579257e-002 0. 6.24262076e-003 0. 0. 0. 0.
      1.02572041e-002 7.86686968e-003 0. 7.49121094e-003 5.21356799e-003
      7.65506690e-003 -1.53846154e-002 0. 0. 0. 6.18646853e-003
      1.01225181e-002 0. -2.94002667e-002 -1.50356172e-002 0. 0. 0. 0.
      7.55753741e-003 0. 0. 2.33421884e-002 0. 0. 0. 9.91244055e-003 0.
      4.93058702e-003 9.75535810e-003 0. 1.47164548e-002 2.60798912e-003
      0. 0. 0. 0. 0. 0. -3.19874100e-002 0. 0. 7.27438601e-003
      1.09449765e-002 0. 0. -1.30819483e-002 -1.69491526e-002
      -3.17460336e-002 0. 0. 0. 0. 1.11406948e-002 7.65506690e-003
      9.84306633e-003 8.70443042e-003 4.18878160e-003 6.72827940e-003
      7.55753741e-003 0. 5.11797657e-003 2.49251481e-002 0. 0.
      4.18878160e-003 7.01157097e-003 0. 3.99645790e-003 4.18878160e-003
      1.24625741e-002 4.75850794e-003 5.72550343e-003 1.81390364e-002
      3.48938210e-003 7.55753741e-003 0. 0. 1.00735184e-002 0.
      -3.58276209e-003 0. 0. 0. 0. 0. 0. 0. -1.46873398e-002 0.
      4.01699590e-003 5.41834906e-003 2.60798912e-003 5.26501564e-003
      -1.75438598e-002 5.56022488e-003 -1.47721451e-002 4.84327832e-003
      1.75381061e-002 0. 0. 0. 0. 5.72421076e-003 0. 4.33058990e-003 0.
      0. 0. 0. 0. 3.99645790e-003 0. 0. 0. 1.11406948e-002
      5.70685929e-003 7.49070290e-003 0. 1.57337394e-002 0. 0.
      5.41834906e-003 0. 6.01512706e-003 4.84327832e-003 0. 0. 0. 0.
      4.93058702e-003 5.21597825e-003 0. 7.52337556e-003 0. 0. 0. 0. 0.
      1.16792610e-002 4.33058990e-003 0. 0. 3.59606463e-003 0.
      1.49824219e-002 0. 0. 0. 0. 0. 0. 0. 0. 9.66137927e-003 0. 0.
      -2.92520504e-003 -3.12500000e-002 8.93468969e-003 -1.63934417e-002
      -3.59217189e-002 -1.10266255e-002 0. 4.37952718e-003
      5.41834906e-003 1.50467511e-002 -2.12765951e-002 4.51186392e-003
      1.20542692e-002 0. -2.27272734e-002 1.08781802e-002
      6.18646853e-003 1.47164548e-002 0. 5.37583092e-003
      -1.15551371e-002 2.09902469e-002 5.04590943e-003 0. 0. 0. 0.
      7.22726015e-003 3.48938210e-003 0. 7.49070290e-003
      -1.01078870e-002 -1.41278403e-002 0. 0. 0. -6.77966103e-002
      7.34717911e-003 5.29436627e-003 0. 0. 6.58264617e-003 0. 0. 0. 0.
      1.11406948e-002 7.84996059e-003 6.58264617e-003 0. 4.68759006e-003
      4.87238495e-003 4.92153317e-003 0. 0. 7.03721819e-003
      -2.69396300e-003 1.13685066e-002 0. 0. 0. 0. 0. -1.27973771e-002
      6.24262076e-003 -2.27272734e-002 0. 2.60798912e-003 0.
      4.01699590e-003 6.24262076e-003 0. 0. 0. 1.25052165e-002
      7.00835977e-003 5.56022488e-003 0. 2.60798912e-003 0. 0. 0. 0. 0.
      0. -1.85185187e-002 0. 4.75850794e-003 0. 0. 0. -3.12500000e-002
      0. 7.03721819e-003 7.49070290e-003 3.67832137e-003 7.00835977e-003
      0. 1.63953602e-002 0. 8.77225492e-003 1.24522215e-002
      4.57140524e-003 -1.49223185e-003 4.37952718e-003 9.33930185e-003
      4.85722069e-003 0. 7.12895999e-003 0. 0. 4.12895810e-003
      5.29436627e-003 -1.03517305e-002 -2.63157897e-002 0.
      6.24262076e-003 0. 0. 0. 0. 1.62485410e-002 5.26501564e-003
      3.67832137e-003 8.43274500e-003 0. 0. 7.86686968e-003 0.
      1.36762718e-002 1.46943582e-002 0. 4.83068964e-003 4.12895810e-003
      1.07353907e-002 4.35221521e-003 2.03125346e-002 8.25791620e-003
      4.85722069e-003 -2.22222228e-002 -1.92307699e-002 0. 0. 0. 0. 0.
      0. -1.92307699e-002 0. 0. 3.48938210e-003 9.33930185e-003 0. 0.
      4.93058702e-003 0. 0. 1.47164548e-002 0. 0. 1.11204498e-002 0.
      4.93058702e-003 -1.56118441e-002 0. 0. -7.89340492e-003 0.
      7.55753741e-003 0. -1.10193910e-002 -1.63934417e-002 0.
      9.27691255e-003 8.93468969e-003 0. 3.62605997e-003
      -7.58099630e-002 -1.88679248e-002 3.59606463e-003 0. 0. 0. 0.
      7.03915767e-003 0. 0. -4.16666679e-002 0. 0. 8.70443042e-003 0.
      4.51186392e-003 1.04271360e-002 0. 0. 5.79627650e-003
      9.53751802e-003 1.19508272e-002 -1.85185187e-002 0. 0.
      1.49824219e-002 2.18534097e-002 0. 0. 6.58264617e-003 0. 0. 0. 0.
      2.60798912e-003 1.01225181e-002 0. 0. 1.23729371e-002
      6.98897941e-003 1.24522215e-002 0. 8.77225492e-003 0.
      4.68759006e-003 0. 0. 0. 0. 4.12895810e-003 0. 0. -1.88679248e-002
      -3.70535394e-003 0. 9.09774378e-003 0. 0. 0. 4.56649251e-003
      -1.63934417e-002 7.12895999e-003 1.18322959e-002 -4.75923866e-002
      0. 0. 0. 7.52337556e-003 0. 0. 0. 0. -1.63934417e-002 0. 0. 0.
      4.87238495e-003 0. 4.51186392e-003 1.01871081e-002 9.34435334e-003
      4.35221521e-003 0. 0. 1.10772280e-002 0. -9.33972187e-003
      8.33613612e-003 0. 1.01634329e-002 0. -2.05639526e-002 0.
      -1.16349338e-002 -3.03030312e-002 0. 4.93058702e-003
      1.08781802e-002 0. 7.86686968e-003 8.76905303e-003 3.62605997e-003
      0. -1.58159831e-003 0. 0. 5.30475937e-003 -1.81818176e-002 0.
      7.25211995e-003 9.68168397e-003 -1.13103874e-002 -1.53846154e-002
      0. 7.03721819e-003 0. 2.77975947e-002 4.96444991e-003 0.
      3.99645790e-003 0. 0. 2.90182047e-002 0. 0. 0. 0. 2.60798912e-003
      1.52368378e-002 6.72827940e-003 5.79627650e-003 4.93058702e-003 0.
      0. 9.33930185e-003 1.47917615e-002 0. 0. 6.31504366e-003
      5.41834906e-003 4.68759006e-003 1.63953602e-002 0. 0. 0.
      2.49251481e-002 4.68759006e-003 0. 0. 0. 7.43597234e-003
      8.33613612e-003 0. 0. 6.54710224e-003 6.06118841e-003
      1.75445098e-002 0. 0. 0. 3.62605997e-003 0. 3.48938210e-003
      8.78676306e-003 0. 0. 1.16247544e-002 0. 0. 0. 1.24522215e-002
      -2.56410260e-002 0. 0. 0. 0. 0. 5.79627650e-003 9.67759173e-003
      6.97876420e-003 0. 0. 4.35221521e-003 0. 0. 0. 0. 4.92153317e-003
      0. 0. 0. 3.41906794e-003 0. 0. 0. 7.49070290e-003 -1.25618465e-002
      0. -1.42800612e-002 0. 0. 1.10685239e-002 0. 0. 0. 0. 0.
      5.56022488e-003 0. 0. -1.92307699e-002 4.35221521e-003
      -3.12500000e-002 0. 0. 0. 0. 1.19508272e-002 1.77078433e-002 0.
      3.67832137e-003 7.67969526e-003 1.79977827e-002 0. 0. 0. 0. 0. 0.
      0. -2.63157897e-002 -1.08428858e-002 0. 0. 0. -3.07692308e-002 0.
      0. 5.29436627e-003 0. 1.22931739e-002 1.20509872e-002 0.
      -2.22222228e-002 0. -3.95711996e-002 0. -6.69491515e-002
      1.05996421e-002 0. -1.75438598e-002 -4.25686222e-003 0.
      -3.73573154e-002 0. -3.38983051e-002 3.59606463e-003 0. 0. 0. 0.
      3.62605997e-003 1.05300313e-002 1.01222359e-002 0. 1.02499695e-002
      0. 0. 5.72550343e-003 7.52337556e-003 7.22726015e-003 0.
      -1.69491526e-002 0. 4.33058990e-003 0. 4.64983610e-003
      7.01157097e-003 0. 9.14281048e-003 0. 0. 0. 1.63030419e-002 0. 0.
      0. 5.79627650e-003 -2.08333340e-002 -2.08333340e-002 0.
      -2.38095243e-002 0. 1.28281349e-002 0. 0. 1.28271542e-002
      -1.56047102e-002 -3.28243822e-002 0. 0. 4.56649251e-003
      8.19768012e-003 0. 2.10628323e-002 -4.08163257e-002
      6.01512706e-003 0. 0. 0. 1.05300313e-002 6.58264617e-003
      4.00521886e-003 8.76905303e-003 0. 1.15559045e-002 0. 0.
      -1.11284256e-002 0. 7.53857614e-003 5.21356799e-003 0. 0.
      -1.81818176e-002 0. 1.99356861e-002 -2.63157897e-002
      2.64137122e-003 1.16792610e-002 0. 7.84996059e-003 0. 0. 0. 0. 0.
      -2.50000004e-002 -1.92307699e-002 0. 1.40475174e-002 0.
      4.33058990e-003 0. 1.49824219e-002 6.54710224e-003 1.09905191e-002
      0. 7.40999915e-003 1.38123296e-002 0. 9.33930185e-003 0. 0. 0. 0.
      0. 0. -4.24392056e-003 0. 3.59606463e-003 4.51186392e-003
      -2.56410260e-002 0. 0. 0. 4.84327832e-003 -1.58730168e-002 0.
      -3.03030312e-002 0. 0. 0. 4.75850794e-003 1.08251227e-002
      5.72421076e-003 0. -1.18595650e-002 6.69461815e-003 0. 0.
      4.64983610e-003 0. -1.88679248e-002 1.14510069e-002
      5.21356799e-003 0. 1.17229652e-002 7.55753741e-003
      -1.75438598e-002 0. 0. 4.01699590e-003 0. 0. 0. 6.24262076e-003 0.
      0. 0. 8.77225492e-003 9.84306633e-003 0. 0. 0. 4.54863952e-003 0.
      0. 0. 0. 0. 0. 0. 7.40999915e-003 -2.96377167e-002 5.02736075e-003
      0. 0. 6.18646853e-003 7.55753741e-003 7.84996059e-003
      -3.77358496e-002 5.41834906e-003 4.00521886e-003 7.86686968e-003
      2.10317485e-002 0. 2.72828210e-002 4.56649251e-003 5.65017434e-003
      0. -3.17460336e-002 0. 0. 7.67969526e-003 1.23764193e-002
      -1.57413874e-002 0. 0. 0. 0. 1.53101338e-002 7.86686968e-003
      1.81798525e-002 0. -4.16666679e-002 1.49824219e-002 0.
      6.98897941e-003 4.12895810e-003 3.62605997e-003 0.
      -2.57850233e-002 0. 0. 0. -1.20997047e-002 0. 6.01512706e-003
      5.79771632e-003 0. 0. -3.27868834e-002 0. 0. 0. -1.72945077e-003
      1.01225181e-002 0. 1.20025668e-002 0. 0. 3.99645790e-003 0.
      6.18646853e-003 -4.57414836e-002 0. 1.17393378e-002
      1.04271360e-002 5.37583092e-003 0. -1.96078438e-002 0.
      -1.75597835e-002 0. 0. 0. 5.98227885e-003 -1.37941763e-002
      5.31993434e-003 0. 0. -3.84987816e-002 0. 6.66892389e-003 0. 0.
      -4.12414968e-002 0. 5.11797657e-003 3.27355112e-003
      1.24522215e-002 0. 4.68759006e-003 0. 0. 0. 0. 0. 7.67563283e-003
      4.46734484e-003 9.61240195e-003 5.37583092e-003 7.65506690e-003 0.
      4.75850794e-003 -9.96626634e-003 0. 0. 0. 0. 1.16792610e-002
      1.01225181e-002 0. 0. 0. 0. 1.12324823e-002 4.93058702e-003 0.
      -4.03710874e-003 5.26501564e-003 0. 0. 1.05730519e-002 0.
      1.43956728e-002 0. 0. 8.03399179e-003 -3.12500000e-002 0. 0. 0. 0.
      0. 0. 5.56022488e-003 0. 0. -3.12500000e-002 -2.12765951e-002
      4.93058702e-003 0. -1.53846154e-002 0. 0. 0. -7.12121204e-002
      -2.90889889e-002 0. -1.85185187e-002 0. 0. 0. 0. 7.65506690e-003
      0. 0. 4.01699590e-003 -4.91803251e-002 4.12895810e-003 0.
      4.01699590e-003 -1.85185187e-002 1.48199983e-002 3.86042916e-003
      0. 4.83068964e-003 1.34513434e-002 3.59606463e-003 8.35522078e-004
      5.26501564e-003 7.00835977e-003 0. 0. 5.21356799e-003
      3.62605997e-003 -1.10273082e-002 0. -3.12500000e-002 0.
      -1.58730168e-002 3.48938210e-003 0. 0. 5.26501564e-003
      9.14281048e-003 0. 1.66090969e-002 3.48938210e-003 0. 0. 0.
      1.18874051e-002 0. -1.75438598e-002 -3.03030312e-002 0.
      4.85722069e-003 0. 0. -1.45907132e-002 0. 0. 9.68655664e-003
      9.98076424e-003 1.75381061e-002 1.49824219e-002 -7.10396329e-003
      0. 4.18878160e-003 2.29652002e-002 0. 0. -1.69491526e-002 0.
      -1.96142327e-002 1.42755248e-002 0. 0. 0. 7.53875030e-003 0. 0.
      3.86042916e-003 0. 1.11735472e-002 0. 7.72085832e-003
      1.91080980e-002 6.66892389e-003 0. 0. 0. 0. 0. 1.19508272e-002
      2.39016544e-002 -1.06594488e-002 0. 0. -1.92307699e-002
      9.29967221e-003 1.85594074e-002 0. 0. 7.34717911e-003
      7.01157097e-003 0. -1.26253041e-002 -1.75438598e-002
      8.19768012e-003 -5.71825961e-003 0. 0. 4.51186392e-003
      -4.91803251e-002 0. 0. 0. 1.40167195e-002 0. 0. -1.63934417e-002
      -1.38101270e-002 1.55686066e-002 0. 7.25211995e-003
      1.17405271e-002 0. -2.08333340e-002 4.68759006e-003 0.
      3.78596573e-003 0. 7.65506690e-003 0. 6.18820963e-003 0. 0.
      1.23729371e-002 -1.01875544e-001 0. -2.36478081e-004 0. 0. 0.
      3.86042916e-003 0. -5.26315793e-002 1.85774695e-002 0. 0.
      8.76905303e-003 5.70685929e-003 0. 7.01157097e-003 4.33058990e-003
      1.36977611e-002 5.79627650e-003 0. 0. 1.93633679e-002 0. 0.
      1.35970861e-002 5.56022488e-003 0. 0. 0. 5.98227885e-003 0.
      6.58264617e-003 4.46734484e-003 4.35221521e-003 9.33930185e-003 0.
      0. 7.03915767e-003 -2.66501252e-002 0. 4.01486689e-003 0. 0.
      -3.84840113e-003 -9.37378407e-003 0. 0. 0. 0. 0. 7.52337556e-003
      3.62605997e-003 0. 3.27355112e-003 -2.12765951e-002 0.
      9.02372785e-003 4.46734484e-003 -1.75438598e-002 -2.50000004e-002
      7.40999915e-003 0. 0. 0. 7.55753741e-003 1.05300313e-002
      5.65017434e-003 0. 7.52337556e-003 4.68759006e-003 0. 0. 0.
      -1.25437946e-004 5.79627650e-003 -2.22222228e-002 8.75905436e-003
      0. 0. 0. -2.68740710e-002 0. 0. 0. 4.87496983e-003
      -1.41848605e-002 4.35221521e-003 0. 7.25211995e-003 0. 0. 0. 0.
      -6.43027294e-003 0. 0. 0. 4.12895810e-003 0. 0. 0. 0. 0.
      1.11406948e-002 2.60798912e-003 0. 0. 6.31504366e-003 0.
      8.77225492e-003 0. 0. 5.30475937e-003 3.59606463e-003
      -7.18693528e-003 0. 1.42579200e-002 -1.69491526e-002 0. 0.
      -1.88679248e-002 0. 0. 1.10443765e-002 -7.93070532e-003
      -1.49358707e-002 0. 5.30475937e-003 5.72550343e-003
      6.01512706e-003 0. 0. 0. 0. 0. 0. 0. 0. 6.18820963e-003 0.
      1.65083893e-002 4.87238495e-003 8.76905303e-003 1.07435267e-002 0.
      7.00835977e-003 0. 0. 9.29967221e-003 0. 0. -2.08333340e-002 0. 0.
      6.58264617e-003 0. 0. 7.49070290e-003 5.72421076e-003 0.
      5.56022488e-003 0. 0. 0. 0. 0. -4.75923866e-002 6.01512706e-003 0.
      0. 7.67969526e-003 0. 8.01106915e-003 0. 0. -3.70370373e-002 0.
      -2.02352414e-003 -2.56410260e-002 0. 0. 4.01486689e-003 0. 0. 0.
      0. 1.04271360e-002 -2.26407871e-002 0. 0. 7.49070290e-003
      -4.16666679e-002 0. 0. 9.66137927e-003 0. 0. 0. 0. 4.33058990e-003
      0. 4.51186392e-003 0. 0. 0. 0. 6.98897941e-003 4.96444991e-003
      -4.61538471e-002 1.01175196e-002 1.91852730e-002 0.
      1.11406948e-002 0. 1.57337394e-002 4.64983610e-003 0.
      -6.71099275e-002 0. -4.08163257e-002 -3.77358496e-002 0.
      -3.41044250e-003 0. 1.15055703e-002 8.43274500e-003 0. 0.
      7.49070290e-003 0. 6.18646853e-003 1.21223768e-002 1.21062882e-002
      0. 1.15082068e-002 4.84327832e-003 0. 0. 4.57140524e-003 0. 0.
      -5.30303046e-002 0. 0. 5.65017434e-003 0. 0. 5.98227885e-003 0. 0.
      1.28399730e-002 6.24262076e-003 0. 3.49450880e-003 0.
      6.58264617e-003 1.48199983e-002 0. 1.57337394e-002 0. 0. 0. 0.
      -3.27868834e-002 0. 0. 9.84306633e-003 6.01512706e-003 0.
      -1.75438598e-002 0. 0. 0. -3.63103896e-002 0. 0. 0. 0.
      6.97876420e-003 -1.53846154e-002 0. 4.85722069e-003
      7.03721819e-003 0. 0. 0. 1.48199983e-002 4.37952718e-003 0.
      3.73004866e-003 1.01222359e-002 2.60798912e-003 -1.87124070e-002
      0. 0. 0. 7.52337556e-003 -1.53846154e-002 1.49814058e-002 0.
      -1.39178000e-002 0. 8.25791620e-003 0. 1.53101338e-002
      -1.69491526e-002 7.00835977e-003 -4.40038666e-002 0. 0. 0. 0.
      1.00485636e-002 -1.24258827e-002 -4.11595330e-002 0.
      1.24625741e-002 0. 0. 1.24625741e-002 7.35664275e-003
      7.43597234e-003 0. 0. 0. 7.40999915e-003 1.01225181e-002
      6.18820963e-003 4.01486689e-003 0. 0. 0. 0. 4.01699590e-003 0. 0.
      7.49070290e-003 0. -6.85050786e-002 0. 0. 9.29967221e-003
      9.86117404e-003 0. -3.63636352e-002 -1.85185187e-002
      4.68759006e-003 3.62605997e-003 -1.92307699e-002 0. 0.
      5.41834906e-003 7.46009732e-003 0. 4.64983610e-003 0. 0. 0.
      4.76875901e-003 0. 5.29436627e-003 0. 0. 0. 7.52337556e-003
      7.97827542e-003 0. -7.55345728e-003 0. 0. 4.12895810e-003 0. 0. 0.
      0. 0. 0. -1.61338914e-002 6.72827940e-003 7.49070290e-003
      4.92153317e-003 0. 0. 0. 5.72550343e-003 5.25111379e-003
      -1.21916123e-002 0. 0. 2.56749168e-002 -1.21571412e-002 0.
      5.11797657e-003 0. 0. 7.22726015e-003 0. -1.89371388e-002 0.
      4.18878160e-003 7.35664275e-003 0. 0. 9.78427380e-003
      -2.38095243e-002 0. -1.38255171e-002 0. 0. 1.48199983e-002
      7.25211995e-003 0. 7.49070290e-003 0. 0. 2.60798912e-003 0.
      5.65017434e-003 8.19768012e-003 7.40999915e-003 0. 1.27131902e-002
      0. 0. 0. -1.55007215e-002 0. 0. 0. 5.04590943e-003 6.98901759e-003
      0. 0. 4.93058702e-003 0. 0. 7.49070290e-003 -2.08333340e-002 0.
      -2.61628572e-002 0. 0. 0. -4.19651642e-002 0. 0. 8.76905303e-003
      0. 8.70443042e-003 0. 0. 0. 0. 0. 0. 5.41834906e-003 0.
      7.49121094e-003 5.11797657e-003 0. 2.45554987e-002
      -2.71367095e-002 0. 7.86686968e-003 1.30523453e-002 0.
      7.67563283e-003 0. 7.53488299e-003 8.33613612e-003 0. 0.
      5.21356799e-003 0. 7.22726015e-003 1.05887325e-002 4.00521886e-003
      0. 0. 0. 0. 0. 2.60798912e-003 0. -1.14793610e-002 1.44545203e-002
      1.67972390e-002 0. 0. 1.75381061e-002 0. 0. 0. 0. 0.
      7.55753741e-003 -1.85185187e-002 5.30475937e-003 1.53101338e-002
      -3.92156877e-002 4.33058990e-003 0. 7.01157097e-003 0. 0. 0. 0. 0.
      6.66892389e-003 -1.37054911e-002 7.49121094e-003 3.27355112e-003
      -3.70370373e-002 1.20302541e-002 4.37952718e-003 0.
      7.34717911e-003 0. -3.77358496e-002 3.49450880e-003
      1.38070751e-002 0. 3.27355112e-003 -1.04617169e-002 0.
      -2.50000004e-002 0. 1.57337394e-002 2.29652002e-002 0. 0. 0. 0.
      1.45721007e-002 0. 1.21325022e-002 2.26046480e-002 1.05387783e-002
      0. 0. 0. 1.19508272e-002 0. 0. 6.24262076e-003 -1.88679248e-002
      3.67832137e-003 -1.41879292e-002 0. 8.33613612e-003 0.
      4.51186392e-003 0. -6.29417365e-003 0. 0. 4.68759006e-003 0. 0.
      1.01222359e-002 -3.03030312e-002 -1.75438598e-002 -1.88679248e-002
      7.34717911e-003 1.07353907e-002 0. 0. 0. 2.60798912e-003 0.
      3.62605997e-003 3.48938210e-003 0. 5.11797657e-003 0. 0.
      3.62605997e-003 0. 5.70685929e-003 1.91780869e-002 0.
      8.19768012e-003 -3.84615399e-002 7.86686968e-003 0. 0. 0.
      1.03405192e-002 -2.08333340e-002 5.70685929e-003 8.77225492e-003
      1.39829470e-002 0. 0. 6.06118841e-003 0. 0. 5.79627650e-003 0.
      -1.50939953e-002 8.19768012e-003 0. 0. 0. 0. 0. -2.50000004e-002
      1.19508272e-002 1.15470961e-002 0. -7.21780071e-003
      -1.63934417e-002 7.40999915e-003 1.40231419e-002 0.
      3.41906794e-003 -1.65720489e-002 0. 6.98897941e-003 0. 0.
      1.01225181e-002 0. 0. -1.46451248e-002 5.72550343e-003
      7.49121094e-003 0. 0. 0. 0. -1.85185187e-002 0. -1.75438598e-002
      0. 4.01699590e-003 0. 0. 0. 9.68724862e-003 9.33930185e-003
      3.67832137e-003 3.59606463e-003 0. 0. 0. 0. 0. 6.72827940e-003 0.
      0. 0. -1.81818176e-002 0. 9.53751802e-003 4.00521886e-003
      1.10132257e-002 -2.22222228e-002 0. 4.18878160e-003 0. 0.
      4.51186392e-003 0. 0. 0. 5.41834906e-003 -1.27151208e-002 0. 0. 0.
      4.35221521e-003 6.98897941e-003 0. 0. 0. 0. 8.76905303e-003 0. 0.
      2.24736333e-002 0. -1.45557579e-002 4.46734484e-003 0.
      -4.19375533e-003 0. 0. 1.10349646e-002 0. 1.08366981e-002 0.
      3.99645790e-003 0. 8.24975781e-003 0. 0. 4.75850794e-003 0. 0.
      1.32817477e-002 0. 8.24975781e-003 0. 0. 1.34565588e-002
      5.37583092e-003 0. 4.64983610e-003 0. 1.74755380e-002
      5.56022488e-003 1.03126951e-002 0. -1.69266330e-003
      4.83068964e-003 0. 0. 7.49121094e-003 0. -1.75438598e-002 0.
      -1.19936084e-002 0. 0. 4.68759006e-003 0. 0. -4.79411241e-003 0.
      -1.92307699e-002 -4.66312841e-002 9.33930185e-003 -4.47065681e-002
      -1.58730168e-002 0. 3.41906794e-003 2.08665580e-002
      2.56348010e-002 0. 6.24262076e-003 0. 0. 0. 0. 0. 0.
      5.29436627e-003 0. 0. 4.96444991e-003 0. 0. 0. 0. 4.00521886e-003
      0. 5.70685929e-003 4.01699590e-003 0. 3.48938210e-003
      8.43274500e-003 6.06118841e-003 7.40999915e-003 9.68655664e-003 0.
      -5.16799884e-003 0. 0. 1.02337049e-002 0. 4.64983610e-003 0.
      9.66137927e-003 -3.46493698e-003 -1.25794094e-002 0. 0. 0. 0. 0.
      -3.12500000e-002 4.46734484e-003 9.52080823e-003 7.52337556e-003
      9.82065313e-003 0. 0. 9.74476989e-003 7.67563283e-003 0.
      5.29436627e-003 -1.58730168e-002 0. 5.98227885e-003 0.
      4.57140524e-003 9.03394166e-003 5.26501564e-003 0. 8.77225492e-003
      0. -3.84615399e-002 5.26501564e-003 0. 7.03915767e-003
      5.37583092e-003 0. 0. 1.13003487e-002 1.19841853e-002 0.
      -1.88679248e-002 0. 0. 0. 0. 8.93468969e-003 6.98897941e-003
      3.41906794e-003 7.25211995e-003 -3.63636352e-002 0.
      -1.04020499e-002 7.55753741e-003 -1.85185187e-002 0. 0.
      -1.92307699e-002 0. 0. 9.99276899e-003 0. 0. 6.31504366e-003 0.
      1.40167195e-002 0. 0. -2.38742437e-002 0. 0. 5.70685929e-003 0.
      5.30475937e-003 0. 5.37583092e-003 0. 0. 0. 1.11204498e-002 0.
      -2.25652885e-002 5.37583092e-003 0. 0. 8.77225492e-003
      1.11406948e-002 5.56022488e-003 0. 0. 0. -3.50877196e-002
      -1.10179642e-002 1.05387783e-002 0. 0. 5.65017434e-003 0.
      -1.75438598e-002 0. 5.79627650e-003 0. 4.46734484e-003
      -3.77844311e-002 1.75381061e-002 0. 7.49121094e-003
      1.43980011e-002 0. -1.88679248e-002 7.52337556e-003 0.
      -2.65559554e-002 -1.43911373e-002 0. 0. 7.67969526e-003
      1.03673423e-002 0. 0. -1.58730168e-002 1.49824219e-002
      3.27355112e-003 0. -2.31900509e-003 -3.44346389e-002
      -3.17460336e-002 0. 0. 5.98227885e-003 1.02359531e-002 0. 0.
      4.00521886e-003 0. 7.34717911e-003 0. 7.12895999e-003
      -9.45308991e-003 0. 0. 4.87238495e-003 0. 0. 5.21356799e-003 0.
      7.87403621e-003 4.87238495e-003 0. 4.12895810e-003 8.77225492e-003
      1.40167195e-002 0. 7.65506690e-003 6.18646853e-003 8.38456862e-003
      0. 0. 0. 0. 0. 6.06118841e-003 0. 0. 0. 6.58264617e-003
      7.49070290e-003 0. 0. -2.12764349e-002 0. 5.21356799e-003
      8.77225492e-003 0. 5.79627650e-003 0. 1.05387783e-002 0.
      3.27355112e-003 0. -1.09612141e-002 3.59606463e-003 0.
      -1.13135548e-002 0. 0. 1.01225181e-002 0. 0. 0. 0. 0. 0.
      -3.92156877e-002 6.98897941e-003 0. 0. -9.94079281e-003 0.
      1.47164548e-002 0. 0. 0. -1.75438598e-002 0. -1.60748251e-002 0.
      0. 0. 0. 0. 5.37583092e-003 0. 0. 0. 4.85722069e-003 0. 0.
      -3.12500000e-002 0. 0. 5.31993434e-003 -3.84615399e-002
      -6.47881851e-002 1.19645577e-002 0. 0. 1.57337394e-002 0.
      4.00521886e-003 0. -1.72268786e-002 1.05300313e-002
      -1.75438598e-002 0. 0. 0. -5.26315793e-002 0. 0. 0. 0. 0.
      4.33058990e-003 0. 4.92153317e-003 0. 8.03399179e-003 0. 0.
      3.48938210e-003 0. 0. 7.12895999e-003 0. 0. 0. 0. 0.
      -1.27151208e-002 5.29436627e-003 6.83813589e-003 0. 0. 0.
      1.59719083e-002 1.19508272e-002 4.00521886e-003 0. 1.36994785e-002
      0. 0. 0. -1.27634685e-002 0. 0. 0. 1.08366981e-002 0. 0. 0. 0. 0.
      1.15954326e-002 0. 0. -1.53846154e-002 0. 0. 0. 0. 1.47164548e-002
      6.66892389e-003 0. 7.03721819e-003 0. 0. 0. 0. 0. 0.
      4.96444991e-003 0. 7.53488299e-003 0. 2.18283590e-002 0. 0. 0.
      -2.22222228e-002 0. -2.04081628e-002 0. 0. -2.22222228e-002 0.
      -9.11946129e-003 1.11406948e-002 0. 0. -3.12500000e-002 0.
      2.60798912e-003 0. 0. 0. 0. 8.37756321e-003 0. 0. -1.41894948e-002
      0. 0. 0. 1.89899839e-002 0. 0. 0. 0. 0. 0. 0. -1.81818176e-002 0.
      0. 0. 6.18820963e-003 0. 0. 0. 1.53101338e-002 0. 2.02443227e-002
      9.33930185e-003 5.98227885e-003 0. 0. 0. 1.71205774e-002
      2.37734094e-002 0. -2.04081628e-002 -2.04081628e-002 0.
      5.29436627e-003 0. 5.56022488e-003 0. 0. 9.71444137e-003 0. 0. 0.
      -1.92976613e-002 -7.86123984e-003 -2.08333340e-002
      -4.00723554e-002 0. 0. 0. 1.13851158e-002 0. -1.75438598e-002 0.
      5.29436627e-003 0. 0. 3.62605997e-003 -1.53734162e-002 0.
      -1.85185187e-002 0. -1.88679248e-002 7.03915767e-003
      9.68655664e-003 0. 0. 0. 0. 0. -2.63157897e-002 0. 1.00631248e-002
      0. -1.18586970e-002 0. 0. 4.93058702e-003 0. 0. 6.01512706e-003 0.
      0. 4.80959937e-003 -1.17947971e-002 0. 4.68759006e-003 0.
      1.53512657e-002 0. 8.43274500e-003 0. 1.20259365e-002
      1.05887325e-002 5.72421076e-003 0. 0. -2.92670424e-003 0. 0.
      -1.92307699e-002 0. -2.38095243e-002 4.93058702e-003
      7.49070290e-003 -4.76190485e-002 -1.55524490e-002 0. 0. 0. 0. 0.
      5.04590943e-003 -1.40372356e-002 0. 0. 0. 0. 0. 0.
      -2.12765951e-002 0. 0. 0. 0. 0. -1.85185187e-002 0.
      1.16792610e-002 0. 0. 0. 0. 0. 0. 0. 0. 5.04590943e-003 0.
      4.84327832e-003 3.67832137e-003 -5.81302447e-003 1.00879921e-002
      0. 3.41906794e-003 0. -2.12765951e-002 6.24262076e-003
      -1.69491526e-002 0. 0. 0. 0. 1.30514642e-002 2.16373838e-002 0. 0.
      5.65017434e-003 0. 0. 6.31504366e-003 -6.71175821e-003
      -1.64402332e-002 0. 4.33058990e-003 0. 7.00835977e-003 0.
      5.31993434e-003 0. 9.06711724e-003 9.13284346e-003
      -1.58730168e-002 0. -1.88679248e-002 0. -1.63934417e-002 0.
      7.03643635e-003 0. 1.16792610e-002 0. 5.29436627e-003
      4.96444991e-003 0. 0. 0. 4.75850794e-003 0. 0. 0. 3.67832137e-003
      5.21597825e-003 0. 0. 2.62635779e-002 0. 8.75905436e-003 0. 0. 0.
      0. 0. 3.99645790e-003 1.97744537e-002 1.00175310e-002
      -1.10010551e-002 0. 4.84327832e-003 0. 0. 0. 1.12212598e-002
      8.37756321e-003 -1.92307699e-002 0. -1.96078438e-002 0. 0. 0. 0.
      -2.78686988e-003 7.49070290e-003 0. 6.72827940e-003 0. 0.
      1.88724864e-002 0. 0. 6.54710224e-003 7.00835977e-003 0.
      1.46943582e-002 0. 0. 0. 0. 0. 5.70685929e-003 0. 0. 0.
      8.77225492e-003 -1.85185187e-002 3.59606463e-003 1.04271360e-002
      0. -4.92379395e-003 0. 0. 0. 8.25791620e-003 1.82658713e-002
      6.66892389e-003 0. 0. 0. 0. 0. 7.67394202e-003 1.61408950e-002
      7.49121094e-003 6.98897941e-003 1.91736892e-002 0. 0.
      -2.49263532e-002 0. 0. 0. 0. 1.21223768e-002 0. -1.83047205e-002
      0. 0. 0. -1.75438598e-002 -2.70872898e-002 -1.13103874e-002
      1.11204498e-002 0. 4.92153317e-003 0. 0. 8.14566575e-003 0. 0.
      6.66892389e-003 -4.69176210e-002 -1.31888045e-002 5.56022488e-003
      -2.61560846e-002 8.76905303e-003 0. 0. 0. 4.37952718e-003 0.
      -1.22521799e-002 4.76875901e-003 0. 3.62605997e-003
      9.33930185e-003 0. 1.36698913e-002 0. 0. 0. 0. 0. 4.68759006e-003
      0. 0. 0. 4.01486689e-003 0. 0. 1.47164548e-002 0. 1.11406948e-002
      4.84327832e-003 3.99645790e-003 0. 0. 0. -1.55744208e-002 0. 0.
      7.86686968e-003 0. 0. 0. 0. 0. 3.48938210e-003 5.79771632e-003 0.
      -4.76190485e-002 1.11406948e-002 -1.95707381e-002 2.10775565e-002
      0. 0. 0. 0. 0. 0. -1.88679248e-002 2.60798912e-003
      -1.88679248e-002 6.98897941e-003 -3.84615399e-002 0. 0. 0.
      -1.63934417e-002 2.02450361e-002 0. 4.87238495e-003 0. 0. 0. 0. 0.
      0. 0. 0. 0. 1.53512657e-002 0. 5.70685929e-003 0. 0.
      2.60798912e-003 3.73004866e-003 0. 0. 0. 0. 0. 4.96444991e-003 0.
      1.53101338e-002 0. 0. -3.92156877e-002 0. 0. -1.88679248e-002 0.
      0. 0. 0. 8.33613612e-003 0. 4.12895810e-003 0. -2.49353368e-002
      4.37952718e-003 -2.27272734e-002 0. 0. 0. -2.08333340e-002 0. 0.
      7.86686968e-003 7.86686968e-003 5.21356799e-003 3.48938210e-003 0.
      0. 0. -4.40924205e-002 0. 0. -1.15615809e-002 0. 8.59957561e-003
      0. 0. -1.58730168e-002 6.72827940e-003 0. 5.79627650e-003
      1.19508272e-002 -3.96764278e-002 1.39779588e-002 0. 0.
      -1.88679248e-002 0. 0. 8.76905303e-003 4.74587716e-002 0. 0.
      -3.77358496e-002 4.35221521e-003 4.75850794e-003 0.
      5.56022488e-003 0. 0. 0. 0. 0. 0. 0. -1.75438598e-002 0. 0. 0. 0.
      7.67969526e-003 0. -1.69491526e-002 0. 1.86786037e-002 0. 0. 0.
      1.09105967e-002 3.86042916e-003 1.59064736e-002 -1.92307699e-002
      7.03915767e-003 -3.70370373e-002 -2.43852250e-002 1.19508272e-002
      -1.92307699e-002 1.75445098e-002 0. 4.92153317e-003 0.
      -2.22222228e-002 0. 0. 0. 0. -3.54989409e-003 -2.12765951e-002 0.
      1.24522215e-002 0. 5.72550343e-003 6.18820963e-003 0.
      4.96444991e-003 0. 0. 0. 0. 0. 7.01157097e-003 0. 0. 0. 0. 0. 0.
      0. 0. 4.01699590e-003 8.51026550e-003 0. 0. 0. 0. 4.56649251e-003
      0. 0. 1.19508272e-002 7.49070290e-003 -2.12765951e-002 0.
      8.76905303e-003 4.33058990e-003 -1.69491526e-002 0. 0. 0. 0. 0.
      -2.56410260e-002 7.86686968e-003 7.03915767e-003 -1.12236496e-002
      4.12895810e-003 0. 9.33930185e-003 0. -1.81818176e-002 0. 0. 0. 0.
      0. 8.19768012e-003 0. 0. -3.03030312e-002 0. 0. -3.77358496e-002
      0. -1.02238152e-002 7.22726015e-003 0. 9.66137927e-003 0.
      2.43062153e-002 0. 9.33930185e-003 0. 7.40999915e-003 0. 0. 0. 0.
      0. -1.53846154e-002 -2.22222228e-002 0. 0. 0. 0. 4.12895810e-003
      3.82849481e-003 0. 1.46752959e-002 0. -4.42580506e-002 0. 0.
      4.37952718e-003 -1.40271708e-003 0. 7.43597234e-003 0. 0. 0.
      7.67969526e-003 0. 6.58264617e-003 4.64983610e-003 0. 0.
      1.05300313e-002 1.14876684e-002 0. 5.70685929e-003 0. 0.
      4.37952718e-003 -6.82843942e-003 1.33498991e-002 3.86042916e-003
      0. 0. 6.72827940e-003 7.40999915e-003 4.18878160e-003 0. 0. 0.
      -3.17460336e-002 0. 0. 0. 4.12895810e-003 0. -1.30319959e-002 0.
      7.65506690e-003 0. 0. -4.50784676e-002 4.84327832e-003
      6.18820963e-003 0. 0. 1.05300313e-002 0. 0. 9.13497247e-003
      4.87238495e-003 0. 0. 0. 4.33058990e-003 4.85722069e-003
      8.71343445e-003 7.22726015e-003 1.91846117e-002 2.60798912e-003
      8.70443042e-003 0. 5.56022488e-003 0. 0. 1.47164548e-002
      -1.92307699e-002 0. 1.58687178e-002 0. 0. 0. 7.43597234e-003
      8.81956052e-003 4.12895810e-003 2.07904559e-002 8.76905303e-003 0.
      2.60798912e-003 0. 5.21597825e-003 7.55753741e-003 1.40167195e-002
      0. 0. 0. 0. 0. 3.67832137e-003 1.91908535e-002 0. 1.11406948e-002
      1.51150748e-002 -2.12765951e-002 0. 2.63071600e-002
      6.06118841e-003 6.98897941e-003 0. 0. 0. 0. 4.68759006e-003 0.
      7.72085832e-003 1.86786037e-002 0. 0. 0. 0. 0. 0. 5.37583092e-003
      4.92153317e-003 0. 0. 0. 0. 1.11901462e-002 7.40999915e-003 0. 0.
      7.49070290e-003 0. -2.85000801e-002 0. 0. 0. 6.58264617e-003
      -2.26111664e-003 1.23764193e-002 0. 5.21356799e-003
      -1.53846154e-002 0. 7.18436716e-003 0. 0. 0. 0. 4.76875901e-003 0.
      0. 0. 0. 0. 0. 0. -1.20035103e-002 1.19508272e-002 0. 0.
      4.37952718e-003 0. 0. 0. 0. 0. -1.88679248e-002 0. 7.34717911e-003
      0. 7.86686968e-003 1.60221383e-002 0. 5.11797657e-003
      7.86686968e-003 7.03915767e-003 0. 4.56649251e-003
      -4.27092314e-002 -1.85185187e-002 -1.11042578e-002
      -3.84615399e-002 0. 0. 0. 0. 4.37952718e-003 5.26501564e-003
      -1.92307699e-002 0. 0. 0. 0. -2.12765951e-002 0. 5.01376344e-003
      0. 4.64983610e-003 -1.85185187e-002 0. 1.57337394e-002
      7.49121094e-003 1.11406948e-002 0. 3.62605997e-003 0. 0. 0.
      -1.81818176e-002 0. 0. 0. 3.27355112e-003 0. 0. 0. 0. 0.
      -1.69491526e-002 7.34717911e-003 0. 5.21597825e-003
      6.06118841e-003 8.77225492e-003 0. 0. -6.41037431e-003 0. 0. 0. 0.
      0. 6.98897941e-003 -1.85185187e-002 0. 0. 0. 0. 3.62605997e-003
      1.47164548e-002 0. 1.23764193e-002 3.59606463e-003 0.
      3.73004866e-003 0. 1.24522215e-002 0. 0. 0. 0. 5.56022488e-003 0.
      0. -3.02144065e-002 0. 0. 0. 0. 0. 0. 0. -1.63934417e-002
      1.06095187e-002 0. -4.08163257e-002 0. -1.81818176e-002 0. 0. 0.
      0. -1.85185187e-002 0. 0. -1.92307699e-002 4.51186392e-003 0. 0.
      0. 1.24625741e-002 0. 5.79627650e-003 7.65506690e-003
      4.56649251e-003 0. 0. 7.67969526e-003 0. 0. 0. 0. -3.77358496e-002
      0. 5.72550343e-003 4.00521886e-003 5.41834906e-003 0.
      1.19508272e-002 0. 1.47164548e-002 0. 5.29436627e-003 0. 0.
      -3.10528055e-002 1.22125475e-002 0. -3.70370373e-002 0.
      8.76905303e-003 0. 0. 0. 2.22299974e-002 7.67969526e-003
      1.24852415e-002 0. 0. 0. 0. -1.45157091e-002 0. 0. 0.
      4.84327832e-003 0. 1.07516618e-002 3.73004866e-003 4.56649251e-003
      0. 0. 0. 0. -2.12765951e-002 0. -1.85185187e-002 7.49070290e-003
      0. 3.41906794e-003 7.40999915e-003 2.17054337e-002 4.01699590e-003
      0. 0. 1.63953602e-002 0. -1.04126222e-002 0. 0. 4.51186392e-003
      6.98897941e-003 0. 4.46734484e-003 0. 5.29436627e-003
      5.37583092e-003 0. 7.03915767e-003 -2.56410260e-002 0. 0.
      1.03000104e-002 0. 0. 0. 0. 0. 1.10468955e-003 0. 0. 0. 0. 0. 0.
      0. 4.00521886e-003 5.37583092e-003 -2.19362620e-002 0.
      1.49814058e-002 -2.08333340e-002 -3.50877196e-002 7.86686968e-003
      0. 0. 0. 1.29075414e-002 7.43597234e-003 0. 0. 1.19508272e-002
      7.12895999e-003 1.14484215e-002 -9.96017270e-003 0.
      4.96444991e-003 6.24262076e-003 0. 0. 4.75850794e-003 0. 0.
      -4.77272719e-002 1.03691220e-002 4.85722069e-003 4.51186392e-003
      0. 0. -4.49644737e-002 0. 4.00521886e-003 0. 4.76875901e-003 0.
      4.01486689e-003 0. 0. 1.48199983e-002 0. 0. 1.19508272e-002
      7.12895999e-003 0. 7.55753741e-003 7.01157097e-003 0. 0.
      5.21356799e-003 4.56649251e-003 1.01225181e-002 0. 4.35221521e-003
      0. 0. 0. 0. 0. 0. 1.24625741e-002 3.99645790e-003 5.36769535e-003
      0. 4.01699590e-003 1.40744364e-002 0. 4.96444991e-003
      -1.85185187e-002 0. 0. -1.62907410e-002 0. 0. 0. 0.
      7.52337556e-003 -3.84615399e-002 0. -3.50877196e-002
      4.01699590e-003 0. 5.26501564e-003 0. 0. 5.30475937e-003 0.
      -1.81818176e-002 0. 0. 7.22726015e-003 0. 0. 0. 4.12895810e-003 0.
      0. 0. 0. 7.19212927e-003 4.92153317e-003 6.01512706e-003
      9.14281048e-003 4.51186392e-003 7.65506690e-003 2.04632916e-002 0.
      0. 0. 0. -1.38124209e-002 5.65017434e-003 0. -1.85185187e-002 0.
      7.49121094e-003 0. 5.21597825e-003 0. 0. 0. 0. 0. 0.
      6.98897941e-003 8.01106915e-003 0. 0. 0. 0. 0. -7.00975582e-003 0.
      8.77225492e-003 5.79627650e-003 0. 0. -3.62179503e-002
      4.64983610e-003 0. -1.88679248e-002 0. 0. 0. 0. 0. 0.
      9.33930185e-003 0. 0. 0. 8.17697216e-003 0. 0. -1.37961153e-002
      9.71444137e-003 5.79627650e-003 0. 5.38195367e-004 3.59606463e-003
      0. 0. -5.66037744e-002 8.70245695e-003 0. 0. -3.97200547e-002 0.
      0. 1.50467511e-002 5.30475937e-003 0. 0. 0. 0. 0. 0.
      7.03721819e-003 -8.00614711e-003 8.76905303e-003 -1.63934417e-002
      0. 0. 6.66892389e-003 0. -9.45794210e-003 4.96444991e-003 0. 0.
      1.64387506e-002 -6.40782202e-003 0. 0. 8.70443042e-003 0. 0.
      -1.36834309e-002 0. 0. 0. 0. 0. 0. 7.03915767e-003 4.64983610e-003
      1.40167195e-002 0. 0. 8.01043771e-003 0. 0. 6.06118841e-003 0. 0.
      5.72550343e-003 -3.63636352e-002 0. 0. 0. 7.03915767e-003 0.
      -1.88679248e-002 0. 0. 0. 1.00918189e-002 7.00835977e-003
      5.79771632e-003 0. -1.88679248e-002 8.76905303e-003
      3.27355112e-003 0. 1.05730519e-002 0. 0. 7.53488299e-003 0. 0. 0.
      -8.33333358e-002 -3.38983051e-002 -1.92307699e-002 0.
      -2.38095243e-002 0. 0. -1.31782675e-002 9.66137927e-003
      -3.14421020e-002 0. 7.84996059e-003 0. 0. 5.98227885e-003
      7.00835977e-003 7.03915767e-003 0. 7.43597234e-003 0.
      -1.69491526e-002 0. 0. 0. 0. 7.67969526e-003 1.24522215e-002
      8.19768012e-003 5.72421076e-003 0. 5.70685929e-003 0. 0. 0. 0. 0.
      9.85446200e-003 0. 0. 8.76905303e-003 0. -1.92307699e-002 0. 0. 0.
      5.72550343e-003 0. 6.18646853e-003 4.85722069e-003
      -2.50000004e-002 0. 1.09253544e-002 1.10454373e-002
      4.33058990e-003 0. 0. 0. 0. 0. -3.92156877e-002 -1.75438598e-002
      0. 0. 0. 0. 4.76875901e-003 7.01157097e-003 1.83149483e-002
      4.83068964e-003 0. 5.21356799e-003 1.24522215e-002 0.
      6.54710224e-003 1.34188896e-002 -5.97519800e-002 0. 0. 0.
      1.56999212e-002 0. 0. 0. 5.70685929e-003 0. 4.01486689e-003 0. 0.
      0. 0. 8.11556936e-004 0. 5.37583092e-003 4.87238495e-003 0.
      4.93058702e-003 0. -1.88679248e-002 0. 3.59606463e-003 0. 0. 0. 0.
      9.70878452e-003 0. 0. 0. 7.35664275e-003 1.00275269e-002
      4.64983610e-003 7.55753741e-003 0. 4.31718165e-003 0. 0. 0.
      8.14595446e-003 1.10741351e-002 0. -3.27868834e-002
      -4.45089489e-002 0. 7.40999915e-003 -4.57220934e-002
      4.75850794e-003 0. 0. 0. 0. 0. 0. 0. 0. 0. 1.05387783e-002 0. 0.
      5.56022488e-003 0. 7.67563283e-003 -2.22222228e-002 0. 0. 0. 0.
      -1.85185187e-002 0. 1.14137186e-002 -1.85185187e-002
      5.70685929e-003 1.04118008e-002 0. 0. -1.56118441e-002
      -1.92307699e-002 0. 0. 0. 3.73004866e-003 0. 4.12895810e-003
      4.96444991e-003 0. 8.01106915e-003 0. 0. 0. 1.82602908e-002
      3.73004866e-003 0. 0. 4.87238495e-003 0. 0. -1.92307699e-002 0.
      -8.28595646e-003 0. 6.01512706e-003 0. 0. 0. 0. 4.01699590e-003 0.
      0. 4.96444991e-003 9.86581482e-003 4.64983610e-003 0. 0.
      1.19508272e-002 0. 0. -3.70370373e-002 -7.69230798e-002 0. 0. 0.
      6.58264617e-003 4.87238495e-003 0. 6.01512706e-003 0. 0.
      3.86042916e-003 0. 0. 0. 1.19508272e-002 2.39016544e-002
      4.87238495e-003 0. 1.05387783e-002 0. 5.04590943e-003
      -1.81818176e-002 0. -1.88679248e-002 3.48938210e-003
      7.40999915e-003 6.24262076e-003 0. -1.88679248e-002 0.
      -9.89976060e-003 6.01512706e-003 5.21356799e-003 5.36769535e-003
      0. -2.58339047e-002 0. 0. 0. 0. 0. 0. 1.17393378e-002
      5.72550343e-003 -7.29863578e-003 0. 4.01486689e-003
      4.12895810e-003 2.23953277e-002 3.27355112e-003 1.14484215e-002
      -5.29076299e-003 1.16792610e-002 0. 0. 0. 0. 4.46734484e-003 0.
      -1.85185187e-002 1.05300313e-002 0. -1.96078438e-002
      7.01157097e-003 0. 4.51186392e-003 0. -1.58730168e-002 0. 0. 0.
      -2.52961814e-002 0. 7.00835977e-003 8.76905303e-003
      7.67563283e-003 7.55753741e-003 5.11797657e-003 0. 1.24522215e-002
      0. -1.96078438e-002 3.99645790e-003 0. 0. 0. 0. 0. 0. 0.
      4.87238495e-003 6.70300424e-003 0. 3.49450880e-003 4.92153317e-003
      0. 0. 0. 8.93468969e-003 4.12895810e-003 7.52337556e-003 0.
      3.99645790e-003 0. -4.04040404e-002 0. 3.59606463e-003 0. 0.
      7.40999915e-003 0. 0. -1.92307699e-002 0. 0. 0. 7.55753741e-003 0.
      7.12895999e-003 -1.85185187e-002 -4.54545468e-002 -3.92156877e-002
      0. 0. -3.70370373e-002 -1.96078438e-002 4.01699590e-003 0.
      6.24262076e-003 0. 1.40167195e-002 4.46734484e-003 4.83068964e-003
      0. 0. 0. 1.01225181e-002 0. 0. 0. 0. 0. -2.12765951e-002
      1.74509156e-002 0. 0. 5.79627650e-003 0. 0. 0. 0. 1.06398687e-002
      0. 6.31504366e-003 0. 0. 0. 0. 0. 7.52337556e-003 4.87238495e-003
      1.14484215e-002 7.12895999e-003 5.79627650e-003 0.
      -1.09208934e-002 -1.88679248e-002 1.01225181e-002 -1.96078438e-002
      0. 9.92889982e-003 0. 0. 0. 0. 8.76905303e-003 0. 0.
      4.00521886e-003 2.60798912e-003 0. 1.34565588e-002 0.
      -1.63934417e-002 0. -2.66247094e-002 0. 0. 1.05387783e-002 0. 0.
      0. 0. 8.66117980e-003 0. 7.03721819e-003 -5.62499985e-002 0. 0.
      3.86042916e-003 0. 1.03336982e-002 0. 0. 6.01512706e-003 0. 0.
      9.85825900e-003 4.87238495e-003 0. 9.68168397e-003 7.12895999e-003
      0. 6.31504366e-003 1.24625741e-002 0. 1.37620894e-002
      8.77225492e-003 -4.41299379e-003 0. 0. 0. -1.53846154e-002 0. 0.
      7.67969526e-003 0. 0. 1.07516618e-002 -1.63735524e-002 0.
      4.85722069e-003 -2.56410260e-002 0. 7.22726015e-003
      3.65851261e-003 0. 0. 0. 0. 5.65017434e-003 4.46734484e-003 0. 0.
      0. 0. 0. -7.08639575e-003 0. 0. 0. 4.85722069e-003 0. 0. 0. 0. 0.
      5.26501564e-003 0. 0. 1.93633679e-002 0. 0. 0. 0. 0.
      -1.69491526e-002 6.69461815e-003 0. -6.77854801e-003 0. 0. 0.
      4.51186392e-003 0. 0. 0. 0. 0. 3.62605997e-003 -1.81818176e-002
      -3.50877196e-002 0. 8.19768012e-003 7.84996059e-003 0. 0. 0.
      5.79627650e-003 -2.12765951e-002 1.86786037e-002 4.18878160e-003
      4.64983610e-003 0. 0. 6.18820963e-003 4.85722069e-003
      4.87238495e-003 0. 0. -3.84615399e-002 5.72421076e-003 0. 0. 0. 0.
      -8.92882422e-003 0. 0. 0. 0. 0. 0. 0. 0. 0. 0. 8.19768012e-003
      1.01225181e-002 0. 0. 0. 0. 0. 0. 5.79771632e-003 6.01512706e-003
      0. 8.83377623e-003 0. -1.17578832e-002 0. 1.11681158e-002 0. 0. 0.
      5.36769535e-003 0. 5.21356799e-003 -1.53846154e-002 0. 0. 0. 0.
      6.24262076e-003 0. 5.31993434e-003 0. 0. 8.76905303e-003 0. 0. 0.
      7.49121094e-003 9.33930185e-003 -3.77492905e-002 1.30566461e-002
      4.83068964e-003 0. 0. 0. 0. 5.29436627e-003 -1.75438598e-002 0.
      5.30475937e-003 0. 0. -1.92976613e-002 0. 9.92889982e-003 0. 0.
      1.36123318e-002 0. 3.86042916e-003 6.18646853e-003 0. 0.
      3.62605997e-003 8.25791620e-003 0. 0. -1.63934417e-002
      -1.96078438e-002 -2.63157897e-002 4.75850794e-003 5.41834906e-003
      0. 0. -1.14101637e-002 0. 0. 0. 0. -1.81818176e-002
      2.10347138e-002 0. 0. 0. 0. 2.22813897e-002 7.53488299e-003 0.
      4.85722069e-003 -1.88679248e-002 -1.25492560e-002 0. 0.
      9.84306633e-003 0. 0. 0. -2.56410260e-002 6.58264617e-003 0. 0. 0.
      4.68759006e-003 -1.73431970e-002 5.21356799e-003 0.
      -1.53846154e-002 -1.75438598e-002 0. 0. 4.37952718e-003
      -4.15951982e-002 -2.08333340e-002 0. 7.43597234e-003 0.
      5.79627650e-003 0. 0. 7.00835977e-003 0. 1.24522215e-002
      1.11406948e-002 0. 0. 0. 0. 0. 4.51186392e-003 0. 9.33930185e-003
      0. 8.28731433e-003 1.09045077e-002 7.40999915e-003 0. 0. 0.
      -1.15208011e-002 0. 5.72421076e-003 0. -1.63934417e-002 0.
      -1.63934417e-002 4.33058990e-003 -1.74142662e-002 7.03721819e-003
      0. 0. 0. 1.40231419e-002 8.37756321e-003 0. 0. 0. 2.01848373e-002
      9.86117404e-003 0. 5.30475937e-003 0. 0. 0. -1.63934417e-002
      1.48719447e-002 7.52337556e-003 0. 1.11406948e-002 7.08544673e-003
      0. 9.39378142e-003 0. 0. 7.55753741e-003 -3.09743751e-002
      -2.04081628e-002 0. 0. 0. -4.95357960e-002 0. 5.98227885e-003
      8.01106915e-003 0. 0. 1.04681468e-002 1.16792610e-002 0. 0. 0. 0.
      6.24262076e-003 0. 4.68759006e-003 0. 0. 0. 0. 0. 0. 0.
      4.87238495e-003 0. 6.06118841e-003 0. 0. 0. 0. 1.75445098e-002 0.
      0. 0. 0. 0. 4.46734484e-003 0. 0. 0. -8.52657203e-003 0.
      -2.08333340e-002 5.21356799e-003 -1.63934417e-002 0.
      -1.75438598e-002 0. 4.18878160e-003 7.00835977e-003 0.
      6.98897941e-003 -1.85185187e-002 0. 0. 0. 1.47164548e-002 0. 0.
      1.24522215e-002 0. 0. 0. -2.08333340e-002 7.22726015e-003 0.
      8.33613612e-003 0. 0. 0. 4.00521886e-003 1.09102791e-002 0.
      1.11406948e-002 0. 0. 0. 0. 0. 0. 0. 0. 5.37583092e-003
      4.00521886e-003 1.12442560e-002 0. 0. 0. -1.88679248e-002 0.
      2.26006974e-002 0. 0. 6.72827940e-003 0. 0. 0. 0. 0.
      -2.04081628e-002 5.26501564e-003 0. 0. 0. 4.35221521e-003 0. 0. 0.
      0. 0. 5.29436627e-003 0. 0. 0. 5.65017434e-003 7.55753741e-003
      -1.86686050e-002 0. 0. -1.92307699e-002 -1.32367620e-003 0.
      1.11204498e-002 6.72827940e-003 7.03915767e-003 -2.08333340e-002
      4.33058990e-003 0. 0. 8.77225492e-003 0. 0. 0. 0. 5.30475937e-003
      5.26501564e-003 6.66892389e-003 4.92153317e-003 0. 0. 0. 0. 0.
      -4.60432284e-003 0. 5.72421076e-003 0. 0. 1.20156566e-002 0. 0. 0.
      0. 2.27906555e-002 5.56022488e-003 7.19212927e-003 8.77225492e-003
      -3.12500000e-002 -3.07692308e-002 0. 0. 0. -1.75438598e-002
      1.02733523e-002 0. 0. 1.11406948e-002 0. 0. 4.51186392e-003
      7.67563283e-003 9.80149582e-003 0. 0. 0. 4.12895810e-003 0. 0. 0.
      7.52337556e-003 0. 0. 0. 0. 0. -1.77741554e-002 7.86686968e-003
      3.67832137e-003 -4.41537723e-002 2.13713218e-002 7.25211995e-003
      0. 0. 0. 5.79627650e-003 3.86042916e-003 0. 6.31504366e-003 0. 0.
      0. 0. -2.63157897e-002 0. 0. -3.38983051e-002 4.37952718e-003 0.
      0. 0. 0. 2.79559176e-002 0. 1.15925530e-002 0. -1.58730168e-002
      5.21356799e-003 0. 8.77225492e-003 0. 0. 0. 1.91011988e-002
      5.21356799e-003 0. 0. 0. 0. 0. 0. 0. 0. 0. 0. 0. 0. 0. 0.
      1.75445098e-002 0. 0. 0. 0. -4.25531901e-002 0. 0. 0. 0. 0.
      -2.05359738e-002 0. 0. 0. 0. 0. 0. 6.58264617e-003 0. 0.
      7.99291581e-003 0. 0. 1.45395175e-002 0. 4.64983610e-003 0. 0. 0.
      7.67969526e-003 0. 0. 0. 0. 7.03721819e-003 9.68168397e-003
      4.18878160e-003 0. 0. 0. 0. 0. 0. 0. 0. 4.51186392e-003
      4.00521886e-003 8.37756321e-003 -1.53846154e-002 4.35221521e-003
      1.48719447e-002 0. -3.84615399e-002 8.01106915e-003 0.
      4.18878160e-003 0. 0. 0. -1.15551371e-002 -1.83911752e-002
      8.43274500e-003 4.01486689e-003 4.64983610e-003 0. 0.
      3.86042916e-003 1.88947730e-002 -5.04571246e-003 0. 0. 0. 0.
      -1.92307699e-002 6.72827940e-003 0. 0. 0. 0. 0. 9.14281048e-003
      7.49121094e-003 1.51150748e-002 1.16792610e-002 0. 0.
      1.53411720e-002 0. 0. 4.46734484e-003 0. 3.49450880e-003
      4.85722069e-003 -1.87809076e-002 8.43274500e-003 0. 0. 0. 0. 0.
      -2.12765951e-002 0. 0. 0. 1.60878114e-002 0. 0. -1.03149479e-002
      9.68168397e-003 -4.98517836e-003 0. 0. -1.85185187e-002 0. 0.
      7.19212927e-003 0. 0. 0. -4.32988117e-003 0. 7.22726015e-003
      6.66892389e-003 0. 0. 0. 1.01983845e-002 0. 0. 0. 0.
      -2.12765951e-002 0. -2.08333340e-002 0. 7.49070290e-003 0. 0. 0.
      8.33613612e-003 0. 0. 0. -2.22222228e-002 1.16792610e-002
      1.24522215e-002 7.49121094e-003 7.03915767e-003 0. 1.75445098e-002
      0. 5.04590943e-003 0. 4.01486689e-003 0. -1.88679248e-002 0.
      7.01157097e-003 8.02973378e-003 5.31993434e-003 8.19768012e-003 0.
      4.84327832e-003 0. 0. 0. 6.58264617e-003 0. 0. 0. 0.
      7.53488299e-003 0. 0. 5.70685929e-003 -1.58730168e-002 0.
      4.84327832e-003 1.20036071e-002 0. 1.63953602e-002 0. 0.
      1.20704491e-002 1.24625741e-002 4.12895810e-003 0. 0. 0.
      4.57140524e-003 -2.63157897e-002 7.72085832e-003 0. 0.
      1.44491568e-002 1.19508272e-002 0. -1.92307699e-002
      5.41834906e-003 0. 0. 0. 0. 0. 0. 4.92153317e-003 7.12895999e-003
      0. 0. 0. 0. 0. -1.14078270e-002 0. 0. 0. 0. 0. 2.60798912e-003
      1.44545203e-002 0. 0. 5.04590943e-003 5.98227885e-003 0.
      3.67832137e-003 0. 0. 4.37952718e-003 7.65506690e-003 0.
      1.24522215e-002 3.27355112e-003 4.12895810e-003 0. 0. 0.
      4.93058702e-003 -1.35244019e-002 4.33058990e-003 9.33930185e-003
      -1.75438598e-002 0. -1.81818176e-002 1.41175287e-002 0.
      7.52337556e-003 3.27355112e-003 0. 0. 0. 0. 0. 5.36769535e-003
      4.85722069e-003 0. 0. 0. 0. 0. 0. 0. 0. 7.03721819e-003
      1.97479390e-002 4.18878160e-003 6.98901759e-003 0. 0.
      5.37583092e-003 5.79627650e-003 0. 0. 6.58264617e-003
      8.25791620e-003 0. 5.70685929e-003 8.76905303e-003 0. 0.
      2.60798912e-003 -1.88679248e-002 4.46734484e-003 0.
      -2.08333340e-002 7.65506690e-003 4.83068964e-003 7.49070290e-003
      0. 0. 1.20022278e-002 0. 0. 0. 4.85722069e-003 0. 0.
      1.47164548e-002 -3.38365370e-003 0. 0. 0. 1.05387783e-002
      5.72421076e-003 0. 0. 0. 0. 0. 7.00835977e-003 1.02191092e-002
      4.12895810e-003 0. 0. 4.68759006e-003 0. -1.75438598e-002 0. 0. 0.
      0. 5.11797657e-003 0. 0. 0. 0. 0. 1.87503602e-002 0.
      6.72827940e-003 4.84327832e-003 0. 0. 0. 0. 0. 0. 0.
      8.77225492e-003 0. 0. 7.12895999e-003 1.18028456e-002 0. 0.
      4.37952718e-003 0. 1.24217980e-002 0. 0. 0. 9.33930185e-003 0. 0.
      0. 7.49121094e-003 0. 0. 1.19508272e-002 9.37518012e-003
      7.40999915e-003 0. 0. 1.51150748e-002 2.09669396e-002 0.
      4.37952718e-003 1.16792610e-002 0. 5.37583092e-003 0. 0. 0.
      7.49070290e-003 0. 4.33058990e-003 5.41834906e-003 4.33058990e-003
      8.76905303e-003 1.34565588e-002 -1.69491526e-002 1.87272802e-002
      5.56022488e-003 0. 0. 4.18878160e-003 0. -1.88679248e-002
      -4.00066413e-002 0. -1.69491526e-002 0. 4.01486689e-003
      -1.88679248e-002 0. 3.73004866e-003 0. 6.72827940e-003 0. 0. 0. 0.
      0. 0. 0. 0. 0. 0. 0. 0. 0. 0. 0. 0. 3.73004866e-003 0. 0.
      8.77225492e-003 3.27355112e-003 -1.75438598e-002 0.
      1.30601740e-002 0. 0. 1.24522215e-002 0. 0. -1.88679248e-002 0. 0.
      0. 5.26501564e-003 0. 0. 0. 0. 4.00521886e-003 0. 0.
      5.36769535e-003 -2.22222228e-002 0. 4.12895810e-003 0.
      4.35221521e-003 0. 0. 8.01043771e-003 0. 0. 0. 0. -1.92307699e-002
      0. 4.84327832e-003 4.87238495e-003 0. 0. 0. 0. 0. 0. 0.
      -3.77358496e-002 0. 0. 0. 0. 0. 0. 0. 0. 0. 1.31912529e-002 0.
      8.66117980e-003 -2.08333340e-002 0. 0. 0. 0. 0. 0. 0. 0. 0.
      7.43597234e-003 0. 0. 5.79627650e-003 7.43597234e-003 0. 0. 0.
      1.69639084e-002 0. 6.66892389e-003 0. -1.11882295e-002 0. 0. 0.
      1.01225181e-002 0. 4.12895810e-003 0. 1.12595716e-002 0. 0.
      8.33613612e-003 0. 1.19508272e-002 0. 0. 0. 0. 0. 0. 0. 0.
      6.72827940e-003 0. 0. 5.37583092e-003 4.92153317e-003 0.
      4.46734484e-003 0. 0. 0. 0. 0. 0. 0. 3.48938210e-003 0.
      4.33058990e-003 6.66892389e-003 0. 7.40999915e-003 8.93468969e-003
      -1.53846154e-002 6.01512706e-003 4.46734484e-003 6.24262076e-003
      7.22726015e-003 0. 0. 8.77225492e-003 -2.08333340e-002 0.
      7.40999915e-003 4.75850794e-003 0. 0. 0. 0. 5.98227885e-003
      2.60798912e-003 -2.89276633e-002 0. 0. -1.35540683e-002 0.
      -1.71476360e-002 0. 0. 0. 0. 2.02450361e-002 0. 1.86786037e-002
      -4.16666679e-002 6.54710224e-003 0. 5.72421076e-003
      6.01512706e-003 0. 4.85722069e-003 -1.14056719e-002 0.
      5.04590943e-003 0. 4.76875901e-003 0. 0. 0. 0. 5.79627650e-003 0.
      7.86686968e-003 3.48938210e-003 8.33220035e-003 1.07416194e-002 0.
      3.48938210e-003 1.54793998e-002 0. -1.88679248e-002 0. 0.
      5.70685929e-003 8.77225492e-003 0. 2.60798912e-003 0. 0. 0. 0.
      5.72421076e-003 0. 0. 7.65506690e-003 -1.43722622e-002 0.
      8.77225492e-003 0. 0. 6.98897941e-003 6.69461815e-003 0.
      4.00521886e-003 0. 0. 9.33930185e-003 -1.92307699e-002 0. 0.
      4.83068964e-003 0. 0. 0. 0. 4.84327832e-003 0. 0. 0.
      6.98897941e-003 0. 0. 7.82396737e-003 0. 1.65590439e-002 0.
      7.53488299e-003 0. 5.26501564e-003 0. 0. 0. 0. 0. 0. 0. 0. 0.
      5.29436627e-003 0. 0. 0. 0. 0. 0. 0. 0. 0. 0. -1.96078438e-002 0.
      0. 7.53488299e-003 3.27355112e-003 -1.55007215e-002 0.
      -1.58730168e-002 1.14595499e-002 0. 0. -1.55509422e-002 0. 0. 0.
      -7.55686173e-003 0. 0. 0. 4.57140524e-003 0. 0. 1.20302541e-002 0.
      0. -1.53846154e-002 0. 1.01225181e-002 0. 0. 6.72827940e-003
      4.85722069e-003 0. 5.36769535e-003 0. 0. 5.21356799e-003
      -1.92307699e-002 0. 0. 9.68168397e-003 0. 0. 0. 2.60798912e-003 0.
      -7.65178585e-003 -6.56769145e-003 6.06118841e-003 6.58264617e-003
      5.36769535e-003 0. -1.75438598e-002 0. 6.24262076e-003 0.
      9.72066913e-003 1.47545328e-002 1.24522215e-002 7.53488299e-003 0.
      0. 0. 0. 2.33585220e-002 -3.17460336e-002 0. 1.16068898e-002
      7.12895999e-003 0. 9.27623454e-003 6.06118841e-003 0. 0.
      5.65017434e-003 0. 0. 1.39779588e-002 4.84327832e-003
      5.41834906e-003 -1.69491526e-002 0. 0. 0. 0. 0. 4.01486689e-003 0.
      0. 4.87238495e-003 0. 0. 0. -3.84615399e-002 0. 0.
      -1.85185187e-002 0. 0. 3.67832137e-003 0. 7.00835977e-003 0. 0.
      -3.03748716e-002 0. -2.08333340e-002 0. 0. 0. -1.88679248e-002 0.
      0. 5.21597825e-003 0. 9.02372785e-003 -3.77689861e-002 0.
      6.18646853e-003 -1.58730168e-002 -6.38297871e-002 0. 0.
      3.62605997e-003 0. 0. 0. 6.98897941e-003 1.74758323e-002 0.
      6.01512706e-003 0. 0. 1.18366433e-002 -4.30402942e-002
      -2.22222228e-002 0. 0. 7.67563283e-003 1.16792610e-002 0.
      -1.75438598e-002 -1.63934417e-002 0. 0. 0. 0. 0. 0. 0.
      -3.12500000e-002 0. 4.51186392e-003 -1.85185187e-002
      6.24262076e-003 0. 0. 8.39152746e-003 0. 0. 0. 0. 7.53488299e-003
      0. 0. 1.40783153e-002 0. 0. 0. 5.98227885e-003 0. 0.
      3.67832137e-003 0. 0. 0. 1.47164548e-002 0. 0. 4.00521886e-003 0.
      0. 0. 0. 5.41834906e-003 -1.01634944e-002 3.48938210e-003 0.
      -2.08333340e-002 0. 5.79771632e-003 1.49814058e-002 0. 0. 0. 0.
      -1.18196486e-002 7.65506690e-003 7.49121094e-003 4.96444991e-003
      5.98227885e-003 0. 0. 0. 0. 0. -4.46205102e-002 0. 0.
      6.83813589e-003 5.56022488e-003 3.41906794e-003 0. 0. 0. 0. 0. 0.
      0. 0. 0. 4.35221521e-003 0. 0. -4.42459481e-003 0. 5.37583092e-003
      5.37583092e-003 0. -1.63934417e-002 4.18878160e-003
      7.40999915e-003 0. 0. 1.12016974e-002 0. 0. 0. 5.11797657e-003
      3.86042916e-003 0. -4.19137813e-002 0. 0. -1.58730168e-002 0. 0.
      0. -2.22222228e-002 0. 0. 0. 0. 1.15382429e-002 7.49121094e-003 0.
      3.59606463e-003 0. -3.84615399e-002 0. 0. 0. 0. -1.69491526e-002
      0. 0. 6.24262076e-003 0. 3.41906794e-003 0. 0. 8.43274500e-003
      5.04590943e-003 0. 7.22726015e-003 0. 0. 0. 3.27355112e-003
      3.41906794e-003 4.46734484e-003 0. 1.98337622e-002 0. 0.
      1.12563847e-002 -1.92307699e-002 3.27355112e-003 0.
      6.24262076e-003 4.57140524e-003 0. -1.59007646e-002
      -1.69491526e-002 5.65017434e-003 0. 5.26501564e-003
      4.51186392e-003 -1.69491526e-002 0. 0. -4.78740521e-002
      4.37952718e-003 0. 1.41088152e-002 -1.69491526e-002 0. 0. 0. 0. 0.
      0. 0. 0. 0. 0. 0. 0. 7.22726015e-003 0. -1.93815457e-003 0. 0. 0.
      0. 7.53488299e-003 5.56022488e-003 0. 0. 0. 0. 0. 3.27355112e-003
      7.67563283e-003 -1.63934417e-002 0. 7.52337556e-003 0.
      -8.19576159e-003 0. 7.99291581e-003 0. 0. 0. -1.75438598e-002
      3.41918413e-003 5.31993434e-003 4.86042025e-003 4.18878160e-003
      7.22726015e-003 8.19768012e-003 0. 1.44387512e-002 0. 0. 0. 0. 0.
      -1.75438598e-002 0. 0. 0. 0. 0. 0. 5.98227885e-003 0. 0. 0.
      7.52337556e-003 4.84327832e-003 0. 5.36769535e-003 0. 0. 0. 0. 0.
      4.87238495e-003 0. 0. 0. 0. 0. 4.92153317e-003 1.49824219e-002 0.
      4.75850794e-003 0. 0. -1.85185187e-002 0. 0. 4.35221521e-003
      3.86042916e-003 0. -2.50000004e-002 1.47164548e-002 0. 0.
      3.27355112e-003 0. 0. 0. 0. 0. 0. 0. 0. 1.43229971e-002 0.
      -7.82707799e-003 0. 2.60798912e-003 4.96444991e-003
      7.03721819e-003 0. 0. 0. 0. 0. 0. 0. 1.53101338e-002 0.
      4.00521886e-003 -2.27272734e-002 0. 0. 0. 3.62605997e-003
      9.74476989e-003 0. 3.41906794e-003 7.03721819e-003 8.19768012e-003
      0. 0. 3.49450880e-003 0. 4.84327832e-003 8.01106915e-003 0.
      1.05387783e-002 0. 7.99291581e-003 9.42356791e-003
      -1.58730168e-002 -1.96078438e-002 6.98897941e-003 0.
      8.76905303e-003 0. 0. 0. 0. 0. 5.21356799e-003 1.24625741e-002
      4.83068964e-003 0. 0. 0. 0. 0. 0. 1.11406948e-002 0. 0.
      1.23683196e-002 0. 0. 0. 0. 0. -2.59694569e-002 0. 0.
      7.22726015e-003 2.69708945e-003 7.72085832e-003 7.86686968e-003
      6.66892389e-003 0. 0. 0. 0. 0. 0. 0. 7.67969526e-003
      -1.58730168e-002 0. 5.29436627e-003 0. -1.85185187e-002 0. 0. 0.
      0. 0. 0. 0. 1.39779588e-002 0. 2.39016544e-002 9.12592746e-003 0.
      0. 0. 0. 0. 0. 0. 1.14510069e-002 0. 4.64983610e-003 0. 0. 0. 0.
      7.40999915e-003 0. 0. 0. 0. 0. 0. 0. 1.73294358e-002 0.
      4.92153317e-003 0. 0. 0. 0. 0. 0. 7.03721819e-003 0.
      4.96444991e-003 0. 0. 0. 0. 0. 0. 0. 0. 0. 0. 0. 0.
      -1.39477951e-002 5.41834906e-003 0. 0. 0. 0. 0. -3.50877196e-002
      0. -1.75438598e-002 9.33930185e-003 0. 0. 0. 0. 7.49121094e-003 0.
      8.70443042e-003 7.55753741e-003 0. -2.63157897e-002
      3.73004866e-003 1.11406948e-002 1.68280788e-002 -2.12765951e-002
      0. 0. 0. 0. 0. 1.13003487e-002 -1.34495758e-002 -1.73498373e-002
      0. 0. 0. 0. 7.22726015e-003 7.22726015e-003 1.01225181e-002
      4.92153317e-003 7.65506690e-003 -8.72890186e-003 0.
      1.19508272e-002 4.00521886e-003 0. 0. 0. 7.67563283e-003 0.
      1.19508272e-002 0. 8.77225492e-003 -5.41907102e-002 0.
      4.12895810e-003 -1.88679248e-002 0. 1.61926225e-002
      7.52337556e-003 0. -1.42280478e-002 -1.27909519e-003
      1.14484215e-002 -1.28944591e-002 0. 0. 1.14510069e-002
      -1.88679248e-002 0. 0. 0. 9.33930185e-003 2.07536761e-002
      7.55753741e-003 0. 7.40999915e-003 0. 3.48938210e-003 0.
      1.01225181e-002 0. -2.49308981e-002 -8.90273880e-003 0.
      8.43274500e-003 0. 0. 0. 0. 1.14484215e-002 1.16792610e-002 0. 0.
      -2.04081628e-002 0. 5.72421076e-003 9.33930185e-003 0.
      7.19212927e-003 4.68759006e-003 1.11204498e-002 0. 0.
      -3.38983051e-002 0. 0. 0. 0. 0. 4.75850794e-003 0. 0. 0.
      4.75850794e-003 0. 4.35221521e-003 -3.81263644e-002
      -1.92307699e-002 0. 6.24262076e-003 0. 0. -1.92307699e-002 0.
      2.60798912e-003 0. -2.22222228e-002 1.51899494e-002
      8.76905303e-003 0. 0. 5.29436627e-003 2.60798912e-003 0.
      6.83813589e-003 0. 0. 5.21356799e-003 5.26501564e-003 0. 0. 0. 0.
      1.24993324e-002 0. -2.27272734e-002 3.27355112e-003 0. 0.
      1.24522215e-002 0. 0. -2.88995095e-002 5.01376344e-003
      5.37583092e-003 0. 0. 0. 0. 0. 0. 0. 0. 1.02787791e-002
      -2.12765951e-002 0. 0. 0. -1.63934417e-002 0. 0. 7.49121094e-003
      0. 0. 0. 2.20551118e-002 0. 7.67563283e-003 7.49121094e-003 0. 0.
      0. 0. 8.76905303e-003 0. 0. 2.60798912e-003 0. 0. 0.
      1.24625741e-002 5.72421076e-003 -2.27272734e-002 -1.13796778e-002
      0. 0. 0. 0. 0. 0. 0. 5.04590943e-003 1.07550202e-002 0.
      2.60798912e-003 5.65017434e-003 -2.38095243e-002 -2.12765951e-002
      0. 0. -3.77358496e-002 0. 0. 6.18646853e-003 4.37952718e-003
      -2.38095243e-002 0. 0. 4.87238495e-003 3.41906794e-003 0.
      4.84327832e-003 1.47164548e-002 1.16792610e-002 0. 6.01512706e-003
      0. 0. 8.77225492e-003 0. 0. 0. 0. 1.23762321e-002 5.56022488e-003
      0. 0. -7.15605030e-003 0. 0. 0. 1.16792610e-002 0. 4.92153317e-003
      0. 4.01486689e-003 8.02221522e-003 0. 6.66892389e-003 0.
      7.19212927e-003 7.01157097e-003 0. 9.01441369e-003 0.
      -1.88679248e-002 9.68168397e-003 0. 0. 0. 0. 0. 0. 1.24522215e-002
      0. 1.40167195e-002 0. 0. 7.49121094e-003 0. 0. 7.22726015e-003 0.
      1.16792610e-002 -1.48530575e-002 0. 3.59606463e-003 0. 0. 0. 0. 0.
      0. 0. -2.06272621e-002 5.98227885e-003 0. 0. -8.14951956e-003 0.
      5.79627650e-003 -2.63157897e-002 -1.76935438e-002 6.24262076e-003
      4.83068964e-003 0. 5.26501564e-003 0. 1.56999212e-002
      5.11797657e-003 0. 0. 0. 0. 0. 2.36006100e-002 0. 0.
      1.01225181e-002 0. 0. 0. 0. 8.76905303e-003 0. 0. 0. 0. 0. 0.
      -2.12765951e-002 0. 1.02158999e-002 0. 3.59606463e-003
      1.06398687e-002 -3.27868834e-002 3.78596573e-003 0. 0.
      3.41906794e-003 0. 8.01106915e-003 8.01106915e-003 0.
      -1.58730168e-002 7.86686968e-003 4.18878160e-003 0. 0.
      7.00835977e-003 0. 0. 4.01699590e-003 0. 0. 0. -1.88679248e-002 0.
      -1.96078438e-002 0. 0. 0. 1.63953602e-002 -2.12765951e-002
      -1.85185187e-002 6.66892389e-003 7.34717911e-003 7.49121094e-003
      0. 0. 0. 0. 0. 0. 0. -6.13406971e-002 0. -1.63934417e-002
      -1.63934417e-002 0. -2.38095243e-002 0. 0. 1.11609427e-002
      -2.04081628e-002 4.84327832e-003 0. 0. 9.92889982e-003 0.
      5.11797657e-003 0. 6.72827940e-003 0. 7.43597234e-003 0. 0. 0. 0.
      0. -6.45659678e-003 0. 0. 5.01376344e-003 0. 0. 0. 6.06118841e-003
      0. 0. -2.63157897e-002 4.57140524e-003 0. 1.36948228e-002 0.
      4.85722069e-003 0. 0. -1.85185187e-002 0. -1.85185187e-002
      -1.92307699e-002 4.92153317e-003 7.65506690e-003 1.42017438e-004
      0. 0. 1.50461607e-002 7.53488299e-003 0. -1.92307699e-002 0. 0.
      1.19508272e-002 7.86686968e-003 5.70685929e-003 0. 0.
      7.03721819e-003 0. 4.01699590e-003 -1.58730168e-002
      -1.88679248e-002 7.34717911e-003 -2.63157897e-002 0. 0. 0.
      5.37583092e-003 0. 7.65506690e-003 0. 4.35221521e-003
      1.01225181e-002 0. 5.72550343e-003 0. 7.49070290e-003 0. 0. 0. 0.
      1.24625741e-002 4.33058990e-003 -2.27272734e-002 0.
      -2.82521397e-002 0. 4.51186392e-003 0. 1.11204498e-002
      7.01157097e-003 0. 0. 0. 1.07860444e-002 -1.88679248e-002 0. 0.
      -1.63934417e-002 0. 5.11797657e-003 0. 1.60637628e-002 0. 0. 0. 0.
      0. 0. 1.73064985e-003 0. 4.46734484e-003 0. -6.13921322e-003 0. 0.
      0. 5.30475937e-003 -2.08333340e-002 6.31504366e-003 0.
      8.33613612e-003 7.65506690e-003 0. 0. 4.92153317e-003
      7.52337556e-003 0. 1.13562187e-002 0. 0. 0. 0. 0. 0.
      1.44545203e-002 4.64983610e-003 0. 0. 4.01486689e-003 0.
      4.35221521e-003 -1.69491526e-002 4.51186392e-003 0. 0.
      -1.63934417e-002 0. 0. 4.92153317e-003 0. 5.01376344e-003 0.
      2.20733453e-002 0. -3.12500000e-002 -1.63934417e-002 0. 0.
      7.49070290e-003 0. 0. -1.83579640e-003 4.00521886e-003 0.
      1.05887325e-002 8.66117980e-003 3.62605997e-003 0. 0.
      -1.39364041e-002 0. 0. 3.59606463e-003 0. 0. 7.49070290e-003 0. 0.
      0. 0. 0. 2.60798912e-003 4.51186392e-003 0. 0. 1.37491850e-002 0.
      0. 0. -1.96587481e-002 0. 0. 0. 0. 7.03915767e-003 5.37583092e-003
      7.03915767e-003 1.20458053e-002 0. 0. 4.83068964e-003
      -1.58730168e-002 5.79627650e-003 7.19212927e-003 4.00521886e-003
      0. 0. 0. 0. 1.07353907e-002 0. 0. 7.43597234e-003 0.
      -2.50000004e-002 3.49450880e-003 0. 0. 0. 0. 0. 1.40167195e-002
      3.62605997e-003 0. 3.86042916e-003 0. 0. 6.58264617e-003 0.
      -3.77358496e-002 0. 4.57140524e-003 0. 0. 0. 7.84996059e-003
      -1.19836349e-002 0. 0. 0. 0. 3.27355112e-003 0. 0.
      -1.63934417e-002 -1.75438598e-002 5.11797657e-003 0. 0. 0. 0. 0.
      0. 2.68552452e-002 0. -2.50000004e-002 0. 0. 0. 0. 0.
      -1.92307699e-002 3.48938210e-003 5.65017434e-003 1.09170610e-002
      0. 8.19768012e-003 8.03399179e-003 6.58264617e-003 0. 0.
      -1.22224102e-002 0. 4.01699590e-003 0. -2.56410260e-002 0. 0.
      3.86042916e-003 -1.35805951e-002 6.69461815e-003 1.24625741e-002
      1.18874051e-002 0. 0. 0. -2.63157897e-002 0. -1.88679248e-002 0.
      0. 4.35221521e-003 0. -1.85185187e-002 0. 0. 0. 0. 0.
      3.73004866e-003 0. 0. 0. 0. 0. 0. 0. 0. 7.03915767e-003 0.
      4.85722069e-003 7.43597234e-003 0. 3.59606463e-003 0. 0.
      5.26501564e-003 -1.21396454e-002 9.33930185e-003 1.59236696e-002
      0. -1.38541609e-002 0. 0. 6.01512706e-003 0. 0. 0. 1.19508272e-002
      3.73004866e-003 0. 0. 0. 1.02359531e-002 9.33930185e-003 0.
      2.08953191e-002 0. 0. 7.84996059e-003 0. 1.31652923e-002
      7.03915767e-003 0. 3.41346511e-003 0. 7.22726015e-003 0. 0. 0. 0.
      1.08366981e-002 0. 0. 0. 0. 3.48938210e-003 0. 4.00521886e-003
      5.98227885e-003 0. 6.98897941e-003 0. 0. 3.73004866e-003
      7.53488299e-003 0. -9.93395224e-003 0. 0. 0. 0. 0. 0.
      5.72421076e-003 0. 0. -3.54982875e-002 0. 0. 5.65017434e-003 0. 0.
      -1.58730168e-002 0. 0. -3.03030312e-002 4.85722069e-003 0.
      2.60798912e-003 0. 0. 0. 0. 0. 1.24625741e-002 7.03721819e-003
      1.65030919e-002 -1.96078438e-002 -3.84615399e-002 0. 0. 0. 0.
      9.68655664e-003 9.33930185e-003 5.36769535e-003 3.59606463e-003
      -3.50877196e-002 6.66892389e-003 0. -3.03030312e-002 0. 0.
      -2.12765951e-002 5.29436627e-003 3.59606463e-003 -1.85185187e-002
      0. 0. 5.04590943e-003 0. 5.26501564e-003 0. 0. 5.27522480e-003 0.
      1.21687474e-002 5.98227885e-003 0. 0. 7.22726015e-003 0. 0. 0.
      6.18646853e-003 0. 0. 0. 1.44972689e-002 0. 0. 0. 0. 0.
      3.49450880e-003 0. -1.88679248e-002 4.87238495e-003
      1.22532779e-002 0. 0. -1.75438598e-002 3.86042916e-003
      5.04590943e-003 0. 0. 8.19768012e-003 -2.25685649e-002
      9.31962673e-003 4.83068964e-003 0. 0. 0. 9.33930185e-003 0.
      -5.04958909e-003 4.83068964e-003 -1.28742205e-002 0. 0. 0. 0. 0.
      0. 0. 0. 0. -2.63157897e-002 1.62782874e-002 5.41834906e-003 0.
      6.18820963e-003 0. 4.00521886e-003 6.83813589e-003 1.57806240e-002
      0. 7.86686968e-003 0. 0. -9.67699010e-003 0. -2.23212154e-003 0.
      4.00521886e-003 -1.81818176e-002 0. 0. 0. 0. 6.31504366e-003
      3.73004866e-003 0. 5.56022488e-003 0. 3.27355112e-003
      7.12895999e-003 1.62381884e-002 0. 3.27355112e-003 7.67969526e-003
      0. 0. -4.34988178e-002 0. -2.12765951e-002 3.78596573e-003 0. 0.
      0. 0. 1.24522215e-002 9.03383736e-003 0. 6.54710224e-003
      8.77225492e-003 0. 9.68168397e-003 0. 8.19768012e-003 0. 0.
      5.41834906e-003 1.92878600e-002 0. 0. 4.01486689e-003 0.
      4.84327832e-003 1.47164548e-002 -1.45182908e-002 0. 0. 0. 0.
      4.68759006e-003 0. 9.92889982e-003 1.24625741e-002 0.
      7.67969526e-003 -1.92307699e-002 5.36769535e-003 1.30424742e-002
      0. 0. 0. -1.11750988e-002 0. 0. 7.67969526e-003 3.73004866e-003 0.
      0. 6.31504366e-003 1.57337394e-002 0. 0. 5.37583092e-003
      -1.96078438e-002 4.33058990e-003 1.75381061e-002 0.
      5.98227885e-003 4.57140524e-003 8.25791620e-003 0. 4.51186392e-003
      4.84327832e-003 0. -1.63934417e-002 0. 7.49121094e-003 0.
      -1.63934417e-002 -1.92307699e-002 0. -3.27868834e-002
      7.03915767e-003 3.38707939e-002 0. 0. 4.96444991e-003 0. 0.
      1.04271360e-002 -1.51378764e-002 0. 0. -1.85185187e-002 0. 0. 0.
      0. 0. 0. 0. 7.34717911e-003 4.57140524e-003 0. 1.04271360e-002 0.
      0. 0. 0. 1.10109309e-002 0. 0. -1.85185187e-002 4.51186392e-003 0.
      0. 1.50869675e-002 8.43274500e-003 0. -1.88679248e-002
      4.37952718e-003 0. 0. 4.00521886e-003 0. 8.66117980e-003
      5.56022488e-003 -1.63934417e-002 0. 0. 1.01225181e-002 0. 0.
      -1.69729050e-002 0. -1.75438598e-002 0. 5.70685929e-003
      1.07516618e-002 0. 0. 0. 0. 0. 1.53101338e-002 3.73004866e-003
      5.98227885e-003 0. 0. 0. 0. -1.75438598e-002 0. 7.84996059e-003 0.
      0. 0. 0. 3.27355112e-003 4.83068964e-003 0. 0. 7.22726015e-003
      7.01157097e-003 -1.09836357e-002 4.68759006e-003 0.
      1.01225181e-002 0. 0. 0. 4.64983610e-003 6.66892389e-003 0. 0. 0.
      0. 0. 0. 0. 4.01486689e-003 7.03721819e-003 0. 0. 0.
      5.37583092e-003 4.37952718e-003 0. 4.76875901e-003 0. 0.
      1.02359531e-002 0. 1.05387783e-002 0. 0. -2.22222228e-002
      -2.56410260e-002 0. 4.35221521e-003 0. 0. 3.73004866e-003 0. 0.
      -1.53846154e-002 5.56022488e-003 6.24262076e-003 0.
      2.60798912e-003 0. 0. 5.65017434e-003 0. 0. 0. 0. -7.77503476e-004
      3.27355112e-003 7.12895999e-003 3.48938210e-003 -1.09545579e-002
      4.00521886e-003 9.86117404e-003 7.22726015e-003 0. 0. 0. 0.
      5.36769535e-003 0. 0. 1.90773502e-003 0. 7.43597234e-003 0.
      1.11901462e-002 1.53135071e-002 0. 0. 0. 9.68168397e-003
      4.84327832e-003 0. -1.88679248e-002 0. 0. 0. 3.41906794e-003 0. 0.
      -1.85185187e-002 0. 0. 7.35664275e-003 -1.57362614e-002 0. 0.
      8.03399179e-003 0. 0. 5.04590943e-003 0. 0. 0. 7.49070290e-003 0.
      0. 0. -2.04081628e-002 0. 8.76905303e-003 0. 0. 0. 4.75850794e-003
      0. 0. -2.12765951e-002 0. 0. 0. 0. -1.92307699e-002 0. 0. 0. 0. 0.
      0. 0. 9.84306633e-003 -1.75467357e-002 0. 0. 8.76905303e-003 0.
      7.67563283e-003 7.43597234e-003 0. 0. 0. -1.92307699e-002 0.
      9.67759173e-003 0. -2.08333340e-002 0. 0. 0. 0. -1.76476557e-002
      0. 9.33930185e-003 2.60798912e-003 4.96444991e-003 0. 0. 0. 0.
      5.21356799e-003 0. 3.78596573e-003 7.12895999e-003 0. 0.
      5.72550343e-003 0. 0. 0. 0. 0. 3.48938210e-003 8.77225492e-003 0.
      0. 0. 0. 0. 0. -2.38095243e-002 1.01225181e-002 6.01512706e-003
      5.21356799e-003 0. 0. 0. 0. 0. 0. 7.49121094e-003 4.96444991e-003
      7.03915767e-003 -1.51896039e-002 0. -3.27868834e-002 0. 0. 0.
      6.69461815e-003 0. 5.98227885e-003 6.93857903e-003 3.27355112e-003
      -2.27272734e-002 4.35221521e-003 0. 4.01486689e-003 0. 0.
      3.73004866e-003 8.76905303e-003 0. 0. 0. 7.65506690e-003 0.
      -1.69491526e-002 5.01376344e-003 -1.92307699e-002 0.
      1.16792610e-002 7.01157097e-003 0. 0. 0. 3.62605997e-003 0.
      7.43597234e-003 0. 0. 0. -3.50877196e-002 0. -2.22222228e-002 0.
      5.36769535e-003 0. 0. -1.75438598e-002 5.65017434e-003
      4.93058702e-003 5.56022488e-003 0. 4.92153317e-003 0.
      7.49121094e-003 4.51186392e-003 0. 0. 0. 0. 0. 5.21356799e-003
      1.24522215e-002 -2.79329140e-002 -1.85185187e-002 0. 0. 0. 0.
      -1.69491526e-002 -2.27272734e-002 -2.22222228e-002 6.58264617e-003
      0. 0. 0. 0. 0. 5.72421076e-003 -8.64203740e-003 0. 4.84327832e-003
      0. 5.29436627e-003 0. 0. 0. 0. 2.06622723e-002 5.56022488e-003
      4.01486689e-003 0. 5.04590943e-003 0. 4.33058990e-003 0.
      7.22726015e-003 0. 4.35221521e-003 4.85722069e-003 0. 0.
      6.18820963e-003 6.72827940e-003 0. 0. 0. -2.56410260e-002 0.
      -1.92307699e-002 0. 5.41834906e-003 0. 0. 0. 0. 0.
      -1.53846154e-002 0. 0. -2.63157897e-002 0. 7.52337556e-003 0. 0.
      0. 5.41834906e-003 9.92889982e-003 5.41834906e-003
      -3.84615399e-002 9.68168397e-003 0. 0. 0. 0. 0. 0. 7.65506690e-003
      0. 0. -1.58730168e-002 0. 1.19508272e-002 2.02450361e-002
      3.59606463e-003 0. 0. 0. 0. 2.60798912e-003 0. 0. 0.
      1.24625741e-002 0. -2.75716782e-002 1.14137186e-002 0. 0.
      1.05387783e-002 0. 1.47164548e-002 1.78705715e-002 0.
      8.76905303e-003 0. -4.52554598e-003 0. 0. 1.11400476e-002 0.
      -1.88679248e-002 0. 0. 4.37952718e-003 0. 0. 0. -1.20610790e-002
      0. 0. -2.22222228e-002 0. -2.09947806e-002 0. -1.83522049e-002 0.
      0. 0. 4.57140524e-003 0. 0. 0. 0. 0. -8.88216775e-003
      3.48938210e-003 0. 0. 7.43597234e-003 0. -2.08333340e-002 0. 0. 0.
      5.21356799e-003 7.42617017e-003 0. 0. 0. 0. 0. 0. 0. 0.
      7.55753741e-003 -1.75438598e-002 4.87238495e-003 1.01225181e-002
      -2.12765951e-002 0. -1.63934417e-002 1.16761532e-002
      3.27355112e-003 4.92153317e-003 0. 0. 5.79771632e-003 0. 0. 0.
      -1.35065587e-002 1.33378478e-002 -1.75438598e-002 0. 0. 0. 0.
      8.25791620e-003 0. 0. 0. 0. 0. 3.41906794e-003 0. 3.86042916e-003
      6.58264617e-003 0. 0. 7.49121094e-003 0. 5.98227885e-003 0.
      1.24522215e-002 6.18820963e-003 0. 0. 0. 0. 0. 0. 0. 0. 0.
      8.33613612e-003 0. 0. 6.58264617e-003 4.76875901e-003 0. 0. 0. 0.
      0. 0. 0. 0. 8.76905303e-003 0. 5.72550343e-003 0. 0.
      8.77225492e-003 0. 4.35221521e-003 4.12895810e-003 3.86042916e-003
      0. 0. 0. 0. 0. 0. 0. 0. 0. 0. 0. 0. 0. 0. 2.60798912e-003 0.
      5.01376344e-003 0. 0. 0. 0. 0. 0. 3.73004866e-003 0.
      1.39871240e-002 0. -2.27272734e-002 7.22726015e-003 0. 0. 0.
      3.49450880e-003 9.33930185e-003 0. 1.00275269e-002 0.
      1.00879921e-002 4.33058990e-003 3.27355112e-003 0. 0.
      3.27355112e-003 0. 0. 0. -9.40956268e-003 -1.81818176e-002 0.
      5.26501564e-003 5.21597825e-003 -1.88679248e-002 0. 0.
      3.67832137e-003 0. 0. 0. 6.72827940e-003 0. 0. 0. -1.53846154e-002
      0. 0. 6.31504366e-003 -1.75438598e-002 4.18878160e-003 0. 0.
      7.53488299e-003 0. 3.41906794e-003 0. 0. 4.33058990e-003
      -1.63934417e-002 7.34717911e-003 1.24625741e-002 0. 0. 0. 0. 0. 0.
      7.03721819e-003 0. 0. 4.12895810e-003 7.22726015e-003 0. 0. 0. 0.
      0. 0. 4.83068964e-003 0. -1.85185187e-002 0. -1.85185187e-002
      -2.63157897e-002 0. 5.70685929e-003 0. 0. 0. 0. 0. 0. 0. 0. 0.
      7.86686968e-003 0. 5.21597825e-003 4.68759006e-003 4.35221521e-003
      7.22726015e-003 -1.88679248e-002 -1.18307061e-002 4.56649251e-003
      0. 0. 0. -1.82717219e-002 0. 0. -1.63934417e-002 0. 0. 0. 0.
      7.00835977e-003 -4.19530645e-002 -2.12765951e-002 0. 0.
      5.79771632e-003 7.40999915e-003 6.58264617e-003 5.31993434e-003 0.
      0. 0. 0. 8.76905303e-003 0. 0. 0. 0. 0. 6.06118841e-003
      -4.49519604e-003 0. 0. 1.00275269e-002 6.98897941e-003 0. 0.
      -1.85185187e-002 0. 0. 0. 6.98897941e-003 -1.88679248e-002 0.
      7.25211995e-003 9.68168397e-003 3.41906794e-003 7.40999915e-003 0.
      0. 0. 0. 7.52337556e-003 -1.63934417e-002 0. 0. 0. 0. 0.
      6.18820963e-003 0. -1.82253439e-002 0. 0. 0. 0. 0. 0. 0.
      -2.38095243e-002 4.96444991e-003 -2.04081628e-002 8.19768012e-003
      -1.92307699e-002 4.01699590e-003 0. 0. 0. 0. 0. 0. 0.
      -1.96078438e-002 0. 4.01486689e-003 5.72550343e-003 0. 0.
      -2.50000004e-002 3.27355112e-003 5.26501564e-003 0.
      -1.96078438e-002 -1.63934417e-002 0. 8.19768012e-003
      3.27355112e-003 0. 5.21356799e-003 1.01225181e-002 4.83068964e-003
      3.48938210e-003 0. 0. -1.53846154e-002 0. 0. 0. 0. 0. 0.
      3.67832137e-003 7.22726015e-003 0. -1.75438598e-002
      -2.12765951e-002 0. -7.93767348e-003 0. 0. 0. 0. 0. 0.
      4.84327832e-003 0. -6.81025088e-002 0. 0. 0. 5.79627650e-003 0.
      -1.10990759e-002 0. 0. 0. 6.66892389e-003 7.21943099e-003 0.
      7.01157097e-003 4.37952718e-003 0. 4.35221521e-003 0. 0. 0.
      -1.63934417e-002 0. 0. 0. 0. 0. 0. 0. -2.04081628e-002
      -3.72267738e-002 0. 0. 0. 0. 0. 0. 0. 0. 0. 0. 1.23764193e-002 0.
      -1.85185187e-002 0. 0. 0. 0. 3.73004866e-003 -1.58730168e-002 0.
      0. 0. 0. 0. 0. 0. 2.20415369e-002 0. 0. 0. 5.31993434e-003 0. 0.
      0. 0. 0. 1.36762718e-002 0. -1.85185187e-002 0. 7.49070290e-003
      7.67969526e-003 0. 0. 7.65506690e-003 7.01157097e-003 0. 0.
      5.72550343e-003 0. 0. -2.50000004e-002 0. 3.86042916e-003 0. 0. 0.
      0. 0. 0. 4.96444991e-003 4.87238495e-003 2.63167638e-002 0. 0. 0.
      2.60798912e-003 8.33613612e-003 3.62605997e-003 -1.63934417e-002
      8.77225492e-003 4.12895810e-003 0. 0. 7.34717911e-003
      5.70685929e-003 0. 0. -1.58730168e-002 0. 0. 2.60798912e-003
      -1.75438598e-002 7.12895999e-003 5.21356799e-003 0.
      6.83813589e-003 0. -1.88679248e-002 0. 0. 0. 0. 0. 1.48670217e-002
      0. 0. 0. 0. -4.84580733e-002 0. 0. 0. 0. -1.96078438e-002 0. 0. 0.
      -2.03760099e-002 5.29436627e-003 0. 0. 3.27355112e-003 0.
      -2.63157897e-002 0. -1.81818176e-002 7.86686968e-003
      -1.53846154e-002 0. 8.76905303e-003 0. 0. 0. 0. 6.98901759e-003
      -3.25572863e-002 0. 0. 1.72777276e-004 0. 1.24625741e-002
      -1.96078438e-002 0. 0. 7.67563283e-003 8.02973378e-003 0. 0. 0.
      3.67832137e-003 0. 6.24262076e-003 0. 0. 0. 0. 0. 0.
      -2.08333340e-002 4.00521886e-003 -1.69491526e-002 0.
      5.21356799e-003 6.18820963e-003 0. 0. 0. 0. -1.58730168e-002
      4.12895810e-003 0. -2.12765951e-002 -1.75438598e-002 0. 0. 0. 0.
      0. 2.04608049e-002 5.31993434e-003 7.86686968e-003 1.24522215e-002
      0. 0. 0. 4.00521886e-003 4.18878160e-003 0. -1.81818176e-002 0. 0.
      0. 4.35221521e-003 0. 0. 0. 0. -1.71042457e-002 6.24262076e-003 0.
      0. 0. 0. 4.01486689e-003 0. 6.72827940e-003 0. 1.22885043e-002 0.
      2.60798912e-003 0. 0. 7.67969526e-003 0. 0. 0. 0. 0. 0. 0. 0. 0.
      4.85722069e-003 0. 0. -6.18101377e-003 0. 0. 0. 0.
      -1.88679248e-002 7.49121094e-003 0. 7.40250945e-003 0.
      5.04590943e-003 0. 0. 4.46734484e-003 4.76875901e-003
      4.84327832e-003 6.01512706e-003 0. 0. -1.63934417e-002 0. 0. 0. 0.
      0. 0. 1.47164548e-002 0. 3.73004866e-003 0. -1.88679248e-002
      4.64983610e-003 4.76875901e-003 5.79771632e-003 4.96444991e-003 0.
      8.77225492e-003 5.26501564e-003 0. 0. 4.84327832e-003 0.
      -2.50000004e-002 1.14508392e-002 0. 7.03915767e-003 0.
      1.45042399e-002 -6.25000000e-002 -1.69491526e-002 -2.63157897e-002
      6.98897941e-003 0. 0. 0. 8.43274500e-003 -1.75438598e-002 0.
      -1.43014323e-002 -1.63934417e-002 -1.63934417e-002 0.
      5.98227885e-003 4.35221521e-003 0. 0. 0. -1.92307699e-002
      3.48938210e-003 7.00835977e-003 4.64983610e-003 0. 4.64983610e-003
      0. 0. 0. 0. 5.70685929e-003 0. 6.06118841e-003 0. 0. 0. 0. 0.
      -1.11750988e-002 0. 0. 0. -3.63636352e-002 0. 0. 0. 0. 0. 0. 0. 0.
      3.78596573e-003 0. 4.84327832e-003 9.33930185e-003 0.
      4.93058702e-003 0. -1.63934417e-002 1.60423312e-002 0.
      2.07230821e-002 0. 0. -2.12765951e-002 0. 0. 0. 0. 0.
      5.26501564e-003 7.82396737e-003 0. 0. 0. 1.94857102e-002
      7.67969526e-003 0. -1.88679248e-002 -1.88679248e-002 0. 0. 0.
      3.48938210e-003 0. 8.03399179e-003 1.47164548e-002 0.
      4.93058702e-003 0. 0. 0. 0. 0. 7.55753741e-003 -1.75438598e-002 0.
      -9.66040418e-003 7.00835977e-003 0. 0. 1.49824219e-002 0. 0.
      -1.75438598e-002 0. 0. 8.76905303e-003 0. 0. 6.18646853e-003 0. 0.
      0. 0. 4.76875901e-003 0. 0. 5.79627650e-003 8.01106915e-003
      -2.69257296e-002 6.98897941e-003 0. 0. 5.36769535e-003 0.
      6.58264617e-003 -2.38095243e-002 0. -2.08333340e-002
      -1.20767672e-002 0. 0. 0. 0. 4.01486689e-003 7.67563283e-003 0.
      4.51186392e-003 0. 0. 0. 6.31504366e-003 0. 5.79627650e-003 0. 0.
      4.84327832e-003 0. 0. 3.27355112e-003 0. 0. 5.37583092e-003 0. 0.
      1.14510069e-002 0. 0. 0. 0. 0. 6.66892389e-003 5.04590943e-003
      4.85722069e-003 -1.88679248e-002 1.09222671e-002 0.
      3.41906794e-003 0. 0. 0. 1.44545203e-002 0. 7.34717911e-003
      -1.92307699e-002 4.93058702e-003 6.72827940e-003 0. 0.
      9.37518012e-003 -1.85185187e-002 0. 0. 0. 1.19508272e-002 0. 0.
      7.65506690e-003 -2.08333340e-002 5.72550343e-003 0. 0.
      -1.58730168e-002 1.71051901e-002 5.26501564e-003 0. 0.
      5.79771632e-003 0. -3.43024954e-002 0. 6.54710224e-003
      2.61245444e-002 0. 4.46734484e-003 0. 5.29436627e-003 0. 0. 0.
      5.26501564e-003 0. 6.58264617e-003 0. 0. 4.33058990e-003
      6.18646853e-003 0. 0. 8.33613612e-003 1.51005965e-002 0.
      1.56999212e-002 0. 0. 0. 7.40999915e-003 0. 0. 0. 0.
      1.07516618e-002 0. 0. 6.18646853e-003 0. 4.84327832e-003
      1.86786037e-002 0. 0. 8.43274500e-003 0. 4.84327832e-003 0.
      3.62605997e-003 0. 6.98897941e-003 4.76875901e-003
      -8.72890186e-003 3.27355112e-003 0. 1.28292488e-002 0. 0. 0. 0. 0.
      5.01376344e-003 1.11406948e-002 7.49070290e-003 0.
      -1.75438598e-002 0. 8.76905303e-003 0. 4.84327832e-003 0.
      -1.92307699e-002 0. 0. 0. 4.83068964e-003 0. -1.30491732e-002
      7.40999915e-003 0. 3.41906794e-003 -1.96078438e-002 0. 0. 0. 0. 0.
      3.78596573e-003 8.19768012e-003 0. 0. 7.65506690e-003 0.
      -2.63157897e-002 1.14137186e-002 0. -1.64811183e-002
      5.11797657e-003 0. 0. 0. 8.66117980e-003 0. 4.51186392e-003
      4.93058702e-003 0. 0. 0. 0. 5.29436627e-003 0. -9.40233655e-003
      -1.30494842e-002 7.40999915e-003 5.36769535e-003 3.62605997e-003
      7.53488299e-003 5.26501564e-003 4.96444991e-003 1.01225181e-002
      1.08791655e-002 0. 0. 0. 0. 0. -2.63157897e-002 6.72827940e-003
      1.21223768e-002 0. 4.75850794e-003 0. 0. 8.91599897e-003 0. 0. 0.
      -2.08333340e-002 2.60798912e-003 3.27355112e-003 7.35664275e-003
      0. -1.92307699e-002 6.39395509e-003 0. 0. 0. 0. 0. 0. 0. 0.
      5.11797657e-003 0. -3.84615399e-002 0. 0. 0. 3.73004866e-003 0. 0.
      9.68168397e-003 0. 0. 7.40999915e-003 0. 0. 0. 0. 0. 0.
      -2.38095243e-002 1.53512657e-002 0. 3.62605997e-003 0.
      7.43597234e-003 0. 7.49121094e-003 -2.22222228e-002 0.
      8.77225492e-003 0. 7.34717911e-003 -5.23736402e-002 0. 0. 0.
      -1.81818176e-002 4.84327832e-003 -2.92497753e-005 0. 0. 0. 0. 0.
      0. 0. 0. 0. 0. 0. 0. 0. 0. 0. -1.53846154e-002 0. 0.
      1.63107272e-002 0. 0. 5.70685929e-003 0. 0. 3.62605997e-003 0. 0.
      0. 3.67832137e-003 5.79771632e-003 0. 1.01225181e-002
      3.27355112e-003 0. 0. 0. 0. 8.19768012e-003 0. 5.01376344e-003 0.
      0. 0. -1.69491526e-002 0. 1.47164548e-002 5.72421076e-003 0. 0. 0.
      0. 0. 0. 0. 7.03915767e-003 -3.84615399e-002 0. 0. 0. 0.
      5.21356799e-003 -4.44261450e-003 0. 1.52730141e-002 0.
      -2.50000004e-002 1.12132039e-002 0. 0. 0. -2.08333340e-002
      -1.52449673e-002 0. 0. 0. 7.40999915e-003 0. 1.54841272e-002
      4.64983610e-003 1.11406948e-002 0. 0. 7.86686968e-003
      1.16792610e-002 1.47164548e-002 0. 0. 7.03915767e-003
      -1.88679248e-002 0. 4.01486689e-003 0. 3.59606463e-003 0. 0.
      -1.94397755e-002 0. 0. 0. 4.64983610e-003 0. 5.04590943e-003
      6.98897941e-003 0. 5.56022488e-003 0. 0. 5.36769535e-003
      6.06118841e-003 0. 7.49070290e-003 0. -1.96078438e-002
      7.40999915e-003 0. 0. 0. 0. 5.72421076e-003 -2.12765951e-002 0. 0.
      0. 0. 0. 0. 0. 1.05387783e-002 0. 3.86042916e-003 6.69461815e-003
      0. 0. 0. 7.67563283e-003 4.35221521e-003 0. 4.68759006e-003 0.
      3.59606463e-003 5.79771632e-003 0. 0. -3.77358496e-002 0. 0. 0. 0.
      -1.92307699e-002 0. 4.33058990e-003 7.40999915e-003 0. 0.
      4.84327832e-003 -3.12500000e-002 0. -1.69491526e-002 0.
      7.01157097e-003 0. 0. -1.36255650e-002 4.12895810e-003
      1.10468334e-002 4.96444991e-003 0. 0. 4.35221521e-003 0.
      -1.58730168e-002 0. 0. 4.00521886e-003 0. 0. 0. -1.49615519e-002
      0. 0. 7.01157097e-003 0. 0. -1.92307699e-002 0. 1.24522215e-002 0.
      0. 0. 0. 0. 0. 0. 0. 0. 7.52337556e-003 0. 0. -2.22222228e-002 0.
      0. 0. 0. 0. 0. 0. 0. 0. 0. 0. 0. 0. 0. 1.01225181e-002
      8.19768012e-003 6.58264617e-003 3.48938210e-003 0. 1.68234929e-002
      0. 0. 0. 8.77225492e-003 3.41906794e-003 5.37583092e-003 0.
      -1.01223094e-002 0. -3.12500000e-002 5.79771632e-003 0. 0.
      7.43597234e-003 0. 4.92153317e-003 0. 4.96444991e-003 0. 0.
      7.67969526e-003 0. 3.67832137e-003 5.79627650e-003 3.48938210e-003
      0. 5.36769535e-003 0. 0. 0. -6.81741256e-003 7.84996059e-003 0. 0.
      0. 0. 6.98897941e-003 0. 4.46734484e-003 5.72550343e-003 0. 0. 0.
      7.67563283e-003 0. 0. 7.12895999e-003 0. 0. 0. -1.63934417e-002 0.
      0. -1.92307699e-002 0. 3.48938210e-003 0. 1.44805368e-002 0.
      -2.22222228e-002 0. -5.43345585e-002 0. 0. 6.31504366e-003
      -1.43649625e-002 3.41906794e-003 0. 4.46734484e-003 0.
      -1.75438598e-002 7.86686968e-003 7.12895999e-003 0.
      4.01699590e-003 0. 0. -1.40372356e-002 -2.22222228e-002 0. 0. 0.
      1.31652923e-002 4.33058990e-003 0. 0. 1.19508272e-002 0.
      5.70685929e-003 7.12895999e-003 4.57140524e-003 0.
      -3.70370373e-002 0. -1.58730168e-002 0. 0. 0. 0. 0. 0. 0.
      -1.58730168e-002 0. 0. 0. 0. 0. 0. 0. 9.51701589e-003
      3.48938210e-003 7.03915767e-003 0. 0. 7.67477928e-003
      -1.75438598e-002 5.72550343e-003 8.77225492e-003 5.26501564e-003
      0. 0. -7.74775371e-002 0. 0. 0. 0. 0. 0. 0. 0. 4.00521886e-003
      -2.23674756e-002 0. 5.01376344e-003 0. 8.77225492e-003 0.
      4.83068964e-003 0. 0. 0. 0. 0. 4.33058990e-003 0. 5.56022488e-003
      0. 0. 0. 8.77225492e-003 6.24262076e-003 0. -1.75438598e-002 0. 0.
      -4.70149666e-002 0. 0. 0. 0. 0. 0. 0. 0. 0. 1.05387783e-002
      6.18646853e-003 0. 1.16792610e-002 7.00835977e-003
      -1.58730168e-002 1.01374006e-002 0. 3.49450880e-003 0. 0.
      4.51186392e-003 0. 0. 0. 0. 0. 6.01512706e-003 4.01486689e-003 0.
      3.73004866e-003 0. 0. 0. -1.75438598e-002 0. 0. -5.00000007e-002
      0. 0. -1.52343120e-002 0. 0. 0. 0. 4.00521886e-003 0. 0. 0. 0. 0.
      3.73004866e-003 0. 0. 4.75850794e-003 0. 0. 0. 4.64983610e-003
      7.65506690e-003 0. 0. 0. 0. 5.26501564e-003 -2.04081628e-002
      -1.58730168e-002 0. -1.92307699e-002 0. 5.37583092e-003
      1.47164548e-002 6.18820963e-003 0. 0. 0. 0. 8.77225492e-003 0.
      4.37952718e-003 0. -2.08333340e-002 0. 0. 0. 0. -1.88679248e-002
      0. 0. 0. 0. -2.08333340e-002 0. 0. 0. 0. 7.43597234e-003
      5.21356799e-003 0. 1.19397100e-002 7.00835977e-003 7.49070290e-003
      0. -1.75438598e-002 0. 4.84327832e-003 7.49121094e-003 0.
      2.60798912e-003 0. 4.93058702e-003 1.59858316e-002 0. 0. 0. 0. 0.
      0. 0. -2.04081628e-002 1.14510069e-002 -1.63934417e-002 0. 0. 0.
      8.19768012e-003 0. 0. 0. 0. -3.12500000e-002 7.97559228e-003 0. 0.
      0. 0. 0. 0. -1.69491526e-002 7.53488299e-003 0. 0. 7.49070290e-003
      0. 0. 0. 0. 0. 0. 0. 0. 0. 0. 0. 4.12895810e-003 0. 0. 0. 0.
      5.37583092e-003 4.76875901e-003 0. 0. 6.06118841e-003
      5.65017434e-003 0. 0. 0. 0. 3.62605997e-003 0. 4.01486689e-003
      4.00521886e-003 0. 0. 6.18646853e-003 0. 0. 0. 0. 0. 0.
      -1.92307699e-002 8.33613612e-003 0. 0. 1.50697660e-002 0.
      3.59606463e-003 -2.12765951e-002 0. 0. 0. 9.86117404e-003
      -1.88679248e-002 0. 7.52337556e-003 7.49121094e-003
      7.86686968e-003 0. 0. 3.27355112e-003 7.49070290e-003
      5.21356799e-003 0. 0. -2.08333340e-002 4.00521886e-003 0.
      5.11797657e-003 0. -1.85185187e-002 0. 0. 0. 0. 0. 4.84327832e-003
      0. 0. 0. 0. 0. 4.75850794e-003 0. 0. 0. 7.67563283e-003
      3.27355112e-003 1.27101485e-002 0. 0. 0. 0. 0. 0. 0. 0. 0. 0.
      8.76905303e-003 0. -1.69491526e-002 0. 6.58264617e-003 0.
      4.01699590e-003 0. -1.70030631e-002 0. 0. 0. 0. 0. 0.
      8.77225492e-003 -1.03387060e-002 0. 6.31504366e-003
      8.19768012e-003 0. 0. 0. 0. 0. 2.32948642e-002 0. 0.
      4.69960831e-003 1.11406948e-002 0. 0. 0. 0. 7.67563283e-003 0.
      -1.85185187e-002 0. 7.53488299e-003 0. 3.48938210e-003 0.
      -1.53846154e-002 0. 0. 0. 0. -1.85185187e-002 3.73004866e-003
      1.06095187e-002 5.37583092e-003 0. -1.92307699e-002 0. 0. 0.
      6.66892389e-003 -1.81818176e-002 0. 0. 0. 4.83068964e-003
      5.21356799e-003 0. 7.22726015e-003 0. 0. 0. -1.88679248e-002 0.
      5.11797657e-003 0. 0. 0. -1.88679248e-002 0. 0. 1.24299228e-002 0.
      0. 0. 8.77225492e-003 0. 0. 5.56022488e-003 7.84996059e-003 0. 0.
      3.49450880e-003 4.85722069e-003 0. -1.88679248e-002 0. 0. 0. 0. 0.
      3.48938210e-003 1.16792610e-002 0. 0. 0. 0. 0. 1.14484215e-002 0.
      0. 0. 0. 0. 4.18878160e-003 -1.88679248e-002 5.72550343e-003
      6.72827940e-003 -2.12765951e-002 0. 0. -1.86018683e-002 0.
      -1.87124070e-002 0. 9.33930185e-003 3.49450880e-003 0. 0.
      8.33613612e-003 0. 0. 0. 0. 0. -2.27272734e-002 -2.92144455e-002
      4.12895810e-003 6.18646853e-003 0. 0. -1.85185187e-002 0. 0. 0. 0.
      0. 7.65506690e-003 7.49070290e-003 0. 0. 0. 5.36769535e-003 0. 0.
      5.29436627e-003 0. 0. 0. 0. 0. 0. 1.60221383e-002 -1.88679248e-002
      0. 0. 0. 0. 1.78353135e-002 0. 5.98227885e-003 0. 5.30475937e-003
      0. 0. 0. 4.76875901e-003 0. 4.96444991e-003 3.62605997e-003 0. 0.
      0. 0. 0. 0. 0. 0. 0. 0. 5.79627650e-003 0. -1.63934417e-002 0. 0.
      0. 0. 5.21356799e-003 -3.63636352e-002 1.19508272e-002
      1.01225181e-002 1.01225181e-002 0. 4.35221521e-003 0. 0. 0.
      -1.88679248e-002 1.15925530e-002 0. 0. 0. 0. 0. 5.72550343e-003 0.
      0. 0. 0. 0. 4.01486689e-003 0. 0. 4.85722069e-003 4.87238495e-003
      5.98227885e-003 -3.12500000e-002 -1.88679248e-002 -1.75438598e-002
      0. 3.27355112e-003 0. 5.36769535e-003 0. 0. 4.18878160e-003 0.
      -1.63934417e-002 0. 0. -1.10257464e-002 0. -1.75438598e-002 0. 0.
      -1.96078438e-002 0. 1.29115442e-002 -1.92307699e-002 0. 0.
      5.72421076e-003 1.24522215e-002 1.45349465e-002 0. 1.11406948e-002
      0. 7.84996059e-003 0. 0. 0. 0. 4.87238495e-003 -1.75438598e-002
      1.18590426e-002 0. 0. 7.43597234e-003 5.01376344e-003 0.
      -2.56410260e-002 -1.92307699e-002 0. 0. 0. -1.63934417e-002
      7.00835977e-003 0. 3.86042916e-003 0. 0. 0. -1.46365287e-002
      5.72550343e-003 0. -1.85185187e-002 -2.08333340e-002
      5.98227885e-003 0. 8.76905303e-003 -1.63934417e-002 0. 0. 0. 0.
      3.62605997e-003 0. 0. -1.92307699e-002 0. 0. 3.41906794e-003
      -1.92307699e-002 -1.75438598e-002 3.67832137e-003 0.
      -1.85185187e-002 5.29436627e-003 7.65506690e-003 1.24522215e-002
      0. 0. 0. 1.24522215e-002 0. 0. 0. 0. 0. 0. 0. 9.66059975e-003 0.
      -1.96078438e-002 0. -1.85185187e-002 0. 0. -2.04081628e-002
      1.63953602e-002 0. 7.40999915e-003 -1.81818176e-002 0.
      -5.39556444e-002 7.52337556e-003 2.38379259e-002 1.61030851e-002
      7.01157097e-003 0. 0. 0. 0. 1.19508272e-002 5.01376344e-003
      1.47164548e-002 1.75445098e-002 0. 0. 5.72421076e-003 0.
      4.76875901e-003 0. 0. 0. 0. 0. -1.85185187e-002 6.58264617e-003
      3.48938210e-003 0. 4.37952718e-003 0. 0. 8.77225492e-003 0. 0. 0.
      0. 0. -5.55971870e-003 0. -2.56410260e-002 0. 4.96444991e-003
      4.51186392e-003 0. -2.12765951e-002 4.96444991e-003 0. 0. 0. 0.
      7.67563283e-003 0. 0. 0. 0. 0. 0. 0. 4.18878160e-003 0. 0. 0.
      7.40999915e-003 1.11835971e-002 0. 0. -1.58730168e-002 0.
      3.86042916e-003 6.01512706e-003 0. 0. 0. 0. 9.26117692e-003
      3.73004866e-003 -1.81818176e-002 0. 0. 0. 0. 7.67563283e-003
      4.46734484e-003 0. 0. 0. 4.64983610e-003 -2.87749823e-002 0.
      7.01157097e-003 1.22195641e-002 0. 1.65225398e-002 0. 0.
      6.06118841e-003 0. 0. 0. 0. 0. 0. 0. 0. 5.01376344e-003 0. 0. 0.
      4.93058702e-003 0. 1.47164548e-002 0. 5.79771632e-003 0. 0. 0. 0.
      0. 0. 0. 0. 7.65506690e-003 6.83813589e-003 0. 7.40999915e-003 0.
      0. 0. 9.99927428e-003 0. 0. 0. 0. 3.73004866e-003 4.35221521e-003
      0. 0. 0. 0. 4.93058702e-003 -1.96078438e-002 0. 0. 0. 0. 0. 0. 0.
      0. 0. 0. 0. -1.10886823e-002 1.13705138e-003 -1.08568557e-002
      5.26501564e-003 -1.85185187e-002 3.70055735e-002 0. 0. 0.
      6.18646853e-003 1.31652923e-002 0. 0. 6.83813589e-003 0. 0. 0. 0.
      0. -3.03030312e-002 0. 7.84996059e-003 8.43274500e-003
      9.33930185e-003 -1.40493354e-002 3.73004866e-003 -2.56410260e-002
      0. 0. -5.85691854e-002 0. 0. 0. -1.85185187e-002 7.01157097e-003
      0. 0. 0. 0. 0. 0. 4.37952718e-003 0. -1.58730168e-002 0.
      5.29436627e-003 7.84996059e-003 1.68654900e-002 1.11204498e-002
      4.57140524e-003 6.98897941e-003 3.27355112e-003 0. 4.75850794e-003
      0. -1.96078438e-002 7.67969526e-003 5.41834906e-003
      -1.75438598e-002 0. 7.40999915e-003 0. 0. 0. 0. -1.58730168e-002
      4.46734484e-003 0. 0. 0. 5.70685929e-003 9.33930185e-003
      7.55753741e-003 0. 0. -3.12500000e-002 9.33930185e-003 0. 0.
      5.11797657e-003 0. -3.50877196e-002 0. 0. -1.57163702e-002 0. 0.
      0. -3.70370373e-002 5.37583092e-003 7.00835977e-003 0.
      1.01225181e-002 0. 6.24262076e-003 0. 0. 0. 8.76905303e-003 0. 0.
      0. 0. 0. 3.78596573e-003 0. -1.92307699e-002 0. 1.40744364e-002
      4.01486689e-003 0. 0. 5.26501564e-003 5.98227885e-003
      -1.88679248e-002 0. 0. 0. 0. -1.12754647e-002 0. 0. 0.
      4.01699590e-003 4.64983610e-003 0. 0. -1.06261075e-002
      5.72550343e-003 2.60673556e-002 0. 0. 0. 0. 0. 3.59606463e-003
      -2.22222228e-002 7.01157097e-003 0. 0. 0. 0. 0. 0.
      -1.68038737e-002 0. 0. -1.35065587e-002 8.77225492e-003 0.
      5.11797657e-003 0. 1.16588660e-002 4.68759006e-003 8.76905303e-003
      0. 0. 0. 0. 7.40999915e-003 0. 6.01512706e-003 -2.63157897e-002 0.
      3.48938210e-003 0. 0. 0. 6.24262076e-003 7.55753741e-003
      5.79771632e-003 0. 0. 0. 0. 0. 8.43274500e-003 -1.85185187e-002 0.
      0. 6.58264617e-003 -3.03030312e-002 0. -1.96078438e-002 0. 0. 0.
      1.28532629e-002 -1.63934417e-002 0. 3.67832137e-003
      7.65506690e-003 0. 7.55753741e-003 -1.14535382e-002 0.
      7.84996059e-003 7.03915767e-003 0. 0. -2.12765951e-002
      5.79627650e-003 0. 0. -1.75438598e-002 0. 0. 2.60798912e-003
      7.12895999e-003 0. 4.84327832e-003 5.21356799e-003 7.40999915e-003
      7.00835977e-003 0. 0. 0. 0. 0. 0. 0. 0. 0. 0. 0. 0.
      -2.27272734e-002 0. 0. -1.10257464e-002 -2.08333340e-002
      7.49070290e-003 -1.53846154e-002 0. 0. 0. 4.68759006e-003 0. 0.
      7.22726015e-003 5.98227885e-003 4.12895810e-003 0. 0. 0. 0.
      5.65017434e-003 0. 0. 2.15223283e-002 1.11204498e-002 0.
      4.37952718e-003 7.53488299e-003 8.19768012e-003 0. 0. 0.
      8.01106915e-003 0. 0. 0. 0. -1.85185187e-002 -2.63157897e-002
      7.84996059e-003 0. 0. 0. 0. 4.76875901e-003 0. 0. 0. 0.
      -2.38095243e-002 0. 0. 0. 0. 1.15954326e-002 0. 1.00764260e-002 0.
      0. -1.88679248e-002 1.47164548e-002 6.18820963e-003
      7.49070290e-003 0. 7.84996059e-003 0. -3.27868834e-002 0.
      2.62799878e-002 0. 1.26300873e-002 0. 3.49450880e-003 0.
      4.75850794e-003 4.87238495e-003 0. -2.63157897e-002
      4.37952718e-003 -1.85185187e-002 0. -1.85185187e-002 0. 0.
      1.33619262e-002 0. 0. 0. 0. 0. 0. 0. 0. -1.88679248e-002
      7.49121094e-003 0. 0. 0. 6.58264617e-003 0. 5.36769535e-003 0. 0.
      0. 4.33058990e-003 0. 0. 0. 0. 0. 0. 0. -1.88679248e-002 0. 0. 0.
      0. 0. 0. 7.86686968e-003 0. 0. 5.30475937e-003 0. -1.81818176e-002
      0. 0. 0. 0. 0. 0. 5.79627650e-003 -1.92307699e-002 7.12895999e-003
      -1.85185187e-002 -2.50000004e-002 0. 0. -1.04540288e-002 0.
      1.06095187e-002 -1.96078438e-002 0. 0. 0. 6.18646853e-003
      7.67563283e-003 0. -1.08634522e-002 7.52337556e-003
      1.19508272e-002 2.38420200e-002 -1.74637139e-002 6.58264617e-003
      0. 0. 8.01043771e-003 0. -2.69902181e-002 0. 9.68168397e-003
      -1.58730168e-002 0. 0. -1.58730168e-002 0. 0. 1.16792610e-002
      1.01225181e-002 0. 0. 0. 7.03721819e-003 0. 0. 0. 0. 0. 0.
      5.72421076e-003 3.99645790e-003 0. 9.33930185e-003 5.70685929e-003
      -1.88679248e-002 0. 1.05387783e-002 0. 0. 0. 7.03721819e-003
      4.75850794e-003 -1.92307699e-002 0. 0. -1.75438598e-002
      3.99645790e-003 0. -1.63934417e-002 0. 0. 4.46734484e-003
      -1.69491526e-002 5.31993434e-003 0. 0. 6.66892389e-003 0.
      4.00521886e-003 7.52337556e-003 4.37952718e-003 -1.92307699e-002
      7.49121094e-003 1.53101338e-002 0. 1.11406948e-002
      -1.75438598e-002 0. 0. -1.53846154e-002 1.40487896e-002
      3.73004866e-003 0. 0. 0. 0. 0. 7.67563283e-003 2.12910343e-002 0.
      0. 7.53488299e-003 0. 0. 0. 0. -1.66267585e-002 0.
      -1.88679248e-002 5.21356799e-003 0. 0. 0. 1.55671667e-002 0. 0. 0.
      0. 0. 0. 0. 0. 0. 7.67969526e-003 0. 4.51186392e-003
      -1.85185187e-002 0. 7.65506690e-003 -1.46988472e-002
      7.01157097e-003 0. 5.36769535e-003 0. 0. 4.51186392e-003
      7.49070290e-003 0. 4.35221521e-003 0. 0. 0. 0. 0. -1.22417901e-002
      0. 0. 9.32600535e-003 7.03915767e-003 0. 0. 2.60798912e-003 0.
      7.84996059e-003 0. 6.06118841e-003 0. 0. -1.35805951e-002 0. 0. 0.
      -2.56410260e-002 7.49070290e-003 0. 9.68168397e-003 0.
      3.73004866e-003 -1.71865802e-002 0. 9.29967221e-003
      6.69461815e-003 0. 0. 0. 0. 1.24625741e-002 1.49819134e-002 0. 0.
      3.38717513e-002 0. 0. 0. 0. -1.72617286e-002 0. 0. 2.60798912e-003
      0. 0. 0. 0. 0. 4.51186392e-003 6.98897941e-003 0. 7.65506690e-003
      0. 0. 3.27355112e-003 1.33378478e-002 0. 4.18878160e-003 0. 0.
      -1.69491526e-002 0. 1.05387783e-002 3.86042916e-003
      3.67832137e-003 3.78596573e-003 0. 3.67832137e-003 0.
      7.55753741e-003 -1.88679248e-002 4.35221521e-003 0. 0. 0.
      3.41906794e-003 7.84004387e-003 0. 0. 1.05387783e-002 0. 0. 0. 0.
      1.19508272e-002 4.51186392e-003 0. 0. 3.73004866e-003
      6.58264617e-003 -2.04081628e-002 0. 0. 0. 0. 0. 7.22726015e-003 0.
      -1.85185187e-002 0. 4.96444991e-003 4.83068964e-003 0.
      4.00521886e-003 0. 0. 0. 1.21223768e-002 0. 0. 6.06118841e-003 0.
      2.60798912e-003 0. -1.85185187e-002 4.93058702e-003
      8.43274500e-003 5.26501564e-003 1.08436262e-002 -1.76805314e-002
      4.35221521e-003 0. 0. 1.05387783e-002 0. 0. -4.77652885e-002
      1.50467511e-002 7.00835977e-003 -1.75438598e-002 0. 0. 0. 0. 0.
      -2.68011764e-002 5.21356799e-003 0. 0. 4.51186392e-003
      4.46734484e-003 2.60798912e-003 4.56649251e-003 0. 0. 0.
      -2.50000004e-002 -2.08333340e-002 4.33058990e-003 0. 0. 0. 0. 0.
      -1.56026250e-002 0. 6.24262076e-003 0. 0. 0. 1.11406948e-002
      3.59606463e-003 0. 5.36769535e-003 0. 8.43274500e-003
      3.86042916e-003 8.19768012e-003 0. 0. 0. 0. 0. -1.58730168e-002
      -7.78745255e-003 0. 7.65506690e-003 0. 0. 0. 0. 0. 0.
      5.04590943e-003 0. 0. 5.72421076e-003 4.01699590e-003 0.
      5.65017434e-003 0. 0. 7.65506690e-003 5.21356799e-003 0. 0. 0. 0.
      1.24522215e-002 -1.27634685e-002 4.75850794e-003 0.
      4.00521886e-003 3.73004866e-003 0. 0. -1.85185187e-002 0. 0. 0.
      9.39282682e-003 7.40999915e-003 0. 3.78596573e-003 0.
      1.60130803e-002 0. 4.46734484e-003 0. 1.24522215e-002 0.
      1.24625741e-002 0. 0. 0. 0. 0. 0. 0. 0. 0. -1.64967198e-002 0.
      -1.92307699e-002 4.46734484e-003 0. 0. -2.08333340e-002 0.
      6.58264617e-003 0. 0. 0. 7.01157097e-003 0. -1.85185187e-002 0.
      5.72550343e-003 7.22726015e-003 0. 0. 5.72550343e-003
      7.52337556e-003 3.86042916e-003 1.24625741e-002 4.57140524e-003
      7.00835977e-003 -1.63934417e-002 0. 0. 3.86042916e-003
      6.72827940e-003 0. -1.88679248e-002 0. 0. 0. 0. -2.63157897e-002
      -1.92307699e-002 0. 0. -1.96078438e-002 0. 1.26300873e-002 0. 0.
      0. 3.49450880e-003 0. 0. 0. 0. 1.59678236e-002 -1.85185187e-002 0.
      8.01106915e-003 0. 4.87238495e-003 0. 0. 0. 1.87957622e-002 0. 0.
      7.52337556e-003 6.18646853e-003 5.56022488e-003 0. 0. 0. 0. 0.
      1.19596496e-002 0. 3.41906794e-003 0. 0. 0. 0.</_></support_vectors>
  <decision_functions>
    <_>
      <sv_count>1</sv_count>
      <rho>-9.9415589941808702e-001</rho>
      <alpha>
        1.</alpha>
      <index>
        0</index></_></decision_functions></my_svm>
</opencv_storage>
