<?xml version="1.0"?>
<opencv_storage>
<my_svm type_id="opencv-ml-svm">
  <svm_type>C_SVC</svm_type>
  <kernel><type>LINEAR</type></kernel>
  <C>1.</C>
  <term_criteria><epsilon>2.2204460492503131e-016</epsilon>
    <iterations>100</iterations></term_criteria>
  <var_all>10000</var_all>
  <var_count>10000</var_count>
  <class_count>2</class_count>
  <class_labels type_id="opencv-matrix">
    <rows>1</rows>
    <cols>2</cols>
    <dt>i</dt>
    <data>
      -1 1</data></class_labels>
  <sv_total>1</sv_total>
  <support_vectors>
    <_>
      8.49426165e-003 1.12479413e-002 0. 0. 0. 0. -2.29732636e-002
      -1.99999996e-002 -1.92307699e-002 0. 0. 0. -6.93994993e-003 0.
      3.88837187e-003 3.88837187e-003 0. 0. 0. 2.24598497e-003
      1.39821758e-002 0. 0. 6.36919262e-003 0. 4.96832840e-003 0.
      -1.85185187e-002 -9.61538497e-003 2.71116793e-002 -4.90969932e-003
      0. -1.40845068e-002 6.99108792e-003 0. 1.29181165e-002 0.
      8.10483098e-003 1.49788689e-002 7.14455685e-003 -1.70939863e-002
      -1.99999996e-002 8.85120593e-003 0. 0. 0. 0. 0. 8.17707554e-003
      -2.27272734e-002 -1.40845068e-002 0. 0. 5.60329389e-003
      9.83148534e-003 0. 0. 0. -5.44085167e-003 -4.61538471e-002 0.
      -7.36278966e-002 4.18727193e-003 0. 0. 0. -2.63157897e-002
      1.27914585e-002 2.15723552e-003 -1.21157290e-002 0. 0.
      -3.71508971e-002 1.53278699e-002 8.25483538e-003 2.47092713e-002
      0. -1.40845068e-002 -1.92307699e-002 3.86162568e-003 0. 0. 0.
      8.72576423e-003 3.86162568e-003 0. -1.12863574e-002 0.
      3.20133870e-003 0. 4.18727193e-003 0. -6.89126179e-003
      -4.72595952e-002 -1.42857144e-002 0. 0. 1.24668395e-002 0. 0. 0.
      0. 0. 0. 0. 8.99838377e-003 0. 0. 0. 0. 0. 8.10483098e-003 0.
      5.42295678e-003 0. -1.69491526e-002 4.30928543e-003 0.
      -4.25531901e-002 7.32976757e-003 5.60329389e-003 8.38616863e-003
      1.62855033e-002 7.32976757e-003 -5.87204013e-005 4.80424846e-003
      1.68683399e-002 -3.41905318e-002 8.15901253e-003 -1.72413792e-002
      0. 7.72325136e-003 0. 0. 0. 0. 0. 6.27135253e-003 0.
      -2.50619333e-002 0. 7.91010354e-003 0. 3.88837187e-003 0.
      1.68650933e-002 1.60978064e-002 4.38290741e-003 0.
      -8.16920474e-002 0. 0. 4.30928543e-003 1.05291056e-002
      9.36297793e-003 8.30365159e-003 0. 0. 0. -1.99999996e-002
      -2.17065495e-002 0. 0. 0. -3.38983051e-002 0. 0. 0.
      -5.43108070e-003 8.17707554e-003 0. 0. -1.20481923e-002 0. 0. 0.
      9.24813282e-003 0. 3.71481711e-003 0. 0. 0. 0. 1.18744932e-002
      -1.66666675e-002 0. 1.04730418e-002 -1.72413792e-002 0.
      -1.91280358e-002 4.87442967e-003 0. 7.45061645e-003 0. 0.
      8.15901253e-003 2.00122520e-002 8.48496240e-003 0. 0.
      6.80630421e-003 3.86162568e-003 0. -1.47058824e-002 0. 0.
      4.46184585e-003 0. 3.45758675e-003 -1.40845068e-002
      9.02862009e-003 0. 1.68650933e-002 0. 1.04730418e-002
      3.20133870e-003 8.30365159e-003 0. 1.91294998e-002 0. 0.
      1.20160077e-002 0. 0. 0. 4.19750763e-003 0. -3.07692308e-002
      8.72576423e-003 0. -8.74711759e-003 0. 0. 5.67218475e-003 0.
      1.01548256e-002 8.43416993e-003 0. 0. 0. 0. 0. 0. -2.04081628e-002
      0. 0. 4.94110957e-003 0. 7.13612977e-003 -1.85185187e-002 0.
      8.25483538e-003 5.09251934e-003 -3.07331281e-003 0.
      -2.19560172e-002 0. 0. 0. 0. -2.12765951e-002 3.53801786e-003 0.
      1.47059150e-002 -2.12765951e-002 4.88695269e-003 -8.89900699e-003
      0. -1.58730168e-002 0. 0. 1.27866305e-002 0. 5.93798794e-003 0.
      8.85120593e-003 0. 0. 0. 0. 1.60633847e-002 3.97656066e-003
      1.07884575e-002 9.77353007e-003 0. 0. -2.04081628e-002
      5.69157116e-003 0. -7.14958459e-003 1.84085302e-003 0.
      1.03907976e-002 0. 8.31122603e-003 4.98608174e-003 0.
      -1.99999996e-002 0. 5.99069847e-003 0. 3.86162568e-003 0. 0. 0.
      -1.42857144e-002 0. 0. 9.58732981e-003 0. 6.80630421e-003
      6.36919262e-003 0. -2.38095243e-002 0. 1.07373372e-002
      8.43254663e-003 9.47922934e-003 0. -1.75438598e-002
      7.42963422e-003 0. 4.30928543e-003 0. 5.42813074e-003 0.
      -1.20481923e-002 0. 0. 0. 0. 0. 4.03877422e-002 4.19750763e-003
      2.03226600e-002 0. 9.77094192e-003 0. 4.00252827e-003 0.
      -1.99999996e-002 0. 0. -8.88235308e-003 1.18449759e-002 0. 0.
      -4.16666679e-002 1.06128426e-002 4.46184585e-003 0. 0. 0.
      -1.02215563e-004 0. 4.98608174e-003 0. -1.53846154e-002
      4.96832840e-003 -6.28917525e-003 -1.85185187e-002 0.
      -6.27587037e-003 8.77092499e-003 5.42813074e-003 1.46540171e-002
      0. 0. 0. 5.69157116e-003 0. 0. 8.72576423e-003 9.85293929e-003
      -4.41176482e-002 -6.41404605e-003 3.24511006e-002 0. 0.
      -1.87741462e-002 9.85293929e-003 0. 3.20133870e-003 0.
      2.36028396e-002 9.55073815e-003 0. 1.52063323e-003 8.38616863e-003
      0. 0. 0. 0. 0. 0. 0. 0. 0. 7.77674373e-003 0. -1.42857144e-002
      4.88695269e-003 0. 7.91987497e-003 0. 0. 2.68908851e-002
      1.57127660e-002 0. 0. 0. 0. 0. 0. 0. -4.87804860e-002
      1.00061260e-002 0. 9.83148534e-003 4.94110957e-003 0.
      -1.40845068e-002 1.28648691e-002 0. -1.61183868e-002 0.
      -2.96092015e-002 8.17707554e-003 -1.16950795e-002 4.18727193e-003
      0. 9.55073815e-003 0. 1.36554539e-002 5.17458096e-003
      -9.98381339e-003 0. 0. 4.60145995e-003 0. 0. -1.92307699e-002
      3.86162568e-003 0. 8.43416993e-003 8.21912475e-003 0. 0.
      7.45061645e-003 0. 4.98608174e-003 0. 0. -6.04695501e-003
      -1.58730168e-002 0. 0. 7.91987497e-003 5.69157116e-003
      4.15561302e-003 8.72576423e-003 0. 0. 0. 0. 0. 2.27286778e-002 0.
      -5.66225732e-003 0. 0. 0. 0. 3.45758675e-003 0. 5.35181165e-003
      3.86162568e-003 0. 0. 0. 0. 0. -1.85185187e-002 0.
      -7.54642906e-003 5.60329389e-003 0. 4.00252827e-003 0.
      1.01534175e-002 0. -1.20747229e-002 0. 5.42295678e-003
      6.36919262e-003 1.16651161e-002 9.02862009e-003 0. 3.71481711e-003
      1.08589958e-002 5.32604847e-003 0. 2.56602541e-002 8.38616863e-003
      0. -1.69491526e-002 -9.53934155e-004 0. -1.78256482e-002
      1.86489876e-002 0. 0. 0. 1.27591696e-002 4.87442967e-003 0. 0. 0.
      9.58732981e-003 9.36297793e-003 -9.88699868e-003 1.49158752e-002
      0. 0. 6.74264692e-003 0. 0. 0. 0. 0. 0. 0. 0. 0. 7.42963422e-003
      -1.99999996e-002 0. 2.86522135e-002 9.85293929e-003
      1.06520969e-002 5.42295678e-003 0. -2.81690136e-002 0.
      1.04730418e-002 6.80630421e-003 0. 0. 0. 0. 1.91014763e-002 0. 0.
      6.80630421e-003 0. 0. 0. 0. 0. 7.45061645e-003 4.19750763e-003
      7.14455685e-003 0. 0. 1.83554254e-002 4.49919188e-003 0. 0. 0. 0.
      0. 9.47269145e-003 0. 0. 9.20291990e-003 0. 4.18727193e-003
      4.96832840e-003 1.06140533e-002 9.58732981e-003 0. 1.04677700e-003
      1.75778605e-002 0. 0. 8.86234082e-003 0. 6.74264692e-003
      -1.58024915e-002 -9.26266238e-003 0. -1.99999996e-002
      -2.60154698e-002 6.99108792e-003 0. -5.48188994e-003
      7.17442622e-003 0. 3.13567626e-003 0. 1.72297228e-002 0.
      4.94110957e-003 -1.56523753e-002 -3.44827585e-002 0.
      -4.16666679e-002 1.33272242e-002 4.15561302e-003 1.25563238e-002
      -6.43827254e-003 0. -8.02128296e-003 -4.61538471e-002
      2.43144929e-002 -2.56410260e-002 -4.18554107e-003 -1.40845068e-002
      -2.77777780e-002 0. 0. 1.13831423e-002 0. 0. 8.00505653e-003
      4.94110957e-003 -5.75375929e-003 0. -2.04081628e-002 0.
      4.00252827e-003 -3.90415825e-003 0. -1.40845068e-002 0. 0. 0.
      1.61537342e-002 -2.55778152e-002 0. 0. 8.99838377e-003 0. 0.
      8.30365159e-003 0. 1.38043808e-002 4.38290741e-003
      -1.99999996e-002 0. 0. 0. -8.65500886e-003 0. 0. 0.
      3.45758675e-003 0. 0. 8.77092499e-003 1.03757652e-002 0. 0.
      1.31326048e-002 3.17654200e-002 8.17707554e-003 3.20133870e-003
      4.87442967e-003 1.30449161e-002 -3.31196599e-002 0.
      -7.02426583e-002 2.94215791e-002 7.45061645e-003 0.
      8.77092499e-003 0. -3.10336594e-002 1.57775134e-002
      3.86162568e-003 0. 0. 0. -5.63380271e-002 0. 5.30642131e-003 0.
      -1.56354103e-002 -3.70370373e-002 0. 6.73449878e-003 0.
      5.42295678e-003 0. 0. -4.46725218e-003 0. 0. 7.32976757e-003
      -2.81690136e-002 1.38460733e-002 4.30928543e-003 0. 0.
      1.03907976e-002 0. 0. 2.20695790e-002 0. 3.88837187e-003
      -1.49371503e-002 3.88837187e-003 0. -1.56250000e-002 0. 0. 0. 0.
      0. 0. 0. 0. 0. 0. -1.42857144e-002 0. 0. -1.59567548e-003
      4.30603884e-003 0. 0. 2.68646516e-002 1.07884575e-002 0. 0. 0. 0.
      0. 0. 0. 0. 1.49012329e-002 1.01548256e-002 0. 0. 0.
      1.17921494e-002 0. -7.32942065e-003 0. 1.46608576e-002
      1.62096620e-002 0. -4.25531901e-002 9.85293929e-003
      -3.07692308e-002 0. -3.51707935e-002 8.72576423e-003
      8.21912475e-003 3.67326941e-003 0. 0. 0. 0. 5.35181165e-003
      4.49919188e-003 0. 0. -3.07692308e-002 -1.38888890e-002
      -3.17460336e-002 -1.58730168e-002 0. 0. 1.28053548e-002 0.
      1.04443310e-002 2.24598497e-003 -1.51515156e-002 0. 0.
      -4.25531901e-002 1.07373372e-002 8.43416993e-003 -6.17839620e-002
      0. 0. 1.93777811e-002 0. -1.42857144e-002 0. 0. 0. 0. 0. 0.
      4.68148896e-003 4.68148896e-003 0. 0. -3.58415581e-002
      -8.47977307e-003 0. 2.57641859e-002 1.37118455e-002
      -1.38888890e-002 -1.51515156e-002 -4.75923866e-002 0. 0.
      -6.32770883e-004 1.24095986e-002 8.76581483e-003 0.
      1.08651277e-002 -4.25531901e-002 0. 1.87008530e-002
      -3.17460336e-002 9.85293929e-003 1.00020254e-002 -3.95841971e-002
      -9.61538497e-003 1.58635303e-002 0. 4.96832840e-003
      -5.08455932e-003 0. 0. 8.10514111e-003 6.10973593e-003 0.
      1.51244896e-002 0. 1.07373372e-002 0. 2.29988880e-002 0. 0.
      3.95312766e-003 0. 0. 0. 8.04890320e-003 0. 0. 0. 0.
      -9.13097709e-003 0. 1.07373372e-002 4.71877167e-003
      7.42963422e-003 1.31326048e-002 -5.08455932e-003 0.
      -1.36986300e-002 6.56630239e-003 1.36126084e-002 0.
      6.10973593e-003 -1.75438598e-002 0. 6.91517349e-003 0. 0.
      6.80630421e-003 0. 0. 6.74264692e-003 -1.40845068e-002
      -1.64723471e-002 0. 0. 0. 0. 0. 1.44046657e-002 4.12741769e-003 0.
      8.17707554e-003 9.65988170e-003 2.02903394e-002 0. 0.
      7.53569091e-003 -1.12575814e-002 8.85120593e-003 7.45061645e-003
      -6.47159992e-003 1.27591696e-002 0. 4.87442967e-003 0. 0.
      -3.38252373e-002 0. -1.69491526e-002 0. 0. 9.08446033e-003
      -3.84615399e-002 0. 6.73449878e-003 -2.63157897e-002 0.
      3.86162568e-003 0. 0. 0. 0. 0. 7.32976757e-003 4.78744786e-003 0.
      1.44127449e-002 3.88837187e-003 -2.12765951e-002 -3.38983051e-002
      0. 9.95327160e-003 -1.36986300e-002 5.59607893e-003
      -6.78062718e-003 0. 0. 4.96832840e-003 -3.74454097e-003
      3.95312766e-003 0. -2.99570896e-002 1.00020254e-002
      7.61320023e-003 3.54649425e-002 -4.41176482e-002 2.95588188e-002
      0. 5.06284973e-003 0. 0. 1.20075848e-002 0. 0. 0. -2.03275047e-002
      0. 0. -4.76190485e-002 0. 0. 4.15561302e-003 0. 0. 0.
      7.42963422e-003 0. -1.10508390e-002 0. -1.38888890e-002 0. 0.
      5.32604847e-003 0. 9.02862009e-003 1.04730418e-002 8.15901253e-003
      5.99069847e-003 0. 0. 0. 0. 6.73449878e-003 7.07603572e-003
      7.72325136e-003 1.72210149e-002 1.46004595e-002 1.49396714e-002
      5.08525176e-003 4.71877167e-003 0. -6.26102276e-003
      6.73449878e-003 0. 1.69168171e-002 0. 5.99069847e-003
      -1.42857144e-002 0. 0. 5.42295678e-003 0. 1.12477913e-002
      3.88837187e-003 4.80424846e-003 9.55073815e-003 0. 1.61921084e-002
      4.19750763e-003 0. 0. 0. 3.45758675e-003 3.32175158e-002 0.
      9.58732981e-003 4.68148896e-003 0. 8.69533233e-003 6.56630239e-003
      0. -1.72413792e-002 0. 1.27591696e-002 0. 9.97216348e-003 0. 0.
      5.42813074e-003 1.01613300e-002 0. 1.35250660e-002 0.
      5.42295678e-003 4.94110957e-003 -1.99999996e-002 -2.27272734e-002
      9.83148534e-003 0. -1.66666675e-002 0. 1.04730418e-002
      -4.19341028e-002 3.86162568e-003 0. 0. -9.45284031e-004
      8.61207768e-003 0. 2.37797350e-002 -1.58730168e-002
      4.30928543e-003 0. -1.59846265e-002 0. 0. 8.10514111e-003
      8.17707554e-003 9.77390539e-003 -1.69491526e-002 6.73449878e-003
      -1.29466243e-002 0. 0. 5.30642131e-003 0. 0. 3.74931376e-003 0. 0.
      0. 0. 0. 0. -2.27272734e-002 0. 4.98461816e-003 1.54648880e-002
      4.19750763e-003 0. 9.60849691e-003 0. 0. 0. 1.08562615e-002 0.
      4.80424846e-003 -1.75438598e-002 1.33194998e-002 8.86234082e-003
      1.62667334e-002 2.27233432e-002 4.88695269e-003 0.
      -2.05909554e-002 0. 8.00505653e-003 0. 0. 0. -2.04081628e-002
      -4.97713238e-002 7.53569091e-003 0. -1.20481923e-002
      9.55073815e-003 -1.90074425e-002 3.71481711e-003 0.
      8.43416993e-003 0. 0. -1.85185187e-002 0. -1.47058824e-002
      3.22845904e-003 1.03491619e-002 0. 6.10262621e-003
      -1.85185187e-002 0. 0. 0. -5.83412759e-002 0. 0. 7.07489764e-003
      0. 0. -1.56250000e-002 3.20133870e-003 4.96832840e-003
      -9.61538497e-003 0. 0. 1.58001855e-002 5.93798794e-003
      7.42963422e-003 2.96899397e-003 0. 4.78744786e-003 0.
      4.19750763e-003 5.42813074e-003 1.27591696e-002 0. 1.23308748e-002
      1.48233296e-002 4.98608174e-003 0. 3.20133870e-003 4.18727193e-003
      0. 0. 5.60329389e-003 -1.42857144e-002 0. -3.40760611e-002 0. 0.
      -4.25531901e-002 1.00061260e-002 0. 4.80424846e-003 0. 0. 0. 0. 0.
      -1.66666675e-002 8.00505653e-003 5.63893886e-003 -3.84615399e-002
      0. 0. 9.02862009e-003 0. -7.56586669e-003 0. 0. 8.21912475e-003 0.
      0. 3.53801786e-003 0. 6.74264692e-003 0. 0. 1.77024119e-002 0.
      3.02318903e-003 0. 7.91987497e-003 0. 0. 1.51131200e-002
      9.55073815e-003 -2.77777780e-002 0. 0. 9.02862009e-003 0.
      4.00252827e-003 1.35558397e-002 3.86162568e-003 0. 0. 0.
      7.91987497e-003 0. 0. 1.46105886e-002 8.49426165e-003
      1.87816808e-003 0. 0. 0. 0. 0. 2.46573742e-002 2.07815953e-002 0.
      0. 2.96899397e-003 0. 7.72325136e-003 9.83148534e-003
      1.07373372e-002 -5.86689124e-003 0. 0. 4.71877167e-003 0.
      1.12299249e-003 0. -9.61538497e-003 3.20133870e-003 0. 0. 0.
      -2.43902430e-002 0. 9.85293929e-003 -3.14702913e-002
      1.01548256e-002 0. 0. 0. 0. 1.55086312e-002 0. 0. 5.35181165e-003
      0. 0. 1.54188257e-002 0. 0. 0. 0. 4.80424846e-003 0.
      -1.38888890e-002 0. 6.56630239e-003 0. 1.00061260e-002
      1.34852938e-002 1.01613300e-002 -3.72354202e-002 0.
      -9.81025863e-003 0. 0. 0. 5.42949792e-003 -3.17460336e-002
      1.37886135e-002 3.45758675e-003 0. 0. 0. 4.12741769e-003 0.
      -8.98935460e-003 0. -2.27272734e-002 0. 0. 6.40267739e-003 0.
      4.15561302e-003 0. 0. 0. 3.30160968e-002 5.35181165e-003 0.
      -3.06758806e-002 -2.77777780e-002 4.98608174e-003 8.43416993e-003
      3.88837187e-003 0. 1.62667334e-002 -1.40845068e-002
      -1.99999996e-002 0. 5.42295678e-003 -5.08474559e-002
      -2.38095243e-002 2.19422625e-003 0. 4.12741769e-003 0. 0. 0. 0.
      4.38290741e-003 0. 8.43254663e-003 9.58732981e-003 8.10514111e-003
      -1.54862003e-002 0. 1.32130338e-002 4.98608174e-003
      -4.26357333e-003 8.85120593e-003 0. 0. 7.14455685e-003 0.
      1.20813912e-002 1.00020254e-002 1.18559152e-002 0. 1.63541511e-002
      -2.56410260e-002 0. 5.99069847e-003 0. -1.78571437e-002
      -1.78571437e-002 6.73449878e-003 0. 0. 3.74931376e-003
      7.91987497e-003 5.32604847e-003 5.93724661e-003 1.96191743e-002 0.
      2.96899397e-003 1.13643389e-002 0. 7.53569091e-003
      -9.06821340e-003 0. -3.84615399e-002 -4.75923866e-002 0.
      4.68148896e-003 0. 0. 1.46403871e-002 -4.25531901e-002 0.
      1.03907976e-002 0. 9.60849691e-003 0. 0. 3.86162568e-003 0. 0.
      3.45758675e-003 -2.63157897e-002 5.99069847e-003 1.60978064e-002
      -3.25926184e-003 9.97216348e-003 -1.40845068e-002 7.19324499e-003
      5.32604847e-003 0. 0. 0. 6.99108792e-003 0. 8.10514111e-003 0. 0.
      0. -2.38095243e-002 4.60145995e-003 0. 0. 6.84842467e-003 0.
      -2.81690136e-002 1.15137901e-002 9.36297793e-003 8.13336670e-003
      -1.47058824e-002 8.43416993e-003 1.01789068e-002 0. 0. 0.
      -2.74253562e-002 0. 6.74264692e-003 0. -5.66376969e-002
      -2.85714287e-002 0. 2.55183391e-002 0. 0. 1.52241802e-002
      -8.63182452e-003 0. -6.11648569e-003 0. 8.31122603e-003
      -1.07982233e-002 0. 0. 4.80424846e-003 0. 0. -3.75671089e-002 0.
      3.53801786e-003 1.91165619e-002 3.87644954e-002 0. 0.
      1.03907976e-002 0. 0. 0. 1.36071276e-002 1.25618167e-002
      8.60176980e-003 -1.40845068e-002 0. 0. 5.17458096e-003
      -5.55313006e-003 0. 7.07489764e-003 0. -9.61538497e-003
      -9.02165752e-003 0. 0. 2.56222859e-002 -2.12765951e-002
      -1.78571437e-002 3.00959703e-002 4.60145995e-003 0.
      -1.22489389e-002 5.42949792e-003 9.85293929e-003 -2.73972601e-002
      0. 8.31122603e-003 0. 0. 6.40267739e-003 0. 1.67723373e-002 0. 0.
      6.73449878e-003 3.00718448e-003 -6.72214385e-003 8.21912475e-003
      0. 9.82561894e-003 0. 0. 4.30603884e-003 0. 0. 0. -3.70370373e-002
      1.11009926e-002 0. 0. 0. 5.42949792e-003 4.19750763e-003
      3.86162568e-003 -2.73972601e-002 0. 1.08562615e-002
      6.99108792e-003 -1.58730168e-002 -1.47058824e-002 0. 0. 0.
      4.19750763e-003 0. 0. 2.07815953e-002 8.61207768e-003
      -9.01445933e-003 0. 0. 8.78893025e-003 0. 0. 7.53569091e-003
      6.36919262e-003 4.78744786e-003 0. -6.95594680e-003 0.
      3.45758675e-003 8.21912475e-003 1.04730418e-002 -4.18725424e-003
      8.39501526e-003 4.30928543e-003 0. -2.04824377e-002 0.
      8.77092499e-003 0. 3.53801786e-003 0. -1.36986300e-002
      1.04730418e-002 0. 0. 4.87442967e-003 0. 5.42813074e-003 0.
      4.88695269e-003 5.93724661e-003 -4.25531901e-002 -1.23364758e-002
      0. 7.14455685e-003 0. 0. -3.84615399e-002 0. 0. 1.67799816e-002 0.
      0. -1.38888890e-002 5.30642131e-003 9.02862009e-003 0.
      -1.99999996e-002 1.39821758e-002 0. -1.92307699e-002
      -1.92307699e-002 0. 7.32976757e-003 8.10514111e-003 0.
      4.87442967e-003 3.86162568e-003 7.95312133e-003 -3.38983051e-002
      -3.81868146e-002 -8.92056059e-003 0. 3.57581303e-003 0. 0. 0.
      1.46595351e-002 -1.01653440e-002 0. 0. 0. 0. 4.12741769e-003
      5.67218475e-003 1.03907976e-002 9.83148534e-003 0. 8.13336670e-003
      1.77024119e-002 0. 1.12215253e-002 -3.23678628e-002 0.
      4.18727193e-003 1.70317646e-002 1.24900946e-002 0.
      -5.92549471e-003 6.36919262e-003 2.44770367e-002 -1.51515156e-002
      4.80424846e-003 4.96832840e-003 2.37596240e-002 0. 0. 0. 0. 0. 0.
      0. 9.85293929e-003 1.08562615e-002 0. -2.73972601e-002
      -2.77777780e-002 7.07603572e-003 1.03907976e-002 4.30928543e-003
      0. 1.12299249e-003 6.36919262e-003 -5.57606854e-003 0.
      -7.29595264e-003 0. 1.95568632e-002 7.13612977e-003 0. 0.
      1.43103004e-002 0. 0. 0. 0. 1.80795994e-002 1.12299249e-003
      9.97216348e-003 0. 1.14421686e-002 -3.99999991e-002
      -3.69370962e-003 0. 0. 0. 1.75146945e-002 0. 0. -1.85185187e-002
      0. 0. 2.96899397e-003 0. -1.40845068e-002 0. 4.71877167e-003
      -1.53846154e-002 0. 0. 7.07603572e-003 -1.99999996e-002 0.
      -1.15134250e-002 0. 0. 1.50713818e-002 5.06284973e-003 0.
      4.15561302e-003 1.66426543e-002 0. 0. 0. 0. 3.71178575e-002
      4.60145995e-003 4.60145995e-003 -4.25531901e-002 0.
      -1.51515156e-002 0. 1.00020254e-002 7.32976757e-003
      -5.86607121e-003 0. 0. 4.71877167e-003 9.60401632e-003
      7.13612977e-003 0. -3.03030312e-002 1.27383852e-002
      1.74515285e-002 4.00252827e-003 5.93798794e-003 -4.75923866e-002
      0. 0. 3.20133870e-003 0. 0. 0. -4.28824052e-002 0. 5.42949792e-003
      3.10469884e-002 -1.99999996e-002 8.72576423e-003 8.17091111e-003
      0. 0. 0. 0. 0. 4.98608174e-003 -1.75617784e-002 6.56630239e-003 0.
      1.19813969e-002 0. 1.12635475e-002 0. 5.42295678e-003 0.
      3.13567626e-003 2.03226600e-002 0. 2.27765851e-002 8.60793330e-003
      6.80630421e-003 0. 0. 8.31122603e-003 0. 8.13336670e-003 0. 0. 0.
      9.07536224e-003 6.73449878e-003 0. 0. 0. 4.71877167e-003 0.
      1.63541511e-002 0. 0. 0. 0. 7.14455685e-003 0. 1.45989629e-002
      -1.40845068e-002 7.17442622e-003 0. 6.74264692e-003 0.
      7.42963422e-003 0. 9.58732981e-003 3.20133870e-003 0.
      4.12741769e-003 -2.54884027e-002 7.07489764e-003 0. 0. 0.
      2.27286778e-002 0. -1.42857144e-002 1.34689976e-002 0. 0.
      -1.38888890e-002 -1.85185187e-002 0. 0. -4.75923866e-002 0.
      -1.38888890e-002 -9.61538497e-003 0. -3.26953754e-002
      3.20133870e-003 0. 8.17707554e-003 4.15561302e-003 8.04890320e-003
      0. 0. -5.12820520e-002 4.68148896e-003 0. 5.37058013e-003
      2.00237799e-002 0. 0. 0. 0. 0. 0. 1.13831423e-002 0. 0. 0. 0.
      1.91014763e-002 4.98608174e-003 0. 0. 0. 9.85293929e-003 0.
      8.30365159e-003 0. -1.36986300e-002 4.19750763e-003
      2.84559950e-002 0. 5.06284973e-003 0. 0. 5.32604847e-003
      6.10973593e-003 1.04730418e-002 6.36919262e-003 0. 4.68148896e-003
      -1.35762123e-002 3.71481711e-003 2.48709810e-003 3.88837187e-003
      0. 0. 0. 0. 0. 4.80424846e-003 4.88695269e-003 0. 0. 0.
      -1.38888890e-002 0. -1.72413792e-002 0. -4.25531901e-002
      -4.25531901e-002 0. 5.09251934e-003 -7.39081725e-002
      5.67218475e-003 0. 0. 0. 8.38999078e-003 4.30928543e-003 0.
      1.00020254e-002 -1.59567548e-003 0. 0. 0. 5.42813074e-003 0.
      6.74264692e-003 4.71877167e-003 9.58732981e-003 0.
      -1.99999996e-002 8.38616863e-003 8.78893025e-003 0.
      6.73449878e-003 0. 0. 5.08945342e-003 6.73449878e-003
      -8.51063803e-002 0. 1.02987615e-002 0. 0. 1.11444509e-002 0.
      -5.49889868e-003 -1.61544587e-002 0. 0. 0. 0. 7.13612977e-003 0.
      -3.99999991e-002 -1.78571437e-002 -5.43064699e-002 0. 0. 0.
      8.39501526e-003 4.94110957e-003 0. 2.03096513e-002 4.18727193e-003
      0. -2.43902430e-002 0. 0. 1.13443695e-002 0. 1.08562615e-002
      -8.36885348e-003 0. 0. 0. 1.68440267e-002 -1.92696862e-002
      1.15769273e-002 0. 8.04890320e-003 3.97656066e-003
      -1.03696901e-002 0. 8.21912475e-003 0. -1.22539443e-003
      -1.42857144e-002 -1.40845068e-002 0. 1.18744932e-002
      -9.68775339e-003 -2.26720311e-002 0. 0. 8.77092499e-003 0. 0.
      2.15769149e-002 2.24598497e-003 0. 1.03917427e-003
      -9.47933085e-003 0. 0. 0. -1.72413792e-002 0. -1.78571437e-002 0.
      0. -9.61538497e-003 0. -1.92307699e-002 5.69157116e-003 0.
      4.12741769e-003 -1.72413792e-002 4.60145995e-003 1.00020254e-002
      3.20133870e-003 4.19750763e-003 4.88695269e-003 0.
      -1.34290652e-002 0. 0. -2.59763747e-003 0. -1.39468275e-002
      2.59485897e-002 -9.61538497e-003 0. -6.42311585e-004 0.
      -3.19871828e-002 -9.61538497e-003 0. -9.39460006e-004
      8.21912475e-003 6.80630421e-003 0. 0. 3.20133870e-003 0. 0.
      1.01613300e-002 0. 0. 1.96989067e-002 3.20133870e-003 0. 0.
      -1.20481923e-002 -1.53846154e-002 0. 7.07603572e-003
      -1.99999996e-002 -2.63157897e-002 0. 5.17458096e-003
      -2.37910040e-002 -2.31512189e-002 0. 0. 0. 0. -1.58730168e-002 0.
      0. 0. 9.02862009e-003 0. 1.01256995e-002 -4.41614613e-002 0. 0. 0.
      0. 7.32976757e-003 0. 2.03226600e-002 0. 0. -2.77777780e-002
      1.67799816e-002 0. 1.31326048e-002 7.45061645e-003
      -1.99999996e-002 0. 0. 5.63893886e-003 0. 1.11009926e-002
      9.63642634e-003 8.78893025e-003 8.17707554e-003 -1.48478625e-002
      -9.61538497e-003 1.50713818e-002 0. 0. -3.22903991e-002 0. 0. 0.
      0. -2.56410260e-002 4.80424846e-003 1.46595351e-002
      4.30928543e-003 1.27591696e-002 8.04890320e-003 5.60329389e-003 0.
      7.53569091e-003 0. -1.56250000e-002 0. 0. 5.42949792e-003 0. 0. 0.
      1.80572402e-002 1.64382495e-002 1.10976845e-002 0.
      -2.81690136e-002 -3.57142873e-002 5.06284973e-003 0.
      8.21912475e-003 -2.63157897e-002 0. 0. 1.01613300e-002 0.
      5.93798794e-003 7.91987497e-003 3.71481711e-003 -1.74121354e-002
      0. 0. 0. 0. 0. 7.17442622e-003 5.35181165e-003 4.60145995e-003 0.
      5.99069847e-003 5.35181165e-003 2.57549360e-002 0. 7.42963422e-003
      -2.16027107e-002 -9.09842458e-003 1.68203395e-002 -1.56250000e-002
      0. 3.86162568e-003 0. 0. 0. 2.22019851e-002 0. 1.00020254e-002
      -1.20481923e-002 0. 0. 0. 0. 7.32976757e-003 0. 0. 0. 0. 0.
      -4.75923866e-002 3.13567626e-003 0. 0. 9.55073815e-003 0.
      1.50713818e-002 0. 9.55073815e-003 0. -4.64174058e-003
      7.95312133e-003 7.49862753e-003 0. 0. 0. 0. 9.83148534e-003 0. 0.
      -4.42958044e-005 1.03907976e-002 8.85120593e-003 -1.92307699e-002
      3.86162568e-003 0. 0. 1.63541511e-002 0. 7.07603572e-003 0. 0. 0.
      6.56630239e-003 0. 1.80720631e-002 0. 1.61402691e-002
      3.20133870e-003 1.44849457e-002 0. 1.04730418e-002 0. 0. 0. 0. 0.
      0. 0. 1.92600042e-002 0. -5.61285671e-003 1.54555654e-002 0.
      8.65935348e-003 0. 0. 7.51457829e-003 0. 2.07742061e-002
      4.94110957e-003 0. 1.84058398e-002 6.80630421e-003
      -5.42811304e-003 -2.12765951e-002 0. 0. 0. -6.95873890e-003 0. 0.
      4.19750763e-003 0. 0. 0. 0. 0. 1.57467984e-002 0. 0. 0.
      8.31122603e-003 0. 1.00020254e-002 -1.12437103e-002
      9.85293929e-003 -3.17460336e-002 0. 0. 0. -1.92307699e-002 0.
      6.80630421e-003 3.88837187e-003 4.30603884e-003 8.85120593e-003
      2.03096513e-002 1.07373372e-002 3.45758675e-003 0.
      -2.88461559e-002 9.77390539e-003 0. 0. -1.85185187e-002 0.
      1.07884575e-002 -1.40845068e-002 7.77674373e-003 0.
      4.98608174e-003 0. 0. 1.33544970e-002 -1.30875269e-002 0.
      1.08139059e-002 5.42295678e-003 1.01850387e-002 2.86263116e-002 0.
      1.00020254e-002 7.72325136e-003 0. 0. 0. 0. -3.56110604e-003 0. 0.
      5.32604847e-003 -3.58024910e-002 5.30642131e-003 0.
      -1.20481923e-002 0. 0. 0. -9.61538497e-003 0. 0. 5.42949792e-003
      0. -1.40845068e-002 0. -1.47689246e-002 4.87442967e-003 0. 0. 0.
      5.42949792e-003 4.87442967e-003 0. 5.42295678e-003 0. 0. 0. 0.
      -1.75438598e-002 -4.00345586e-002 0. 0. 8.43254663e-003 0. 0. 0.
      4.60145995e-003 0. 1.01548256e-002 1.11009926e-002 1.31901987e-002
      0. 0. 0. 0. -1.56250000e-002 0. 8.72576423e-003 0. 0. 0. 0.
      5.30642131e-003 1.07884575e-002 -1.18951686e-002 1.22194719e-002
      1.82656553e-002 0. 9.58732981e-003 0. 0. 1.49582466e-002 0. 0. 0.
      0. 8.38999078e-003 0. 7.91987497e-003 0. 4.19750763e-003 0. 0. 0.
      0. 0. 1.61728095e-002 0. 0. 0. 0. 3.53801786e-003 0.
      2.00354960e-002 -2.40963846e-002 0. 0. 0. 1.01920851e-002
      -1.69491526e-002 1.49133783e-002 8.10483098e-003 0. 0.
      -4.25531901e-002 0. 8.10514111e-003 6.74264692e-003
      5.42295678e-003 0. 0. 0. -3.13258842e-002 0. 6.99108792e-003 0.
      1.32052070e-002 0. 0. 0. -7.14285746e-002 -3.14327478e-002
      3.13567626e-003 0. 0. 0. 9.58732981e-003 0. 0. 6.40267739e-003 0.
      0. 0. 0. 0. 0. -9.61538497e-003 0. 8.10514111e-003 0. 0. 0.
      1.07884575e-002 0. 1.59968249e-002 4.87442967e-003 0.
      -4.07838123e-003 8.77092499e-003 -2.38597281e-002 0. 0. 0.
      4.18727193e-003 0. 0. 7.19324499e-003 0. 0. 0. 1.07884575e-002
      3.20133870e-003 -2.27272734e-002 0. 9.94822476e-003 0.
      -1.47058824e-002 1.60693210e-002 1.03907976e-002 0.
      5.63893886e-003 0. 0. 0. 0. 0. 0. 7.14455685e-003 0. 0. 0.
      7.91987497e-003 0. 4.19750763e-003 0. 1.01850387e-002 0.
      4.80424846e-003 9.93665680e-003 0. 0. -4.25531901e-002 0. 0. 0.
      -1.89336669e-003 0. 4.12741769e-003 0. 0. 8.17707554e-003 0. 0. 0.
      0. 0. 0. -1.53846154e-002 -3.02533526e-002 0. 0. -8.65637604e-003
      0. 8.13336670e-003 -1.92307699e-002 0. 0. 0. 8.86234082e-003
      4.98608174e-003 1.22194719e-002 5.06284973e-003 0.
      -4.25531901e-002 4.38290741e-003 1.33544970e-002 5.99069847e-003
      0. 1.07373372e-002 0. 1.14240628e-002 6.80630421e-003 0.
      3.53801786e-003 0. 0. 0. 4.30603884e-003 0. 0. 8.38616863e-003 0.
      4.30928543e-003 0. 0. 0. -4.25531901e-002 7.13612977e-003
      3.20133870e-003 0. 6.80630421e-003 4.94110957e-003
      -1.02066910e-002 0. 0. 0. 0. 0. 0. 2.06650980e-002 0. 0. 0.
      9.83148534e-003 0. 0. 0. -1.21467039e-002 -3.03030312e-002
      -1.21319490e-002 4.15561302e-003 0. 0. 1.62102822e-002 0.
      4.19750763e-003 1.07059050e-002 0. 5.63893886e-003 0. 0.
      -2.94117648e-002 0. 0. 0. 2.18826775e-002 1.51782455e-002 0.
      -1.45886932e-002 0. -1.20481923e-002 4.12741769e-003
      -2.81690136e-002 1.13831423e-002 1.31326048e-002 1.13973161e-002
      0. 0. 0. 0. 0. -1.40845068e-002 -3.50877196e-002 0. 0.
      8.72576423e-003 5.08945342e-003 0. 0. 0. 0. 0. 0. 0. 0. 0. 0.
      -3.81041653e-002 0. 0. 1.11009926e-002 1.63180251e-002 0.
      1.16651161e-002 5.93798794e-003 0. 3.71481711e-003 0.
      3.36895399e-002 0. -4.25531901e-002 1.46728437e-002 0.
      5.60329389e-003 1.41521981e-002 -9.61538497e-003 4.49919188e-003
      0. 7.19324499e-003 0. -1.99999996e-002 -1.40845068e-002
      8.21912475e-003 1.18747335e-002 7.14455685e-003 0. 0. 0. 0. 0.
      -7.69581320e-003 0. 0. 0. 0. 0. 0. 2.69993860e-002 2.96899397e-003
      4.80424846e-003 0. -9.61538497e-003 0. 0. 6.99108792e-003
      5.30642131e-003 0. -1.38888890e-002 0. 0. 1.07373372e-002 0. 0.
      5.93724661e-003 0. 0. 4.31449292e-003 -4.75923866e-002
      1.01548256e-002 -1.44265220e-002 0. 0. -6.88689798e-002
      4.46184585e-003 0. 0. 0. -1.19739929e-002 5.93724661e-003
      6.73449878e-003 0. 1.39270201e-002 1.22194719e-002 0.
      4.15561302e-003 0. 5.93724661e-003 0. 4.18727193e-003
      5.30642131e-003 -3.26030254e-002 0. 0. 0. 0. 0. 0. 9.60849691e-003
      8.30365159e-003 8.30365159e-003 8.15901253e-003 -2.69056372e-002
      0. 0. 0. 1.55191012e-002 0. 0. 3.88837187e-003 -3.38983051e-002
      8.78893025e-003 8.38616863e-003 2.09460836e-002 0. 0.
      9.58732981e-003 0. 4.80424846e-003 1.81832016e-002 8.85120593e-003
      0. -1.25053320e-002 8.61857086e-003 0. 0. 0. 0. 3.45758675e-003 0.
      1.07884575e-002 6.99108792e-003 -5.17241359e-002 0.
      6.36919262e-003 -5.15479483e-002 0. 0. -1.42857144e-002 0.
      4.71877167e-003 0. 0. 6.36919262e-003 -1.42857144e-002 0. 0.
      -4.25531901e-002 0. 0. 7.17442622e-003 0. 0. 4.49919188e-003
      -8.33338127e-002 0. 0. 0. 1.11009926e-002 -6.38297871e-002
      4.68148896e-003 0. 1.47248972e-002 9.14169475e-003 4.15561302e-003
      0. -1.85185187e-002 0. 0. -1.69491526e-002 1.46105886e-002 0. 0.
      0. -1.40845068e-002 8.92369170e-003 0. 0. 0. -9.71243065e-003
      -3.38983051e-002 0. 0. 0. 0. 0. 0. 7.14455685e-003 0. 0.
      1.71065181e-002 3.02414293e-003 4.96832840e-003 0. 0.
      -8.38400610e-003 4.94110957e-003 8.61857086e-003 0.
      -2.12765951e-002 0. 0. 0. 0. -1.56250000e-002 0. 1.80506110e-002
      4.19750763e-003 0. 9.58732981e-003 0. 0. -4.86041866e-002 0.
      5.42949792e-003 0. 1.63180251e-002 0. 0. 5.42949792e-003
      -2.40963846e-002 3.11585306e-003 0. 0. 0. -1.16100088e-002 0. 0.
      0. 0. 0. 1.01789068e-002 0. 0. 8.10514111e-003 0. 0.
      -4.58612666e-003 0. 0. 0. 4.80424846e-003 0. 0. -4.33130115e-002
      0. -3.51025723e-002 0. 5.30642131e-003 0. 7.51457829e-003 0. 0.
      1.27591696e-002 -1.72413792e-002 0. 5.42949792e-003 0.
      8.15901253e-003 5.08945342e-003 9.01436992e-003 -1.92307699e-002
      0. 0. 0. 0. 0. 5.60329389e-003 0. 0. 1.03907976e-002 0. 0.
      2.96899397e-003 1.07373372e-002 0. 0. 0. 4.71877167e-003
      4.96832840e-003 8.10514111e-003 8.15901253e-003 4.15561302e-003 0.
      8.49426165e-003 0. 5.08945342e-003 0. 0. 8.38999078e-003
      1.07884575e-002 3.45758675e-003 2.94944569e-002 0. 0. 0.
      -3.08919810e-002 0. 7.07489764e-003 0. 1.70511175e-002 0. 0.
      -3.84957306e-002 -9.79970396e-003 0. 0. 0. 2.48553604e-002 0. 0.
      8.72576423e-003 -2.57468224e-002 0. 0. 0. 8.13336670e-003
      -1.55911436e-002 4.30603884e-003 0. -1.69491526e-002
      -1.40845068e-002 0. 0. 1.06520969e-002 1.63888547e-003
      5.30642131e-003 2.26374939e-002 3.86162568e-003 7.07489764e-003 0.
      0. 0. 0. 4.98608174e-003 1.27474861e-002 0. 0. 0. 0.
      -1.39415590e-002 1.36022530e-002 -2.88461559e-002 0. 0.
      -3.17460336e-002 -9.77817178e-003 2.43436489e-002 0. 0. 0. 0.
      4.09377739e-002 1.92273911e-002 5.09251934e-003 0. 0.
      5.67218475e-003 -1.36986300e-002 -8.33668932e-003 0.
      3.20133870e-003 1.12299249e-003 0. 4.78744786e-003
      -7.70420395e-003 0. 0. 9.55073815e-003 1.49617717e-002
      -1.11226449e-002 0. 1.00061260e-002 0. 0. 8.49426165e-003 0. 0. 0.
      -3.17460336e-002 0. 0. 4.88695269e-003 0. 0. 8.30365159e-003
      -1.40845068e-002 1.07373372e-002 0. 0. -1.51515156e-002
      1.32691124e-002 0. 0. 0. 0. 0. 0. 1.53181078e-002 0.
      -1.15261953e-002 8.77092499e-003 0. 0. 1.34770339e-002
      8.77092499e-003 1.01613300e-002 0. -9.58285015e-003
      2.96899397e-003 0. 0. 0. 0. 0. -4.15938860e-003 4.71877167e-003 0.
      0. -1.40845068e-002 0. 9.93665680e-003 9.12977103e-003
      4.12741769e-003 0. 0. 0. 0. 8.90698284e-003 0. 0. 0. 0.
      1.49012329e-002 5.35181165e-003 0. 8.17707554e-003
      -1.24793956e-002 0. -1.56250000e-002 0. 1.63541511e-002 0.
      4.96832840e-003 6.40267739e-003 8.25483538e-003 0.
      -1.56250000e-002 -1.69491526e-002 0. -1.66666675e-002
      2.09732633e-002 -1.36986300e-002 3.20133870e-003 0.
      1.03907976e-002 8.43254663e-003 9.83148534e-003 -9.24020819e-003
      -1.01955021e-002 0. 2.43096892e-002 -8.04547686e-003 0.
      4.71877167e-003 0. 0. 0. -7.54616864e-004 0. 0. 0. 0.
      4.60145995e-003 0. 0. 0. 0. 5.42295678e-003 5.35181165e-003 0.
      -5.20657673e-002 0. 6.91517349e-003 -1.42857144e-002 0.
      -1.42857144e-002 0. 6.36919262e-003 0. -1.75438598e-002
      7.45061645e-003 0. 0. 0. 4.15561302e-003 1.43864900e-002 0. 0.
      4.15561302e-003 1.84307601e-002 7.91987497e-003 0. 8.38616863e-003
      0. 0. 0. 5.42295678e-003 8.30365159e-003 0. 0. 6.80630421e-003
      -1.58730168e-002 0. 0. -1.56250000e-002 0. 9.55073815e-003 0.
      6.73449878e-003 0. 0. -1.92307699e-002 0. 0. 8.31122603e-003
      3.71481711e-003 0. 1.08562615e-002 -7.55503997e-002
      -1.75438598e-002 -2.88778683e-005 0. 1.31087620e-002 0.
      9.57489572e-003 0. 6.56630239e-003 6.73449878e-003 0.
      -1.47058824e-002 0. -4.25531901e-002 0. 0. -2.27272734e-002
      9.02862009e-003 -2.81690136e-002 0. 0. 0. 0. -1.56250000e-002 0.
      0. -2.12765951e-002 -2.27272734e-002 0. 0. 0. 0. 5.69157116e-003
      0. -1.38888890e-002 4.46184585e-003 0. 1.80572402e-002
      1.07884575e-002 0. 6.99108792e-003 7.91987497e-003 0.
      4.87442967e-003 3.97656066e-003 0. 1.07884575e-002 0. 0.
      -1.56250000e-002 0. 8.15901253e-003 0. 0. -4.87804860e-002
      5.60329389e-003 -1.92307699e-002 0. 0. -5.12820520e-002
      4.78744786e-003 0. 0. 8.38999078e-003 1.55927055e-002
      1.62096620e-002 1.00061260e-002 -1.53846154e-002 0. 0. 0.
      1.41332010e-002 6.74264692e-003 7.32976757e-003 4.30603884e-003
      5.09251934e-003 0. -2.27272734e-002 0. 4.60145995e-003
      1.35885105e-002 0. 0. 8.10483098e-003 -1.72413792e-002
      -2.37022862e-002 -1.99999996e-002 -6.02323981e-003 7.14455685e-003
      0. 5.09251934e-003 1.00020254e-002 -1.99999996e-002 0. 0. 0.
      4.46184585e-003 0. 0. 0. -1.40845068e-002 1.08135194e-002
      4.30928543e-003 -4.75923866e-002 0. 0. 2.96899397e-003 0. 0. 0.
      -4.10958901e-002 0. 0. 0. 0. 0. 4.30928543e-003 7.14455685e-003 0.
      0. -1.29532628e-002 0. 0. 0. 6.99108792e-003 0. 0.
      -4.81927693e-002 5.42813074e-003 -3.59824784e-002 0. 0. 0.
      -6.85058208e-003 -1.69491526e-002 4.98608174e-003 -1.36986300e-002
      4.46184585e-003 4.88695269e-003 0. 8.78893025e-003 0.
      9.55073815e-003 2.14739945e-002 8.39501526e-003 0. 6.74264692e-003
      0. 0. 2.12623235e-002 0. 0. 3.53801786e-003 0. 0. 8.43416993e-003
      4.96832840e-003 -1.72413792e-002 -9.44914855e-003 1.66986659e-002
      -2.81690136e-002 4.18727193e-003 0. 6.80630421e-003
      8.38616863e-003 0. 3.45758675e-003 0. 0. -9.61538497e-003
      -6.16463181e-003 0. 1.00020254e-002 0. 0. 0. 2.45309081e-002 0.
      1.64382495e-002 1.43375862e-002 0. 0. 0. -1.73549971e-003
      8.77092499e-003 0. 0. 4.96832840e-003 4.80424846e-003 0.
      7.32976757e-003 0. 0. 0. 0. 1.00061260e-002 4.94110957e-003 0.
      7.91987497e-003 0. 1.62755735e-002 7.32976757e-003 6.74264692e-003
      0. 0. 1.85513217e-002 3.53801786e-003 -2.38962788e-002 0.
      -1.84908304e-002 -1.20481923e-002 0. 0. 5.42295678e-003
      -2.73972601e-002 8.99838377e-003 0. 0. 0. 1.07884575e-002
      5.42949792e-003 0. 8.10483098e-003 -5.61285671e-003
      -1.40845068e-002 0. -1.79114770e-002 0. 0. 0. 0. 0. 0. 0. 0. 0.
      -2.04081628e-002 1.13643389e-002 1.42184282e-002 4.88695269e-003
      0. 4.30928543e-003 0. 0. 0. 8.39501526e-003 -1.37806032e-002 0. 0.
      -1.78571437e-002 -1.72413792e-002 0. 0. -1.42857144e-002
      1.64382495e-002 4.88695269e-003 0. -1.58730168e-002
      6.91517349e-003 0. -2.56410260e-002 0. 8.38999078e-003 0. 0.
      -1.51515156e-002 0. 0. 0. 0. 4.30603884e-003 -3.07692308e-002
      8.72576423e-003 0. 0. 0. 1.41677735e-002 1.03491619e-002
      -3.33323260e-003 0. 1.23430975e-002 0. 0. 5.42813074e-003 0.
      -2.94888136e-003 5.06284973e-003 0. 0. 0. 3.71481711e-003 0. 0.
      8.00505653e-003 0. 0. 0. -5.20481914e-002 0. 0. 7.19324499e-003 0.
      5.30642131e-003 0. 4.00252827e-003 -1.40845068e-002
      4.68148896e-003 -8.50765500e-003 0. 0. 0. 0. 4.68148896e-003
      4.32200584e-004 0. 7.14455685e-003 0. 0. 0. 0. 4.49919188e-003 0.
      8.13336670e-003 0. 0. 0. -1.85185187e-002 2.49109548e-002 0.
      4.68148896e-003 0. 0. 4.49919188e-003 1.73665117e-002
      7.49862753e-003 6.73449878e-003 0. 0. 0. 0. 0. 0. 0. 0.
      8.43254663e-003 -3.97255346e-002 0. -1.53846154e-002
      1.68650933e-002 7.91987497e-003 0. 0. 0. 4.15561302e-003
      2.96899397e-003 8.38616863e-003 4.19750763e-003 1.10958181e-002 0.
      4.60145995e-003 3.71481711e-003 -7.97477085e-003 0. 0. 0.
      -4.75169457e-002 0. 0. 0. 3.53801786e-003 0. 8.15901253e-003
      -1.20481923e-002 8.15901253e-003 3.74931376e-003 -1.66666675e-002
      -1.40845068e-002 1.37081249e-002 0. -1.92307699e-002
      1.50713818e-002 0. 0. 1.03886668e-002 8.10514111e-003
      -4.25531901e-002 0. 1.11009926e-002 -1.69491526e-002 0.
      1.67799816e-002 0. 0. 0. 0. 0. 0. 0. 0. 0. 0. 1.34729370e-002 0.
      0. 7.14455685e-003 2.96899397e-003 6.56630239e-003 0.
      6.74264692e-003 0. -9.61538497e-003 4.19750763e-003 0.
      8.78893025e-003 0. 1.41497953e-002 0. 5.63893886e-003
      1.77246816e-002 0. 0. 0. 1.00333001e-002 0. 1.67799816e-002 0.
      3.95312766e-003 0. 0. 0. 7.53569091e-003 0. 1.00061260e-002
      8.77092499e-003 0. 0. -3.38983051e-002 0. 0. 4.80424846e-003 0.
      8.86234082e-003 0. 2.65870206e-002 0. 0. 0. 8.43416993e-003 0.
      1.06128426e-002 7.32976757e-003 -1.72413792e-002 -1.20481923e-002
      0. 2.96899397e-003 -9.61538497e-003 0. 0. 0. 0. 0. 0. 0. 0. 0.
      1.01548256e-002 -1.96855355e-004 0. 1.07373372e-002 0. 0.
      3.20133870e-003 -1.99999996e-002 0. 0. -9.74070223e-004
      9.60849691e-003 -3.61445770e-002 0. 0. 0. 0. -1.42475963e-002 0.
      0. 4.30603884e-003 0. -5.61887445e-003 1.31326048e-002
      -1.62617750e-002 -1.99265946e-002 0. 0. 8.85120593e-003
      7.90625531e-003 0. 0. 0. 0. 0. 0. 8.17707554e-003 -6.94302702e-003
      -2.27272734e-002 0. -6.28917525e-003 0. 0. 0. 4.30603884e-003 0.
      9.93665680e-003 9.02862009e-003 0. -2.38095243e-002 0. 0. 0.
      4.80424846e-003 2.57437606e-003 0. 8.30365159e-003 0.
      4.96832840e-003 0. -1.92307699e-002 0. 0. 1.30818039e-002 0. 0.
      8.78893025e-003 4.88695269e-003 -1.39955180e-002 0.
      1.67723373e-002 7.32976757e-003 0. -1.25756375e-002
      7.07489764e-003 4.94110957e-003 0. 0. -1.42857144e-002
      -1.42857144e-002 -2.43902430e-002 8.30365159e-003 4.12741769e-003
      9.83148534e-003 1.08562615e-002 0. 0. 1.12299249e-003 0. 0.
      -1.92307699e-002 0. -8.33707489e-003 0. 0. 7.32976757e-003 0. 0.
      0. 0. 0. 8.10483098e-003 0. 9.83148534e-003 0. 0. -2.63157897e-002
      0. 0. 6.99108792e-003 0. 0. 9.61570721e-003 -1.92307699e-002
      7.19324499e-003 -4.22535203e-002 0. 4.96832840e-003 0.
      6.99108792e-003 0. 7.77674373e-003 0. 0. 2.00122520e-002
      5.63893886e-003 0. 7.53569091e-003 1.69885233e-002 5.99069847e-003
      -1.42857144e-002 4.00252827e-003 6.40267739e-003 -1.40845068e-002
      4.88695269e-003 0. 8.17707554e-003 0. -1.92307699e-002
      -1.92307699e-002 8.00505653e-003 0. 0. 0. 0. 0. 2.25557555e-002 0.
      8.86234082e-003 4.80424846e-003 -1.14236558e-002 0.
      -9.61538497e-003 5.99069847e-003 0. 1.07884575e-002 0.
      9.57489572e-003 -1.92307699e-002 0. 0. -1.56250000e-002 0.
      3.20133870e-003 0. -6.80257147e-003 0. 8.38999078e-003
      -1.95002388e-002 7.14455685e-003 -1.32120969e-002 -1.36986300e-002
      0. -1.53846154e-002 0. 0. 1.68069769e-002 -2.21783146e-002 0.
      1.13643389e-002 0. 7.42963422e-003 0. 0. 6.80630421e-003 0. 0. 0.
      5.99069847e-003 0. 0. -1.56250000e-002 0. 0. 5.93798794e-003
      -8.81831255e-003 0. -7.66465664e-002 0. 1.27591696e-002 0. 0. 0.
      1.01613300e-002 -1.66666675e-002 0. -3.17460336e-002 0. 0. 0.
      4.00252827e-003 6.74264692e-003 0. 0. 0. 0. 0. 2.71631349e-002
      4.98608174e-003 7.53569091e-003 2.96899397e-003 0. 0. 0. 0.
      5.60329389e-003 -1.56250000e-002 0. -1.23033319e-002 0. 0. 0.
      3.88837187e-003 5.09251934e-003 0. 0. 0. -2.15532985e-002 0.
      3.13567626e-003 0. 0. 0. 0. -1.79030877e-002 0. 0. 1.12299249e-003
      -2.04081628e-002 -2.38095243e-002 8.38999078e-003 1.47909857e-002
      0. 0. 0. -1.36986300e-002 -1.92307699e-002 0. 0. -4.75923866e-002
      0. 0. 0. 0. 0. 0. 0. 0. -4.25531901e-002 0. 0. 0. 4.88695269e-003
      8.86234082e-003 0. 0. 2.41000019e-002 -3.74310538e-002 0.
      1.46595351e-002 0. 8.30365159e-003 1.04730418e-002 0. 0.
      4.19750763e-003 1.34689976e-002 0. 0. -1.42857144e-002 0.
      8.78893025e-003 1.27591696e-002 0. 0. 4.49919188e-003
      1.11009926e-002 0. -2.81690136e-002 4.38290741e-003
      -1.40845068e-002 9.20291990e-003 0. 0. 0. 0. 0. -2.52221655e-002
      0. 0. 9.55073815e-003 0. 7.14455685e-003 1.04730418e-002 0. 0. 0.
      0. 8.04890320e-003 0. -1.51255699e-002 2.96899397e-003 0. 0.
      1.00020254e-002 0. 0. 1.13443695e-002 0. 0. 0. 1.10514583e-002 0.
      0. 0. 0. 4.30928543e-003 -2.27272734e-002 6.40267739e-003
      4.52552084e-003 0. -2.12765951e-002 0. 0. 0. 6.36919262e-003 0.
      -1.45501979e-002 5.30642131e-003 0. -3.57097052e-002 0. 0.
      1.34743527e-002 0. 0. 0. 0. -1.40845068e-002 1.63201820e-002 0. 0.
      1.13643389e-002 0. 2.40933001e-002 0. 0. 0. 0. 0. 0.
      9.58732981e-003 1.62096620e-002 0. 0. 1.68757569e-002 0. 0.
      7.91987497e-003 0. -1.51515156e-002 -7.42865773e-003 0.
      3.97656066e-003 0. 0. 5.06284973e-003 1.01613300e-002 0. 0.
      1.36126084e-002 4.60145995e-003 -9.10258852e-003 1.95335392e-002
      4.30603884e-003 0. 0. 0. 0. -3.67813814e-003 0. 0. 3.86162568e-003
      -1.58730168e-002 6.91517349e-003 6.10973593e-003 1.11009926e-002
      0. 0. 0. 4.00252827e-003 5.42813074e-003 0. 0. 0. 5.63893886e-003
      4.98608174e-003 0. 0. 6.74264692e-003 0. -2.12765951e-002
      8.04890320e-003 0. 0. -1.38888890e-002 8.38999078e-003 0.
      1.07884575e-002 -2.01198235e-002 3.95312766e-003 0. 0.
      1.57255176e-002 0. 0. 0. -4.54666018e-002 -1.92307699e-002
      1.66073032e-002 0. 5.35181165e-003 0. 0. 1.15848780e-002 0. 0.
      1.00061260e-002 0. 0. 3.53801786e-003 7.32976757e-003
      -4.49312143e-002 0. 0. -3.07692308e-002 5.42949792e-003
      8.04890320e-003 -2.81690136e-002 0. 0. 0. 1.62884928e-002
      8.37454386e-003 1.04730418e-002 0. -1.40845068e-002
      1.11009926e-002 0. 0. -1.78571437e-002 0. 5.99069847e-003
      -2.85714287e-002 6.56630239e-003 5.30642131e-003 1.14037441e-002
      5.42295678e-003 1.00061260e-002 0. 8.30365159e-003 0.
      3.67369736e-003 0. 0. 0. 0. 0. 0. 0. 1.16116237e-002 0.
      5.32604847e-003 4.98608174e-003 9.58732981e-003 2.96899397e-003
      8.72576423e-003 9.58732981e-003 0. 8.50226451e-003 0. 0. 0. 0.
      -1.20481923e-002 0. 0. -1.40845068e-002 0. 0. 0. -2.02180687e-002
      6.36919262e-003 -4.75923866e-002 6.74264692e-003 0.
      4.00252827e-003 4.30603884e-003 -1.69491526e-002 2.96899397e-003
      4.78744786e-003 0. 0. 0. 5.09251934e-003 -1.38888890e-002 0. 0. 0.
      8.38616863e-003 0. 0. 4.94110957e-003 -1.99999996e-002 0. 0. 0.
      4.60145995e-003 7.77674373e-003 0. 4.87442967e-003 8.38999078e-003
      5.08945342e-003 5.30642131e-003 0. 0. 0. 0. 0. 8.61207768e-003 0.
      0. 0. -1.40845068e-002 0. 0. 0. 8.17707554e-003 0. 0.
      -8.17461871e-003 0. 8.43254663e-003 0. 8.17707554e-003
      -2.40917560e-002 0. 0. 0. -1.52282417e-002 0. 0. 0. 0. 0. 0.
      -6.61368994e-003 0. 0. 0. 4.49919188e-003 -7.84892496e-003 0.
      9.58732981e-003 0. 0. -1.20481923e-002 7.07603572e-003 0.
      1.11009926e-002 6.74264692e-003 0. 0. 0. 6.56630239e-003
      -1.05629535e-002 -1.36986300e-002 0. 8.49426165e-003 0. 0.
      8.86234082e-003 9.55073815e-003 -1.77393705e-002 8.38616863e-003
      0. 0. 1.07373372e-002 1.01109874e-002 0. 8.15901253e-003 0.
      8.78893025e-003 0. 0. 1.68683399e-002 7.95312133e-003 0.
      1.70165543e-002 0. 0. -2.56410260e-002 1.07036233e-002
      -3.64259258e-002 -9.29868221e-002 8.38616863e-003 1.75418500e-002
      0. 0. 0. -1.85185187e-002 0. 0. 0. 2.06199419e-002 0.
      -5.20566199e-003 0. 0. 0. 0. 1.02105737e-002 0. 0. 7.19324499e-003
      6.73449878e-003 0. -5.55555560e-002 0. -1.72413792e-002 0.
      5.69157116e-003 0. 0. 0. 0. 1.08562615e-002 8.49426165e-003
      1.38933687e-002 0. 0. 0. 4.19750763e-003 0. 0. 4.96832840e-003
      8.13336670e-003 5.35181165e-003 0. 0. 0. 1.01548256e-002
      -1.47058824e-002 0. 6.10973593e-003 0. 8.97849258e-003
      8.10514111e-003 0. 0. 1.25417821e-002 0. 0. 0. 0. 0. 0. 0. 0.
      7.53569091e-003 0. 0. 0. 5.09251934e-003 1.27591696e-002
      -9.61538497e-003 2.14503706e-002 4.96832840e-003 0. 0.
      8.85120593e-003 8.39501526e-003 0. 4.68148896e-003
      -1.51515156e-002 0. 7.17442622e-003 0. 1.45585798e-002 0.
      -1.12745697e-002 3.71481711e-003 8.85120593e-003 0. 0. 0. 0. 0.
      -2.12765951e-002 0. 0. 4.60145995e-003 0. 1.00020254e-002
      2.54388520e-004 8.30365159e-003 0. 9.97216348e-003 0.
      5.30642131e-003 2.02513989e-002 0. 5.60329389e-003 1.24784894e-002
      -1.75438598e-002 8.78893025e-003 1.27591696e-002 6.73449878e-003
      0. 0. -1.58730168e-002 0. 8.43416993e-003 7.45061645e-003 0.
      8.43254663e-003 0. 4.80424846e-003 -1.92307699e-002 0. 0. 0.
      -1.72413792e-002 0. 5.06284973e-003 0. 0. 0. 1.83292087e-002
      5.63893886e-003 1.25734406e-002 0. 0. -9.95281525e-003 0.
      -1.65951066e-002 1.07373372e-002 0. 8.17707554e-003 0. 0.
      1.00061260e-002 -9.61538497e-003 0. -2.07665972e-002
      -1.58730168e-002 4.30928543e-003 8.43254663e-003 1.58397499e-002
      0. 0. 0. 0. 2.80043148e-002 0. 0. 4.96832840e-003 -1.78571437e-002
      3.00060771e-002 -1.40845068e-002 0. -1.40845068e-002 0.
      -4.05298285e-002 0. 0. 0. 5.60329389e-003 0. 0. 4.00252827e-003 0.
      8.21912475e-003 0. 0. 8.72576423e-003 0. 0. 0. 1.20944586e-002 0.
      1.00020254e-002 9.55073815e-003 -1.72413792e-002 -3.92968114e-003
      0. 4.80424846e-003 0. 0. 0. 0. 9.58732981e-003 0. 0. 0.
      9.53286979e-003 4.15561302e-003 0. 1.22544626e-002 3.97656066e-003
      -2.35802699e-002 0. 0. 0. 0. 0. 0. 4.38290741e-003 0. 0.
      -4.25531901e-002 0. 0. 7.45061645e-003 0. 0. 0. 0. 0. 0.
      5.32604847e-003 0. 5.93724661e-003 0. -1.99999996e-002 0. 0. 0. 0.
      0. 0. 3.53801786e-003 0. 1.43381860e-002 0. 0. -4.25531901e-002
      9.58732981e-003 0. 0. 1.62096620e-002 0. -1.66666675e-002
      -3.93518507e-002 0. 0. 0. 1.46595351e-002 0. 0. 0. 0. 0. 0.
      9.60849691e-003 0. -1.40845068e-002 4.80424846e-003 0.
      6.56630239e-003 0. -2.43902430e-002 0. 9.83148534e-003 0. 0.
      9.85293929e-003 -4.87804860e-002 0. -4.08163257e-002 0.
      3.74931376e-003 0. 0. -1.92307699e-002 0. 0. 0. 0. 8.43254663e-003
      0. 0. 3.53801786e-003 -1.09565686e-002 0. 0. 4.30603884e-003
      5.09251934e-003 0. 0. 0. 1.12299249e-003 0. 1.27591696e-002
      6.74264692e-003 1.00020254e-002 0. 7.32976757e-003 0.
      1.75418500e-002 0. 1.12778777e-002 7.19324499e-003 1.11009926e-002
      5.93724661e-003 0. 0. 0. 5.69157116e-003 -1.61116272e-002 0. 0.
      -1.38026392e-002 0. 0. 0. 1.04730418e-002 0. 8.78893025e-003 0.
      -2.27272734e-002 0. 4.98608174e-003 5.67218475e-003 0.
      8.78893025e-003 8.85120593e-003 8.49426165e-003 0. 1.03491619e-002
      3.71481711e-003 0. 0. 0. 3.86162568e-003 7.66794477e-003 0. 0.
      1.01613300e-002 8.99838377e-003 3.13567626e-003 0. 0. 0. 0.
      4.71877167e-003 0. 4.96832840e-003 6.10973593e-003 0. 0. 0.
      1.96629707e-002 0. 4.49919188e-003 0. -4.74543944e-002
      -1.69491526e-002 0. 8.85120593e-003 0. 0. 0. 0. 0. 0.
      8.85120593e-003 0. -1.38888890e-002 -2.85714287e-002
      -1.51515156e-002 0. -2.97095068e-002 0. 8.43254663e-003
      -2.43830052e-003 4.30928543e-003 0. 0. 0. 0. 4.19750763e-003 0.
      1.07884575e-002 -9.60920192e-003 0. 6.73449878e-003 0.
      1.10627981e-002 0. 0. 3.45758675e-003 0. 0. 0. 3.71481711e-003 0.
      8.30365159e-003 0. 0. 0. 0. 0. 0. 0. 1.97868403e-002 0. 0.
      6.10973593e-003 0. 5.93724661e-003 0. 0. -1.75438598e-002 0.
      9.85293929e-003 1.69560369e-002 1.91014763e-002 0.
      -1.66666675e-002 0. 0. 1.46595351e-002 4.00252827e-003 0. 0. 0. 0.
      0. 0. 0. 0. 4.49919188e-003 -1.20481923e-002 0. 0. 0.
      7.32976757e-003 5.17458096e-003 0. 0. 9.60401632e-003 0.
      -4.31615743e-004 -3.66116199e-003 0. 0. -1.99999996e-002 0.
      -1.53846154e-002 0. 0. 0. 0. 0. 0. 1.08562615e-002 0. 0.
      1.00061260e-002 0. 8.03920534e-003 0. 5.42813074e-003
      1.23308748e-002 0. -1.99999996e-002 0. -1.42475963e-002 0.
      7.13612977e-003 0. 0. 0. -1.78571437e-002 0. 0. 0. 0. 0. 0.
      6.56630239e-003 0. 4.49919188e-003 0. 9.83148534e-003
      4.98608174e-003 6.56630239e-003 1.07373372e-002 0. 0.
      5.30642131e-003 8.38999078e-003 9.85293929e-003 0. 0.
      6.56630239e-003 0. 0. 1.74515285e-002 8.86234082e-003
      7.72325136e-003 1.13643389e-002 0. 8.86234082e-003 8.85120593e-003
      4.49919188e-003 4.78744786e-003 -1.95094850e-002 0.
      6.91517349e-003 0. 0. 2.95588188e-002 0. 6.27135253e-003
      2.03096513e-002 0. 0. 0. 0. 4.12741769e-003 9.85293929e-003 0.
      6.73449878e-003 0. 2.96899397e-003 0. 0. 0. 0. 1.89502612e-002 0.
      4.68148896e-003 5.60329389e-003 0. 1.03907976e-002 8.17707554e-003
      0. 1.01613300e-002 -1.40845068e-002 0. 0. 0. -4.25531901e-002 0.
      -1.47689246e-002 5.17458096e-003 0. 0. 0. 0. 4.60145995e-003 0.
      -1.75438598e-002 0. 0. 8.43416993e-003 7.53569091e-003 0. 0.
      8.43254663e-003 8.78893025e-003 0. 1.01548256e-002
      -2.03523040e-002 0. -1.20481923e-002 -1.69491526e-002 0.
      -2.38095243e-002 9.55073815e-003 5.42813074e-003 0. 0. 0. 0. 0.
      5.67218475e-003 0. 0. 0. -4.25531901e-002 0. 0. 0. 0.
      8.85120593e-003 4.71877167e-003 4.96832840e-003 0. 0. 0.
      1.12299249e-003 0. -1.66666675e-002 1.18199578e-002 0. 0. 0. 0.
      9.58732981e-003 0. 0. 3.71481711e-003 0. 0. 0. 0. -1.36986300e-002
      8.61207768e-003 0. 0. 0. 0. 0. 0. 8.78893025e-003 3.20133870e-003
      0. 7.91987497e-003 8.61207768e-003 1.03907976e-002 6.80630421e-003
      1.07373372e-002 -1.56939607e-002 1.42753543e-002 2.96899397e-003
      1.13443695e-002 0. 4.55961237e-003 0. 0. 0. 0. 0. -1.42857144e-002
      -1.04020368e-002 0. 0. 0. 0. 0. 0. 6.99108792e-003 0.
      5.67218475e-003 0. 8.17707554e-003 0. 0. 4.49919188e-003
      1.01548256e-002 7.13612977e-003 0. -1.03185782e-002
      -2.43902430e-002 1.01548256e-002 0. 0. -1.78571437e-002
      -4.25531901e-002 0. 6.99108792e-003 7.77674373e-003 0. 0.
      6.56630239e-003 0. 0. -8.63578077e-003 -2.43902430e-002 0. 0.
      -1.40845068e-002 -1.75438598e-002 0. 0. -1.69491526e-002 0.
      -1.58730168e-002 1.12299249e-003 4.12741769e-003 0.
      4.96832840e-003 1.00020254e-002 0. 0. 2.11958233e-002 0. 0.
      9.02862009e-003 0. 0. 0. 0. 2.00040508e-002 5.42813074e-003
      -1.40845068e-002 3.20133870e-003 5.42295678e-003 0.
      4.60145995e-003 0. 0. 9.83148534e-003 3.45758675e-003 0. 0.
      4.19750763e-003 4.19750763e-003 0. -1.51226511e-002
      1.08589958e-002 0. 0. 0. -1.40845068e-002 0. 1.27591696e-002 0. 0.
      1.02475313e-002 0. 2.14746743e-002 0. 3.20133870e-003 0.
      1.07884575e-002 0. 8.13336670e-003 5.42813074e-003 0. 0. 0.
      8.77092499e-003 1.11009926e-002 0. 0. 1.82084683e-002
      1.58397499e-002 -3.84615399e-002 1.43061010e-002 -1.38888890e-002
      0. 0. 0. 1.03458958e-002 1.01548256e-002 -1.72413792e-002 0.
      1.04730418e-002 0. 0. 0. 1.04486747e-002 0. 0. 7.17442622e-003 0.
      0. 0. 1.27591696e-002 5.42813074e-003 8.85120593e-003 0. 0.
      4.12741769e-003 0. 5.67218475e-003 1.05154756e-002 0. 0.
      4.87442967e-003 0. 1.01613300e-002 0. 0. 5.42295678e-003
      -6.56246301e-003 6.40267739e-003 3.53801786e-003 -1.92307699e-002
      -1.85185187e-002 8.17707554e-003 1.07373372e-002 0.
      -2.71935463e-002 -8.89438204e-003 2.03226600e-002 0.
      5.99069847e-003 1.01613300e-002 0. -1.51515156e-002
      4.87442967e-003 -1.53846154e-002 0. 0. 0. -4.14789235e-003
      1.39697297e-002 0. 0. 0. -1.40845068e-002 0. -7.44864158e-003
      2.55509056e-002 6.36919262e-003 0. 0. -1.40845068e-002 0.
      -1.92307699e-002 9.57489572e-003 -4.22535203e-002 0.
      2.09460836e-002 0. 0. 0. 1.31326048e-002 4.30603884e-003 0.
      5.99069847e-003 5.42813074e-003 0. 1.44673688e-002 0.
      4.87442967e-003 5.42295678e-003 0. 0. 0. 0. 0. 9.83148534e-003 0.
      4.15561302e-003 -1.85185187e-002 0. 6.99108792e-003
      9.55073815e-003 -1.85185187e-002 0. 0. 0. 0. 7.91987497e-003 0. 0.
      0. 0. 0. -3.44827585e-002 7.91987497e-003 0. -1.66666675e-002
      -4.25531901e-002 4.60145995e-003 0. 3.95312766e-003 0. 0.
      3.86162568e-003 0. 0. 0. 0. 3.86640779e-004 0. 0. 0. 0. 0. 0. 0.
      0. 0. 0. -1.40845068e-002 0. 0. 4.71877167e-003 0. 0.
      1.08459136e-002 3.53801786e-003 0. 0. -2.39296798e-002 0. 0. 0.
      -1.58730168e-002 1.20813912e-002 0. -1.92307699e-002 0. 0.
      4.00252827e-003 0. 0. 0. 8.10483098e-003 0. 4.98608174e-003
      5.09251934e-003 0. 0. -1.53846154e-002 3.53801786e-003
      -1.69491526e-002 0. 1.08562615e-002 0. 0. 9.58732981e-003 0.
      6.56630239e-003 1.26300268e-002 -1.40845068e-002 0.
      1.07373372e-002 0. 1.91014763e-002 8.13336670e-003 0.
      3.74931376e-003 0. 0. 0. 0. -1.42857144e-002 1.51807070e-002
      8.85120593e-003 0. 1.19813969e-002 0. 0. 0. 0. 1.04730418e-002 0.
      8.10514111e-003 5.67218475e-003 0. 0. 1.13643389e-002
      8.72576423e-003 0. 0. 0. 0. 0. 0. 0. 0. 0. 0. 3.20133870e-003
      -2.33560428e-002 0. 0. 4.71992046e-003 1.13643389e-002
      1.01548256e-002 8.21912475e-003 0. 0. 0. -2.29689595e-003 0. 0.
      8.10514111e-003 0. 0. 0. 0. 0. 0. 0. 5.06284973e-003 0.
      8.43254663e-003 -8.82603973e-003 0. 0. 0. 5.06284973e-003
      8.72576423e-003 0. 0. 0. -1.99999996e-002 0. 3.97656066e-003
      -1.78571437e-002 0. 0. 0. 0. 7.13612977e-003 0. 0. 4.49919188e-003
      0. 0. 0. 1.12299249e-003 -1.92307699e-002 0. -1.53846154e-002 0.
      0. 0. 7.53569091e-003 -3.12500000e-002 0. 0. 0. 0. 0. 0.
      -3.10336594e-002 0. 0. 0. 0. 9.43754334e-003 1.34852938e-002
      1.18759759e-002 9.83148534e-003 0. 0. 0. 0. 0. -1.38888890e-002 0.
      0. 0. 0. 1.07884575e-002 0. 5.99069847e-003 0. 0. 1.10000968e-002
      -6.53340993e-003 0. 3.20133870e-003 -1.19349575e-002
      -1.69491526e-002 0. 0. 0. -5.69833769e-003 1.75778605e-002 0. 0.
      3.20133870e-003 0. -1.40845068e-002 0. 0. 4.12741769e-003
      -4.01323549e-002 0. 0. 0. 5.32604847e-003 6.56630239e-003
      8.85120593e-003 1.12299249e-003 0. -1.92307699e-002 0. 0. 0. 0.
      -5.00000045e-002 8.43416993e-003 0. 0. -2.38095243e-002
      9.55073815e-003 0. 1.62096620e-002 1.01548256e-002 0.
      4.46184585e-003 0. 4.19750763e-003 1.00020254e-002
      -1.53846154e-002 0. 0. 0. -1.99999996e-002 6.80630421e-003
      -1.85185187e-002 0. 4.68148896e-003 0. 0. 2.07815953e-002 0. 0. 0.
      4.19750763e-003 8.21912475e-003 0. 3.71481711e-003 0. 0. 0. 0.
      6.36919262e-003 -1.69491526e-002 0. 7.19324499e-003 0. 0. 0. 0. 0.
      0. 3.74931376e-003 0. 0. 0. 0. 4.30928543e-003 0. 4.30603884e-003
      0. 2.00122520e-002 3.33029777e-002 0. 3.45758675e-003 0. 0. 0. 0.
      0. -1.36986300e-002 8.72576423e-003 -1.69491526e-002 0. 0. 0.
      8.72576423e-003 0. 0. -1.20481923e-002 -1.65512983e-003
      -1.40845068e-002 0. 0. -1.40845068e-002 9.02862009e-003 0. 0.
      4.19750763e-003 8.10483098e-003 0. 0. 0. 3.71481711e-003 0. 0.
      8.10514111e-003 1.94368903e-002 0. 4.80424846e-003 8.72576423e-003
      0. 0. 4.18727193e-003 5.35181165e-003 0. 5.60329389e-003 0. 0. 0.
      -1.08281272e-002 0. -1.99999996e-002 -1.51515156e-002
      3.53801786e-003 4.60145995e-003 0. 6.56630239e-003 0.
      1.01613300e-002 4.71877167e-003 -3.84949483e-002 1.91746596e-002
      0. 5.30642131e-003 5.63893886e-003 6.56630239e-003 0.
      3.74931376e-003 5.17458096e-003 0. 0. 0. 5.06284973e-003
      7.13612977e-003 -1.58730168e-002 1.48477880e-002 0. 0.
      9.43754334e-003 4.41537891e-003 0. 0. 4.88695269e-003 0.
      6.40267739e-003 9.55073815e-003 0. 4.98608174e-003 3.97656066e-003
      3.20133870e-003 -1.42857144e-002 0. 8.30365159e-003
      -2.94117648e-002 0. 0. -1.51515156e-002 0. 1.64848529e-002 0.
      6.10973593e-003 0. 0. 0. 0. -2.88461559e-002 0. 0.
      -1.47315785e-002 4.87442967e-003 6.56630239e-003 -1.40845068e-002
      0. 0. 0. 0. 8.38616863e-003 -1.40845068e-002 -3.08101997e-002 0.
      0. 0. 8.21912475e-003 -8.73030163e-003 0. 1.67812884e-003 0.
      -1.51515156e-002 0. 0. 2.68456247e-002 0. 0. 0. 0. 0. 0.
      -2.12765951e-002 0. 0. 0. 0. 5.08945342e-003 0. 1.11009926e-002 0.
      0. -1.69491526e-002 2.25906558e-002 0. 1.13643389e-002 0. 0.
      4.87442967e-003 0. -6.83606928e-003 8.31181370e-003
      3.86162568e-003 1.00061260e-002 0. 0. 6.40267739e-003 0.
      7.42963422e-003 -2.12765951e-002 1.34353722e-002 -1.53846154e-002
      1.91746596e-002 0. 0. 0. 0. 0. 0. 0. 4.46184585e-003
      1.07884575e-002 -1.56250000e-002 6.56630239e-003 0.
      4.19750763e-003 9.58732981e-003 0. -1.99999996e-002
      8.43254663e-003 -2.12765951e-002 0. 0. 0. 1.00061260e-002
      7.32976757e-003 0. 4.60145995e-003 0. 0. 0. -1.99999996e-002 0.
      2.22019851e-002 0. 8.72576423e-003 0. 0. 1.00020254e-002
      4.60145995e-003 -1.66666675e-002 -5.71428575e-002 4.30603884e-003
      -3.54560121e-004 0. 0. 0. 0. 1.59052406e-002 6.36919262e-003 0.
      3.13567626e-003 0. 0. 7.19324499e-003 0. 0. 7.13612977e-003
      -4.08163257e-002 -9.99797415e-003 4.19750763e-003 1.12299249e-003
      0. 4.30928543e-003 2.96899397e-003 4.80424846e-003 0.
      8.10514111e-003 0. 0. 0. 0. 0. 2.68744659e-002 4.30603884e-003 0.
      0. 7.91987497e-003 0. 0. 0. 0. 0. 0. 0. 0. 0. 3.74931376e-003
      -9.11036972e-003 0. 8.15901253e-003 -3.89610380e-002
      1.66953839e-002 0. 4.15561302e-003 0. 0. 7.13612977e-003
      5.60329389e-003 0. 0. 8.04890320e-003 0. 0. 0. 1.01850387e-002
      -4.07838123e-003 0. 0. -1.19010024e-002 0. 0. 0. 0. 0.
      8.49426165e-003 0. 0. 0. 0. 0. 0. 0. 0. 0. 5.35181165e-003 0. 0.
      1.01548256e-002 -1.92307699e-002 0. 4.12741769e-003
      3.53801786e-003 8.04890320e-003 -1.36986300e-002 0.
      9.17744450e-003 0. 0. 4.19750763e-003 0. 0. 5.06284973e-003
      4.30603884e-003 0. 1.12299249e-003 -6.88689798e-002 0. 0.
      3.86162568e-003 4.78744786e-003 0. 0. 3.32828437e-004
      1.00061260e-002 3.86162568e-003 0. 0. 4.71877167e-003 0. 0. 0.
      2.92169936e-002 3.97656066e-003 0. 5.35181165e-003 8.21912475e-003
      -1.99999996e-002 -3.99999991e-002 1.07884575e-002 7.91987497e-003
      0. 0. 0. -1.92307699e-002 8.21912475e-003 0. 4.71877167e-003 0.
      -1.47058824e-002 0. 3.71481711e-003 0. 0. 0. 0. 0. 6.99108792e-003
      0. 0. 0. 0. 1.00061260e-002 -2.12765951e-002 8.10514111e-003 0.
      1.01256995e-002 -1.28554422e-002 0. 0. 0. -1.92307699e-002
      -2.12765951e-002 -1.51515156e-002 -1.51515156e-002 1.04730418e-002
      -1.47058824e-002 0. -1.40845068e-002 -3.38983051e-002 0.
      1.00020254e-002 6.36919262e-003 0. 0. 0. -1.62851010e-002 0. 0. 0.
      -1.78571437e-002 0. 0. 1.06825745e-002 0. 6.99108792e-003 0. 0.
      -6.97733881e-003 -8.83997232e-003 0. 1.90059729e-002 0. 0. 0. 0.
      0. 0. 5.93724661e-003 0. 1.21656684e-002 0. 0. -1.36986300e-002 0.
      -1.85185187e-002 -1.75438598e-002 1.04730418e-002 0. 0.
      1.03907976e-002 0. 0. 3.74931376e-003 -9.61538497e-003
      -1.40845068e-002 0. 0. 0. 0. 0. 0. 8.72576423e-003 0. 0. 0. 0. 0.
      0. 0. 0. 0. 0. 0. 0. 0. -1.69491526e-002 4.94110957e-003 0.
      -2.12765951e-002 -1.69491526e-002 4.94110957e-003 -1.90220755e-002
      0. 0. 0. 0. 0. 0. 0. 0. 0. 0. 0. 0. -2.38095243e-002
      2.96899397e-003 5.08945342e-003 8.85120593e-003 0. 0.
      -2.12765951e-002 0. 5.35181165e-003 6.73449878e-003 0.
      -1.58730168e-002 0. 3.86162568e-003 5.32604847e-003
      -1.72413792e-002 0. 0. 0. -1.34336967e-002 0. 0. 0. 0. 0.
      2.35374295e-003 0. 0. 0. 0. 0. -1.53846154e-002 -2.27272734e-002
      0. 0. 0. -1.58730168e-002 0. 5.60329389e-003 0. 0. 8.38616863e-003
      0. 0. 3.71481711e-003 0. 0. -9.61538497e-003 7.53569091e-003
      5.42949792e-003 0. 3.71481711e-003 4.30603884e-003 0.
      9.55073815e-003 0. 7.27503281e-003 0. 0. -9.61538497e-003
      5.42813074e-003 0. -1.66666675e-002 0. 0. -1.42857144e-002
      3.74931376e-003 -2.27272734e-002 -2.81690136e-002 0.
      -1.47058824e-002 0. 0. 5.42813074e-003 0. -1.11163957e-002
      1.12299249e-003 0. 5.06284973e-003 4.78744786e-003 8.49426165e-003
      7.07603572e-003 0. 1.42891137e-002 4.87442967e-003 0.
      4.18727193e-003 0. 0. 1.00061260e-002 8.43416993e-003 0. 0. 0. 0.
      4.46184585e-003 0. 0. 5.99069847e-003 0. -1.42857144e-002 0.
      8.49426165e-003 0. 8.10514111e-003 4.80424846e-003 4.38290741e-003
      0. -4.75923866e-002 0. 1.59664936e-002 0. 8.43254663e-003 0. 0.
      -1.20481923e-002 8.43254663e-003 -2.43902430e-002 0.
      1.48889786e-002 0. 0. 0. 3.45758675e-003 0. 0. -1.99999996e-002
      1.24144265e-002 0. 9.20291990e-003 0. 0. 8.25483538e-003 0. 0.
      -2.49394495e-002 0. 0. 1.50713818e-002 0. 1.62096620e-002
      3.71481711e-003 0. 0. -1.51515156e-002 3.45758675e-003 0. 0. 0. 0.
      0. 0. 8.17707554e-003 0. 7.45061645e-003 0. 5.69157116e-003
      -1.99999996e-002 0. 0. 0. -1.51515156e-002 -1.96120162e-002 0. 0.
      1.54979210e-002 0. 0. 0. -1.58730168e-002 0. 7.90625531e-003 0. 0.
      4.18727193e-003 8.85120593e-003 0. 3.74931376e-003 1.24668395e-002
      0. 0. 1.04730418e-002 4.18727193e-003 0. 0. 0. 2.96899397e-003 0.
      5.42813074e-003 0. 0. 0. 8.15901253e-003 5.35181165e-003 0. 0.
      3.86162568e-003 0. 0. 1.67723373e-002 1.73051544e-002
      4.96832840e-003 -3.33333351e-002 3.45758675e-003 -3.38983051e-002
      7.19324499e-003 7.19324499e-003 3.45758675e-003 0. 4.15561302e-003
      3.97656066e-003 0. 0. -9.41346213e-003 4.19750763e-003
      -1.40845068e-002 4.88695269e-003 0. 0. 0. 0. 0. 0. 0. 0. 0. 0. 0.
      4.98608174e-003 5.32604847e-003 0. 1.57668926e-002 0.
      -1.40845068e-002 4.49919188e-003 0. 1.75778605e-002 0. 0.
      5.63893886e-003 0. 0. 0. 0. 8.30365159e-003 -4.25531901e-002 0.
      -6.43827254e-003 0. 0. 0. 0. 0. -1.78571437e-002 0.
      5.30642131e-003 5.67218475e-003 1.22292610e-002 8.77092499e-003 0.
      0. -1.53846154e-002 0. 0. -2.73972601e-002 0. 0. 0.
      5.42813074e-003 0. 1.36126084e-002 0. -1.47058824e-002 0. 0.
      5.17458096e-003 0. 1.18324626e-002 0. 0. 0. 0. 0. 0. 0. 0. 0. 0.
      5.17458096e-003 0. 0. 4.96832840e-003 0. 0. 0. 7.13612977e-003 0.
      0. 4.15561302e-003 0. 0. 9.02862009e-003 0. 0. 4.88695269e-003 0.
      7.14455685e-003 0. 0. -3.38983051e-002 0. -1.46066044e-002
      8.85120593e-003 0. -2.81690136e-002 -1.40845068e-002 0.
      1.04730418e-002 0. 0. 5.42295678e-003 1.03907976e-002 0.
      4.49919188e-003 1.41520714e-002 5.30642131e-003 0. 1.07373372e-002
      0. 0. 0. 0. 6.74264692e-003 -1.66666675e-002 0. 0. 0.
      9.83148534e-003 0. 1.04658147e-002 0. 3.45758675e-003 0.
      9.06088110e-003 0. 0. -1.66666675e-002 3.24497093e-003
      5.42813074e-003 0. -1.40845068e-002 0. 0. 0. 2.89619118e-002
      5.42813074e-003 1.01613300e-002 0. 1.79252867e-002
      -2.12765951e-002 0. 0. -2.56410260e-002 0. 4.38290741e-003
      1.08459136e-002 7.17442622e-003 0. 0. 0. 0. 4.30603884e-003
      -1.53846154e-002 -1.51515156e-002 0. 8.30365159e-003
      2.09181812e-002 0. 9.83148534e-003 5.42295678e-003
      -3.03030312e-002 -1.92307699e-002 0. 3.26360501e-002 0. 0. 0. 0.
      6.74264692e-003 6.36919262e-003 9.20291990e-003 8.38616863e-003
      4.19750763e-003 9.02862009e-003 0. 0. 1.01548256e-002 0.
      1.04730418e-002 0. 0. 8.38616863e-003 0. 4.87442967e-003
      1.03907976e-002 -2.81690136e-002 -3.38983051e-002 6.56630239e-003
      -3.41063701e-002 0. 0. 2.14746743e-002 -1.38888890e-002
      3.97656066e-003 0. 0. -1.40845068e-002 0. 0. 0. 1.60978064e-002
      1.03907976e-002 7.32976757e-003 8.78893025e-003 0. 0. 0. 0.
      6.74264692e-003 8.72576423e-003 0. -1.68564487e-002 0.
      1.00061260e-002 0. -3.91941406e-002 0. 4.30603884e-003
      8.13336670e-003 0. 0. 0. 0. 7.68929487e-003 0. 0. 0. 0.
      4.98608174e-003 0. 1.00020254e-002 0. 0. 4.12741769e-003 0.
      2.27286778e-002 -1.40845068e-002 0. 8.77092499e-003 0. 0.
      3.13567626e-003 0. 0. 0. 3.20133870e-003 0. 1.50713818e-002
      -3.11302692e-002 0. 0. 0. 0. 9.85293929e-003 0. 1.42891137e-002
      -2.38095243e-002 5.17458096e-003 0. 0. 3.20133870e-003
      3.95312766e-003 8.21912475e-003 3.53801786e-003 0. 3.88837187e-003
      0. 6.56630239e-003 0. -1.69491526e-002 0. 8.21912475e-003 0.
      -1.47058824e-002 -1.99999996e-002 -1.69491526e-002
      -1.99999996e-002 1.80655904e-002 0. -3.17745730e-002
      1.06140533e-002 0. 1.12299249e-003 0. 0. 0. 5.32604847e-003
      8.49426165e-003 -1.85185187e-002 5.06284973e-003 1.06679713e-002
      -1.47058824e-002 0. 9.77390539e-003 9.85293929e-003
      -1.40845068e-002 0. 1.31746298e-002 0. 4.88695269e-003 0.
      3.97656066e-003 1.07884575e-002 -1.40845068e-002 0.
      1.07017886e-002 0. 0. -1.57880876e-002 0. 9.83148534e-003 0. 0. 0.
      0. 0. 0. 0. -1.75438598e-002 0. 5.35181165e-003 0. 0.
      -4.22535203e-002 0. 1.57800186e-002 0. 0. 4.24011890e-003
      5.42813074e-003 3.20133870e-003 5.42813074e-003 0. 0. 0.
      3.74931376e-003 0. 8.77092499e-003 0. 0. 0. 7.91987497e-003
      -1.58730168e-002 -1.88914093e-003 0. 1.14941373e-002
      2.00122520e-002 -9.80459526e-003 4.12741769e-003 0.
      -1.12506803e-002 4.00252827e-003 0. 0. 0. 6.99108792e-003
      6.36919262e-003 0. 3.74931376e-003 0. 0. 0. -1.40845068e-002
      4.30603884e-003 -2.12765951e-002 3.95312766e-003 0.
      1.97058786e-002 0. 0. 0. 0. -5.14539005e-003 0. 0. 0. 0.
      -3.99999991e-002 0. 0. 0. 7.45061645e-003 -1.85185187e-002 0.
      1.00020254e-002 0. 3.74931376e-003 -1.32935233e-002
      -1.99687239e-002 0. 6.99108792e-003 0. 0. -3.22171487e-002 0.
      8.30365159e-003 0. -1.40845068e-002 9.20291990e-003
      2.15769149e-002 0. 0. 5.30642131e-003 0. 0. -1.40845068e-002
      5.06284973e-003 0. 0. 0. 0. 4.71877167e-003 7.07489764e-003 0. 0.
      0. 0. 0. 0. 0. 4.19750763e-003 0. 0. 6.99108792e-003 0. 0.
      3.88837187e-003 6.80630421e-003 0. 0. 0. 0. 1.13643389e-002 0.
      1.64382495e-002 -7.20725488e-003 0. 7.07489764e-003 0. 0. 0. 0.
      8.30365159e-003 0. 0. -1.20481923e-002 -5.78085566e-003 0.
      -1.58730168e-002 0. 7.51457829e-003 -4.35291277e-003 0.
      8.72576423e-003 0. 0. 8.85120593e-003 -1.51515156e-002
      5.30642131e-003 -4.28571440e-002 0. 0. -1.69491526e-002 0. 0.
      -9.41473618e-003 0. 3.74931376e-003 7.07603572e-003 0.
      5.35181165e-003 3.13567626e-003 3.86162568e-003 7.14455685e-003 0.
      -1.36986300e-002 0. -1.42857144e-002 0. 0. 0. 0. 0. 0.
      -3.01864278e-002 -2.56410260e-002 0. -1.75438598e-002 0.
      8.10514111e-003 0. 0. 0. 0. 5.06284973e-003 0. 0. -2.43902430e-002
      -4.25531901e-002 0. 0. 0. 0. 0. 0. 0. -1.99999996e-002 0. 0.
      4.78744786e-003 -5.62297413e-003 0. -2.65139490e-002 0.
      4.15561302e-003 -1.92307699e-002 0. 4.15561302e-003
      -1.53846154e-002 -1.33771468e-002 -5.25592566e-002 1.00020254e-002
      1.38181215e-002 5.08945342e-003 1.00061260e-002 5.08945342e-003 0.
      4.38290741e-003 6.99108792e-003 4.00252827e-003 0. 0.
      6.56630239e-003 1.12299249e-003 1.35558397e-002 0. 6.56630239e-003
      0. 0. 4.80424846e-003 0. -1.40845068e-002 0. 1.35558397e-002
      1.07884575e-002 -1.40845068e-002 9.58732981e-003 0.
      9.02862009e-003 1.01613300e-002 0. 1.31326048e-002
      -1.66758019e-002 4.96832840e-003 0. 0. -1.18895676e-002 0.
      8.30365159e-003 -4.27272730e-002 9.63642634e-003 0. 0. 0.
      9.60849691e-003 0. 4.46184585e-003 9.06439591e-003 0.
      -1.40845068e-002 4.71877167e-003 0. 0. 4.96832840e-003 0. 0.
      6.73449878e-003 0. 0. 1.13643389e-002 -9.04382393e-003 0. 0. 0.
      5.93724661e-003 8.17707554e-003 0. 0. -9.67558008e-003 0. 0.
      4.38290741e-003 8.31122603e-003 0. 0. 0. 0. 1.07373372e-002
      5.93798794e-003 -9.61538497e-003 0. 5.17458096e-003 0. 0.
      6.74264692e-003 0. 0. 0. 4.30928543e-003 3.71481711e-003 0. 0.
      4.96832840e-003 -1.40845068e-002 0. 0. 8.43416993e-003 0. 0. 0. 0.
      -1.42857144e-002 0. 6.99108792e-003 0. 0. 8.30365159e-003
      -1.92307699e-002 6.80630421e-003 0. 0. 8.49426165e-003
      4.49919188e-003 0. 1.34689976e-002 5.17458096e-003 0. 0. 0. 0.
      6.80630421e-003 0. 1.25417821e-002 0. 0. 0. 6.74264692e-003
      8.15901253e-003 7.45061645e-003 1.04730418e-002 0. 0.
      7.14455685e-003 1.27591696e-002 -1.92307699e-002 0.
      1.00020254e-002 7.13612977e-003 2.14746743e-002 0. 1.62667334e-002
      0. -1.72413792e-002 1.04730418e-002 0. 0. 1.34704197e-002 0.
      8.21912475e-003 0. 0. 0. -9.61538497e-003 -1.40845068e-002
      1.27591696e-002 0. 6.10973593e-003 0. 6.99108792e-003 0.
      -1.40845068e-002 3.86162568e-003 0. 0. 0. 0. 3.95312766e-003
      6.36919262e-003 -1.40845068e-002 3.45758675e-003 0.
      6.56630239e-003 0. 0. 0. -1.51515156e-002 0. 0. 0. 3.88837187e-003
      1.04730418e-002 0. -1.20481923e-002 5.69157116e-003
      -1.92307699e-002 0. 0. 0. -1.69491526e-002 0. -1.92307699e-002 0.
      0. 0. 0. 0. 0. 5.35181165e-003 0. 0. 0. 0. 0. 0. 0. 0. 0.
      4.49919188e-003 3.97656066e-003 0. 0. 8.30365159e-003 0.
      9.58732981e-003 0. 6.99108792e-003 0. 0. 0. 8.43254663e-003 0.
      -2.12765951e-002 0. 0. 0. 5.06284973e-003 -1.40845068e-002
      1.60554349e-002 8.10483098e-003 0. 1.35558397e-002 6.56630239e-003
      0. -1.85185187e-002 -3.01221129e-003 1.00020254e-002 0.
      -5.36130555e-002 0. 0. 0. 0. 1.13643389e-002 0. 0.
      -1.99999996e-002 -1.20481923e-002 8.77092499e-003 9.55073815e-003
      2.09732633e-002 3.74931376e-003 0. 1.38372872e-002 0. 0.
      8.86234082e-003 0. 7.14455685e-003 0. 4.78744786e-003
      -1.72413792e-002 0. 0. 3.20133870e-003 0. 8.61857086e-003
      -1.40845068e-002 0. 3.13567626e-003 0. 0. 9.77390539e-003 0.
      8.15901253e-003 0. 9.55073815e-003 -9.61538497e-003 0.
      1.59940906e-002 3.97656066e-003 0. 0. 0. 0. 2.96899397e-003
      -1.92307699e-002 0. 0. 4.94110957e-003 0. 0. 0. 8.15901253e-003
      8.13336670e-003 -2.21001310e-003 0. 5.63893886e-003 0.
      5.30642131e-003 0. 0. -1.66666675e-002 0. 8.43254663e-003 0.
      2.96899397e-003 0. 0. 2.96899397e-003 8.15901253e-003 0.
      8.77092499e-003 7.13612977e-003 0. 0. 4.00252827e-003 0.
      -1.85185187e-002 0. 0. 0. 5.42949792e-003 8.43254663e-003 0.
      1.86581183e-002 5.09251934e-003 0. 0. 0. 1.00061260e-002
      7.32976757e-003 0. 0. 0. 0. 1.35558397e-002 0. 6.73449878e-003 0.
      0. 0. 5.08945342e-003 0. -8.84685386e-003 0. -1.85185187e-002 0.
      -1.99999996e-002 -2.43902430e-002 0. 0. 0. 0. 0. 1.04730418e-002
      5.99069847e-003 0. 8.49426165e-003 0. 0. 8.17707554e-003
      -1.31714540e-002 -1.40845068e-002 3.71481711e-003 0. 0. 0.
      4.60145995e-003 0. 9.55073815e-003 0. 0. 0. 1.01548256e-002 0.
      1.07373372e-002 6.56630239e-003 0. -1.20481923e-002
      4.30603884e-003 0. 0. 0. 6.99108792e-003 2.96899397e-003
      -1.53846154e-002 -1.53846154e-002 0. 0. 0. 8.78893025e-003 0.
      5.63893886e-003 -1.66666675e-002 0. 1.88626349e-002
      -1.42857144e-002 0. -2.44709942e-002 -1.38888890e-002
      4.19750763e-003 8.77092499e-003 0. 0. 0. 1.64382495e-002 0. 0.
      -1.99999996e-002 1.13643389e-002 0. 4.30603884e-003
      -5.86538203e-003 5.06284973e-003 6.73449878e-003 3.88837187e-003
      1.12299249e-003 0. 0. 3.71481711e-003 6.74264692e-003
      1.00061260e-002 -1.56250000e-002 3.53801786e-003 0.
      2.03096513e-002 0. 0. 2.42911391e-002 0. 0. 0. -1.20481923e-002 0.
      0. -1.72413792e-002 0. 9.85293929e-003 1.08562615e-002
      3.45758675e-003 0. 0. 1.60978064e-002 4.30603884e-003
      5.63893886e-003 4.98608174e-003 8.10514111e-003 0. 0. 0.
      3.97656066e-003 0. -1.53846154e-002 1.73480697e-002 0. 0. 0. 0. 0.
      1.07373372e-002 0. -1.51515156e-002 8.30365159e-003 0. 0.
      -3.38983051e-002 -9.61538497e-003 0. 5.67218475e-003 0. 0. 0. 0.
      1.01548256e-002 0. -1.40845068e-002 -1.09713795e-002 0.
      3.74931376e-003 1.46595351e-002 0. 0. 0. 0. 9.55073815e-003 0. 0.
      -1.47058824e-002 6.73449878e-003 5.69157116e-003 0.
      -1.99999996e-002 -9.61642899e-003 -1.99999996e-002 1.12778777e-002
      -1.40845068e-002 0. 8.04890320e-003 0. 0. 8.43254663e-003 0. 0. 0.
      8.85120593e-003 0. 4.12741769e-003 0. 2.09460836e-002
      5.35181165e-003 3.53801786e-003 -1.40845068e-002 4.60145995e-003
      4.18727193e-003 0. 0. 4.18727193e-003 0. 0. 0. 0. 0. 0. 0.
      -1.66666675e-002 9.83148534e-003 4.46184585e-003 -1.99999996e-002
      6.10973593e-003 2.96899397e-003 0. -8.83997232e-003 0.
      1.12299249e-003 -6.70754211e-003 0. -9.10968985e-003 0.
      -2.12765951e-002 0. -1.20481923e-002 0. 4.96832840e-003 0.
      9.55073815e-003 5.35181165e-003 0. 3.45758675e-003 1.00020254e-002
      5.30642131e-003 -9.87425447e-003 0. 1.01548256e-002 0.
      5.17458096e-003 1.68650933e-002 2.55566686e-002 0. 8.85120593e-003
      -1.20481923e-002 0. -1.85185187e-002 1.08562615e-002 0.
      8.77092499e-003 3.45758675e-003 0. 1.00061260e-002 0. 0. 0.
      -6.12114603e-003 0. 0. 0. 0. 3.20133870e-003 0. 0. 0. 0. 0. 0.
      1.04730418e-002 0. 0. 0. -3.60814631e-002 6.56630239e-003 0. 0. 0.
      0. 0. 0. 0. 0. 0. 8.21912475e-003 0. 0. 0. 5.42813074e-003
      1.27591696e-002 0. 0. 8.72576423e-003 5.09251934e-003 0. 0.
      8.10483098e-003 0. 9.85293929e-003 8.85120593e-003 0.
      9.13777389e-003 -1.40845068e-002 0. 0. 0. 0. 0. -1.69491526e-002
      1.79245882e-002 0. 0. 0. 0. 0. 5.42813074e-003 -1.20563442e-002
      -1.99999996e-002 0. 9.85293929e-003 0. 3.45758675e-003 0. 0.
      1.12638921e-002 0. 0. 8.86234082e-003 0. 2.96899397e-003 0.
      -1.78571437e-002 0. 6.73449878e-003 8.10483098e-003 0.
      1.27591696e-002 1.00061260e-002 0. 0. 0. 0. 0. 4.71877167e-003 0.
      0. 0. 0. -1.72413792e-002 1.12479413e-002 0. 4.49919188e-003
      1.11009926e-002 0. 0. 0. 1.27591696e-002 1.07884575e-002
      4.60145995e-003 -1.75438598e-002 0. 8.43254663e-003
      6.99108792e-003 4.00252827e-003 -4.35858518e-002 0. 0.
      -1.51515156e-002 9.55073815e-003 1.11009926e-002 0.
      3.13567626e-003 0. -1.40845068e-002 0. 0. 0. 7.03357742e-004
      6.56630239e-003 0. 0. -5.37426351e-003 0. 0. -1.20481923e-002
      1.86208095e-002 8.38999078e-003 0. -1.23349987e-002 0. 0. 0.
      -3.44827585e-002 0. 1.12299249e-003 7.13612977e-003
      -1.69491526e-002 5.67218475e-003 5.42949792e-003 0. 0. 0. 0. 0.
      4.38290741e-003 8.21912475e-003 0. 4.96832840e-003 0. 0. 0. 0.
      4.30603884e-003 0. 1.07373372e-002 0. 0. 0. -9.61538497e-003 0. 0.
      0. 0. 6.73449878e-003 0. 0. -1.20481923e-002 0. -2.94372290e-002
      -2.12765951e-002 0. 0. 0. 8.72576423e-003 0. 8.49426165e-003
      8.10514111e-003 0. 0. 0. 0. 0. 0. 0. 5.93724661e-003 0.
      3.45758675e-003 0. -1.78571437e-002 4.30928543e-003
      4.49919188e-003 3.53801786e-003 4.15561302e-003 -1.69491526e-002
      0. 0. 0. -1.51515156e-002 0. 8.30365159e-003 0. 1.07884575e-002 0.
      0. 5.67218475e-003 0. 0. 8.38616863e-003 7.91987497e-003
      1.27591696e-002 0. 0. 7.53569091e-003 1.00069912e-002 0. 0. 0.
      8.30365159e-003 -1.36986300e-002 9.85293929e-003 0. 0.
      1.68650933e-002 8.04890320e-003 0. 2.96899397e-003 0. 0.
      4.12741769e-003 7.72325136e-003 0. 0. 0. 9.58732981e-003
      -1.75438598e-002 0. 0. -1.69491526e-002 0. 0. 0. 6.36919262e-003
      -1.40845068e-002 0. 7.14455685e-003 0. -2.77777780e-002 0. 0.
      -8.82420037e-003 0. 8.49426165e-003 0. 0. 0. 8.38616863e-003 0.
      -2.12765951e-002 0. 8.30365159e-003 1.69265065e-002 0. 0.
      9.83148534e-003 0. 3.97656066e-003 0. 0. -4.25531901e-002
      6.73449878e-003 0. 0. 0. 0. 0. 0. 4.88695269e-003 0. 0.
      7.13612977e-003 0. 0. -1.56250000e-002 0. 0. 0. 0. 0. 0. 0. 0.
      6.56630239e-003 -1.58730168e-002 5.09251934e-003 0.
      8.38616863e-003 3.88837187e-003 0. 6.56630239e-003 0. 0.
      1.04730418e-002 0. -2.21245475e-002 0. 8.43254663e-003 0. 0. 0. 0.
      0. 0. 0. 8.13336670e-003 -1.51515156e-002 3.88837187e-003 0.
      9.58732981e-003 5.30642131e-003 0. 0. 0. 0. 3.53801786e-003 0. 0.
      0. 0. 7.07489764e-003 0. 0. 4.30603884e-003 0. -1.75438598e-002
      1.65451802e-002 0. -1.40845068e-002 0. -2.12765951e-002
      -1.15274312e-002 5.35181165e-003 0. 0. 3.53801786e-003 0. 0. 0. 0.
      0. 0. 0. 0. 0. 7.45061645e-003 0. 0. 0. 0. 0. 0. 0. 0.
      4.00252827e-003 0. 0. 0. 0. 0. 0. 4.71877167e-003 0.
      4.12741769e-003 1.00061260e-002 0. 0. 6.99108792e-003 0.
      5.93724661e-003 4.96832840e-003 0. 0. 0. 0. 0. -1.42857144e-002
      -1.99999996e-002 0. 4.60145995e-003 7.13612977e-003
      -2.27272734e-002 0. 0. -1.69491526e-002 0. 0. 0. 0. 0.
      1.03907976e-002 0. -3.84615399e-002 1.27591696e-002 0.
      5.60329389e-003 3.53801786e-003 0. 0. 0. -2.63157897e-002 0. 0. 0.
      -1.53846154e-002 0. 1.00061260e-002 0. 3.97656066e-003
      4.30603884e-003 0. 0. 0. 0. 0. 8.10483098e-003 0. 7.17442622e-003
      -1.38888890e-002 8.38616863e-003 0. 0. 4.19750763e-003
      8.86234082e-003 0. 0. 4.60145995e-003 0. 0. 5.32604847e-003 0. 0.
      0. 0. 0. 0. 0. 4.30928543e-003 0. -9.61538497e-003
      -1.53846154e-002 0. -7.99312163e-003 0. 1.03491619e-002
      5.69157116e-003 0. 0. 8.86234082e-003 -4.18725424e-003 0.
      -1.30071007e-002 8.85120593e-003 0. 0. 0. 0. 5.09251934e-003
      -7.01067643e-003 0. 4.30928543e-003 -1.42857144e-002
      6.56630239e-003 0. -1.20481923e-002 0. 8.38999078e-003
      4.15561302e-003 -1.40845068e-002 -9.61538497e-003 2.96899397e-003
      -1.40845068e-002 8.86234082e-003 -2.38095243e-002 1.07884575e-002
      6.27135253e-003 4.10492346e-002 1.00061260e-002 0.
      -9.20906477e-003 0. 3.83493192e-002 4.87442967e-003 0. 0. 0. 0.
      8.85120593e-003 0. -1.53846154e-002 0. 0. 1.72056947e-002 0.
      4.96832840e-003 0. 0. -2.43902430e-002 0. 4.68148896e-003
      1.00020254e-002 0. 0. 0. 0. 0. 0. 0. 0. 1.77246816e-002 0.
      8.85120593e-003 0. 0. 8.86234082e-003 -1.40845068e-002
      4.87442967e-003 5.42813074e-003 5.30642131e-003 -3.43264616e-003
      0. 4.15561302e-003 5.42813074e-003 0. 8.86234082e-003 0.
      1.00020254e-002 0. 0. 8.38999078e-003 8.30365159e-003 0.
      -1.69491526e-002 0. 9.55073815e-003 0. 0. 0. 8.43416993e-003 0.
      4.49919188e-003 0. 8.17707554e-003 0. 0. 0. 5.67218475e-003 0.
      5.67218475e-003 1.00061260e-002 0. 0. 6.10973593e-003 0.
      4.87442967e-003 0. 0. 0. 8.43416993e-003 -1.56250000e-002 0.
      8.86234082e-003 4.60145995e-003 0. 8.43416993e-003 0.
      -2.56736372e-002 0. 0. 0. -2.12765951e-002 0. 3.71481711e-003 0.
      6.56630239e-003 0. -9.49826650e-003 0. 0. 1.01613300e-002
      -1.47058824e-002 0. 5.99069847e-003 4.71877167e-003 0.
      8.38616863e-003 1.12299249e-003 3.53801786e-003 0. 0.
      -1.21920481e-002 0. 4.46184585e-003 0. 6.99108792e-003 0. 0.
      -1.92307699e-002 0. 0. 0. 0. 0. -1.58730168e-002 0.
      8.10514111e-003 0. 0. 0. 1.19722644e-002 1.63180251e-002 0. 0.
      -4.59682271e-002 0. 0. 0. 0. 5.93724661e-003 0. 0. 0. 0. 0.
      1.82455499e-002 0. 8.38616863e-003 0. 0. 0. -4.68750000e-002 0.
      1.75778605e-002 0. -1.85185187e-002 3.23887728e-002
      -1.92307699e-002 0. -1.92307699e-002 0. 6.40267739e-003 0. 0. 0.
      8.78893025e-003 0. 1.06520969e-002 0. 6.73449878e-003 0. 0. 0. 0.
      0. 0. 1.67799816e-002 0. 1.82596557e-002 1.63541511e-002 0. 0. 0.
      0. 4.98608174e-003 1.35558397e-002 4.12741769e-003 0.
      3.86162568e-003 0. 0. 0. 8.38616863e-003 9.97947250e-003
      3.88837187e-003 3.88837187e-003 0. 7.45061645e-003 0. 0. 0. 0.
      -2.43902430e-002 0. -1.58730168e-002 0. 0. 8.43416993e-003
      8.86234082e-003 9.83148534e-003 0. 3.74931376e-003 7.14455685e-003
      7.14455685e-003 5.60329389e-003 8.78893025e-003 0.
      -1.85185187e-002 0. -1.02260942e-002 4.46184585e-003
      4.30928543e-003 0. 0. 8.10514111e-003 1.27591696e-002
      6.10973593e-003 4.98608174e-003 0. 8.21912475e-003 2.24598497e-003
      0. -3.76600660e-002 0. 0. 7.42963422e-003 0. 0. 1.68312024e-002 0.
      0. 2.96899397e-003 0. 0. 0. 8.00505653e-003 5.60329389e-003 0.
      5.42813074e-003 1.39423031e-002 -1.72413792e-002 6.73449878e-003
      0. 7.19324499e-003 8.21912475e-003 0. 0. 7.91987497e-003
      1.13643389e-002 8.43416993e-003 9.85293929e-003 0. 0.
      4.68148896e-003 0. 0. -2.81690136e-002 0. -2.40963846e-002 0. 0.
      4.19750763e-003 6.74264692e-003 9.02862009e-003 0. 0.
      4.38290741e-003 0. -1.56250000e-002 1.00061260e-002 0. 0. 0. 0.
      6.56630239e-003 0. 0. 0. -1.47058824e-002 1.07884575e-002 0. 0.
      4.80424846e-003 0. 5.60329389e-003 9.02862009e-003 0. 0.
      4.49919188e-003 0. -1.07683400e-002 0. -9.61538497e-003
      1.00061260e-002 -1.20481923e-002 0. -3.21963988e-002
      3.20133870e-003 5.69157116e-003 0. 0. 5.67218475e-003
      -1.69491526e-002 0. 0. 0. 0. 0. 0. 0. 0. 0. 0. 1.07912244e-002 0.
      0. 0. 0. -3.24097686e-002 -1.58730168e-002 -1.46739511e-002 0. 0.
      0. 8.49426165e-003 0. 1.31326048e-002 1.79955158e-002
      -9.61538497e-003 1.01613300e-002 5.08945342e-003 0.
      4.19750763e-003 0. -2.27272734e-002 -1.58730168e-002
      3.20133870e-003 9.85293929e-003 5.42949792e-003 -2.27272734e-002
      1.07373372e-002 0. 4.71877167e-003 0. 7.17442622e-003
      6.74264692e-003 0. 7.90625531e-003 0. 7.13612977e-003
      6.80630421e-003 -1.36986300e-002 0. -3.45042869e-002
      4.60145995e-003 0. 0. 0. 0. 0. 0. 0. 0. -1.72413792e-002 0. 0. 0.
      0. 1.01548256e-002 -5.78405801e-003 7.91987497e-003 0. 0. 0.
      6.56630239e-003 8.85120593e-003 1.24621782e-002 0. 0. 0. 0.
      -1.40845068e-002 9.55073815e-003 0. 1.03907976e-002 0.
      8.21912475e-003 0. 2.96899397e-003 0. 0. 0. 0. 0. 0.
      -9.61538497e-003 0. 0. 9.83148534e-003 -8.73030163e-003 0. 0. 0.
      0. 0. 4.71877167e-003 0. -1.99999996e-002 2.08856072e-002 0. 0. 0.
      0. -1.42857144e-002 0. 0. -1.69491526e-002 0. 0. 4.30603884e-003
      -6.13058638e-003 0. 2.14746743e-002 4.71877167e-003
      6.74264692e-003 0. 4.80424846e-003 -9.61538497e-003 0.
      3.86162568e-003 0. -6.53340993e-003 0. -1.97077496e-003
      -6.23260811e-002 1.13643389e-002 -1.38888890e-002 0.
      -1.58730168e-002 0. 1.04730418e-002 1.39821758e-002 0.
      4.30928543e-003 0. 0. 0. 0. 5.67218475e-003 0. -1.78571437e-002
      -9.34460480e-003 -1.69491526e-002 5.42813074e-003 -2.87977513e-002
      0. 0. -1.20481923e-002 0. 0. 6.56630239e-003 0. 1.07884575e-002
      5.63893886e-003 2.16609817e-002 8.86234082e-003 3.45758675e-003 0.
      0. 0. 0. 0. 3.88837187e-003 0. 4.87442967e-003 0. 0.
      1.11009926e-002 1.75778605e-002 6.99108792e-003 0.
      -1.78571437e-002 0. 0. 0. -1.36986300e-002 8.17707554e-003
      4.80424846e-003 -4.75923866e-002 0. 8.78893025e-003
      5.60329389e-003 0. 1.07884575e-002 3.45758675e-003
      -3.51654850e-002 0. 8.77092499e-003 8.17707554e-003
      3.71481711e-003 0. 8.10483098e-003 0. 0. 0. 1.81155782e-002 0.
      5.35181165e-003 8.86234082e-003 1.66936424e-002 0. 0.
      3.97656066e-003 5.09251934e-003 6.36919262e-003 -2.12765951e-002
      0. 0. -9.61538497e-003 8.86234082e-003 8.17707554e-003
      5.69157116e-003 0. 4.49919188e-003 0. 0. 0. 0. 0. -1.40845068e-002
      1.04730418e-002 0. 7.91987497e-003 0. 0. -3.12500000e-002
      -1.38888890e-002 3.45758675e-003 0. 0. 7.45061645e-003
      8.37454386e-003 -1.56250000e-002 1.46705499e-002 6.56630239e-003
      0. 1.00755356e-002 8.49426165e-003 0. 0. 0. 0. 0. 4.49919188e-003
      0. 0. 6.40267739e-003 4.46184585e-003 0. 8.86234082e-003 0. 0. 0.
      0. 8.43254663e-003 5.42949792e-003 0. 0. 0. -1.92307699e-002 0. 0.
      0. 8.38616863e-003 0. 1.01613300e-002 0. 0. 8.43254663e-003 0.
      9.69397929e-003 0. 4.68148896e-003 6.56630239e-003 0. 0. 0.
      -8.27049930e-003 0. -2.32378412e-002 -1.92307699e-002 0.
      9.83148534e-003 0. -1.50751565e-002 0. 4.46184585e-003
      -2.43902430e-002 3.97656066e-003 0. 0. 0. 0. 4.96832840e-003 0. 0.
      0. 0. -1.20481923e-002 0. -9.24020819e-003 -1.92307699e-002 0. 0.
      0. 0. 0. 0. 0. 1.13643389e-002 0. 0. 1.03907976e-002 0. 0.
      -1.36986300e-002 0. 0. -1.92307699e-002 -1.40845068e-002
      -4.25531901e-002 0. 0. 0. 0. 0. 0. 8.85120593e-003 3.97656066e-003
      -1.69491526e-002 0. 0. 8.13336670e-003 0. 0. 0. 0. 0. 0.
      4.30928543e-003 4.18727193e-003 0. 0. 0. 3.20133870e-003
      -1.20481923e-002 0. 3.20133870e-003 3.86162568e-003 0.
      5.63893886e-003 -1.40845068e-002 1.07373372e-002 -1.36986300e-002
      0. 0. 4.78744786e-003 0. 5.42813074e-003 0. 0. -1.40845068e-002
      1.00061260e-002 8.86234082e-003 0. 0. 0. 0. 0. 4.30603884e-003 0.
      0. 8.49426165e-003 -3.12500000e-002 4.87442967e-003
      1.00020254e-002 1.08562615e-002 0. -2.12765951e-002
      1.71420779e-002 1.38567770e-002 0. 0. 0. 0. 0. -2.94117648e-002 0.
      5.60329389e-003 0. 4.98608174e-003 0. 0. 1.12299249e-003 0. 0.
      4.18727193e-003 0. 0. 8.78893025e-003 0. 9.55073815e-003
      -1.69491526e-002 0. 3.97656066e-003 3.53801786e-003
      5.42949792e-003 0. 0. -1.69491526e-002 1.18744932e-002
      8.10514111e-003 5.08945342e-003 0. -1.42857144e-002
      1.04730418e-002 0. 5.02694352e-003 -1.85185187e-002
      3.88837187e-003 -3.84277590e-002 8.04890320e-003 0. 0. 0. 0.
      1.50533365e-002 0. -1.45492814e-002 0. -2.12765951e-002 0. 0.
      5.93724661e-003 8.77092499e-003 9.58732981e-003 0. 0. 0. 0.
      -1.56250000e-002 0. 7.91987497e-003 0. 0. -1.85185187e-002 0.
      1.13643389e-002 1.00061260e-002 0. -1.40845068e-002 0.
      3.95312766e-003 0. 0. 0. 0. 1.34569528e-002 4.87442967e-003
      1.01613300e-002 1.16756139e-002 4.49919188e-003 0. 0. 0.
      3.97656066e-003 0. 0. 8.10483098e-003 0. 0. 8.38616863e-003 0.
      1.07884575e-002 0. 0. -1.85185187e-002 0. 3.54204187e-003 0. 0.
      -4.34051119e-002 0. 0. 0. 4.38290741e-003 1.04443310e-002
      3.53801786e-003 5.69157116e-003 1.01613300e-002 0. 0.
      4.15561302e-003 0. 0. 4.88695269e-003 -1.75438598e-002
      4.30603884e-003 7.14455685e-003 0. 4.19750763e-003 4.98608174e-003
      0. 2.38931496e-002 1.07373372e-002 8.86234082e-003 4.30603884e-003
      0. 7.91987497e-003 0. 0. 5.17458096e-003 0. 0. -1.47058824e-002
      -2.38095243e-002 -1.69491526e-002 -1.75438598e-002
      -1.72413792e-002 0. 0. 0. 0. 0. 0. 0. 0. 0. 1.12299249e-003 0.
      -2.27272734e-002 9.88221914e-003 -1.85185187e-002 0.
      1.01548256e-002 -8.81578587e-003 -1.42984269e-002 -1.10116452e-002
      0. 0. -1.58730168e-002 4.19750763e-003 0. 0. 4.18727193e-003 0.
      4.19750763e-003 0. 0. 9.83148534e-003 0. 0. 1.00020254e-002
      6.56630239e-003 1.00061260e-002 0. 0. 0. 0. 0. 0. 4.00252827e-003
      -9.61538497e-003 0. -1.40845068e-002 1.07373372e-002 0. 0.
      4.00252827e-003 -1.92307699e-002 0. 0. 0. 0. 0. 0. 0.
      -1.38888890e-002 0. 0. 0. 0. -9.61538497e-003 0. -2.12765951e-002
      0. 9.02862009e-003 0. 0. 0. 0. 7.53569091e-003 0. -3.34168747e-002
      0. 3.13567626e-003 0. 0. 6.74264692e-003 6.80630421e-003 0.
      -1.53846154e-002 0. -1.69491526e-002 5.99069847e-003
      -1.20481923e-002 0. 6.99108792e-003 0. 0. 1.01548256e-002
      8.21912475e-003 0. 0. 0. 0. 0. -1.19822482e-002 4.98608174e-003
      8.13336670e-003 0. 4.96832840e-003 1.00020254e-002 8.43416993e-003
      -1.40845068e-002 0. -2.12765951e-002 0. 6.99108792e-003
      -2.27272734e-002 0. 4.94110957e-003 0. 5.08945342e-003 0.
      -1.92307699e-002 0. 3.45758675e-003 0. 0. 0. -1.58730168e-002 0.
      0. 0. 5.63893886e-003 -2.12765951e-002 0. 9.24929418e-003 0. 0.
      3.45758675e-003 0. 8.15901253e-003 4.78744786e-003 0. 0. 0. 0. 0.
      0. 3.88837187e-003 0. 0. 0. 0. 8.86234082e-003 8.10514111e-003 0.
      0. 0. 0. 0. -5.51478891e-003 0. -8.77808500e-003 -1.96726359e-002
      7.53569091e-003 1.03907976e-002 -1.75438598e-002 8.21912475e-003
      0. 1.31976604e-002 3.71481711e-003 0. 0. 0. 0. -5.26672006e-002 0.
      2.12558191e-002 8.04890320e-003 0. 0. 0. 0. 0. 0. 8.38616863e-003
      1.12299249e-003 0. 0. 0. 0. 0. 0. 4.30603884e-003 0. 0.
      3.88837187e-003 -1.40845068e-002 0. 0. 0. 0. -1.47058824e-002 0.
      0. 0. 1.03907976e-002 5.30642131e-003 8.30365159e-003 0.
      -1.69491526e-002 -1.40845068e-002 0. 6.73449878e-003 0.
      4.00252827e-003 5.93724661e-003 0. 0. 4.00252827e-003 0. 0.
      5.30642131e-003 0. 0. 0. 8.15901253e-003 -1.69491526e-002
      2.04976294e-002 0. 0. 0. 0. -5.71181392e-003 0. 1.27591696e-002
      1.00020254e-002 0. 5.09251934e-003 1.12299249e-003 0. 0.
      2.24598497e-003 0. 8.10514111e-003 1.58397499e-002 9.02862009e-003
      7.17442622e-003 8.43416993e-003 -9.61538497e-003 0.
      -1.42857144e-002 0. 0. 0. 4.49919188e-003 0. 4.49919188e-003 0. 0.
      0. -8.33337568e-003 4.15561302e-003 4.96832840e-003
      -1.56250000e-002 6.56630239e-003 -1.23364758e-002 0. 0.
      1.27591696e-002 -1.56250000e-002 1.00020254e-002 0. 0. 0. 0.
      4.00252827e-003 -3.80975730e-003 0. -1.47058824e-002
      -9.75231268e-003 -1.72413792e-002 9.55073815e-003 -2.81690136e-002
      0. 0. 0. 4.94110957e-003 0. 0. 5.60329389e-003 0. 6.56630239e-003
      4.15561302e-003 0. 0. 0. 0. 7.61093944e-003 0. 0. 9.02862009e-003
      1.27591696e-002 6.73449878e-003 -9.78336018e-003 0. 0. 0.
      9.85293929e-003 4.30928543e-003 4.88695269e-003 0. 1.80572402e-002
      0. 4.96832840e-003 0. 0. 1.00786015e-002 0. 0. 0. 0.
      4.38290741e-003 0. 3.86162568e-003 0. 0. 1.07884575e-002 0.
      -1.25647392e-002 1.12299249e-003 0. 3.17701660e-002
      -3.12500000e-002 5.42949792e-003 0. 1.07884575e-002
      9.70485341e-003 0. 0. 0. 0. 0. 0. -1.85185187e-002 0. 0.
      -1.69491526e-002 -2.65645385e-002 6.10973593e-003 0. 0.
      -7.09341886e-003 -5.12820520e-002 0. 0. 0. 4.87442967e-003
      2.80211400e-003 0. 5.09251934e-003 -2.35516597e-002
      5.35181165e-003 5.30642131e-003 0. 7.07603572e-003 0. 0.
      -1.51515156e-002 0. 8.85120593e-003 4.18727193e-003 0. 0.
      5.42295678e-003 4.30603884e-003 0. 6.73449878e-003
      -2.43902430e-002 8.15901253e-003 9.83148534e-003 8.15901253e-003
      4.30603884e-003 0. 0. 0. -2.27272734e-002 0. 0. 3.95312766e-003
      5.30642131e-003 3.53801786e-003 3.13567626e-003 0. 0.
      7.14455685e-003 3.45758675e-003 0. 0. 0. 1.07884575e-002
      -1.85185187e-002 3.53801786e-003 7.32976757e-003 0. 0. 0.
      8.13336670e-003 0. 0. 0. 5.09251934e-003 0. 8.10514111e-003
      4.30603884e-003 0. 0. 5.67218475e-003 0. 0. 0. 0. 0. 0. 0. 0.
      3.13567626e-003 0. 8.85120593e-003 7.17442622e-003 0.
      8.04890320e-003 0. 0. -1.42857144e-002 0. 9.36297793e-003 0. 0. 0.
      8.17707554e-003 0. 4.98608174e-003 0. 1.07884575e-002 0. 0. 0.
      1.03907976e-002 0. 0. 0. 1.51136527e-002 0. 4.60145995e-003 0. 0.
      0. 0. 1.00061260e-002 0. 0. 2.32488308e-002 7.14455685e-003
      -1.42857144e-002 0. 5.60329389e-003 -1.42857144e-002
      -1.17922379e-002 0. 0. 4.18727193e-003 -2.56410260e-002 0.
      -1.66666675e-002 0. 0. -2.27272734e-002 0. -1.38888890e-002 0. 0.
      0. 0. 8.17707554e-003 0. 5.32604847e-003 0. 0. 4.18727193e-003 0.
      0. 8.38616863e-003 5.42813074e-003 0. 1.70005322e-003 0. 0.
      1.67799816e-002 0. 1.04730418e-002 1.04730418e-002 0. 0. 0.
      1.07036233e-002 1.12065878e-002 0. 0. -1.75438598e-002 0. 0. 0.
      4.60145995e-003 0. -1.78571437e-002 0. 1.98376104e-002
      4.00252827e-003 0. 0. 0. 0. 0. 0. 0. 0. 7.14455685e-003
      8.21912475e-003 0. 6.56630239e-003 0. 1.13643389e-002 0. 0. 0.
      8.04890320e-003 0. 0. 0. 1.13643389e-002 0. 0. -1.20481923e-002 0.
      0. 0. 0. 5.63893886e-003 8.85120593e-003 0. 9.58732981e-003 0. 0.
      0. 0. 0. 3.95312766e-003 -1.53846154e-002 0. 0. 4.00252827e-003 0.
      0. 6.74264692e-003 0. 4.71877167e-003 8.77092499e-003 0.
      6.73449878e-003 0. 0. 0. 0. 0. 8.38616863e-003 7.53569091e-003 0.
      0. 0. 0. 0. 0. 0. -1.53846154e-002 0. 0. 0. 0. 2.96899397e-003
      8.38616863e-003 0. 5.42813074e-003 0. 0. -1.38888890e-002 0.
      4.00252827e-003 0. 0. 4.30603884e-003 0. 8.00505653e-003
      8.21912475e-003 5.42295678e-003 0. 0. 0. 0. 0. 8.61857086e-003 0.
      0. 0. 0. 3.45758675e-003 0. 0. 1.30620515e-002 0. 0. 0.
      -2.81690136e-002 -2.38095243e-002 4.30928543e-003 0.
      9.58732981e-003 0. 0. 0. 0. -1.36986300e-002 8.38999078e-003 0. 0.
      8.17707554e-003 0. 2.30393205e-002 0. 8.43254663e-003 0.
      4.96832840e-003 -1.42857144e-002 9.83148534e-003 0.
      4.46184585e-003 0. 6.36919262e-003 -9.61538497e-003 0. 0. 0.
      4.98608174e-003 -3.84615399e-002 0. 0. -3.27217057e-002 0.
      9.85293929e-003 -3.77492905e-002 0. 5.08945342e-003
      8.13336670e-003 -1.40845068e-002 0. 0. -1.78571437e-002 0.
      4.30603884e-003 0. 0. 0. 0. 0. 8.10514111e-003 6.74264692e-003 0.
      0. 0. -1.40845068e-002 5.42813074e-003 0. 5.30642131e-003 0.
      -1.64797567e-002 0. 0. 0. 4.78744786e-003 3.20133870e-003
      8.86234082e-003 0. 0. 0. 0. -1.36986300e-002 -1.38888890e-002 0.
      0. 0. 3.86162568e-003 0. 5.99069847e-003 9.55073815e-003
      5.35181165e-003 9.02862009e-003 0. 1.07373372e-002 6.99108792e-003
      1.38194887e-002 0. 8.17707554e-003 0. 7.91987497e-003 0.
      1.01613300e-002 0. -2.43902430e-002 7.91987497e-003
      -1.92307699e-002 0. 1.12299249e-003 0. 4.00252827e-003
      1.07884575e-002 5.42813074e-003 0. 0. 0. 0. 4.98608174e-003 0.
      -1.40845068e-002 4.98608174e-003 9.02862009e-003 0.
      6.10973593e-003 1.53321745e-002 0. 0. 9.55073815e-003 0.
      5.42295678e-003 4.46184585e-003 0. 9.83148534e-003 0. 0.
      -1.56250000e-002 0. -1.92307699e-002 0. 0. 1.07884575e-002 0.
      8.49426165e-003 4.60145995e-003 -1.36986300e-002 8.17707554e-003
      0. 0. 4.88695269e-003 0. 0. 0. 0. 1.55184753e-002 0.
      4.80424846e-003 0. 0. 7.91987497e-003 0. 0. 3.86162568e-003
      4.30603884e-003 4.87442967e-003 -1.47058824e-002 -1.92307699e-002
      0. 0. 0. 0. 0. 0. -2.56410260e-002 2.75160931e-002 1.43378014e-002
      -1.58730168e-002 0. -2.98485104e-002 0. 0. 0. 0. 1.97058786e-002
      -4.07586768e-002 7.77674373e-003 0. 5.93724661e-003 0. 0. 0.
      -4.08578850e-002 7.07489764e-003 4.30603884e-003 3.95312766e-003
      0. 0. -3.30086574e-002 6.99108792e-003 0. 8.08587950e-003 0.
      4.68148896e-003 4.78744786e-003 3.53801786e-003 0. 0. 0. 0.
      -1.40845068e-002 -2.27272734e-002 0. 0. 9.58732981e-003 0. 0. 0.
      -1.61840767e-002 3.24953683e-002 3.95312766e-003 0. 0.
      5.17458096e-003 0. 6.56630239e-003 -2.63157897e-002
      4.94110957e-003 0. 0. 0. -1.99999996e-002 8.21912475e-003 0.
      -1.36986300e-002 0. 1.27591696e-002 6.73449878e-003
      8.13336670e-003 0. 1.01613300e-002 0. 8.10514111e-003 0.
      8.30365159e-003 0. 0. 4.87442967e-003 1.01548256e-002 0.
      4.30603884e-003 0. 0. 0. 0. 0. 6.10973593e-003 0. 0.
      5.93724661e-003 0. -9.61538497e-003 0. -1.72413792e-002
      7.53569091e-003 0. 1.04730418e-002 0. 0. 8.43416993e-003 0. 0.
      2.96899397e-003 0. -1.47058824e-002 0. 0. 0. 1.35558397e-002 0.
      5.63893886e-003 5.42949792e-003 0. 0. 0. 0. -1.58730168e-002 0.
      7.14455685e-003 5.42949792e-003 1.01548256e-002 0. 8.72576423e-003
      8.38616863e-003 5.60329389e-003 -1.20481923e-002 3.20133870e-003
      4.88695269e-003 -1.92307699e-002 0. 1.31450938e-002
      4.94110957e-003 0. 1.94930863e-002 4.18727193e-003 0. 0. 0. 0. 0.
      0. 0. -2.63157897e-002 0. 0. 0. 0. 0. -3.01147578e-003 0. 0.
      5.63893886e-003 -1.53846154e-002 -1.70790870e-002 0. 0.
      1.58510916e-002 0. 2.96899397e-003 0. 0. 9.83148534e-003
      8.17707554e-003 -4.90969932e-003 0. 5.99069847e-003 0. 0.
      -1.85185187e-002 3.20133870e-003 -1.40845068e-002 -1.69491526e-002
      0. 0. 0. 0. 6.36919262e-003 -9.61538497e-003 1.01850387e-002
      -8.73269513e-003 0. 0. 1.46595351e-002 0. 9.85293929e-003
      7.07489764e-003 7.95312133e-003 0. 1.01548256e-002 0.
      -1.47058824e-002 5.99069847e-003 8.38616863e-003 -1.69491526e-002
      0. 0. 1.01548256e-002 0. 1.40621755e-002 0. 3.95312766e-003 0. 0.
      1.12299249e-003 0. 0. 0. 0. 0. 0. -6.47159992e-003 0. 0. 0. 0. 0.
      -1.36986300e-002 1.13973161e-002 0. 7.07603572e-003 0.
      -1.38546154e-002 0. 9.83148534e-003 7.95312133e-003
      9.55073815e-003 8.17707554e-003 4.80424846e-003 0. 0. 0.
      8.10483098e-003 0. 2.02266797e-002 4.68148896e-003 1.03907976e-002
      0. 8.30365159e-003 0. 0. 0. 0. 0. -1.51515156e-002 1.16355084e-002
      0. 0. 7.45061645e-003 4.96832840e-003 5.42813074e-003
      5.06284973e-003 0. 4.00252827e-003 0. 0. 0. 0. 7.49862753e-003 0.
      -2.38095243e-002 8.78893025e-003 0. 7.19324499e-003 0. 0. 0. 0.
      5.42813074e-003 0. 3.95312766e-003 5.30642131e-003 8.30365159e-003
      0. -3.00904978e-002 0. 0. -2.16635764e-002 0. 0. 0.
      -4.69975686e-003 0. 5.60329389e-003 7.32976757e-003 0. 0. 0.
      3.97656066e-003 0. 7.14455685e-003 -3.00209131e-002 0.
      1.03907976e-002 0. 3.95312766e-003 0. 1.67723373e-002 0.
      -4.94424440e-002 0. 8.76581483e-003 0. 3.13567626e-003 0.
      4.94110957e-003 0. 1.27591696e-002 0. 0. 0. -9.61538497e-003 0. 0.
      0. 6.10973593e-003 0. 0. 1.12299249e-003 4.19750763e-003
      4.49919188e-003 0. 0. 9.55073815e-003 7.14455685e-003
      3.71481711e-003 -1.69491526e-002 -9.61538497e-003 1.12299249e-003
      9.85293929e-003 -1.92307699e-002 1.13643389e-002 0. 0.
